-0.0007969723,0.002287764,-0.0069138487,-0.0029445938,0.0025535207,-0.0015111419,0.0013704215,0.0007247282,0.00614468,-0.0057121515,-0.005453781,0.0023924839,-0.003220904,-0.0017963619,-0.0038458877,0.00012543652,-0.011281073,-0.008356199,0.00084585027,0.0028792794,0.0044551594,0.0007558999,-0.0049322024,0.0006328346,-0.001962953,-0.0013067526,0.000116135816,-0.0008772458,0.005039095,-0.0057898685,-0.008557757,0.0028115888,0.002425339,-0.007971743,0.00081020384,0.0009886004,0.0044893934,0.0021469626,-0.001763484,-0.0056379936,-0.00092531345,0.0024353606,-0.00057312514,0.0020498144,-0.0058105057,-0.0026805797,0.003366536,0.0003337788,0.00087223726,-0.00030510296,-0.0026760048,0.007404314,-0.0052924305,0.0016815602,0.002580625,-0.0043814424,0.0028593135,-0.002476999,0.0059508383,0.003075461,0.0031146249,-0.007783696,-0.00572866,-0.0006624117,-0.0043968,0.0030863236,0.002292341,0.0031291107,-0.006996571,-0.008726116,-0.004036439,-0.0036799987,0.0016616189,-0.002327532,0.003899532,-0.004884276,-0.00023877367,-0.0012298287,-0.0010825464,-0.0024744458,8.0795115e-05,-0.0010585012,-0.0012170378,0.0027999843,-0.004807245,-0.00064092036,0.0009971089,0.0040033762,-0.010476628,-0.0022949723,0.005521832,0.0025862881,0.00061754056,-0.0027016313,-0.0056879916,6.239765e-05,0.005090367,0.004446865,-0.0017976324,-0.001381708,-0.00090101786,0.0041373884,-0.001953529,-0.0037242007,-0.0064456738,0.0006908657,0.00040665246,-0.0011200632,-0.002241829,0.0063312445,0.0013145821,0.00027780203,-0.0026661959,-0.0014765579,0.005756483,0.004492792,-0.0112129,-0.002292021,0.00053460384,-0.004897227,0.0015094469,0.0002793715,0.0022969288,-0.000767331,-0.003852238,8.5588166e-05,-0.003551731,-0.004158076
