-0.2364992,-0.09171529,-0.074250765,-0.06764643,0.1275807,0.02548394,-0.14916207,-0.2568666,0.20627573,0.23376842,-0.25303978,0.08093117,-0.1470522,-0.21572599,0.016838327,-0.116591476,-0.027467925,0.2384536,-0.13735847,-0.22913669,-0.16491973,-0.13050324,0.16485396,0.18138969,-0.17158344,-0.059775464,0.077905774,-0.15795094,0.1086674,-0.07699214,0.16622415,-0.01451909,0.033305325,-0.21659276,0.02301773,-0.21384493,-0.044651352,0.25786102,0.20312667,0.09258044,-0.13056546,-0.025273092,-0.09559523,-0.20024255,-0.13051623,0.20189884,-0.13574372,-0.018884752,0.012579555,-0.15281379,-0.0036221738,-0.10766138,-0.14976783,-0.25812328,0.14121929,0.12114205,-0.04341717,-0.10100407,-0.032932572,0.026180122,-0.2532072,-0.15409449,0.055195205,0.2379719,0.22207366,-0.11177108,0.14326845,0.26787516,-0.17603125,0.24513277,-0.024327472,0.07500658,0.08900106,0.1995259,-0.23870327,-0.069544956,0.25148445,0.018124748,-0.00097408914,-0.25512427,-0.004241286,-0.018509656,-0.03241475,0.11338251,-0.14398518,-0.2451354,-0.1537433,0.2337243,-0.06862975,0.23428881,-0.20359194,-0.17156498,-0.2622263,0.18633276,0.15744102,0.22032174,0.11689548,0.064393386,-0.11540354,0.105882205,-0.18984154,0.032050468,-0.032717697,0.13635606,0.24683988,0.25547785,0.17040399,-0.113416955,-0.16984628,0.09376017,-0.11063214,0.1733678,-0.2446129,-0.06954134,-0.06950904,-0.091671064,-0.03115705,0.21762852,0.14890838,0.25235268,0.15511352,-0.11365545,-0.2521335,0.08639485,0.20234889,0.026398836,0.0717973,0.17883205,-0.14787807,0.06929932,0.0096951835,0.2165334,-0.11495101,-0.19647658,0.20934114,0.08600411,-0.13238358,-0.21021518,0.026809037,-0.10510662,0.024344705,0.0049292664,0.08497548,-0.2557677,-0.19123873,-0.10139962,-0.14695251,0.22857143,0.07719574,-0.10228305,0.070271075,0.005359689,0.15734944,-0.06177383,0.024677796,-0.18466891,-0.08428623,-0.038278148,0.017155081,0.24241552,0.20409843,-0.07574505,0.13291192,-0.2287595,0.15405418,0.015620125,0.05492702,-0.26678684,-0.16605654,-0.01734134,0.12923017,-0.20388444,0.2319629,-0.19528612,-0.121073894,0.09318567,0.015085159,-0.19231215,0.058518104,-0.035820432,0.042404287,-0.16904067,-0.2409577,-0.0716684,-0.13135555,-0.04643511,0.21112786,-0.090928145,0.16285151,0.18738917,-0.033159852,-0.24346414,-0.111332774,0.222707,0.11084357,-0.17661807,0.10167413,-0.08943032,-0.18226999,0.14629541,-0.193093,0.052507356,-0.16776164,-0.22347063,0.03272157,-0.14855173,-0.18353838,0.0146425795,-0.1984278,0.06686783,0.016142044,0.03056731,0.14881578,0.13592884,-0.18781568,0.024552893,-0.17411655,0.19505149,-0.018452257,-0.12631847,0.008156078,0.14778489,0.20003636,-0.118569456,-0.2552527,-0.067018986,0.09145275,0.24583775,-0.24692307,-0.0048671,0.16642231,0.024580278,0.06846844,-0.08759564,0.15125045,-0.06711769,-0.21581364,0.025929824,0.18893048,-0.022004252,0.03183716,0.1996119,-0.03544964,0.1888971,0.09428917,0.16557312,0.24277979,-0.23395763,-0.06791628,-0.26053616,-0.17772713,0.24750796,0.022802936,0.14536566,-0.26328313,0.25521833,-0.0928248,-0.10612781,-0.17370033,0.19368449,-0.02633094,0.22401431,0.22969261,-0.080199525,-0.20581627,0.16568407,-0.23482284,0.14367732,0.07431108,-0.0039712014,0.16793397,-0.19031274,-0.15483814,-0.0091528585,0.15257768,-0.11179204,-0.051235083,-0.15727048,0.119605064,-0.002398067,-0.13950583,-0.10186818,-0.2014775,-0.26290882,0.09429788,0.25916374,0.16953494,-0.0960751,-0.14825422,-0.121328935,0.062426828,0.15780637,0.12961403,0.051556416,-0.03507693,0.074054465,-0.13402459,-0.016973212,5.6242865e-05,-0.011318721,0.068071,0.07870267,-0.18446451,-0.16383901,0.093250215,0.009523716,-0.1458873,0.26526612,-0.05428595,0.0032319813,-0.02085399,0.26293927,-0.18918744,-0.08381767,-0.26252398,0.20075974,-0.0024984675,-0.118440494,-0.09675345,0.26660514,-0.021375023,-0.16211039,0.0012613665,0.24417925,-0.19820768,0.25268066,0.16104214,-0.047118887,-0.23366289,-0.17016059,0.07665466,0.07217053,-0.1757559,-0.15254065,-0.18187024,0.25810236,-0.0035939445,-0.1762433,-0.00028997415,-0.017854322,0.22950563,0.005019597,-0.054197535,-0.11288389,-0.0386983,0.05317706,-0.15039894,-0.07150273,-0.2254671,-0.055542782,-0.18387797,0.13440153,0.013835769,-0.2150152,0.097500324,0.070737645,0.08615036,-0.15613475,0.16899364,0.25085053,0.25316593,0.12814608,0.12132933,0.19736151,0.044018198,-0.03944349,0.20801948,0.024939671,0.049217656,-0.088216506,-0.14103234,0.2479564,-0.15508682,0.15991582,0.1278896,-0.042000894,0.05171282,0.116335966,-0.20683776,0.044175252,0.15101895,0.07845146,0.21796253,0.08816673,-0.16057396,0.18441635,0.14621246,0.03273674,0.26568598,0.0975721,-0.039477,-0.0642317,0.22474661,0.21609393,0.17150149,-0.18980482,-0.014970889,-0.23430559,0.17314522,-0.10285682,-0.028281886,0.10158168,-0.0009814099,-0.055966,0.028371599,0.16853806,-0.093931496,0.19712001,0.22452769,0.029893298,0.044850826,-0.15449022,-0.07330798,-0.14709732,-0.25900173,-0.042490594,-0.20252721,0.17889842,0.24155211,0.24508184,0.17275077,0.2146724,0.22041693,0.11517504,-0.002493772,-0.08787083,0.1500807,-0.20680296,0.23902078,0.2404117,0.15571198,0.23474807,0.11590858,-0.13470627,-0.022109991,-0.12597662,0.007300744,-0.14395487,0.17078033,-0.19793776,0.17923301,-0.041995373,-0.13733152,-0.1437777,0.013819352,-0.21164232,-0.13179687,-0.22039701,0.037432842,-0.14771827,0.18762627,-0.068939455,0.12119732,0.07969057,-0.23227182,0.2544431,0.19267444,-0.12363343,0.11207862,-0.14371946,0.21288747,-0.076478004,0.13979647,-0.12209104,0.17243837,0.08266541,-0.041179184,-0.04143196,-0.2535009,0.021072835,0.0044928957,0.0017167961,-0.24293153,-0.20849895,0.106660746,-0.011225207,-0.059676748,-0.1207985,-0.037615538,0.10662724,0.17540607,0.13412914,-0.07381627,-0.16165,0.0974358,-0.12423537,0.0991648,-0.083989404,-0.059545763,0.045372605,0.13251331,0.2639212,-0.019037493,0.08822445,-0.14165941,-0.056886293,0.16347182,0.059103385,0.028161105,0.17486106,-0.023354478,0.054154553,-0.15089245,0.20933753,-0.20929065,0.21092686,0.04420481,-0.1328408,0.02532128,0.02125039,-0.15057087,0.11184643,0.15854856,-0.18307617,0.03206251,-0.25358126,0.14098972,-0.05503399,-0.2313466,0.2394869,-0.21677274,0.11563775,-0.030311162,-0.03282465,-0.0005799429,0.12976973,-0.09216714,-0.14317875,-0.020258063,0.26966786,0.23161398,0.24897839,-0.25141788,-0.06509555,-0.26648632,-0.15845847,0.19591549,-0.23670949,-0.015890293,-0.08681413,0.001737749,0.20094983,-0.16048838,0.11848676,-0.14719814,0.068528935,0.077243134,-0.17779313,-0.19279115,0.068498656,0.23417929,0.16012195,0.03133732,0.18978438,0.018221568,0.014462764,0.26825118,-0.01669064,0.113172814,0.060852963,0.21883851,0.11511515,0.116632126,0.15040058,0.22575247,0.209981,-0.079692215,0.00779717,0.17118227,0.02174414,0.017375544,-0.13297702,-0.061733536,-0.026440807,0.074561104,0.09850812,-0.14131767,0.20300113,0.20408142,-0.07614329,0.2060439,-0.27060235,-0.09503565,-0.008257018,-0.26102382,0.0076494887,0.18902314,0.20632419,0.2032066,0.111537896,0.21598889,-0.041786276,-0.09483212,-0.25437373,0.17193474,-0.060123373,0.014460029,0.06253695,-0.09340636,-0.26550627,-0.2293942,0.1210828,-0.11065756,0.2512058,0.092731744,-0.0683891,-0.049198814,-0.2579574,0.121925615,-0.21248639,0.0351854,0.18568811,0.012673807,-0.2462992,-0.18644582,-0.14331186,0.11938647,0.019430708,-0.23463252,0.13628924,0.15659757,-0.18540448,0.18076716,-0.07834293,0.03200216,-0.26178932,0.11363523,0.24455571,0.23289658,0.14611006,0.009984963,-0.01161869,-0.25818545,0.068157524,0.06809443,-0.017651934,-0.1629337,0.022374576,0.07072854,0.12959242,-0.07715933,-0.043428786,0.2670248,-0.2519806,-0.17081583,0.0857808,0.119999185,0.02925067,-0.16823953,0.009602856,0.1560033,0.21207337,0.25227737,0.1395711,0.08640677,-0.24976707,-0.08983477,0.05791907,-0.15770373,0.24105579,0.18542026,-0.11682214,0.08937708,-0.08111527,-0.07944388,-0.21763003,-0.21293545,0.19169782,-0.08042124,-0.23898536,-0.055847548,0.1494652,-0.14814678,-0.1719971,-0.20856476,-0.15582171,0.21387333,0.25468725,0.19724533,-0.041168254,-0.07141034,0.1261279,-0.08161526,0.08091068,-0.22057888,-0.15827969,0.16835642,0.21369094,0.06535399,0.15171392,-0.2657977,0.16384943,0.10743643,0.25670117,-0.19986612,-0.22007652,0.07974531,-0.058776334,0.011275016,-0.00066630065,0.095244154,-0.16290367,-0.037175007,-0.15681583,-0.19461557,0.16349782,0.12919529,-0.1084519,0.013691507,-0.19893545,0.08289812,-0.16578987,0.1848588,-0.11660288,-0.13029641,-0.22075701,-0.14896627,-0.106528096,0.23417376,-0.12314368,-0.09673589,-0.25464666,-0.11979722,0.24333036,0.12430345,0.1019471,-0.10452518,-0.22683108,-0.13817728,0.0016695636,0.049403377,-0.061983116,0.2410477,0.053775106,0.08041816,-0.16347843,-0.13635263,-0.12881014,0.0037246891,0.12969488,-0.10386653,0.12763073,0.15650344,0.2158084,-0.22767086,-0.22939014,0.20488897,-0.18187873,0.21538928,-0.06475341,-0.11743794,-0.074066006,0.17811464,-0.054874107,-0.20973848,-0.10437772,-0.02597601,-0.04471407,0.08141412,0.24939692,0.26656675,-0.23982024,-0.023923267,-0.051145643,0.068826854,-0.23680227,0.24401623,-0.11698102,-0.21230853,-0.0061028814,-0.17512631,0.1040578,-0.14642727,-0.04645854,0.23447734,-0.25500447,0.24768952,-0.2357371,0.25725782,0.140706,-0.030174837,0.045475636,0.22952357,0.2651595,-0.10348296,-0.19624844,-0.1687876,0.09275374,0.21039353,0.10583164,0.121968575,0.08627091,-0.18849534,0.049798317,-0.0050040707,-0.19310565,-0.11499559,0.0121605685,-0.20710962,0.16174069,-0.0412539,-0.14212067,0.22465068,-0.03772831,-0.040860347,-0.12863526,0.23224607,0.023883533,-0.22867164,-0.23090136,-0.18509501,0.074835084,0.057883658,0.13501346,0.26646224,-0.23205903,0.100689076,-0.16308919,-0.17076561,0.09318035,0.05208663,0.25801682,-0.05763182,0.07311265,-0.258539,-0.06940182,0.034882985,-0.03751646,0.10081115,-0.102840215,0.22282825,-0.17270833,-0.11495766,0.22489378,-0.13203473,-0.0075864205,0.07767922,0.16818085,-0.13883835,0.1518863,-0.057074435,0.009999319,0.040584974,-0.122185044,-0.24329193,0.11984676,-0.055662744,0.019908283,0.1006877,0.11182177,0.08110959,0.21193016,0.0015982422,0.21477062,-0.029466495,0.08450095,0.017032243,-0.14985804,0.06563375,0.07795775,-0.1422358,-0.18486474,0.23709998,0.26346293,0.04905054,0.0626965,0.0066474797,0.18605751,-0.16286412,0.03496758,-0.07886356,0.06956977,-0.15585265,-0.26235056,-0.0022790781,-0.26548088,0.034387253,0.25207508,-0.114169165,0.08364167,0.08000661,0.101668894,-0.034825332,-0.05135156,-0.07076378,0.15422246,-0.2007016,-0.029113779,0.11835988,0.06976687,-0.06857732,-0.20021614,0.15794587,0.22221658,-0.09877221,-0.19378892
