-0.06499526,0.02164673,-0.006847832,-0.025839835,0.015642043,0.011211356,0.0064976877,0.004992543,-0.055954576,0.011975081,0.04507821,-0.05098851,0.0016990397,0.012397379,0.02485762,0.030956628,-0.03185126,-0.078357875,-0.062224016,0.07144498,-0.026957402,0.06713412,0.029068263,0.05876987,0.06689343,0.029295042,0.0100536635,-0.02316593,-0.010353345,-0.06671111,-0.022314057,0.009719096,-0.02861648,0.03101548,-0.004076835,0.040959198,0.022600332,-0.0052003814,0.06832169,0.0062094824,-0.06882349,0.036264442,0.028104972,-0.00437284,-0.061491206,0.04606075,-0.018265087,-0.006157549,0.044305343,0.04805606,-0.04616639,-0.049572207,0.05070965,-0.036248937,-0.010787031,-0.0017151728,0.06259286,0.032551445,0.057784587,0.02141175,-0.016727075,0.033210546,0.018441034,-0.012747265,-0.061264805,-0.055783324,-0.010193092,0.055373408,0.031627476,0.059713237,0.05436843,-0.02244363,-0.029233396,0.051582094,0.060167346,0.07158168,0.0074782334,-0.05621224,-0.043768287,-0.07809009,0.035452634,0.0023517688,-0.059457682,0.022985697,-0.0038847476,-0.022679448,-0.037089072,-0.031630762,-0.038215764,-0.030512914,-0.057633087,-0.084105164,-0.05054359,-0.018070446,0.052473687,0.005813184,-0.060846176,-0.0069301454,0.007928149,-0.055463377,-0.047702823,-0.02539505,0.030184098,-0.063686125,0.05638662,-0.008346828,0.023567732,-0.010419017,0.014015356,0.07149851,0.0045341123,0.01668532,-0.050879665,0.07049236,0.05678978,-6.592633e-05,-0.065040976,-0.035220355,0.031620927,0.01774742,-0.028536908,-0.06279751,0.019584697,0.052663427,0.062177017,0.0076959766,-0.008292764,0.015787909,-0.026956396,-0.057228852,0.014557295,0.017918244,-0.054600246,-0.0718025,0.03926653,-0.023079384,-0.051269963,-0.060008716,-0.03352642,-0.06893942,0.050323293,0.0042569526,-0.040114466,-0.0712259,-0.054890323,0.023959335,0.055126116,-0.030622352,-0.07859667,-0.042288747,0.072601065,0.045465894,0.012094715,0.045029454,0.006642894,2.4001145e-05,0.011909543,-0.023779754,-0.038191464,0.041376926,0.021159071,-0.061735354,-0.06430242,-0.063899286,0.0024118202,-0.020604946,0.0039575193,0.029686984,0.053302594,0.02258348,0.05454526,-0.06769711,0.008484916,-0.034955088,0.025972586,-0.014515936,0.048594486,0.045635726,-0.059009552,-0.06547789,-0.021428652,-0.07437545,0.030460045,0.0005880066,0.020923669,0.00604258,-0.063516766,0.017812114,0.042181518,0.01650209,0.032305725,-0.040504128,0.03112286,0.040496506,0.013088681,-0.0061862953,-0.05219458,-0.008995785,0.058930583,-0.0019002135,-0.06681147,0.04232442,0.062230565,-0.047948062,-0.036809497,0.024521224,-0.051840127,0.032181084,-0.07155502,0.03338317,-0.016539179,-0.07260446,-0.03981214,-0.018037379,0.019593615,0.039272055,-0.04100878,0.012237947,0.057037733,0.047754765,-0.03236286,-0.08146269,0.04249417,0.049639978,-0.029917758,0.04566896,-0.031586,-0.03568812,0.06340063,-0.0769096,0.034984607,0.05648355,0.025016671,-0.039361224,0.057765033,0.07083976,0.058019936,0.02039028,0.021797623,-0.01419756,0.034730077,0.016615082,-0.07084337,0.060607985,-0.009945527,-0.06659633,0.02270975,-0.034175433,0.049165078,0.07405355,0.061563984,-0.011950022,-0.06290375,0.045987114,-0.012481087,-0.023706147,0.07432149,0.086544074,-0.017521374,-0.03963811,0.0768967,0.06853558,-0.06795314,-0.026923869,0.003402803,0.08038926,-0.029363919,-0.0043158494,-0.054567214,-0.021423986,-0.017747346,-0.046262197,-0.028990502,0.007098711,0.038817212,-0.011900142,0.06900781,0.034061007,-0.021759788,0.014973693,-0.022460628,0.032895118,-0.009763238,0.054810833,-0.077371515,0.07315549,0.011149973,0.05354756,0.0680909,0.046358332,-0.034189723,-0.027129874,-0.03263668,0.044131495,-0.07411426,-0.0034395573,-0.0041538393,-0.03838803,-0.030740153,0.019369138,0.02198086,0.012263338,0.07317335,-0.018525146,0.02487345,-0.027749062,0.0054641124,-0.043567784,-0.04143709,-0.039698914,-0.060612038,-0.0141599635,0.0032175733,0.053966217,0.042172283,-0.0485394,-0.059186995,0.06607633,0.0446989,0.01306705,0.033324998,0.06927306,-0.004830925,0.019355122,0.016765222,0.004544097,-0.025629364,0.0658173,0.04893595,-0.060898047,-0.058669064,-0.065641314,-0.017816145,-0.04169637,0.05351676,0.07858525,0.06421666,-0.020424148,-0.0061387634,-0.025709182,-0.034859255,-0.016140778,0.0020758174,-0.00783494,0.020626271,-0.027722128,-0.061737984,-0.016800411,-0.050128996,0.03129366,0.03551662,-0.01821007,0.06543146,-0.060987502,0.03445067,-0.032884527,0.054538064,0.0026964573,-0.034943394,0.04899323,0.028413527,0.06801601,-0.04370912,0.03948127,0.07144584,0.026997164,0.044793706,-0.06635237,0.030233424,-0.045701213,0.011651086,0.017165076,0.021688014,-0.05629015,-0.058830924,-0.027627774,-0.050894614,-0.0018130164,-0.015700743,0.052204255,0.049833164,0.024854831,0.036638044,-0.054583807,0.030836541,0.018697293,0.023855306,0.03622389,0.028843516,0.057343945,-0.007132341,0.013989316,0.04114352,-0.0050538722,0.057958655,0.07010254,-0.015651785,-0.023973316,-0.04538552,0.014624137,-0.06020225,0.010342753,0.036847398,0.05888302,0.038035452,0.026445968,-0.02107317,-0.03718871,-0.03409817,-0.051511668,-0.018021217,0.07758671,-0.060379468,0.030715311,0.02771935,-0.03480287,0.024140775,0.07060992,0.038774222,0.023331482,0.008102873,0.07461479,0.033868693,-0.0076806718,-0.044651054,-0.011029117,-0.025750935,0.05453545,0.0407668,0.058735434,-0.0011398939,0.057567403,-0.06318293,-0.017121265,-0.010893382,0.0067440597,0.060421668,0.07126784,-0.034520615,0.025664186,-0.044627085,0.067068905,-0.02185952,0.05735585,-0.036187135,0.035403777,0.00831674,0.06318,-0.022011623,0.00990469,0.045410346,0.016215332,0.029906899,0.040024184,0.04237035,-0.055624723,0.015633909,-0.042109188,-0.005487049,-0.018180797,0.0063492004,0.03445533,0.026506323,-0.0327868,0.032315202,0.0039562806,-0.005928941,0.013176799,0.00818792,0.012428548,-0.03189387,-0.07105905,0.0024855542,0.07350436,-0.05369078,0.05829169,0.0006077797,0.038112026,-0.06050232,-0.003048326,0.03251129,-0.049380288,0.012747522,0.05325534,-0.030545225,0.081958175,-0.032195035,-0.041772828,-0.051855557,-0.019850206,-0.0075907325,-0.028541293,0.031419225,0.06125002,-0.013821628,0.056306086,-0.06882584,-0.020698044,0.027913986,0.05310245,0.00343688,0.035219643,-0.045555037,-0.074652,-0.01352804,0.016853916,0.0076732133,-0.000928521,-0.058490768,-0.055498146,0.011586283,0.009897903
