0.05436332,0.03542935,-0.017911904,-0.030675512,-0.036124296,0.055508412,0.024899906,-0.06275515,-0.02466039,-0.0056934534,0.005794678,-0.02335553,-0.007176218,0.026316654,0.0006271604,-0.043404274,-0.012720384,0.0039848676,-0.016193755,-0.048487283,0.038311563,0.049197666,-0.04901765,-0.008906271,0.013837794,-0.002076826,0.012911037,-0.015595643,-0.061889008,-0.031297803,-0.037962716,-0.011377163,-0.00010348395,-0.046467282,0.056570865,-0.040915657,0.03170923,0.040773958,0.021648979,-0.0087207835,-0.007029744,-0.034744702,0.039553784,0.031152532,-0.009575408,-0.019737922,0.03083289,0.024341632,-0.02128113,0.025870163,0.043608688,-0.043216564,-0.014345832,-0.05514746,0.019991241,0.04056152,0.03755731,-0.007929917,0.05195523,0.017047599,-0.008300949,-0.0059605734,-0.050083406,-0.0095075825,0.038058415,0.038245834,-0.0075552557,-0.056966275,-0.025388002,0.03005578,0.014185883,0.009527884,-0.020297471,0.003935922,0.026481327,-0.047501717,-0.04974107,-0.041888244,0.053842384,0.0569734,0.012446816,-0.051288784,0.04459284,-0.054315165,-0.02553615,-0.008511133,-0.06246828,-0.022284843,0.05398918,-0.034510523,0.017259683,0.04294213,0.03838469,-0.0405675,-0.00737646,-0.03889776,0.026417647,-0.042527366,-0.06073331,0.031274274,-0.0534285,-0.022692665,0.006125529,0.033211745,-0.02585417,0.016580647,0.043694556,0.027764687,-0.03759617,0.02856431,-0.028620351,-0.013256401,-0.037447274,0.019789044,-0.05596316,-0.0032084011,0.05173471,-0.05842625,0.062003884,0.026120838,0.039642923,0.056252256,-0.028442346,-0.0071599465,-0.021182185,-0.018246643,-0.03936767,-0.03688325,0.0040597674,0.059068404,-0.04490576,0.008248717,0.021570709,0.034448188,-0.022363752,-0.036897726,-0.038281642,-0.020549249,0.06153238,0.06452128,0.04956165,-0.049752392,-0.015005507,-0.020193603,-0.051761717,0.042503476,-0.05203909,0.04025167,-0.032719947,-0.04849504,0.014734472,-0.045547895,0.03952933,-0.040508665,-0.05185608,0.039238416,0.028379105,0.016390175,-0.014823278,-0.03662924,-0.015750248,0.027060693,-0.0070267078,-0.02530198,0.0012137366,0.017907701,0.05379666,-0.059355147,-0.015587656,-0.007599792,0.04381006,0.03563352,-0.019773044,0.035182405,0.033115588,-0.030213645,0.050696053,0.028123682,0.034586918,-0.05043584,0.016417531,0.0128954165,0.06543492,0.0048199673,-0.004588492,0.055060916,0.031700075,-0.049014658,-0.051936507,-0.0377355,-0.050764434,-0.024904523,0.00940074,0.043432184,-0.011841591,-0.011733744,0.066057324,-0.03874696,-0.0068386747,-0.025784815,0.031546827,0.0166109,-0.052023225,0.01356271,0.021149945,-0.029872362,-0.013578761,0.046215326,-0.0577453,-0.041561753,0.02580725,0.047817737,0.01520751,0.06579885,0.03607638,0.037271656,-0.021866843,-0.036494814,-0.032562185,0.027378846,0.005370359,-0.05482553,0.03004682,0.03201957,0.03514812,0.02503098,0.024278525,-0.008308249,-0.051432908,-0.017949793,0.0013885467,0.06530088,0.01320986,-0.04878695,-0.05319985,-0.0037700841,-0.040627956,0.031064825,0.0020650476,0.016698707,0.0115350075,0.030307285,0.056975707,-0.007987186,0.045584604,0.028853845,0.020340176,-0.043807328,0.063207485,-0.05133637,-0.0054290695,0.013939744,0.069190145,-0.04976374,-0.014473993,-0.049928147,0.02065752,-0.0024406235,-0.054401673,-0.03134035,0.0569095,0.048615452,0.034024436,0.010903103,0.0533446,0.00023454003,0.008854961,-0.005348812,0.0428841,0.031566318,0.057957634,-0.035467505,-0.033728383,-0.03912554,0.042845115,0.052351434,0.05544661,0.027647898,-0.023723735,-0.058200013,0.01069464,0.0351014,0.017216679,0.032750037,0.0006433298,-0.0064826584,0.019974593,0.040792134,0.04955423,0.02407006,-0.049727134,-0.027824579,0.012743257,0.011195035,-0.024757922,-0.0027471557,-0.0057689184,-0.03075971,0.029816378,0.024306592,-0.057159144,-0.015904263,0.01837272,-0.021201175,-0.05506985,0.03554637,0.045723543,-0.046647474,0.015290184,-0.047669847,-0.02317099,-0.05139506,-0.051453754,0.030200448,-0.032305736,-0.017575162,-0.05660706,-0.023299163,-0.051035747,0.033937223,-0.0236007,0.05458212,0.06369251,-0.03188944,-0.0409789,-0.009652912,-0.013015291,-0.058341924,-0.060438313,-0.010588821,-0.043062337,0.029687319,-0.01047041,-0.0068543777,-0.05795634,0.008118553,0.029293751,0.019236367,-0.020170342,-0.051952586,-0.06033212,0.007785877,0.020775832,0.007824762,-0.029344276,0.0058484087,0.056539834,0.022384848,0.04046896,0.0355789,0.045125075,0.032873467,-0.047040515,0.06189136,0.04606262,-0.039394923,-0.017608793,0.055548653,-0.016858917,0.00083154545,-0.027455144,-0.048962757,0.0130536,0.025288269,-0.027453056,-0.030142978,-0.008042391,-0.046367742,0.05183073,-0.06632902,0.032209136,-0.0029535415,-0.010213495,-0.0366428,-0.05627703,0.05134739,0.049376227,0.035236023,0.00921952,0.05314909,0.059671964,-0.012089804,0.05435823,0.012065765,0.05252676,-0.020488638,0.00040627876,0.053598724,0.019605849,0.018851973,-0.010672721,-0.011465333,0.00684983,-0.03945332,-0.036981754,-0.050791916,-0.055383712,0.023119187,0.00021474948,-0.03333064,0.021193221,0.049124263,-0.041548014,-0.064029194,-0.0048248563,-0.027848255,0.01644278,-0.03041499,-0.008113937,0.023090402,-0.018394224,-0.016809188,-0.043491162,-0.040684044,0.05727791,-0.0018431495,0.02848534,0.033264413,0.06332668,-0.049737602,0.0018283646,-0.006150174,0.045016084,-0.00037299652,0.004900446,-0.04402957,0.00073502865,-0.039908156,-0.00017246653,0.032017946,-0.056512818,0.030108958,-0.007933192,-0.038819794,-0.026788913,0.052781217,0.015122031,-0.02789294,0.015401438,0.018309677,-0.0015784121,0.002924872,0.01625146,-0.024614332,0.056629762,-0.057787377,0.0011830062,-0.051321425,-0.038937192,-0.026547,0.057995908,-0.03653215,0.00041746075,-0.035286456,-0.05510773,-0.041407973,-0.028265819,0.038462304,0.016176317,-0.019998793,0.007941837,0.012271923,-0.047911905,-0.015838662,-0.05718776,-0.01257014,-0.048545025,-0.034008328,0.021196872,-0.018007562,-0.05392672,0.019528486,0.01736958,0.026094679,0.008589644,0.0016359339,0.05713487,-0.05817437,-0.006335157,0.028473994,0.0044042366,0.03640022,-0.04979214,0.031738527,-0.049817078,0.0020633927,0.0103726,0.032467842,-0.007087147,-0.063799515,-0.048233014,0.053494677,0.028819464,-0.0071508843,0.008441476,-0.011081065,0.0329144,0.050536763,0.058425322,0.052430518,0.048450693,0.017398674,-0.021242356,-0.021864194,-0.043355137,0.042244695,-0.042051002,-0.040589526,0.017614167,-0.017492104,0.037414253,0.025177348,0.0043857526,-0.048201986,0.04085669,-0.060988877,-0.0331423,-0.06302042,-0.04034514,-0.050976865,0.030384168,-0.059380308,-0.046320163,-0.031830657,0.01135714,0.053818196,-0.031524293,0.01089057,0.027146673,-0.02801849,-0.033484202,0.010221173,-0.03327226,0.005466643,0.014989408,0.004197999,0.057613045,0.03647957,-0.02046502,-0.026481863,0.014135626,0.044699453,0.049718596,-0.022880632,0.06294362,0.057009272,0.04882033,-0.04620755,0.04262279,-0.057126302,-0.02028784,-0.040355626,-0.020105138,0.011204541,0.014396148,0.051556773,0.046630584,-0.009466475,-0.062609926,-0.04494251,0.041000895,0.008703158,0.030860888,0.026914107,0.024821252,0.018175684,-0.05935073,0.031906128,-0.045039438,-0.044757586,0.03570067,0.0015969612,0.04536779,-0.054869786,0.013006695,0.014100147,0.01260604,-0.019487549,-0.022295669,0.063480385,0.023662258,0.052169703,0.028895829,-0.039435163,0.028788665,0.03195036,0.0028364882,0.050501946,-0.03905707,0.029540336,0.021236924,-0.06302253,0.036641646,-0.016629893,-0.0010546711,0.014223043,-0.052095488,0.032437794,-0.035180464,-0.02391747,-0.05943443,0.0011052141,-0.03787051,0.023021113,0.006412694,0.0004927281,0.061425686,0.045571916,-0.0037784278,-0.05624044,0.02083477,-0.035191417,-0.035917528,-0.059248045,0.045152165,-0.014299519,-0.022475554,-0.03635442,-0.009668294,-0.030977525,0.033562154,0.03147526,0.012967415,0.016406909,-0.03378047,-0.05134521,-0.0053109024,0.0060812877,-0.028346092,0.011517033,-0.014691608,-0.01738733,-0.045538936,-0.045829035,-0.02201286,0.03978152,-0.020906754,-0.029154431,0.01824116,-0.037083242,0.02965779,-0.056864858,0.017203111,0.027875256,0.028218161,-0.045786187,-0.0031260871,0.00030437426,0.021555895,0.021724023,-0.019925017,-0.05783952,-0.025816325,0.04157483,0.031668223,0.013481626,0.014744876,-0.04323875,-0.009728212,0.026577529,0.01091129,-0.042764336,0.026547864,-0.025134992,0.0059458157,0.012086479,-0.041865736,0.016831262,0.028920207,0.06026466,0.05613455,-0.047059614,0.048347946,-0.010747254,-0.049060173,-0.010995798,-0.058841426,0.047666777,-0.058367312,0.016277626,-0.006806666,-0.0075681163,0.058273427,0.044721983,-0.0170294,0.06300157,0.04455502,0.01775842,0.057556532,0.01546149,-0.05636961,-0.04762249,-0.030928252,0.013747434,0.026137281,0.009573518,-0.035216715,0.032780103,-0.044380017,0.011044572,-0.039666906,0.051376536,-0.006388057,0.0019675347,0.022145938,-0.021235593,0.055530623,-0.034513906,0.06021773,-0.021009529,-0.023999486,-0.049336925,-0.015940363,0.01751054,0.019067515,-0.0005641169,0.039536536,0.021384267,0.031423792,-0.028904215,0.02699377,-0.05095888,0.04048924,-0.00020977278,0.056027487,-0.047621697,0.052325577,-0.04149767,0.018242393,-0.013134503,-0.026542166,0.0039350004,-0.047357187,0.01357729,-0.0010345377,-0.014676858,-0.043719836,-0.042314596,0.027168771,-0.05991979,0.0319559,-0.031969868,0.042873822,-0.039365552,0.03250233,0.039036904,0.038708545,-0.0012396616,-0.05019025,0.001954453,0.036651723,0.008622196,-0.044709206,-0.054010034,-0.05938967,-0.04431057,0.05451709,-0.031386554,-0.027154319,0.061581537,0.017828532,0.00086656073,-0.0551863,-0.060227565,0.05183986,-0.005133583,0.041743387,-0.020357734,0.007571969,-0.026406322,-0.0075998954,-0.012545977,-0.037948936,0.04175555,-0.038279556,0.023034547,-0.015708359,0.034641206,0.006991224,0.017020794,-0.018161975,-0.039888583,-0.020821635,0.0073118005,-0.023518771,0.051141288,0.019938484,-0.014234327,0.033928715,0.029820077,-0.054121442,0.05586222,-0.042082362,-0.051189076,-0.029763937,0.032708168,-0.017780598,-0.04239315,0.0054298528,0.029278524,0.01305178,0.02904558,-0.054225024,0.054819614,-0.015286416,-0.047238268,-0.0533676,-0.0008614749,-0.026070252,-0.0022508267,0.061796874,0.048304908,0.027793963,0.011939004,0.016882764,0.015916327,0.038441572,-0.03487593,0.05855538,0.025935326,-0.014146633,-0.039711244,-0.021652516,0.010007676,-0.041759856,-0.01651407,0.031497933,-0.022656363,0.03774517,-0.017265901,0.042607103,-0.037551872,-0.052872412,0.0338768,-0.02649676,0.00998164,-0.03843009,0.04900205,0.02589412,-0.02247328,-0.05144521,-0.02513206,-0.0034474602,-0.052543774,0.06213109,0.009830223,-0.015043601,0.038208447,-0.032251135,-0.03850153,-0.045433365,-0.021419186,0.022333723,0.05549144,-0.05559072,0.04565612,-0.033086114,-0.056939743,0.044879872,0.03293589,-0.019830044,-0.0032954286,-0.013009947,-0.014207869,0.004491155,-0.011978528,-0.03113797,-0.016526148,0.025503993,0.05922287,0.042816684,-0.0027447995,0.056858785,0.010588001,0.03642133,-0.019967563,0.026263159,-0.053897694,-0.018827533,0.03609628,-0.014607188,0.03568755,0.055361122,-0.020991515,-0.0012778114,0.033883493,0.03839748,0.017196737,-0.025921661,-0.03147006,0.0051247,0.032930776,-0.049590107,-0.055902213,-0.04816149,-0.0003170038,-0.039250504,-0.058462612,0.06317886,-0.016105887,-0.058984116,-0.03456816,-0.043693364,0.04605151,0.049979992,0.0016748197,0.04002863,-0.021754146,-0.056196053,-0.00565164,-0.020019617,-0.01737152,-0.033223726,-0.0012915073,0.05289936,-0.04998944,0.03608293,-0.0037624903,0.03637165,0.06487699,-0.01997691,0.06661892,0.02330641,0.026178919,-0.03729322,-0.036783263,-0.004354008,-0.05364506,-0.049111173,0.017573817,-0.0024371063,0.0019716423,0.042692147,-0.009261418,-0.042105533,-0.052261144,-0.061720632,-0.027328294,-0.04512225,0.011972258,-0.06035913,-0.0074879956,-0.06394902,-0.06558363,0.031598143,-0.027488763,0.03831476,-0.016073173,0.049160063,-0.018584572,0.008494126,0.053082578,0.03902491,-0.026941746,-0.00011706192,-0.0266992,-0.017042985,0.038449958,-0.0066670845,-0.047626093,0.015998967,0.061203837,0.008453582,-0.016246337,0.027809657,-0.021660628,0.0660375,0.044479158,0.019180246,0.012855178,-0.041595742,0.032837413,-0.04677809,-0.05448118,-0.04521875,0.019388191,0.054888144,-0.029935282,-0.062232558,-0.06598568,-0.062905475,0.005489178,0.03993491,-0.054873697,0.013868105,0.014397448,0.006557101,-0.01682558,-0.007002742,-0.055744275,-0.050104417,-0.025771435,-0.0518623,-0.06129408,0.0374384,0.011087755,0.024958845,0.04557255,-0.050219588,0.06185554,0.016404716,0.028028578,-0.015504595,-0.0513042,0.040211365,-0.044425674,0.03145116,-0.027965654,0.05327892,0.00043240484,-0.043667763,0.013615111,-0.030599495,0.045906834,-0.017298825,0.042913437,0.049310718,0.03333817,-0.021379745,0.05745755,-0.033897433,-0.06663743,-0.018803794,0.051813938,0.018158112,0.045991886,0.0488076,0.016562015,-0.020952316,0.04950261,0.053848058,0.05750887,0.016144734,0.0022032002,-0.0327755,0.0009927247,-0.05077772,0.024001576,-0.025164552,0.045306973,0.010026725,0.024473038,0.015839014,-0.019213904,-0.056377042,-0.04277289,0.036829434,0.026021643,-0.039890047,-0.026426097,0.03500405,-0.02642081,0.011344677,-0.038054638,0.058742214,-0.058927804,-0.012960772,0.047478743,0.027701069,0.034555968,-0.03921728,0.053730004,0.038150758,-0.006663982,-0.005902758,-0.024145717,-0.054142565,-0.04734753,-0.009311916,0.057908893,0.050806805,0.011040214,0.02276596,-0.0005244222,-0.045907006,-0.024836913,-0.0025072987,-0.04263598,-0.02254194,0.025642607,-0.042819813,-0.05205666,0.057998687,-0.050464913,-0.024588075,-0.01722462,-0.038751528,-0.012449693,-0.044233933,0.013532757,-0.018440234,0.018348342,-0.0155613925,-0.04172273,-0.050894514,-0.024815654,-0.06369068,0.03410898,0.023804087,0.017313007,-0.024519432,-0.0074243774,-0.041945368,-0.0034439573,0.021861345,0.009510921,-0.034990177,-0.0519773,0.04404842,-0.049052767,-0.013041971,0.006410379,0.037900895,-0.02892802,-0.017066166,-0.028355021,-0.022934563,-0.0012497786,-0.046195045,-0.025802456,-0.032227725,-0.04601343,-0.036998667,-0.003880362,0.030232776,-0.040650632,-0.020869516,0.04797688,-0.0070400545,-0.013201288,0.031509645,-0.003912554,0.0010521659,0.03044671,-0.03604877,-0.018126061,0.008556973,0.014547544,0.0047257394,0.05697018,-0.06147319,-0.05301946,-0.05405314,-0.012888127,-0.045074195,-0.052691437,0.035555907,0.0040535685,-0.047844827,-0.043762125,-0.048175,-0.035642907,-0.0031207567,0.038466223,-0.032771785,-0.05006652,0.04069282,-0.05360593,0.011419829,0.030427273,0.06146179,0.0033715866,0.05872844,-0.05777139,0.062451337,-0.012127576,-0.051833548,0.038765017,0.009179751,0.0026308657,-0.03589906,0.05463716,-0.0006496368,0.025956273,0.0079088975,0.030895773,-0.038935475,-0.04330374,0.030207215,-0.015029217,0.0028666344,0.045008026,-0.0517761,-0.007218307,-0.0015038046,0.061155938,0.06609222,0.052040868,-0.056546323,0.015177457,-0.03464768,0.006076875,-0.041357227,0.008807322,0.0040054326,-0.0462801,-0.052663743,-0.013558629,0.007578045,-0.051367924,-0.040541776,0.014190739,0.0020758023,-0.042537034,0.044503078,0.003041982,-0.059926443,-0.018568784,-0.005424373,0.052321404,-0.012771987,0.013548184,0.013993392,0.019542243,0.0022907425,0.045574356,0.002030589,-0.02145798,-0.037993934,0.012393432,-0.04513441,0.015284497,0.020902805,-0.044591177,0.01651258,-0.044872485,-0.023406815,0.049968466,0.02731587,0.034456864,0.051490188,0.025467528,-0.050113305,0.037903838,-0.014499977,-0.022722334,0.04729499,-0.042366363,0.0153751625,0.0028551663,0.044094823,-0.024781303,-0.0439322,0.040660195,-0.040703986,-0.0028514562,-0.048233632,-0.015980326,0.044279225,-0.033132426,-0.036745228,-0.035824798,0.034780502,0.030030146,0.041768588,-0.05919274,-0.0558255,-0.038702838,-0.044248268,0.009748825,0.044072926,0.052893315,-0.001661227,-0.012438023,0.03848631,-0.027576696,-0.012834942,-0.03916411,0.061851397,-0.057786312,0.029893711,0.008699722,-0.014204539,-0.014502468,-0.039288156,0.04709851,-0.03689283,-0.018332684,0.044442024,0.040566854,0.0064622248,0.020413171,0.003491605,0.026098002,-0.0075064963,-0.052020766,0.04821398,0.0355945,0.061401304,0.06481938,-0.025614277,0.04929553,0.011475332,0.051565968,0.01641735,-0.011247039,-0.052179936,-0.053274427,0.053169124,-0.013474979,-0.019372312,-0.04777348,0.06579271,0.04433673,0.046085216,0.04974582,0.043766666,0.00071193255,0.022363968,-0.044057168,0.03984479,0.003110631,0.0041285995,0.038050704,0.033405446,0.0145910485,-0.04664942,-0.058815423,0.029622236,0.0015714476,0.038613234,-0.0041578165,-0.031567927,-0.008258823,0.0057446253,0.056063965,-0.03376709,0.046369284,-0.03188237,-0.03447543,-0.023123112,-0.015416155,-0.056252412,0.02510143,0.040036414,-0.0023336988,-0.011697291,-0.024590606,-0.04091979,0.0263213,0.021583088,-0.022003714,0.014774479,0.05199795,-0.035164632,-0.045617692,-0.01133109,0.009293831,0.01751085,-0.024706267,-0.02592481,0.06342764,0.053133804,-0.025267322,0.030156787,0.012908811,-0.052511327,0.061157804,0.007068988,0.018016696,0.04890679,0.04731861,0.053373095,-0.06055814,0.014751401,-0.05749747,-0.015527451,0.05217288,-0.056184936,-0.008970033,-0.048712015,0.020362128,0.03056578,0.053706266,-0.0473075,-0.051266253,-0.024468746,-0.05210524,0.007972931,0.0034159776,0.045410644,-0.044157002,0.040428575,-0.02332769,-0.041593865,0.02169988,-0.038433857,0.021158867,0.032744974,-0.0026390594,-0.016863815,0.055377375,0.05999866,-0.018698785,0.061617136,0.045218125,-0.037584715,-0.044916272,-0.041723453,-0.05558997,-0.03307419,-0.011833695,-0.03764571,-0.039390475,0.039267257,-0.011738062,0.02918329,0.057125177,-0.045493968,-0.042745195,-0.02337531,0.05149305,-0.035917606,-0.008504579,0.049675666,0.00025616557,0.03435101,-0.0616521,0.032384224,0.02086646,0.041681137,0.018111097,-0.04477486,0.04214759,0.03767457,0.008799285,0.036783695,-0.054720663,0.025138076,0.029869314,-0.037275784,0.001829437,0.017090872,0.05353192,-0.00907898,-0.026377466,0.0080296965,-0.0063317893,-0.03138607,-0.03811733,-0.057065018,-0.008266317,-0.058725037,-0.040713474,0.037381627,-0.032318003,-0.008236222,0.029115014,0.006639514,-0.030201674,-0.043911126,0.05516485,0.017729623,0.013025401,-0.0053399224,0.057371624,-0.05048678,0.020911612,0.04125199,-0.065938264,-0.06243604,-0.027427714,0.019361654,0.019747417,0.051473923,-0.018304113,0.017890867,0.038377866,0.0105596585,0.06045326,-0.048743792,0.0030745915,0.0113096405,-0.066361964,-0.049163986,-0.05021178,-0.041795194,0.04031042,0.043344285,0.027880304,-0.043510668,0.047849856,0.05198105,-0.03976828,-0.040408865,0.062824026,0.00044649723,0.018754719,-0.0022939518,-0.05963283,0.054927703,0.031199262,0.044648003,-0.041488245,0.049926862,0.031000506,0.014638303,0.030233394,0.006346405,-0.055781513,-0.013008137,-0.028243344,0.012752213,0.057618104,-0.0049186656,0.035945885,-0.02255889,0.06218552,0.0035879798,-0.06569297,-0.032719478,-0.023232128,-0.007435387,0.044697642,-0.005648209,-0.02574161,-0.0074760923,0.037255436,-0.05478458,0.01708615,0.011512256,-0.01286651,-0.020327546,0.04870959,-0.04759688,-0.001113093,-0.0014946603,-0.0101979,-0.018321197,0.055234704,-0.019506615,0.05980304,0.010338177,0.04084283,-0.011428649,0.036820862,0.05929385,0.014806613,-0.011624493,0.039091043,-0.011077304,0.023215253,-0.056738116,0.011265744,0.058685556,0.013080839,-0.019709442,-0.04173376,0.04971565,-0.039270632,0.0048867976,0.064455934,0.063894264,-0.002645901,0.044336498,-0.060398936,0.046287388,-0.048920907,-0.022999398,0.029563239,-0.00060679996,0.014142878,-0.0018599305,-0.04160355,0.048530698,0.010113841,-0.055604957,0.015202141,0.01182782,0.047403548,0.017049648,-0.032780603,0.03619977,0.011569327,0.012215044,0.005859467,-0.04976336,0.007523927,-0.05604349,-0.023432553,0.029242571,-0.03440305,-0.0003086975,0.013296297,-0.0042647338,-0.058782265,0.051593915,-0.004905857,0.044931397,0.046906948,0.007222157,-0.04010315,-0.054695863,0.025474273,-0.035055336,-0.01164406,-0.009587602,-0.015488265,0.058094263,0.038338628,0.00433994,-0.03421905,-0.05910795,-0.03288632,0.00040808765,0.053469963,-0.033710606,-0.034854863,0.056812182,0.025351007,-0.0276005,-0.041263893,-0.011758409,-0.05642441,-0.057780154,-0.024206478,-0.006138576,0.0125737805,-0.050727133,0.025120195,0.013049124,0.04045621,-0.056893446,-0.038132153,0.013820915,-0.017522085,-0.027686931,-0.0012324196,-0.003166597,-0.056771383,0.025304988,-0.016296102,-0.03216108,0.019914638,0.057637274,-0.020435292,0.045135625,0.037376814,-0.004501534,-0.06173478,0.013486313,-0.0350293,0.037194844,-0.0143557,0.04789081,0.045771327,0.05218213,-0.041529953,0.042739347,0.01820606,-0.030650496,-0.016755406,-0.035530306,0.021208974,-0.016238634,0.058981337,-0.053958163,0.031484313,0.055191524,-0.011562908,0.06130883,-0.04075106,-0.04736475,-0.044380732,-0.028789327,-0.00033156722,0.015655685,-0.041677408,-0.023745932,-0.02817743,-0.041509543,-0.007053861,-0.0038737739,-0.008827201,0.0024899128,-0.031952944,-0.003593434,0.0011282826,-0.049543016,0.013071166,-0.0074719796,-0.004284993,-0.035193317,0.040954784,-0.044006806,0.03770124,-0.06194883,0.049592532,0.027531767,-0.019273948,-0.024407275,-0.050827187,-0.015179379,0.058625467,-0.005376301,0.03667789,0.01165867,0.05010937,-0.044318423,0.058907636,0.0077479864,0.043839358,-0.030515697,-0.025295887,0.025543112,-0.009621364,-0.046999723,0.018654238,0.012995118,0.033672117,0.00799023,0.0032169535,0.05342435,0.008795902,-0.023910923,-0.034746066,0.043825418,-0.015050187,-0.0021868434,0.0012974184,-0.022239495,-0.010986383,0.02389834,0.051831536,0.003802552,-0.027197447,0.006861261,0.023375861,-0.007470649,0.01981372,-0.02671,-0.0039737225,0.05642197,-0.051822007,0.021261461,0.013941483,0.04420089,0.049784236,-0.035006408,0.033979423,0.002140082,0.017200718,-0.056011252,-0.045533337,0.03516669,-0.043905128,0.008836413,-0.06318587,-0.061531298,0.028897837,-0.04196377,-0.05138108,-0.05970522,0.0036420987,-0.024124697,0.026803821,0.023344792,0.04397357,0.00500637,0.019482844,0.042495787,0.005857984,-0.0655038,0.002195872,-0.03209242,0.022097018,0.032066673,0.033325776,0.029902667,0.014148952,-0.025611354,0.037055694,0.03139992,-0.022820158,0.036093667,0.043306757,0.03408273,0.02826925,0.052990973,-0.0085597485,-0.011692168,0.0061494457,0.040169075,0.00909308,-0.01956059,0.05628734,-0.005496693,-0.05091895,0.015814492,0.041635368,-0.05017429,-0.036907006,-0.035702314,0.004775366,-0.024594542,0.032046493,-0.063837126,-0.047592096,-0.02484976,-0.040068336,0.036241766,0.057559643,-0.05655244,-0.048847504,-0.0554751,0.002699019,0.049763404,-0.011239616,-0.027184993,-0.053965423,-0.0015318858,0.04907798,0.06169131,-0.01278403,0.042246215,-0.030329548,0.04239343,0.058835164,-0.052777313,-0.034265853,0.06352969,-0.021550698,0.05662009,0.053451795,0.057580605,-0.036419377,0.028092612,0.0071369717,-0.035154983,-0.044070546,-0.010087663,0.022220131,-0.005349665,0.009247566,0.007966992,-0.034602284,-0.033235162,-0.04767023,0.036074422,0.0018498965,0.031437792,-0.017608222,0.012677462,0.03364128,0.0022452935,-0.009866085,-0.036073767,0.033372007,0.036136582,0.035688654,0.058559902,0.036383506,0.03611358,0.010791646,0.045317873,0.009011849,-0.02172735,-0.00038029335,0.0183488,-0.011583762,-0.024112219,0.024953548,-0.043582566,-0.028965347,-0.005880568,-0.026501503,-0.035517126,-0.049953237,-0.016466627,-0.026888926,0.019524101,-0.050865427,0.031174913,-0.0004138943,-0.0054721367,0.045051336,0.012834158,-0.037191086,-0.04082542,0.036370598,-0.05170592,-0.043043584,-0.0133397225,0.015666267,0.04251454,0.0019882186,-0.0002455492,0.060209054,-0.039198063,-0.042606927,0.04315565,0.018342445,-0.03335323,-0.017346725,-0.033694714,-0.04998509,0.0010685931,0.02576157,0.0037216474,-0.00335366,0.036705237,0.055854026,-0.0009455321,0.02058896,-0.033186667,-0.03164828,0.008587578,-0.010428162,0.01785593,-0.0008885914,-0.010888964,0.020157188,0.003167638,0.056372806,0.010417545,-0.03029348,-0.037273515,0.0073075932,-0.018721526,0.05043827,-0.040526774,-0.027669348,0.0075846734,0.00017195632,0.02037289,-0.057486504,-0.0075325724,0.04894724,0.04249314,-0.0617385,0.010775544,-0.0472539,0.020120122,0.03372948,0.00087415136,0.010828469,0.022881381,-0.052931238,0.059359204,0.044732828,-0.06184393,0.054704033,0.014745064,-0.049226657,-0.019945055,-0.010081195,-0.03832641,0.021319224,0.044301398,0.036680605,0.038716696,0.053996846,-0.04292088,-0.0069691166,-0.0025939115,0.005847264,-0.025806285,-0.024943326,0.0003524991,-0.054835998,0.018094335,-0.057008207,-0.012599155,0.045656376,0.022363828,0.014466997,0.038254537,-0.005290761,-0.0647323,-0.035758913,-0.033224016,0.012443522,0.012594422,0.017203841,-0.030316316,0.030874468,0.065844044,0.01151967,0.046859536,-0.032618,-0.023725823,0.017682603,-0.03996577,0.008497529,0.026992232,-0.022103604,0.024264224,0.043937832,-0.016573325,-0.052298848,0.006956443,0.06835222,0.02878394,0.0137311015,-0.05052889,-0.037590384,0.012392195,-0.051575437,-0.027949594,-0.046817526,-0.012689238,0.010215273,0.0048627993,-0.0061027957,0.022032823,-0.025648244,0.015763953,0.004060173,0.028365195,0.041450497,-0.030278308,-0.003676569,0.005896301,0.010417636,-0.0012871291,-0.019562565,-0.052732844,0.022449672,-0.022189626,-0.03355162,-0.021796856,-0.039001085,0.045385797,-0.05828145,0.05487889,0.02675426,0.0160322,-0.030076087,-0.045672603,-0.06159153,-0.031571623,0.048666745,-0.04495377,-0.052997477,-0.004277183,0.0060458938,-0.05549936,0.02301096,-0.054617427,-0.019236267,0.003709822,0.066091225,0.029476654,0.036591038,-0.052790582,-0.03486359,0.023949444,-0.017902069,-0.004755263,-0.03862708,-0.039815757,-0.03806507,-0.051642466,-0.037172385,-0.032205604,0.0073541664,-0.04343693,-0.013014011,-0.02220014,0.04597386,-0.028130103,0.016345393,-0.056093372,0.058120556,-0.025523037,-0.016416065,-0.053772513,-0.03349778,-0.041020624,-0.015509123,0.04405428,0.0073417746,0.028986545,-0.05946,0.022513533,0.025562774,0.02015024,0.0037845897,-0.051406927,0.036234133,0.059427656,0.019877246,0.006790515,-0.037775606,0.030515198,0.03977166,-0.056150623,0.041358646,0.0018424767,-0.002138679,-0.0049825227,-0.0072973487,0.040690236,-0.0071268827,0.026597789,0.046762332,0.024145596,-0.008425307,-0.015414303,0.06018427,0.007416703,-0.03560991,0.00038212535,0.029416014,-0.007593816,-0.05280661,-0.061994396,-0.0016145171,-0.007905409,-0.056999344,-0.019043645,-0.00039069506,-0.019685049,0.025492733,0.01685359,-0.026528992,-0.0030542533,0.042799745,0.026875796,-0.008868939,-0.01365798,-0.03270331,0.016511288,-0.0554423,0.05325101,0.011973051,0.023303203,0.054123096,-0.04678367,0.015661672,0.029636305,-0.019474141,-0.02538114,0.03855423,0.061813153,0.042267732,0.01638728,-0.022752155,0.044595454,0.032781288,-0.05582244,0.0033278135,0.007698343,0.05844002,0.0312536,-0.0027853565,-0.04387469,0.024145972,0.03186287,-0.01845929,-0.027597727,0.0002195515,0.05625751,0.05926758,0.03177537,-0.059303068,-0.053361174,0.04226482,-0.0022171247,0.036672015,0.05564944,-0.0069013936,0.013415864,-0.027828727,-0.009468427,-0.055046417,-0.01674655,0.04430969,0.028613362,0.013483757,0.027044969,0.04108877,0.041644055,0.0064212354,-0.0008713414,0.01935609,-0.054676507,0.050034426,-0.021984681,0.06305882,-0.047046334,0.0165683,-0.05878721,-0.015627515,-0.041589692,0.04611149,0.021937849,0.056353707,0.04825373,0.047976486,0.018750966,0.051118918,0.041854996,0.013983881,-0.03773545,0.044942252,-0.017754063,-0.053395525,0.040630993,0.040546,-0.004097284,0.0006144841,0.029156514,-0.048269015,0.027473927,-0.04789511,0.0404161,0.04150275,0.04646463,-0.020881671,0.02914617,0.066140175,-0.009002347,-0.04087224,-0.021900754,-0.0049410714,0.03950998,0.024337307,0.028118294,0.016134264,0.0018774172,0.025302516,-0.06349986,-0.005955054,-0.038563296,0.024504878,0.05343716,0.017815635,0.0009306747,-0.044411805,-0.023418516,-0.030253608,0.021098971,-0.008172743,0.015329658,0.02671475,0.016738854,0.05817508,0.0489607,-0.051988564,-0.009156305,-0.055571336,0.018532526,0.05748419,0.03910444,-0.06626153,0.02084333,0.028456721,-0.060030878,0.048728723,0.057937928,0.0077446518,0.020326694,-0.012742285,-0.023130946,-0.05401071,0.058959946,-0.0057298923,0.052289445,0.04908104,0.027228108,0.052721776,-0.011730097,-0.035819903,-0.010080709,0.056643367,-0.055848826,-0.047081143,0.04129092,-0.045279704,-0.0032823994,0.025942743,0.010889678,-0.014070414,0.00014186521,0.056468584,-0.056675285,0.056806736,-0.016454013,-0.04594123,0.04969258,0.03882485,0.06359191,-0.0009167403,-0.059908137,0.0393451,0.03190852,0.009783909,0.042555243,0.048502173,-0.0025494993,-0.01126093,-0.0543356,0.006555653,-0.011337334,0.021550138,0.04023159,-0.013962794,-0.028918797,-0.01679571,0.0018564655,0.0028706288,0.04323571,0.00080687465,0.04975877,-0.021178644,0.046744872,-0.061839078,-0.019659292,-0.034659777,-0.0007495946,-0.04038225,0.050575517,0.047674507,-0.033488154,0.05678796,0.048867352,-0.034381315,0.053823672,-0.027109437,-0.03777085,0.03291051,0.014222495,-0.048825316,-0.035210475,0.025725339,0.05321219,-0.020892028,0.017537924,0.032147605,0.059344277,-0.034681458,0.00798625,0.05667527,0.0064970423,0.027470993,-0.025490332,-0.02311895,-0.0024146135,0.029489502,-0.04400558,-0.003734211,-0.049364217,-0.039712816,-0.06290258,-0.060440924,-0.0064669396,0.05718457,-0.056440704,-0.04990372,-0.03486059,-0.0010214809,0.055247948,0.008796923,0.014486417,0.04076802,-0.0027756812,-0.015946612,-0.06276296,0.04494402,0.046857066,0.05371715,-0.0054878406,-0.0047139185,-0.022609662,-0.020698886,0.0061547086,-0.015313594,-0.021897627,-0.031389754,0.010688618,0.0037219324,0.052202925,-0.01245497,-0.009027588,0.039677285,0.04983435,-0.029447876,0.063889146,-0.027691133,-0.06068696,0.039648302,-0.006796935,-0.04155442,-0.0004019002,0.0014704766,-0.030527942,0.026184253,-0.05314318,0.007979019,-0.038044192,0.044838063,0.024444763,-0.038535427,-0.022043921,0.043739747,-0.019012878,-0.003928346,-0.057469457,0.022143092,-0.015582442,-0.017415589,-0.06316848,-0.020831093,0.056382634,0.048247166,0.047749072,0.019642623,-0.059242323,0.0074029206,0.013650923,0.002348511,0.015226688,-0.05851242,-0.051642783,-0.043913484,-0.011663844,-0.004827386,0.0018869154,0.035340026,0.002308042,0.052858785,0.05602537,-0.031821117,0.033634335,-0.05015273,-0.030121922,-0.018459234,-0.054386776,0.0021841973,-0.061155856,0.034580834,-0.003978763,0.049200043,0.004349022,-0.026428156,0.061116334,0.009633677,-0.04457731,0.05085428,-0.034448463,0.0038354318,0.011905678,-0.04536567,0.009250211,-0.013379244,-0.008552292,-0.02284526,-0.036203533,-0.021633472,0.055048704,0.052050985,0.021831268,0.026850145,0.035748288,0.0646359,0.0044907522,0.03340615,0.0014745144,0.025527287,0.06195597,-0.03530202,-0.058063142,-0.04457871,-0.020468399,-0.008522708,0.060319964,0.040651485,0.038860235,-0.0077013467,0.035534337,-0.032653783,0.045564055,0.011404291,-0.055377897,-0.0139235,-0.0231692,-0.0006392809,0.053325024,0.010278763,0.028187867,0.048073806,0.03131947,-0.05107104,0.050350696,-0.025470674,0.0028934083,-0.027029023,-0.032595355,0.060479403,-0.0526595,0.051906615,-0.00676803,0.03527523,-0.043039992,-0.039126873,-0.03975591,-0.025279004,0.03188827,-0.00028397795,0.064296216,0.02736976,0.017278291,-0.027519444,0.01693475,0.03507165,-0.023415402,-0.056520585,-0.0512657,-0.021729704,0.041712753,0.023428172,0.028705448,0.04575816,0.038167745,-0.05503138,-0.061495274,-0.06147658,-0.054698933,5.7156058e-06,-0.025524497,0.052425727,0.021932684,0.05044377,0.040094934,0.041189425,0.040817685,0.008049796,-0.028543014,-0.048589766,-0.009875245,0.030861678,0.052497916,0.010399645,0.035824433,-0.0030899532,0.035309374,-0.043770596,0.024953723,0.033454947,0.040250257,-2.6323794e-05,-0.027181081,-0.010067074,-0.03256099,-0.052451894,-0.047975734,-0.03537585,0.033643305,0.014206223,0.014060823,0.0247043,-0.034509182,-0.029563852,0.032982152,0.047262095,0.0035210783,-0.06096153,0.032533932,-0.014156267,0.0032220725,0.047000036,-0.056295253,0.014093575,0.030778294,-0.02945686,0.007382595,0.03401664,0.0052546845,0.021319758,0.047591235,0.062754124,0.03660568,-0.025223274,-0.0011051748,-0.061988246,-0.05934751,0.0487454,-0.062167913,0.0607414,-0.02101027,0.048334524,0.034867816,-0.054471828,-0.009443531,-0.008735785,0.047774553,0.035306677,0.038620286,-0.017730154,-0.05030697,-0.05144106,0.019698415,0.04890792,-0.0071771266,-0.04660084,-0.061150074,-0.012792078,0.019707404,-0.025750902,-0.0014783368,-0.018447872,0.052970216,-0.041405655,-0.031729236,0.020614747,-0.018542618,-0.011688795,-0.017439168,-0.0068004443,0.016984478,-0.048827793,0.019353561,-0.057860702,-0.058556646,-0.034262817,-0.0073886504,0.051304597,-0.033480506,-0.019646876,-0.049913578,0.030124065,0.039343752,0.0095933275,0.051810406,0.018259816,-0.047258526,-0.058831446,0.035991795,0.018281035,0.039828174,0.012481464,-0.03233162,0.023080302,0.02452176,0.05359298,-0.039602466,0.022027498,0.047421165,-0.024395283,-0.0070182495,0.04324472,-0.066706896,0.034854006,-0.04985003,0.046595123,-0.05532928,-0.0048220744,-0.019693853,0.034913525,-0.032654725,0.023085125,0.019404892,-0.06692189,-0.054718643,-0.004832788,0.021765526,-0.012437701,0.00469831,-0.021182,0.04807704,-0.044680268,-0.022275142,-0.014134419,0.05885219,-0.042163648,-0.012027511,-0.049119312,0.040979147,0.05454827,0.05510457,-0.0025232718,-0.044297397,0.040989988,0.033130288,0.049894407,-0.06291883,-0.013265261,0.0523763,-0.054996766,-0.04145147,-0.004968814,-0.015938852,0.04538449,-0.018736986,0.022040322,0.0057847956,0.012463242,-0.026758768,0.009113377,-0.04499331,-0.0052484283,0.029494997,0.021925826,-0.020135634,-0.06460203,0.061350357,-0.0005939403,-0.03090703,0.014980085,0.008616397,0.00879032,0.04025012,0.047176104,-0.038975134,0.025047984,0.023661695,0.045004033,0.009755395,0.031232165,0.027553562,-0.042916812,-0.011854842,-0.027686022,-0.051687904,0.04638026,-0.026541255,-0.058262102,-0.011467425,0.05752996,-0.022549044,-0.0054744855,0.056546785,0.062152956,-0.013318032,0.009480594,0.059124485,-0.018048765,0.06132988,-0.043807935,0.005423218,-0.010407016,-0.012704503,0.06385674,-0.04145872,0.024194181,0.032925542,-0.009611603,0.06850361,0.0025391905,-0.038087517,-0.015889317,0.06644288,-0.034778446,0.05441997,-0.004016691,0.03122688,-0.065890476,-0.05826153,0.023493141,-0.025735034,0.013659573,0.062198393,0.042497285,0.032977812,0.016217673,-0.03743028,-0.06329201,-0.01636953,0.032201998,0.049369767,-0.050900847,-0.02877232,0.007408894,-0.06457195,0.0098119145,0.05153303,0.03137306,0.05064872,0.021390133,0.043487173,0.017488804,-0.05222883,0.023807386,0.023607928,0.05914407,0.043356255,0.056594774,0.025413258,0.04323364,0.034796588,0.055556387,0.05447187,-0.045153975,-0.0067399247,-0.037358396,-0.044409215,-0.02826981,0.025538594,0.0051317606,-0.015249915,0.056518793,-0.060223036,-0.0016295533,-0.0029227922,-0.027349848,0.039345056,-0.050396997,0.020689843,-0.017270286,0.021446008,0.04664807,-0.015459975,-0.029398767,-0.039549015,0.018239994,-0.036743946,0.023761533,-0.05863198,0.042038403,-0.031909414,-0.05150882,0.024293575,0.059585206,-0.037033327,-0.05721195,-0.03503242,0.008471557,-0.028101653,-0.044603504,0.01862315,0.0012925465,-0.01695546,0.05814466,-0.052199323,-0.0001430999,0.009941375,0.04601126,-0.048099585,-0.052227505,-0.035313424,0.052541666,-0.05255889,-0.017596357,0.037210353,0.03322482,0.055886827,-0.035347514,-0.020084329,0.059553325,-0.05676501,0.01712254,0.048346452,0.0050357822,0.030733582,-0.030710334,-0.020743016,-0.018315021,-0.043208078,-0.0057948926,-0.030766826,0.010712065,0.025648367,-0.023771957,-0.05602496,-0.024714164,0.0005697589,-0.037014764,-0.0265223,0.052626923,0.014243746,-0.030101506,0.042819746,0.04100085,-0.039003678,-0.060169064,-0.019320153,0.043486774,0.04855277,0.011475111,-0.030323625,-0.010357932,-0.043134347,0.04952678,-0.02721059,0.056706302,-0.019049827,0.017932303,0.038452145,-0.055249803,-0.046149123,-0.02282946,0.021071509,-0.051735856,0.061666712,0.017262831,-0.04996881,0.00068041537,0.014161155,0.026811779,0.051951826,0.043240607,0.04703193,0.023139399,0.02530991,0.040398434,-0.021710953,0.013014185,0.031049907,0.007965396,0.014025398,0.01577326,-0.04666266,0.05017082,0.06600933,0.044250064,0.05522047,-0.016032148,-0.03382214,0.055596065,0.046799988,-0.0076385643,-0.03198888,-0.02575676,0.041552763,-0.059355523,0.06018322,0.007933351,-0.045715228,0.062429577,-0.039155684,0.02807381,0.01156174,-0.008072427,-0.011490926,-0.008152263,0.02519638,-0.046987854,0.03709609,0.013233002,-0.0434699,-0.0413312,0.0029682564,-0.056655884,0.058134757,-0.007542019,0.035712555,-0.055793516,-0.04874389,0.013992854,0.059169047,0.017098691,0.049314156,-0.035779297,0.03550933,-0.057120733,-0.013116573,-0.034357205,0.036607906,0.042231794,0.046094038,-0.03179256,-0.01551248,0.057484888,-0.04729292,0.030542918,0.013685601,0.04048018,0.022685956,0.025039133,-0.05599517,-0.05020693,0.014137429,0.026835773,0.045344606,0.056958534,0.007974561,0.036413312,0.03915842,0.0643787,-0.019430721,0.028594911,0.0007208958,0.030121762,-0.030215623,-0.05147199,0.05721292,-0.056692146,-0.017531957,-0.0609333,-0.021838399,0.03657545,0.021264168,-0.036155872,0.054694228,0.012321637,-0.04007855,-0.03959655,0.026113207,-0.0020877672,-0.0026644347,0.0066398233,-0.0408342,-0.009710104,0.00886905,-0.019886646,0.04648561,-0.0026605572,-0.0410389,-0.046626262,-0.03210911,0.03857337,0.0015977437,-0.020537455,-0.020655986,-0.032787226,0.046172746,0.015087597,-0.0044283625,-0.062619135,-0.021934979,0.007909189,-0.05799686,0.014362533,0.03312806,-0.011050963,0.0027598199,0.04936741,-0.020496802,0.030207,0.014778774,0.022668961,0.05057642,-0.034179676,-0.05961816,-0.023088556,0.016626038,0.01041545,-0.05815576,-0.018491542,-0.0196223,-0.044817977,-0.024381962,-0.04586239,-0.05093413,0.0072895708,0.05246766,-0.009922329,0.007293204,-0.008515886,-0.014632065,-0.037482552,-0.05698225,-0.031691775,-0.045550756,-0.045505144,-0.048771795,-0.0024579254,0.051831987,-0.03316986,0.03656982,-0.0036557242,0.055497486,0.022710755,-0.027915075,0.028416626,-0.034541234,0.0029037264,0.015812682,-0.002482134,-0.021049796,0.044124626,0.058727976,-0.024452921,-0.020495225,-0.05342471,-0.030508593,0.018276116,0.026861105,-0.059528627,-0.026025405,-0.023931973,0.02947092,0.052313823,0.04306794,0.00071148266,-0.056642577,-0.04153274,-0.029547328,-0.046328574,-0.006129178,0.044210643,-0.0011062355,0.027510578,0.002077462,-0.06037399,-0.0061966274,-0.060479056,0.055256136,0.057200447,-0.00087078795,0.028002925,0.03763934,0.029824715,-0.045251437,-0.039987084,-0.025392536,-0.061387792,0.056323912,0.03920143,0.010349161,-0.024110975,-0.06024102,-0.028508384,0.038983505,-0.018003343,0.042346474,0.024644757,-0.053355798,-0.027458098,0.0026583523,0.0007834708,0.05617113,-0.022891302,-0.049048156,0.01517747,-0.05355616,0.047179777,0.044241957,0.040459063,-0.020774465,0.061553743,-0.06161147,-0.024315923,0.050605755,0.020491496,0.022186466,0.02010148,0.0052916696,0.010420424,0.040638745,0.033806268,-0.02864039,0.038362063,-0.011016952,-0.0319798,-0.0145774875,-0.039895684,-0.029694285,-0.06661887,-0.056154072,-0.043029338,-0.05249705,-0.00998902,0.051451433,-0.012729561,0.022750072,0.03397505,0.010968783,-0.021787876,-0.025015838,0.03640067,0.04612344,0.0059892545,0.06356335,0.038103692,-0.052690588,-0.033318657,-0.06187419,-0.062279128,-0.065354675,-0.0008618087,-0.016658634,-0.034788303,-0.045110382,0.039099336,0.05132211,0.01584965,-0.023050522,-0.04134366,0.0304855,0.021363258,0.057452366,-0.04001789,0.022419127,-0.038945436,0.026577454,-0.06202986,-0.02442358,-0.044822723,-0.055462122,-0.00062731636,0.007825984,-0.014643819,-0.023984157,0.03642595,-0.012602482,-0.0026800637,-0.025101028,-0.055145547,-0.011747882,0.010672396,0.0307674,-0.027623327,-0.02744633,0.027223758,-0.05957178,0.02489375,0.037747942,-0.033056177,0.044756256,-0.049436994,-0.03635881,-0.006410646,-0.041158624,-0.04397829,0.06347062,-0.019806106,-0.06220977,-0.042145267,0.047751695,-0.041971706,-0.021095749,-0.052058432,-0.015930835,-0.018113915,0.0037947367,-0.015971586,-0.042252667,-0.019332383,-0.008777998,0.002077201,-0.010863684,0.03790194,0.050534077,0.024207987,-0.060544755,-0.0073630204,0.034771398,-0.03660684,-0.046601817,-0.023330994,0.019606639,-0.051519185,0.05709778,-0.038536076,-0.0076666423,0.050499354,-0.023229614,-0.022305869,0.03496576,-0.0050659967,0.06324299,0.03610404,-0.0480028,0.0078064543,0.050828222,-0.043637954,-0.0024457332,0.053060215,-0.011601106,-0.06300679,0.016867992,0.012890937,-0.04367145,-0.009903697,-0.054515287,-0.016448349,0.033615865,-0.03750702,-0.026713826,0.03764196,0.028734673,8.842318e-05,-0.018039748,-0.00465176,-0.009117297,0.04445491,-0.04501064,-0.032326628,0.058352362,0.02088748,0.017356463,-0.044791706,0.038985513,0.017236773,-0.0188197,-0.056090545,-0.008801561,-0.010839251,-0.038904145,-0.05633114,-0.03842964,-0.020016916,-0.035656553,0.016540421,-0.06022615,0.037670303,-0.014084947,0.0035105003,0.015382116,0.0412504,0.00476717,-0.0033138525,0.00453184,-0.03482373,-0.057793558,-0.019219777,-0.060542114,-0.046801317,-0.039403915,-0.055401735,-0.005032094,0.057840005,-0.027124744,-0.05332965,0.00045434097,-0.06776221,-0.03649009,0.014329974,0.042519733,0.021891974,0.06205602,-0.050796993,0.038827896,0.0062158415,0.06457774,-0.023829583,-0.06390641,-0.056169428,-0.006732496,0.06128122,-0.032035,-0.006815086,-0.035524767,-0.016961731,-0.030492224,0.028826773,0.01041017,0.032943495,0.056439914,-0.016288904,-0.012492094,-0.009190412,-0.046359062,-5.9129845e-05,0.04872659,0.015837759,-0.027259933,0.052902848,-0.006303135,0.048185706,-0.025542509,0.04964163,0.051081408,0.0049850484,0.011571471,-0.020568138,-0.043912202,-0.020867862,-0.016309151,-0.04119033,-0.020500164,0.00437765,0.0068382127,-0.0014285385,-0.0122569185,-0.018744733,0.038593654,-0.03446447,0.015106956,0.040597234,0.0001854809,0.010701546,-0.029444497,-0.010203161,-0.04297925,0.055297315,-0.029253813,0.052488547,-0.053457256,-0.03759978,-0.051586766,0.021125603,0.024834689,-0.0093968725,0.040641323,-0.04652258,-0.05923462,-0.0023727939,-0.01506806,0.039655432,0.023311295,-0.002056497,0.049394906,0.021057993,0.016389985,-0.018084142,-0.04734157,-0.0059376475,0.040866386,-0.034941673,0.01890792,-0.018364448,-0.0470656,0.05608958,-0.016820487,0.04720451,0.0385092,-0.008252056,0.009935932,0.015948411,0.0020608432,-0.0030084539,-0.035218716,0.03622876,0.04224395,-0.050848506,0.02207515,0.0503436,-0.04381717,0.059688002,-0.049116366,-0.029488984,-0.022818647,0.022511734,-0.019233126,-0.040418826,0.01515514,0.02450058,0.057452463,-0.05725535,0.033656612,-0.03438574,-0.0007942808,-0.01905135,0.0207755,-0.032269865,-0.0086644,0.04415962,-0.057672165,-0.05572889,0.036316074,-0.017559998,0.014263429,-0.02550751,0.041012734,-0.035414055,0.021727549,0.022821268,0.011349417,0.021648835,0.03020282,-0.049757596,0.028493382,0.048251092,0.061539724,-0.06174474,-0.022419916,-0.04993833,-0.008390011,0.041627236,0.04408104,0.0041519376,0.051572964,0.032648847,0.024367493,0.01911562,0.043075345,-0.007937182,-0.05681434,-0.044304885,0.027227499,0.032309286,0.006322734,0.051765095,-0.04006161,0.039012328,0.0031744959,-0.039604735,0.060090944,0.011742651,-0.047958396,0.012493765,0.0062856264,-0.058126025,-0.048296034,0.0061127255,0.00982355,0.042383067,0.01884105,0.015796259,0.029458042,0.04290027,0.036213562,0.051040404,0.01654967,0.057728916,0.038573213,-0.009674287,-0.045164354,0.0643573,-0.0041901954,-0.025610916,0.039516933,-0.05133316,-0.0445619,0.018659052,-0.014911344,0.020476714,-0.000809622,-0.0116011975,-0.025579002,-0.051114373,-0.053130716,-0.03986077,-0.026629794,-0.020919416,-0.0054170336,-0.038844906,-0.0187135,-0.010231623,0.0062680724,-0.062030368,-0.0017609703,-0.03002781,0.070407696,0.050510347,0.03335505,0.05495206,-0.041357834,0.04245911,0.051760424,-0.03341202,0.015505978,-0.03986577,0.04823862,-0.007541711,-0.0065065604,0.031213466,-0.018199552,0.0065478855,0.060681008,-0.024302416,-0.051883638,-0.0431765,-0.028495409,-0.010105768,0.01370671,0.040905073,0.043474257,0.04933776,-0.05883943,-0.04000786,-0.024046786,0.014828702,0.05008312,-0.005660137,0.006539616,-0.051096633,0.047458254,-0.04657515,0.010548506,-0.04930976,-0.05431951,0.03386294,-0.006996978,-0.058056675,0.0627449,-0.053903267,0.012797987,0.05244667,-0.0133711025,0.017543754,0.0105058085,-0.0016795809,0.04260551,-0.045843933,-0.027094606,0.045003705,-0.003941778,0.0020085704,-0.051204696,-0.054970562,-0.05383467,0.036908202,0.023566686,-0.04366713,0.030011993,-0.04744317,0.032784887,-0.038584083,-0.034526028,-0.04433762,0.0025243831,0.028064381,-0.0030298084,-0.029702231,0.05001911,-0.042073328,0.017548375,0.04832647,0.017938685,-0.048061557,-0.047886446,0.033029795,-0.04365077,-0.05199311,0.04703673,0.042439442,-0.02320206,-0.0086736595,0.047679186,-0.020604026,0.02625729,0.03309291,0.06614366,-0.0328674,0.000103660655,0.031805698,-0.04622595,-0.037693474,-0.018614989,0.045871854,0.05206684,0.014197946,0.001344644,-0.014444349,0.040671818,0.02908541,-0.034278307,0.022930812,0.029731013,0.020557106,0.0119501855,-0.035213728,0.027019283,0.030796474,-0.044475134,-0.0540355,0.007909255,0.026915714,-0.04119075,-0.050469913,-0.0073377853,0.025658298,-0.008579792,-0.038932808,-0.046421044,0.003139249,-0.028286919,-0.057604402,-0.054193713,0.00086648436,-0.052711837,-0.058739975,0.0026480942,-0.024716726,0.03826961,-0.030110152,-0.013692183,0.0051236153,-0.039477766,-0.024486609,-0.037011497,0.063044354,-0.055610817,0.041314624,-0.05093196,0.024149941,0.056886386,-0.050979026,0.03722679,-0.029136699,0.0063113477,-0.0018419325,0.023825262,-0.012558586,0.0476994,-0.049275547,0.00036811826,-0.014702879,-0.04602094,0.053644978,-0.02367536,-0.03126475,-0.011254095,-0.012825704,-0.02528365,0.035718884,0.03041537,0.051564775,0.030364163,-0.014591243,-0.01793855,-0.0020277656,-0.018852718,0.046147816,-0.040125377,0.021432228,0.027681973,-0.0539485,-0.00929617,0.015941367,0.005441399,-0.054777123,0.033900082,0.05966088,0.007005326,-0.031353705,-0.027352568,-0.043585256,-0.021475412,0.006859227,-0.013928477,0.04654996,-0.044471614,-0.04672663,0.04049819,0.04809995,0.025476826,0.054886878,0.017158367,-0.035941318,0.040976018,-0.0029632018,-0.060175076,0.044913687,0.04429096,-0.050755695,0.014865402,-0.037167065,-0.03315703,-0.039067842,0.036216613,-0.05356269,-0.052900806,0.060377054,-0.015371259,-0.043159135,-0.06431694,-0.0023365994,0.028590806,0.007824745,-0.045529444,0.01148429,0.05999072,-0.0114668105,0.012789836,-0.021989945,0.004943138,0.014900858,-0.06056304,0.028918851,0.01121686,0.0033534719,-0.049131084,-0.057631582,-0.030655166,-0.06467092,0.054382145,0.039322942,-0.037711922,0.03142883,-0.0028803167,-0.004501434,0.032696612,-0.023377161,-0.047542527,-0.04789835,-0.06106507,0.042267375,-0.02277788,-0.046901554,-0.028492797,-0.018407412,0.019057509,0.0512435,-0.006537143,-0.043009922,0.05589146,-0.041483298,-0.05382464,-0.021845328,-0.0042737513,-0.015548124,-0.008481642,-0.026886702,0.009924178,0.024617441,-0.05082579,0.059410527,0.01582387,-0.044706553,0.048058465,0.048158087,-0.052857533,-0.026872914,-0.007857944,0.008500449,-0.007247653,-0.0010247165,0.035747506,-0.037736688,0.07160529,0.05573754,-0.0581117,0.041956842,0.044228688,-0.038804144,-0.036833636,0.05496735,-0.06226196,0.027847432,0.04431361,-0.0057600485,-0.0403329,-0.010786872,-0.0043950137,-0.0094119795,-0.02635089,-0.012650091,-0.006274596,0.019323355,0.0033253562,-0.018764794,-0.022221372,-0.0154812895,-0.05653634,0.050836865,0.021369273,0.00089958333,0.035253547,0.0059945215,-0.0143991895,0.012034121,-0.026245262,0.043752037,-0.022908067,-0.041451015,0.057513606,0.0015697741,-0.0479481,-0.0050574075,-0.04599793,0.047575064,0.036912546,0.05688414,0.052955635,-0.061807513,0.016824786,-0.057106517,-0.019230787,-0.06411593,-0.012648951,-0.063668385,-0.029098336,-0.03363423,-0.0630808,-0.035922993,-0.061891463,-0.032179438,-0.047596093,0.025385367,-0.05056129,0.02604561,-0.028484665,-0.03778294,-0.025350243,0.03577369,0.0491459,-0.024823543,0.02099016,0.002263405,-0.015178099,0.047347713,-0.058636982,-0.013711897,0.007552278,-0.015805058,-0.05596163,-0.02457618,0.013705522,-0.00039827634,0.01210068,0.007805584,-0.004571506,-0.035803378,0.057618186,0.02683099,-0.02613302,-0.040861093,-0.06326535,0.03206899,-0.025594682,-0.03255298,0.019073468,0.0064918115,0.022073515,-0.038763463,-0.063369066,-0.009327086,-0.048215024,-0.0638038,-0.023324616,-0.05072367,0.044748828,-0.017760068,-0.059071444,-0.0017129693,0.016724441,0.017289951,0.044322964,-0.009568862,-0.0151332095,-0.037235446,-0.023320798,0.032736048,-0.04884043,0.039172612,-0.015090693,0.022298208,-0.016925413,-0.006863337,0.0371859,0.03326077,-0.018373631,0.04102267,-0.028122153,0.0017270492,-0.036185734,0.0026681027,0.012404444,-0.008359505,0.032241777,0.05090869,0.007499582,0.039681476,-0.029377311,0.0408763,-0.030895106,-0.05661852,0.022105157,-0.033605684,0.045729134,0.040508516,-0.035516083,-0.032234155,0.012195876,-0.0440002,-0.043822862,0.041083455,0.03373421,-0.027449401,-0.018713525,-0.055524163,0.020281212,-0.05847,0.003625162,-0.04788545,-0.026861057,-0.05722808,0.010706605,-0.028603086,0.045200586,-0.025616504,0.0373504,-0.012820239,0.024072342,0.0043054037,-0.069262125,0.019782528,-0.050165843,-0.005082328,-0.042855963,-0.011480626,-0.04462897,0.041800097,-0.04209908,-0.04641074,0.01832965,0.001896976,-0.0527156,0.0013308192,0.011914254,0.015978303,-0.036448613,0.062370755,-0.0333111,0.041210424,0.04372161,-0.027284775,-0.00635786,-0.035117626,-0.04058165,0.009432301,0.055078615,0.026882235,0.035212643,0.024917286,-0.040840797,-0.01236694,-0.040392265,-0.03594152,0.039827682,0.044336736,0.0064486223,-0.0016026341,0.029658148,-0.047778536,0.017838435,0.05998094,0.012132851,0.030318744,-0.05239914,-0.030546065,0.0166669,0.029694589,-0.007902347,-0.0011591124,-0.005290147,0.037795085,-0.03884729,-0.02095398,-0.006767462,0.03349091,-0.0066279955,-0.060711894,-0.02246444,0.04096494,-0.04067772,0.0012711007,-0.05681265,0.050843403,0.060624994,-0.007351263,0.0071111806,-0.061927587,-0.046420075,0.006924269,0.010450996,0.01284544,-0.055916768,0.024857102,-0.050067335,0.012410982,0.047812104,-0.056564793,0.016772889,-0.006544145,-0.049957953,0.05172593,0.031871773,0.015769415,-0.011125132,0.012260174,-0.015159054,0.04927381,0.016609255,0.012360007,-0.010641359,-0.012440072,-0.031619024,0.016560033,-0.056161087,-0.04684328,0.023589741,0.0053845653,-0.0015268014,-0.015206298,-0.0077628065,-0.052770957,0.052587718,0.0066886432,-0.037146747,-0.049698174,-0.030809969,-0.009695664,-0.06244829,-0.049441583,0.055165097,-0.017576523,0.06146136,0.01783442,0.040762067,0.044665277,0.042381853,-0.007600787,-0.0429533,0.016798731,0.05875732,-0.04048757,-0.0051322985,0.06173978,-0.032916985,-0.014026418,0.049760383,-0.034781918,-0.04152616,0.050580256,0.052417777,-0.019919755,-0.008056336,-0.037629824,0.028904287,-0.027952425,-0.039288606,-0.05551993,-0.039438143,-0.014976333,0.041770924,0.012745123,0.052453764,-0.0028776783,0.05731805,0.0215361,0.0045296634,-0.05899286,0.031829555,-0.042473197,-0.04176326,-0.06107578,0.011308039,-0.03439952,0.009791315,-0.005866832,0.0401076,0.034847558,-0.037162766,-0.054387446,0.051879644,-0.039907277,0.049136527,-0.0020453637,0.0012276669,-0.056336246,-0.024351886,-0.05574128,0.027662389,0.03042869,-0.013798032,-0.008511964,-0.02102273,-0.05407973,-0.057875536,-0.022483025,0.017400766,0.006015963,0.034638867,-0.029373966,0.0009919934,0.03191819,0.048624024,0.023716677,0.015074181,-0.049397554,-0.038780138,-0.045541324,0.042557932,0.06352696,-0.03273625,0.027467674,0.051667564,-0.0074285734,-0.055423483,-0.018230535,0.05212592,-0.013943488,0.01280573,0.018596187,0.025819866,-0.012782136,-0.03755135,0.013298649,-0.04567843,-0.02004559,-0.017939676,0.044438016,-0.001440268,0.057773937,0.003987311,0.041532185,-0.04144324,-0.007052047,-0.017995298,-0.023042511,-0.061632678,-0.022105541,0.022822153,-0.0024882862,0.017478153,0.015292598,0.016474579,0.050202914,-0.019547176,-0.011165545,0.010079538,-0.023747941,-0.011887759,0.04399841,-0.036981706,0.011842625,-0.037898786,-0.022775415,-0.033074223,0.05249934,0.03227984,0.007977307,-0.04564988,0.018689975,-0.02306733,-0.0075345417,0.043551188,0.03467434,0.049286887,-0.056204975,-0.05224652,0.034011953,0.05718923,0.016270518,-0.002203344,-0.04675235,-0.0342525,0.03226869,-0.03474079,0.03928785,0.03696906,-0.025616087,0.024685413,-0.056063995,0.00070035044,0.06482889,-0.038121387,0.007736437,-0.04435745,0.060351428,0.0026585031,-0.026733695,0.014756082,-0.02308048,-0.048443757,-0.067528486,-0.033422634,0.020757332,0.024546519,-0.040669903,0.023956828,-0.04812386,0.030532412,0.014517955,-0.030942485,-0.05479485,-0.030757286,0.043556903,0.037906267,0.059172567,-0.056286767,0.05566482,0.0022526486,-0.05721368,0.005091061,0.045236193,0.055579156,0.053238593,0.011081615,0.037171952,-0.056426216,0.0073616356,-0.05482749,-0.042227037,-0.035302844,0.00052567245,-0.03506784,0.03634501,-0.041285366,0.050569195,-0.0095268,0.04822428,-0.009243599,-0.0038510119,0.056206834,0.00955442,0.020749003,0.05943016,0.03339099,0.009079193,0.06285834,-0.01575776,-0.04765161,-0.03989017,0.048328407,0.0016466549,0.0528149,-0.034137845,-0.048526548,0.03894268,-0.02068374,-0.06067033,0.036044993,0.045324795,-0.05752233,0.04270391,-0.0028999262,-0.025055535,-0.030179806,0.027056467,0.011114407,-0.040413313,-0.0645729,-0.0037852668,-0.053473692,0.027412016,0.014304243,-0.051589556,0.045627587,0.0066001117,0.02017552,-0.026678087,-0.041481562,0.030107979,-0.025796242,-0.022301879,0.03703843,-0.012569964,-0.015593618,-0.051473446,0.012850717,0.048949935,0.008875218,0.059086293,0.014276905,0.024916783,0.04740593,0.027523022,0.024840327,0.039100546,0.031628847,0.047798246,-0.044643216,-0.02762251,0.03583219,0.02464994,0.009762159,0.026817672,0.015336697,-0.004952008,0.06388266,0.007912426,-0.005014293,-0.023452524,-0.042540744,-0.034265555,0.061361495,-0.0057814317,0.034722462,-0.04130017,0.012751591,-0.010294991,0.052809928,0.02630297,0.03856645,-0.04250431,-0.0147204865,-0.035979368,0.05869844,-0.03635992,0.007704056,-0.03444344,-0.061571945,-0.03304229,-0.026702099,0.044145048,0.017382432,-0.031879503,-0.042507097,-0.0015010433,0.023319012,0.045960568,0.009353012,-0.054982066,0.036426544,0.040461056,0.04309815,-0.05419203,0.037728816,-0.0430511,-0.0008341813,-0.038815893,0.028316673,0.009282362,0.001636066,0.047388904,0.050282985,-0.03068727,0.03264641,-0.012861127,-0.021662172,0.03378924,-0.024820738,0.022273066,-0.06257102,-0.00048605562,-0.041042555,-0.057976905,-0.038898304,-0.059228748,0.035137393,-0.0073047,-0.04238796,0.04112268,-0.04510549,0.010063476,0.05755954,-0.02995278,0.046829086,-0.018080825,0.02435254,-0.019578742,-0.06495123,-0.026957706,-0.055800408,0.02684191,-0.004158686,-0.028291607,-0.0061186855,0.00311519,-0.05708099,-0.012241779,-0.007296066,-0.009372204,0.0050599794,-0.01512843,-0.0054428857,0.0110447975,0.030930437,-0.013725314,-0.061455783,0.042325377,0.04309588,0.0125382235,-0.052385867,-0.0581142,-0.02797398,0.018395582,-0.034771144,-0.023886781,-0.028445635,-0.06120708,-0.039449506,-0.016553234,0.020542633,-0.020726927,-0.03721884,0.042930335,-0.06238275,0.01905775,-0.019531451,0.01736207,-0.0065350123,-0.04468855,0.029395115,-0.028947914,0.020753372,-0.02465868,0.020381317,0.037678972,-0.04929339,0.043638423,-0.03575366,-0.059888642,0.04767807,0.023016142,0.047852345,-0.051486656,-0.0068959566,0.052870743,-0.02365885,0.014972442,-0.042872548,0.007979325,0.0043339077,0.038625725,-0.034612995,-0.0026305532,0.0270124,-0.028990075,0.016540442,0.04600187,-0.049223043,-0.06271838,-0.030683221,-0.0371204,-0.046785966,0.050611548,0.0546659,-0.032656513,0.003952004,-0.049979843,0.012218462,-0.05044149,0.032566376,-0.052618176,-0.0086608045,0.018939188,-0.0052110823,-0.044960395,-0.04695961,0.04662714,0.024023838,-0.028146531,-0.022275781,-0.028197216,0.06060052,-0.05926979,-0.011957079,0.010003924,0.022553764,0.0236055,0.060374085,-0.042041976,0.045353938,-0.031206094,0.039257355,-0.0020765758,0.039957806,0.048729144,0.036202133,0.0059668655,0.034189843,-0.03803141,-0.036748484,0.007695581,0.018090915,0.045771323,-0.049997732,0.011779657,-0.0012291064,0.036856227,0.052893214,-0.010919272,0.033081114,-0.028597564,0.04043444,0.022311918,0.02900969,0.056353614,-0.04076407,-0.053152684,-0.018842041,-0.04031735,0.034819715,-0.04251828,-0.010159815,-0.031982742,0.056405243,-0.028165083,0.01703101,-0.006356312,-0.03396175,-0.05178558,-0.030272882,0.04496172,0.019494768,-0.026714578,0.001740157,0.051107213,0.044654615,-0.017901123,-0.025944112,0.063242584,0.0045924643,-0.018001396,0.023232518,-0.030557387,-0.025969286,-0.057034727,-0.023781482,-0.04226836,-0.0055896863,0.019246902,-0.060138185,-0.008831161,-0.0059685614,-0.01736014,-0.06080381,-0.011095435,0.05539862,0.024188705,0.0057297293,0.023964513,-0.009447127,-0.041539658,-0.026140451,-0.039962813,0.050993145,-0.050566144,0.012231616,-0.038783766,-0.0242522,-0.047338992,0.0105916,0.012140106,0.005418987,0.060557272,0.010172822,-0.024671294,-0.007216373,0.010549416,0.0054651224,-0.035267465,-0.006061919,-0.0011728676,-0.019902162,0.0184302,-0.00019070119,-0.026296068,0.0020451902,0.020588286,0.010973523,-0.018931504,-0.03239039,-0.03396949,0.017247347,0.06535788,0.03919904,0.0073373383,-0.0110346805,0.049014375,0.05586838,0.0374635,0.0482961,0.039277196,-0.023742948,0.043713883,-0.026800686,0.048840642,-0.0016757171,0.009128366,0.025528276,0.06350876,-0.013845073,0.03207127,-0.058111377,-0.04059273,-0.045416094,0.022289727,-0.0031917123,0.021705259,0.048797287,0.0040075714,-0.041412108,0.014599568,-0.056485362,0.005286094,-0.05153022,-0.018536413,-0.01898561,-0.05497952,0.06149239,0.043859847,-0.02982875,0.06715439,0.06503249,0.029916957,0.021793522,0.0072679785,-0.011141954,0.016355637,0.045656815,0.012047928,0.04035952,0.042205535,0.05147551,-0.05892931,-0.051325895,-0.051659595,-0.027505875,-0.046388235,0.003683812,0.049491026,0.047046863,-0.0007056178,-0.041604646,-0.045807935,0.006106537,0.041185677,-0.025674412,-0.008632919,0.054033116,0.055560857,-0.04375071,-0.025017425,-0.030043233,-0.039093666,0.039884884,0.0083305985,-0.01195915,0.005740973,-0.024817131,-0.052697066,-0.003671067,0.014744036,-0.043906417,0.020562304,-0.02786958,0.023519065,0.03874446,0.015184581,0.053919096,0.012277935,0.036450326,-0.023372816,0.0013268694,-0.031065555,-0.02908104,0.007680744,-0.041926667,0.011590756,-0.044916146,0.018125989,-0.053775184,-0.05296026,0.03256713,-0.03992672,-0.040258333,0.06823644,-0.011940904,-0.041533776,-0.00036755094,0.017257895,0.030803502,-0.015281156,0.053548053,-0.0074802665,-0.01063293,0.038753707,0.052383512,-0.048455287,0.021234322,-0.03209123,-0.028163718,0.03297553,0.05546076,0.0063764043,0.022895502,-0.009876924,-0.023048304,0.055849493,-0.007130175,-0.0033509103,0.0056698755,0.06039238,-0.029818404,-0.052050482,-0.058592074,0.010831876,0.037596483,-0.06584667,0.017860034,0.008767194,-0.0027797425,0.0036039506,0.045152687,0.040535383,-0.029435996,-0.053764,-0.010156184,-0.009485334,-0.039517976,0.05827955,-0.05827596,-0.041792367,0.054651715,0.04396408,0.005312538,-0.012547352,0.03161002,-0.040278144,0.02459963,-0.014038992,0.0025992976,0.030843245,0.05319792,0.046339564,-0.001981947,-0.022267422,0.039680257,-0.029080883,-0.020120323,-0.04823044,0.056002215,0.020647481,-0.034095377,-0.005285916,0.010465952,-0.037875388,0.047848195,0.0013085059,-0.060856402,-0.060515355,0.06410043,0.03858658,0.04313798,0.04614005,-0.0250565,0.025714293,-0.044840336,0.05579316,-0.04335654,-0.047349833,-0.03955365,-0.03783839,-0.035457782,0.036301173,-0.03799503,-0.0007933813,-0.04524363,0.025701746,0.0066690575,0.015614526,0.0120708225,0.049688153,0.030687258,-0.052182775,-0.045376603,-0.012761625,-0.0411397,0.046914212,-0.06148289,0.030781943,-0.011474926,-0.003371016,-0.020164987,0.013843288,0.05904706,-0.010962669,0.05174817,-0.008897,0.027849324,-0.023783457,0.010398883,-0.032728508,-0.007503506,0.011652617,0.014397768,-0.045666147,-0.05529468,-0.03564193,-0.030817395,-0.04740525,-0.041192137,-0.003856482,-0.042782575,0.034113415,-0.008643201,-0.043640338,0.023862064,-0.028798267,0.009562628,-0.030004565,-0.05711069,-0.050568234,-0.031920254,-0.010992782,-0.047549605,0.009500861,0.018374039,-0.0027695203,-0.049438976,-0.015943285,0.0052332445,0.0432256,-0.028067062,-0.01921267,0.023594633,0.012572451,-0.052934997,0.044734135,-0.06001182,0.0043026637,-0.025158418,0.04597129,0.042580664,-0.015710674,0.0585104,0.038583275,0.060450457,-0.05971741,0.05915606,0.06389935,0.007879609,-0.008830588,-0.016443523,-0.021166094,0.04879421,-0.013235996,0.058467854,-0.026988024,0.017026972,0.017292876,-0.066365525,-0.02004153,-0.012786358,0.039387234,0.02508773,-0.027565831,0.04530007,-0.0072115473,0.019218402,0.0014623345,-0.006452849,-0.061192304,0.0607186,-0.015637863,0.054254107,-0.04845801,0.01482758,-0.014582066,-0.021871619,-0.051939495,-0.022970371,-0.03007615,0.031637475,-0.016015425,0.04010124,-0.026182754,0.03068731,-0.052976675,0.051991306,0.059927605,0.05902932,-0.025075145,-0.0071095815,0.045487985,0.060845926,-0.0029955856,0.054998003,0.033066824,0.004256159,0.011232434,-0.05441247,-0.0015758716,0.0020869975,0.023358226,0.0030859658,0.043034174,-0.022323487,0.04960628,-0.015693083,-0.013863444,0.0018576211,-0.018556833,0.031205127,-0.017572451,0.04632534,0.048131775,-0.037025735,0.04868178,-0.007594102,0.03595686,0.012525333,0.044929028,-0.033641905,0.020203056,-0.034469076,-0.035087876,0.013929887,0.06114428,-0.026310215,0.05569137,-0.055306196,0.027602887,0.06069092,-0.024452273,-0.001326075,-0.0036190557,0.036051936,-0.057700623,-0.015766274,0.030961365,0.040376898,0.011245033,0.06213391,0.04918842,-0.01389331,0.059671707,-0.04481075,-0.016155811,-0.014731111,0.022237906,0.0047847778,0.011846647,0.00023680863,-0.05029969,0.03628474,-0.05054801,-0.05659532,-0.060409248,0.028651234,0.010916321,-0.010027435,0.050208237,0.024703216,-0.018725792,-0.017120216,-0.015641294,-0.01848867,-0.048738673,-0.017660622,-0.0065159593,0.05732944,-0.018871214,-0.012928421,0.0057751453,0.014130149,-0.031720832,0.009186473,-0.058195975,0.03805399,-0.045109272,0.03674944,0.0473414,0.048097126,-0.0056766607,0.021565061,0.00864587,-0.016056348,0.054804448,0.046574406,0.022235673,-0.061282776,-0.06469891,-0.004427556,0.020411603,-0.021038312,-0.0075121433,-0.005886579,0.043458693,0.031173091,-0.027726173,0.023051023,0.026050773,-0.048268124,0.04173595,0.018733678,0.045904566,-0.015913658,0.018240783,0.028677836,-0.000730898,0.03254807,-0.01532461,0.049432337,-0.03937747,0.04314964,-0.06340263,-0.018840596,-0.025076915,0.015010309,0.00332213,0.04320072,-0.009328795,0.03625752,-0.04380399,0.037358895,-0.05246955,-0.048508227,0.038205713,-0.020335484,0.053756133,0.013876241,-0.049004406,0.057906732,-0.038695112,0.0073620607,0.03780689,-0.0069368007,-0.025324952,0.023596447,-0.029248815,0.05904629,-0.051081773,0.053436592,-0.010421732,0.0028359194,-0.035511807,0.044052914,0.030430656,0.018667579,-0.019183882,0.02671511,-0.014883964,0.024543831,-0.016696509,-0.0014912442,0.041135896,-0.01254361,-0.023663202,-0.002475482,-0.027149737,0.010170417,-0.062272824,-0.020769393,-0.019417789,0.00939955,-0.034172088,0.056651182,0.011511805,0.054043904,0.0031127597,0.05360816,-0.051064305,-0.0348648,-0.0011413024,0.047919147,0.0359703,0.03693059,-0.039327264,-0.040251352,-0.04707045,-0.033962213,-0.045790415,0.05724165,0.051705703,0.056861114,-0.037046768,0.034086466,0.0010640342,-0.029967371,-0.02738833,0.052892588,0.05445362,0.05210983,-0.018331543,-0.060229138,0.044781193,-0.026447296,0.019321157,-0.058425233,0.035857998,0.0036706752,0.055868585,0.00023261785,-0.0102934055,0.045650758,0.034721456,0.014247844,-0.045928277,0.048133068,-0.0040864483,-0.00031660084,-0.05447844,-0.047900893,0.03043697,0.0573249,-0.05774328,0.0274094,-0.026777469,-0.02278197,-0.0284166,-0.016310912,-0.019385854,-0.055015936,-0.064103745,0.018718189,0.059144467,-0.06452593,0.049344495,-0.06563023,-0.024389207,0.01029985,0.04168361,0.052441962,-0.021861477,-0.003292841,4.3725595e-05,0.036700353,-0.042463325,0.018362034,0.011884449,-0.03649998,0.031125952,-0.015100593,-0.042254053,0.0466201,0.05512618,0.020069093,0.044137284,0.0053388043,0.043093435,-0.04630301,0.021172639,-0.0314774,0.03054877,-0.058098115,0.007066457,-0.05971674,-0.009982161,-0.0605193,0.05877109,-0.022530453,-0.013609657,-0.012774989,-0.05516289,0.013894669,0.025425099,0.04356168,-0.014668273,-0.044114575,-0.007242588,0.021983381,-0.0319113,0.007018676,0.06197414,0.030363224,0.04104066,0.06039764,0.019959629,0.042604037,0.027561743,-0.0069522858,0.02032546,0.0011479866,0.06087547,0.036177225,-0.055874784,0.035017345,-0.04563767,0.050282367,-0.060465626,0.045007862,-0.03709283,-0.04425364,-0.035638943,-0.032540735,-0.057784043,-0.02777663,-0.0012534838,0.032936603,0.0031009547,0.0039468855,-0.03921023,0.0007217943,0.037598718,0.00095125794,-0.017802987,-0.055369966,-0.03731879,0.028977558,0.009206599,-0.000696825,0.06175094,0.0043234476,-0.024505194,-0.027277194,-0.046600536,-0.045971774,-0.047129616,0.02368677,-0.05054433,0.05691304,-0.013551346,-0.05263052,0.03422855,-0.04824134,-0.02407394,-0.022244368,-0.021808594,-0.0351448,0.051526144,0.0004222871,0.022194948,0.034069374,0.046855807,-0.0044790334,-0.025447004,-0.020577475,0.015039844,-0.037944127,-0.011325343,-0.05380948,0.029304322,-0.033995114,0.057781383,0.0034386935,0.03935171,-0.024245389,-0.0083655175,-0.05377069,-0.011291437,0.014690917,-0.02505393,-0.05912672,0.01512594,0.00026393984,-0.042957433,-0.047683284,-0.012012286,-0.04539735,0.04294449,-0.047763094,-0.013476623,-0.0041390737,0.008974657,-0.020612128,0.0155216195,0.0045462023,0.04192332,0.03786172,-0.04327614,-0.010792395,-0.027211355,-0.0095398575,0.045093015,-0.0028532348,0.037369348,0.02867365,0.06283341,-0.014063081,0.016376775,-0.03229987,-0.0053848675,0.044889987,0.040105455,0.04697687,-0.025476899,0.06205626,-0.052793853,0.03120239,-0.0065579973,0.015714925,-0.014967382,0.0053276774,0.0026098138,0.019442631,-0.060255326,-0.0003758022,0.02733317,-0.03881747,-0.051180355,0.054204185,0.031293325,-0.0047771605,0.03241641,-0.019620953,-0.026732402,0.03653697,0.041776903,-0.059784576,0.021813367,0.002592095,0.038074024,-0.027499283,-0.021503028,-0.045437597,-0.031517647,0.008041582,0.0076033156,-0.02081329,-0.011292512,-0.0029645953,0.027139634,0.06251386,0.0057746964,-0.05270116,0.008537082,-0.0034615109,-0.020367458,-0.05040721,0.029713502,-0.030632548,0.06008318,-0.025551733,0.0354643,0.03958519,-0.0011784992,0.037077136,-0.027017985,-0.05042481,-0.025610019,0.0486591,0.026771437,-0.059743226,0.028974455,-0.0032192417,0.015587912,-0.048864454,0.011864571,0.025628448,0.022757897,-0.04580237,-0.062219314,-0.03704996,0.03485652,0.017289385,0.024640486,-0.014187835,-0.028023351,0.026689999,-0.03229187,0.05989416,0.020456363,0.041370597,0.010396334,0.0009445327,-0.012033651,0.05013202,-0.044505678,0.04417482,0.0557034,0.050128557,0.05077786,0.023449115,-0.02607081,0.044945996,-0.038410902,0.05898349,0.052896798,-0.05353672,-0.017702121,0.0492297,-0.031967,0.055985913,-0.04836893,-0.040280886,0.045306474,0.04559274,0.01963984,-0.062333442,-0.043872565,-0.022921793,-0.013849767,0.05026403,-0.015044682,0.033625253,0.007004989,-0.04181002,0.02474973,-0.04604871,-0.051058076,-0.013293837,-0.043943636,-0.02059741,0.05479236,-0.029266533,-0.016705526,-0.060307425,0.050774306,-0.0028891007,-0.06126429,0.059209123,-0.05168762,0.035428725,-0.04132621,-0.055797767,-0.010274441,0.019193783,-0.03720075,0.04293535,0.02725152,0.015940702,-0.013305744,0.052328423,-0.02698455,-0.010786189,-0.019820262,0.034766622,0.012960512,-0.039541498,-0.0026468788,-0.033153668,-0.003840277,0.012127718,0.047189053,-0.016411535,-0.01957501,-0.004206365,0.04854259,-0.0018669809,-0.04581512,0.022049107,0.06192664,-0.061926603,0.0031274012,0.047255564,-0.014828451,0.009734428,-0.048028838,0.004790352,-0.055401355,-0.06689058,-0.047365624,0.022605814,0.057803586,0.05412841,0.04267975,0.054378487,-0.036958255,-0.04337654,-0.04501359,-0.038845316,0.050052658,0.025873646,0.015453723,0.049475323,0.0055765677,0.04493229,-0.0077103935,-0.06645334,0.004765546,0.03936053,0.015237201,-0.05243829,-0.05056672,0.013591204,-0.036686424,-0.055316757,0.054155685,0.03366608,0.045255255,-0.059782214,0.049228474,-0.00015729047,0.023754697,0.032744475,-0.01537883,0.01205545,0.043024503,0.01807446,0.0043959226,-0.024774164,0.018369194,-0.018082118,-0.012625661,-0.043053515,0.017611463,0.062143676,-0.05210098,-0.034625683,0.022925396,-0.050791748,-0.032710616,0.04151117,-0.060373694,-0.017077554,0.05872565,-0.023779722,-0.0054244343,0.042096037,0.00094650884,0.018445425,0.032189906,0.002725795,0.018524999,0.0265642,0.009704186,0.014906092,0.012086172,0.015840389,-0.01538143,0.021713782,0.047410004,-0.04283668,-0.017424926,-0.030622527,-0.02677085,0.05076258,0.055911485,0.04224293,0.0273038,0.030261828,-0.012740523,0.0220669,0.051531322,0.042299747,-0.031074392,-0.001494738,0.016955156,0.03847705,-0.021606024,-0.011595,-0.03778524,0.031706676,-0.029927332,0.060671788,-0.0431407,0.011187044,0.04625225,0.033295773,0.016798537,-0.024692714,0.057031225,-0.008598763,0.007934362,-0.055571623,0.05396071,-0.0034315,0.00089238666,-0.06666738,0.005820648,0.007899888,0.0053778836,-0.0051898817,-0.05142144,0.0417789,-0.042651497,0.009639138,0.01493624,-0.010199376,-0.010968689,0.04305868,0.028392151,0.028104942,-0.0014882353,0.06175056,-0.057432614,0.011725567,0.017415468,-0.019703731,0.021904808,-0.046398617,-0.012759088,0.017876735,0.048416317,-0.044378616,-0.025761493,-0.042856924,0.029319437,-0.016903993,0.014184961,-0.022664173,-0.036748216,-0.027325874,0.04494242,0.0009445951,-0.0048715095,0.052571762,0.036373183,0.042547256,0.025212042,0.02933191,0.033504024,-0.025808783,-0.050960965,0.020369392,-0.04289671,-0.025411163,0.06126666,-0.015502958,0.037926152,0.053193584,0.03432298,-0.056132495,0.042182095,0.056689013,0.042809546,0.026199665,0.030057933,0.059752945,-0.028916415,-0.011640921,-0.053417623,-0.030670084,-0.06194207,-0.048792828,-0.05699821,0.01912734,-0.0070427246,-0.0036678296,0.045351144,-0.04743444,-0.014059298,-0.03225874,0.019223558,0.015896946,0.030443817,0.004057335,-0.015330686,-0.02390169,-0.045701455,0.038494177,-0.028148826,0.04747473,0.052363977,-0.056291267,-0.062475637,0.037057456,0.033929348,-0.0016956227,0.043270424,-0.049011394,-0.060273647,-0.024014289,-0.037528064,-0.060244262,0.0042306874,-0.06116375,0.02759222,0.0039098347,-0.01551247,0.020216443,0.023145273,-0.0148353595,0.06430751,-0.046630733,-0.018225063,-0.044635423,0.051910065,-0.0037527606,-0.04691749,-0.029618014,-0.064544246,0.008516317,-0.009003175,0.009245338,0.007695904,-0.016390245,0.050499268,0.0053157136,-0.0035564825,0.0015976971,-0.051946662,-0.003300617,0.021519478,-0.04215337,0.054605335,-0.007946372,-0.06065374,0.01604104,0.019738212,-0.022421902,-0.0066314,-0.0052449843,-0.028153094,-0.045435134,-0.00885177,0.02967942,0.055286784,0.037526146,-0.030467588,-0.002785436,-0.055140913,-0.03578704,-0.048335493,0.047514442,0.060039245,0.0011057849,-0.0308451,0.006766273,0.054465473,0.0072937226,-0.0275387,0.0027378914,-0.019168036,0.054967843,-0.007117793,0.014996726,-0.05562033,-0.020860637,-0.024918713,0.015827712,0.0072578425,0.028775413,0.05182459,-0.04637208,0.028470013,0.032064788,0.03971702,-0.050993595,0.063589156,-0.03472211,-0.02031676,0.05887375,0.0081336945,-0.04544638,-0.038799167,0.042130686,-0.031401366,-0.029019628,0.039379776,0.051828243,-0.012857871,0.020696817,0.011387337,0.04324039,-0.041031443,-0.024497055,0.029947046,-0.0017529372,0.01343588,-0.02342265,-0.012172867,0.032042265,0.011099522,0.035137855,0.028239079,-0.010078691,-0.03229978,-0.03917329,-0.0050680623,-0.056113645,-0.013352007,0.007621066,-0.04366598,-0.0101527255,-0.05984178,0.04531783,0.0030744807,-0.015145215,0.036452834,-0.061831616,-0.017956063,-0.046512976,-0.03781806,0.018187534,0.061187584,-0.018241834,0.060986444,-0.047117494,-0.013734762,-0.032444015,0.03830072,-0.027029715,-0.056735612,-0.0026550381,0.042205278,0.0541372,0.024837527,0.024789184,0.045733348,0.022209572,0.009932475,-0.028845318,0.005672605,-0.03222046,-0.0026539294,0.016058981,0.0193208,-0.0262027,0.055174116,0.034158505,-0.03635864,0.039466493,0.028601278,-0.050020285,0.04009448,0.052805,0.0030415175,0.043166995,0.026252836,-0.028331442,0.03511247,-0.011949092,0.011095882,-0.034355864,0.012291253,-0.041047283,0.0072310325,-0.011493686,-0.03199029,-0.031081934,0.009786165,0.052170105,0.02545838,0.012344671,-0.03083717,-0.05627817,0.015053572,0.0227727,-0.015272196,0.006618973,-0.01887119,0.013582471,-0.05469042,-0.0047206515,0.023114046,0.015581537,0.051199056,-0.04751771,-0.0065648356,0.016210295,-0.04056372,0.02298496,-0.06848198,-0.02712048,0.059407953,-0.028654182,0.009124663,0.05016362,-0.024423057,0.025564197,-0.018121552,-0.040165193,-0.025308218,0.052315637,0.05054027,0.04018253,-0.041800063,-0.0024924614,0.05059419,0.052468624,0.015595396,0.015264094,0.045173027,0.018294064,-0.018115256,-0.03595846,0.008498687,0.013096547,-0.050179753,0.06037828,0.05752702,-0.0303252,-0.046155274,-0.048407607,-0.028603489,0.02987124,-0.032575056,0.049318016,-0.0063685,-0.05137108,-0.060333677,0.018353958,-0.023872122,0.010589489,-0.04356075,-0.058722846,0.056798477,-0.033947803,0.04075428,0.052227017,-0.04426891,-0.047877155,-0.043379687,0.014755846,-0.0621562,0.017589271,0.04297277,-0.048008,-0.011309942,0.026571553,0.035187967,-0.0019005778,0.030469757,-0.036981657,0.05758679,0.02021823,-0.035501458,-0.02840646,0.020066772,0.02517319,-0.020839354,0.016014513,-0.01735434,0.019737594,-0.0030292536,-0.032838553,0.058133908,-0.014085233,-0.018403977,-0.06326402,0.010478606,-0.0112028625,0.03986107,0.002751819,-0.033476442,-0.06614247,-0.060356986,0.008263696,-0.045066997,0.021277916,-0.0012825519,-0.056030545,0.023002697,-0.057926603,0.0018574715,-0.04590887,-0.06348476,-0.00031047798,0.009087282,-0.045987606,0.048657846,0.00483563,0.05723479,-0.048311092,-0.063596666,-0.042919006,0.049958628,-0.041971557,0.018707557,0.008690774,-0.053404123,0.041201033,0.018872812,0.0038526305,-0.06535138,-0.007569403,0.058056485,0.023372859,-0.051464,0.05477817,-0.011671245,0.036976196,-0.050405342,0.016712483,-0.022669356,0.039064236,-0.045016043,-0.045396302,-0.0023355302,-0.031920962,0.033280198,-0.038102835,-0.016532818,0.0299125,-0.012527157,-0.011520804,0.029653793,0.052215032,-0.0063084974,0.029565059,0.0070927786,0.038538523,0.009805314,0.03122816,-0.035408325,0.046014566,-0.0502986,-0.025902994,0.0339301,0.026551843,0.01795848,-0.018089484,-0.0125682745,-0.04543309,-0.05061762,0.016446415,-0.025159622,-0.025880106,-0.030860838,-0.04145281,0.051714696,-0.025975479,0.05369475,0.048281174,0.05270366,-0.043383166,-0.005380051,-0.028528914,0.057269342,-0.0033299837,0.035129488,0.052750446,-0.0018447677,0.03578899,-0.006310067,0.00865042,-0.024171857,-0.045804266,-0.0017910585,0.026084889,0.051051453,0.029072676,0.006506997,0.011863805,-0.039979953,0.016662035,0.048735008,-0.026949316,-0.041819416,0.0017130144,0.04757233,-0.059849434,0.014276434,0.013450562,-0.018659044,-0.009689005,0.013114869,-0.020396076,-0.009605729,-0.024983976,-0.015138144,-0.05594933,0.0019921896,0.001168318,-0.051799446,-0.044739693,-0.06854093,0.020731807,0.009033665,-0.013631407,0.017605983,0.0169857,-0.0032694433,0.0431905,0.042995244,0.02426237,-0.035099596,0.035387397,-0.037263058,0.055135638,0.007955782,0.015119493,-0.041988973,0.018516403,0.0056710783,0.03929726,0.026821896,0.02720263,-0.036725126,0.05188693,-0.026048237,0.003479414,-0.05608425,0.02173118,-0.039047696,0.027303444,0.0264321,-0.020808717,0.056386568,0.061351176,0.0346936,-0.029667377,-0.054876387,0.02208302,-0.05679702,-0.050853744,-0.061767895,-0.049760867,0.06399546,0.02366352,-0.016021803,-0.04408361,-0.04500135,-0.037114076,-0.007775221,-0.031037208,-0.026741693,-0.018374395,0.022340745,0.053522088,-0.048505194,-0.05613123,0.040049355,-0.01914249,0.013090321,0.021970779,-0.05206933,-0.03605918,0.054306783,-0.06262992,-0.045838825,0.008124572,0.018313076,0.012684318,-0.050066613,-0.0027982672,-0.0016151917,-0.006895708,0.033382565,-0.041875042,-0.03870933,0.009252446,-0.035931587,-0.012948802,-0.054011717,0.037991155,0.0048119277,0.056510095,-0.06696497,-0.054112304,0.03985074,0.008132335,0.033966653,-0.062320434,0.028746903,-0.03664071,-0.061751217,-0.004277213,0.00041947223,0.009215149,-0.031045673,0.010753719,-0.058723785,-0.03679931,-0.019392833,0.024592381,-0.044885308,0.052507203,-0.022542706,-0.017879343,-0.064463645,0.0070429007,0.025270334,-0.04745943,-0.04390922,-0.05337495,-0.005720296,0.011096537,0.045547202,-0.010320684,0.03781057,-0.014335694,0.039869882,0.0013546865,0.03057642,0.0068552806,0.0018382722,0.009455964,0.048918787,0.030904356,-0.010872357,-0.043283008,0.05318457,-0.007545421,-0.025931016,0.028164236,-0.054663263,-0.01029723,-0.009950619,-0.02889273,-0.058885902,-0.016187526,-0.013607347,-0.023457885,0.0072415243,0.041374482,-0.042426888,0.025590759,0.010183583,0.048667505,0.01851616,0.046623938,0.009750449,0.030237958,-0.006213346,-0.028701903,0.027989108,-0.037710037,0.022413615,-0.035329394,-0.043477416,0.05923318,0.022593217,-0.058409773,0.013067631,0.055438668,-0.014384365,-0.013469389,0.01735554,-0.037923425,0.05546269,0.013198221,0.000158952,-0.03574824,-0.025554359,0.061975066,-0.042064555,-0.0247134,-0.051602207,-0.05087608,0.038706727,0.014279626,-0.01377293,-0.034739897,0.03444822,-0.0073320097,-0.05988493,-0.023819776,-0.032318454,-0.009126423,0.0045931563,0.02922976,0.001842313,0.004032519,0.04350116,0.0057668043,0.004851591,0.03935472,0.003996953,-0.05081187,0.04524891,-0.04956107,-0.06311229,-0.0038213925,0.060980685,-0.0154308155,0.015310314,0.03135764,-0.016711935,0.04020847,-0.025626494,0.008478986,-0.013778811,-0.040900722,-0.027634988,-0.045910176,-0.0035226755,-0.01625331,0.052316763,0.05790893,0.025586557,-0.057560332,0.056515127,0.05584966,0.06137608,-0.017119355,-0.03690372,0.008250228,-0.017034426,0.039061166,-0.054472998,-0.052705757,-0.0126638785,-0.011690795,-0.06508304,-0.05411811,0.040879935,-0.033629507,4.6571306e-05,-0.028317295,-0.04463935,0.008274182,-0.06064768,0.038316723,0.032818906,0.0037134807,0.031018615,0.010754405,-0.024227563,-0.048176423,0.033349637,-0.030831225,-0.028900495,-0.041808,-0.045168184,0.05719228,-0.043927185,-0.024148893,-0.031971987,-0.008708142,-0.01858213,-0.02560446,-0.055189602,0.014576735,0.051368512,0.025893632,-0.046672545,0.023452181,-0.014947474,0.041203104,-0.0052567064,-0.06506543,0.053502236,0.054623626,-0.026303113,-0.04619135,0.01983156,0.052796986,-0.034273684,-0.045149177,0.030521449,0.0028720358,-0.01854593,0.023263576,0.010622179,-0.012099069,0.032524712,0.0042429464,0.016857088,-0.012508959,-0.011121709,-0.049276315,-0.039943904,0.038580112,-0.022652078,0.059460536,-0.027247261,-0.044446316,-0.046869285,-0.029874943,0.053752936,-0.044718057,0.046958297,-0.004848198,0.044031713,0.036747288,-0.0069664447,0.0041228756,0.06381783,-0.053781077,0.0050507616,-0.044241957,-0.016953163,-0.04101836,-0.022237761,-0.055193555,-0.059012465,0.032509193,-0.03415766,-0.020995881,-0.039058287,-0.018544855,-0.013923796,-0.052797787,-0.039765142,-0.03770294,-0.031177465,-0.036963463,-0.01014711,0.005835399,-0.015572121,-0.0525811,0.061073057,-0.018536035,0.059653975,-0.04950025,0.05942095,0.04437361,0.018307028,0.033968493,-0.03803865,0.050764747,0.020507215,-0.047032766,-0.011017112,-0.03227649,-0.03368815,-0.016486168,0.023600299,-0.061267674,-0.02134356,0.053191125,-0.0053098914,-0.016399408,-0.044884823,0.05305542,0.0141235385,0.04837195,-0.047816284,-0.0049612233,0.06698991,0.016664661,0.052269377,-0.001718112,-0.0023471168,0.0019079546,0.057594143,-0.030190323,0.0057811895,-0.029853195,0.028962929,0.049019404,0.026428968,0.012212958,-0.011656647,-0.025071558,0.03583091,-0.065608785,0.057780284,-0.054432925,0.048972175,-0.051865775,-0.032066777,-0.046158403,0.060705096,-0.047795467,-0.028256206,-0.03384333,-0.0057566212,-0.03625114,-0.008432332,-0.053204365,-0.05253669,0.037461285,0.05585424,-0.051308967,-0.043263644,-0.041078396,0.00033603777,-0.06057734,-0.023631252,-0.011880709,-0.027827196,-0.011936162,-0.03875392,0.062255356,0.00071177696,-0.03003912,0.029425945,0.022851985,-0.042214535,0.03475185,0.025324568,0.044678994,0.016289404,0.036905825,0.0009181024,-0.012119858,0.01876974,0.032510027,-0.0145503115,-0.028353956,-0.031213144,0.029594649,0.047884077,-0.053469487,0.052917145,-0.015288249,0.03131582,0.040324207,-0.05140063,-0.03952069,-0.033520736,-0.040298816,-0.0129509205,0.05703573,0.04180544,-0.0015710916,0.028308358,-0.042739145,0.012297966,-0.0024471986,0.023740064,0.029376732,0.036261544,-0.058992106,-0.014451345,0.0075225323,0.029110845,-0.054908194,0.04959749,-0.05818913,-0.0045277504,0.016166333,-0.038495626,-0.04482127,0.022571187,-0.062052827,0.038467444,-0.041258723,-0.03001489,-0.051941387,-0.051652856,-0.024550185,0.06490201,0.0049613607,-0.019578647,0.044669665,0.02533573,-0.0046256287,0.0411138,-0.049197607,0.024357602,0.020092946,0.05660273,0.009991482,-0.054380633,-0.022474738,0.015117139,-0.06159213,0.06539441,-0.045111835,-0.045341868,-0.0058940332,-0.03594786,0.02576993,-0.018273808,0.0067432937,-0.046168618,-0.0033345874,-0.02727541,-0.038086474,0.052936375,0.053359512,0.02283563,-0.009073352,0.05097738,0.0018380554,-0.023857594,-0.031065078,0.035882093,-0.05244492,0.05655141,-0.014033128,-0.011700246,-0.041823972,-0.050644618,-0.05120057,-0.019808162,0.00866759,-0.044062473,-0.02859841,0.06480324,-0.0054505104,0.011768436,0.04184474,-0.049765177,-0.014648953,-0.0029537508,-0.011089564,0.026530158,-0.01848198,0.015738612,0.031132609,0.010374225,0.04626584,0.0050180336,-0.055887744,-0.041700892,-0.06326344,0.01347268,0.065882735,-0.04209453,0.00041337372,-0.061369315,0.0062571643,0.028371017,0.018927697,-0.031834766,0.014176326,-0.027734363,0.03264048,-0.068670556,0.0007925739,-0.059785694,0.060622852,-0.037008405,0.040862143,-0.074258424,-0.038417183,0.04748953,0.044846088,0.047000535,0.05013675,-0.04228788,-0.030101765,-0.05702962,0.0038909437,-0.036078207,0.04874205,0.05527249,-0.021145478,-0.032800905,0.004545673,-0.00990382,-0.014760367,-0.01397148,-0.029251594,-0.04735005,0.05209069,-0.01764334,0.020071901,0.030182544,0.052923404,-0.027870994,-0.06520297,-0.009510199,0.008202801,0.0468793,0.01807329,0.04000951,0.017919842,0.04876174,0.062446386,0.015420968,-0.013024995,0.021515932,-0.056211956,-0.022367207,0.005087341,-0.05876993,0.03200856,0.05683966,-0.010090176,-0.063381046,-0.018423561,-0.05077699,-0.028878149,-0.058822837,0.014981096,0.040782116,0.01774811,-0.007317554,0.04221899,-0.02781538,-0.029135684,0.014207286,0.011619711,0.04266505,-0.05861909,-0.05252046,0.063891634,0.03859272,-0.046331115,-0.053031173,-0.05603252,0.027023204,0.027076874,0.03855325,-0.037179597,-0.049293414,0.041083567,0.035098027,-0.053065676,-0.057784773,0.008985593,-0.038825266,-0.017617192,0.014629379,0.0318123,-0.060346592,-0.05781299,0.03212521,-0.008478298,-0.04114356,0.0036377737,0.038678885,-0.019592073,0.02737025,0.0247439,-0.04308528,-0.004198554,0.04260137,-0.01598878,-0.03377123,-0.057049025,0.0026708376,0.04638771,-0.0062997695,-0.021060806,-0.034480166,-0.056314,0.0023714595,0.027057873,-0.050142355,0.00091841246,-0.042885933,-0.033746183,-0.017211914,-0.04136265,-0.018889457,-0.0376516,-0.022421211,0.021121183,0.03813546,-0.043246243,-0.044027984,-9.192513e-05,0.055500887,-0.034173235,0.058723833,-0.044351533,0.011599241,0.0056109917,-0.052495606,0.020319305,-0.01900249,0.025872048,0.032286443,0.021550141,0.046581887,-0.050382584,-0.05152256,0.055220827,0.0077506164,-0.025904473,-0.040546983,-0.054141626,-0.0030674012,0.062353306,0.015832968,0.034954168,-0.047474656,-0.0010238847,-0.04128386,-0.046964608,0.035839513,-0.003194432,0.014520757,-0.022140399,0.028850686,0.018684024,-0.042950224,0.03671149,-0.03701096,0.02432387,-0.03761189,0.04438196,0.03569404,-0.02788473,0.005826082,-0.047700677,-0.015122679,0.06387936,-0.058995884,-0.0674515,0.017457014,-0.01217368,-0.03744933,-0.033773758,-0.04496333,-0.0044551035,0.02001521,-0.014509091,-0.020104064,-0.042540506,0.03504969,0.050277893,0.043168545,0.0075855074,0.008710056,-0.052250817,0.039601415,-0.0725906,0.029579977,0.03354071,0.011242973,-0.031014394,0.012208898,0.0490639,-0.0095088,0.06045231,0.064450875,-0.037001573,0.05674012,0.05406621,-0.025720809,0.01751889,-0.021577924,0.027011637,0.050849218,-0.0490997,0.016860124,0.00848514,-0.041932464,0.0060233306,-0.028314129,0.05184988,-0.0064287847,0.033140555,-0.0553099,0.009758627,0.023822702,-0.05503282,-0.060950365,0.03535544,-0.032090083,-0.009861769,0.0051833563,-0.047028422,0.0120613165,0.03808894,0.03020293,0.00053591706,-0.0070063006,0.017578306,-0.010228571,-0.034692537,-0.056793008,0.0097087165,-0.016096806,-0.038725,-0.017177446,-0.011112275,0.0073123043,-0.0063498532,0.00019240016,0.0375344,-0.002362133,-0.04817134,0.025973123,-0.0127778,0.0059765214,-0.021983452,0.022412736,-0.017738318,-0.035726517,-0.028164688,-0.039589122,-0.015058948,0.035417244,0.036172736,-0.007952002,-0.027792674,-0.0072186654,-0.060465872,-0.0038506072,-0.04944542,-0.003054439,0.018237293,0.048076466,-0.021756906,-0.04689122,0.03487396,0.018457461,-0.008540665,-0.012856489,-0.04948827,0.04210547,-0.020589342,-0.04727814,-0.033463843,-0.03146451,-0.05310676,-0.023250647,-0.018390149,-0.041706584,-0.023142606,-0.017645262,-0.055155896,0.034587413,0.03937651,-0.010204269,-0.047481965,0.044712268,0.034704585,-0.026714904,-0.017751902,0.026733536,-0.0007540742,-0.056067497,-0.001270703,-0.018218398,-0.0488794,-0.0246162,0.026403353,-0.00535382,0.012531896,0.0010082258,-0.04934593,0.019430531,0.050704204,0.035161607,0.0056667477,-0.04850746,-0.024326943,-0.011325583,-0.034018166,0.03609529,-0.03239874,0.035843007,0.0067409785,-0.041396122,-0.026525313,0.044681776,0.04452812,0.058413193,0.028643575,0.045545783,0.014879862,0.0022723298,0.0016558879,0.04483411,-0.013719163,0.03741642,0.060889393,0.0012933793,-0.058470666,-0.050855387,0.0018396565,-0.026050357,0.039784413,0.04089069,-0.040229186,-0.04263645,0.02753099,-0.026928056,0.040976673,0.0036683409,0.06699148,0.00028192153,0.025269385,0.025146041,-0.022047218,-0.05561431,0.013515733,0.020537091,0.0070838267,-0.010917232,0.029930282,0.016212517,-0.024006959,0.028181985,-0.011606414,-0.031538595,0.047677457,0.01813424,-0.037585318,-0.01311782,-0.030979503,0.056912415,-0.014173381,-0.053881563,0.043668464,0.05864189,0.020115763,0.011181654,-0.023867479,0.034229618,0.054610923,0.040753126,-0.001414501,-0.021410588,0.0143398885,-0.04142283,-0.06643068,-0.03005299,0.021914732,-0.018597282,0.04065401,-0.04435309,-0.027693715,-0.028205331,0.025910731,0.049371406,0.025257291,0.015183298,-0.047255613,0.06000267,0.022826709,-0.05250955,0.03848137,-0.03489253,0.018657623,0.014314507,-0.022956572,-0.0070963223,0.008626703,-0.04107561,0.034694877,0.031780306,0.010960658,-0.022899168,-0.05712556,-0.03756482,-0.008404922,0.037900288,0.0012138077,-0.045349173,-0.023181684,-0.044257395,-0.0011405996,-0.055467732,0.009039483,-0.040378824,0.0227518,-0.0562999,-0.048515186,0.064088054,-0.04294821,0.04935152,0.0117164375,-0.026929531,-0.0034868694,-0.043233804,0.039321907,-0.02993285,0.050661433,0.007823288,-0.048210755,0.035147026,-0.06653248,0.0296017,-0.028846674,0.05318465,-0.03730989,-0.011073051,0.01019262,-0.036723524,-0.059718825,-0.027966434,0.009200293,-0.03123552,0.015248411,0.019595182,-0.02409989,0.00718475,0.05006651,-0.053828344,0.005337516,0.00042379083,-0.04299127,-0.051505856,-0.039988335,-0.046001147,-0.056333594,0.02754379,0.04795198,0.032827713,0.050278146,-0.046417058,0.054428454,0.031119555,0.045399442,-0.046154983,0.0042240275,-0.007220513,0.051468227,-0.037485205,0.05132563,0.0021896455,0.0029713227,-0.04449608,0.023769498,-0.03349834,-0.033032034,0.03223195,-0.03244996,0.0064342963,-0.0021824306,0.03117677,0.055827744,0.061669894,0.038426485,0.016907863,0.036035556,-0.022897355,-0.066788495,0.002440683,0.033671074,-0.045709074,0.058049787,-0.03702392,0.0065643596,-0.044546332,-0.021268347,0.019597648,0.032837495,-0.026495889,0.00034363882,-0.04573276,0.0393699,0.021282602,-0.052333828,-0.05479881,0.036133476,0.04367623,-0.050830267,-0.009019092,-0.024047308,-0.012454702,0.048934657,0.0407905,0.008537322,-0.030736577,-0.06185554,-0.05759215,-0.0018218802,-0.0044316575,0.022357274,-0.004039566,-0.052169688,-0.021633804,-0.053175494,-0.023601199,-0.04467432,-0.027055763,0.028608292,-0.027655847,-0.0129238395,0.0012428919,0.015927562,-0.014321253,-0.049910404,0.032570742,-0.024241392,0.023262437,0.014558004,0.043448508,0.00010478242,-0.023373125,-0.039236024,-0.0051370496,-0.060421575,0.035602205,0.053907104,-0.00063751056,-0.0028386696,0.029421877,0.03935959,0.021083271,-0.037573725,0.031588107,0.031792473,0.061736688,0.010669885,0.04266125,0.046211842,0.013786947,-0.02686795,-0.03062011,-0.02534118,0.038367238,-0.00021261977,-0.05464766,0.035012,0.053111505,-0.010786332,-0.02944924,0.0067238826,-0.046157096,-0.05405861,-0.05071371,-0.056703225,-0.034056153,0.028255794,-0.047795363,-0.05869957,-0.029247852,0.049737807,-0.024270508,-0.049931742,-0.0519009,0.011772418,-0.029955108,-0.004911823,0.060277186,0.05502765,0.03138606,0.006307577,0.0017690959,0.030373197,0.028877586,0.018998645,-0.033798225,-0.004076901,-0.04412178,0.031660944,-0.04040673,-0.0011368807,0.0067338236,0.031512856,0.013201994,-0.043885384,0.02668012,0.018444661,0.003089894,-0.028955145,0.027625062,-0.029403508,0.026963603,0.060125794,-0.016544554,-0.020608952,-0.0011857103,-0.039572287,-0.05345062,-0.042035166,-0.012152367,-0.0033944738,-0.051902205,-0.05662175,0.004243388,-0.02211582,0.050672397,-0.00723055,0.03642628,0.0073452676,0.039887093,0.027746897,-0.015580507,-0.015219795,-0.037032932,0.03400173,-0.002913339,-0.029138278,0.015675642,0.0033977237,-0.004990712,-0.053843603,-0.03683862,-0.040899012,-0.0074854484,0.011639197,0.061032884,-0.0002100939,-5.4789343e-05,-0.04013028,0.028208647,-0.012742754,-0.05705326,-0.008982724,-0.034690585,-0.032711856,-0.021866787,-0.023413975,-0.004723292,0.018147163,0.023927066,-0.002147574,-0.013369024,-0.02332665,0.021349072,-0.060005434,0.020509759,0.008835338,0.015629906,0.007766949,-0.05711239,-0.035752643,-0.033549204,-0.04854045,0.049452037,0.017847892,-0.042022333,-0.05623381,0.007116342,0.0037059812,0.010833393,-0.05812054,-0.046636667,0.0145038515,0.010706881,-0.0122773275,-0.027650166,-0.009365309,-0.016520504,0.03214351,-0.044097215,-0.006092864,-0.020307913,-0.05890143,-0.055456847,0.00050914026,-0.05701574,0.04645888,0.046999976,-0.033213798,0.04709802,0.01852867,-0.061248742,-0.019811511,-0.023232793,0.04891643,-0.047651336,-0.0146099385,0.034150146,0.04450893,0.04816279,0.023988312,0.035397004,-0.0316448,0.012428256,0.04419245,0.021015052,0.05019372,-0.00555738,0.0018383708,-0.04472916,-0.04157359,-0.037263084,-0.026902743,0.047710087,0.0038227567,0.016207544,-0.06303507,0.0069974633,-0.02083154,-0.012068082,0.039089464,0.0033565385,0.04681261,-0.0072334744,-0.027692545,0.02652442,0.029820558,-0.009204986,0.0017535957,-0.022309717,-0.053234413,-0.052038297,-0.029880282,-0.0025602765,0.01286149,-0.051959697,-0.033922665,0.062632635,-0.05421326,-0.010402011,0.035832405,-0.0075888126,0.04631985,-0.0033669928,-0.004827801,0.019675229,0.026473228,0.0101894885,0.033987403,0.05562222,-0.01562985,0.05245135,-0.060463063,-0.05967105,0.034225054,0.015425992,0.017128374,0.039535895,-0.04044804,-0.007561254,0.04540544,-0.024472341,-0.03773819,-0.015607975,0.035551734,-0.056326583,-0.0013928248,0.031928353,-0.0046482584,-0.030032672,0.002455526,-0.03478375,-0.04070879,-0.04738254,-0.055624038,0.03625804,-0.0131832305,-0.060614064,0.03492166,0.032320093,0.06700285,0.027071666,-0.020489402,-0.030957136,-0.00035167253,-0.054205995,0.04546265,-0.05530671,0.04374669,-0.029057022,0.014386132,-0.05053548,0.03343903,-0.008196661,0.03721977,-0.049673863,0.031541966,0.04033722,-0.014978305,0.027283775,0.013085093,0.0391965,0.014010922,-0.0053275656,0.009791974,0.054347754,0.054411385,-0.009314474,0.017557176,0.011567948,-0.057841405,-0.0109676495,0.051003587,-0.020679597,0.009944774,-0.032794002,0.04100082,0.041438103,0.0028670463,-0.021821568,-0.017272417,0.06659992,-0.035294853,-0.03345661,-0.004946012,-0.046282306,-0.011029359,0.04106938,-0.027389102,0.018799081,0.028646708,-0.036279142,-0.020707082,-0.013184443,-0.06183938,-0.023366753,0.008553149,0.025273878,0.032553963,-0.002925858,-0.04053729,-0.044656098,-0.0038429685,-0.03496284,-0.03801159,0.04184087,0.014331132,0.044946045,-0.020928238,-0.05448795,-0.046012763,0.012170881,0.026645813,-0.01836431,-0.05099853,0.053070843,-0.03440751,0.034437496,0.006790314,0.05602626,0.015674766,-0.056637134,0.03361118,-0.027826838,-0.010212266,-0.010028793,-0.0017594355,0.0018646062,0.056425527,-0.016929753,-0.035916686,0.03918195,0.052713487,-0.055941045,-0.05399497,-0.016150933,0.030748215,0.012406911,0.030666813,-0.004844335,0.007993201,-0.00015373704,0.032996077,0.03471683,0.03394088,0.013239214,0.035317246,0.009144405,0.0592399,-0.035782225,-0.060578667,0.016759723,0.017552376,-0.025960945,-0.04337104,0.030952482,-0.011554021,-0.058164284,0.06015267,-0.01373443,0.058796674,-0.041106258,0.0135667045,-0.041895732,-0.035587728,0.04455433,-0.04351443,0.045151167,0.015201673,0.006615266,0.0076767565,0.041774742,-0.05010608,0.018897083,0.028129106,-0.044577107,-0.004980847,-0.028879337,0.055394284,0.017646734,-0.0073977076,-0.023685247,-0.05718498,-0.030200966,-0.024490874,0.0010677408,-0.028282292,0.003329784,0.01942164,0.050484173,-0.024299283,-0.01953078,-0.029107234,0.007442616,0.053882204,-0.0463147,0.025907878,-0.012062779,0.045274667,-0.029204313,-0.010334382,0.012722209,0.0020999,-0.038492464,-0.003977438,0.0060089533,-0.0039650938,-0.036338218,-0.002929958,0.022623863,0.032557607,-0.01673676,0.017236399,-0.03668505,0.011431143,-0.0011675671,-0.013519419,-0.053244777,0.010711722,-0.05575578,-0.036525548,0.023121774,0.026077809,0.016705357,-0.060356624,0.049257915,-0.0074177943,-0.022400003,-0.042086408,0.04891909,0.017447144,-0.056669064,0.021511717,-0.03742726,-0.03163401,0.008897556,-0.053246275,0.014731849,0.0384216,0.008235639,-0.017129542,-0.00026282298,0.016266655,-0.0052837757,-0.05150859,-0.055099413,0.05693982,0.011394586,-0.042649955,-0.003864179,-0.009156412,-0.023001734,-0.03737743,0.011280625,-0.009156693,-0.038383067,-0.055523306,-0.017346773,-0.02507696,0.05673074,-0.022834077,-0.025605042,0.046117123,0.05925881,0.039507575,0.017066069,-0.008829664,0.03092527,0.0052835722,0.032341555,0.013787163,0.019778788,0.03172956,0.013760371,0.04460461,-0.017007198,-0.00052561064,0.029985216,-0.05120875,-0.060811266,0.025145289,-0.026797324,-0.01699733,-0.009719485,0.016444506,0.031244721,0.022623878,-0.015505346,0.014072321,0.034775183,-0.040942453,-0.011867455,-0.015228996,-0.029088888,-0.06100947,0.054851696,0.05289937,0.022032658,-0.045648895,-0.0013079391,0.033550516,0.019172292,-0.039078955,-0.05190204,-0.039892342,-0.018027266,-0.0395006,-0.016962156,0.0073233712,-0.029312566,-0.04294683,-0.030194206,0.00028023226,0.022047777,0.024363533,-0.0250666,-0.04649664,-0.039988782,-0.05896855,-0.05981546,-0.019049171,0.015192082,-0.005377898,-0.027040623,-0.021923428,0.06074403,-0.050160706,-0.06248122,0.011866912,-0.047102578,0.014356172,-0.060026675,-0.0023557087,0.044282608,-0.05841759,-0.01300394,-0.062677786,-0.019723281,-0.05154162,0.024042297,-0.04235141,-0.030998472,0.044855528,-0.06062089,-0.031280957,0.046034288,0.017716646,0.016511329,0.05884122,0.03074669,-0.026506646,-0.058543846,-0.041022178,-0.060986776,0.007283378,-0.03686285,0.024622109,-0.06432381,-0.047744222,-0.018017126,-0.055871025,0.057888314,0.03291323,0.018840052,-0.0038305786,-0.010837866,0.024492394,-0.040174995,0.00022703782,0.037469827,-0.010213908,0.025584225,0.052875146,-0.015624948,0.05422976,-0.048162747,-0.04629066,-0.0012789869,-0.0034988234,-0.0026097214,-0.04623627,0.06045445,-0.038005065,0.026247695,0.029031307,0.035143197,0.031544477,0.04294806,0.020124469,0.05587967,0.012534231,-0.059072286,-0.03882856,0.0024219037,-0.00053165783,-0.00025968673,0.034856267,-0.04470732,0.022946604,-0.03223914,0.034089863,-0.029651744,0.008915754,-0.05458641,-0.050205488,0.03381066,-0.0051061697,-0.048654146,0.022993792,0.053110808,0.05814991,-0.016303651,-0.018579584,0.005883739,-0.0044194013,-0.045311324,-0.025204394,0.054782823,0.028576108,-0.0043102247,-0.05132398,0.027318101,-0.011316604,0.043123983,0.04689627,0.04188264,0.052486993,0.053309254,-0.00935409,-0.009645596,0.009107282,0.012758978,0.00029280508,0.00035907497,-0.00011365043,-0.036450833,-0.045194976,0.046183452,0.056930475,-0.027739141,-0.0064902036,0.013935069,0.042735368,0.012836048,-0.009870626,-0.0231696,-0.060686924,-0.052134786,0.049721684,-0.05553805,0.054839972,0.004750685,0.04759351,-0.05676949,-0.029299272,0.020460535,0.032813165,0.021479134,0.0023100083,0.0015073312,-0.024895865,-0.0429419,-0.055559278,0.018863348,0.046800286,-0.020567458,0.04648076,0.05843965,-0.011239894,0.017408358,0.011852032,-0.03016701,-0.009825001,-0.024725374,-0.058097877,0.062287226,0.0023250529,-0.0039584963,0.0520783,-0.026929405,-0.04161089,-0.003304406,0.06535777,0.014370009,-0.019950591,0.03976938,0.03946485,0.06376365,0.036255166,-0.06233152,0.05926411,0.005944173,0.017634,-0.038177304,0.006394665,0.04852501,0.058291778,0.049026392,-0.061778598,0.061449107,0.03323318,-0.038387727,0.006526379,0.05619453,-0.03263907,0.05382024,0.040494468,0.01439742,0.047685318,-0.04607196,0.018728264,-0.045961536,0.015239039,-0.010889705,-0.021311294,0.013974924,-0.007131283,0.01422453,0.043025766,-0.002252181,-0.039438024,-0.030229177,0.032033987,-0.045806877,-0.048541516,-0.035705112,-0.025630614,0.024871906,0.03769835,-0.04611742,-0.030991845,-0.032537945,-0.037796155,0.029762436,0.0019619004,0.052078165,-0.015540907,-0.02175621,0.022370845,0.02660384,-0.042623285,0.022077156,0.053256836,0.03734524,-0.024104124,0.020620974,-0.043422624,0.02474794,0.004170754,-0.045877583,0.067334846,-0.055329755,-0.024128325,-0.02990186,0.023745237,0.037341774,-0.038216762,0.015403414,0.0049935393,0.031197298,-0.013704597,-0.046438336,-0.018429577,-0.056384005,0.02768461,0.060313806,0.0061641913,-0.040501587,-0.0370164,0.01457184,-0.04404443,-0.023879312,0.0019209222,-0.042227894,0.022142984,-0.05344911,-0.048859216,0.023103707,0.038031064,0.055823606,-0.023203678,0.03871855,-0.025348535,0.05962759,-0.030284336,-0.015713455,-0.0283087,-0.014231227,0.045029286,0.016230244,0.024339339,0.02016738,-0.059448123,-0.022356268,0.031222489,0.015443198,0.023503669,0.039867297,0.030856876,0.00920032,-0.0053477483,0.04207331,-0.007244299,0.04489182,0.06275329,0.018383218,0.00048458297,0.018995544,-0.04656659,-0.001708965,0.054997966,0.031899963,0.017417353,0.0022454588,-0.033045493,0.023741603,-0.0127445925,0.036780097,0.0025058785,-0.04986058,-0.018217545,-0.052035987,0.029737081,0.018900428,-0.0036297864,0.031870373,0.005038997,-0.038477402,0.04986196,0.024913754,-0.036769576,-0.02153583,-0.024636418,-0.021027949,-0.0044517126,-0.031029578,0.038341846,0.003653838,0.05672534,0.028680077,-0.0389839,-0.05635053,-0.039370745,-0.060987506,-0.040975653,0.049012393,-0.045705512,0.008598394,-0.04566725,-0.04171075,0.046811506,-0.015881147,-0.052566003,0.04269375,0.022298155,0.009536305,-0.048155986,0.029229715,0.018176023,0.0014374536,-0.050868373,-0.02836806,0.022854593,-0.03257059,-0.038611323,0.056535125,-0.0333341,0.060270682,-0.032617897,-0.056835517,-0.055401877,-0.025515735,-0.054214023,0.01558622,0.024550755,0.055304497,0.020136282,0.026271917,-0.025611734,-0.003979033,-0.05036921,0.012318011,-0.058033235,-0.059964433,-0.048829768,0.03697446,0.016879544,-0.050590478,-0.039136264,-0.022305237,0.0492379,0.013633955,0.05913611,-0.02660801,0.027907567,-0.006677664,-0.041687552,-0.007245305,0.037839424,0.032675352,0.028180847,0.022510786,-0.028255727,0.04132002,-0.058531214,-0.03040525,-0.02940471,-0.019652544,0.04511006,-0.045977175,-0.039434522,0.04271947,0.05393649,0.0135018155,0.014348805,0.026078068,0.019591063,-0.0037712047,-0.0020038767,-0.025520269,-0.012139553,0.02630641,-0.0031011594,-0.013240368,-0.005521535,0.03454663,0.005246455,-0.06306994,0.0028177178,0.047886323,0.04273855,0.05867967,-0.04899785,-0.010697402,0.006935955,-0.029686242,0.018148683,-0.043019243,0.0275025,0.004284963,0.037894152,