0.0016764863,-0.0031192424,-0.0011860451,-0.005551951,0.00036197848,-0.00037807017,-0.001142475,0.00355742,-0.00020918871,-0.00063300494,-0.0029907504,-0.0037076361,-0.0025097663,-0.005452199,0.00029139174,0.0017244862,0.00096094894,-0.00076392887,-0.00489597,-0.0050098775,0.0046515493,0.0018959137,0.0015886314,0.0016064297,0.012719864,-0.00019737182,0.0024008648,-0.0036901173,0.00081007235,0.0031566687,-0.0023750337,0.0038687512,-8.6286236e-05,0.0015855394,-0.0064099757,-0.0010822904,-0.0041138,-0.0035258941,0.00030628138,-0.003412166,-0.0044365264,-0.0011035139,-0.0007353426,-0.0026892242,-0.0029897853,0.0020237262,-0.0030396318,0.005072454,-0.002958625,-0.00432173,0.0038926313,-0.0010441939,-0.000971457,0.00022846212,0.0014056971,0.0042585228,0.0028285924,-0.00073179795,0.00010352649,-0.002458103,0.00050314947,-0.005208509,-0.0018745608,-0.0009294009,-0.00055471354,-0.004081784,0.0013742477,0.0018302393,-0.0040514385,-0.0007948658,-4.3506134e-07,0.0010574975,-0.0010299989,-0.0029348037,0.0028356165,0.0022826279,-0.000679843,0.0009431046,0.0014409858,0.0022278216,-0.004890549,-0.0053170375,0.0014511519,-0.00038198786,-0.0006007978,-0.00083445426,0.002449911,-0.00055691914,-0.0013714357,0.004704275,0.00045443323,0.0026610298,-0.0040436955,-0.0023609977,0.0017262787,-0.0015064797,0.0020312911,0.0031990043,-0.0006527316,-0.0006897673,2.3494744e-05,-0.0074346745,0.0015538055,-0.0014183412,-0.00093824667,-0.0028588613,-0.0064782333,-0.011629984,-0.00012439111,-0.003122996,-0.005564675,0.0005926201,-0.001634283,0.00047131378,0.0036589438,-0.0023529907,-0.0030104155,-0.003798468,-0.0048470637,0.0029938738,0.003399733,0.0047139125,0.0008179621,0.0006820733,-0.002652309,-0.006370999,-0.00051874266,0.00050172606,-0.0026405319,-0.0054476773,5.187661e-06,-0.0012021505,0.0033038273,0.0024613817,0.0010974734,0.0039127376,-0.006031822,-0.000751412,0.0041449578,-0.0046231886,0.0009308577,0.0012891975,-0.0015330769,0.0007661971,-0.0061543104,0.00044837865,-0.0003038927,-0.0022036927,0.0014855762,-0.0031325961,-0.004204437,-0.00096498546,0.0021605743,9.9808945e-05,-0.004033112,-0.0022007378,-0.0015890589,0.0017640728,-0.006342233,0.005717804,-0.00014405829,0.0024392847,0.0023331472,-0.0015653886,-0.0022380198,0.004682362,-0.0029455088,-0.0011748256,0.0063906647,-0.002895264,0.00029774266,-0.006310816,-0.0031894476,0.0012288751,0.005384287,0.004054972,-0.0010035441,-0.0027521888,-0.0037183934,0.005293748,0.0007462644,0.0009877589,-0.0020060842,-0.00030590815,0.0053901924,-0.00015484003,0.0033658356,-0.0011671924,0.0021826674,-0.006690382,-0.0032122126,-0.0022764285,-0.004816929,-0.00368674,-0.00036561812,-0.0062462934,-0.0012992105,-0.0035189905,-0.0045254403,-0.0021634027,-0.0069183437,-0.002598141,-0.0010318968,-0.0035268026,0.003248501,0.0005723818,0.00044278923,-0.00021653424,0.004176678,0.00025218143,-0.0037661295,-0.0027746228,-0.0007199027,0.00198186,0.00014422878,-0.003348451,-0.0014207731,-0.0015795284,-0.00048474286,-0.0031456104,-0.0017776089,-0.0042574652,0.0016603278,0.0035051296,-0.007993979,0.0045723645,-0.0025556847,-0.0013641763,-0.0025122822,0.0015180624,0.00060001377,0.002912879,-0.0019681838,0.0010312996,-0.0067589954,-0.0014321601,-0.0042433944,0.00484207,0.0032660514,-0.00061459525,-0.0062834434,-0.00488071,0.0036001648,-0.004267376,-0.0032816492,-0.00257368,-0.002333453,-0.004476407,-0.002665983,-0.0019642306,-0.0021862257,0.0026362552,-0.0015022864,-0.0025447845,-0.004450228,0.0006119506
