-0.06236951,0.035933517,-0.026209231,0.021924164,-0.07496765,-0.087474234,-0.0892155,0.074533984,-0.07802506,-0.07895011,0.08464105,-0.023782134,-0.017833956,-0.08577337,-0.07437408,0.08164485,-0.013543744,-0.04240346,-0.019763649,0.042893365,-0.026013568,0.03614272,0.055339787,0.030385349,0.04071521,-0.06597542,-0.061133847,-0.07193018,-0.074414015,-0.057252727,0.045326777,-0.046802234,0.06961391,-0.010424611,0.029874595,0.053687934,-0.0851335,-0.02901575,0.06512931,0.030927707,0.04128993,-0.063184544,-0.009134499,0.0041653677,-0.01499054,-0.059378386,0.06931752,-0.019507183,-0.003362771,0.077181414,0.013093257,0.034665097,0.012411788,-0.07694286,-0.027114343,0.02468891,0.042541414,0.07029115,0.07411714,-0.013026213,-0.015968679,-0.025030797,0.03612473,0.025287632,0.061551586,-0.06232711,-0.014059401,-0.036405344,0.027643189,0.08356069,-0.020650439,0.014180655,0.06492962,0.023796272,-0.057247467,0.02045307,-0.008840574,-0.09064748,0.027217768,-0.00036262616,0.08569257,-0.077263325,-0.048067957,-0.04314422,0.09180875,-0.0021086344,0.020647965,-0.070186526,0.06232877,-0.02653722,-0.04654681,-0.008186819,0.0028854546,-0.02927341,-0.039174117,-0.08725014,-0.03885355,-0.05203425,-0.0098023955,0.010933246,0.07973403,-0.062437564,-0.07251249,0.07900344,0.050644845,-0.03146585,0.015919467,0.0785645,0.06059566,0.036738656,0.08469018,-0.018751979,-0.00044710847,0.076667726,0.0070755607,-0.0708566,0.034272857,0.043346234,0.07872352,-0.073153384,-0.02318316,0.0029788949,0.01342755,-0.07646388,0.016372377,0.08294052,0.010293823,0.03346836,-0.002990773,-0.0869225,-0.06804973,-0.06615397,-0.060911477,-0.027669001,0.03858191,-0.0780632,-0.07292597,0.065479584,0.06737833,-0.047485534,-0.017474277,-0.06071421,0.025331357,0.053097837,-0.05375015,-0.03008435,0.07514244,-0.008528506,-0.022398882,0.050846055,0.09214136,0.039866388,0.020507218,-0.004588316,-0.04755132,-0.045759246,0.04645167,0.021832597,-0.049315717,-0.023079354,-0.058052864,-0.006885521,0.05460535,-0.0009819443,0.04408846,-0.0031510675,-0.04774308,0.076691784,0.05260881,0.06666888,0.015385449,0.0501106,-0.060461894,-0.091371976,0.028186835,-0.075098634,0.024353325,-0.056549184,-0.029511292,-0.030844491,0.07531936,-0.08879272,0.034205794,-0.0060879216,0.0026483042,-0.050909754,-0.08031307,-0.081217825,0.023995763,-0.041303866,0.072241195,-0.060097322,-0.028983172,-0.044419628,-0.030151412,0.041178092,0.058041766,-0.008526882,0.06650613,0.004557659,0.028743088,-0.06267373,0.045890536,-0.0820652,0.047579497,0.08005304,0.042428553,0.082886025,0.0801471,-0.0397239,-0.07552812,0.02210574,-0.07452206,0.034830414,0.024645932,-0.006158462,-0.029352523,0.047581814,-0.023233967,-0.027826734,0.07500139,-0.0944753,0.07268599,-0.04598417,0.041327365,0.06418304,0.049052775,0.08168163,0.05869541,-0.009549687,-0.07725492,0.057229243,-0.070467904,0.005945363,-0.07483573,0.07393706,0.06421782,0.013950227,0.04936716,0.0108286105,0.055935156,-0.085214645,0.07599872,-0.037558034,0.041436136,-0.032090697,0.08131008,0.04240402,-0.04961393,-0.0047843987,0.04135108,0.07822616,0.06664488,0.013214366,0.061194744,0.044255428,-0.01728521,-0.00011823396,0.064155996,-0.06098319,0.023675274,-0.043647453,0.0767325,-0.017274031,-0.027272314,-0.06832074,0.048043415,0.05701618,0.008419536,0.018088168,0.062544495,0.047945015,-0.027098391,-0.036506176,0.060184717,-0.08072555,0.049692236,-0.0062884614,-0.0039958525,-0.019198608,-0.023356384,0.057938024,0.00943969,0.058937576,0.018876176,-0.085573226,0.0624828,0.027109291,0.03831633,0.0475303,-0.08741094,0.08818942,0.0791249,0.045826916,-0.034761924,0.038035825,-0.019014884,0.07580322,-0.05049063,-0.040150516,-0.041660517,-0.017363122,-0.00027578004,-0.059027858,-0.020702396,0.017865673,-0.030157097,-0.045302935,0.06538208,0.06249444,-0.014690084,0.08812907,0.06869896,0.058777377,0.03481762,0.02739027,0.034273997,0.05009588,0.07075289,-0.0028182277,0.046084896,-0.047280416,-0.014221263,0.04852486,0.079964384,-0.078072146,-0.03735773,-0.037095957,-0.050331414,0.015501909,-0.0017961883,0.024814405,-0.052263185,-0.011441464,0.021896128,-0.03015085,0.035645284,0.08590756,0.017226757,-0.04246385,0.07206422,-0.03466972,0.06900601,0.008892639,0.038199853,0.06917804,0.08356889,0.02882208,-0.039746113,0.009738475,0.057759494,0.039256673,0.044802286,-0.07751784,-0.082394466,-0.011806686,0.006400604,-0.0020117443,0.015766267,-0.007966924,0.06710713,-0.05057325,-0.022204846,-0.011846704,-0.013650382,-0.051256917,-0.058384657,-0.07218699,0.033897117,-0.07526952,0.040366095,-0.0023814412,0.058571227,0.038120814,0.024330568,-0.012741838,-0.060337566,0.038469404,0.056662746,0.010482594,0.01796189,0.07103713,-0.08119467,-0.05214309,-0.01868383,0.07007788,-0.041555528,0.05855026,0.05005066,-0.03892518,-0.08135426,0.038406555,-0.008819945,0.060548365,-0.02691057,0.08932394,-0.09028286,0.065195724,0.0030595069,0.0740323,-0.07690139,0.057211827,-0.04775249,-0.011036657,0.07443079,-0.04294301,0.027894203,-0.06263847,-0.035532057,0.06171353,0.069067255,0.0726352,-0.0054087304,-0.0819972,0.022380685,-0.06377196,-0.015505085,-0.006867567,0.008262892,0.06817444,-0.05955544,0.015831266,0.00589919,0.027203709,0.009816878,0.07925521,-0.017844852,-0.0806596,0.013567815,0.07884142,-0.031870283,-0.037014812,-0.005109002,-0.002782006,0.053104617,-0.07271695,-0.053101875,0.060373433,0.07015632,-0.016766623,-0.010022976,0.062449805,0.062454827,-0.013418934,-0.025305877,-0.02780423,-0.044283018,0.061563242,-0.060861625,-0.032877866,0.01903943,-0.021776728,0.036728255,0.0016185194,-0.07176159,0.039530434,0.042076986,-0.000506985,0.041165445,0.018744148,-0.036069065,0.07833873,-0.020771611,-0.040252715,-0.008529926,-0.02873091,-0.035409182,0.042952374,-0.033447813,0.03274837,0.017815905,0.08861555,0.002123291,-0.023162749,-0.06446335,-0.051521413,-0.0262371,0.0652996,-0.07072307,-0.034491673,-0.07432112,-0.08641601,0.034418166,0.07631005,-0.023503033,0.07820767,-0.09476429,0.054050766,0.07995321,-0.056659747,0.07367511,-0.070085935,0.010546303,0.06416935,0.0077075474,0.060962103,-0.085109584,-0.06575898,-0.02812529,-0.07138983,-0.060558803,-0.041233145,0.0022553387,0.026424497,-0.010978739,-0.02238351,0.012762371,-0.066292696,-0.064639814,0.069960505,-0.017572224,0.00020381686,0.02468536,-0.034078047,0.07151386,0.029789869,0.071686864,-0.0019974264,-0.07551863,0.029059837,0.088746205,-0.0072772484,-0.07304197,0.033111565,0.070570976,0.017505452,-0.023759592,0.043365214,-0.035021394,0.023789447,0.07243955,0.03446696,0.06369532,0.01078335,0.07369168,-0.045259662,-0.04641345,-0.050051853,0.026633248,-0.035749637,0.07948864,-0.08037232,-0.06878689,-0.045662843,0.07550288,0.06671968,0.019398255,-0.050568745,0.028249327,0.06537725,-0.052127108,-0.016282279,-0.061782,-0.082139865,-0.06525017,0.0403355,0.027555125,0.07266764,0.04274039,0.042364508,0.09375475,-0.039427258,0.033316284,-0.0449659,0.058712855,0.036820963,0.07781087,0.07187742,0.057028756,0.046509653,-0.03050828,-0.04609818,0.0008785982,0.045619495,0.032803595,-0.06126312,-0.07065777,-0.039657474,0.015092362,-0.013179507,0.06053956,0.05570854,-0.013619459,-0.04126764,-0.058112204,-0.018939998,-0.007095323,0.04555153,-0.059016086,0.031526156,-0.042080913,-0.08642114,-0.05042532,0.06583089,0.008304369,0.050190836,-0.040132307,-0.031047784,-0.03943868,-0.011515314,0.02904148,-0.020012788,0.07429143,-0.06959909,0.028000865,0.035957277,0.03571884,0.08008135,0.05281949,0.05050715,0.07261519,0.053697422,-0.03556257,-0.03896243,-0.07546897,0.06833446,0.06827149,-0.056685794,-0.038671955,0.07374844,-0.022523487,-0.0717445,0.04101307,-0.015978739,-0.018726956,-0.0441987,0.01819545,-0.014128269,0.031383075,0.03807167,0.07961406,-0.08606003,0.03670939,-0.042731356,-0.0059204013,-0.039176103,-0.0045124367,0.07719119,0.068454534,0.07830581,0.070840396,0.05267898,0.08562122,0.08804748,0.00037487186,0.045214638,0.057277218,0.07887878,0.06321978,-0.00030131656,0.06492902,-0.019799434,-0.051452093,-0.061875053,-0.040302068,-0.019346155,0.07284734,0.0031035803,0.021563606,0.07340023,-0.008292872,0.054961033,0.056876056,-0.024851494,-0.01637427,0.06851008,-0.011468313,0.031829253,-0.08223972,-0.022343997,-0.033386953,-0.014685718,0.023791414,0.06705874,0.0517004,-0.057080485,-0.082066864,-0.050818644,-0.014252948,-0.00058984733,0.099156804,0.058100887,-0.014409035,0.08578707,-0.048356637,-0.068089224,-0.018403403,-0.032934047,0.012349465,0.043271564,-0.084604405,0.030398358,0.0585352,-0.042159833,0.06133672,0.054706454,0.0651121,-0.08832286,-0.082695924,0.050699897,0.073005624,0.076028824,0.06701587,0.007404248,0.025709158,0.07014626,0.031905286,0.052679382,-0.0042496165,0.07577379,-0.0054673804,0.007944665,0.03939913,-0.08636673,-0.044934742,-0.049131274,0.0841115,-0.07117032,0.079642765,0.07541849,0.033364527,0.04518802,-0.07239375,0.03908668,-0.033521388,0.045136176,-0.001472218,-0.015284435,0.015038272,0.097052075,-0.06917626,0.05563021,0.009768768,0.031929404,0.07126571,0.079189084,0.087882765,0.017180592,-0.052700855,-0.021673378,-0.05363918,0.056163564,-0.047181,0.04533677,0.02790231,0.026161995,-0.023275152,0.003152465,-0.037434105,-0.06833025,-0.03691353,0.09235532,0.021593582,-0.035120096,0.038148765,0.026207587,0.04384549,0.001937004,0.017046664,-0.005989302,-0.022873063,0.032033492,-0.03781643,-0.073309615,-0.06434155,0.05725698,-0.08922917,0.06066697,-0.0012965952,0.050187938,-0.03768037,0.050881304,0.07980394,0.057424165,-0.013883157,0.042928755,-0.009013936,0.011439644,-0.02600329,0.06745267,-0.001085363,0.05508988,-0.046237335,0.02553344,-0.003939883,-0.04356535,0.07765263,-0.05488684,-0.0112310145,0.045458075,0.029530238,0.012262171,0.012038528,-0.03964782,-0.040647842,0.06697616,0.06283743,0.005949368,-0.06644319,-0.0365379,-0.06645334,-0.05092878,-0.0010731521,-0.055693015,-0.033325884,-0.05753286,0.027654152,-0.072434634,0.034643576,-0.07845635,-0.025650863,-0.04753463,0.07863936,0.01220572,-0.04931117,0.042031586,-0.07946185,-0.07313244,-0.059200965,-0.043240443,-0.029262314,-0.04872436,0.0049384995,-0.08289309,-0.07638982,0.050432213,-0.045298282,0.084554,0.011642246,-0.029924855,0.024025738,0.0837138,-0.037868716,0.03974999,0.0811601,0.087946266,-0.08253588,0.04227803,0.063000605,-0.013959268,0.016084526,0.067073375,-0.030122366,0.02980461,-0.029142538,0.08738379,-0.012985645,-0.06485994,0.07331896,0.02482365,-0.07450998,-0.00795199,0.03411265,-0.036718078,0.0074806265,-0.055239048,-0.07395542,0.067343086,-0.0018053227,0.06947441,-0.049519844,-0.08472362,-0.008421371,-0.028980503,0.016626563,-0.025641747,-0.05793245,0.09348373,0.031320367,-0.020712178,0.07606813,-0.029584153,-0.04653973,0.025222722,-0.07566665,0.058887877,0.07478565,0.0020282879,-0.080255345,-0.08407738,0.08023539,0.037799075,-0.024827637,-0.03454953,-0.002999045,0.060504556,-0.03501407,-0.05592131,-0.03881301,-0.072214425,0.022695336,-0.016098458,-0.015909541,0.08481433,-0.011427564,-0.090675145,-0.022214016,-0.033079647,0.0057390714,-0.070942976,-0.033615485,0.07275456,0.05944714,0.08188158,-0.00654862,0.08291857,0.030198138,0.012879228,0.037390403,-0.04773873,6.1999956e-05,0.030795274,-0.020464834,0.029575199,0.09162827,-0.011425946,-0.072924525,-0.027573235,0.04987482,-0.013312086,-0.089876205,-0.061577864,-0.040021777,-0.07444328,-0.0025233678,-0.01816874,-0.002983267,0.08590083,0.0684928,-0.058683902,-0.06839773,0.07015636,-0.060289938,-0.02029084,0.054165665,0.07447711,-0.0035569805,-0.060079746,0.009677469,0.03951849,-0.040039234,0.008106561,0.05420573,0.06972594,0.053149305,-0.022634864,0.040586773,-0.07175218,-0.019817706,-0.019573044,0.019266121,-0.06504792,-0.047581963,0.034631923,-0.061230768,-0.049812622,0.01970217,0.05734093,0.060115516,0.00028014785,0.031827554,-0.058777712,0.030899186,0.015202252,-0.05991789,-0.007542965,-0.07799853,-0.07744944,-0.010390854,0.0012180982,-0.05931542,0.077590585,0.031236667,0.07112241,0.04148764,0.041052442,-0.013710968,-0.033781875,-0.013890263,0.0047440254,-0.06277147,-0.029448727,0.065336645,0.061389107,0.010532154,0.06526958,-0.08043736,-0.043521352,-0.0136799235,0.035906028,0.02859794,0.03750345,-0.0051290924,0.091631934,0.041325584,0.00054199394,0.048817515,-0.08192614,-0.05359615,0.014986156,-0.010058153,0.07728049,0.0049181813,-0.046161037,0.014245309,-0.07497045,0.0817599,-0.031750284,-0.009540522,0.0847318,0.05780079,-0.054721173,-0.051638015,-0.024268124,0.010131281,-0.087660596,0.03323231,0.02186264,0.034465045,-0.06835582,0.07435777,0.08761862,-0.085483566,-0.009550922,-0.0074980217,-0.035577297,0.043510996,-0.03415561,-0.064763114,-0.0471543,-0.05545323,0.0905153,-0.032578304,0.06193062,0.03522776,0.032632347,0.08170928,-0.061537087,0.06946902,0.016185608,-0.00030299442,0.042726867,-0.04634771,0.07920407,0.04511062,-0.04787533,0.006414232,0.03367074,0.049195576,-0.039889544,-0.06665951,-0.054701395,-0.032414794,0.06265876,-0.06751108,0.069227695,-0.06503235,-0.008418016,-0.021443259,-0.06772405,-0.020913385,0.038868517,-0.027246812,-0.0019742853,0.006407853,0.09344757,-0.05369672,-0.00039947714,-0.08243867,-0.07175453,-0.031422526,0.08094329,0.06270583,0.033332296,-0.017295575,-0.011522204,-0.015254125,0.027872,-0.0012789234,-0.08047518,0.06123042,-0.02348892,-0.06565651,-0.0029055926,0.049290724,0.017801031,0.017761953,0.039789207,0.030208237,0.088520154,-0.015565972,-0.050078116,0.06526731,0.016131012,0.014608759,0.039086636,-0.01911909,0.020928878,0.024128439,-0.059344478,-0.036091104,0.023548465,0.087579966,0.06674446,-0.05296111,-0.04701455,-0.048173044,-0.007376534,-0.0697857,0.010347711,-0.063212216,0.025203355,-0.04238507,0.012543193,0.045382388,0.008444775,-0.060339183,-0.0005430908,-0.016995868,-0.04398969,-0.0421626,-0.07949811,0.07301307,0.06595282,-0.06227106,-0.0009776764,0.05089931,-0.0077617336,0.028954625,-0.014770031,0.02438179,0.036449004,-0.082966335,0.0033991558,0.053605933,-0.03381553,0.012710497,0.045167282,-0.030032046,0.042752594,-0.07877006,-0.08318947,0.08278096,-0.051722255,0.008995237,-0.041465007,-0.035161983,-0.05504761,0.034880448,0.022230644,0.044337563,0.02296339,0.042904038,0.035009384,-0.08562873,-0.00521368,0.07673526,-0.071133114,0.019037489,0.07240782,0.075216234,-0.066892326,0.05959198,-0.051778898,0.08665311,-0.009754228,0.03290627,-0.018188491,-0.018617276,-0.012871055,-0.07209858,-0.081299976,-0.036988534,0.014794337,-0.013710445,0.080578506,0.050581496,-0.04638215,-0.058471378,-0.07252893,-0.08580982,-0.07889212,-0.039235752,-0.09367029,0.035754815,-0.08755204,0.06724019,0.026950955,-0.08872247,-0.07793115,-0.018147573,-0.04291962,-0.0045613702,0.03199922,0.07211548,-0.06112583,0.050444722,0.05226198,0.011286624,0.05921503,0.05799505,-0.013894394,0.073431544,0.07018581,-0.05125533,0.07673554,0.06442631,-0.023895485,0.021104306,0.019112173,-0.025169685,-0.02027024,-0.035119914,-0.09217274,0.05579557,0.05726943,-0.046930436,0.009287382,-0.056432307,0.04763861,0.084539205,-0.06417045,-0.051370803,-0.035783783,-0.01132447,-0.0042247083,0.072835505,0.033118136,0.06430812,0.02623883,-0.08289009,-0.0192266,-0.0035125464,0.024561606,-0.058580346,0.018359376,0.07893751,-0.06282683,-0.030437756,-0.073321804,0.05001117,0.0048015825,-0.03972239,-0.04610452,-0.0319359,-0.018561484,0.0791764,0.04639249,0.0518156,0.078627065,0.027751148,-0.04718098,-0.082712114,-0.002969903,-0.04286042,0.08669992,0.058819145,-0.0069816923,-0.0012491837,0.011402309,-0.08084854,-0.002578208,0.019716881,-0.07340384,0.044912443,-0.01054777,-0.013234021,0.027527003,-0.07564554,-0.025451051,0.024274806,-0.060459957,0.020129636,-0.08463943,0.021027105,-0.04518591,0.0020587717,0.028690774,0.06847073,-0.09210363,-0.07611671,-0.068401456,0.005756735,0.07758486,0.084639,-0.0059139845,0.021453056,0.026639061,0.08518571,-0.0023907963,0.059632443,-0.037757035,-0.038607232,0.03626756,0.033219576,-0.0028676023,-0.030610476,0.017009221,-0.03737909,-0.06717575,-0.04650174,0.020214364,0.023514811,-0.033237778,0.07459099,-0.044896588,0.028287541,0.020715531,-0.040053308,-0.06924304,0.08006016,0.012640296,0.023229487,-0.07005252,0.040961362,-0.082077116,-0.078538194,-0.002100995,0.052013762,-0.055365354,0.025401572,0.03704159,-0.00088541576,-0.023106482,-0.064791165,-0.020378947,0.049330898,0.040767953,-0.08003938,-0.042442076,-0.06736474,-0.028940603,-0.023418091,-0.040341526,0.011637428,0.008516483,0.025587745,0.04896587,-0.020246249,-0.03345009,0.055503953,-0.037268497,-0.007941758,-0.0671815,0.019437065,-0.080520466,-0.026380416,0.032337185,0.008879321,0.0499715,-0.06017369,0.06047993,-0.020292655,-0.084706455,-0.016561061,0.061773706,-0.03687161,-0.07354628,-0.010490065,0.029933754,-0.06752874,0.031732123,0.016167844,0.04564929,0.013973163,0.06875625,-0.07222596,0.09929613,0.029082082,-0.03864196,-0.02052005,-0.0580972,-0.057208896,0.033728644,-0.040538296,0.05502896,0.09196749,-0.090351775,-0.044704147,-0.05191164,-0.06207396,-0.017835084,0.044045217,-0.0730008,0.03241499,0.0073978966,-0.05608306,0.08737815,-0.057727896,-0.0713955,-0.05639475,0.031200746,-0.0067927446,-0.012093009,-0.039853327,-0.023606613,-0.048923872,0.010525243,-0.029993879,0.088807836,0.034306973,-0.046987917,0.04114584,-0.03422883,-0.044213295,-0.05429787,0.069781564,-0.003533716,0.02250601,0.029634636,0.0100131165,-0.035643898,-0.009298388,0.072820604,-0.044686727,0.03305363,0.0361233,0.029618833,0.057893485,0.034032952,0.069680825,0.017613076,0.076686755,-0.011089488,0.08408558,0.036140595,-0.0548928,-0.0061804582,-0.078954756,-0.056312814,0.017341807,0.07541835,-0.025998313,-0.081541225,-0.0339427,0.08017656,-0.019773036,0.017220944,0.01964461,0.04479792,0.046330206,0.08290977,0.08548706,0.009512218,0.027121704,-0.08268395,0.005902421,-0.052864373,0.032202855,-0.015168279,-0.04573241,0.0754987,-0.047080103,-0.016654652,-0.037635848,-0.037141614,-0.045174956,-0.07245776,-0.04767098,0.007633682,-0.0009268862,-0.025959592,0.08139886,-0.024875551,0.0152924685,0.034030065,0.05191803,-0.06499486,-0.07218431,-0.00596964,-0.040203452,0.02727349,-0.03090052,-0.002031446,-0.006657188,0.06466021,0.015924755,0.040048696,-0.05486091,0.07844443,-0.035916917,0.069898404,-0.06701245,-0.03698013,0.0064495634,0.04496003,0.035734758,0.027840178,0.062259734,0.05199466,0.028644208,-0.04389228,-0.04973369,-0.08013155,-0.08586289,0.05173628,-0.02869786,-0.015665542,-0.05470462,0.014901649,-0.04140225,-0.02103642,0.083559394,-0.046854228,-0.049645957,0.05269912,-0.02468451,-0.008200005,-0.047457866,-0.0528958,0.021351624,-0.020078946,-0.0810521,0.053324908,-0.013791686,-0.020709407,-0.070452645,-0.026103009,0.082427464,0.045037143,-0.081217706,0.007877324,0.048637122,0.07394251,0.012671018,0.010903828,-0.08045025,-0.09129522,0.06606059,-0.08581869,0.028265597,-0.03242585,-0.009609977,0.05548609,-0.04685185,-0.0358024,-0.09191628,0.08352521,-0.069528274,-0.009118064,0.014690415,-0.08772392,0.08094534,0.07424687,0.02865573,0.07543269,-0.055203225,0.04233153,0.081475765,0.09404161,0.07893658,-0.013694644,-0.042729206,0.038211122,0.004581241,0.06309952,-0.010779079,0.07719149,-0.010465375,0.039476514,0.06719434,-0.033274353,-0.089666836,0.08255163,-0.030911315,0.0018190086,-0.037910618,0.050386377,0.08447467,0.073769316,0.05710064,0.010544693,0.082875304,-0.089552835,0.027522258,0.038799006,0.03737126,0.07666746,0.010646715,-0.012491087,0.08670521,-0.052194647,-0.020389512,-0.068031475,0.06591474,-0.014310617,-0.026123539,0.03707909,-0.08781823,-0.08347553,0.08502595,0.0014854546,-0.026647996,-0.02846723,-0.03360346,0.010743216,-0.05576431,0.016291294,0.019145777,0.07817593,0.04633639,-0.068834245,0.013364699,-0.08422181,0.07676858,-0.0720239,-0.057023037,0.055897478,-0.014002193,-0.082076505,-0.029669557,-0.009810338,-0.07103291,0.05960711,-0.074059755,0.0066060536,0.009763404,0.019725211,-0.081826,0.038725562,0.012704642,0.07183262,0.031561844,0.0620924,0.057349704,0.02849814,-0.09494949,-0.053296797,-0.068003565,0.032431692,0.032218166,0.081367664,0.089011274,-0.047494918,0.009922614,0.06298757,0.034113433,-0.01723049,-0.025143683,-0.021488458,0.032603595,0.018155321,0.06878507,0.02894468,0.0037398483,0.049118437,-0.0031444123,0.06284078,0.031984635,-0.069044486,-0.03237305,-0.01675679,0.019336144,-0.06948961,-0.0060926303,0.08293397,-0.065944135,-0.09170225,-0.05475327,-0.0049940962,0.086741686,0.07822257,-0.0041784616,0.0541841,0.0053437483,-0.0007783437,-0.04443673,-0.076997116,0.034388915,0.018514473,0.052578002,0.010715393,-0.003864626,-0.07045263,0.028625976,0.023561276,0.0681852,0.0045196563,-0.07395157,-0.0650284,-0.06355437,-0.026693674,-0.090505905,0.0365865,0.04089424,-0.07478008,-0.011504795,0.08262493,0.08352044,-0.037498772,-0.012366319,0.044289302,-0.08362748,0.008524283,0.081755675,0.031204615,0.038198628,0.07953021,0.017050141,0.040303178,0.008864522,0.05693712,-0.08510956,-0.027149871,-0.0053627044,-0.05798666,0.07568431,-0.06266287,0.07546333,0.08062648,0.03979596,-0.061789107,-0.046811536,-0.061423138,0.008164247,0.008147849,0.08556394,-0.07451207,-0.0061365627,0.04333169,-0.05163963,-0.06759669,0.06609206,-0.0038650301,0.019761583,-0.026496623,0.023974344,0.042675376,0.008117226,-0.08606068,0.014918273,0.04143525,0.03915829,-0.04601299,-0.009708056,-0.040483586,0.077133924,0.016753232,0.03479743,-0.023147266,-0.025371548,-0.027671814,0.07716368,-0.08747754,0.08328008,-0.077566296,-0.026441164,-0.022656325,-0.040681377,0.029239206,-0.07150858,0.002468727,0.027023382,-0.003956778,-0.029562946,-0.067948595,0.084459916,0.02251421,-0.039975446,-0.057146676,-0.019138563,-0.03306833,0.08165686,0.037421864,-0.011215875,0.08700414,0.081363216,-0.03140856,0.0036223168,-0.026358873,-0.054240733,-0.07503464,0.05043727,-0.046468914,-0.02489307,0.028822193,0.054341152,0.023512281,-0.046028715,-0.0018921416,-0.06459127,-0.020035561,0.016649544,-0.038918063,0.072735965,0.08257953,-0.005096782,-0.050696846,0.054904006,0.05054611,0.0015042908,0.089215666,-0.07192455,-0.086114824,-0.03084651,-0.06877285,0.08587167,-0.03819648,0.08565803,-0.02492937,-0.034770545,-0.08503823,0.04787211,-0.017736532,-0.04261224,0.07591856,0.09341042,0.04370991,0.0116388565,-0.032661002,0.015796103,-0.064565055,-0.01707533,-0.060900696,-0.035393745,0.056321107,0.01486888,-0.014202455,-0.078136295,0.002509979,-0.007526261,-0.030419335,-0.030850086,0.05628275,0.02321519,0.090714015,-0.07316898,-0.02173743,0.08957779,-0.0111262165,-0.06351638,-0.0118601965,0.07449065,0.069991015,0.010694913,0.057212867,0.056059286,-0.016042635,0.08723153,0.01794596,-0.03327613,-0.05993277,-0.023243174,-0.03728617,-0.09135653,0.031835604,0.059416898,-0.07487111,-0.035339057,0.00788146,0.061783265,0.022213012,0.047943868,-0.0670288,-0.009477523,-0.048621967,0.011869568,0.07980637,-0.020638213,-0.015278257,0.024663322,-0.0003617144,-0.0108121,0.021724973,-0.08048086,-0.03613152,-0.036230486,-0.062053338,0.06996017,0.0185729,0.03925985,0.01274409,-0.050248027,0.042226434,-0.07853931,-0.043348752,0.04537054,-0.067180276,-0.03933371,0.08430331,-0.052091293,-0.05325163,-0.04928071,0.00876097,0.06163486,0.022673035,-0.037818648,0.055544566,0.040416725,-0.05774805,0.0038687726,0.08164273,0.020032693,-0.08249112,0.05725299,-0.041247193,0.00195562,0.040405445,0.032258563,0.009361432,0.04939293,0.001892725,-0.013155746,-0.057796165,-0.038704693,-0.002344482,0.03773369,0.040488668,-0.017391644,-0.0012122284,-0.014163014,0.017315732,0.025395371,0.085936576,0.038182206,-0.0043847878,-0.012349291,-0.05003982,0.022518743,-0.06819184,0.04595364,-0.013726234,0.07906884,0.06882931,0.017301977,-0.004337036,-0.012076882,0.009619517,0.08026317,-0.02562314,0.085834116,-0.015424081,0.032416455,0.053327486,-0.024056341,0.06406082,-0.015830887,-0.019046739,-0.05268909,0.06216421,0.07971319,0.028969567,0.07593964,0.07053866,-0.035941936,0.086736575,0.027561314,-0.025614306,-0.025070116,0.080535,-0.030335013,-0.047202583,-0.07040413,0.08017614,-0.024744263,-0.07849927,0.0708992,-0.018795364,-0.04275478,-0.06892113,0.0012642122,0.03969785,-0.0831106,0.08262043,-0.06662459,0.033345085,-0.07041177,0.078688756,0.089327276,0.0125862565,0.007941973,0.010017069,-0.016823389,0.055826418,0.011233365,-0.057941325,0.060904115,-0.0037131368,0.05492769,0.028597683,-0.039154008,-0.082563855,0.031383708,-0.070673324,-0.085557744,0.08143912,0.008182561,0.08083363,0.04419999,0.04541856,-0.06760767,-0.07264481,-0.05096209,-0.02695416,-0.090884455,-0.046548188,-0.02434465,-0.048682787,0.048029914,-0.08167291,0.006663854,0.010723045,-0.079397544,-0.031412516,-0.06339957,0.028617144,0.033057116,-0.054372635,-0.063248746,0.027398095,-0.029446816,-0.04215515,-0.01101671,-0.007031115,0.08278374,-0.06764534,-0.06670895,0.07302831,-0.060839657,0.022667006,0.04341068,-0.0674694,0.061994463,0.027027663,0.09129748,-0.04057914,-0.053173557,-0.051688448,0.033483982,0.0479797,0.005691007,-0.07186738,-0.056393825,-0.03724523,-0.066733,0.04828112,0.034298986,-0.04806973,0.020437352,0.014505179,0.06051668,0.046520073,-0.021213293,0.039723776,0.05178063,0.028011577,0.084392525,0.046828605,-0.011911148,-0.0026819757,-0.051078547,-0.0006859234,0.013385281,-0.07094085,0.0016644814,-0.07170829,0.090795025,-0.027784653,-0.05026736,0.0018731945,0.046447814,-0.07038726,-0.0018898825,0.011252556,-0.041364,-0.0885559,0.018446561,0.032381233,-0.009465416,-0.057016186,-0.00070640317,0.07358843,0.084038034,-0.049836777,-0.05175525,-0.06399707,-0.04348255,-0.06776741,-0.0101591805,0.0049170833,0.04879573,-0.07906097,0.0773426,-0.031980276,0.003862428,-0.04612893,0.0048702722,0.05277987,0.07826686,0.043177314,-0.039238952,0.0697058,-0.026277266,-0.012798017,-0.035003196,0.023925062,-0.044393048,0.0058294786,0.06259373,0.058774173,0.042319223,0.0077395095,0.058187418,0.011282142,0.084617436,-0.005541384,-0.07535215,-0.0065224413,-0.069619104,-0.011616948,0.02328664,0.07341349,0.04096639,0.013611548,0.03769041,-0.07105462,0.0056131063,0.051283706,0.053052068,0.049282387,-0.011160066,-0.021539029,0.009485034,0.0029477081,0.046570502,-0.041709736,0.0056149904,0.030449107,0.073572606,-0.074090436,0.057180595,-0.06411381,0.032632302,0.052279547,0.0043657334,0.041143328,0.0058983117,-0.07126095,-0.0463564,0.0042632804,0.043653544,-0.06247502,0.017078865,-0.030444777,-0.018870935,-0.011649118,0.05831821,-0.049281597,0.08374032,-0.06902465,0.06937313,0.04138267,0.046576567,0.07333279,0.09794401,-0.053713314,0.0074240854,-0.09061578,-0.069093816,-0.016958501,0.02640662,0.035322208,-0.010026402,0.057122152,-0.007351374,0.07576819,-0.0342654,0.064325854,0.03655184,0.0013697669,-0.0010113954,-0.05170408,0.059178315,0.048177272,-0.053013355,-0.041975558,0.027669083,-0.077453636,-0.075512946,0.0069063352,0.0715552,0.07687569,0.048680946,0.05795034,0.046921503,-0.043589205,0.0030072401,0.016420756,0.004629487,0.051793706,-0.029726315,-0.05049561,0.08055031,0.00501405,0.07098322,-0.0521278,0.026529802,0.037692823,0.03804013,-0.065715805,0.08604117,0.0055729765,-0.049640596,-0.02992713,0.019067403,0.08727475,0.030095585,0.02091974,0.03191679,-0.02643767,-0.043418724,0.025507364,-0.07042962,-0.05786212,-0.07868377,0.07696356,-0.011735173,0.022517946,0.016424492,-0.018599244,-0.08174569,0.082158476,-0.030148312,0.02873689,-0.0073000933,-0.06753701,0.007204405,-0.03744477,0.0735998,0.056459587,-0.059642002,0.07927752,0.063265294,0.026401736,-0.007642102,0.07675013,-0.062206134,-0.049513184,-0.021933038,0.027828738,-0.046976175,-0.07996054,-0.010277604,-0.039203577,0.018650886,-0.02186035,0.08564575,-0.033518285,-0.03693723,-0.049588062,-0.037869055,0.06439544,-0.07120245,-0.047896788,0.011694072,0.046388153,-0.069525175,0.057326823,-0.050684646,0.018368186,0.06543259,0.021274278,-0.058764026,0.02951241,-0.088775665,-0.07310893,0.054901652,-0.045545526,-0.045937493,-0.05373745,-0.08150011,-0.07744007,-0.04125733,0.03147274,0.033698723,-0.052822508,-0.04124382,-0.029710956,0.087355606,-0.032507196,-0.0070914906,0.0052164076,0.010867139,-0.0016834307,-0.027391177,0.08183925,0.051774386,-0.06802567,0.01798515,0.07376714,-0.00094039564,-0.05133874,0.013031274,0.022860602,0.07869151,-0.07840212,-0.059751216,0.014508717,0.0654954,-0.025701411,-0.034540698,-0.0044374815,0.05202333,-0.07905113,0.03139924,0.029251814,-0.07099749,0.047803838,-0.04490371,0.07594645,-0.054629456,0.028321952,-0.05035039,-0.02214277,-0.05710254,-0.03402444,0.05560977,-0.06237486,0.0067981216,0.013874846,0.009404076,-0.06431909,-0.005572182,0.018340182,0.02174944,0.06447637,0.0009827156,0.06475092,0.023472512,0.0682229,-0.040960483,0.0679913,-0.014664391,-0.028538894,-0.012634431,0.057987455,-0.018052544,-0.0016559446,-0.05421734,0.082873814,0.06585546,0.025689563,-0.02903966,-0.06831339,0.05146867,-0.07469633,-0.034501623,0.07116433,0.08059315,-0.044724144,-0.03513422,-0.043794602,0.081357226,0.080048606,0.043671668,0.0355041,0.065251485,0.08094384,-0.03976503,-0.04247081,-0.04819908,-0.049951106,0.041497648,-0.019203432,0.06702012,-0.0049037887,-0.026762512,0.012785114,-0.068248235,0.027042555,-0.08037011,0.057210237,-0.05331316,-0.024382114,-0.05711756,-0.08087487,0.008374364,-0.038429014,0.009133657,-0.02295643,-0.062028073,0.054955117,-0.08883719,0.044159137,0.05987008,-0.012099993,-0.015689123,-0.07049582,0.06008803,0.040891923,-0.048772626,-0.035731018,0.08694929,-0.079460815,0.080712914,0.0041788258,0.05322738,-0.012989879,0.07615481,0.061790776,-0.015289876,-0.06855984,-0.009954353,-0.02369943,-0.021543857,-0.034008928,0.0024938728,0.006694705,-0.013637425,0.08374656,0.06389357,-0.050513066,0.03493813,-0.027347006,-0.07744947,0.07234376,0.045509003,-0.03517668,-0.051208112,0.0018489361,0.022279294,0.01037494,-0.059776634,-0.03002787,0.023150332,-0.07890194,-0.051206402,-0.05433449,0.017584743,-0.017059952,0.057251625,0.037128508,0.013176963,-0.044127982,-0.050093815,0.004057365,-0.02391604,0.027170086,-0.07807508,-0.075067446,0.0363412,-0.08343145,0.054807954,-0.08116647,0.041336663,-0.03626257,0.009100018,-0.048160486,-0.016477238,0.067025505,-0.03773799,0.008810883,-0.04661456,0.020860784,0.087971404,0.04146663,-0.029097468,0.007745696,0.015762273,0.013906227,0.07311154,0.004470732,0.059882425,-0.0025265422,-0.08543265,0.038220786,0.046399552,-0.033901766,0.07661854,0.03013365,-0.034786895,0.060934443,0.068083584,-0.041954108,-0.02608848,0.03483998,-0.025312956,0.030644426,-0.06388229,-0.05953163,-0.036504492,0.08259986,0.07088378,-0.009407412,-0.048791744,0.062646195,-0.009903073,-0.06250193,-0.045564312,0.0513682,0.0018459607,-0.080975756,-0.061109826,0.023861764,0.03069353,-0.02997793,-0.08590889,0.0287097,-0.006494613,-0.021476071,0.047573045,-0.0030599288,-0.016248697,-0.034524493,-0.040638,0.0017254781,0.03918676,0.032151066,0.05781801,-0.03257182,-0.016455427,0.027442914,-0.070478134,-0.06277773,0.04550239,-0.038903695,-0.009683836,-0.02540338,-0.015513169,-0.02577453,0.086322576,0.03468578,-0.04602738,-0.0026209634,0.016894586,-0.046268985,-0.038697436,-0.014568396,-0.05342124,0.08253828,0.08501831,0.015223367,-0.046038505,0.008496232,-0.066021636,-0.040647123,0.045271784,-0.030266864,0.010691067,0.022496497,-0.082468644,-0.021653157,0.013309615,0.06334868,0.043652344,0.0440297,-0.034215733,0.05784691,-0.02519996,0.015165677,-0.052474797,0.017790645,0.07969646,0.041655272,-0.0008620559,0.01328099,-0.010776997,-0.07863076,-0.020291008,-0.026518859,0.054939754,0.07405314,0.010959502,-0.042247318,0.007078575,0.025809957,-0.047981214,0.08379823,0.016343921,0.01890577,-0.026847549,-0.06265488,0.089854464,-0.03801522,-0.011726554,0.07864744,-0.08984716,0.018051628,-0.0076455097,-0.00092136656,0.04671526,0.0045920927,-0.07325685,0.077379555,0.028475394,-0.031811092,-0.08161292,0.04644052,0.048437387,-0.05738148,-0.07656523,0.048471503,0.030505452,0.03672903,0.061063208,-0.082442835,0.0649053,-0.06001997,-0.05772009,0.037671104,0.08254421,0.058750685,-0.05114509,0.0109898485,0.07878982,-0.024087826,-0.07649064,-0.02636138,-0.058951616,-0.03611455,0.016216472,-0.06335334,-0.06014889,-0.02241992,-0.043694958,-0.078237884,-0.08024891,-0.044485204,-0.056706406,0.057608902,-0.03984224,-0.060788654,0.019805338,-0.009616347,0.060052972,-0.050003424,0.035408296,0.0074851685,0.019085068,0.019626979,-0.034883097,-0.017234951,0.0768331,0.007212295,0.03635378,-0.013030825,0.06530598,0.0535744,0.03519545,0.003618855,-0.07802724,-0.083207116,0.0133870095,0.029009487,0.014450975,-0.029205624,0.036511574,-0.056749627,0.04018934,-0.07854928,0.019934118,-0.07783758,0.03925424,-0.026052468,-0.09014116,-0.014534194,0.00017799635,0.015558181,0.023901962,-0.08027799,-0.08127591,-0.019645747,-0.07993837,-0.05528637,0.079289846,0.01734373,0.019695453,-0.033251442,-0.0019791028,0.007813217,0.08176231,0.04948868,0.04616841,-0.009633275,-0.08732668,0.030715391,-0.08774846,-0.07454023,-0.0050433776,0.05110745,-0.027762288,-0.0025289636,-0.0073939683,0.07385263,-0.038771696,-0.028094107,0.057590913,-0.061720677,0.078045905,-0.039975617,0.0076935617,-0.011481967,-0.03338889,-0.019438263,-0.047920294,-0.0425016,-0.063749894,0.05974534,0.045431033,-0.054516017,-0.024880795,0.052542675,0.023214746,-0.036634184,0.034329996,-0.08388848,0.026847418,-0.01552752,0.052707374,-0.08578615,-0.0125563815,-0.030366857,-0.062545866,0.04014373,-0.07601517,-0.062735334,0.01881074,0.052942228,0.08047566,0.06617345,-0.0020029158,0.07674852,0.0021028058,0.0900605,0.07357515,0.060019843,0.044102743,-0.04878422,-0.060494415,-0.025902703,0.007390709,-0.034718323,0.04429617,-0.083610944,0.06602416,0.04667239,0.07387596,0.030320957,0.046516664,0.049619704,-0.072620764,-0.06168414,-0.04833779,0.069089696,-0.017798044,-0.0012846913,0.020169009,-0.012900099,-0.059485134,-0.04569804,0.019311303,-0.026913185,0.07231194,-0.02362106,-0.08167884,0.009546189,-0.081764966,0.0044282246,0.015026856,-0.019259252,-0.052564874,0.035004,-0.010181656,0.035687543,-0.011392837,0.04121982,0.077918455,0.0007705362,0.05268816,-0.034151755,-0.085625485,0.041960664,-0.038445994,0.08000532,-0.0602745,-0.049795724,0.031067293,-0.031188851,-0.017212108,-0.037963636,-0.04821086,0.006665833,-0.07948643,-0.066634715,-0.08949126,-0.0188037,-0.038881995,-0.03253256,0.078810096,0.02327486,-0.087901734,-0.050721645,-0.041120872,-0.0712689,-0.07574733,0.046757273,0.042374626,-0.0781647,-0.049747076,0.044471383,-0.021295846,-0.013800228,-0.017978337,-0.041760452,0.0063357,-0.023735836,-0.048437648,-0.07560538,0.02114443,0.0775446,0.079732835,0.08540863,-0.07794246,-0.022169463,0.07000294,0.041277155,0.06311336,0.0798115,0.0013144901,-0.005367564,-0.073789075,0.037385732,-0.027579162,-0.04456322,-0.08741845,-0.0400491,-0.086309016,0.045955688,-0.0659834,-0.038536772,-0.07416308,-0.060118042,-0.0316412,0.07562232,-0.014331609,0.0077678254,0.024158249,-0.04425653,-0.027884673,-0.037246555,0.04265841,0.04482527,0.011711744,0.001577158,0.025790282,0.04042603,-0.026577797,-0.07748415,-0.087147996,0.03686481,0.07786497,0.04865765,0.0068381447,-0.008113964,0.025249436,-0.013885431,-0.0035456775,-0.014240856,-0.011405711,0.053430013,-0.0054545356,0.017417643,0.061968178,0.020739816,0.02692299,-0.020313822,0.022763887,0.0070979623,-0.068437606,-0.08724572,-0.013953717,0.07290334,-0.01641532,-0.00030479964,0.0061316267,-0.017372128,-0.027591618,-0.03399014,-0.0761144,0.027234813,-0.078631334,-0.08213395,-0.02486762,0.042047143,0.07506494,0.0599202,-0.06116388,0.031162895,0.018331815,0.055897646,0.06762537,0.04964494,0.06081093,-0.050254747,0.05752679,-0.076501,-0.043828093,0.006092145,0.07145019,-0.007019989,-0.020624205,-0.001050716,0.08034475,-0.07378222,0.06591871,-0.033170573,0.032383118,0.08743757,-0.07357982,0.03841506,0.05683468,-0.0130772,0.04004951,0.04150169,0.08398375,-0.05067362,0.013212745,0.01616751,-0.044164363,0.09160721,0.044681832,0.0137863625,-0.027953906,-0.02535718,0.06250931,0.08765578,0.044591717,0.0022930484,-0.045005843,-0.07779263,-0.04483199,0.05370178,-0.013815687,-0.07450166,-0.02747391,0.047325097,-0.014034738,-0.009117899,0.05370272,-0.0052640685,0.062126167,0.067085795,-0.08037637,0.04230691,-0.07763432,0.08073164,-0.017781513,-0.06767087,-0.05337194,0.08746697,-0.014394451,0.071061105,-0.07839471,0.06415935,0.031242352,-0.07290379,0.056292407,-0.040059153,-0.0015194216,0.013008255,-0.017889285,0.009859544,-0.044520292,-0.011167748,0.013869669,-0.0599339,0.027584244,0.061814457,-0.06517427,0.07691024,-0.043831646,-0.033572502,-0.01495935,-0.059291206,-0.07914621,-0.011284308,0.024414495,-0.025744267,-0.045413278,0.024736486,0.06561219,-0.079229325,0.022604924,0.002996087,-0.07714778,0.026648134,0.054399587,0.037589345,-0.08552975,0.017235734,-0.088215224,-0.018314207,0.010382639,0.06950459,0.051970374,-0.08347361,-0.06693679,0.08258463,-0.017471623,-0.051018313,-0.011491311,0.028929878,0.017485056,-0.04592056,0.03534414,0.049653493,-0.05333461,-0.060167916,0.0515939,-0.0672469,-0.07108149,-0.03309682,0.024004295,0.021016043,0.03562063,-0.044262864,-0.06270026,0.041044496,0.057688758,-0.031632923,-0.07453672,0.07071527,0.024347302,-0.0655864,-0.053465404,0.03674324,0.07972807,-0.023491692,-0.040417973,0.06369896,-0.061227717,0.082682945,-0.033380948,0.015486872,-0.04228984,-0.06369439,-0.07453366,-0.06651072,0.07781103,0.039730825,0.088714436,0.04010779,-0.07068995,-0.047703493,0.012919961,0.087822795,0.07368034,-0.021598851,-0.051441126,-0.011132664,0.07402603,0.04174903,-0.03824822,0.0029729013,0.025700983,-0.057151265,-0.052982673,-0.023134703,0.013622407,-0.013129922,-0.066227235,-0.020603983,0.0688082,0.08330715,0.028750144,0.019267697,0.08056004,0.0016585244,-0.08366275,0.07793827,-0.03191344,0.06706555,0.043332092,0.066424266,0.052144244,0.017559547,0.055784732,0.07917702,0.02104722,0.06601736,0.035692032,-0.012111897,0.061486788,-0.0075226584,-0.02691466,0.027874038,0.06309917,-0.046304747,0.06658808,-0.0891113,-0.0516829,-0.042557098,-0.085340545,0.026749987,-0.08600895,-0.009999808,0.03196089,-0.08632564,0.07734883,-0.07450053,0.040490948,0.033420943,0.066150256,-0.07764976,0.06755617,0.055478856,-0.08147,-0.0032114177,0.019906152,0.022511266,-0.063860476,0.054483395,-0.078973636,-0.08952436,0.04246158,0.0046695536,0.06525522,0.09084034,0.07659949,0.036395587,-0.0337581,-0.05550447,-0.034095332,-0.079964355,-0.02123671,-0.06736454,0.08425855,-0.031120498,-0.008579783,-0.062782824,0.0069248173,0.04859183,0.084402755,0.06456632,0.044792987,0.0026997197,-0.034737438,0.06468204,0.00019333411,-0.047584027,0.0615642,-0.020909978,0.004097416,-0.06192045,-0.06805897,-0.036147676,0.03451349,-0.06518902,-0.07556805,0.057063065,0.046091944,0.01494509,-0.086068854,0.059321564,-0.073827125,-0.024769876,-0.0838975,0.0091025755,0.07220927,0.05484931,-0.065619096,0.078334495,-0.0123880375,-0.060063332,-0.037980855,0.050935984,-0.020732746,-0.025181774,0.020682666,0.076533385,0.037936933,-0.07413307,0.066241406,0.07451165,0.004407556,-0.027197085,-0.039164133,-0.0073818755,0.0024495833,0.058044255,-0.06883232,0.08021237,-0.073416635,-0.072370894,0.024645897,0.03727756,0.040624104,0.005051861,0.06824133,-0.060412563,-0.07958569,-0.03365825,-0.07053339,0.06368143,0.012490878,-0.055221304,0.009601771,0.044430196,-0.026050773,-0.024202682,0.005633508,0.04164286,0.04436838,-0.009748623,0.0058854898,0.025294915,-0.031449575,-0.027921721,0.07503176,-0.012380307,0.020794181,-0.025545677,0.025036657,0.034408417,0.08148611,-0.059757568,-0.097106695,0.013411891,-0.048994124,-0.01956211,-0.03134,0.037324138,0.044696078,-0.014836479,-0.00086426426,0.0047203107,-0.04156352,0.019772768,0.0754012,0.02017796,-0.092258714,-0.047818717,0.05196923,0.0052435216,0.03281871,0.085069366,-0.037287056,0.085749194,-0.08403832,0.08411276,-0.035582706,-0.055975616,-0.007034495,0.04086201,-0.042892728,-0.07931342,0.041524593,0.0034991251,0.0018748231,0.077095315,-0.0140676,-0.05316619,0.084688336,0.068450615,-0.0821542,0.05848459,-0.032635964,-0.034621373,0.01609607,0.051987924,0.022283353,-0.07946209,0.0251696,-0.08269815,-0.035971608,-0.030107526,0.06328337,0.07230319,0.002036355,0.02320728,-0.05851073,-0.085776106,0.018072005,0.034003496,-0.018980633,-0.077344276,0.04456131,-0.02952636,0.05520464,0.07963234,0.07332119,-0.074372575,0.06551413,0.0044715926,-0.042111807,-0.0063155256,0.014727073,0.037079923,-0.038003843,-0.07066254,-0.059205227,0.041187122,-0.011050994,0.05016283,-0.02845209,0.073106125,0.00023652805,-0.052793182,-0.0037811033,-0.0026282906,-0.015768224,-0.0521762,-0.03970091,-0.081880756,0.027996521,-0.06345652,-0.05734225,-0.053224836,0.05399342,0.084437035,-0.036348194,-0.07874866,-0.06755288,-0.061054282,-0.031521983,-0.0035493856,0.04729455,0.042985532,0.04700803,0.03179253,-0.03702008,0.09324877,-0.06889345,-0.021976966,-0.04603438,0.030930158,0.065537706,0.04919647,-0.07294555,-0.02811148,0.048471548,-0.073181964,-0.021615364,-0.07310032,0.038487293,-0.08025555,-0.089743204,-0.027065646,0.050464183,0.06444785,0.015847854,0.085190296,-0.017075535,-0.00928163,-0.011913078,0.06773454,-0.075997,-0.0570243,-0.070705935,-1.0746736e-05,0.003752643,0.03622689,0.054931436,0.09240091,-0.07466374,-0.028073765,0.026921034,-0.0006197638,0.01599281,0.0054202774,-0.0833506,0.048972037,0.07549259,-0.004948918,0.05604046,-0.05626873,0.057295065,-0.04978242,-0.0025913995,-0.022281345,-0.022496253,-0.007525376,0.06278944,-0.05525518,0.08411662,0.07237809,0.07435066,-0.05115371,0.0074177105,0.039083973,0.02253215,0.034317035,-0.019359218,0.028727695,0.020251004,0.04093978,-0.02342841,0.043329,0.06306145,-0.0054914122,-0.036898416,0.0028577826,-0.07880424,0.036509298,-0.091234595,-0.011267439,0.017968856,-0.045359813,-0.016447952,-0.020411598,0.050526142,-0.06531211,-0.027934963,0.022212576,-0.059903607,0.009834481,-0.08575883,0.06828864,0.059999418,0.01721584,0.062264577,-0.066355415,-0.014013065,-0.05341263,0.021165384,-0.038456425,0.06388468,0.06911989,0.075753465,-0.03906945,-0.01838631,-0.009573646,-0.0073453737,-0.04315172,0.07892546,-0.082775936,0.044052187,0.013868088,0.07513853,0.08273018,-0.047154535,0.07227817,-0.06746593,-0.02408002,0.08264719,0.034805126,0.019929606,0.036878683,0.026834195,0.04755888,-0.055027496,0.043607205,-0.06863351,0.081127375,0.075494915,-0.036625154,0.05820796,-0.017666027,0.019647097,0.013852615,-0.058637027,0.042132445,0.07589932,0.07284784,-0.034295656,-0.08314599,0.06534045,-0.04234226,0.014785705,-0.014025473,-0.06814552,0.03529089,-0.027920961,0.008673968,-0.039493196,0.024958141,-0.08680763,0.094174996,0.0045859823,-0.035442583,0.039544336,-0.048903145,0.06936036,-0.004320205,0.084545374,0.072610155,-0.075284116,0.073393434,0.059764124,0.06979275,-0.04571647,0.077573895,0.07102816,0.037068896,-0.019194042,-0.028165055,-0.07285923,-0.03697764,0.032884095,0.058573492,-0.010228749,-0.042048648,0.057906263,-0.08349537,0.01945321,-0.07069521,-0.06803271,0.03383433,0.08466401,0.06218534,-0.04572633,0.0013142251,-0.07821391,-0.0038504107,0.056849226,0.008947143,0.040977508,-0.031142246,0.059793387,0.028457005,-0.0859943,-0.07014463,0.06405488,-0.0074387337,-0.047905248,-0.06515849,0.0033162155,-0.048694722,0.08083907,0.048788458,0.08835237,0.05545984,-0.08323935,-0.05847254,-0.048438452,-0.0733318,-0.07403301,0.086729825,0.015233249,-0.05368732,0.037796516,0.084114686,0.02330253,0.025044838,0.04442259,-0.05625876,0.020053897,-0.009137781,0.08760671,0.008156445,0.005967801,0.014285619,-0.031938415,0.0104780495,0.04771059,-0.02769235,-0.0024179441,-0.06095229,0.077673234,-0.0014412706,0.05770941,0.041029382,0.05883218,-0.082521304,0.0256866,-0.01287367,0.026908923,-0.036172234,0.078619294,0.061928954,-0.04345086,-0.04892724,-0.060150977,-0.019109724,-0.08270944,0.074023396,0.054475144,-0.018112773,0.02724256,0.08882722,-0.054297913,0.01533064,-0.08397729,-0.080439806,0.07458341,0.07317297,-0.001618158,-0.07054387,-0.051383756,0.07168856,-0.009654118,0.014340101,0.052192353,0.05681769,-0.04441909,0.07395966,-0.014125459,-0.04995062,-0.07180077,-0.03775713,-0.00037981494,-0.05234091,-0.08071463,-0.0090834135,-0.06421128,0.0099479975,0.0012475551,-0.02514027,0.056518413,-0.088499874,-0.010593393,0.06302479,-0.032608062,-0.06458701,0.0612652,-0.038057957,0.03488867,0.012987317,0.020070974,-0.07682267,-0.06693041,-0.0030105421,-0.08221744,0.07817305,-0.039376855,0.031338327,-0.03258483,0.043655656,-0.018030075,-0.0464554,-0.08524527,-0.051818393,-0.059280314,-0.01632877,0.039712094,-0.06573596,0.04854638,-0.061257157,-0.0015623234,-0.08612415,-0.03908057,-0.04284568,-0.016522717,-0.0665628,0.021002244,-0.08390835,-0.042828344,0.07737513,0.02794119,0.0533135,0.029119056,0.030147754,-0.03864464,0.0605776,-0.0668446,-0.05288194,-0.03738688,-0.04900292,0.070995495,0.08257465,0.0033322577,0.0065218247,-0.011228148,0.028352413,0.058334973,0.01672551,-0.0105410395,-0.07702896,-0.012462078,0.012971863,0.059015527,0.07234368,-0.006812004,0.072716646,-0.0005937323,-0.053394046,-0.067683816,0.04575022,0.0067183767,-0.044261247,-0.0170621,0.00837936,-0.04091787,0.039516702,0.033390306,0.011357319,0.03138969,-0.08320793,-0.030437397,0.087003246,-0.06864389,0.014790935,0.006309362,0.03149721,0.04108108,0.0534813,0.04157444,0.012058459,-0.059610203,0.0653768,-0.040704675,0.003181283,0.073555365,0.043390207,-0.07627149,-0.06105529,-0.050128628,0.004681103,-0.00382694,0.05788429,0.030318905,-0.05798222,0.066388085,0.014084125,-0.0008211552,0.011015896,-0.039926395,-0.018107478,0.022383474,0.06876279,0.07391874,0.029287465,0.012728234,0.023522709,-0.031863425,0.029369637,0.034591433,-0.0788408,0.07560784,0.0208032,-0.050036456,-0.0884135,0.005334994,-0.042248547,-0.08903657,-0.019300766,-0.044484094,-0.022612149,0.042281635,-0.038481764,-0.08555792,-0.054025352,0.07281925,0.006887979,-0.06716022,-0.027698506,0.029092187,-0.05811913,-0.081138775,0.011447899,-0.020590499,0.020898305,-0.021016669,-0.089867935,0.06281217,-0.06240759,0.079960674,0.049789473,-0.029172175,-0.016727211,-0.007188147,-0.025003184,-0.026519233,0.050113976,0.01099581,-0.020684846,0.033679515,-0.005564359,-0.036348805,0.058512837,0.012981884,-0.01487268,0.048988003,0.04551418,-0.05255785,0.033192147,-0.06593239,0.082730204,0.013701418,0.0055116285,-0.092823066,-0.053196095,-0.039951723,0.021467386,0.049305,-0.061048776,-0.010118891,0.039754845,-0.07280114,-0.01107193,0.050181553,0.049265034,0.05301001,-0.06357142,0.014135649,0.005543383,0.018717293,0.012677483,0.01859825,-0.020055106,0.03008984,0.020997684,-0.020213882,-0.06790838,0.05515833,-0.09059571,0.04754714,-0.07049356,-0.024921656,0.07599531,0.047406234,-0.018252522,-0.025706168,0.031597257,0.04870802,-0.04723946,0.0054172324,0.063669294,-0.05148486,-0.02688282,0.007779764,0.0451952,0.061909314,0.08650641,-0.041873842,-0.0816433,-0.01257374,0.043234836,-0.005980029,-0.010043524,0.058052555,0.019894613,-0.001454158,-0.073676884,0.044269282,0.06463516,-0.052198067,-0.08764342,-0.044075098,-0.040807784,0.005509752,-0.057617728,-0.015222763,0.059623227,-0.056415267,-0.03221579,0.012973973,0.010785352,0.018264674,-0.0015744746,0.082296334,-0.033161238,-0.08481794,0.0779424,-0.027436838,0.06069704,-0.066423565,-0.041606672,-0.005006825,-0.07346953,0.06342757,-0.030501874,0.058892146,0.07903379,-0.008993462,-0.0733742,-0.052600577,-0.019346263,-0.043408893,-0.04573822,0.07629779,-0.018769179,0.08375938,0.08297258,-0.006263162,0.08420935,0.003635579,-0.094471954,0.07561241,-0.06900114,0.04850538,0.048406377,-0.048796464,0.08131242,0.016190208,0.020118598,-0.0657683,0.06155949,-0.08934542,0.09004988,0.0797966,-0.05817938,-0.086069554,0.07083821,0.040005676,-0.032636315,-0.009706734,0.030797103,0.015585059,0.021908771,0.04514499,-0.05931125,-0.003650092,0.009831523,0.012499724,-0.0703598,0.02361,0.08087843,0.062265918,-0.014104839,-0.04547792,-0.0009411124,-0.0010838415,-0.036500894,-0.021075603,0.039772503,-0.058536693,0.007559818,-0.0786912,-0.027962137,0.02512014,-0.0038966518,0.05616939,0.023726463,0.070753075,0.032173816,0.072560444,-0.037311234,-0.07747745,-0.0059373984,0.060199536,-0.030705746,0.07168518,0.021540457,-0.029630743,-0.06540442,-0.056936346,-0.052226212,0.064612195,0.07317263,0.00427582,-0.018656667,-0.059405737,-0.038854938,-0.06811233,-0.019234631,-0.03868574,-0.07268898,-0.039818212,-0.04012981,-0.06337042,-0.0021760599,0.020634113,-0.07307342,-0.0068108654,-0.065760195,-0.009498732,0.093030006,0.022926021,-0.022536397,0.03015102,-0.06923438,-0.012516414,-0.03093954,-0.03874875,-0.033108365,0.08043338,0.055506647,0.044254877,-0.02934394,0.0375741,0.056089796,0.00934893,-0.015173885,0.042074516,-0.014063268,-0.06802454,0.010260759,-0.07809687,-0.026835848,0.018016301,-0.054573283,0.0006053499,0.016641954,-0.010573386,-0.02611447,-0.0019388323,0.009633364,0.07935862,-0.040051155,-0.079089865,0.061609812,0.07500622,0.033967905,0.081356496,-0.07883647,0.053673975,-0.071260154,-0.077780426,-0.09438048,-0.018791538,0.018017806,-0.04595334,-0.062224843,-0.050287887,0.023601744,0.0007975757,0.006113204,0.037402984,0.046815693,-0.045180358,0.07854541,0.010042381,-0.07905115,0.037786357,0.07518421,0.06954828,0.02204743,0.023025371,-0.068814754,0.016829323,-0.034290254,-0.0010943848,0.016022746,0.05541277,-0.039242744,-0.06429676,0.017375305,-0.052254207,0.008493168,0.071250245,-0.023797944,-0.074068025,-0.061781287,-0.021784555,-0.053705074,-0.025048506,0.028118782,0.080863476,-0.085566044,-0.009065723,-0.03277958,-0.037693743,0.030902617,0.0691846,0.06682871,0.0805396,-0.042340875,-0.038125426,-0.077789575,0.0520467,0.07831687,0.010149544,-0.082514405,0.008307636,-0.02564203,-0.018426586,0.05597374,0.047836725,-0.061568,0.03582873,0.055242,0.024520636,-0.048691876,0.026445076,0.03359004,-0.02976642,-0.026662521,0.024214404,0.05592254,0.020788727,0.048571896,-0.06859106,-0.054159082,-0.085026905,-0.075697765,-0.007966464,0.08567351,0.07036771,0.07182816,0.020491144,0.047931187,0.024674023,-0.010780238,-0.007700241,-0.033530045,0.04874274,-0.08042355,-0.07901825,0.00735134,0.0009946482,-0.0047857473,-0.021697644,-0.014281065,-0.062237546,-0.0020107352,-0.07080045,-0.041540302,-0.008042134,0.04186344,-0.08228091,0.0082180705,-0.002927789,0.04066787,-0.08536327,-0.013526788,-0.0011578755,-0.036823787,-0.07787293,0.011263663,-0.096964315,0.0011553029,-0.010962233,-0.037037335,-0.06602892,0.05450274,0.08144663,0.008070894,-0.056979097,0.0029861252,0.013491554,0.007989658,0.08340677,0.039919212,0.021131553,-0.033970002,-0.0023826805,-0.04681141,0.048998654,0.07719247,-0.004219549,-0.07159752,-0.06859374,0.038017757,0.045420855,-0.068586946,0.004034524,0.06644144,0.07366456,-0.017518876,0.006748989,-0.043506112,0.011326214,0.0060966634,0.04939406,-0.053882852,0.06955321,0.049340658,-0.051813457,-0.032664485,0.018676613,-0.048029136,-0.06515476,0.054571383,0.006968014,0.095177986,-0.067418724,-0.0098847505,-0.06952125,-0.02320008,0.007890076,0.05256574,-0.023137348,0.06435412,0.037891988,0.01573365,0.082601175,-0.025264382,-0.051559493,-0.043406636,0.0709425,0.013101447,-0.055719435,0.05667688,0.08640908,0.04350648,0.07662606,0.08187624,0.069128275,0.07963276,0.0067504123,-0.045573182,0.010033319,-0.008072678,-0.04526602,0.09040201,0.022663537,-0.0048602484,0.014014311,-0.075971186,0.04556644,-0.036676135,0.07250175,-0.0347393,-0.0040484224,-0.065534495,-0.03658124,0.06570591,-0.08362971,0.05250245,-0.07551197,0.08750514,-0.0049591465,-0.02575371,0.07586051,-0.013913949,0.02169494,-0.033361316,0.034171976,0.042465832,-0.054969937,-0.06565224,0.08339523,0.010207486,-0.039439972,-0.032307494,-0.054517925,0.052644573,0.07930285,-0.030564712,0.07813433,0.01626859,0.06336555,-0.018577315,0.065640226,-0.041955605,-0.072755605,0.07486834,0.0198817,0.04857586,-0.07044133,0.017621882,-0.08184953,-0.047274493,0.0069768173,0.0673112,0.07034133,-0.036259606,-0.061889686,-0.07781412,-0.0788151,0.019135281,-0.0109614525,-0.064883515,0.011493314,-0.07734451,0.038991027,-0.05728655,-0.020790473,-0.00016939224,0.08667292,-0.006552237,0.06498595,-0.05043797,-0.01816861,-0.051612772,-0.07959517,-0.04698666,-0.09204182,0.07916096,0.09640565,0.04550478,0.05035725,-0.05263394,0.06301198,0.03873151,0.06137452,0.07817088,-0.06989935,-0.012768468,-0.07345007,-0.0682182,-0.040538736,-0.03392676,0.069303274,-0.026420135,0.011117498,-0.09192767,0.0073496522,-0.04511886,0.04016661,0.06405188,0.04580876,0.04126423,0.022703066,0.07671255,0.07241316,0.037535753,0.020370468,-0.07434225,-0.011863385,-0.048961587,-0.03421943,0.07024415,0.034231544,0.052959386,0.018746953,0.022991344,0.023284238,0.030565877,-0.06373471,-0.0065632463,-0.049078874,0.038862698,0.016939104,-0.06126442,0.025627308,0.052676555,0.06812239,-0.0040667783,0.07525043,0.024405658,-0.014330193,-0.055628657,0.031062504,-0.07369779,0.061012164,-0.059954673,0.08482066,-0.07610783,0.005073036,0.07773818,0.03267555,-0.04884427,0.05860504,-0.06289381,-0.026740532,0.0036238143,-0.07322225,0.052954227,0.061509937,-0.0031343163,0.050630175,0.012409877,-0.0783159,-0.023426708,0.03461402,0.03540745,0.07676813,0.06777106,0.09468722,0.017472913,0.03181516,0.049043987,-0.08439761,0.023182938,0.045953326,-0.028610956,0.06708558,-0.034082588,-0.05394481,0.08193832,0.025272356,0.060271937,0.022646066,0.019944396,-0.035856027,-0.08002367,0.04349882,-0.020715248,-0.078705266,0.01759016,0.058857977,0.03694868,0.021838574,-0.07265274,0.06344792,0.02739174,0.08472352,-0.06741726,-0.08499977,-0.00035677283,-0.0007683928,0.03688945,-0.017893001,0.0076407464,0.009710601,0.044231635,-0.080250904,-0.046273604,-0.04862564,-0.012416002,-0.019144353,-0.08230357,0.021968499,-0.042351477,-0.05935984,0.07997943,0.034801804,0.035939783,-0.016286545,0.0686289,0.054718807,-0.025511581,0.08465308,-0.015251277,0.017608237,-0.029418899,-0.011106848,0.004477734,-0.06633814,-0.014170857,0.08145042,0.034447633,-0.07840514,-0.039077595,0.017972676,0.061831042,0.0219642,0.06775278,-0.07821109,0.009269865,-0.0007111993,0.061476238,0.086784184,-0.084828146,-0.011853895,-0.047455225,-0.02475407,0.06909746,0.06101018,-0.047913313,-0.018604722,-0.052684695,-0.080153614,0.046725757,-0.001774138,-0.041489594,0.075886264,0.036340296,-0.06592645,-0.054052494,0.025475755,-0.04964784,0.0049175215,0.027675385,0.03318137,0.011251135,-0.08467019,-0.027862955,0.012487632,-0.08693734,-0.06558454,-0.025347985,-0.037423924,-0.07907875,0.07613167,0.051464394,0.0625275,-0.0080447355,-0.0032214716,-0.053321622,0.010125438,-0.019505857,-0.06022051,0.0017948498,-0.08105838,-0.009490384,-0.013311267,0.07912557,0.057283588,0.033103347,0.066882305,0.039161593,-0.04134005,0.022444665,0.06324713,0.08622261,-0.015558917,0.05482745,-0.032120414,0.0473831,0.00050653785,-0.06813064,-0.00031733693,0.009958999,-0.055262953,0.04324364,-0.029635075,-0.073154055,-0.07421678,0.040545825,-0.08810425,-0.024796175,0.02111381,-0.02355895,-0.017007463,-0.016482908,-0.0821334,-0.036627553,-0.017247304,-0.03779018,0.048879392,0.08361137,-0.057125606,-0.015232887,-0.08191614,-0.06530066,0.020669874,-0.08969997,-0.022735527,-0.081430964,0.09026364,-0.046689153,0.047875397,-0.07124555,0.025926616,0.043270912,0.042272888,0.0849967,-0.005998634,0.003242827,0.043204993,0.0397935,0.078647226,0.060961895,-0.07067031,0.08403579,-0.05505891,-0.034692958,-0.037563182,0.0046900148,-0.042543262,0.07972554,0.04840436,0.062036477,-0.03892483,0.016204692,-0.086268544,0.023957884,0.034617856,0.04824695,-0.020934552,-0.01037392,0.05829265,-0.003308849,-0.08761875,-0.010719417,0.09458136,-0.06455129,-0.005332636,-0.032909364,0.021697227,-0.08347435,-0.021200676,0.07292207,0.074892014,-0.07704305,0.046253018,-0.06588651,-0.06926468,0.035544876,-0.014069853,-0.04045225,-0.04528845,-0.021366768,-0.034306932,-0.030653706,0.055352785,-0.019655129,-0.027767368,0.034042098,0.081995964,0.049785823,-0.0841174,0.039444752,-0.08256979,-0.041147903,-0.07132131,0.08283326,-0.012395898,-0.046495285,0.06489859,-0.056380227,-0.056472257,-0.076491416,0.08258739,0.06485815,0.023725577,0.0060528805,0.08953072,-0.034521177,-0.06827031,-0.04394871,0.016756522,-0.01021816,0.09018428,-0.015530858,-6.8307134e-05,-0.075415894,-0.045461737,0.032549933,-0.005710474,-0.02834,-0.052224424,0.071842164,-0.06047409,0.07470567,0.084193684,-0.052749813,0.015350646,0.019898258,-0.00011775679,-0.06594816,0.0025119926,-0.011101315,-0.06774196,-0.019557469,-0.053207234,0.019274577,0.085155755,0.0029063956,-0.024897572,0.025457446,-0.08346817,-0.07243937,-0.008180365,0.053088345,0.048341274,-0.04853394,0.04839854,0.017390393,-0.040739402,0.010458475,-0.000113891845,-0.08246476,-0.07036803,0.0052291593,0.030617196,0.033777572,0.003470449,-0.07432402,-0.085139334,-0.025612433,-0.022902112,0.040562052,0.058635384,0.048685078,0.06256004,0.045852385,-0.05561796,-0.05637077,-0.022837264,-0.08364968,-0.05338224,-0.05588741,0.051684,-0.014987567,0.0068339575,-0.023659356,-0.041892707,-0.011874786,0.07999386,0.0673341,-0.020395938,0.043035474,0.058961906,-0.024587447,-0.02942359,-0.07607085,0.005672681,-0.02233092,-0.05657886,-0.011286223,0.07025699,-0.0434234,-0.0030082166,0.022929017,-0.034942474,-0.048537396,0.011143554,0.06560497,0.050845496,0.015868898,0.034797624,-0.057766296,-0.039081022,-0.029412739,0.084978566,0.07862991,0.0016631508,0.08446692,0.06296824,0.0049912585,-0.0571784,0.017256934,0.07783894,0.012811238,-0.012248865,0.030494478,-0.013489265,-0.07769557,-0.008734623,-0.02284407,0.029120076,-0.092819795,-0.074961156,0.060807653,-0.04143477,-0.03352785,-0.070543945,0.020456035,0.0019626392,-0.032123853,-0.055220783,0.0073629804,0.028069388,0.009038771,-0.03389414,0.07777363,-0.017752746,0.0068675415,-0.063282445,-0.06214893,0.02690265,0.017404193,0.07698713,-0.052677598,0.027985252,-0.07982321,0.04329776,-0.056866854,-0.05363363,0.055135854,-0.046708062,-0.08910197,-0.021086916,-0.078659706,0.030016605,-0.07720023,0.027479228,0.06476776,0.022765905,0.07949295,-0.035964772,0.01800333,-0.07852884,0.021352187,-0.0008184839,-0.010349195,0.074162416,0.07853136,0.057663124,-0.059199397,0.011879986,-0.062312886,-0.044513643,0.0059313625,-0.015307954,0.07665734,0.04055134,-0.06821826,0.044939935,0.05635558,-0.008416956,-0.077213705,-0.056724742,0.049835563,0.05363198,-0.035827365,-0.025926962,0.06595388,-0.060855772,0.07612911,0.023438053,-0.072476566,0.06716117,-0.043124497,-0.0388887,0.049169265,-0.08330923,0.083403245,-0.030204963,0.085415095,0.0852151,0.049297817,0.010624123,-0.07477422,0.020526959,-0.037538663,0.03708172,0.010988433,0.08143474,-0.009977832,0.03475385,0.02872469,0.012478819,-0.019846704,-0.014269933,0.01996751,0.030835215,-0.03378217,-0.014766319,-0.061920002,-0.038690083,-0.014188617,0.043824803,-0.031166367,0.051169,0.066204146,0.0004549905,0.042054858,0.051495086,-0.04151076,0.081958815,-0.08098441,-0.007253148,-0.086724445,0.044749953,0.07846716,0.067082465,0.06114231,0.065501586,0.084895,0.048950203,0.035118934,0.05650742,-0.059708584,0.049147163,0.048496187,0.060220696,0.05243236,0.052422076,-0.025013417,0.047509618,0.033106595,0.08046819,-0.066499725,0.008050628,0.02869584,0.07314579,-0.068857804,0.07623951,-0.04948682,0.08881992,-0.013765637,0.011841392,0.033898897,0.072439745,0.03464634,0.063016266,0.026732434,-0.068186246,0.06069696,0.02647347,-0.03190767,-0.018741034,0.06775682,-0.07532459,-0.07473552,-0.050164733,-0.060657546,-0.07467326,0.0067499364,0.01366634,0.03301104,0.01502116,-0.007543368,0.037483774,0.026449356,-0.044554055,-0.052767843,-0.03955751,-0.022632264,0.036516163,0.007617246,-0.003589737,0.08783896,-0.04013877,-0.047301956,0.060596474,-0.071054906,0.06926364,0.038785264,0.06041343,-0.018109249,-0.084041804,0.052790716,-0.014066221,0.051854923,-0.07968911,-0.05730123,-0.04046966,-0.049276024,-0.026349679,-0.082445145,-0.041585974,0.071479574,-0.031186497,-0.06118137,0.0726465,-0.0066093225,0.06089268,0.0636146,0.051681567,-0.019200914,-0.032896057,-0.047458358,0.01832506,0.046569824,0.0029582742,0.08567639,0.024563313,0.02647512,-0.025362458,-0.07744716,-0.053147756,-0.08024503,0.0596548,0.052050304,0.006294119,0.021667536,0.01794069,0.010314368,-0.04568948,0.065240115,-0.039932348,0.009070406,0.036630187,-0.050945953,0.025714995,0.071281835,0.06909311,-0.011730436,-0.006458133,0.03675291,0.08856805,-0.06678967,0.031406708,-0.008039165,-0.06407459,-0.06358427,0.029944496,0.018607862,0.016623544,-0.019014347,0.042395685,-0.026467804,0.022605391,-0.036254883,-0.037312645,-0.031092804,0.0034621553,0.009703992,-0.08177841,0.047597397,-0.01594602,0.055676147,-0.025884025,-0.0627304,0.05010359,-0.0655706,-0.04820025,0.06415026,0.03531772,-0.023406949,0.052941732,-0.04200907,0.028449161,-0.07233761,-0.058278494,0.037418768,-0.08081092,-0.010751573,-0.017498929,0.0024065059,-0.014059775,0.07111235,0.0447962,-0.09104151,-0.057419762,0.050547484,0.07945523,-0.019707339,-0.008920675,-0.008780111,-0.053946815,0.030163702,-0.040569954,0.057761326,0.02927486,-0.030479494,0.075202756,-0.0038925111,0.0027857549,-0.008015856,0.048145726,0.015990477,-0.05868482,0.03541796,0.0090360595,-0.085971355,0.015950002,-0.028768342,0.06908806,-0.0007332136,-0.032440946,-0.05738442,-0.014670538,-0.052447043,-0.032881957,-0.012790559,0.0014654372,0.036333058,-0.08406833,0.07111357,0.039469317,0.059712924,-0.07672982,0.029055294,-0.064220235,-0.07995313,0.009079739,-0.030284496,0.07824269,0.027951088,-0.067576915,0.023538036,0.022144563,-0.07037018,-0.012516991,0.058890376,-0.0712761,-0.05439063,0.0014421532,-0.084995255,-0.07044733,0.062038183,-0.06676303,-0.015030273,-0.08712699,0.012759997,0.08243449,-0.013327895,0.077149585,-0.018170018,0.08181831,0.018944345,-0.08765505,0.0024491875,-0.08463529,-0.05601412,0.07427206,0.027366586,-0.029787622,-0.035652693,0.001943703,0.0034304606,0.085026845,-0.027842838,-0.06623061,-0.07314116,-0.06187752,-0.08190526,-0.08068392,-0.0404118,0.052731395,0.013760749,0.017496593,-0.076138474,0.026613325,0.006653265,0.025035739,-0.049580343,-0.024479162,0.06741989,-0.086703725,-0.039148238,0.021336839,0.05249497,-0.056127474,-0.07402829,0.014671335,0.065405786,-0.015048896,0.057019256,-0.054863602,0.05113974,-0.01744837,0.07780506,-0.063077606,0.011070672,0.06928756,0.050784115,-0.037691273,-0.06283865,-0.0687722,-0.08388646,-0.034302995,0.06582534,-0.0012568315,-0.085021116,-0.06205001,0.009199152,-0.019238032,-0.05636212,0.07307576,-0.01908293,0.055546764,0.08576886,-0.04208148,-0.08137809,0.0696203,0.08608213,-0.071471795,0.06874116,0.08913921,-0.030255264,0.078661576,0.02677737,0.07774386,-0.06498296,0.082148865,-0.050874628,-0.0102893375,0.04908435,0.0037878293,-0.053633302,0.03989732,0.043440644,-0.047106974,-0.03074366,0.023213053,0.07792635,0.048846606,-0.060790814,-0.055252045,0.06116668,-0.053863622,0.078339726,0.06187308,-0.007678714,-0.08709401,0.0032529684,-0.010788966,-0.019854154,0.057095405,0.06961112,0.06765993,-0.018363852,0.058946066,-0.07339963,0.048353337,-0.059086986,0.010519758,-0.04601411,-0.003436849,0.043980014,-0.037152663,-0.080212295,0.0130016245,0.06956125,-0.07582414,-0.08224052,0.018241221,0.025020588,0.03421182,-0.08827266,0.06355128,0.058952317,0.07079914,-0.04600271,0.048959002,0.074784294,0.00038032042,-0.07721629,0.037705623,0.07606129,-0.049961317,-0.07364898,-0.039603613,0.016886845,0.07286964,-0.07885566,0.07398324,-0.03427012,-0.027353436,-0.0006285289,-0.06441321,-0.0069635184,0.08723027,0.06405847,-0.024432294,-0.045233253,0.056337334,0.039981235,-0.023286514,-0.010396406,-0.060353376,0.0022432916,-0.020759288,-0.029180106,-0.041873183,-0.037067283,0.047251455,-0.020718884,-0.03131455,0.05638379,-0.04766404,-0.077047184,0.080533974,0.029810127,-0.033628453,-0.024664331,-0.05329428,-0.079350576,-0.0602891,0.016417345,-0.080453314,-0.085303605,-0.03151442,0.04167161,0.011984781,-0.047711644,-0.021873347,-0.04814191,0.06360767,-0.014939068,-0.013350062,0.08670786,-0.0019188151,0.018513702,-0.07313929,0.010667766,0.019078866,-0.033775568,0.055841736,-0.0045026853,-0.066749364,0.052010525,-0.078130305,0.064660735,-0.08280642,-0.039580233,-0.07338712,-0.060832534,0.0018095531,0.0470448,-0.08822987,0.045433186,0.05787857,-0.056834202,-0.029073425,0.06694293,0.025278658,-0.06519737,0.033894043,-0.009972273,0.041295305,-0.07992044,-0.023966916,0.08800012,-0.037270777,0.092216976,-0.046855334,0.058939546,-0.032918513,-0.009127386,0.06046552,-0.028072324,-0.039135195,0.03102708,0.021854155,-0.06305262,0.04580546,-0.0692437,0.06906535,-0.014154798,0.06807369,0.004531089,0.072295725,-0.052932866,-0.046927214,0.015682578,-0.010332264,-0.06618944,0.04214067,-0.021589411,-0.051496573,-0.04637443,0.029354583,-0.011484731,0.013525955,0.044374608,0.052081697,-0.055255517,0.04534603,0.05820351,0.0019797836,0.07186382,-0.032162644,-0.0499262,0.04181441,0.029314935,-0.0435395,-0.01915671,0.06897287,0.028971583,0.080223426,-0.013513831,-0.056852557,-0.0068263607,-0.023954507,0.018443123,0.01212707,0.038286652,0.011831952,0.07784225,-0.05713787,0.032878246,-0.066488005,0.05797574,-0.046439216,0.05972504,0.08578017,0.073896825,-0.024665788,-0.040251836,-0.008564737,-0.0822016,-0.057445094,-0.07599695,-0.06485964,-0.06994203,-0.048161935,-0.013144014,0.05890559,0.031359293,0.05146668,0.0380304,0.06407978,-0.04181043,0.05964578,0.07791817,-0.086909436,0.008423436,-0.02293916,-0.081910655,0.008835584,0.06838097,-0.050660133,0.076328844,-0.040218614,0.0724304,0.02098648,0.025239795,0.028343547,0.010009911,0.073055156,-0.062254258,-0.022128573,-0.018263202,0.0034988103,0.03872113,0.036069203,-0.019458327,0.043706317,0.058853496,0.010640482,0.05053696,0.019334663,-0.054171473,-0.020875359,0.032706432,0.015372653,0.00018899636,0.018239241,-0.047296412,0.040550962,-0.0157152,0.013246311,-0.036980227,0.024599738,0.023732789,-0.08941668,0.03401148,-0.0011513362,-0.084022194,-0.0730161,-0.011158988,0.02087333,-0.05588624,-0.02351414,-0.052343443,0.076898,-0.040927235,0.07636285,-0.021764891,0.05603703,0.032324053,0.0001408667,-0.0053525195,-0.05192656,-0.012259217,0.03359144,-0.019817453,0.04584979,-0.06842305,0.088634,0.08191874,-0.078879714,-0.022092853,-0.059530493,0.054690845,-0.05355766,0.020165462,0.009285994,-0.059404783,-0.008407952,0.019696632,-0.07126209,-0.015772961,-0.05078976,-0.014005068,-0.018736314,-0.04394684,0.026182268,0.050903894,-0.02076329,0.05023564,-0.08778176,-0.05651746,0.08384063,0.036804367,-0.06867267,-0.074586496,-0.06240946,-0.027947921,-0.007220454,0.0017523868,-0.085983634,-0.06765645,-0.029548649,0.07125494,-0.035306863,-0.08723038,-0.0068441588,0.0025347113,0.04404211,-0.039141424,-0.055578977,0.04218276,0.058909815,-0.058008082,-0.063478366,0.06742872,0.0591954,-0.019110076,-0.019586924,-0.09043872,0.030441131,0.031961106,0.006335808,-0.04514534,-0.010461429,-0.067075565,0.06201224,-0.043549567,0.06833846,-0.076861635,-0.024877872,0.013370302,0.024691548,0.0033286032,-0.053927787,0.010572813,0.08848322,0.010245763,-0.0060958527,0.013231099,-0.040347166,0.012588207,-0.054013114,-0.04885044,0.017264813,0.08815546,-0.051760502,0.07748008,0.0043511908,-0.06963459,-0.083516195,0.022877786,0.08934171,-0.01539342,0.0029107877,-0.041818388,0.085642055,0.008406026,0.033577118,0.017157676,-0.083126366,0.053199675,0.047246646,0.0069292234,-0.06759058,0.08131251,0.08229464,0.013341948,-0.034229834,0.027212057,-0.014842588,-0.030356452,0.04267264,0.064907834,-0.012495555,-0.025359645,-0.04400826,-0.005185564,0.04428833,0.079947546,0.080648586,0.021222489,0.07181907,0.014917843,-0.08333134,0.023896605,-0.02275237,-0.027772143,-0.078693256,-0.006394261,-0.019916922,-0.0005806632,-0.033514917,0.009655455,-0.0060147736,0.0051347995,-0.008568368,0.0623342,0.03230263,-0.0829148,-0.0027848938,0.032270387,0.039296426,0.058495186,-0.071238354,0.062015973,0.009596245,-0.063292235,-0.018149741,0.062404424,-0.046357494,0.07747525,0.078291856,0.0044156844,0.0117787,-0.08410972,-0.053208746,0.038234144,-0.025826212,-0.01066387,0.06478013,-0.058417328,0.09333562,-0.037533037,-0.07648143,0.049127825,-0.06786686,-0.07337843,-0.04710539,0.037348017,-0.050737474,-0.027460054,0.03614881,0.0270404,-0.020305362,0.054634996,-0.049364485,0.042583786,-0.030122783,0.02217116,-0.007847966,0.04101201,0.029788118,-0.054900542,0.07391893,0.04538954,0.037145786,0.050625272,-0.05327165,-0.084089845,-0.020566467,0.0855609,-0.06316748,0.011732672,0.08714433,0.053156048,-0.030678868,0.021638997,0.05781407,0.064869106,0.030156987,-0.070418194,0.0081520025,0.015149894,0.04937954,0.07719395,-0.04093258,-0.010103259,0.077181384,-0.055904396,0.050047174,-0.03319685,0.06534599,0.040201746,-0.07450977,-0.069949806,0.08149959,-0.05868427,-0.03679639,-0.007592191,-0.018770617,0.05001744,0.034237258,-0.09591201,0.044024907,0.0148462,0.007420047,0.07649063,-0.07999964,0.039321236,-0.07736549,-0.010731903,-0.077991925,0.035652265,-0.045171957,0.010726266,0.0823067,0.022719432,-0.049582638,-0.08527239,0.056993034,0.019963752,0.000904553,-0.045173414,0.020750474,0.056349225,0.052309927,0.032196246,-0.03601318,-0.027112536,-0.073108286,-0.06531258,0.0742446,-0.022079192,0.023397103,-0.09525631,0.057877705,0.03197124,0.036729284,-0.03423029,-0.0069844765,-0.083482936,-0.09453109,0.055223875,-0.005667889,-0.001250471,0.09567811,-0.031136703,-0.075754106,-0.0012120903,-0.073670916,-0.07325982,0.05557117,-0.07416418,-0.04787446,0.014507731,-0.022268957,0.042555235,0.005132337,-0.026446775,0.053239875,-0.04771864,0.07724602,-0.07726849,0.027895857,-0.071342856,-0.07710619,0.02879832,-0.030269824,0.010488445,0.07285312,-0.07956721,-0.08525064,0.060204558,-0.07830526,0.091568,0.054068636,0.06628592,-0.038269736,0.008189196,-0.021276185,-0.00060093845,-0.08877146,0.02198755,-0.056784924,0.004511227,0.08249747,-0.043461613,-0.049904093,-0.07330655,-0.0671269,0.066877216,0.00030815788,0.060380273,-0.0036609233,-0.007503473,0.053662606,-0.014094364,-0.06953073,-0.019939091,-0.08756274,0.047357276,0.03824628,-0.02246831,-0.0626865,0.077661075,-0.070883125,-0.050388757,0.05750698,-0.058206096,-0.015839063,0.022489673,-0.022873083,0.054384824,-0.04330669,-0.06519308,0.0011192462,-0.055506784,0.00060867495,0.0014114472,0.02111771,-0.01873484,0.0096197175,0.006233328,-0.053715453,-0.05217974,0.014965315,-0.0132903345,-0.02905141,0.027233973,0.035358004,0.046974264,0.06086885,-0.067456275,-0.027146986,0.007610663,-0.010573592,0.014142884,-0.041267496,-0.029681634,0.06635403,-0.09229064,-0.088337526,-0.06470014,0.04058402,0.0012385233,0.07891595,-0.080669135,-0.0876109,0.034800053,0.05086798,-0.0011886866,-0.08082005,-0.06578928,0.03804087,-0.009097073,0.07779587,-0.0549245,-0.02730875,-0.01707866,-0.046228893,0.036564652,-0.03711523,0.016200049,0.042501055,0.014795834,0.05669775,0.08812575,0.05194036,-0.012363924,-0.03033834,0.007894968,-0.07792156,0.078224204,-0.069466464,-0.06284331,-0.012171714,-0.004280554,-0.06800172,-0.0575782,-0.030133422,0.03573484,0.06795731,0.039857622,0.0012463394,0.07846533,-0.082502365,-0.07685769,0.019109763,0.08098701,0.051429108,0.053225853,-0.005749517,0.015886664,0.031824134,-0.04855567,0.057671443,0.017194103,-0.0051802844,0.0549092,0.07772522,0.004062323,-0.055539686,-0.053889878,0.043325074,0.015995197,-0.018580994,0.06174419,-0.01346866,-0.03498061,-0.03055343,0.01621313,0.02503648,-0.027358532,0.0376025,-0.061204895,0.036894992,-0.092655405,0.056355916,-0.016955692,0.022750538,-0.019418724,-0.07495658,-0.023035863,-0.008274098,-0.08500336,-0.069954276,-0.092744134,-0.060912043,0.05102258,0.0043517128,-0.008786405,-0.07517505,-0.059404865,-0.031992428,0.038358342,0.08759461,0.036904424,-0.03051751,0.061342083,-0.017706044,0.036109913,0.06907906,-0.04937157,-0.065021634,0.0776911,0.06640904,-0.010227045,0.016117465,-0.068225145,0.05160158,-0.04072176,-0.07495978,-0.06998322,-0.041608863,-0.051622186,0.04655472,-0.07341146,-0.03163475,0.013637793,-0.061624773,0.030063067,-0.02558276,0.074357904,0.064507976,0.0034518838,0.030543026,-0.023800364,0.07638162,0.033039294,-0.05359313,-0.0030249357,0.0311056,0.049803652,0.08557804,-0.056463413,0.066956654,0.05013171,0.024927624,0.05555755,0.056279577,0.017673336,-0.087301746,-0.023772582,0.009188553,0.038363487,-0.06961567,0.03584841,0.05707226,-0.018098246,0.086558424,-0.011261243,-0.048213884,-0.054267794,-0.06022843,0.08701217,0.011490414,-0.08236141,0.03480552,0.05208055,-0.0678387,-0.056403004,0.044760443,0.033163637,0.05618845,0.05434443,0.015067851,-0.0028662886,-0.036157206,-0.03429809,-0.0651069,0.0062935585,0.05735807,-0.007761907,0.079156466,-0.02579237,-0.008426588,0.0528783,0.046008095,-0.050987355,-0.081478715,0.073479824,0.08300233,-0.062239703,0.026510831,-0.0322297,0.07706833,0.03450256,-0.055220082,0.045702785,-0.04098902,0.01765156,0.06354892,-0.067756444,-0.016286375,0.03571756,0.02677539,0.08103955,-0.024086822,0.06310405,0.033934534,-0.06311677,0.034159318,-0.036573526,-0.03694073,0.028078066,0.007022399,0.012560516,0.00024829863,0.013046,-0.09235655,0.028706484,0.009277727,0.08207448,-0.0013101537,-0.022804754,-0.08642785,-0.055529483,-0.07684468,0.05638507,-0.04452944,-0.0019166527,-0.039014254,-0.02665413,0.088488236,-0.0146868965,-0.0097863,-0.05721105,0.049698964,0.09294219,-0.076099426,-0.030560184,0.07510303,0.040879186,-0.0063487366,0.012306693,0.07946506,-0.052513335,0.006372771,-0.08504218,0.051638108,0.0698283,0.012830991,-0.00041787134,-0.038205016,0.030165624,0.055291876,0.071835846,-0.07483551,0.032980695,0.08874941,0.021750405,0.010153313,-0.063072175,0.08191177,0.014281852,0.05261395,-0.074989595,-0.0722623,-0.028995354,-0.06569989,-0.062179044,-0.09000014,0.02315949,-0.022823919,0.0016359764,0.06254766,0.007517496,-0.00057869253,-0.0018687297,0.0546007,0.030993577,-0.04658287,0.005047319,0.050657526,0.080345504,0.039531842,0.04678487,-0.07045419,0.06382789,0.091694415,-0.065662704,-0.03572133,0.07555683,-0.09014699,0.08573942,0.086431965,0.08466527,0.047057305,-0.04635279,-0.006500104,-0.0062811384,0.08236908,-0.059525155,0.059784036,0.022093154,-0.01978989,0.044968188,-0.07330661,0.09314196,-0.06644922,0.0041852714,0.08136618,0.07317324,-0.061355844,-0.010319876,-0.042871878,0.046654932,0.0016233716,0.0059758415,-0.03257019,-0.06754135,0.087194905,-0.03904055,-0.057861947,-0.0039341557,0.0005664701,0.08013888,0.036905497,-0.0313647,-0.06851106,-0.03646427,-0.046685565,0.024498153,0.05138747,-0.07525157,0.059757553,0.05293099,0.077478945,0.07132095,0.033016488,-0.0030519513,0.08587339,0.039454054,0.06277874,0.012641232,0.062000535,-0.05796787,-0.06940145,-0.011748155,-0.0047362666,0.055168316,0.031373426,0.0775033,0.0014828872,-0.05569544,0.084674746,-0.03149388,-0.034285884,-0.044273958,-0.055156693,0.08225699,-0.072147444,-0.011917733,0.049428873,0.04916229,0.052188843,0.0748005,-0.063081846,0.032332435,0.07680918,0.03063865,-0.05486255,-0.06947028,0.045561634,0.084140584,-0.038870215,-0.02640539,0.029310953,-0.023101756,0.068178795,0.02367727,0.06677464,0.0218284,-0.040673178,0.035964753,-0.055705983,0.0075078215,-0.02965505,0.02796458,0.0069251964,0.057443995,-0.03591393,-0.0593945,-0.00908158,-0.021505313,0.074199304,-0.023390979,-0.028389003,-0.038191594,0.027058357,0.029695828,0.04876802,0.05027739,0.0121209305,0.06080422,-0.004540368,0.0031361715,0.02395892,0.07682017,0.011900393,-0.017222453,-0.024071988,0.077751294,0.0156947,-0.06579858,0.0087029375,0.060599636,-0.052500743,-0.04035727,-0.024372607,0.03239426,0.032226294,-0.03548148,-0.008013321,-0.057631686,0.08139001,0.06742616,-0.040877335,0.04834781,-0.05829672,0.049797922,-0.086905345,-0.020888364,0.011465104,-0.07468325,-0.0020263682,0.058907088,-0.008946992,0.03932542,-0.044856038,-0.07457181,-0.012037285,-0.09208851,-0.006924743,-0.030865604,0.035881795,0.0021668538,-0.005215953,0.06018012,0.058976054,0.029074274,0.014463244,0.047773838,-0.01127669,0.020047247,0.08053311,0.046648897,0.08054137,-0.08235434,-0.012711529,0.034436382,-0.0803048,0.047239564,0.069203645,-0.010923788,0.013861656,0.048639126,-0.022067487,-0.031883202,-0.016176302,0.06595922,-0.000979726,0.069408186,0.05501533,-0.013906094,0.07833117,0.037329867,-0.074883446,-0.041289967,0.011615735,0.046003133,0.024741288,0.046398148,0.051059805,0.080116816,-0.0074657677,-0.008531926,-0.046312697,-0.06418939,-0.02332592,-0.033948086,-0.052413423,-0.0655832,-0.05901265,0.010836201,0.072376765,-0.0068893665,0.0565947,-0.06575149,-0.010986952,-0.03368482,0.049094453,0.0548022,-0.07101095,-0.009419571,-0.015382262,-0.054991372,0.092265084,-0.049726233,-0.048470467,-0.023510264,0.05570413,0.040841345,-0.0478664,-0.09239915,0.024121694,-0.07544443,0.056952674,0.04772909,0.04041285,0.023094133,0.033390883,-0.04831592,-0.044595756,-0.0037238542,0.03305216,-0.012355229,0.03488026,-0.07251285,-0.045648612,0.0066349097,0.009145572,0.0055159247,0.060003344,0.08151117,0.03147086,0.086884834,0.08638275,-0.0672462,0.015937813,-0.020897597,0.04806072,-0.017798208,-0.03558757,0.005335369,-0.055676207,-0.007820295,0.03836782,0.04648342,0.035854153,0.07873298,-0.046898954,0.039255865,0.028761707,-0.026563197,0.044458963,0.076699495,0.04609231,-0.05288105,0.053439245,0.004757142,-0.052673835,0.08446179,0.044613272,-0.06548263,0.011939879,0.058068193,0.08428752,-0.022223376,0.04503595,-0.0573598,0.02441898,-0.0022996778,-0.0044454588,0.0090474,0.06017701,0.054965604,0.059889007,-0.0045342357,0.07589255,-0.034810163,0.010795305,-0.024240501,0.07484244,0.081441216,-0.079103075,0.02004812,-0.08192986,-0.06404964,-0.014558284,-0.046420686,-0.026173953,-0.038499672,-0.072056204,0.028399289,-0.08890508,-0.0305583,0.004116173,0.056770325,0.016300004,0.013184803,0.057758983,-0.06516121,-0.0392383,0.08297268,-0.037828274,0.08421337,-0.048219547,-0.06715326,0.0037310966,0.046837613,0.018024486,-0.09396353,0.09139322,-0.079025,-0.06727424,0.09149796,-0.040460203,-0.059036233,-0.018948046,0.06916136,0.06388885,-0.043842107,-0.0037866156,-0.067495316,-0.007957881,-0.08150267,0.036007706,-0.020901103,0.036774177,0.016050516,-0.07231705,0.03517055,-0.0508876,-0.01692856,-0.019290607,0.07118535,0.043054983,0.022569615,0.09020647,-0.068108395,0.028959394,0.045364846,0.031199262,0.0009965007,0.06170194,-0.068577215,-0.030328315,0.023328345,-0.07307126,-0.053952616,-0.060980596,0.04362245,-0.011677559,0.021884192,-0.050365925,-0.013478357,-0.06445053,-0.017136518,-0.012913089,0.051165946,-0.049646735,0.07897316,-0.07156867,0.06239976,-0.030070052,0.040047802,0.024751857,-0.071880415,0.017568659,0.029938444,-0.045377612,-0.034429755,-0.017593682,-0.048890784,-0.040266797,0.009754119,0.0758076,0.05752784,-0.048431695,0.006600291,0.003555529,-0.042440847,-0.07967914,0.033238787,0.06542282,-0.024375096,-0.021836877,-0.034604706,-0.06748515,0.031600527,0.076324165,0.08812913,-0.025296105,0.057512805,-0.039134555,-0.063602865,0.013331214,0.06149511,0.08813842,0.06786108,0.06105193,0.032352343,0.03803795,0.08226451,-0.007166422,0.06707117,0.06815827,-0.07709733,-0.08818069,-0.08275802,0.061237205,0.06892018,0.0052384734,0.06713879,0.014572548,-0.082747936,0.045500293,-0.055941433,0.027198669,0.024747945,0.02839071,0.017795468,0.0514694,-0.019579485,0.02461423,-0.00048497904,-0.04385694,0.00078366115,0.010378368,0.080779344,-0.054876782,0.06611323,-0.024166092,-0.059771344,-0.013085103,0.023091944,-0.052558437,0.03724011,-0.0035454598,-0.031143581,0.08567014,0.048431262,-0.072930455,0.028563032,-0.03931342,0.08829042,-0.0053191045,0.07291613,-0.061095335,-0.08733154,0.06253493,-0.026465002,0.04125295,-0.060498904,0.04797485,0.016916035,0.07120654,-0.050819095,-0.026481092,-0.042501114,-0.047331594,-0.062010065,0.008845381,-0.06623166,0.043436773,-0.09290768,0.058021523,-0.034137636,0.017689966,-0.0006160721,0.020378418,0.006425691,0.004242775,-0.08480029,-0.023008455,-0.07467213,0.039235055,0.057083476,0.07915948,-0.01148134,0.06298136,0.04651125,-0.06676558,0.060437165,-0.041853853,-0.048021868,0.0046314937,-0.027617522,-0.020833068,-0.015787166,0.06389623,0.004136196,0.06413835,0.07973305,0.061425984,-0.049107663,0.023917144,0.0339884,-0.036001526,-0.03706269,-0.071287505,-0.06693089,0.02341801,0.07974902,0.035432555,0.064800456,0.0073865205,0.043665305,0.023039432,0.0012170116,-0.045880623,-0.07083705,-0.0013890369,0.006832544,-0.03809738,-0.025307536,-0.07572952,0.0030490193,-0.014736286,0.07890908,-0.0159387,0.037025213,-0.07384859,0.07584882,0.004804207,0.029828493,-0.07061397,0.010657192,0.01031393,-0.004762659,0.06585413,0.07929236,0.07625514,0.04062704,0.0965711,0.032690942,-0.00875742,0.05415193,-0.027451716,0.052621543,0.07899391,-0.06982449,-0.037338115,0.031929195,-0.0049969563,0.07892084,0.03407667,-0.024380678,0.02296889,0.024077304,-0.086264655,-0.035196245,-0.075125076,0.059582427,0.016270552,0.01854261,-0.02717826,0.031602614,0.06948045,-0.00965817,0.029626522,0.08048995,-0.026078764,0.04400472,0.085976236,-0.07218908,-0.020750476,0.07227208,0.04538555,-0.05015574,-0.06539217,0.011166738,-0.051508266,-0.010400042,0.030772716,-0.01665067,0.030394945,-0.058576193,-0.082439244,-0.03943523,0.065598145,0.053113334,-0.016084902,0.0069378056,0.0014207207,-0.051959764,-0.051767923,0.04031197,-0.0814745,-0.058263984,0.00013528118,-0.01590303,0.010402592,-0.07626757,0.031556323,0.0849106,-0.06469284,-0.07264518,0.020992307,0.0052855276,-0.0007629222,-0.06461328,0.054291654,0.059794713,-0.072513424,0.093932435,-0.06994252,-0.021371435,0.040875137,-0.007405692,0.011255706,0.07575898,-0.0087384675,0.081395365,0.018324867,-0.00094079366,-0.00721559,0.067002594,-0.06371956,0.05008881,-0.029639874,-0.07515954,0.011718865,-0.08066327,0.04041419,-0.08603494,0.07752122,-0.061493117,-0.09087266,-0.06002835,0.07291385,-0.049765974,0.06871545,-0.0007013696,0.04220587,0.081659935,-0.051262878,0.08005906,0.07195588,0.043011427,-0.071799845,-0.0030392632,-0.07465721,-0.053943988,0.06641272,-0.008630205,0.039765447,0.04037779,-0.053545803,0.0032034013,0.06852574,-0.03520865,-0.001133785,-0.059277866,-0.0015550216,0.075679764,0.016110217,-0.074658036,0.018996254,0.004281987,0.0051228837,-0.072347924,-0.07935813,-0.030442385,-0.08671249,0.047926567,0.032725185,0.032761645,-0.056842178,0.06486277,-0.016142096,-0.0539249,-0.0778159,0.067179084,-0.062229406,0.013048641,-0.056946523,-0.08572957,0.08782253,0.08481224,0.07082766,-0.008947033,0.05120197,0.020745322,-0.020888956,0.034494553,0.0034958003,-0.025913037,0.05139304,-0.04257133,0.07999346,-0.01895638,-0.073134065,0.035840064,-0.006493286,0.039627455,-0.04658454,0.016496241,-0.050027695,0.08180703,0.04144022,0.0007364297,0.016307797,0.0076966295,0.018028507,0.052557006,0.07160952,-0.042421892,0.036134593,-0.074974425,-0.092450365,0.017964266,-0.005854955,-0.06735374,0.0678892,-0.06000042,-0.034281112,-0.08903344,-0.018081337,-0.043372154,0.06433837,-0.08008515,0.063933596,-0.041160285,0.015325839,0.060794733,-0.0725057,0.018013868,-0.066689715,-0.066780075,0.06724008,-0.046352226,-0.04284501,-0.007357331,0.057037197,-0.007849736,0.076053604,-0.054576978,0.045706376,0.08354661,-0.005770471,-0.015727613,-0.043717895,-0.027652524,-0.06588012,0.06606609,0.07032317,0.024097668,-0.07713101,-0.02551648,-0.061033443,0.06335,0.045591507,-0.08692033,0.051446445,-3.2763255e-05,0.04794915,-0.018674765,0.008995139,-0.045346014,0.079126045,-0.005820823,0.055221748,-0.008507483,-0.07357399,0.033806823,0.07354714,0.06734124,-0.03423535,0.051760346,0.034026943,-0.07901676,-0.05344609,0.027517442,0.028153157,-0.007767125,0.07283607,-0.028430156,-0.0382708,0.021021936,0.009058051,-0.04149215,-0.06211283,-0.038443346,-0.031361535,-0.002474081,0.05743762,-0.057429872,-0.06985149,-0.031521343,-0.061344482,-0.02325024,-0.0060333344,-0.06403379,0.01807462,0.055949382,0.06028403,-0.044571504,-0.049405508,-0.03584981,0.052284703,-0.01814617,-0.06262091,-0.07190183,0.01884315,0.041844584,-0.08111115,0.018480916,0.08223601,-0.07010964,0.08654237,-0.040104683,-0.010349663,0.08758885,0.05028523,0.07561386,-0.065358,0.03573379,-0.015478376,0.09047645,-0.0006466643,-0.0048614983,0.031060556,0.021379124,-0.023482606,-0.0039282995,-0.015903518,0.01526637,-0.020412374,0.053328656,0.02944955,0.06781277,-0.045651615,0.029041145,0.08012385,0.059204914,-0.0080710305,0.00014658035,0.05330988,-0.060905695,-0.01966872,-0.020035421,-0.042707358,-0.07723894,0.037650406,0.05025401,-0.05788535,-0.08439159,-0.016741216,-0.040522724,0.06316468,-0.076626554,-0.003035487,-0.06256299,-0.040527016,-0.027838144,0.028745059,-0.066896066,0.06666982,0.055921398,-0.08506127,0.048191715,-0.031584658,-0.065659955,-0.033253044,0.046173006,0.077687845,-0.06434952,0.0124194585,-0.010066111,-0.0501189,0.04020502,-0.015741453,-0.06265023,-0.04256242,-0.06891221,0.027865488,0.048708774,-0.07564495,0.062115386,-0.084813565,-0.028647073,-0.032073893,-0.07390037,-0.06318548,0.049314372,0.038380075,-0.021848332,0.074006125,-0.083248645,0.009682482,0.05899313,0.07941326,-0.08769462,0.047106743,-0.05777563,-0.08399658,-0.07712959,-0.076489404,-0.06553078,-0.07894215,0.07344386,-0.055846497,0.07463831,0.0767029,-0.0037866533,0.031779304,-0.008474957,-0.032343715,0.05340288,0.019755308,0.018020568,0.06685969,-0.06319721,-0.07872539,0.03595419,-0.083110556,-0.05182325,-0.019259777,-0.02970383,0.0025414545,-0.06266452,-0.0014792737,-0.050988153,-0.08357881,0.031955943,0.041683584,-0.039256327,-0.006575628,0.049897477,0.02162034,-0.078721434,-0.004477916,-0.082153924,0.03397302,0.02626809,0.033000186,0.048992902,0.06907484,-0.08571401,0.07170309,0.014007939,-0.050079837,-0.026673896,-0.0064490996,0.025856368,-0.06645697,-0.07109155,0.0070688133,-0.024851467,-0.023055086,0.019106101,-0.068862185,0.05904502,-0.0031970644,-0.04474754,-0.051095054,0.07150322,-0.03176204,0.040337652,0.082211085,-0.008478042,0.07564339,0.081998765,0.080829084,-0.052762512,-0.081490144,-0.074470565,-0.02837399,0.09173334,-0.0468729,-0.033468455,-0.0044185966,-0.04683601,0.07656394,0.008136055,0.010727197,-0.0015741094,0.06271253,0.04477355,0.08168928,0.04821879,0.005371472,-0.03733447,0.014347392,0.027779441,-0.0343505,-0.015520858,-0.056696594,0.078554556,0.006154746,0.029186599,-0.06234298,0.046195786,-0.08543232,0.043909036,0.08128348,0.0779438,-0.05020833,-0.0116102025,0.08840119,0.08358751,-0.06802546,0.015821222,-0.045192964,0.074716106,-0.03748955,0.013643246,-0.04743243,0.008477609,-0.05680245,-0.01362488,0.0717787,-0.0062110284,-0.07272539,-0.057806008,0.055166766,0.07581379,-0.010902847,-0.016220376,0.0749584,0.020309918,0.0029801868,-0.017001426,0.03796298,0.07995352,0.06892301,-0.07846069,-0.04993662,-0.09200086,0.055690847,0.031312168,-0.054631375,0.053072985,0.055747494,-0.008327257,0.032111228,-0.058568403,-0.029087385,0.054078523,-0.028359737,0.01441917,0.050907604,0.06418081,0.047813013,-0.019163074,-0.02234032,-0.06855491,-0.042558774,-0.046462692,-0.040471356,0.03607083,0.018512309,0.07411271,0.036868162,-0.049133394,0.044584587,-0.011000375,-0.06528012,0.01115901,-0.001851381,-0.07748964,-0.054896627,0.051539615,0.042381443,0.010609785,-0.08575763,-0.02830831,0.07321698,-0.06977959,-0.035310864,0.052251413,0.006630758,0.06940619,0.0069196075,0.013100391,0.08807641,-0.054280907,-0.08384985,0.05309657,0.057901125,0.055865828,-0.06409295,-0.06209772,-0.0069511514,0.06051016,0.077951804,-0.029026553,-0.03341972,-0.0020873179,0.06977445,-0.0005379071,0.01661658,0.0109523125,-0.055347122,-0.08670168,0.01921586,-0.073953785,0.060081832,0.027627433,0.051828697,-0.06256252,0.0071576834,-0.029936569,-0.07849115,0.069746226,-0.03602135,0.016301885,0.07493491,0.002189762,-0.04756727,-0.054287165,0.0026734902,0.044257365,0.047427528,-0.030849032,-0.035416394,-0.059842303,0.004239483,-0.08880229,0.014223758,-0.012739215,0.054986905,0.018518409,0.035981715,-0.07878034,0.045821533,-0.07035351,0.06398027,0.036613367,-0.033584446,0.05164399,0.05735339,0.039287187,0.037340276,-0.05369411,-0.032335,-0.061605833,0.08243669,-0.04447154,-0.045404505,-0.084992155,-0.082214385,-0.07626846,0.06536905,0.07646397,0.08395681,-0.042634994,0.034696706,-0.063925266,0.06649108,-0.062289357,-0.016476572,-0.00603027,-0.050358225,-0.04758419,0.052829754,-0.044328727,-0.011727044,0.023878802,0.06627935,-0.028670404,0.077402085,0.0120805055,-0.0810308,0.07860419,0.006335328,0.0030322159,0.026677152,-0.015086562,0.03889373,-0.051179387,-0.060165778,0.056101926,0.057325497,-0.07224204,0.06232384,-0.052615,0.05974809,-0.048612196,0.036034584,0.06135942,0.07495334,-0.073167555,-0.018102702,-0.03949353,0.043693073,0.08404063,0.07667564,-0.033210374,0.06517261,-0.03897991,0.05682855,0.049462885,0.08487935,0.07867661,-0.0054351613,-0.03208589,-0.07772598,-0.0150522385,0.048280537,-0.08313011,0.0017357514,-0.08938547,-0.014961069,0.028417055,-0.045267656,-0.006127537,0.0694543,0.04221813,-0.08073659,-0.057862088,0.08422467,0.071712844,-0.05555021,0.03964566,0.0078549255,0.016782798,-0.0838055,-0.016632099,-0.07032271,0.07879688,0.013294745,-0.0928092,-0.0529086,0.0051271655,-0.025922628,-0.0008410221,0.07456267,0.07185958,-0.02058116,0.073073246,0.024749551,-0.054154582,0.06615818,-0.07449238,-0.038045038,0.019461023,0.07219998,-0.021718238,0.08009693,0.085881226,0.022674672,-0.018361745,-0.0070667183,-0.0049859914,0.06993961,-0.03221976,0.0032640179,-0.08147192,0.010126369,-0.074137196,0.042789124,0.070622206,0.05972405,-0.079855025,0.00027908303,-0.042806797,0.025065403,-0.055997036,-0.04942111,0.037600942,0.024566043,-0.076363415,-0.01861934,0.035259746,0.073359415,-0.01634356,0.080992855,-0.051505074,-0.007256969,-0.03445331,-0.036900673,-0.026813861,0.0361655,0.012805078,-0.021223672,-0.0059617264,0.06615491,-0.054380327,0.045089506,-0.059511673,-0.0006477138,0.010137184,0.07800613,-0.025163502,0.04518436,0.008218806,0.026725452,0.055075936,-0.013757124,-0.021136241,-0.040334962,0.051493056,-0.071957,0.03917887,0.06668389,-0.019365322,-0.01648381,0.0118745295,0.022625891,0.0089704245,-0.07886639,-0.048033684,-0.07772732,-0.06082866,0.008089834,0.056821488,0.086814456,0.027093664,0.039608043,0.042494465,0.053326752,-0.07626027,-0.08512081,0.02220684,0.009839991,0.07380514,-0.0038685696,-0.01407863,-0.06147421,-0.039056413,0.014174934,0.02887978,-0.06213966,0.036404505,-0.021076903,-0.055854294,-0.025882509,0.0125244055,-0.010367645,0.062481355,-0.04810579,-0.009867387,0.07228315,0.04852839,0.055910602,-0.0106556155,-0.030733405,-0.059228003,0.011749111,0.054795843,-0.016391011,-0.09043993,0.022666564,0.082647756,0.08107489,-0.008913052,-0.022592466,-0.056868464,-0.05572951,0.045934893,0.0047894386,0.08687337,0.0449735,0.063849,-0.08124049,-0.072322875,0.06097154,-0.04407981,0.06618528,0.021096492,0.061657064,0.054475013,0.08703302,-0.020001747,-0.0073429146,-0.01816901,-0.037850283,-0.04868072,0.01936364,0.063733146,-0.0748838,0.0067986473,0.045009725,-0.038070627,-0.073664755,-0.09196137,0.044493526,0.048661992,0.014329042,-0.07838661,-0.04914073,0.06992766,0.031377807,0.005064878,-0.057063945,0.06799959,-0.031081114,0.022761084,-0.025906745,0.0016854928,-0.05458384,-0.025398124,-0.08898781,-0.043509334,0.057879873,0.014294848,-0.08155328,0.07393749,-0.07587367,-0.006691305,0.03068047,0.055954903,0.03133111,0.036975637,0.04418379,0.058158413,0.076907195,0.015552089,0.021664537,0.010563671,-0.034173094,-0.03886485,0.02944468,0.016132262,0.047583718,0.0299274,-0.04387807,0.0001811586,0.08244218,-0.05669614,-0.034789205,0.026346765,-0.08050066,-0.020830268,0.015187325,0.02618236,-0.0624037,0.028583065,0.0009973735,0.03067866,-0.0184794,-0.050565246,-0.07632882,-0.04063209,-0.07128741,0.029527735,0.060101908,-0.007946141,0.0030451072,0.049732253,-0.071523145,0.05536103,0.01498329,-0.0021500052,-0.05707711,0.066083096,0.06783135,0.05304289,-0.047122598,0.08721084,0.037171233,-0.021364406,0.04663928,0.017769895,-0.0034041263,-0.09182055,-0.035267904,0.026954059,-0.023559783,-0.032876782,0.06315226,-0.07572287,0.027668742,-0.034849733,-0.038940147,0.028427526,0.059330728,0.044864845,-0.026571946,0.0019714916,-0.0013736315,0.07516371,0.091029994,-0.046874285,-0.03960769,0.07125299,-0.003858203,0.0017132725,-0.037265427,0.0028516052,-0.060594484,0.026967462,-0.054097936,-0.07899785,0.015417403,-0.05104547,0.059209123,0.03832848,-0.00090182736,0.05683249,0.038756385,-0.081190936,0.018748876,0.0522869,-0.067697704,-0.011347478,-0.075816944,-0.058828868,0.017768923,0.010770492,-0.029043596,-0.06597906,-0.007861711,0.022358287,-0.04589524,0.05685991,0.05844034,0.024303187,0.04949554,-0.009794287,0.07146639,0.05083613,-0.045588233,-0.015419414,-0.052043907,-0.010171818,-0.08690598,-0.003828345,0.04240445,0.004212193,0.051586434,-0.07016201,0.056259833,0.075767785,0.08791582,-0.04848507,0.040412262,-0.048216663,-0.021001777,-0.01704222,-0.055848066,-0.046739556,0.07074928,-0.01568882,-0.005985927,-0.023002528,0.021811195,0.0690244,-0.052555487,0.052589968,0.024351858,0.08152307,-0.030654747,-0.037162393,0.055442125,-0.061759815,0.027795441,0.08328761,-0.09319487,0.048988614,-0.06476803,-0.021785887,0.078087546,0.015305123,-0.085150726,-0.047519192,0.069058195,-0.047524065,-0.0052363267,-0.050604414,0.007154811,-0.069575936,-0.091222726,0.04941473,-0.08145457,-0.035361677,0.06785475,0.032638162,-0.043860756,-0.028862607,0.017785322,0.0063270954,0.080906585,0.064179406,-0.08785667,-0.028839529,0.09059677,0.057331167,-0.073973544,0.011576854,0.084466964,0.046629548,0.0044890475,-0.036666974,0.013587916,0.015022228,-0.058315735,0.076926544,-0.03223781,-0.04578744,0.088751964,0.029509412,-0.07237993,-0.09072153,-0.030169431,0.062157497,0.018922169,-0.050605457,-0.006016322,0.068450935,0.0066832975,-0.018944778,-0.017210795,0.043920074,0.048376847,-0.029451594,-0.011216519,0.036412127,-0.011439458,-0.052257914,-0.03056591,-0.05223946,-0.035402834,0.024947692,0.042629786,-0.044438377,0.069980316,-0.03606332,-0.01969697,-0.061656907,-0.0017629125,0.051832225,0.04971413,-0.012398529,-0.062487796,0.05348993,0.02421171,-0.022719227,-0.089473076,0.07496948,0.040120117,-0.042241596,0.04992427,0.013857359,-0.06737068,-0.033154853,0.03080521,-0.0681745,-0.025526803,-0.07892296,-0.05224698,0.0035370183,-0.07777783,-0.022951264,-0.017446417,0.03655895,-0.075250834,-0.013330358,-0.0826951,-0.060961828,0.07976721,0.059607185,-0.043318607,-0.034055106,0.06572503,0.0058386135,-0.069707744,-0.01801167,0.067865744,0.046197094,-0.047170088,0.048698604,0.025563763,0.06562222,0.06862589,-0.007903107,0.057409003,0.05589372,-0.0060209776,-0.022267066,-0.08620138,-0.027696438,0.0638956,-0.06772192,-0.021984726,0.062003918,0.010352658,0.080288924,-0.06439296,-0.060902677,0.03490044,-0.050901473,0.017900568,-0.0108501725,-0.048463464,-0.001554074,0.06595527,-0.01651845,0.04755354,-0.060361143,-0.010433025,-0.045614332,0.08545938,0.060111895,-0.014907623,0.07069485,0.08711575,0.04804825,-0.002579859,0.036078293,-0.08750349,-0.041814864,-0.07194805,-0.07754019,-0.06900582,-0.045629703,0.040206537,-0.00799733,0.0869436,-0.051374625,0.07443473,-0.00048701803,-0.06153374,-0.028090823,0.06478342,0.035120025,-0.07168776,0.06823218,0.023875158,0.06871313,-0.007082707,0.07468189,-0.01938526,0.05222272,-0.07795076,0.08057188,0.042254414,-0.05884473,0.038751803,-0.0845142,-0.08220783,-0.026013613,0.06839028,0.016473413,-0.0076206895,-0.07813837,-0.045036897,0.04329483,-0.069119126,0.06485968,0.049676955,-0.024078472,0.033805966,0.040596686,0.05159089,-0.080245875,-0.03795704,-0.016912015,0.057422556,-0.08262718,-0.07764569,-0.08224093,0.06343148,-0.046880435,-0.051474404,-0.012930267,-0.058864158,-0.022970712,-0.03506947,-0.03028582,-0.022577908,0.07507858,-0.014469412,-0.06932008,-0.031418502,-0.030354245,0.07436088,-0.04853618,0.034227505,0.04294054,0.0012846724,0.08258207,0.004557889,0.06270065,0.06703018,0.07880829,0.0070363875,0.012461269,-0.047253642,-0.07806052,0.08993943,0.08083272,-0.0033125542,0.025677158,0.024948895,0.00026521055,-0.07182926,-0.046419576,-0.07890338,0.043022335,-0.04074186,-0.05674538,-0.00468883,-0.044474747,0.047422618,0.08058059,-0.010922128,0.041190177,-0.07453711,0.05101464,-0.01844617,0.06616929,0.013123466,-0.0001286883,0.053425044,0.011432253,-0.06510711,-0.06425209,0.03572984,0.0066709416,-0.057814986,-0.077556446,0.0690683,0.052395333,-0.010010614,0.024996132,0.07644223,-0.00264718,0.013292644,0.0117539,0.048210815,0.030792698,0.014556991,-0.0073313494,-0.067518726,-0.045033768,-0.06953597,0.057919398,-0.039560094,-0.07601927,0.009244397,-0.022514835,-0.009037731,-0.0787859,0.018594995,0.0014111758,-0.077638105,0.015142198,-0.0622956,0.060000874,-0.0682968,-0.057444766,0.08611189,0.052751325,0.06479567,-0.051658005,-0.026873639,-0.06506023,0.011191044,-0.014267961,0.013569305,0.0274705,0.03139934,0.012886341,0.08404908,-0.03615354,-0.060958173,-0.026194593,-0.05206841,0.024591517,-0.030790681,0.022656891,-0.06333419,0.036582056,0.07432197,0.07531148,-0.010277284,0.008605929,0.038299724,-0.046885237,0.07826808,-0.069494426,0.008455341,0.009499898,0.00616637,0.029077189,-0.09154693,0.06759468,-0.0546339,-0.07890467,-0.07378732,-0.025832772,-0.04008674,0.08136596,0.0378491,0.088333175,0.066673905,0.050586082,-0.03652308,0.05315891,0.0013127768,0.034826748,0.07884302,-0.046517633,-0.07857467,-0.05356718,-0.019840911,-0.05909332,-0.02489543,-0.007924443,0.06004135,0.02879269,0.04332012,-0.03666399,0.045803774,0.054796286,-0.077649586,-0.08619839,-0.03435788,0.008464567,-0.072528005,-0.01634497,0.008463342,0.031123567,-0.0114669185,-0.04345891,0.018568859,-0.059300855,0.0067068823,0.08948983,0.059473827,-0.023064625,-0.01523483,0.0095538795,-0.06305824,0.016743943,-0.051386416,-0.071763635,-0.0021345648,0.04565333,0.028619599,0.08268201,-0.0059008608,0.08485986,0.08477289,-0.059635196,-0.001134536,0.013651274,0.077052206,0.012690224,0.085609816,-0.020668726,-0.056098275,-0.012202985,-0.08032064,-0.041176554,0.022594783,-0.022149574,-9.072904e-05,0.038453363,0.028905941,-0.052173432,0.048411638,-0.0260392,-0.06071654,0.051219642,0.0070341458,0.0669637,0.05154229,0.06892353,-0.08794789,0.07327266,-0.039474554,0.05390833,-0.011378175,-0.0662999,0.006068051,-0.0726179,-0.025022823,-0.021557199,0.01830114,-0.06893853,0.05209855,-0.012352467,-0.06450464,0.02477149,0.012136964,0.070520565,-0.024681758,-0.011583178,0.063355945,-0.013782483,0.05446823,0.06260128,0.015451921,-0.056868058,0.053021803,-0.020542812,-0.07024649,-0.0411107,-0.088814974,0.07301864,0.040481046,-8.1943304e-05,-0.023714485,0.03647381,-0.023269594,0.059906453,-0.00044081343,0.082621336,-0.010038553,-0.028608326,0.076881945,-0.0010320238,-0.006535098,0.08667691,0.03459689,-0.002886748,-0.0316161,0.06534825,0.078232735,-0.008993539,0.04781895,-0.049205076,0.042510815,0.046070803,-0.044646263,0.07800816,0.04592792,0.060450006,0.07739505,0.063563585,0.024709161,0.0121598635,-0.05951415,0.059627086,-0.044588294,-0.038814507,-0.013099233,0.04964667,-0.08521658,-0.0002762467,-0.06683496,0.0026857392,0.038577013,-0.005111528,0.004994523,0.01762372,0.037382975,0.016007986,0.077838354,0.06115497,-0.08909854,0.044236064,0.03460458,-0.043643977,0.07447924,0.009953426,0.060646236,-0.07677932,0.04175517,0.018302456,-0.0044965046,0.019095095,-0.050104816,0.05382009,0.011889293,0.036504705,0.05967851,-0.032191843,0.03532278,-0.020884234,-0.06723851,0.008273741,0.08073345,-0.016639382,-0.005074448,0.031279713,0.005143573,0.076751605,0.06779933,0.0058512962,0.079998046,0.06537072,-0.024654988,-0.02451082,-0.07984093,-0.009303421,-0.042780373,0.0857687,0.07273227,-0.019759603,-0.023673963,-0.08296771,-0.041150544,0.039301958,-0.08906604,0.04659322,-0.0062552243,-0.0027558098,0.08346207,-0.016764678,0.055022877,-0.07946767,0.043354336,-0.0065554716,0.013749031,0.062001202,0.014970666,0.08097857,-0.074926525,0.0008618099,-0.011384038,-0.04831849,0.077871114,-0.027954675,-0.05232861,-0.06909493,0.030711709,-0.02725459,0.05905831,-0.083101794,0.074286595,-0.040407546,0.07375097,0.060317036,-0.027901947,0.062383235,-0.025137126,-0.0064218165,-0.07428782,0.024366572,-0.08541651,-0.005902478,-0.04807572,-0.0057058437,-0.003003484,-0.074862644,0.06408565,0.014478389,-0.00019166182,-0.012901528,-0.06898017,0.043936364,-0.011564733,-0.07515703,0.00366688,0.050304465,0.05693791,0.07701762,0.024505053,0.062186066,0.017171297,-0.03485219,0.035769716,0.07084121,-0.03354533,0.06480841,0.018066436,0.06492403,0.080983,0.044705205,0.020259066,-0.007273939,-0.06615054,0.079390034,-0.015796695,-0.01670114,-0.021520527,-0.021851776,0.04959,0.06293467,0.044287503,0.053629637,-0.054272458,0.08897044,-0.06007743,-0.030537814,-0.036498196,0.034913555,-0.042493496,-0.012946759,0.018479817,0.06429532,0.06599642,0.051168658,0.05212783,-0.06889567,0.057239592,0.01740988,-0.029031076,-0.010296771,0.057090808,0.007827375,0.036365226,-0.047706436,-0.0452758,-0.06342526,-0.0341298,-0.02574803,0.07831014,-0.08161664,0.0042353226,0.019211123,0.0724176,0.051000997,-0.09104401,-0.031496905,0.098710485,-0.011358645,-0.017510995,-0.028706474,0.05148948,-0.07290669,-0.032618355,-0.065622106,-0.056716815,