-0.006848949,0.007043965,-0.0014526765,0.02841543,0.008677969,-0.03834053,-0.024935022,-0.019024175,0.041224096,-0.0019488068,-0.026815264,-0.026548818,-0.029105049,0.010628322,-0.008041202,-0.038826242,0.017025566,-0.033488736,-0.057332,-0.045312986,0.02151645,-0.052326307,-0.033735275,-0.0338941,-0.013726499,-0.002889508,0.042283714,-0.008644763,0.061665963,0.057986137,0.03472912,0.006364769,0.030746445,-0.042060185,-0.024447072,-0.05114358,0.033434063,-0.038947023,-0.06496671,0.03223735,-0.025894329,-0.043113567,0.028613176,-0.04448641,-0.04220944,0.06400332,-0.0042338762,0.029588502,-0.026470143,-0.050036,-0.033855885,-0.06008973,0.043986082,-0.051471844,0.030544844,0.026826993,-0.027848523,0.008358667,-0.050628904,0.016475718,-0.0151450485,0.027210463,0.001302364,-0.04306815,0.04854121,0.042395696,-0.020556161,-0.023397833,-0.044544075,-0.013715797,-0.05275483,0.056977358,0.017897924,0.032711856,0.030712219,0.054146618,0.03515201,-0.021279361,0.002059307,0.04453943,0.032025844,-0.032206044,-0.05838459,0.058471728,0.016107626,-0.027238583,0.050798435,0.03282579,0.043939777,-0.010003511,-0.02790589,0.043746553,-0.018270578,0.01143924,-0.06390282,0.05573804,0.003412916,-0.03852134,0.05442394,-0.010880274,0.02272957,0.05528003,-0.024413202,-0.002685633,-0.058828358,-0.045210276,0.016389225,-0.042684343,-0.05321309,0.012577731,-0.044936895,0.028707517,-0.06168145,-0.05866962,0.0616896,-0.02771759,-0.00571144,0.03609184,0.02038519,-0.033612188,0.0351955,0.016087215,0.0018466653,-0.0028517493,0.05920046,0.020375546,0.043010283,0.04150723,-0.017517455,0.0007181924,-0.042786483,-0.045405507,0.013036363,0.034248292,-0.031724446,-0.034625158,-0.05183453,0.019863505,0.05828291,-0.007306019,-0.035648488,-0.020606216,0.0022115086,-0.012676238,0.01054731,-0.015984379,0.04748697,-0.0027495995,0.023519754,0.036866874,-0.025080046,0.044568785,-0.051607963,-0.038800206,-0.04803246,0.04883026,-0.053164706,0.051990956,0.026797775,-0.0152430115,-0.045025676,0.06234075,-0.05387879,0.05077517,0.015528663,-0.031810284,-0.052208822,0.054112963,0.057345048,0.044623964,-0.01576326,-0.050922744,-0.031547062,-0.057825826,-0.037288934,0.0104976315,-0.060987573,0.014829954,-0.06708053,0.03665737,-0.009604961,-0.01578921,0.04466974,0.047042362,0.03272009,0.059393354,-0.025883332,-0.055068053,0.04445362,-0.026022483,0.05589574,8.586058e-05,0.045878686,0.011183487,0.01748368,0.024363542,-0.012441544,-0.0016530687,-0.051172167,-0.03196913,-0.018600896,0.026855376,-0.05105529,0.02332006,0.017016424,0.0011285341,0.02241527,0.011986015,0.028140271,-0.007945327,-0.06593795,0.044574734,0.01337751,-0.0038994097,-0.002691674,0.018015416,0.047222115,0.010563832,-0.024184246,-0.01220222,-0.020880643,-0.06184919,0.045353994,-0.043756604,0.012548503,-0.016672235,0.057834603,0.043231748,0.01730929,-0.046640515,-0.009803149,-0.04981709,0.021248847,-0.048168525,-0.04625468,-0.035359003,-0.004638842,-0.03270199,-0.0054363576,0.02859405,0.06484711,0.04951593,0.026916247,-0.05824724,0.03159089,-0.014082875,0.03820225,0.028302507,0.00611164,0.03055027,-0.025165733,-0.012644473,-0.036625348,0.030745765,0.0020844727,-0.051823206,-0.015329383,0.05134199,0.035533473,0.041324496,-0.0061040334,0.049476177,-0.04493852,0.05488451,-0.055418596,-0.01206308,0.035596736,-0.029228702,0.020929012,-0.059800915,0.06271156,0.0493329,-0.0044756634,-0.015240187,0.041456826,-0.035272278,0.044107437,0.029106509,-0.013818448,0.04261367,-0.054707035,-0.05404885,0.011735324,0.023336958,-0.0012878512,-0.025432527,-0.046368487,0.050967492,-0.02931185,-0.035308264,-0.06751537,-0.041085623,0.006341844,0.06326018,0.034099534,0.067025244,-0.038672708,-0.040945414,-0.020401258,-0.010396192,-0.038032554,-0.022418488,0.047981817,0.024753902,0.053496465,-0.010587852,0.06857328,0.026768297,-0.054954406,-0.060577318,-0.009561061,-0.054861587,0.003647696,0.010061378,0.060617678,-0.031015951,-0.055964857,0.022989655,0.063166514,-0.03426069,-0.03706987,-0.032866627,-0.021042727,-0.04844997,0.04431635,-0.02764466,0.051734667,0.036733754,-0.020994216,-0.004958666,0.0022067376,0.053806417,0.06417593,0.05490517,-0.012868211,-0.044026397,-0.011270246,-0.013477569,0.0029449335,-0.05024325,-0.044644088,0.0016522848,-0.037759557,-0.048854865,0.036305428,-0.046932586,-0.03859907,-0.029498227,-0.03853678,-0.0031677824,0.03681782,0.020885386,0.02863323,0.028559245,0.033191025,0.0074225706,0.009092933,0.031027585,-0.023879163,-0.0539233,-1.5495436e-05,-0.06669533,-0.019350737,-0.043035153,-0.0039994586,-0.07022699,-0.008248472,0.05683791,0.015730416,0.021360226,-0.024508923,0.021223405,0.06263565,0.0214372,-0.026359353,-0.01251124,0.00087182067,0.037218064,0.037809722,-0.048096333,-0.037044257,-0.03352133,0.029108373,0.00064372807,-0.056885816,0.048702158,-0.016011517,0.036968946,-0.02835404,-0.028637737,0.057865538,-0.0037021022,-0.06409809,0.030749923,0.06560246,-0.011567665,0.054490253,-0.05497258,-0.04411798,0.023130849,0.006505994,0.027946815,0.061895624,-0.019882912,0.031218227,0.014965147,-0.017311879,-0.045557372,0.027621608,0.04337907,-0.049996417,-0.003929738,0.03766851,-0.057179883,0.00691452,-0.034769326,0.036228877,-0.021537147,-0.007281475,0.009021217,-0.003423506,-0.042879857,0.014362092,0.018872827,-0.021153053,-0.03809526,-0.049944,-0.02945909,0.04220279,-0.022936717,0.058449306,0.001922522,-0.042621993,0.0418856,-0.06324364,0.038974613,0.0139204115,-0.06156118,0.061645925,0.018172817,0.032736655,0.016497057,-0.045484208,-0.061562702,-0.050293535,0.065116525,0.05811248,0.0033830947,-0.028381944,-0.0077253133,-0.052426282,0.018524442,-0.03486771,0.035137296,-0.051637016,-0.04623159,0.06538829,-0.02150045,-0.02653883,0.032430597,-0.010767788,0.064140044,-0.024459101,-0.04999375,-0.053973235,-0.048042357,0.05414199,0.037997223,0.0018954149,-0.027289111,-0.042088818,-4.9148155e-05,-0.028752033,-0.00989759,-0.033785827,-0.022409514,-0.056735396,0.024274282,-0.033687778,0.06045852,-0.03710811,-0.03719516,0.06041663,0.024288675,0.052325062,0.05551547,-0.025796948,-0.043864924,7.651873e-05,0.03906583,0.051372085,0.014549227,-0.016193524,-0.017315634,0.020206874,0.01145824,0.0012620583,0.047822133,-0.013028786,-0.019027743,0.061877962,-0.011031346,0.043822378,0.052429955,0.033985578,-0.052776217,0.030790918,0.0075979223,0.024297737,0.061299022,0.0063705444,0.007200252,-0.040803738,-0.019453939,0.005800659,0.028877605,-0.042415697,0.04960931,0.015773136,0.0053013554,0.0129541755,0.0056601483,0.018248633,-0.00065694837,-0.025222838,0.010951705,-0.054750584,-0.053121466,-0.010745566,0.050080694,-0.025339369,0.060258437,0.05513795,0.052752674,-0.016862165,-0.035379145,0.023959544,0.01747303,0.0068023624,-0.008426331,-0.056925833,0.03774123,0.02850214,0.037148345,-0.044560146,-0.039006364,-0.036809158,0.02174138,-0.025801312,0.019525107,-0.023329683,-0.041700486,-0.008051313,-0.055014633,-0.033515044,0.009158198,0.052673824,-0.060688704,0.04070442,-0.047085516,-0.005833905,0.05577063,-0.0043015666,-0.0021144615,-0.025230344,0.041231383,0.03996934,-0.03328533,-0.018286666,-0.054969132,0.043414,0.03456817,0.055212125,0.04969754,-0.04110484,0.021876603,-0.028883321,-0.06263082,0.017423088,-0.008843727,-0.040148437,0.022796668,0.054589912,-0.020357115,0.044657655,-0.052835576,0.022567831,0.04380637,0.043352995,0.039433345,-0.028454982,-0.03854524,0.021598514,-0.020205136,0.0005237282,-0.018731039,0.017193532,0.05884163,-0.04757252,0.0357958,-0.051521413,0.008986041,-0.059000343,-0.017330676,0.036058582,0.00087915064,-0.037806705,-0.055074476,0.051147543,0.055757023,0.056706537,-0.03925687,0.05367095,0.037840128,-0.028662754,0.062113628,0.036528848,0.07119702,-0.004773193,0.057910867,0.05907678,0.014036126,0.0033228765,0.058232784,0.00977191,-0.012894099,0.031699546,-0.024765465,-0.038132347,0.056209013,0.02301453,0.03759863,0.035066053,-0.03520426,0.056061026,0.02085555,-0.038176127,0.044791963,-0.011090281,0.0008229511,0.055239722,-0.043290026,-0.0062750885,-0.05100447,-0.04030864,0.00059297984,-0.01671967,0.013130676,0.03160978,-0.04076223,-0.018801976,0.036163732,-0.0040593473,0.06203705,-0.0482618,-0.039315943,0.0383616,-0.0035340644,-0.008859646,0.055284336,0.0004455503,0.041945335,-0.05323048,-0.05420353,0.011889123,0.055601522,-0.031862374,0.026137002,0.05382161,0.029595425,-0.00761877,0.035493303,0.03741937,0.0015636538,-0.033641767,0.05688419,0.00755167,-0.031104375,-0.058839448,0.047823697,0.014019038,-0.051472187,0.010503015,0.04910897,0.0049109254,0.004262725,-0.047268108,-0.054450635,0.060390666,0.037671648,-0.028858177,-0.00383342,-0.0037486919,-0.058648884,0.04508532,0.024115678,-0.053793214,-0.00397347,0.051897265,0.04957763,-0.037433255,0.01762478,-0.060100123,0.018097945,-0.01873879,-0.039578736,-0.019164916,0.0033771724,-0.040386178,0.04335221,0.008615881,-0.039552577,0.023951564,0.014255752,0.019857401,0.010287596,0.011044856,-0.033233374,0.045724764,-0.01747096,-0.02549455,0.04387451,0.019011414,-0.03137486,0.044265103,0.0012390681,-0.054803357,-0.01667116,-0.001668884,0.04508524,0.003123191,-0.04974055,-0.0391874,0.01698751,-0.030231122,-0.053707562,-0.03332208,0.008016669,0.001255986,0.04350867,0.019057557,0.011445847,0.022802008,0.060002416,0.055826373,0.0024444566,-0.0017398973,-0.028323064,-0.03322379,-0.026448984,-0.03897821,-0.027054653,-0.041729577,-0.0017691036,0.044773694,0.032741044,0.0416399,0.050403766,-0.04472792,-0.031350344,-0.057509802,-0.022666872,-0.029682998,0.043652274,-0.006354485,-0.061140478,0.037300862,0.01850235,-0.046066,-0.013387598,0.026829928,-0.04965365,0.05550552,0.031774245,0.02055201,-0.0068270117,0.04610511,0.021018304,0.023005985,-0.018341623,-0.031460226,0.042146772,0.028299324,-0.043085136,0.058186665,0.0393252,0.03760892,0.023379639,-0.021247558,-0.016428158,-0.060213327,0.0024645105,0.008426078,0.004564345,-0.04255312,-0.042375743,0.048149653,0.03960324,-0.040320665,-0.02135212,-0.00066580623,-0.014090508,0.024698853,-0.024022907,-0.0018300116,-0.015071064,-0.051792562,-0.021954894,0.008659907,0.06065394,-0.053480893,0.03327828,0.019273564,-0.02952931,0.004278913,0.038841426,0.04474301,-0.060018845,0.00043977052,0.046201497,0.010493033,-0.025703415,0.041935794,-0.061152443,-0.02021651,-0.057754353,0.020747833,-0.00535769,0.033577785,3.130734e-05,-0.013900839,-0.025691845,0.019528747,0.04730548,-0.035461076,0.045044072,-0.009157784,0.027652875,-0.058848113,-0.055647895,0.056490935,0.02316852,0.056471758,-0.035757422,-0.04943686,0.027113855,-0.023568168,-0.005085312,-0.038881257,-6.5244734e-05,0.01741524,0.031471223,0.056709424,-0.040451877,-0.05423683,0.013223074,0.0023685694,-0.042102523,-0.03008575,0.023405768,-0.037734658,0.001603812,0.005445704,-0.011266097,-0.024301775,0.031957768,-0.0015785545,-0.011006288,-0.041118138,0.05703681,0.042751804,-0.026604325,0.060850136,0.060889937,-0.024556302,-0.05422377,-0.04845222,0.021239214,-0.0084769875,-0.060589552,-0.026641749,0.027629152,0.037998505,0.052732393,-0.03546121,0.036025554,-0.045524366,0.053531177,-0.018082134,0.03344354,0.034837358,-0.042822637,0.013848253,-0.046584316,0.008096859,-0.0025242418,0.013124712,0.061202496,0.01553262,-0.032178357,-0.050959535,-0.038653776,-0.0039061904,-0.05603026,0.018797584,-0.037583396,-0.019802965,0.02719608,-0.051610112,-0.02227503,-0.0065304562,-0.042639695,0.050588638,0.017150596,0.040176295,0.018509984,-0.032731354,-0.0054871216,-0.025845334,0.010142647,-0.037051976,0.048791915,-0.014194734,0.05909194,-0.031081647,-0.031064376,-0.0039013028,-0.030223615,0.016393937,-0.027272254,-0.01345212,0.0285158,0.012980245,-0.043243714,-0.032753073,0.00064677745,0.048650287,-0.016705528,0.027461872,0.054727897,0.030738652,0.034907408,0.04130082,0.027156755,0.027230404,0.019690365,0.036909208,-0.045768686,-0.02072832,-0.018574625,0.032069087,-0.014395371,0.0062205642,0.045178562,-0.035179786,0.015717804,-0.041279368,-0.036391906,0.05169992,-0.02468954,-0.037718683,-0.048643984,-0.05927527,-0.019871742,-0.04142432,0.031745143,-0.05120077,0.060656533,-0.029943928,-0.042012736,0.056443445,-0.05490005,0.022375502,-0.015528791,-0.015469216,0.016544692,-0.03682798,-0.02955994,0.060639024,-0.02941154,0.05602707,0.041091226,-0.022755355,0.022089854,-0.0011362359,-0.006132707,-0.01620423,-0.060967624,-0.060942322,0.015001386,-0.043102212,-0.056764796,-0.019242443,-0.006169796,-0.040013306,0.024918973,-0.02686578,-0.061915323,-0.054475576,0.0131223425,-0.0016673729,0.008179583,-0.05818753,0.019752644,0.009012446,-0.03123328,-0.0043079853,-0.061432123,-0.061932698,0.020236097,-0.021977186,0.03880757,-0.050602987,-0.05157195,0.025692374,0.05102393,-0.03353823,-0.013661742,-0.030422956,-0.019772,0.0066512525,0.0179056,-0.020945154,0.021096148,-0.04488948,0.012284027,-0.04610437,0.02650725,0.04932782,-0.02148164,-0.053328462,-0.019357894,-0.021698385,-0.03656449,-0.029456224,-0.053830124,-0.007884831,-0.041389182,-0.013979787,0.05289821,-0.008032147,-0.06171617,-0.026437704,-0.053614393,-0.019255051,-0.051538754,0.00094077515,0.0456112,0.0342625,-0.039081085,0.03292814,0.028520409,0.06322379,-0.029342938,0.046694875,-0.051759623,-0.012709517,0.029201716,0.045187883,-0.009494403,0.0040965932,0.042422067,-0.051593,0.03987228,0.04385669,0.041761246,-0.0043187616,-0.029604103,0.046436608,0.0027882443,0.05435108,-0.04118385,0.042439632,0.0045764716,0.0071407026,-0.052828953,-0.0296646,-0.07205452,-0.0074634766,-0.012638565,0.037777364,-0.057466276,-0.041859742,-0.011769656,-0.042452935,0.008925731,-0.028929144,-0.04500145,0.0043758857,-0.013450603,0.04484357,-0.0038460647,-0.022194922,-0.056152362,0.009464687,-0.026995793,0.024670951,-0.061219733,-0.0595838,0.014066482,0.024361506,0.054082602,0.014003675,-0.02573706,-0.030856594,0.040830385,-0.060283408,-0.020849586,0.00867302,0.02452116,0.016167466,-0.041989215,-0.004602948,-0.01519254,-0.056519393,0.049493697,0.042305745,-0.0045462255,-0.021353927,0.058176465,-0.0037135868,-0.010892931,-0.0006496605,0.02257729,-0.050286584,0.06393285,-0.04847081,-0.006228433,0.04206434,-0.023356244,-0.04807911,0.041147396,0.017017651,-0.055262856,0.061810985,-0.061569404,0.01669757,-0.049540505,-0.044700652,-0.03338024,0.051814772,0.005142307,0.05645924,-9.6302174e-05,-0.04484821,-0.015875364,0.012723644,0.0320986,-0.026198378,0.0018993786,-0.027184306,-0.026646141,0.0320661,0.02879842,0.039717957,-0.0011762019,-0.046914503,0.020144455,0.024026059,-0.056864418,0.050126344,-0.059425592,0.02971848,-0.011917347,0.0075064283,0.06006571,-0.046677206,0.02480844,-0.048814487,-0.049079627,0.05683656,-0.04517854,-0.05818431,-0.029708186,0.059459083,0.04066668,-0.004154344,0.0031060162,-0.004777915,0.02206672,0.035862684,0.046996318,0.021593612,0.021469839,0.04915914,-0.0035114498,0.033305798,0.027179759,0.0027169485,0.009139445,-0.017013717,-0.038554426,0.029682772,0.022289416,-0.020537749,0.037033446,0.037713178,0.024131488,0.027881354,-0.036281392,-0.050877564,0.057416648,-0.052215576,-0.031750217,0.053158715,-0.052538045,-0.04425863,0.055591814,0.049212188,0.025616081,-0.0037129675,-0.008056702,-0.06061759,-0.0029124941,0.049348913,0.060274683,-0.054741375,0.046973832,-0.045360096,0.047109008,-0.014039072,-0.02931919,0.010919124,0.03436303,-0.04430753,0.04784403,0.050212592,0.023622341,-0.062434755,-0.05812259,-0.008439046,0.021598287,0.028789535,-0.019957356,-0.030389858,0.019701988,0.023497468,0.04767026,0.0075421515,-0.046903457,-0.04971335,0.055279374,0.05320684,-0.028761815,-0.05127003,-0.026069922,0.025377823,-0.021141179,-0.023224104,0.039619394,-0.02456811,0.046925515,-0.059473842,0.011947341,0.04831813,-0.028316703,0.020872395,0.02009268,-0.021650432,0.007016154,-0.014991453,-0.04313643,-0.00204816,-0.04645571,0.027525788,0.0030670539,-0.019106848,-0.049110897,0.0105882175,-0.059744783,-0.015875526,-0.055102106,0.054708287,0.030208394,0.015278737,0.024250194,0.024331389,-0.056251533,-0.023436345,0.027821666,0.040950745,-0.047358245,-0.012476752,0.00826288,0.050613463,-0.00047931558,0.00572239,0.0029695458,-0.058852106,-0.032171242,-0.02640494,-0.0011882156,0.056334697,0.047779888,0.010790009,0.020347122,-0.021910923,-0.01887777,0.05282574,0.003656337,0.008020414,0.043516003,0.019423645,0.014894828,-0.057498693,0.0014564004,-0.008922401,-0.00821159,0.013491586,-0.058124013,0.005398064,-0.05216123,-0.02691811,-0.0393619,-0.030497711,-0.022676293,0.051082183,0.048216123,-0.043351118,0.015885476,0.0642577,0.053683273,0.050681043,0.039467443,-0.038647443,0.03247651,0.014889441,0.047481336,0.0010589765,-0.05981101,0.036251336,-0.034840554,-0.0017959039,-0.006484093,-0.010011654,-0.048141856,-0.027189596,0.065430455,0.035814747,-0.03704726,-0.016642915,-0.0059628775,-0.037869707,0.035312463,-0.025134284,0.029213443,0.033634078,-0.057937246,0.036042146,-0.0005107901,-0.051836222,-0.05726401,0.024140213,0.022663813,0.01704621,0.013792213,-0.0047768047,-0.046331976,0.041331828,-0.057105463,0.013378156,0.017564286,0.061316542,-0.01188026,0.020897424,0.05772271,0.03235174,0.008863627,0.021190844,0.027368018,0.029808085,-0.0030318643,-0.034779467,-0.02902612,0.06468751,-0.05751772,0.056835596,0.052842014,0.014780935,-0.04289541,0.06272933,0.05681213,0.05417394,0.0083697755,-0.030681023,-0.012686226,-0.05035229,0.012740193,0.0019810074,-0.021611772,0.04275554,0.041747093,0.02509038,0.029197782,0.034910914,-0.0068517253,0.02476372,0.046103902,-0.0192102,0.04163836,-0.02294238,-0.04867504,0.017092068,0.04429984,0.028468326,0.027015816,0.056392424,-0.020698912,0.04167112,0.0488955,-0.019178368,0.0014300281,0.03741859,0.03558096,-0.00443977,0.063901104,-0.05066371,-0.032878768,0.058677215,0.03269864,0.058888324,0.023989659,0.015872909,0.027404532,-0.047847405,-0.029135257,0.020562492,-0.020659894,-0.0057229293,0.020159364,-0.056711413,0.032807477,-0.008178495,-0.03492982,0.047842726,-0.020163778,-0.014505727,0.057891443,-0.005437839,-0.04940691,-0.051114228,0.026745688,-0.024930887,-0.05401987,0.04799445,-0.042859934,-0.04544193,-0.05288454,-0.004374845,0.05457864,0.003529136,-0.030435015,0.057082467,0.053126827,-0.051646344,-0.01637144,0.023459181,-0.038243562,-0.024646552,-0.047087144,-0.02947599,0.0434431,0.030572724,-0.014891144,0.010877034,0.013427295,-0.031407215,-0.027960984,0.011919269,-0.012247454,0.06347682,-0.0136029795,-0.009417456,-0.03672491,0.027859475,0.05775042,-0.05468703,0.054868985,0.01491054,-0.020060334,0.025305208,0.033339698,0.052055642,-0.047432538,-0.028811509,-0.027922101,-0.053743158,-0.027261795,-0.052019253,0.06049177,-0.0048339376,0.054226957,0.027169488,0.0047495104,0.038660996,0.04570391,-0.03592675,0.022763997,-0.05809432,-0.044195693,0.0502657,0.022033803,-0.053899802,0.028116554,-0.013433149,0.04813074,0.05798026,-0.010413641,0.021401115,-0.054363765,-0.0320058,0.03220206,-0.022026863,0.0012294999,0.0058196103,-0.058939405,-0.024032053,-0.021590915,0.024658255,-4.6036454e-05,-0.02425886,-0.06286757,-0.055513896,-0.046517033,-0.047244832,0.015461767,-0.020946834,-0.033455513,-0.040025935,-0.0103009865,0.041268036,-0.060619082,-0.0071147396,-0.021078464,-0.044432465,-0.013516031,-0.039338462,-0.04844276,-0.0051726736,-0.0050451253,0.045527883,-0.0039227256,-0.020083778,0.04254598,-0.028671082,-0.019873159,0.049647734,0.003571563,-0.026766893,0.016681287,0.012769094,0.0007956205,0.012825539,-0.01070012,0.009854197,-0.050193295,-0.03606869,0.047091804,-0.0063957637,0.058431096,-0.0062460126,0.018540317,0.02416184,0.053686254,-0.038103238,-0.022888664,0.008489132,-0.024899377,-0.018674329,0.028786171,-0.017751686,0.039881814,0.03953661,-0.018857274,-0.001858389,0.046864018,0.049463116,-0.04354372,0.050596572,-0.034971558,-0.039194435,0.037158005,-0.047122966,0.04037922,-0.040236536,0.0011576356,-0.06280704,0.020117104,0.053424627,0.04030957,-0.061602004,-0.016064446,0.037468746,0.008897266,-0.014282022,0.0021889615,0.007931201,0.007053589,0.058474503,-0.048170067,0.054468602,0.050531335,0.031615615,0.057939775,0.031303756,-0.05865939,-0.022346582,-0.05780009,-0.05153417,-0.04426956,0.01974499,-0.028978754,-0.028830599,0.045190416,-0.0022289567,0.05321154,0.04091902,-0.053722844,-0.05098111,0.035279244,-0.050269715,0.029139454,-0.05083595,-0.027316859,-0.05211213,-0.019636597,-0.054831933,-0.021683546,0.020053588,0.0114184525,-0.011557518,0.04907068,0.03119183,0.050416585,0.035083752,-0.009039359,-0.052764416,0.03304804,0.03323067,-0.005544021,-0.025222253,0.04301795,-0.05012217,0.0039242995,0.048230603,0.059584342,-0.046439447,0.03536594,-0.018287037,-0.017600909,0.02183948,-0.026046924,0.0154397385,-0.027665842,0.057475828,0.036607116,0.04561262,0.02165644,-0.0059194323,-0.0064286944,0.022104535,0.0024043706,0.0042138635,-0.015398409,-0.010776319,0.004515294,-0.06630498,-0.010014234,0.057562634,0.0092650885,0.057485633,0.02737707,0.06591087,0.046333514,-0.042667218,-0.00043315382,-0.02156847,0.008643032,0.053816266,-0.042882215,0.031286824,0.016611185,-0.035761844,-0.05777321,0.054270383,-0.010831505,0.038008463,0.03684143,0.04653805,-0.01621436,-0.0346964,-0.0544597,-0.038045667,0.03177875,0.04389266,0.06791124,-0.008792749,-0.023728361,-0.03807954,0.0060004853,0.054876193,-0.015389928,-0.00062573113,-0.052736215,-0.026944017,0.007607859,-0.036424547,-0.036595423,-0.004438884,0.060058057,0.031375557,-0.0069692815,0.046807244,0.05160915,-0.04035832,0.04682648,-0.017532937,0.0026730471,-0.01118347,0.024999924,-0.046467457,-0.06736557,0.025002055,0.01965367,-0.031602904,-0.010224361,-0.0027551386,-0.03088491,0.063557014,-0.007594712,0.0120321,0.0046942635,0.054287873,-0.0038826615,0.055625774,-0.066582985,0.0032428468,0.0008021755,0.046113007,-0.0054272367,0.044886783,0.0538191,-0.02225935,0.052611247,0.049169466,-0.033393405,-0.058364373,-0.03911318,0.06347495,0.0060803806,-0.011014793,0.02161796,-0.05063512,-0.00019319587,-0.0042962804,-0.014219429,-0.021973133,0.02730269,0.012516958,-0.008366184,-0.0054278066,0.022598233,0.026187435,-0.048206568,-0.033905018,-0.059251077,-0.06569,-0.047833238,0.055266704,-0.05351464,-0.056779422,0.018706076,-0.020376407,-0.025239747,-0.015951756,-0.020821653,-0.049088933,-0.0056322375,-0.045540497,-0.031819936,-0.031030484,0.058573596,0.023639198,0.046622995,-0.04107838,-0.025665388,0.06881556,0.058587104,-0.017169915,-0.040340126,0.021210887,-0.024848733,0.010051282,0.048784897,-0.06509977,-0.054570355,-0.022455757,0.032565843,-0.041588,0.03339785,-0.018037006,0.03433471,-0.0064954716,-0.03575539,0.05965267,0.006573627,0.06121943,0.052178714,-0.059862614,-0.041970458,-0.03543705,0.007003907,-0.05596013,-0.063816175,-0.028285498,-0.030022258,0.018390864,-0.005188355,-0.048225384,-0.0027335216,-0.05869159,0.0041925274,0.04148078,-0.025135837,0.01738086,-0.0011412753,-0.0062735425,0.010255139,0.043559995,-0.004942014,0.047990106,0.053294268,-0.0356113,-0.04795532,0.029841868,0.048716128,-0.059498787,0.048771247,0.010833463,-0.0279774,-0.007604316,-0.048847497,-0.035122503,0.011521744,0.015422499,-0.0065984996,-0.02288977,-0.033646576,-0.04929086,0.017294127,0.033926167,0.030146912,-0.03337245,-0.0017150408,-0.041284375,0.03178478,-0.061259575,0.02749952,-0.0122402385,-0.01189219,0.038297035,0.029331045,-0.041033216,0.04032458,0.05097145,0.034831233,-0.054225318,0.005557378,0.04268627,0.016773805,4.453972e-05,0.010234756,-0.04860729,0.007039011,-0.00842493,0.0046527768,0.031267345,0.046603013,-0.06207923,-0.014595728,0.021379557,-0.04372608,0.03249006,0.044297203,-0.024087785,0.035794325,-0.05744147,-0.010647451,0.032191582,0.04490303,-0.005855242,-0.002729065,-0.029247351,0.034033053,0.034930356,-0.012344066,0.050413482,0.023949858,-0.03526198,-0.012404887,0.004051094,-0.03114381,-0.017840244,-0.04609679,-0.026216598,-0.017571386,0.0268776,0.049318776,-0.027726915,0.026728973,-0.03958735,0.0022751493,0.035951726,0.023160584,0.02744228,-0.024052074,0.028284794,0.049704768,0.011605551,0.054560214,0.027180756,-0.0032942584,0.015459675,-0.030453328,0.057168067,-0.016217683,0.05085554,0.052945152,0.04449286,0.025896564,-0.0406648,0.017235804,-0.03989613,0.06527972,0.025732644,0.039816897,0.018581133,-0.018069439,-0.004930339,0.013344657,0.04651119,0.04409824,0.0005726381,-0.029696554,0.059284523,0.034734752,0.0023247537,-0.035066124,0.040101364,0.06120605,-0.008458415,-0.021895932,0.006112349,0.0019308785,0.026968593,0.046073243,-0.00430768,-0.020044722,-0.013844289,0.051720195,0.047461823,0.06791675,0.05313894,-0.03226099,0.002758704,-0.014120359,0.003859655,-0.0064931465,0.022262596,0.045103624,-0.051672556,0.038328066,0.036507525,0.040594712,-0.003936438,-0.029366381,-0.0112064015,0.010054282,0.030717986,-0.018275507,-0.046514783,0.0410859,-0.0017783524,0.05245735,0.028432345,-0.031444702,-0.05204748,-0.014656955,-0.005428654,0.035692878,0.049892697,0.025338069,-0.024942396,-0.043004088,0.0056389016,-0.046350658,0.0051181475,0.0123801865,0.008865802,-0.051847506,0.05537691,0.05379808,-0.04710955,-0.063188955,0.06159214,0.029165562,0.011991536,-0.037831813,-0.04788626,-0.04976625,0.030322177,-0.052492343,0.018106226,0.024795536,-0.04855596,0.007580911,0.0624424,-0.050097518,-0.023834385,-0.052218456,-0.03173668,0.054987196,-0.017913882,-0.05586125,0.009156773,0.0033252584,0.015730062,0.027435318,0.031254064,0.032486588,-0.033238538,-0.011586254,-0.030425742,-0.0267867,-0.05826626,0.05794869,0.029676078,0.05998646,-0.021107357,0.011479007,0.02933209,0.05253592,-0.019052282,-0.024197282,0.01428703,-0.028814368,-0.017667405,0.02257262,0.032184154,0.0038849437,0.027186941,-0.059747443,-0.020337097,-0.009567076,0.029754054,-0.05767964,0.048201688,0.023247214,0.042354275,-0.023671277,-0.026007462,0.004583003,0.054039903,0.04912707,-0.04770507,0.059092157,-0.010873269,0.032596305,-0.061751574,-0.0339408,-0.033134498,-0.026431719,-0.0046107164,0.032804042,-0.016998079,0.05256726,0.0505396,-0.059352256,-0.057886846,-0.043775484,0.0076573454,-0.023669943,-0.032392748,0.057511576,0.053220183,-0.0029558814,-0.0460672,-0.023362719,0.033711314,0.0028699231,-0.018913712,0.042839594,-0.018820807,-0.060815506,-0.029989734,-0.04688152,0.049146075,-0.032292604,-0.00530806,-0.0456065,-0.033173405,0.021955434,0.040793438,-0.043397278,-0.01697157,-0.00750611,0.059490845,0.009993225,0.0039526774,-0.02483055,-0.055942282,0.022012345,-0.015396892,0.047645576,0.030404575,-0.05056545,-0.011407624,0.05002714,-0.021080982,0.050122462,0.024545569,0.0023657505,-0.046979442,0.03335013,0.029276118,-0.011442922,-0.046653785,0.014388341,-0.009590151,-0.017993648,0.021853045,-0.044505846,0.011673312,0.035291012,0.025848236,0.006599849,0.040294267,0.02818929,-0.057534594,0.01872231,0.053561576,0.0037579855,0.03137859,-0.039048366,-0.019134875,0.061541826,0.028690163,-0.039241135,0.009593957,-0.0069571715,-0.03827647,-0.025601575,0.027594566,-0.04612506,0.005081375,-0.03170413,-0.021182373,-0.02305016,-0.018932708,0.024716333,0.016623683,0.010086653,0.012845139,0.03658978,-0.02968691,0.00085315044,-0.039764777,0.033549733,-0.028359365,-0.0343322,0.059669055,-0.020695362,-0.054608904,0.041769527,0.042916942,0.05623047,-0.035215892,0.020406544,-0.014396081,-0.03663285,0.05004318,0.031065747,0.00890084,-0.00073626195,0.059380688,0.0025947993,0.054977734,0.012475472,-0.041778997,-0.0026958892,0.03688764,0.05404992,0.048070226,0.055894755,0.026881106,-0.016279593,0.026371535,-0.0621344,-0.059591725,0.0043881238,-0.017690854,-0.015073508,0.021439277,-0.05048552,-0.05369577,0.037456885,-0.01899934,0.035938323,0.0023666294,0.037533477,-0.00781189,-0.034313288,-0.050050654,-0.028555479,-0.044163458,-0.03642547,0.04266994,-0.014004149,-0.054207303,-0.03497726,0.046457686,0.017603965,0.0123438565,-0.03767795,-0.011453553,0.044828095,-0.05652751,-0.04146935,-0.03771012,0.05675576,-0.04931528,0.03776572,0.016042061,-0.056021377,-0.00552159,-0.010674024,-0.06102506,-0.05994526,0.009440804,-0.010230854,0.019933287,0.060052227,0.051859215,-0.002666084,0.015910339,0.028851148,0.026842987,-0.043222338,-0.039932534,-0.015970036,-0.028989129,-0.03656417,-0.017363284,-0.027845182,0.013118799,-0.020937633,0.02238341,-0.02057534,-0.035165556,0.036388785,0.01063576,0.031364262,-0.01228329,-0.012679802,-0.06039907,-0.02139437,0.015106453,-0.010207091,-0.007275594,0.018509576,-0.036225595,-0.017503925,0.00068305153,0.042960353,-0.04489906,0.0016555788,0.060928285,0.03680937,0.033897936,0.0017665394,-0.02554959,0.02657541,0.029143296,-0.02928184,0.05488108,-0.03700705,-0.04318735,-0.03332101,0.009649441,0.034134913,-0.053822294,-0.027957536,-0.0033434196,-0.0055297636,-0.037048575,-0.008871319,0.014568588,-0.0074800495,-0.04791727,-0.020600192,-0.0031418372,0.04803484,-0.034183152,-0.025548702,0.05162828,0.045728862,-0.002396603,0.06133239,0.048345134,0.032128096,-0.016981062,0.04996997,0.02079049,0.030876394,-0.06846309,0.036667787,0.03695871,-0.06483995,-0.03659951,0.009681929,-0.02909146,-0.035383314,-0.019529894,-0.051574323,0.05330892,-0.043202788,-0.023911618,-0.0046757488,0.029156014,0.05710943,-0.036776833,0.02216405,-0.05072178,-0.025570981,-0.0241702,-0.014425851,0.044211492,0.06905986,0.0064415857,-0.033153024,-0.05132365,-0.00091728894,0.02181101,0.02365518,-0.044939138,-0.039844602,0.014799413,0.03262978,0.035293072,0.038754076,-0.062717505,-0.06419026,0.0131159695,-0.044186532,-0.04798864,0.02756783,0.026816435,0.020422496,0.018258702,-0.044923123,-0.012555635,-0.036994696,-0.03174688,0.058539234,-0.010707557,0.01701177,-0.018377531,0.06789486,-0.04340627,0.034181245,-0.044611502,-0.00074403314,0.031245816,0.008911876,-0.0070122955,-0.009917276,-0.03536777,0.053125426,0.016985707,0.057864234,-0.033369645,0.041334175,0.055510007,-0.030612133,0.051005557,0.03623777,0.037914693,0.048696883,0.013428748,-0.020879123,0.0025768615,0.023186442,0.03464622,-0.042026687,0.036257252,-0.016169054,-0.04994303,-0.06520179,0.004710471,-0.06108214,-0.050765924,0.05147949,0.0068065114,-0.0409884,-0.041435488,0.043132663,0.059218306,-0.009100897,-0.046199664,-0.013290053,0.019668493,0.03795512,-0.033904806,-0.053340916,-0.034409888,-0.016980048,-0.051664956,-0.013589088,0.029207494,-0.04128783,-0.0072594834,0.05261796,-0.0619088,-0.069006726,-0.06065283,-0.0020448472,-0.012887973,0.0587808,-0.049189053,-0.046227083,-0.048820935,0.031759493,-0.066729724,0.010473175,0.007577581,0.003070414,0.038340412,-0.000119731456,-0.02291672,0.0067675165,-0.024987489,0.05240217,-0.006033322,-0.04448066,0.011765071,0.009094987,-0.0002343502,0.04706614,0.036373958,0.047613233,-0.0077788024,0.004083643,0.028065115,0.036733665,0.05579412,0.05690004,0.02436851,-0.06263026,0.030024122,-0.0141080525,0.026821485,-0.02002604,0.016284991,0.012021918,-0.0076619647,-0.053309754,-0.029069116,0.019716095,0.034363784,-0.01356131,0.057557814,0.062384114,-0.044747923,-0.056040347,0.028401598,-0.035018288,0.04992389,-0.05658956,0.02271017,0.008182244,-0.018049985,0.027738968,-0.030312011,-0.053430848,0.026830832,0.019028746,0.048766248,0.009336363,0.0061866823,-0.04285504,0.0034794714,-0.036396593,0.010764573,-0.028911036,0.014080424,0.036917742,0.039590295,-0.006955333,0.058876082,0.009159833,0.012295926,0.032391105,-0.031653255,-0.028897826,-0.032966822,-0.0076954598,0.06596701,0.024900232,0.054016322,-0.025129408,0.035334118,0.04667908,-0.008217277,-0.044563934,0.0030460842,0.015400752,0.0013336276,-0.039079368,-0.017563496,0.0010891955,0.056292273,-0.011273911,-0.02075341,0.064759,-0.05687616,-0.0019701328,-0.00096168957,0.038879186,0.0057486854,0.036751077,-0.050841466,0.026304688,0.059815325,0.011442522,0.02630913,0.0061166566,-0.055101983,0.020686472,0.03929656,-0.03952887,-0.0036479128,-0.0007236663,0.029184494,0.052544024,-0.009711941,0.009377254,0.0062882137,-0.004128197,0.006033499,-0.042789362,-0.06722081,-0.019555943,-0.017321903,0.020860674,-0.0098672705,-0.05807089,0.024169967,0.05639332,0.03437008,0.032024927,-0.056230552,-0.020698048,0.042409495,0.025498593,-0.026183918,-0.016332638,-0.0037286035,0.0453699,0.03394121,0.038168162,-0.023242015,-0.008153319,-0.042539462,0.056719344,0.014833089,-0.055168018,0.02606924,0.035217173,-0.058114305,0.04838057,-8.491492e-05,0.04031931,-0.055594914,0.0046140747,0.024899786,0.04361812,0.028941147,0.04390561,0.050371367,-0.042475812,0.0027440523,-0.03018491,-0.002387174,0.032803506,-0.026831329,0.038928643,0.0338936,-0.021249698,0.020488512,0.03384088,0.00076635706,-0.01379521,0.043474395,-0.04230217,0.03340211,-0.031628944,0.024599046,0.0048304377,-0.0542759,-0.054509595,-0.00725032,0.0035877428,-0.014099371,-0.029795453,0.003341674,0.056988746,-0.03154066,0.012250991,-0.023351697,-0.0515334,-0.020299567,0.062364053,0.0037000347,-0.056666285,-0.051939398,-0.048916258,-0.0063479454,-0.048115388,-0.014724098,0.0053541027,-0.034596518,-0.05026952,0.0622486,-0.045924857,0.007541337,0.014365878,-0.017397948,0.059838053,-0.032426924,-0.020278089,-0.002385983,-0.030912071,-0.0014786369,-0.005045365,-0.04947366,0.031788416,0.0110616125,0.024576599,0.057505153,0.044157643,0.061289094,0.06239561,-0.05009727,0.019986928,-0.004319163,-0.040620483,-0.04346001,0.024223255,-0.021392047,-0.025249079,-0.026010396,0.010921138,-0.05842846,0.010614674,0.05899295,0.03448589,-0.030446816,0.05064027,-0.045640655,0.058819316,-0.02168399,-0.039449833,0.03408405,0.067424014,0.045420468,-0.030598372,-0.007920599,-0.00011981456,0.06502991,0.05257964,-0.008472039,-0.0063130166,-0.043097615,0.046036046,0.009862397,0.031130958,-0.05007188,-0.01737113,0.053517096,-0.05019865,-0.05716385,-0.028378522,0.03996305,0.051461875,0.033066563,0.04215399,0.037693582,0.021612529,-0.062263764,0.037651744,0.026240017,-0.053961158,0.015180683,0.011977055,0.051251274,0.05569256,0.04743929,-0.012748619,0.019622374,0.06355348,0.015311112,-0.010019811,-0.008901039,0.002263749,0.010325819,-0.0251057,0.05063684,-0.008435961,0.046514295,-0.007202682,-0.05692394,0.039535187,0.041015744,-0.027489806,-0.016134761,0.0010446981,0.0044636913,-0.025690485,0.001002938,0.052937347,-0.017670304,-0.038184017,0.012589757,0.020889878,-0.048224725,-0.0358337,0.029432785,0.036002673,0.0031804927,-0.026562722,-0.003086174,0.007832173,-0.03330583,-0.04664878,0.03349648,-0.035205465,-0.06326713,0.045182556,0.03688591,-0.056036167,-0.048401773,-0.045535184,-0.033426944,-0.0030201601,0.03000621,0.046125636,0.061234653,-0.039578505,-0.04247452,-0.05585953,0.019285636,-0.037850603,0.05949753,0.038517173,-0.00796728,0.03490145,-0.029040616,0.03936331,0.014825143,-0.0037529236,-0.024529338,-0.05994203,-0.034445904,-0.01333242,-0.00028405443,-0.020134658,0.038307093,0.031040551,0.06680886,-0.0067042913,0.025800807,0.05662436,0.012802819,-0.028966418,0.045544334,0.04457686,-0.0329734,-0.057363585,-0.00084827945,-0.016895492,-0.006542727,-0.04522783,0.041879684,0.015679661,-0.008496471,0.0534701,0.0314176,0.055524714,-0.0012340592,-0.0099918,-0.060339622,0.0206125,-0.030786807,-0.0034115314,0.008405756,-0.027672295,-0.008675704,0.009964863,0.012187722,-0.051089697,0.032916944,0.0033561417,-0.029248342,-0.044478096,-0.014974298,-0.04234626,-0.040691517,0.017127007,-0.0049004536,-0.0052227294,0.05136916,-0.005581228,-0.028871851,-0.050621428,-0.013724675,0.015460184,0.043226033,-0.015987167,-0.070256636,-0.04420347,0.021447035,-0.007353311,-0.0010856625,0.03641706,0.016275968,0.04725947,0.04319696,-0.032355957,0.011306116,-0.041942097,-0.04832127,0.02449467,0.016037384,0.03263343,-0.019792505,-0.058572076,0.05279359,0.0007217019,0.020253628,-0.022302596,0.021911621,0.02821216,0.0062790075,-0.014722565,0.04775133,0.014626591,-0.036033344,-0.023260485,-0.059866562,0.044601943,-0.05405688,1.428581e-05,0.024863351,-0.010688451,0.022378687,-0.0339352,0.015475715,-0.024612661,0.05246424,-0.015644468,-0.027751166,-0.01748474,0.037453502,-0.030918293,-0.0042800354,-0.014246637,0.038842544,-0.019530348,0.025722705,0.02222202,0.0056571444,0.04662019,0.009138765,0.041470714,0.005277307,0.059306882,-0.0034557509,-0.015115411,-0.027054582,0.037716396,0.062546074,0.047439896,-0.00614825,-0.029680971,0.056915,-0.010249677,-0.008975336,0.027740356,0.025187694,0.030025505,0.04921682,-0.037309334,0.04297568,-0.016785309,-0.026229855,-0.04674697,0.01701158,0.01889526,-0.03547515,-0.06375286,-0.024207436,0.04315526,0.015378507,0.03448592,0.033970416,0.021663532,0.02299222,0.045891866,0.047379278,0.026927628,-0.053549945,-0.03253031,0.007153906,0.02322637,0.039362736,-0.018018864,-0.06514385,0.0010552236,-0.001388934,-0.011863202,-0.05948346,0.03805682,0.03486651,0.0050030923,0.047522955,0.03143552,0.031522408,-0.037738208,-0.024600785,-0.039744116,-0.0038856866,0.01792061,-0.05100155,0.051115293,0.012996708,-0.020682745,0.052588906,-0.026030533,-0.0021037655,0.05228952,0.016485184,0.03177043,-0.04761856,0.02653464,0.0048062894,-0.04207944,-0.06632891,0.02161053,0.0030165825,0.016747845,0.03379639,0.015371136,-0.0027431296,-0.059332993,0.014960781,0.043825664,0.047325037,-0.06323988,-0.038945634,-0.043588154,-0.016394593,-0.06690819,-0.0589138,-0.0007499825,-0.022367641,0.034200102,-0.005171513,-0.022670094,0.04184427,-0.065984264,-0.031411543,-0.010586964,0.037222095,0.026802113,-0.043997407,0.04230845,-0.050981425,-0.0068348385,-0.024922296,-0.011673721,-0.0396375,0.021827046,-0.026913263,0.03667303,0.03823997,-0.022224337,0.039220013,-0.016118148,0.037650667,-0.04811755,-0.013352826,-0.02733541,-0.015982557,0.028934285,0.024076903,0.001533305,0.001999267,0.016861726,0.033239014,-0.048622355,-0.041300457,-0.039331514,-0.03500011,0.055790093,0.019325528,0.014533101,-0.037575964,0.04201869,0.05268167,-0.0570902,0.024967225,0.026862804,0.03105557,0.019203592,0.013320144,0.0257199,0.049921483,0.008731609,0.05405376,0.055900984,0.062169664,0.05325853,-0.058283225,0.031479724,-0.07171384,-0.03138859,-0.046050064,0.007317309,-0.012226577,-0.031949174,-0.022048956,0.0536754,0.044843253,0.056450777,0.049017157,0.046874244,-0.0330991,-0.049885515,0.012179022,0.0137976585,-0.049020186,0.026930641,0.0030085945,0.051678367,0.016499508,-0.020309724,-0.03490395,-0.013483337,-0.019965127,-0.0023870193,0.019953448,-0.004341973,-0.034437742,0.015442159,0.013128862,0.056326747,0.018361172,-0.025009818,0.013428184,0.063308984,-0.02657698,0.003980867,-0.025010535,0.026630737,-0.05245314,-0.030556016,-0.026754718,0.029110815,-0.036890544,0.061023384,0.07222101,-0.06069132,0.07323459,0.061570786,0.06639138,0.044778153,0.034306273,-0.01851742,0.045107447,-0.05801127,-0.017341077,-0.04011605,-0.016082298,-0.054162726,0.05138115,0.039482147,0.037232563,0.021914715,-0.010548048,-0.004572327,0.009738485,0.058101926,0.034328572,0.06383434,-0.028717741,0.03776794,0.060528122,0.015482897,0.027111344,-0.013610514,-0.05513762,-0.0021340763,-0.060102284,0.05860869,-0.0033626952,0.02212369,0.04154346,0.008696239,-0.0039094584,-0.05920807,-0.04244086,0.042608418,-0.06503905,0.0055714315,0.028329017,0.00092294236,0.04229418,0.004623281,0.012635634,0.02858253,-0.020939656,-0.021764703,0.02460115,-0.02157014,0.02222921,-0.037927434,0.024493538,-0.015629247,0.026704162,0.02801125,0.0066058794,-0.033967078,-0.016927827,-0.050748497,0.05395356,0.045326717,-0.043088842,-0.024490017,0.012845214,0.05535782,0.0487981,0.04997602,-0.00975747,-0.045710146,0.04156,0.0061782952,-0.052483313,-0.036151625,-0.040847674,-0.02759516,-0.05917384,0.024123212,-0.04457011,-0.02354982,0.02515854,0.0070974496,-0.059740998,0.050289456,0.00998486,-0.019021414,0.065092504,-0.010523351,0.0444743,-0.05904583,-0.022162136,0.067252725,0.024117103,-0.030389233,-0.021270782,0.02758452,0.0050784796,0.018094443,-0.042827316,-0.06533595,0.058378607,0.03917848,0.039286412,-0.0062304414,-0.064342976,-0.007608182,-0.015086777,-0.027962757,0.026223723,0.00026810536,0.07006457,-0.03558985,-0.05103372,0.017130729,-0.0003926087,0.002021166,-0.04253023,0.030773286,-0.05394915,-0.0645491,-0.01652784,0.002289352,-0.015005276,-0.04963149,0.030100591,0.04859486,0.025242105,0.05183876,-0.016331125,0.031965323,-0.05186885,-0.045136243,0.011537348,-0.034321688,0.033915587,0.02523589,0.05812134,0.022668522,-0.032860607,-0.030263025,-0.015152641,-0.03273948,-0.031644583,0.060974494,0.046197776,0.02030579,0.062455196,0.027888164,0.027578719,-0.017400075,0.04811894,0.05856446,-0.05131226,-0.043050244,-0.04048515,-0.06348222,0.050051242,-0.04452304,-0.03888323,-0.004860203,0.048464242,-0.012150125,-0.057116605,-0.010642497,-0.025388015,0.05230598,-0.0075806063,-0.04834834,-0.03405051,0.024026679,0.020689439,-0.05373747,0.06806262,-0.0695827,-0.011924731,-0.037770525,-0.011438891,0.022457905,-0.015770674,-0.030801542,-0.049171668,0.04265958,-0.026602164,-0.050403263,-0.035587914,0.040501054,0.02944931,0.021570653,-0.014127662,-0.029925156,0.06309789,0.05682639,0.03587784,0.019885063,-0.04530506,0.025251243,-0.013095077,0.026782129,-0.014257517,-0.0281675,0.06551726,0.005563547,-0.015279336,0.012663608,0.058299094,-0.02098523,-0.0013523963,0.0037128993,0.041151956,0.013479478,-0.044863664,-0.010097469,0.04821509,0.03127259,0.054218948,-0.027232883,-0.05897903,-0.029259175,0.026790842,-0.00797233,0.06793669,0.0320734,-0.02461171,-0.053583756,-0.036191735,-0.023191337,-0.018826433,-0.025432447,0.03446523,0.04268715,0.029298484,0.03729412,0.010497976,-0.020335965,0.019957807,-0.02086771,0.05721962,-0.025239887,-0.0045378897,0.03972576,0.043384954,-0.0076312134,0.02938186,-0.051659513,-0.03941045,0.04865919,-0.052182317,0.022513267,0.0007819468,-0.042943913,-0.0530971,0.06108914,-0.026510771,0.022546895,-0.04581345,0.007954379,-0.008450033,0.039885625,-0.038028546,0.050647274,-0.061009593,0.005678636,0.010380577,-0.049093843,0.01765833,-0.008934553,-0.059488256,-0.02417513,0.014555643,-0.06453167,-0.044484954,0.05578941,-0.012727752,-0.020066844,0.050763354,0.06578219,0.01856279,-0.062419288,0.06384969,-0.029698066,0.06117347,0.03898909,-0.036718573,0.03588877,-0.06261823,-0.0102766445,0.030692337,0.056459457,0.002010714,0.03612289,0.018951736,0.0006563786,-0.05686026,0.013796173,-0.027433623,0.017378625,-0.0018662652,-0.022455903,0.058039043,0.021980168,0.039590605,-0.065270275,-0.014442866,-0.024899125,-0.052705046,0.0038544608,-0.009902623,0.0075514554,0.053610142,0.004132853,-0.05983028,0.04010375,-0.0242186,0.014153196,-0.01533002,0.019175323,0.055853076,-0.0026553038,0.016806591,0.03329815,0.0023662876,0.060490616,-0.064961165,0.016892996,0.030781452,-0.053915404,0.05094666,0.00928531,-0.025139801,0.05488312,0.03814809,-0.06210359,0.022610262,0.004128994,0.045290045,0.0001803815,0.040921487,0.017407075,0.017471835,-0.022007171,-0.029391527,-0.021181785,-0.048947826,-0.012608165,0.0070515596,-0.017572466,-0.037949316,0.03382869,-0.007032754,-0.04079037,-0.040426157,-0.025907427,-0.042693872,-0.018979035,0.025795802,0.045852043,-0.02661084,-0.031250797,0.055972233,0.010700848,-0.008725118,0.043047704,0.0315,0.033910945,0.032317244,-0.032642655,0.057537556,0.023780376,-0.020927329,0.06386837,-0.023093246,0.022841725,-0.031408764,-0.040457644,0.027295545,0.035287812,0.028383221,-0.052890167,0.061582074,0.023578878,-0.023232095,-0.018359061,0.011632288,0.0005178026,0.046634793,-0.031316776,0.014283482,-0.061508413,-0.04575871,-0.02706141,-0.015577193,-0.0041573155,0.04450831,0.03517921,0.05530189,-0.0013993271,-0.052676037,-0.028610699,-0.0065340726,-0.0307925,0.025126342,0.01158466,0.019478276,8.306581e-05,0.038218483,0.03209039,-0.027354855,0.054794736,-0.007960979,0.060917117,0.058757123,0.038505666,0.020157602,0.025150817,-0.010242114,0.03424741,-0.01299554,0.037750117,0.010457184,0.017289989,0.059255347,-0.036471702,-0.0396394,0.016220134,-0.038480133,0.0004053394,0.012189036,0.024070676,0.065054536,-0.028566774,0.03575629,0.04315131,-0.040116396,-0.060076542,-0.029731698,0.0042155893,-0.015110584,0.049980488,-0.023494413,-0.018314414,-0.03820428,-0.0011890591,-0.009719114,-0.0026846626,-0.027544226,-0.013693874,-0.034885105,0.055206776,-0.024771208,0.015481131,-0.040719263,0.055158824,-0.033223912,0.038247775,-0.060722057,-0.034169577,0.0427066,-0.0067403186,-0.04442271,-0.032325923,-0.024706304,0.04427984,0.011998648,0.053355813,-0.0040916232,-0.0016598459,0.026241925,-0.046980955,-0.03091782,-0.019614343,-0.00090560724,0.008655332,-0.014117884,-0.06452569,0.007393622,-0.049154747,0.051672272,0.07104246,0.0550161,0.05671574,0.032117933,-0.037414916,0.044969074,-0.014199438,-0.013161495,0.05657573,-0.04525581,-0.04393392,0.06358609,0.004209713,0.02040232,0.055057235,-0.043555178,0.021240495,-0.04051878,0.049078032,0.009831636,-0.065077506,0.02860465,-0.051114842,0.018976972,0.04328274,0.028542224,-0.060211323,0.02966731,0.05551062,0.016303737,0.033609122,0.041548483,-0.0064451518,-0.008443544,0.070326686,0.036521804,0.029427074,0.010941383,0.06542815,-0.015574699,-0.023628535,-0.057771213,-0.010230919,0.0065829596,0.0111617595,0.019462328,0.0059280125,-0.010022499,0.05843097,-0.03906115,0.017130755,-0.028914293,-0.023164343,-0.015509885,-0.008422285,-0.002596459,-0.03104259,-0.005935116,-0.02784779,0.043572113,-0.041734084,-0.034537688,0.04642117,0.011632253,-0.03099323,0.018931594,-0.0043440647,-0.049519546,-0.011084344,0.034222253,0.0032285522,0.03963579,0.06889503,0.040427804,-0.03554044,-0.007238388,0.026657034,-0.024277775,-0.016434297,0.057047576,-0.053417847,0.021098757,-0.016176362,0.04614818,0.020715967,-0.05176372,0.06111945,-0.010685124,-0.05121716,0.019021822,0.055562597,-0.0038756933,0.012359137,0.004398573,-0.02459563,-0.024413269,-0.039444193,-0.06440699,0.016359087,-0.01726095,-0.04102845,-0.035593975,0.063995644,0.027557202,-0.05572786,-0.0219016,0.009678237,-0.027888168,-0.029335547,0.048541024,-0.005391348,-0.056991458,0.0123669,-0.009078691,0.015067751,0.062129375,0.063064635,-0.053209703,0.023851106,-0.02198765,0.021053214,-0.020067818,0.041261654,-0.04816743,0.04901722,-0.04260055,-0.02530602,0.03563641,-0.0064048,0.020658355,-0.042872824,-0.029480698,-0.032306563,0.05082709,0.0011933197,0.06382185,0.057499636,0.057396043,-0.03955017,0.05505291,-0.028806869,-0.020601045,0.028036773,0.068702795,0.029994637,-0.01614601,-0.03585972,-0.03614565,-0.04405085,-0.017438143,-0.017564496,-0.03653036,-0.027106754,-0.032061726,-0.029074913,0.01263427,0.0009777546,-0.029422078,0.05490987,-0.025754407,0.018232506,-0.034048468,-0.0010612744,-0.010714492,-0.051219948,-0.048540168,-0.027661426,0.021988358,-0.024778288,0.0004398682,0.009232288,0.061287936,0.021503981,0.0033775459,-0.02717274,0.02742856,-0.03495223,-0.038636494,-0.05487147,-0.0009723996,0.0116067855,0.055002455,0.07179602,0.016721468,-0.05725911,0.04225619,-0.022575956,0.062367402,-0.0145305265,-0.009147044,-0.040449303,0.029037341,0.009347688,-0.0037784672,-0.019950364,0.04566044,0.048434593,-0.024654921,0.043707367,0.03872236,0.03197349,0.035334487,0.034099642,-0.04875458,0.0138732325,-0.0413268,0.00562511,-0.040176816,-0.03561834,-0.019773625,-0.028103929,0.016737545,-0.038671974,-0.02907389,-0.029479176,0.053253427,-0.013511885,0.065006,-0.049182914,-0.055774897,-0.022865586,-0.05007016,-0.048984,0.015089609,-0.007889769,-0.029666856,0.009574104,0.03404894,-0.0017076291,-0.012719637,-0.04298845,-0.03976851,-0.053004272,-0.039440915,0.0004484511,0.06699399,-0.041653614,0.056585755,-0.054335605,0.021738196,0.040936787,-0.04203764,0.0555141,-0.033900723,0.016149765,0.03991511,0.0012135208,0.027177408,-0.0005109048,-0.04122381,-0.04458893,0.04188601,0.037088394,0.013312774,-0.011649813,0.06837293,0.061400138,-0.028102122,-0.062718004,-0.011331607,-0.010872634,0.019314535,-0.042157125,0.052381877,0.031461798,-0.025019806,-0.045020472,0.047899324,0.0029800683,0.06415152,0.028153986,-0.011604936,-0.06315403,0.06889498,0.053767294,-0.007267382,0.047890496,0.03567534,0.015913501,-0.039072484,-0.059348106,0.020521887,0.014427531,-0.040865168,0.013639244,-0.027656283,0.05891326,-0.0043671518,-0.022717183,0.048209835,0.03848259,0.06142155,0.006529844,0.04465273,-0.034584694,-0.010898419,-0.023884054,-0.03880754,-0.040684257,0.011526283,0.05798445,-0.054891918,-0.045592688,-0.030067626,0.046618957,-0.037974417,-0.042437352,0.04255677,-0.00785664,0.013305433,-0.05183059,-0.028677419,-0.04813745,-0.017147267,-0.0031769443,0.03880047,0.023984334,-0.01806758,0.03523349,0.045804933,-0.032705393,-0.008073591,-0.0009191344,-0.025818394,-0.011340786,0.027533285,0.04527992,0.03122637,0.007897623,0.020156078,0.024095057,-0.02596825,0.008591382,0.036882967,0.042681158,-0.02765024,0.032374896,0.021524513,0.00658568,0.023477461,0.039017916,-0.035889603,-0.037977673,-0.0053468123,-0.036306024,-0.022997389,0.0054222434,-0.058542922,-0.035661425,0.02101844,0.002199632,0.0279782,0.053923335,0.00019519537,0.026141278,0.015500138,0.001087762,0.023701765,0.04662455,-0.044211425,0.05109336,-0.06261334,0.030391531,0.028652227,-0.0060376497,-0.025157852,-0.021502618,-0.013824462,-0.009855512,-0.030301124,-0.05975509,-0.03870377,0.021244317,0.0031893917,-0.048772287,-0.018821277,0.027793601,0.061542466,0.046998084,0.024989411,0.03161049,0.023539545,0.057001747,-0.0077778944,-0.0442893,0.019764028,-0.04554668,-0.047570147,0.048437223,0.0035147863,-0.022428365,0.044052824,-0.037029326,-0.011122822,0.05080077,0.041931614,-0.0075358246,0.0015251825,-0.06255719,0.038604494,-0.0525712,0.04684331,-0.008306336,0.04913081,-0.03921524,-0.0579634,-0.010894384,-0.04724469,-0.01094782,0.03423564,0.019808218,-0.059760872,0.057915553,-0.01691172,-0.0603487,0.027437005,0.024205113,0.020809215,-0.030118164,0.014265317,-0.040226143,-0.028037801,0.03622771,0.04852122,-0.02078208,-0.036673944,-0.017411023,-0.04381525,0.022213517,-0.018000228,-0.04973916,0.060880713,0.014642386,0.04412763,0.004999499,-0.021156624,0.038606156,-0.030194078,0.040720735,0.044465046,-0.043159556,0.021665525,-0.0473142,-0.04354763,0.03686335,0.02144698,-0.05121559,0.010738652,-0.016574025,-0.02960674,0.011880763,-0.004824264,-0.05586184,0.029674197,-0.038607188,-0.0012170095,-0.021906797,0.0043850415,-0.018685339,0.059690878,0.05601272,-0.030800732,-0.0060941586,-0.05724703,-0.008184964,0.015802357,-0.0533212,0.0006196897,0.043246347,0.03408721,0.044488233,-0.058674548,0.035416268,-0.04181318,0.060412727,0.0074439393,-0.053277593,0.04219907,-0.053132102,0.03321857,0.024309242,-0.008547526,0.009871146,-0.053570263,0.024803022,-0.024653392,-0.03258537,-0.052738298,0.029176727,-0.05627425,-0.007275877,0.0033205491,-0.01577166,-0.004260489,-0.0021413942,0.0059838863,-0.046204634,-0.009445258,-0.02675271,0.009324121,0.0012003914,-0.05204281,0.025207967,-0.023005925,0.0538002,0.04236012,-0.020750228,0.00093966466,-0.031798664,0.048557952,-0.041481286,-0.03216078,-0.010788159,0.0062028673,0.033834774,-0.012515277,0.018562613,-0.04481047,0.0040825987,-0.014122428,-0.007059058,-0.02961798,0.038025975,-0.060661335,0.05834198,0.036094103,-0.0128642665,-0.04316012,0.03430912,0.030637685,-0.04564494,0.004462428,0.047415104,-0.0054576825,-0.035243124,-0.05205626,-0.02254463,0.018655578,-0.04555212,-0.0026134565,0.012141708,0.0073554255,-0.04505813,0.05934771,-0.03692037,0.05251865,-0.052766204,0.057959244,-0.0546873,-0.03987877,0.05601482,0.041654117,0.04468414,0.018079493,0.03860178,-0.047832638,-0.055406034,-0.049844816,0.0047548134,0.04629247,-0.020843208,-0.038144022,0.043632604,0.018200418,-0.02017283,-0.014795385,0.018583491,-0.051450405,0.006197145,0.028249778,0.03715056,-0.024698313,0.04439927,-0.059545636,0.05611883,-0.044075407,0.03817865,-0.06123261,0.04301551,0.036071964,-0.008596464,0.04328721,-0.028310651,-0.04000806,0.058830626,0.02688859,0.060075857,-0.0576575,0.021365095,0.0050721522,-0.00751899,-0.020017155,-0.041385315,0.024469318,0.05034528,-0.0028410456,-0.021145612,-0.029465567,0.061731126,0.01708277,0.045290843,0.034868203,-0.054967843,0.021105513,0.026877679,-0.054145433,-0.042379975,-0.00783806,-0.03599756,-0.008078322,0.055170216,0.00958726,-0.000834069,0.053379223,-0.059802458,-0.02305219,-0.03008746,-0.057227932,-0.017646719,0.009089822,0.048651613,-0.013616055,-0.05145812,-0.044626676,0.06028048,-0.011554334,-0.03959931,-0.018266853,-0.02584153,0.04524175,-0.05923774,0.05125816,-0.00526835,-0.02265054,0.02697041,0.051221594,-0.050143376,-0.04504319,-0.047906846,0.04994672,-0.03676892,-0.00598786,-0.024569381,-0.010778092,-0.06139589,-0.056463413,-0.001552533,-0.008537927,-0.03205057,0.0035676577,0.044590876,0.0043128068,0.061515488,-0.03919065,-0.056289766,-0.03996719,-0.026093004,-0.029397413,0.023271115,0.0020778454,-0.023185488,-0.014096012,0.018184263,0.032598056,0.015753798,0.029949639,0.052426293,-0.003933615,-0.008552337,-0.042077675,0.054115638,0.02698521,0.039574742,-0.050146405,-0.016760686,0.037586775,0.041578956,0.041927997,0.0032898788,-0.05232871,-0.004044691,0.01995564,-0.009084977,-0.044342756,-0.01739695,-0.028655348,0.053568162,-0.061257243,-0.032852907,0.028455678,-0.048836775,-0.014765346,-0.026252082,0.019100685,0.054253574,-0.023318075,-0.053528327,-0.007948988,-0.04880358,0.048816882,-0.003157732,-0.029255606,0.038036592,-0.024271443,-0.01304391,-0.0038533125,0.045065477,-0.05432993,0.05023197,-0.024043217,0.03661838,-0.06126713,0.031873338,-0.06227669,-0.0078082224,-0.042227037,0.040252697,-0.0505739,0.021390319,0.057199836,0.015274517,0.03192285,0.04803755,-0.032176256,-0.043075733,-0.062098183,-0.010408316,0.014680447,0.007188454,-0.051183634,0.032401357,0.016871165,-0.046366744,0.0546168,-0.010185961,-0.035607398,-0.023592876,-0.002468062,0.047249995,0.031470932,-0.029277194,-0.03172446,0.045016557,0.032893077,0.013467524,0.05798249,-0.04146547,-0.015946832,0.039882466,-0.03158331,0.021398831,-0.04085453,-0.04307074,-0.052502163,-0.03254517,0.03443727,0.002851601,-0.03538949,-0.003778062,0.0043260623,-0.016973607,0.004033591,-0.029814355,-0.05258971,0.012137458,0.036353305,-0.020282645,-0.04606171,-0.056167383,-0.05979736,-0.046620097,0.049157284,0.0065264227,0.031061001,0.020171158,0.05305916,0.026169678,-0.016271815,-0.018388242,-0.05150202,0.01279605,-0.0011227352,-0.0510716,0.04522504,0.06240875,0.036776386,0.014596121,0.017529938,0.02928676,0.019225342,-0.014663314,0.020265741,0.006801379,-0.032657504,0.06655085,-0.052191976,-0.023156853,-0.030826516,0.05650126,-0.019890597,0.013592647,-0.009811854,0.015553535,-0.021542937,0.02766157,-0.05190272,-0.03395205,-0.057620473,0.037599668,0.052114863,-0.021653913,0.05849906,-0.03836388,0.036606796,-0.057092033,0.025311802,-0.028295957,-0.034449413,-0.01619827,0.019286003,-0.056225475,0.031933308,-0.029082194,0.0026347633,0.0022183943,-0.008836684,-0.050607484,-0.058211803,-0.009156885,0.056692548,0.03686676,0.035163205,-0.034173083,-0.019425258,-0.015972191,0.034845844,-0.009353198,0.0019114867,-0.024599876,-0.009798011,-0.026330847,0.034051027,0.0023416672,-0.059091713,0.0251172,-0.04037243,-0.03472718,-0.029784065,0.016924344,0.011173572,0.053182848,0.04760035,-0.04056625,0.044252083,0.0655978,0.033363495,0.016370239,0.051289774,-0.019543279,0.06666544,-0.0017174655,-0.026749387,-0.037142627,-0.01972297,0.055162996,-0.046169072,0.03488724,-0.04477489,-0.026417866,0.019028045,-0.0011699973,-0.01897218,0.05201503,0.027627042,0.02534074,-0.016475486,0.05192361,0.020003527,-0.0086415,0.0630914,0.053129293,-0.053350843,-0.0281712,-0.024630375,-0.0022804132,-0.047255356,-0.0074365037,-0.03385773,0.017563194,-0.063306995,-0.04200944,-0.0376867,-0.038821638,-0.037195764,-0.009581193,-0.04181533,-0.048348136,-0.025069827,-0.047688965,-0.007383831,-0.0316927,0.037177183,0.0086576855,0.026258253,-0.0008246248,0.008782251,0.04486059,0.040299833,-0.045097195,0.017330013,-0.05367303,-0.043930452,0.035020642,-0.03340648,-0.03860307,-0.027262125,0.042576354,0.0070175705,-0.026494067,-0.06076993,-0.032956026,0.062089134,0.010047249,-0.03122445,-0.034995414,0.01035431,-0.017493965,-0.026718669,0.011902137,0.046590343,0.07088971,-0.0023280536,-0.048451632,-0.06049502,-0.044905003,0.05672227,-0.023602087,0.056497864,0.048607077,-0.00916896,-0.05113549,0.05581282,0.036948293,-0.0040354053,0.019041345,0.011650179,0.056828164,-0.04186137,-0.030991443,0.030087937,-0.055727236,-0.04286415,-0.022260483,0.04869488,0.016443338,-0.03352259,-0.052149847,0.01726592,0.018543063,-0.056130864,-0.046478733,-0.03671489,0.045760207,-0.00779166,-0.0168465,0.051669754,-0.0066793803,0.016955405,0.04838447,0.0064366926,-0.00030798302,0.04016396,0.032249093,0.006012449,-0.041039184,0.05633614,0.049813,0.057710156,0.012427025,0.04089667,0.030904397,0.065743096,0.05215712,0.01589179,0.06286035,-0.04571206,-0.008319885,-0.03442212,0.005850315,0.059940472,0.03196787,0.012574319,-0.029089443,-0.042519238,-0.032529213,0.017840847,-0.005294744,0.0038918476,-0.05473107,-0.0256628,0.04326993,-0.053274713,0.039965913,0.051880352,-0.03639541,0.040887676,-0.001957067,0.038526434,0.008801855,-0.033596594,0.049157068,-0.009680876,-0.025736224,-0.010796841,0.024964776,0.03240163,0.065700404,-0.041137822,-0.0009720345,0.06022899,0.006358514,-0.01938007,0.04993265,0.05914756,-0.048785362,-0.057806503,-0.036889937,0.028211392,-0.041568883,0.04275503,-0.051844098,0.064387,-0.053027816,0.062448755,-0.03651324,0.013471736,-0.030535493,-0.05340346,-0.056098692,0.012892915,0.0020740365,0.011990372,0.0036831726,0.034556758,0.054613084,-0.029948972,0.024217777,0.03277246,0.02116574,-0.05379965,-0.055030294,-0.053860836,0.049342573,0.05510685,0.00092320924,0.011966627,0.0025403118,0.031285536,-0.05711533,-0.021358997,-0.06355311,0.0583521,0.043786637,0.035879575,0.04291182,0.061546337,-0.05036044,-0.022509038,0.010530784,0.0049007386,0.01801645,0.02135748,-0.038842365,0.033907212,0.05602608,0.017709203,0.012840306,-0.022432271,-0.057202417,-0.025073603,0.05085533,-0.050247535,0.032504253,-0.0007374324,-0.00997898,0.038838245,0.029143922,0.041412704,0.00934572,0.03100358,-0.03726833,-0.020455323,0.039630182,0.009158117,-0.04893218,0.009532062,0.033895865,0.06695495,-0.000919962,0.0009849512,0.054154694,0.029936444,-0.01343976,-0.054486953,-0.035332445,0.023424901,-0.036156327,-0.058614783,-0.054698825,0.024285968,0.025159372,0.037531495,0.055290855,0.053684957,-0.049565352,-0.036930755,-0.0087024085,0.06276426,0.029038936,0.002638801,-0.02935756,0.0118072275,-0.044667386,-0.015852233,0.03646743,0.031481244,0.037177317,-0.0495302,-0.035167363,-0.0066284947,-0.034609653,0.0394969,0.0018466988,-0.034174267,-0.060675003,0.054364316,0.025493208,-0.052332,0.054795634,-0.014103117,-0.015166933,0.057237685,-0.0054814294,0.0010615895,0.044087622,-0.03183738,-0.007911585,0.002872898,0.026544556,0.043642387,0.0001362935,-0.026929226,0.05128566,0.026263833,0.012123734,0.046097368,0.031796277,-0.0027320548,0.054087237,0.06333878,-0.015339181,-0.022614425,0.036618434,0.030608978,0.008405382,-0.007505054,0.011183231,-0.054525636,-0.020552345,-0.02323483,0.051280573,-0.033687577,0.034656063,0.041837867,0.013625592,0.009422976,0.045880377,-0.051184103,0.036613762,-0.049397863,0.04423464,-0.06291867,-0.019956063,0.014238419,-0.030789934,-0.022364048,-0.052254267,-0.057130247,-0.05075744,0.0365151,0.004867494,-0.01393017,-0.002286596,-0.0037818565,-0.04984133,-0.04798376,-0.0105384,-0.036028583,0.0471184,0.019547092,-0.025986254,0.014225781,0.054291815,-0.027590983,-0.025276799,-0.034977935,0.027505036,0.057955444,0.060676,0.02145927,-0.02770284,0.011214454,0.014920038,0.03605929,0.031317957,0.010656765,0.01221168,-0.0023801646,-0.034561597,-0.0058162566,-0.027669337,-0.048124637,-0.05493668,0.052458804,-0.022246163,0.029755242,-0.027501393,-0.015487634,-0.027265191,-0.053820774,-0.022884931,0.03596521,-0.003195297,-0.037643205,0.009223483,-0.05527182,0.013822412,-0.054624274,0.05513468,0.027478639,0.011965683,-0.057462223,-0.03624284,0.008694617,-0.013759448,0.030512173,0.011348259,0.019656725,0.025527902,-0.053360682,0.005164029,0.04356771,-0.00675043,0.011355139,-0.021675378,0.015725315,-0.06381233,-0.02501997,0.022025008,0.014548572,-0.00016623375,-0.050149895,0.03274927,0.012119553,0.0042075496,0.038270183,0.0019147841,0.015535537,-0.05130069,0.029066544,-0.015518224,-0.042846326,-0.0497336,-0.03905495,0.055620722,-0.025697935,0.021427218,-0.053575076,-0.06213975,0.002912428,0.013054567,0.0034841583,-0.038164094,-0.04149936,0.0012032406,-0.013334652,0.04232239,0.01749523,-0.06541858,-0.046387117,0.03691929,0.055538543,0.0034575032,0.0040285303,-0.050428405,-0.04078269,0.0019104223,0.0037695372,-0.00641846,0.034900524,-0.006764994,0.026346844,0.00368436,-0.05162982,-0.037906326,0.045253582,0.013837742,0.041358974,0.055280726,0.0437845,0.027501449,0.042685527,-0.053962562,0.0029252633,0.017224997,-0.05583316,-0.000795583,-0.035119005,0.051365126,0.053308286,-0.020522904,0.0037018438,-0.0035186943,-0.011403145,0.0024210017,0.037042897,0.033166446,-0.046283565,-0.041391663,-0.019342586,-0.04904918,-0.028066188,-0.04850166,0.04217441,0.052674465,0.0074171587,-0.029534154,0.023676883,-0.0076251086,-0.012381643,0.03057082,-0.009157075,-0.051346917,-0.0054920204,0.037676826,0.0634633,0.05174246,-0.0089284135,0.06275543,0.061887126,0.039445866,0.02999913,0.030929465,-0.013064128,0.053302653,0.007570694,0.03968209,0.030946685,0.06282976,-0.014013459,-0.006170042,0.054171078,-0.06086876,0.022354878,-0.015893696,0.059252586,-0.06442581,-0.018935204,0.03362972,-0.06353162,-0.04701941,0.018856153,0.0135436095,-0.01929123,-0.050499268,-0.003327215,-0.0065092864,0.027285658,0.012915727,-0.006121922,0.05976201,-0.05969864,0.02261367,0.011721847,-0.013999088,-0.002189303,0.060707368,-0.005471212,0.017946843,0.04352072,-0.031314686,-0.020147495,0.037551686,0.021624029,0.023585487,0.028051907,-0.039246053,0.039760426,0.049247093,-0.03551247,-0.012187424,0.024592556,-0.036260754,0.053523697,0.012883676,-0.0411345,0.007090913,-0.03297396,0.0697455,0.04567291,-0.018373966,0.026035422,0.05502058,-0.022794735,-0.046294734,0.018845484,-0.00025949697,-0.039175592,0.031848185,-0.03122558,0.03134084,0.043681413,0.05535288,-0.050549097,-0.04811912,0.053785,0.023803879,-0.009109486,0.055654995,-0.0030446516,-0.041050564,-0.01802734,0.057716697,-0.040020585,-0.03403808,0.04858326,0.047542356,0.04576564,-0.022066776,0.041487288,-0.027196063,0.05924756,-0.02277258,-0.016794119,-0.0396351,-0.029733565,-0.01618538,-0.022635587,0.05427239,0.011785161,-0.042180687,0.051741958,0.058810934,-0.050197124,-0.042886548,-0.053066798,-0.01694421,-0.056169078,0.00039490074,0.008813757,0.017148685,0.052618794,-0.025642514,-0.04815759,-0.06280625,0.031346753,-0.01310186,-0.052858964,-0.0413807,0.04223866,-0.06362692,0.01417753,-0.002269763,-0.05544065,-0.041891422,0.05921089,-0.015393828,0.047841422,-0.042959843,0.05734651,0.0036671069,-0.045978185,-0.032960966,-0.03620158,0.014743403,0.0480651,0.022946332,0.0366437,0.056147337,0.0076667704,0.037258573,-0.001149559,0.026156755,-0.023645082,-0.025315003,0.016074069,-0.05039504,0.053178288,-0.026355539,0.056330025,0.042502806,-0.047708236,-0.05352822,0.012900919,-0.02026454,-0.013097336,0.04882319,0.040247634,-0.043950446,0.044606194,-0.0019649647,0.009387331,-0.008337704,-0.002204794,-0.034307532,0.03780148,-0.063265175,0.03616742,-0.019204466,-0.037357323,-0.04615508,0.03334187,0.026419308,-0.015314445,0.008071149,-0.020062234,-0.018899977,-0.0005432187,0.048033543,0.006344905,-0.061084095,0.059673116,-0.0190885,0.01352547,0.014515714,0.035042673,-0.022200378,0.005436657,0.047185935,-0.03601837,-0.044390023,-0.02405871,-0.015366618,0.022653349,-0.03362614,0.04319627,0.037864298,-0.02476905,-0.024286306,0.05299954,-0.012167685,0.039579533,-0.06440258,0.056561552,0.0017775486,-0.018641554,-0.022478271,-0.05642675,-0.022154868,-0.02961056,-0.025235018,0.030201942,-0.0021843126,0.0388524,0.0129433535,-0.004680157,-0.05715295,-0.06337866,0.06280351,-0.055766366,-0.014246406,0.049094856,0.033139143,-0.047111057,-0.037978992,-0.0088408105,-0.0047058715,-0.008191332,-0.015558291,0.04556604,-0.010688908,-0.015322015,0.008843092,0.03210865,0.019680005,0.06575517,-0.02651002,0.05814971,0.038264252,0.048424065,-0.054371413,-0.022487447,0.011476763,8.165203e-05,0.039660476,0.059770033,-0.03482142,0.017296746,0.01889195,-0.04635131,-0.05735323,-0.015524769,0.03876777,-0.0046504224,-0.053835526,0.010825897,-0.011704026,0.025663767,-0.017034763,0.040616192,-0.027907323,-0.06669299,0.011684117,0.042956986,0.008342736,-0.041541647,0.031668782,-0.059058614,0.017015023,0.023951069,-0.03328584,-0.0119023835,0.019039579,0.002710573,-0.03531969,-0.01965415,0.008784933,-0.00386792,-0.014004912,-0.011203485,0.0364905,-0.0030061645,0.0063840654,-0.019434908,-0.012930287,-0.04416572,-0.016064648,-0.03154804,-0.0069211787,0.05512671,0.03548447,-0.05777559,-0.0163235,-0.033646725,0.06121838,-0.030278381,-0.0137433605,0.04932414,-0.04672849,0.046246596,-0.02554375,-0.036103465,-0.043285683,0.045579776,0.00053634576,-0.01703797,0.048378527,-0.006087674,0.001899593,-0.0076714624,-0.010237135,-0.034315668,0.052324183,-0.052942477,0.019643623,-0.0322001,0.053193044,0.049784772,0.05197508,0.028359046,0.009034623,0.032913446,-0.02399148,0.047294453,-0.025797773,0.013305342,-0.052611172,-0.010502173,-0.045045048,-0.052028142,-0.038675226,-0.06950084,0.052485712,-0.06334018,-0.048278943,-0.035157375,0.00368123,-0.05784317,0.010170873,0.055732056,-0.034010686,0.0010073956,0.061421745,-0.0322913,0.030084612,-0.0115555385,0.006068318,0.014380031,0.012342349,0.03015403,0.049199488,-0.02087153,-0.021912962,-0.009343283,-0.017797844,-0.040648393,-0.067497484,0.011188285,0.0590503,-0.033157483,0.03474859,-0.061157055,0.058455378,-0.043997124,0.046950188,0.03576217,-0.03471817,-0.013841843,-0.01783167,0.0055174367,0.033539757,0.009444199,-0.04279985,0.0005179235,-0.01933481,0.06494185,0.05229242,-0.054343216,-0.0250884,-0.042404577,0.0313271,-0.06168428,0.0075097,0.04362829,0.050256915,-0.052903842,0.014455244,-0.035380196,0.032171536,0.0030782693,0.038080066,-0.024197433,0.016044948,0.01182341,0.06561349,0.0336707,-0.0075144833,-0.007801731,0.0066113807,-0.03360769,0.024944052,-0.029798403,-0.029764917,0.024212435,0.040276263,-0.03937933,0.032170385,0.06940566,-0.007908538,0.015274392,0.056775257,0.047244072,0.057660647,0.0040636268,-0.05036606,0.006850709,-0.023414955,0.04398682,0.055776164,0.0654819,0.05612275,-0.03891944,-0.010155313,0.05179935,0.055965997,0.05519914,-0.04397068,-0.050646894,-0.029803205,-0.041117683,-0.04194715,-0.062407542,-0.029926863,-0.0312959,-0.026187677,0.061846584,0.05489102,0.03243874,-0.018744523,0.050085817,-0.021151531,-0.018576618,-0.012634767,-0.029645834,-0.03035513,0.051066056,0.022373457,-0.02320034,-0.0386145,0.04520902,-0.045959387,-0.017155852,-0.050082207,0.0047072996,0.058861956,0.016473897,0.051128294,-0.0039743343,0.044889513,0.037282012,0.01021748,-0.024139147,0.0032923294,-0.009558551,-0.042982362,0.005044734,0.022673778,-0.04331565,-0.018710848,-0.02854276,0.047017504,-0.0053535714,0.024761831,0.023613282,-0.056717888,-0.0319656,-0.013728442,0.05247752,0.022938699,0.044253517,0.028673701,-0.0043577626,0.06082689,0.057269774,0.00401109,0.038185716,0.03896882,-0.031885177,-0.04822111,0.04624587,-0.03654293,-0.058111876,0.004180976,0.039974518,0.056874946,0.018411478,0.066656485,0.04433153,0.060541794,-0.0055947807,-0.010177383,0.006238049,-0.0103327,0.06464413,-0.05228795,0.036476467,0.03644648,0.010691512,-0.06313377,-0.021382317,-0.015406305,-0.008517868,0.015009591,-0.019962557,0.017156629,-0.008120627,0.009762671,-0.0068129166,-0.012219086,0.039380647,0.0134909395,0.02992887,-0.017510831,-0.05788032,0.014462657,-0.0431135,-0.0052321116,-0.015425727,-0.0121865645,-0.04569684,0.030368589,-0.03079528,0.017056223,-0.020832032,-0.0023782284,-0.060852386,0.06288107,0.021309456,-0.031341687,-0.030540284,-0.039204925,-0.023577087,-0.023817644,0.0098679345,0.069946095,0.061959922,-0.030471943,0.006243924,0.035919122,-0.0062127197,0.023125928,0.026534095,-0.021556627,0.056820042,-0.0041488735,-0.058222372,-0.04414597,0.058966227,0.06695028,-0.060157172,-0.027451556,0.04207982,0.05809542,-0.009343169,-0.019444194,0.0067157224,-0.042673506,-0.035256222,0.03864733,0.021055162,0.019571958,-0.058643326,0.040259052,-0.037342273,0.06803721,0.0312734,0.030771134,0.04785545,-0.0017428212,-0.043721545,-0.026685782,0.009591697,0.024933973,-0.007111282,-0.020233499,-0.043777928,-0.059303846,0.028655462,0.061514676,0.02545713,0.05855964,-0.034016512,0.047613192,0.0527602,-0.025935512,-0.05110691,0.038356364,-0.05720792,-0.055058032,0.04350706,-0.011958517,-0.046375263,-0.042475924,-0.060319167,0.015938412,-0.01625,-0.01947634,0.032554798,-0.004274218,-0.06199564,-0.04494699,-0.023960166,0.044434324,0.04761892,0.050380673,-0.011193749,-0.020234302,0.02241056,0.0342768,-0.03634356,-0.032762088,-0.011804793,0.026763208,0.018109038,-0.008739606,0.03500028,-0.025840435,0.0077734888,-0.041891944,0.026357988,0.044744693,-0.038493834,0.054302275,-0.027160143,0.056614555,0.028193535,-0.063988045,-0.020920763,0.034281522,0.015373197,-0.052904442,-0.00667792,0.037793152,0.04100816,0.063896924,0.051278938,-0.037329033,0.007394487,-0.0046640686,0.027124396,0.011323281,-0.027193796,-0.046416707,0.013119157,0.04009866,0.021510847,-0.02733174,-0.045288227,-0.05837571,-0.037148375,0.0026200092,0.010080963,-0.05571556,-0.06429869,-0.061250247,-0.020000145,0.04339793,-0.042690404,0.003489289,0.06452502,0.0018256195,0.0018963134,0.06725204,0.06543273,0.05444426,-0.011023397,-0.06753075,0.015615039,-0.045421965,0.046313494,0.014252355,-0.03534449,0.021208458,0.05695189,0.0010160432,0.062464334,-0.02738263,-0.026180036,-0.034640796,0.05166015,-0.02935484,-0.011870061,-0.0072608897,-0.06129685,0.018486602,0.031664565,0.05495313,0.062192585,0.039634455,-0.038897075,-0.029801663,-0.019920144,0.051128432,0.05851976,0.025459806,-0.05560002,0.06768295,0.05588759,0.024417784,-0.058752388,0.054199725,0.008506768,0.020805452,0.046572164,-0.06328395,0.034484327,0.00946188,-0.019873336,0.03596562,-0.0037858973,-0.061941158,0.012802435,-0.026237704,-0.030384462,-0.045886137,0.0009704967,-0.038152903,-0.0033645425,-0.039703533,-0.031404197,-0.04713292,-0.033761043,0.00054883724,0.05040344,0.06894322,0.035989463,0.04072654,-0.05086804,0.045953594,-0.033522286,0.015959606,-0.006009859,-0.022858892,0.0017117645,0.06682792,0.0053067566,-0.0119026955,0.03146608,0.060542356,-0.026709273,-0.040715083,-0.00079388113,0.043660156,0.008530576,-0.015865121,0.03489678,0.043190964,-0.05698926,-0.03871928,0.05461084,-0.022054058,-0.056681357,-0.026788874,0.0431095,0.016564183,0.04209567,0.0075288955,9.0269605e-05,0.007413621,-0.00082833855,-0.013024567,-0.0098255435,-0.04350974,-0.0058350293,0.0412957,0.036864765,0.054036327,0.06247869,-0.030837864,0.0102853235,-0.040748894,0.0026556011,-0.03498083,0.054011345,-0.0012256731,0.00518139,-0.008886844,0.040495165,0.05799788,0.04029712,0.0039699124,0.038128883,0.042566955,-0.02854224,-0.0291383,0.0011026505,0.0037042038,0.04329534,-0.007771837,0.037480727,-0.0375965,-0.03255421,-0.055867955,0.0068552215,0.04021783,0.0006267327,0.023964413,-0.0032337508,-0.06785928,-0.012126507,0.0050417986,-0.048546646,0.01908905,0.018795757,0.051067904,0.016303131,0.010186333,-0.039099906,-0.027316328,-0.052234374,-0.029121004,-0.04873766,0.061405547,-0.041991547,-0.04496398,-0.010389998,-0.03951008,-0.054084525,0.03930296,-0.0050802417,-0.014999688,-0.046080828,-0.037468582,0.046258323,0.0045634373,0.01047062,0.02366256,-0.04674546,0.016404174,0.008411262,-0.016030751,0.030673131,-0.024228439,0.05453913,-0.007531612,0.028959183,0.0034811266,0.05490262,-0.035922922,0.002849231,0.016936412,-0.04190763,0.02259417,-0.026643585,0.061929964,0.057587482,-0.021340162,0.0551669,-0.04278242,-0.0145288985,-0.05646424,-0.023144145,0.06873857,0.022845365,-0.025081921,0.03684187,0.051292807,0.04228831,-0.010075608,-0.041033044,0.022757329,-0.02436038,0.007568285,0.052608717,-0.028968427,0.016526686,-0.016538993,-0.05088996,-0.025577284,-0.010810604,0.064404845,0.05275797,-0.048559144,-0.017023103,0.014431806,0.040428847,-0.0170183,-0.06001339,-0.017602563,0.03914865,0.016338127,-0.03944769,0.046594948,-0.0038223653,0.021170571,-0.042573094,0.025111524,-0.025442457,0.025776196,0.004190377,0.06196566,-0.019141309,-0.059960943,0.055890463,0.03118361,0.013786951,0.0037683165,0.0064931894,0.034996055,0.01943618,0.021281904,0.022334378,-0.058865238,0.042028166,0.05221524,0.012130083,-0.013759002,0.03331832,-0.0036656898,-0.055308357,0.0077214623,-0.011640784,-0.01975609,0.041995183,-0.0080315545,0.055280827,0.041927032,0.00040443303,0.049511805,-0.023970585,0.00036249144,-0.02249213,0.051822677,0.056499638,-0.036090404,-0.061573308,-0.048432585,0.016616207,-0.00067821756,-0.022311274,-0.05953781,-0.0053924145,-0.032605357,-0.022881396,0.035598986,-0.054711737,-0.022127379,-0.011311442,-0.058088034,-0.02915968,0.01132472,-0.010770682,0.028292723,0.024772765,0.03578957,0.052304134,-0.02319599,-0.031129798,0.03142243,0.004892056,0.046974543,-0.04183326,0.02730425,0.0046537444,0.04536236,-0.021467611,0.06264381,0.07477723,-0.018553246,0.034591947,-0.05426987,-0.007884787,0.05997462,-0.053862266,-0.023424694,-0.03248989,-0.053247478,-0.009848235,0.040561803,-0.030430108,0.0520591,-0.018982183,-0.027527018,-0.002621044,0.062060714,0.0133009385,-0.056102827,-0.04693614,0.01926343,0.038512588,0.014967404,0.054414943,-0.00021141506,0.043600537,0.010169353,0.0021089758,0.0034254468,0.017201863,0.005044545,-0.03756301,-0.052708685,-0.00068914803,-0.006418973,-0.060057316,-0.018113356,0.03786409,0.049436234,0.053421363,-0.04140184,-0.035291277,-0.05502925,-0.056885973,-0.061046403,-0.05416413,-0.033667676,-0.0112774875,0.031211797,0.042950824,0.017439831,-0.029198453,0.030447397,0.05650439,-0.05679722,0.020010222,-0.023354188,-0.02399465,0.012158463,-0.00016050797,-0.014738999,-0.054238915,-0.033916213,0.05835533,-0.0044899387,-0.04210852,-0.0059596766,-0.044158727,-7.5693795e-05,-0.054358993,0.012582935,0.049213283,-0.009406109,0.033454724,0.041857764,0.0017809158,-0.02114154,0.0067753973,-0.014302492,-0.056819297,-0.0019084672,0.0608199,-0.007037731,-0.0037084306,0.0016411331,-0.053962044,0.008599048,-0.04192557,0.048536018,0.056134816,-0.0037493277,0.00666481,0.00523171,-0.034560747,0.054860957,0.055841252,0.029038284,0.03867989,-0.041115038,0.02480163,-0.040870458,0.007516927,-0.019634683,-0.062002167,-0.04218012,0.033939064,0.039854735,0.055675365,-0.051814888,0.05612632,0.012095166,-0.024990372,-0.057212807,0.042553272,-0.034709193,0.031363823,0.021643251,-0.040064923,0.046015836,0.061632477,-0.032852955,0.0055547133,-0.027862033,-0.03407965,-0.005376771,-0.0372402,-0.0399804,0.025070775,-0.05337937,0.034708362,-0.031633496,-0.027443726,0.031315677,-0.02887743,-0.032238446,0.017465293,-0.027946353,-0.015227763,-0.007087772,-0.05814582,-0.006149206,-0.021693248,-0.04094413,-0.044662558,0.003207106,0.02134867,-0.039693564,0.006832743,0.020239051,-0.0013487183,0.0056933854,0.06099893,7.8492114e-05,-0.009700399,-0.040431146,-0.028103719,-0.027371213,0.046825957,0.03537035,-0.033352833,0.0032151234,-0.046668515,0.05922413,0.00810555,-0.039783277,-0.031422734,0.014770104,0.054065958,-0.016843043,-0.048071243,0.05401461,0.005141141,-0.046361253,-0.04665254,0.022677876,0.005727662,0.03999567,0.0041957963,0.02079007,-0.02408186,0.026951708,-0.013855623,-0.0603986,-0.00091354153,0.05376573,0.0022668694,0.017473023,-0.059379585,-0.043663673,0.057777174,-0.023763992,-0.061033696,-0.0526603,-0.03291461,0.049249575,0.043142416,0.035979204,-0.011350531,-0.019489497,-0.042683408,-0.03255464,0.044876967,0.020230148,-0.03031181,0.055043865,0.034216747,0.01383744,-0.024280217,0.041501787,0.026934784,-0.062707886,-0.018189952,0.01383526,0.003952125,0.018054036,0.030440342,-0.02201197,-0.00025888585,-0.02857728,0.029852739,0.012801528,0.0042938823,-0.044389836,-0.05835682,0.030578367,-0.021667253,-0.02874887,-0.021340452,-0.048952162,0.062102802,0.0230784,0.060019903,0.004897139,0.007145671,-0.039631516,-0.04118697,0.0071474207,-0.0066242767,-0.004975588,0.060795978,0.026144635,-0.007942591,0.008102321,0.0040846886,0.053497337,-0.010456767,-0.015908316,0.019120634,0.05526253,-0.0005814915,-0.04762441,-0.04286528,-0.023810163,0.021986756,0.004806385,-0.023972038,0.005207693,-0.03651999,0.056188807,0.041933887,0.0038864368,0.024880193,-0.033792064,0.008534359,-0.0023468912,0.032529414,0.0013206829,-0.03688565,-0.01560565,0.054372676,0.03967333,-0.035045,0.045796532,0.032379106,-0.03507857,0.04881148,0.06868653,0.029420966,-0.010800691,-0.008635429,0.008194038,-0.04327857,0.010055592,-0.043322474,-0.025715765,-0.014630375,0.0015712581,0.009064471,0.015847072,0.024485748,0.039864175,-0.0017567233,0.03030552,-0.024761837,-0.011329982,0.02492331,-0.0394295,0.033426777,-0.034136508,-0.028770145,0.006049457,-0.018525738,-0.048469454,0.035899878,0.021343678,-0.06176722,0.011295022,0.019081576,-0.059975304,0.0026360638,0.010448225,-0.03546148,0.024248846,0.003681546,0.024131346,-0.007794192,-0.038968578,0.06300455,0.04990527,-0.016463049,-0.04691623,0.05717062,-0.05624921,0.0147044,-0.032118157,-0.05389975,-0.0049421336,0.057589006,0.041314222,-0.048825037,-0.042096432,0.015520295,-0.06037373,0.048485324,0.00771394,-0.058839813,-0.016139334,-0.012469631,0.019953573,0.025904696,0.058242537,-0.021440547,-0.020741377,-0.06384382,-0.018511321,-0.00041689575,0.027839834,-0.05179502,0.013162927,0.026068542,-0.046157524,0.01436153,0.03824893,-0.05068114,0.039843217,0.061038647,-0.04290542,0.059756555,-0.0022645802,0.057050087,0.057983328,-0.016905278,-0.0022314922,0.011746554,0.0062339264,0.056223467,0.028145984,0.007184242,-0.0044302177,0.058972187,-0.049737215,-0.042529996,-0.032286763,0.03563755,0.01925248,-0.011601482,-0.044556867,0.014946569,-0.015846793,0.050577167,0.057689533,-0.04752952,-0.051642388,-0.029170811,-0.021452159,0.055420384,0.008644771,-0.042659253,0.029354654,-0.051775176,-0.035196632,-0.023916863,-0.021884603,-0.029077955,-0.021482347,-0.0436721,0.0021349285,0.006191521,0.04900729,0.022576725,0.028594494,0.033402216,0.057301328,0.006318962,-0.00079122104,0.06689975,0.039274726,0.062231317,-0.04860291,-0.03858918,-0.026741374,-0.0147675155,-0.024746826,0.03423861,-0.04009922,-0.057116203,-0.030392509,-0.049381986,0.024247088,0.05867867,0.030579805,-0.035301074,-0.020373326,0.05862252,-0.004809981,0.01590794,0.0036488515,-0.024144623,0.03160247,0.04052069,0.0027548624,-0.046585426,0.02293913,-0.043503106,0.037249267,-0.00047673594,0.02236915,0.045425758,-0.03518895,0.009720286,0.05828128,0.047538243,0.024003632,0.035316095,0.062095046,-0.05470217,0.042621054,0.015481003,-0.019567601,0.038377002,-0.0071465923,-0.02854714,0.0011703387,0.04903422,-0.06525095,-0.05298145,-0.024081357,-0.031651042,0.016446173,-0.004088029,0.02424864,-0.04134276,0.058839004,-0.05632593,-0.044710405,-0.05516936,0.045293212,-0.059500486,-0.0043674344,0.062308617,-0.006915864,-0.033187274,0.026835267,0.03869366,-0.047720917,-0.058538362,0.033662617,0.015364131,-0.027368546,-0.03710986,-0.02283905,-0.042862583,0.04340189,0.0643923,0.024774576,0.012382915,-0.035583712,0.059342444,0.04238949,0.02468543,0.059763543,-0.0386592,-0.01889129,-0.04447143,-0.034784228,-0.026312806,-0.023956168,0.04038889,0.05687821,-0.05602175,-0.032711618,0.034547783,-0.011357585,-0.04671155,-0.035743654,-0.015341437,0.06139581,0.042584542,0.026587851,0.038566902,0.034234285,0.016798794,0.05750724,-0.050565638,-0.009133009,0.053329065,0.019121334,0.016164564,0.033689637,0.038286388,-0.034045465,-0.0056863874,0.044861205,-0.046385936,-0.017786756,-0.025625706,-0.030663706,-0.019063793,0.01576443,0.047447838,0.047889292,0.056996472,-0.06077975,0.010278374,-0.0053355843,0.027822897,0.06185723,0.04825511,0.026686385,0.050940156,-0.04842306,0.015792951,-0.0033811405,-0.010534026,-0.023657449,0.0073285103,-0.056875713,0.033255294,0.052711256,-0.04276097,-0.040863737,0.027255304,-0.0062195286,-0.062456675,0.031883016,-0.061424643,0.053378783,-0.049862005,0.009247251,0.053215876,-0.03639505,0.057793647,-0.038430244,0.013155259,-0.0594937,0.031133033,0.052689023,-0.04289759,-0.021792442,0.05758386,0.05556447,-0.02227763,0.010938197,0.008751266,-0.05928696,-0.03731604,-0.05990561,-0.03559257,-0.009944022,-0.026391126,0.034598425,-0.050985396,-0.052290365,0.055838145,-0.013352662,-0.04470037,-0.023428239,-0.0075314194,-0.04949858,0.05110366,-0.057328865,-0.009036429,0.032963224,0.045821086,-0.012046225,-0.00865256,0.05407019,-0.034944452,0.044398807,-0.0045117736,0.015907817,0.00027889013,0.0014119744,-0.0014025122,-0.032498293,0.008619249,-0.026191995,0.038645208,-0.023610242,0.02953498,-0.0074983314,-0.062086813,-0.04343021,-0.042532578,-0.025344074,-0.050649375,-0.005239919,-0.043904006,-0.006584391,0.03856439,-0.020031266,-0.00072945654,-0.03721068,-0.022925079,-0.017156333,-0.058646843,0.055269644,-0.012953587,0.027052991,0.056110755,-0.059997186,-0.05834979,0.0076610446,0.05293099,-0.025174953,-0.016153976,0.027366586,0.0088739395,0.041785218,0.054310597,-0.04928256,0.027109906,-0.055612005,0.044053495,0.014618419,0.0023673698,0.048820026,-0.04423035,-0.039373755,0.041351557,-0.02463369,0.03649073,-0.00735984,-0.0047117323,0.034833968,-0.031008229,-0.052109785,-0.03824456,0.034487754,0.058360517,0.028649345,-0.021812193,-0.057082392,0.0057526156,-0.032474823,0.061805025,-0.0010683313,-0.029490627,-0.061157443,0.029098794,-0.054661863,-0.038787372,-0.022344828,0.0092215985,0.04687067,0.050188854,-0.026033886,-0.033623442,-0.055978157,0.025297098,0.011033095,-0.059956893,0.0044706315,-0.055377208,-0.013741843,-0.04358325,-0.021597035,-0.041532315,0.002046831,-0.005894102,-0.061407648,0.02876465,-0.05225776,0.0058722943,0.03175372,-0.04972577,0.05562873,0.05717487,-0.0421772,0.036645643,0.057400793,0.031510226,0.046456277,0.052951857,0.00928586,-0.033069,0.039316922,0.026552059,-0.012305073,0.056072928,0.055888556,-0.0018811747,0.028956935,-0.018603168,0.04161018,-0.014686674,0.048105568,0.05459269,-0.059732206,0.028578147,0.046872646,-0.049377903,0.026217967,-0.0062657744,0.015429966,-0.0425217,0.059978187,-0.024209082,-0.04427912,-0.014945924,-0.030835427,0.0003752783,0.0077272654,0.0070811883,-0.058877923,-0.062231317,-0.030681476,0.038849637,-0.0017568395,-0.03936153,0.0059404,-0.047052383,-0.015479386,0.009691551,0.042632945,-0.01629071,-0.031899273,0.04389219,-0.027282558,-0.040032886,0.03465838,-0.0006984845,-0.054175876,-0.06226892,0.044459276,-0.052955143,-0.01597488,-0.031448394,0.007873543,-0.040028118,-0.023092367,-0.038140528,0.017613053,0.012148991,-0.04764974,0.055875137,0.042285345,-0.022761226,0.046197668,0.015322886,0.047763623,0.0033247918,-0.033999346,-0.027813815,0.03466156,-0.043333687,-0.029728368,0.03685758,-0.052228827,0.047995582,0.039514706,-0.010399753,0.043298908,0.012281401,-0.039099593,0.055062205,-0.010473058,0.024477985,-0.0037531,-0.048048094,0.025250925,-0.014090246,-0.01591155,0.041026194,-0.039034285,0.0021816643,-0.015910467,0.056360107,-0.011466736,-0.0156025905,-0.018504253,0.058581762,-0.046270303,-0.042086482,0.009556729,0.03423751,0.040281452,0.052423544,-0.016924856,-0.05070693,-0.013740044,0.001957067,-0.04437354,0.0032760443,0.015699584,0.0169053,0.044069096,0.0079870075,0.0050366092,-0.05591201,-0.0059251995,0.049825065,0.006618566,0.00094414345,-0.005758119,0.014783971,-0.025761012,0.015118122,-0.041127145,-0.020135146,-0.051295437,-0.060611002,0.028569177,-0.005154071,-0.05088518,-0.042343676,0.04484563,0.043320477,0.059992798,-0.007422777,-0.011110758,-0.037832856,-0.011691298,-0.02916251,0.053362414,-0.058179528,0.008133395,-0.043619737,0.023363896,0.025632456,-0.0051492443,-0.034323297,-0.027464915,0.047262922,-0.037249677,0.055547558,-0.023091203,-0.028614707,0.035277043,0.03158676,0.030209802,0.048032,-0.011517717,0.022813393,-0.04917503,0.021896737,0.042239327,-0.026108459,-0.05280002,0.046472542,-0.035893917,-0.052625053,-0.017088378,-0.054142356,-0.059302162,0.0054692496,0.05867216,-0.008574519,0.0385331,0.056503847,0.04570744,0.007334427,-0.039857462,0.013191757,-0.04505449,0.032721624,0.01036853,-0.0017772142,0.040357932,0.03735514,-0.0025817505,-0.051743627,0.006875555,-0.026858196,-0.01856475,-0.0398568,-0.06198533,-0.017756533,-0.03831926,-0.023989521,-0.05232086,-0.057044074,0.007586903,0.0495444,0.046454087,0.05347968,0.026388671,0.0070798304,0.011047143,-0.022520468,0.061742667,0.0042171753,0.016474769,0.060942553,0.024684496,0.021101087,0.015513581,-0.058194593,-0.0064991913,0.008526155,0.0018579352,0.008370023,-0.05795688,0.0072816373,0.050192334,-0.035890006,0.023896378,0.03295675,-0.01284533,0.04668812,-0.057070736,0.029290114,0.0115763545,-0.043082386,0.058993876,0.052166265,0.021500714,-0.033975706,0.05543603,0.00022544152,0.05553668,0.011433598,-0.05338017,-0.017346777,0.03510321,0.051202036,-0.05090241,-0.051444024,0.039870515,0.006119537,-0.011472476,-0.05762232,0.014922459,-0.04863138,-0.030736689,0.014030281,-0.037676312,0.03377021,0.023942579,0.012007433,-0.018107496,-0.061743602,0.04277269,-0.015070785,-0.028445698,0.03801465,0.056633595,-0.058427826,-0.018563382,-0.019081697,0.03903185,0.058296725,-0.044460557,-0.062895924,-0.04973028,-0.030273706,-0.060104016,-0.057803385,-0.045824744,0.017753448,-0.015406793,-0.022337731,0.027032899,0.0045177247,-0.056180388,-0.034862597,-0.031321537,0.003697367,0.008043719,-0.039313678,0.044579312,-0.010235028,0.05844169,0.00051320053,0.02461826,0.014418315,-0.046996064,0.0139625855,-0.044969212,0.009425473,0.054892823,0.046730645,0.027742794,-0.016896881,-0.027098607,0.025088664,-0.058797814,-0.0013073492,0.051033147,-0.022688624,-0.007815101,0.061785292,-0.043581612,-0.010280913,-0.02796045,0.05408991,-0.035943836,0.029829308,-0.05980705,-0.04858788,0.023285199,-0.009342584,-0.01761039,0.010898871,-0.013955083,0.047259405,0.040660866,0.032881934,0.017049361,0.030465938,-0.013448603,-0.049814753,0.003932848,0.005990866,0.011388019,0.03618211,-0.05841887,-0.05147811,-0.047005117,0.009197742,0.009410372,0.04066455,-0.017224606,-0.016126338,-0.047992013,0.034806244,0.01374308,-0.036966518,0.015007144,-0.046472736,0.044587836,-0.0152679905,-0.004970232,-0.015630826,0.0046314867,0.03381785,-0.0022955462,0.016602293,-0.050562285,0.022810139,-0.041433338,0.04107154,0.01155144,-0.014075568,-0.019219019,-0.06760384,-0.06834754,0.027143506,0.02294954,-0.055615455,-0.054135036,0.031821944,-0.0054870946,-0.053632222,0.03874231,-0.03709816,-0.037842166,-0.030506354,-0.005603114,0.024884462,0.057738274,0.05326926,-0.025483085,0.0064009307,0.0383609,0.037720613,-0.044297237,-0.03615837,-0.014211368,0.056263342,0.039581623,-0.051504128,-0.051193632,-0.015049305,-0.0062849456,-0.03829678,0.029353006,-0.05131948,0.05941575,-0.0146268075,-0.036797408,-0.06549837,0.025452519,0.060106613,-0.04350578,-0.007421189,0.024266649,-0.064126,-0.03203521,0.045335528,0.044984974,0.029183846,-0.01209277,-0.035740502,0.013838807,-0.036328003,0.016934259,-0.017713392,-0.0031353226,0.04507044,-0.052479718,-0.017151853,0.034757413,-0.038487308,-0.020827409,0.048257947,-0.025681892,0.015096631,-0.022741843,0.013366795,-0.00057721225,0.014661618,-0.015705347,-0.04450275,-0.054392245,0.05872412,0.0045327703,-0.06526549,0.020781089,-0.028673707,0.037373338,0.04365508,-0.05831472,-0.019777603,0.02915726,-0.02198553,-0.054345407,0.03001455,-0.0056202887,-0.024679754,0.03048939,0.04992997,-0.004654539,0.04275275,0.030508894,-0.029176053,-0.0015554323,-0.0035966258,-0.003836771,0.025507696,0.026128136,-0.02112192,0.040705286,-0.061667964,-0.0040408648,-0.019471267,-0.049783435,0.041551694,-0.036916733,0.011973517,-0.0269427,0.032511152,-0.0428058,0.0012123347,-0.019059394,0.05518318,-0.03222566,-0.024125166,-0.051544487,0.055061817,0.0066274162,-0.038962953,-0.027152285,0.05497834,0.011668591,-0.056379624,-0.026855692,-0.046045344,0.02423517,0.0546754,0.058025945,-0.006766404,0.05380179,0.006166997,-0.013868247,0.010946723,-0.009655712,0.0029933183,-0.060102653,-0.039729707,-0.014799285,0.0622812,0.05280923,-0.050875127,0.013341734,0.054697305,-0.014474712,0.043138467,-0.04506161,0.061274976,-0.022445448,-0.020143993,0.00038870197,0.034583054,-0.047524765,0.041225206,0.048754055,0.016246086,-0.055911727,-0.041194223,-0.03594941,0.0451833,0.013549894,-0.060446627,-0.005026143,0.053716883,-0.034596596,0.019881044,-0.046134338,-0.054331027,-0.02036817,0.04927044,0.04591555,-0.004935905,-0.031141993,-0.025167022,0.051074337,0.020894017,0.00044454588,-0.028029185,0.062166825,0.02049419,0.030981049,-0.04858525,0.02367602,-0.02923046,-0.06390073,0.05528189,0.007060053,-0.019020332,-0.03332068,0.038371544,0.035163105,0.00022432403,-0.05417335,-0.048685662,0.058578067,0.050073564,-0.03525561,0.013343486,-0.0040528225,0.050747067,-0.010202453,-0.05340718,-0.052629072,-0.041634478,-0.044764183,-0.017265327,-0.0046690544,-0.00050576054,0.011855625,-0.0044229096,-0.050434895,0.00897554,0.03646665,0.042283278,0.05150675,0.0136205945,0.0012317565,-0.058708303,-0.03175136,-0.0111972075,-0.05971752,0.038905524,0.0048347753,0.020784277,0.03821135,0.002950886,0.01590407,-0.064763784,0.0031445874,-0.044900272,-0.011746666,-0.03983798,0.049099877,0.010579895,0.029245067,0.047200054,0.020709366,0.06452349,-0.03523219,-0.01033516,0.03026881,-0.02868251,0.02011745,-0.056998484,0.03486006,-0.009298938,-0.05737846,0.0150040705,-0.05715423,-0.04670506,-0.04508561,0.03540922,-0.015830271,-0.05566497,-0.039905466,0.025589969,0.06639831,-0.046565704,0.03581596,0.018845271,0.05777966,0.0046198135,-0.035792515,0.0414398,-0.052141972,-0.037674196,-0.04199698,0.026823482,-0.041285343,0.032746494,-0.06484575,0.0050212145,0.058070526,-0.0021393807,0.01887618,-0.056877423,0.027974512,0.008329233,0.041178215,-0.022117246,0.039934017,-0.039498605,-0.0141140465,0.02228805,-0.04824184,0.00024220899,0.04823236,-0.01387809,0.045994133,-0.00843204,0.049878556,-0.059060372,0.047749937,0.03479317,-0.0529548,0.042793363,0.06293234,-0.055462774,0.045523435,-0.0015494453,0.0058511645,-0.035461433,0.066472895,-0.05252243,0.06784582,0.021945765,0.0072769905,-0.025155522,0.011335978,0.008173751,-0.03306076,0.044799924,-0.039826907,0.036109373,-0.05938057,0.009437181,-0.024451714,-0.037171915,-0.031014685,0.070811,-0.027401567,0.05763303,0.0008180936,-0.04290948,0.055684425,-0.0033551129,0.031433843,-0.021369576,0.020895293,0.041922636,-0.051664583,-0.007969731,-0.0034766225,0.055697188,-0.06032435,0.029705487,0.034594916,-0.015424391,-0.015983678,0.03676145,0.021218773,-0.01247355,0.06419108,0.0006930846,-0.030890625,0.07264715,-0.016784117,0.07293442,0.041873284,0.0072830496,0.0079166265,0.023007322,-0.016299702,0.009693826,0.020415828,-0.0011125373,0.01238448,0.01190751,0.043573607,-0.016757237,0.0347746,-0.016336087,-0.00039799465,0.023993693,0.0035792848,-0.021361444,0.03225919,-0.014755195,0.016707644,0.05668752,-0.009142529,0.05109282,0.030701747,-0.056773342,-0.016030103,0.029666083,0.0546183,-0.053375635,0.023416914,-0.009530295,-0.048769612,-0.046838902,-0.04307674,-0.033205792,0.0028528809,-0.026186012,-0.042019226,0.045525007,-0.059427723,0.0059621884,-0.053722184,0.037062846,-0.0028505088,0.034600392,-0.023394242,-0.056637816,0.051450647,0.010489456,0.034923777,0.010813795,-0.025275953,-0.061109338,-0.0048106844,0.029753238,0.050100274,-0.059289467,-0.02865912,0.008051872,-0.047093898,-0.026638802,0.066330254,0.03267692,0.030976737,-0.043797683,0.030485589,0.045694463,0.0013479808,0.061314415,0.047519132,0.018831663,0.048995502,-0.029359676,0.0031365552,-0.012858173,-0.012800291,0.027612358,-0.042734742,-0.031457134,-0.044121064,-0.054700844,-0.0067683775,0.014913982,0.00025933358,-0.03241948,0.017263178,-0.00054523256,-0.049788885,-0.035461575,0.0037145503,0.04787336,0.009265011,-0.022891968,-0.06259108,-0.006127284,0.03178149,-0.016471485,-0.026638161,-0.018927388,0.00658828,0.010020278,0.038596928,0.04751683,0.011248173,0.05538582,-0.031514846,-0.05022136,-0.067505546,0.041743405,-0.026921133,0.06232871,0.023601554,0.048194855,-0.0080973655,-0.03703893,0.007873212,0.005229519,0.00122217,-0.042870075,0.058560297,0.042502295,-0.02776419,-0.024030676,0.025034688,-0.02572053,-0.009857502,-0.020550827,0.03958938,-0.045290526,0.0668792,-0.02962231,-0.047555104,0.029719923,0.043185376,0.02879909,0.029754177,0.062615454,-0.03599869,-0.043628626,-0.05211526,0.009977343,-0.036329195,-0.014087806,0.06925567,-0.017093178,-0.06295322,0.01590481,-0.023922808,-0.03839059,0.034330048,0.0078094625,0.0076194126,0.017407106,0.058513656,-0.0286583,-8.05096e-06,0.0051484583,0.03155004,0.011917988,-0.01983102,-0.016208164,0.002005019,0.057333097,-0.06375037,-0.042401716,0.02690871,0.06855938,0.027696624,0.01653291,-0.038247123,-0.023188958,-0.017988214,-0.041549142,0.058747895,0.046809,0.039518848,0.0227388,-0.008352683,0.050138652,-0.03654851,0.031327844,-0.020727202,0.05209147,-0.005999422,-0.02604687,-0.03733412,0.05542873,-0.03259981,-0.05550888,0.042434815,-0.0305899,0.05211385,0.06013915,-0.043809477,-0.017830681,-0.04766658,0.056911305,-0.056284703,-0.045292467,0.036074094,0.030203298,-0.009101184,0.046057366,-0.0395559,0.050770395,0.034155637,-0.046659276,-0.024458703,-0.027197164,0.051787015,-0.023853369,0.022413384,0.004483074,-0.041729156,-0.015160605,0.028290518,-0.029154107,0.0031210873,0.011763129,-0.0013440957,0.0016857691,0.0518436,-0.0016292532,-0.04956338,-0.05140786,0.032322407,0.015894067,0.032436147,0.02349335,0.042176507,0.03654834,-0.043492757,-0.05972589,0.059969954,0.026821036,0.058749564,-0.026157035,-0.05134701,0.03196799,0.0133975465,-0.047538996,-0.026829667,-0.0059731677,-0.011747044,0.018145693,-0.01686041,0.017543726,-0.05816464,0.016807757,0.017732818,0.04911183,-0.008852258,0.029427469,0.008997485,-0.056781515,0.048980564,-0.006374811,-0.020472404,0.03793314,0.05478578,-0.059706904,-0.02909816,0.0065568206,0.031723253,-0.0540953,0.019040493,-0.043187745,0.003642355,-0.04009664,0.05453928,7.052636e-05,0.01978504,0.0067812135,0.007737481,-0.02478273,-0.034433305,0.044412024,-0.052056268,-0.011056969,0.003410018,0.018517593,-0.01915399,0.012719972,0.0030924594,-0.03687349,-0.047160782,-0.03704427,-0.05716373,0.054130837,-0.0075529674,-0.030800343,0.043456566,-0.041382156,-0.03696458,0.02155878,-0.044395864,0.04925949,-0.011503316,-0.01623744,-0.063302815,0.010479067,0.03771709,-0.011319151,-0.03378412,-0.042172793,-0.003801444,-0.018535845,0.008002859,-0.029811934,-0.046542697,0.05522612,-0.011137237,-0.05685199,0.018563421,-0.027680201,0.058415674,0.041595466,0.029289283,-0.06336671,-0.025635786,0.027153242,-0.06865447,-0.0009033834,0.032696046,0.021454293,0.020637218,0.012688619,0.006788166,-0.050852727,-0.008451823,-0.025973452,0.05572831,-0.0058474573,0.060065515,0.035100043,0.043191954,-0.03400202,0.05712901,-0.06334503,-0.026237508,-0.035189956,0.025502514,0.02540093,0.032602984,-0.004695797,0.05600768,0.019952035,0.0058309836,0.034284975,-0.020216811,-0.009981008,0.056538235,-0.02840802,0.05335803,0.04845909,0.008098435,-0.042631894,0.012956363,-0.018091325,-0.055493593,-0.010011958,-0.0037381076,0.033827953,-0.036749773,-0.008625949,-0.0011688014,-0.0029772255,-0.046645112,-0.026666712,0.036559887,0.03672489,0.048763808,-0.040684357,0.0042576883,0.01109957,-0.03307911,0.014098724,-0.05548399,0.0011384599,-0.008603124,0.041494597,-0.0099762995,-0.061099812,0.04106184,-0.051811844,-0.064790845,-0.010684659,0.0017954606,0.013045654,-0.05070432,-0.040732615,0.051603556,0.03743176,0.008970216,-0.055778287,0.03766577,-0.04156863,-0.060934745,-0.050895706,-0.0602429,0.015954956,0.033909053,0.0035075918,-0.010389954,-0.011762448,0.036297657,0.013214335,-0.04730758,-0.03683047,0.025589935,-0.02092243,0.0063970834,0.05434028,-0.019458897,0.050146237,-0.054295324,-0.0147823915,0.019208208,-0.045934595,-0.05665029,-0.05799944,-0.05457052,0.062167637,0.012122154,-0.049571224,-0.0022494942,0.051297463,0.059777774,0.031178556,0.0114175975,-0.017099082,0.030381143,-0.030482002,0.032973118,0.015772574,0.032168187,-0.0596236,0.018223315,0.013025418,-0.00019357353,0.00086037815,-0.0301641,0.060513593,-0.022466637,0.028631061,-0.032857783,0.055596575,-0.047689177,0.017370887,-0.0077557266,0.04933297,0.03992247,-0.04269641,-0.022410683,0.039064452,0.050726704,0.008833259,0.022036783,-0.0124145225,0.022189528,0.027139194,-0.05079305,0.016772307,0.029996023,-0.046650454,-0.0017059296,-0.059240296,-0.03641977,0.045770377,0.048289143,0.0015297905,0.0042406023,0.04432933,-0.05147151,-0.019595303,-0.035224684,-0.0065330565,0.00016424805,0.026158221,-0.027740233,0.020752504,0.011373967,-0.053323835,-0.048322782,0.04132493,0.015159145,-0.0508527,-0.028227784,-0.033066384,0.027609676,-0.021035656,-0.051653884,-0.029462062,-0.057719976,0.020274796,-0.0034869462,0.054431677,0.021372035,-0.04419265,0.03121519,-0.0180431,0.046161234,-0.0113033205,-0.009348728,-0.050492242,0.05805604,-0.059059255,0.0023709089,-0.00011013448,0.059905335,-0.04351324,-0.033455603,0.04198982,-0.007869892,-0.047115438,-0.027041018,-0.010417707,-0.03423716,-0.0039797574,0.038765438,-0.05800025,-0.011600919,-0.037126034,0.024519242,-0.05679547,-0.019975357,0.019222066,-0.042520106,-0.016827509,-0.008937329,-0.01413586,0.05165442,0.026951626,-0.0023087114,0.018671267,-0.057519026,-0.023731172,-0.03885746,-0.040342927,-0.060610637,0.014443576,-0.04281248,0.052679203,0.0395108,0.05029709,-0.027455539,0.04152769,-0.03856373,0.050270006,0.044513732,-0.041442968,-0.026825197,0.0027823597,-0.043715343,-0.008623585,0.016797364,-0.033720337,-0.010661684,0.009969488,-0.010824241,-0.007648848,-0.05310043,-0.046418503,-0.049407512,0.050540537,0.026521891,-0.030368552,-0.053443216,-0.05581683,0.017527439,0.051108547,-0.011072107,-0.06202905,-0.046100706,-0.005240202,-0.0040851533,-0.013715491,-0.008025847,-0.05618345,-0.041667618,0.0333867,0.0040620044,0.0448445,0.005748987,0.03203789,0.032802388,-0.03792523,0.020793758,0.05358787,-0.032242797,-0.018499173,0.049647093,-0.017285086,-0.030538857,0.052543193,0.055941798,-0.044870786,0.034095503,-0.05355127,-0.045782812,0.019754022,-0.016317733,0.022192813,-0.0355371,0.053655714,-0.024854466,-0.058467723,0.0041587725,-0.050144866,0.04044629,0.021214321,0.005013831,-0.049013563,-0.04343906,0.03321614,0.04747933,-0.03648845,0.03170488,0.030230045,-0.030421257,-0.034721583,0.023028597,-0.014209956,0.02854836,-0.0018821657,0.054446653,-0.011451282,-0.018446922,-0.002461046,0.058549374,-0.004677385,0.033257872,-0.03248217,0.03059411,0.059756428,-0.03151124,-0.017858692,-0.042824194,0.015048303,0.022003256,-0.028462179,0.04577729,0.06236513,-0.042156197,0.054283872,-0.042467214,-0.04664184,-0.009618625,-0.05129098,-0.028847583,0.028113239,-0.054291308,-0.0015858263,-0.049718626,0.0216875,0.031864278,-0.05544334,-0.01947882,0.052716494,-0.04120455,-0.0014432147,-0.059975795,-0.04504969,-0.045821294,-0.022079088,0.014514513,0.041332506,-0.034692384,0.03705462,-0.02224318,-0.048793085,0.016612612,0.047004044,-0.026555963,-0.014833979,0.0272602,-0.04390184,-0.060376562,0.057288975,-0.039232224,-0.012839258,0.02120252,0.013940014,-0.058732674,-0.04214561,0.013686873,0.05558014,-0.00971061,-5.45457e-05,-0.040467285,0.002208531,-0.0011952221,0.009945244,0.0090448335,0.036635734,-0.0134794265,0.021710739,-0.04888288,-0.047415443,-0.05628614,-0.04696414,0.01635003,-0.0111551285,-0.009024404,0.019310214,0.039412476,-0.060739733,0.0083070025,-0.054211363,-0.060627937,-0.055721804,-0.010352746,-0.049383223,-0.009875037,0.04636971,-0.04033398,0.040972725,0.018223047,0.057172,-0.061794855,-0.051933944,0.044187658,0.013166636,-0.042014018,-0.006376013,0.008561477,0.05191122,-0.016123347,-0.03955043,0.013814807,-0.018619388,-0.01900234,0.02806317,0.04641077,0.0031362027,0.043628007,0.04464619,0.04876569,-0.011796795,0.01919511,-0.009448238,-0.027854428,-0.035178594,-0.0498012,-0.027229607,0.011555269,0.058956385,-0.045083128,0.052978553,0.007176459,-0.04359425,0.029983588,-0.01833792,-0.03501126,-0.045208484,-0.021937035,-0.017399259,-0.035973817,-0.006448962,-0.030191228,0.033900335,0.017580278,-0.04827317,-0.013654016,-0.058091156,-0.022015557,-0.051461555,0.061018743,0.053133227,0.032464392,0.032242104,0.024253584,-0.026356556,0.017580695,-0.03745337,0.02306234,-0.013863303,0.04013274,0.058123626,-0.0049872696,-0.036692023,-0.04099171,-0.017654799,0.000849396,-0.045984037,-0.012754858,0.05234591,-0.025059178,0.05171396,0.028088078,-0.030471161,0.053427994,0.012116253,-0.034417287,0.0051394477,-0.048711196,0.043763146,-0.030351236,-0.053298175,0.04300826,-0.057974935,-0.035346583,-0.03246419,0.0043242127,0.010089159,-0.049289703,0.007671982,0.0555297,-0.0067846626,0.00021065027,-0.05487957,-0.014285542,0.05798442,0.045204535,0.0026214123,-0.020518102,-0.050618455,-0.05951383,0.017672889,0.047971383,0.023035958,0.055837102,-0.061153658,0.020310134,-0.043749817,-0.01505252,0.041152284,-0.032296173,-0.048563838,-0.047179885,0.040034294,0.043962866,-0.051714115,-0.043576732,-0.027208075,-0.0505896,