0.0038886848,-0.00023632467,0.0044051623,0.00010144351,-0.00045391824,-0.0011076254,0.0013515304,0.0015454893,-0.0006410752,0.000901629,0.00039428734,0.0022055686,0.0006700385,0.0023614014,-0.0024201944,-0.0012825422,0.0007343016,0.0044485596,0.0010730617,0.002206089,0.0033636363,0.004106613,0.0015140321,0.0010676656,-0.0019175084,0.0014329292,0.0048875567,0.0011197646,0.001314194,-0.0009907271,-0.0003514411,0.0011982145,0.005259418,0.0036103313,0.0027075014,0.0016968665,0.0005476777,-0.0010486611,0.0010862274,-0.0011613772,0.0009944828,-0.0012841127,0.0014190688,0.003604299,0.0037862854,0.0014250791,0.0007025554,-0.0006708356,0.0039527346,-0.0010853277,0.0032165926,-0.0006030195,0.0016977557,0.005075409,-0.00012346431,5.099029e-05,0.0012080767,0.0030889532,-0.0006178698,-0.00058863574,0.0027278434,-0.001859738,0.0031912187,0.000779866,0.0010325199,0.0037564542,-0.0011657693,0.0020765522,0.004422362,-0.0022352573,0.00035241462,-0.001927657,-0.0020402174,0.0028380896,0.0015767958,0.00071362907,0.0016819045,0.00079725665,0.0007786447,0.0010601039,-0.0032961245,0.004317588,-0.00054657157,-0.00022583349,0.001216205,0.0016900081,0.0017889256,0.0023028515,0.002456399,-0.0021172727,0.0010772198,-0.0014532448,0.004132947,0.0018388703,0.0015081433,-0.0018406078,0.002769255,0.00023508776,-0.00062562176,0.0038676593,0.0032345946,-0.0011071761,-0.0009000018,-7.692157e-05,0.0038775944,0.0033317928,0.0023187897,0.0027967403,0.0031165653,-0.00017289739,0.00045077078,0.00059419556,0.00023717432,0.00343562,0.0011120788,0.0011799722,0.002604039,0.0022879988,0.0006574876,0.0017145816,-0.0023422078,0.0073943073,0.0027280734,-0.0018101772,0.0023695733,0.0041072257,-0.0009133477,0.0012596565,0.0028536194,0.0041329875,0.0018955505,0.0044359444,-0.0015353605,-0.0029266286,-0.00081721245,0.0023408588,-0.00016672135,0.0013967695,0.0012792936,0.004191967,0.00071594,0.0015933216,0.0032259268,0.0053830342,0.0035995175,0.0028517358,-0.0004234747,0.0019428937,0.0020617233,-0.0012556615,-0.002632512,-0.0020853602,0.0028312153,0.0016208466,0.0033689342,0.0024289223,-0.0030783166,-9.753884e-05,0.0033287508,0.0033915397,0.0005942122,0.0011448616,4.5401222e-05,0.0021821177,0.00022703421,0.00012461445,0.0030653854,0.004235661,-0.0017381924,0.0033014826,-0.0036421535,-0.0019544642,0.0027734148,0.0005248134,-0.00151631,-0.0012314296,0.0014637543,0.0048631113,-0.0029851582,0.00075005414,0.00011653852,0.0061358567,0.0033453584,0.0004546264,0.0007845306,-8.141121e-06,0.005406646,0.0020768493,-0.001328594,0.0014051762,-0.00042088956,0.00072099606,0.000702835,-0.0014099756,-0.00034081005,-0.0011883418,0.00066410884,0.0067614242,0.0049041323,0.0039785234,-0.0017694656,0.0046196706,0.001653111,-0.0021676838,0.0015891124,0.00021762795,0.0010882264,0.0018005898,0.001883041,0.0033979001,0.0010895554,0.0044182446,0.0018377104,0.0005279803,0.0028981967,0.0012571047,0.004545721,0.0032847882,0.004133321,-0.0006515318,0.00049294834,-0.0024386523,0.0020535768,0.0034439848,0.0052858507,0.0014056918,0.00083066383,0.003941818,0.0028157705,0.00045535382,0.005378225,0.0015131116,0.000612251,0.0014881665,6.1082814e-05,-0.003381493,0.0012760542,-0.0003720685,-0.0019148932,0.00043927168,-8.437448e-05,-0.00073906325,-0.0015425475,0.0017187427,0.0002669449,0.0026726031,0.0033473219,0.0015232537,0.0013894025,-0.0011520728,0.0029660435,0.00066171505,0.0029338258,0.00037594675,0.0012703622,0.001118774
