-0.0008171004,0.0015688511,0.009833482,0.0017272381,0.007004231,-0.0046636015,0.008365956,0.001333619,-0.006479726,0.004407743,0.0030233772,-0.00015976289,-0.0038092127,0.0003370408,-0.008468986,0.000114207956,-0.0022078431,-0.0048858896,-0.0019665882,0.00053118425,-1.8427387e-05,0.0026341183,-0.001340908,0.0030776155,0.0024612006,0.0062516322,0.0032704961,-0.00038471076,-0.011230062,0.0003286092,0.0053031035,-0.0038401424,-0.006172004,-0.004661767,0.0025184746,0.0017649936,0.002557124,-0.004460845,0.0016077145,-0.00028937578,-0.0024641203,-0.00063572935,-0.003404114,-0.0053621186,-0.0010535743,-0.00021261573,-0.0009689061,0.0007352738,0.00066605327,-0.0015134535,0.0028430435,0.005127632,-0.009119241,-0.00485303,0.002117151,0.006978914,0.00024059966,-0.0033164269,-0.0009239358,-0.0053484924,0.0010606275,-0.0016350951,0.003236929,0.00620791,0.00018565133,-0.0045694597,4.8146794e-05,-0.0005422629,0.0014793186,0.006849983,-0.0066024195,0.0003236892,-0.00054384023,-0.00045829098,-0.0062579904,-0.00028557066,0.00507815,0.004742107,-0.00020158326,-0.0029129186,-0.0029996024,-0.009170106,0.0038924753,-0.003393415,-0.0016404355,0.0013261503,0.0013413932,-0.0016287802,-0.00049156044,0.0035088863,0.004318266,0.0030932655,0.0028017592,-0.0009067325,-0.0034611332,0.0046807844,0.0024937605,0.0011869711,0.0058387085,0.0008743807,-0.0015460768,-0.010953502,0.00019169453,0.003166587,0.0066399323,0.0051075844,-0.0012244582,-0.0072439257,0.00093144615,-0.0002790186,-0.006524051,-0.0016407141,0.0042757033,-0.0072382437,0.0057795183,-0.0011317825,0.0040891636,0.0026360382,-0.0025645874,-0.00064791547,-0.006096516,0.0030883402,0.0032084573,8.101504e-06,-0.0068010446,0.004703226,0.004527172,0.0015154972
