0.021968992,0.005224091,-0.04719664,-0.0150469225,0.055350438,-0.028458882,-0.021025505,-0.012813635,-0.053602807,-0.009053031,-0.06024763,0.009736112,0.020751148,0.021135703,0.030765753,-0.0067702285,-0.0029212923,-0.019183261,-0.056415044,-0.026852408,-0.014669961,0.028766543,0.036118507,0.008709284,-0.011800716,-0.016396254,0.045423232,-0.043591626,-0.034416385,0.032849286,0.01135687,0.036900688,-0.050676666,-0.018011842,-0.029586911,-0.035590835,-0.023034764,-0.0014072764,-0.059555322,-0.047117062,-0.01416661,0.012531003,-0.01229601,-0.011212155,0.008078595,-0.046565264,-0.037882864,-0.023297798,-0.051368028,0.05405038,-0.03913637,-0.047243122,-0.029362526,0.054298714,0.0074758353,-0.036733195,-0.016770795,-0.058749445,0.024347551,0.008236492,-0.023297485,-0.05746652,0.034239247,0.04838386,0.013264352,-0.024832765,-0.008495662,-0.019363675,0.04500643,-0.038152743,0.023734704,-0.024515232,-0.013415812,0.045872424,-0.0051604332,-0.016667303,-0.049811885,-0.01691733,0.031284384,-0.03553412,0.03490089,0.04277943,0.068539485,-0.008026105,0.04519537,-0.052392796,0.046271272,-0.040975213,0.0497118,0.0248008,-0.030158715,-0.0079626385,0.00022486644,-0.007131559,-0.045886442,-0.025757566,0.018280495,0.032596033,-0.025355088,-0.04361193,0.044379108,-0.019560514,-0.055905335,-0.036393233,0.021356307,0.033850778,-0.02400817,-0.0136286495,-0.050676838,-0.023039714,-0.035942234,-0.013750834,0.006338436,-0.058726594,-0.032569744,-0.05650534,-0.05496905,0.00014444618,-0.014276748,-0.036788486,0.019217119,-0.014623747,-0.030565359,-0.030375984,0.0071635693,0.012581194,0.036053322,-0.052784972,0.041873816,-0.033287525,0.017407943,-0.027364383,-0.014127184,-0.03508654,-0.01733089,-0.045005552,0.038572878,0.0102397,0.038966104,0.03324635,0.024712991,-0.030738048,-0.017236054,-0.00951606,0.03375262,-0.013395003,-0.055520967,-0.052873634,0.017542534,0.04079511,0.0477974,0.005603807,-0.051601402,0.0039977096,0.0012780651,-0.033396326,0.07003627,-0.022212882,0.03101249,0.01253069,0.023881115,0.040746022,0.054155733,-0.039053347,-0.049822085,0.009117281,0.017085098,-0.0038302513,0.05517933,0.012065357,0.0018815461,0.06886765,0.014582207,-0.047203727,-2.0220254e-05,-0.022736248,-0.0003069968,0.00088898046,0.0036230986,-0.005168425,0.014840705,0.011090367,0.057875782,-0.049260415,-0.014662416,-0.059672028,-0.05825206,0.039782085,-0.036748495,0.034770302,-0.047160782,-0.007664265,-0.014524249,0.027179185,0.017259132,-0.0026196437,-0.06319599,0.006154392,0.04656947,0.016409671,-0.041390624,-0.035527237,-0.03229265,-0.04313401,0.024966493,0.067793384,-0.043219276,-0.026087992,0.024949,0.0669982,-0.020228975,0.04777301,-0.049859576,-0.0026398795,0.0004800706,-0.044720605,-0.023623645,0.03467312,0.03833043,0.041785114,0.021247933,-0.016188875,-0.016071055,0.021877173,-0.018794127,0.045876034,-0.047391295,-0.05807271,0.006900307,0.05788421,0.024920354,0.025923708,-0.016989402,-0.045265168,0.044230863,-0.033470422,0.03979861,-0.028263725,-0.02562011,-0.007974105,0.06029244,0.028436877,0.047139183,0.05677686,0.05778111,-0.05391694,0.024498366,0.05657606,0.048657283,-0.05770968,-0.007794473,-0.051941328,-0.054205865,0.03262747,0.019608032,-0.042311445,0.043514073,0.00853229,-0.01563394,-0.043888345,-0.040472884,-0.04769163,0.059986636,0.034582246,-0.035502933,-0.059212353,-0.023625532,0.03437259,-0.012494788,0.032511212,0.03940177,0.045365576,-0.016963,-0.0168727,-0.034869403,0.033422057,0.054555923,0.031930387,0.055920996,0.053793512,-0.005644333,-0.056192257,-0.055856258,-0.029553654,-0.039559904,-0.040327974,0.012653577,0.050336957,-0.0017080177,0.02446238,0.03288637,-0.032324083,-0.0028700603,0.05156646,0.060968745,0.03184697,-0.044393644,0.0198732,0.050343506,-0.0488939,-0.022901721,0.047640637,-0.026850399,-0.029931335,0.015648717,-0.041520737,0.016836243,-0.037993334,-0.021779275,-0.015851144,0.019917041,0.00530874,-0.022665653,-0.053581066,-0.010021938,0.010497949,0.04219344,-0.037263103,-0.037256666,0.03535444,0.03434138,-0.011397996,0.043374818,-0.055701032,-0.009591863,-0.065550275,0.03455957,0.02432223,-0.002565219,0.058491923,-0.026122436,-0.042026337,0.0060764733,-0.024474448,0.0002087385,0.05324944,0.022670526,-0.02325926,0.040469132,-0.05673203,-0.062472038,0.061342653,0.04231967,-0.036275677,0.051775124,-0.06176865,0.027252583,0.021063594,-0.029247787,0.033704817,-0.0067561963,0.015334705,0.0149083175,0.027151365,-0.008941339,0.02554169,0.020675696,-0.0027759487,0.011046572,0.039089605,0.057344362,-0.014483124,-0.06335266,-0.04596103,-0.025853153,0.06661238,0.068083756,-0.024389854,-0.014791747,-0.026130851,0.032362152,-0.0020834056,-0.002347238,-0.034381874,0.022701032,-0.009492172,-0.05626167,-0.029220399,0.028885044,0.041772142,0.038470678,-0.05541154,0.04577048,0.022850875,0.05034809,0.05584663,0.027420405,-0.017093837,0.0021476813,-0.052367263,0.059168875,0.01838975,0.03987918,0.029598527,0.028317362,-0.040570885,-0.038505808,-0.004288896,0.0012090418,-0.048859052,-0.03511741,0.057606053,0.035794824,0.05740562,-0.032085486,0.055990346,0.014572129,-0.0002795105,0.013183882,0.042542823,-0.026437972,-0.060192548,0.014713745,0.013217039,-0.006785771,0.028636493,0.042600073,0.022157578,0.020758707,0.038816977,0.014282538,0.014341166,-0.015407514,0.016756775,-0.02533599,-0.04416456,-0.0057901945,-0.005309198,0.03699325,-0.010477709,-0.031147074,-0.0242051,0.031004736,0.052603964,0.018587466,0.0013446559,-0.013326828,-0.05888801,0.008470258,0.045901448,0.05015306,-0.0005876231,-0.042759873,-0.018192317,-0.021338992,-0.061626904,-0.018303897,0.027871618,-0.03348823,0.038774557,-0.03480723,0.008681038,-0.009262881,-0.013802845,0.004975555,-0.0015309827,0.044197887,0.02870683,-0.01752474,-0.041621916,0.048286457,0.071453705,0.05855398,0.046436414,-0.021698117,-0.052457232,0.021478217,-0.043587595,0.008079661,-0.018571738,-0.043545924,0.051294796,-0.016824424,-0.031750552,0.019715428,-0.033102125,-0.030528978,0.014153948,-0.032451104,-0.027917873,0.0009470977,-0.046336133,0.02464216,-0.008531479,0.022740642,0.009774715,-0.056265287,0.0030639465,0.03796118,-0.062466875,0.0141657945,-0.034490366,0.02051455,-0.0021222536,-0.004119956,-0.030795567,-0.021909103,0.022394845,0.019515332,0.03697501,0.016980093,0.022906259,-0.023083117,0.049942814,0.04641693,0.037190273,0.029001515,-0.008269619,0.06138594,-0.060520895,-0.014953859,-0.005357327,-0.03134075,0.04528386,-0.036471028,0.014657894,-0.049482048,-0.049002573,-0.042750858,-0.033194125,0.06378515,0.049621295,0.04456605,0.01938432,0.031071054,0.032327525,-0.027096514,0.040436216,-0.01977831,-0.023290958,-0.012629591,0.03576898,0.04249323,-0.044223107,0.022291875,0.004761542,0.050972894,0.028051905,0.018008223,0.047391914,0.060382612,0.020076413,0.021433935,0.033214793,0.05915705,0.0004844342,0.011538569,0.058781028,0.0507726,-0.047623992,-0.032838214,-0.0041483617,0.035269983,-0.024311643,0.047228813,-0.0314224,0.022817183,0.014608205,-0.017359259,-0.0005603771,-0.037799485,-0.025487676,0.045192994,0.031752385,0.031119898,0.021332908,-0.045843326,0.0067014196,-0.056771353,-0.00067077024,-0.02205403,-0.029796313,-0.032336324,0.006039852,0.0025305436,-0.03819158,0.036191415,-0.008492635,0.04209835,-0.055655964,0.026090806,0.024380239,-0.03163911,-0.03690574,0.017464327,-0.044308536,0.021148957,-0.057076253,0.04208985,-0.037796855,-0.012102051,-0.02497778,-0.041909955,-0.019961184,-0.007952113,0.010312967,-0.021272969,0.03968938,-0.033251077,0.01438137,0.053149015,-0.03514583,-0.046470925,-0.033733755,0.01873707,0.002315722,-0.06939225,-0.054928724,0.031709988,0.038083315,-0.003689786,-0.01250111,-0.049718358,-0.036958795,-0.062183086,0.053744424,0.050444767,0.04327084,-0.05913175,0.023825925,0.01872995,-0.037401684,-0.027660511,0.04717555,0.018344235,-0.045827955,0.0026565972,-0.054115795,0.017405635,0.020897258,-0.05501584,-0.057584725,0.030779054,0.061010826,-0.01060622,0.0104433,0.012703467,0.043316096,0.013943798,0.05377484,-0.053635497,-0.022249222,-0.013827633,-0.026509535,0.056885842,0.06688383,0.060836025,-0.053555094,-0.020949455,0.021132458,0.06320673,-0.014885301,0.04457614,-0.012715364,0.048415024,0.048535388,0.022939201,-0.040828545,0.033553474,-0.020655423,0.029155472,0.059050284,0.041956123,-0.03397604,0.004598422,0.008714082,0.0290433,0.012028992,0.068841025,0.025464442,-0.030826088,-0.016674288,0.039003477,-0.0014893926,-0.035811476,0.059638903,0.061614074,-0.04184881,-0.0061844825,-0.021786198,-0.0542494,-0.04032651,0.06209845,0.0006058712,0.035824407,-0.06571846,0.009331707,0.043770127,-0.04232332,-0.039129794,-0.032685593,-0.005737922,0.069087066,-0.04600878,-0.03951593,0.032121405,0.021667596,-0.008489016,-0.019820146,0.033572614,-0.027172146,0.043021016,0.048309356,-0.041495312,-0.020319426,-0.0055744024,-0.04588646,-0.0073079625,0.03330946,0.04233119,-0.0016742357,-0.007405621,0.023194112,-0.03207706,0.036563836,-0.0139833465,-0.024936061,-0.02315969,0.049857438,0.016540423,0.05780749,0.013276487,-0.027090508,-0.025099482,-0.014890276,-0.021102097,-0.047914684,-0.06470238,0.04466984,0.059772536,-0.055269618,-0.03088925,0.0077793626,0.032189585,0.021492328,0.05488399,0.045607306,-0.07375385,0.031820215,0.049676754,0.045672636,-0.005563859,0.013798079,0.0069251545,0.00053404015,0.046125278,-0.018535033,-0.036557853,0.025390025,0.03630599,0.0567621,0.027791778,-0.0017893568,-0.04229904,0.044859834,0.0067863846,-0.043433,0.016633064,0.043591008,0.0010146966,0.004320795,-0.05495906,-0.019330857,0.0016405608,-0.05437395,-0.023115527,0.0572313,0.003128217,-0.022656947,0.003313876,-0.019492213,0.0035412277,0.030147012,-0.031666327,-0.056796286,0.051194057,-0.02448735,0.007982062,-0.042891197,0.00034788495,0.027736906,-0.024720877,0.014084322,-0.006207291,-0.0029033807,0.047173172,-0.041351125,-0.043631412,-0.024801377,-0.019954357,-0.057123136,-0.013198277,-0.02422351,-0.037032448,-0.01756386,-0.052120693,-0.05956218,-0.02263249,0.013633463,-0.045333594,-0.0024007747,0.042107157,-0.021996597,0.014902982,0.04165012,-0.0043751947,0.0009774305,-0.04652234,0.04215675,0.021619063,0.0022890638,0.040037226,-0.043670744,-0.00025944476,-0.046632655,0.039909188,0.015163459,0.021222685,0.012507817,-0.04249432,0.002705248,0.06715676,-0.0040628323,-0.016321328,0.026267424,0.017192077,-0.013679769,0.05367407,0.06343039,0.05429458,-0.00045010034,0.061409414,-0.01440499,-0.051738366,0.028697902,-0.044583112,-0.018857265,-0.045858137,-0.041371956,-0.059461184,-0.053535208,0.06681173,0.004965172,0.033867195,0.006664959,-0.022812027,-0.06213474,-0.047897603,-0.035931006,0.044499353,0.05408141,-0.04857766,-0.013423514,0.03779045,0.038640395,0.05937153,0.06764291,-0.017977402,-0.063312605,0.021701325,0.041622702,-0.03160124,0.0009987773,-0.03311153,0.0071704686,-0.05514797,0.03452165,-0.050577857,-0.030295143,0.049661957,-0.032819815,0.050135657,-0.033280242,0.005126639,-0.024110314,-0.026110675,-0.032247588,-0.045819994,0.007093177,-0.017589984,0.05388297,-0.02281842,-0.061434343,-0.025522701,-0.028789585,-0.04330481,0.004517307,-0.043357015,0.037316673,0.054406438,0.04520969,-0.0042447764,-0.05159627,-0.02307171,-0.011990867,0.02827111,0.013574929,0.036806814,0.053019915,-0.012934806,0.027907887,-0.005379809,-0.014989201,0.03444461,0.03299715,0.005126196,0.021986553,-0.043206982,-0.04145157,-0.035903573,0.034301285,-0.012201515,-0.0037032198,-0.0053515006,0.03891637,-0.02275313,0.027779482,-0.020459265,-0.049428463,0.0045902506,0.03792862,-0.028827414,-0.043859813,0.03904313,0.019598503,0.055947244,0.04257148,-0.04236776,0.00020222877,-0.008521876,0.032310463,-0.031428732,-0.0327183,-0.05091948,-0.024006885,-0.05269045,-0.0087761395,-0.015138554,0.034798995,0.07039312,0.048682373,0.0031527788,-0.009533867,-0.023182524,-0.042559765,-0.026982456,0.03350518,-0.023469515,-0.02815565,0.017309248,0.03024549,-0.014258038,-0.020812143,-0.034555808,-0.035846207,0.051521614,-0.011497135,-0.02680493,0.020344805,0.05445808,0.058697928,0.012188166,-0.061618093,-0.028574018,0.01048555,0.051821075,-0.03784489,0.04188753,-0.011119686,-0.031225005,0.06461434,-0.052086845,0.04897108,-0.029376658,-0.030216236,0.057545125,0.0069902865,-0.017917346,0.02832231,-0.050930563,-0.04880005,0.03869076,0.05095662,0.017410971,0.043566346,-0.04089278,0.07104926,-0.04575277,0.032237664,0.053592853,-0.008845657,0.054748654,-0.041204188,-0.035219923,0.0661279,-0.060441278,-0.0069263275,-0.053245798,0.0028583594,0.056567874,-0.018471692,0.021937866,0.061720654,-0.004019989,0.04474206,-0.0060942434,0.043601044,-0.010506216,0.05556451,0.011569873,0.034637153,-0.010040577,-0.011720188,0.015850298,0.014760103,0.01342102,0.036686778,-0.026141457,0.0025372584,-0.009949135,0.015921345,-0.051886633,0.047752246,0.027896862,-0.04741449,-0.016509809,-0.054824248,-0.00086233567,-0.038861006,-0.064213365,0.013369933,-0.03436088,0.06363575,0.048370913,-0.035920955,-0.009084641,-0.029338859,-0.013937652,-0.02966707,0.013599696,-0.012506381,-0.014737684,-0.0565783,-0.015459977,0.06280823,0.0070348093,-0.037689984,-0.047107164,0.031018531,-0.06000047,-0.032674342,0.030935578,-0.021195553,-0.008526429,0.026746448,0.041901205,0.038425043,0.040801518,0.011295015,-0.006961894,-0.006046038,-0.036313333,-0.01833953,-0.008362449,-0.039365105,-0.02882082,0.035475194,-0.041484546,-0.06398531,0.004385176,-0.025624871,0.052762866,-0.020025048,0.05329963,-0.0040019816,-0.01820058,-0.055114962,0.04572991,0.060150735,0.010956157,0.02214469,0.047265247,0.046944156,0.017842628,0.0075940173,0.057255566,-0.057121865,-0.0342292,0.024245154,-0.014337772,-0.007569719,-0.052961286,-0.016715392,0.028827026,0.012630435,0.049192853,0.030417245,-0.023210933,0.048093054,-0.0011470048,-0.0030981458,0.061176565,-0.039593533,0.033972222,0.034577575,0.038588934,0.016180713,-0.010769868,0.036333084,0.01837322,0.057502165,0.060475156,-0.03294551,0.05988709,-0.03559147,0.027488101,0.06033258,0.0024852403,0.05213564,-0.04912425,0.0067097237,0.031241883,-0.035259925,-0.020813331,0.018067926,0.013619265,0.02088831,0.011439418,0.017028969,-0.023958921,0.041096546,0.049327597,-0.020269115,-0.028005097,-0.011431398,0.026093423,-0.029519398,-0.014884588,-0.01244837,0.008617239,0.023487553,0.05319076,0.03787099,0.045343254,-0.039267153,0.043837734,-0.019075671,-0.034652907,-0.039420865,0.0040624244,0.022341482,0.011223904,0.0067276563,-0.060027055,0.07004966,-0.056097798,0.05410247,-0.020858243,0.06460339,0.049666412,-0.007385889,0.03561928,0.0216936,-0.014043264,-0.0048215664,-0.0059913252,0.03008616,0.060058903,-0.009807058,-0.01114824,-0.005951967,0.00977332,-0.0102629475,-0.052032888,0.029642835,0.025854388,-0.034545198,-0.035889037,0.0073205577,-0.060432363,0.001377794,-0.032479092,-0.04514908,0.03462973,0.0062925853,-0.0074815364,0.014377819,0.060992725,-0.046086498,0.02829046,-0.03808534,0.026941229,-0.0053699175,0.044849344,0.015076283,-0.015851952,0.056307666,-0.040034883,-0.004691451,-0.055209033,0.048255496,-0.0047375737,-0.0044271313,-0.009621951,0.038256668,0.04095971,-0.031396843,-0.05547879,-0.058197923,-0.03404116,-0.033483684,0.02283319,0.054733347,0.039744437,0.048268817,-0.03286178,0.048258718,-0.036349908,-0.047019113,0.05039873,-0.056575,-0.034429073,0.05252735,0.017650986,0.029652644,0.052560627,-0.026564196,0.040230736,0.029843595,0.003925203,0.031798005,0.038400985,-0.043514572,-0.057170726,0.001724991,0.03735567,0.029962268,0.009541325,-0.029918646,0.047113996,-0.052723825,0.002805351,-0.036924906,0.00020643696,0.016931761,-0.0040309145,-0.053054072,0.0010003808,0.037504658,0.00077265815,0.060702927,0.017474413,0.01981613,-0.014217776,-0.0319118,0.04965157,0.007940274,-0.036701303,-0.00584933,-0.020836446,-0.048805296,-0.009025663,0.051242374,0.033655833,0.043393828,-0.0061457753,-0.021641295,-0.040072072,-0.04912986,0.05536165,0.00316997,-0.0031535742,-0.028964296,0.03163798,0.006120408,-0.049689095,-0.054377824,-0.032936335,0.04636598,0.042740546,-0.029809587,-0.02076774,-0.059757635,-0.016013976,0.06339985,-0.055282503,-0.011105111,0.060233656,0.04714562,-0.007690886,0.048483938,0.019290313,-0.032406837,-0.043684132,0.015066935,0.03806086,-0.05351135,-0.059058286,0.04024382,-0.057972457,-0.038402297,0.028266765,-0.029306298,-0.010860167,0.0037419484,0.050005972,0.019384187,0.036746778,0.051264077,-0.008230457,-0.023940116,0.007006237,-0.018756052,-0.030686056,-0.019521227,0.055060677,-0.0078322,-0.007340497,0.009747312,-0.0030192842,-0.0014930102,0.027011527,-0.046020783,-0.043253504,0.04559666,0.07138042,-0.016389564,0.0008040403,-0.043302454,-0.0026499447,0.04115678,-0.059539385,-0.060061328,-0.023572885,0.018568097,0.037553288,-0.032905877,-0.006647189,-0.0061703557,-0.03792031,-0.055841554,0.022284038,-0.04587442,-0.02805144,0.045002744,0.022954425,-0.035634395,0.026994035,-0.010978256,-0.019400112,-0.016367767,0.0064911805,-0.04901605,0.007102479,0.02879364,0.023713011,0.056990907,0.048141558,0.018196,0.052608427,0.06453259,0.025086552,0.0025684,-0.03507131,-0.009943115,-0.031545885,0.060218707,-0.03512306,0.026310552,0.04282222,-0.00725018,-0.017879754,0.017125603,0.054870393,-0.03166876,0.03910409,-0.018148407,0.046892993,0.021481678,0.06475179,-0.008152654,0.055784307,0.066157565,-0.033315156,-0.025902603,-0.005045412,-0.00073162117,0.03970091,-0.035005994,-0.03259352,0.05791728,-0.0117095485,-0.0012772882,-0.012625233,0.026687533,0.028090855,0.017802615,0.054087464,0.023907978,0.016284343,0.04374497,0.025765566,0.005028571,0.03784037,-0.02148512,-0.0053058583,0.0028409478,0.010954443,0.004671025,-0.033409666,-0.04414397,-0.031081015,-0.04591143,-0.025683127,-0.041844644,-0.05651076,0.056942128,0.034403756,0.054489385,-0.010119209,0.040841043,-0.01239787,-0.049428158,-0.044169575,0.009581023,0.05432128,0.041071087,0.01784931,-0.039810177,-0.061903175,-0.026588386,0.045558363,0.06029471,-0.058266506,-0.031562313,0.03492692,-0.017489996,0.010921277,-0.002763165,0.03260764,0.05095608,0.05463263,-0.0034962157,-0.018981103,0.018800544,-0.04709341,-0.0049119284,-0.049727023,0.055588745,0.064609565,0.055283036,0.069585666,-0.00038990728,0.03381472,-0.017543534,0.055117767,-0.012975749,-0.046645947,-0.02793986,0.042588525,0.04679665,0.03278177,-0.055758752,0.031733327,0.013123129,-0.059531584,-0.001484965,-0.013150139,0.012422676,-0.063017204,0.010011277,0.004760191,0.043680403,-0.04599727,0.023209013,-0.016100764,-0.004340714,-0.03549526,-0.04618512,0.0046600876,0.0017260378,-0.008988703,-0.026340948,0.016418997,-0.01259209,0.004218739,0.018333636,0.014214741,0.055986892,0.06739697,-0.037504796,0.04620999,-0.04847738,-0.045312665,0.0510846,-0.010828165,0.060171265,-0.05980648,0.0049288785,-0.018842615,-0.051845834,0.0072303656,0.03675728,-0.036181565,0.020544544,0.011134168,-0.038756467,-0.012126934,0.047236044,-0.04696885,0.039120708,-0.049218055,0.002701322,-0.040084325,-0.019717533,0.052367248,0.0049435357,-0.025361985,0.038953513,-0.0028399448,-0.040053353,-0.015180886,0.033943098,-0.024965402,-0.03261309,-0.049062125,0.03408221,-0.027294058,-0.006208603,-0.05392447,0.045192964,0.03520696,-0.021922013,-0.045321137,-0.012795165,-0.02079828,-0.025635663,-0.036587805,-0.0022927818,-0.0006310014,0.058873907,-0.032842986,0.009944655,0.04071582,0.021031037,0.026474677,-0.060520835,0.053345397,0.02052807,-0.03413317,-0.011659177,0.018781317,0.049104623,0.025986789,0.002535641,0.012770057,-0.03449478,0.015361779,-0.018713707,-0.038102098,-0.028423745,0.002525783,-0.054022387,0.057929397,0.006306242,-0.0066225766,0.030663315,-0.05745163,0.019128796,0.010350375,-0.061186425,-0.011517154,0.03414329,-0.060074512,-0.031369053,-0.001600895,0.05505014,-0.04789429,0.014334505,-0.0012907572,-0.0022684764,0.01407723,0.009264458,0.05747734,0.052774392,-0.013266586,0.01329663,0.031578895,0.034266703,-0.031854004,-0.02514809,-0.06432237,0.048416022,0.05872851,0.023590188,0.02936461,-0.053405218,-0.06589611,0.058309406,-0.05017097,0.038465768,-0.027883425,-0.043070138,0.050736196,0.012686266,-0.06326963,-0.0269602,0.055816304,0.008834889,0.0019866591,-0.025791395,0.009234557,0.06528896,0.032837722,-0.03573805,0.017649926,0.003050866,0.011475563,-0.063402675,0.008452497,-0.019049698,0.005232387,0.03349176,0.02846199,0.0019806167,0.031696096,0.049499445,0.041591883,0.028396992,0.009140087,0.02811043,0.008444261,0.0101419315,0.046639346,-0.0341177,-0.020331722,-0.0103493165,-0.051534,-0.030953266,0.043443322,-0.02385972,0.06289652,0.031363614,-0.03732095,-0.01233466,-0.04527457,0.04740976,-0.021799928,0.03603232,-0.002608197,-0.0172062,0.035517637,0.05011598,-0.037312083,0.012191575,0.012800798,-0.014612954,0.0592188,-0.022273425,0.0059225205,-0.02757152,-0.025918998,-0.007984998,-0.007883506,0.012250468,0.0073278314,-0.052628413,0.04787263,-0.0090927,-0.028156474,0.037256397,-0.044731263,0.012064306,-0.014775708,-0.020528179,-0.029309895,0.022964086,0.0022730627,-0.04593219,-0.0031537064,0.058973774,0.014269551,0.016381044,-0.01858095,-0.021704845,-0.029036824,-0.033039138,-0.023524178,0.018712733,0.042340487,-0.013372151,-0.04079205,-0.025456285,-0.046736747,-0.009565839,-0.022923725,-0.037167445,-0.023137435,-0.0042051394,-0.050280876,0.0065147765,-0.02263685,-0.03226631,0.0048481766,0.052748613,0.022803137,-0.020465534,-0.0043616584,-0.049724553,-0.0070892987,0.0261731,-0.051327802,-0.009074617,0.02776511,-0.033608757,-0.027571611,0.055498835,0.041555367,-0.012646023,-0.036012016,0.052908126,0.011915481,0.04641083,0.04677346,0.06247957,-0.055273592,-0.040142313,-0.04406497,-0.006988172,-0.034017034,0.054284178,0.013875501,-0.014536494,-0.027479542,-0.0043947264,0.045728248,0.028413009,0.0063467813,-0.013498688,0.022833787,0.021917747,-0.019468524,-0.051054064,0.026417892,0.031931262,0.045975506,0.060289696,-0.029933065,0.02091872,-0.02963554,0.0004643278,-0.047140747,0.023307346,-0.03410548,0.010990195,-0.018961566,-0.01960158,-0.05609349,-0.059343535,-0.05940406,0.05337356,0.042643026,0.03855461,-0.02225524,-0.002105141,-0.020592015,-0.025185205,0.0006314,-0.0029198213,-0.008557858,-0.027212948,-0.003685949,-0.019220993,0.0006560402,-0.013012238,0.02785498,0.026767682,0.034023076,0.026853941,0.026505474,0.056863237,0.057483416,-0.006029033,-0.058965735,-0.02713375,-0.04836998,-0.03348455,-0.027889319,0.032737024,-0.007220781,-0.04420241,0.050286233,0.014107857,-0.024036795,-0.05053585,-0.04327085,-0.028727416,0.0025596116,0.05520775,0.023061518,-0.03593643,-0.056922175,-0.021375276,-0.045201533,0.0021520017,0.017985772,-0.016028656,0.024979938,0.01650279,-0.0136276595,0.02553529,-0.037121758,-0.031523354,-0.04002825,-0.051376533,0.0039272737,0.013006981,0.04544522,0.037043065,-0.004487151,0.009854492,-0.041841008,0.047677767,0.0010585105,0.010432441,-0.020234356,-0.007311088,-0.053609878,-0.005630776,0.04662402,0.042477272,0.039891824,0.048332095,-0.011384282,0.016381878,0.05556565,0.06553751,0.038212083,-0.03588353,0.03051329,0.06169465,-0.030576687,-0.007314375,-0.041776508,-0.039379105,0.026603155,0.0030126127,0.037142117,-0.0102794245,0.0006557515,0.0605917,-0.060438097,-0.014668375,-0.037769325,0.005513987,-0.02643691,-0.06205242,0.031735588,-0.044091843,-0.03630563,-0.037531838,0.0065692924,0.042299192,-0.049945995,-0.04779449,-0.0020598564,0.042360783,-0.050512932,0.03858886,-0.018230973,0.02778242,0.058713734,0.051409885,0.054508902,0.04223755,-0.05073704,0.023967098,-0.023158468,-0.018671513,0.011240603,0.05033993,-0.003071642,0.015376158,0.0012726252,-0.013402208,-0.049953133,0.069399014,0.03878492,-0.0052804225,-0.035177983,-0.056809556,-0.0058528064,0.060635496,0.013055529,0.033605944,0.03314673,-0.06487559,-0.052105002,0.029789176,0.018240642,-0.009180906,0.052883383,7.647452e-05,-0.02409452,0.03297066,0.006412293,-0.016059507,0.011966474,0.052872356,-0.042146094,0.013803102,-0.009639602,0.024117783,-0.039598905,0.03627874,0.047475714,0.011597231,-0.011235348,0.036875498,0.05425451,-0.031920046,0.010361626,0.04185592,-0.009612617,-0.036145937,-0.027071077,-0.036962718,0.027218781,0.0043117553,0.010661766,0.0038019754,-0.00847058,-0.024848819,-0.039017625,-0.035110813,0.033136535,0.024918672,-0.02321887,-0.006383654,-0.028792702,-0.04903835,-0.014506355,0.037598945,0.0070064883,-0.012565664,-0.017381068,0.03364538,0.04368559,0.036500033,-0.018871725,0.006587197,-0.039697237,-0.030534275,-0.04179821,-0.03148008,0.00769723,0.030562572,-0.032094818,0.052140042,0.008355554,0.026277613,-0.024586417,0.05875632,0.058486193,-0.025507903,0.029296488,0.023518365,0.010008449,0.04514667,-0.030509349,-0.0242773,-0.05350429,0.029476963,0.0032336595,0.0074360613,-0.04216636,0.018346343,0.015963554,0.04514087,0.04480969,0.05034188,-0.036541253,-0.05784942,-0.013404511,-0.030588303,0.017133664,0.004588499,0.022700697,0.026645321,0.06266838,0.04543227,0.023899617,0.026245058,0.0054784752,0.05917398,-0.035613433,-0.030446276,-0.0047285794,-0.003309236,0.00825259,-0.014801269,0.010239521,0.03416572,-0.052146763,0.03231752,0.054897483,-0.061375096,0.005913837,0.012195465,-0.00014169059,-0.04527577,-0.04964175,0.06442958,-0.05849888,0.039474577,0.0027393838,-0.03683624,0.06326752,0.040504217,-0.04631184,0.018631533,0.017875442,0.040959053,-0.00065097754,0.0098219775,0.03495232,0.06483742,-0.03371794,-0.007280575,0.064413965,0.05081048,-0.04484997,0.049158044,-0.01861297,-0.020370942,0.033677936,0.004276182,-0.0060511874,0.057186015,0.024917588,-0.032717146,0.045630343,-0.035480425,-0.05286727,-0.02529446,0.045265295,0.03095715,-0.03158222,0.059968956,0.036345065,0.017072387,0.03865274,-0.012657114,0.032551754,0.02262888,-0.01551767,0.064133346,0.019641187,-0.028001826,0.062222037,0.007279553,0.038534507,0.04628346,-0.019258104,0.004579312,-0.009142419,0.045482457,0.04724388,0.020138547,0.019397385,0.016164012,0.009005252,0.03211695,-0.00022876584,-0.006058515,0.05220351,0.022069877,0.04561103,0.04701426,-0.039765544,0.035036206,0.005824738,-0.04830397,-0.018710785,0.029536381,-0.027936175,-0.055484265,0.027640581,0.04418212,-0.030207139,-0.054786544,-0.020184834,0.02780775,0.061837032,-0.035712063,-0.011793477,0.059205648,0.031700797,0.0012409601,0.021285746,-0.05829165,-0.023801398,-0.014255902,-0.004264843,0.043687142,0.015121045,0.047488157,-0.015560342,0.047749653,0.0370925,0.046447344,-0.011005998,-0.02683752,0.00077935273,0.032918356,-0.03977935,-0.04006736,-0.063240424,-0.0097049605,-0.021638423,-0.01200458,0.01409288,0.018833498,-0.026498504,-0.03622236,-0.054046385,0.045488454,-0.005122318,-0.049844407,-0.012732822,0.010844227,0.037578195,0.010181986,0.021538373,-0.022972832,0.055747114,0.06336101,-0.03458076,-0.0054395124,0.007015326,-0.00034211122,0.008560499,0.017138425,-0.025913298,-0.003014302,-0.056080215,-0.03199432,-0.048245497,-0.02365702,-0.055271894,0.0025529289,0.03281594,-0.06435321,-0.03566938,0.06472991,0.05980363,0.045998044,-0.028165596,0.041487493,0.05221072,0.023780003,0.045174878,-0.054122627,0.04894933,-0.0023797136,0.047917962,-0.006433908,-0.04569742,0.05168581,-0.03293162,0.019061498,-0.011261638,-0.01398696,0.0040966445,-0.012451375,-0.013596984,0.003718806,-0.014302069,-0.012360904,0.0030316655,-0.017515931,-0.03911089,0.012001937,0.023913007,0.034605578,-0.0014351839,-0.03866043,0.02361402,-0.0242027,-0.052918658,0.012348508,0.0007614974,-0.021984933,0.06528418,0.01283629,0.046175096,0.040805615,-0.056073323,0.05705262,0.019004019,0.06173151,-0.007516548,-0.010611916,-0.054964036,-0.03609371,-0.050172,0.05692781,0.05839737,0.01214246,-0.041081417,0.01505569,-0.022983564,0.007178818,-0.026156755,-0.0019867625,0.031959385,0.05629131,0.051150553,0.047777288,0.017159346,0.047506984,-0.044711515,-0.046252057,-0.04698108,0.048247024,-0.05222436,-0.05116208,0.047510587,-0.04534412,-0.01031784,-0.021060273,0.0017493155,-0.03321345,0.0014175482,-0.035759725,-0.04438433,-0.049854174,-0.030852128,-0.04584124,0.007650295,-0.011047993,-0.043079335,0.018823147,0.03628649,-0.00831093,-0.025465857,0.032021746,-0.0029143756,-0.05917706,-0.03877654,0.03881892,-0.04797571,-0.01592023,0.008948751,-0.010092642,-0.042117894,0.013761573,0.060948662,-0.03634523,0.019297801,0.05043008,0.057329018,0.0017971277,-0.004988963,-0.030174185,-0.0021276278,-0.054187827,-0.02206029,-0.055454373,-0.05203982,-0.038102675,0.05673734,0.042310968,0.020451732,0.00438019,-0.01322823,0.05592277,0.06443153,0.023951543,0.044636704,0.014907792,0.020810312,-0.019706946,-0.017935697,0.047432654,-0.021312356,-0.047146022,-0.038897343,-0.03184654,-0.0033641425,0.05320362,-0.02780039,-0.021918733,-0.044064723,0.06321167,0.0012984532,-0.025883287,-0.027237628,-0.051318187,-0.044084806,-0.030880732,-0.0017699362,-0.040963233,-0.028161485,-0.007864544,-0.01699109,-0.0013465048,-0.038964633,-0.027014516,-0.017499559,0.040468477,-0.01874743,0.04295728,-0.045445897,-0.001004108,0.030324794,0.0036564565,0.032246336,0.025201447,-0.0065873396,-0.034784295,-0.034544945,-0.052826583,-0.039496142,0.025481973,0.046726428,0.01606428,-0.056182932,-0.05842238,0.04946273,0.022298317,-0.034131348,-0.0400223,0.061825074,-0.04080506,-0.037879087,-0.006829452,0.033191167,0.039696496,-0.006804076,-0.020348396,0.048340373,0.008996645,-0.038995564,0.017079253,0.020397412,0.064743295,-0.01944684,-0.02661225,0.026078116,0.0015679393,0.0058330838,0.018507404,0.0531732,0.018767294,0.015820064,0.008044185,0.034350947,0.02907216,-0.05004099,-0.055444,0.02959935,0.011600272,-0.033608634,-0.038847536,0.031698845,0.018700201,0.06772493,0.04606429,0.025373705,-0.022893094,-0.04388012,0.0017710754,-0.008807527,-0.022541266,0.035281483,0.016625773,0.016755998,0.025851082,0.04112091,0.016185325,0.01840383,0.019479608,-0.05065863,-0.01692352,-0.054170847,0.05062803,-0.014611688,0.0072615896,-0.022003457,-0.006701842,0.02414729,0.03590364,0.011297043,0.064441204,0.051488943,0.03504915,-0.00411034,-0.0057747266,0.017609648,-0.03363324,-0.058696162,-0.038155384,-0.039355002,0.05740554,-0.0022408383,-0.019479247,0.014405431,0.07860178,-0.006675842,-0.022469804,-0.025903033,0.028329968,-0.0047836676,-0.010197224,0.025903627,0.03492056,-0.051560286,0.034312394,-0.031237472,0.056280077,-0.037795298,0.06661534,0.0014161142,-0.003680081,-0.017132442,0.059784826,0.0009310769,-0.034392677,0.016168326,-0.02077289,0.027655346,-0.04430721,-0.050502792,0.06038423,-0.054795843,0.024342677,-0.031760253,0.040223125,0.039417434,-0.036563527,-0.019686464,-0.011571736,-0.0080547575,-0.0048573627,-0.020596454,0.03162397,-0.0058841077,-0.012973983,-0.030081773,0.029703243,-0.003000402,0.03763237,-0.043254573,-0.0074796053,0.046995334,-0.019172385,-0.020435458,-0.029971326,0.03213895,0.028984394,-0.03926375,0.013968665,-0.001644916,0.039817587,0.0040746233,0.06402384,-0.034570567,0.027984884,0.047179766,-0.04544503,-0.0022235438,-0.04629723,0.03751546,0.05720134,0.06203937,-0.04399751,0.05229187,0.059314527,-0.012853172,0.058160715,-0.019100603,0.026832057,-0.0073627066,0.016096596,-0.005789352,-0.01731107,0.019123776,-0.04457815,0.010512294,0.008240363,0.011222662,-0.016974896,0.0025611809,-0.014124438,0.05172135,0.07456748,0.06455908,0.0071252123,-0.035457738,-0.030639801,0.005849365,-0.039728563,-0.060305484,-0.02715975,0.05561939,-0.020597685,0.054902766,0.03440493,0.021125508,0.04934392,-0.06182614,0.006159749,0.019144865,-0.0049794707,0.029327825,-0.034517273,-0.012266925,-6.024907e-05,0.04595816,0.054911397,0.05251187,-0.028028257,0.026133908,-0.048608154,-0.050705835,0.035458013,0.05385188,0.03547691,-0.03794285,0.051537737,-0.033326834,-0.0472183,-0.04234005,-0.05105325,0.046529867,-0.0077437777,-0.03806658,0.013820403,-0.051396463,-0.015327128,0.0569465,-0.06197822,-0.038764298,0.03659546,-0.011796232,-0.03800237,0.003623101,0.014215794,0.007521256,0.010725623,0.031477664,-0.030593792,-0.011696156,0.021057904,0.04800437,0.047453508,-0.046335977,0.06918396,0.01151314,0.03243522,-0.046082396,0.016145479,-0.019334454,0.002614645,0.059660845,-0.054723218,-0.05476671,-0.014708732,-0.04326193,0.041597784,0.05414898,-0.000717315,-0.018004097,0.057026014,0.0031190624,0.03848729,-0.04025682,-0.03628977,0.0026021511,0.010690475,-0.005013829,-0.020507514,0.008250212,0.03709136,0.03266585,0.056684718,0.04270245,-0.05223018,-0.0112260785,0.0434289,-0.035505082,-0.012323126,0.014862104,-0.014539432,0.034152173,0.00061860355,-0.049777098,-0.048879825,-0.044720642,-0.00076282956,0.011317283,-0.042474613,0.02587122,-0.01883089,0.010853873,0.04878476,0.034934223,-0.019282024,-0.022665272,0.03489068,0.061140895,-0.016694125,-0.011566114,-0.03612306,-0.055070817,0.012389153,-0.034262076,-0.055748004,-0.022544116,-0.04526546,-0.05220873,0.05863359,0.008026811,-0.05154249,0.03304463,-0.0007477645,-0.034947947,-0.03536521,-0.0046799667,0.00655084,0.013080595,-0.06350125,-0.016395118,-0.041109122,-0.015047714,0.02733235,0.029201012,0.009280713,0.015577158,0.013774529,-0.054762956,0.014494459,0.058579974,0.026739417,0.057765566,-0.03742416,-0.057581507,0.06168336,-0.02734805,0.027507398,0.05295135,-0.033033587,-0.016100775,0.027247986,-0.02576109,-0.012853768,-0.002181599,-0.038555246,0.028765738,-0.043115646,0.03557621,0.048326783,0.01967161,0.0054994663,0.026152575,-0.03193412,0.021204956,0.029577617,-0.059805095,0.004837163,-0.021510325,0.046542495,0.06662908,-0.04117927,-0.016700959,0.045290146,-0.040936194,0.05443471,0.05103629,-0.00026633142,-0.0126346415,0.025916401,-0.051891632,0.03886612,-0.021791656,0.009736452,-0.032442622,-0.039129425,0.024663817,-0.04108862,0.035172053,-0.01675446,0.010443401,-0.013162924,-0.04141724,-0.025357526,0.061633952,-0.036737077,-0.05168494,-0.054183103,-0.016126731,-0.030270744,-0.042498168,-0.017783806,-0.051935047,0.0061994204,0.06210486,-0.042096455,-0.01181289,0.025803316,0.0719652,0.047301076,0.005050281,0.002694244,-0.0376589,0.04588989,0.01016722,-0.006956195,-0.017074378,-0.014220266,0.009151837,-0.024669917,-0.038841337,-0.008959802,-0.010039699,0.04664308,-0.03007533,0.036376692,-0.016793728,-0.028191715,0.041634142,0.040006883,0.04185196,-0.016446717,0.030805128,0.017987369,-0.044339307,0.025164792,0.026012782,0.013903512,0.020188209,0.0069708666,-0.016333804,0.03458159,-0.02744709,0.04948529,-0.020160247,0.05197502,0.04784985,-0.04345642,-0.00858778,0.01719265,-0.046689466,0.027081462,-0.04467129,0.058983404,-0.015513762,0.021933569,-0.009538852,-0.005087978,0.032189988,0.055342097,-0.0022779095,0.00024939462,-0.018185351,-0.011679412,-0.028504986,0.022714619,-0.011990113,0.02492823,-0.03744366,0.059819326,-0.013633284,0.03829611,0.033512827,0.05391506,-0.006207008,-0.050270624,0.0493391,0.019482281,2.937104e-05,0.029528707,0.016955804,0.046464704,-0.043957897,-0.053963527,-0.034804728,-0.005068722,-0.019448854,-0.044887275,0.04909248,-0.008703357,0.06424637,0.005348271,0.059660085,0.066222355,-0.01089843,-0.033459783,0.008208238,0.03820079,0.05485928,0.02610292,-0.024027381,-0.052367467,-0.010276504,-0.04022041,0.019248746,-0.054385282,-0.03736413,-0.012211179,-0.040844187,-0.011343539,0.026395798,0.012020236,-0.052108295,-0.043383628,0.05105253,-0.016710054,-0.0071847327,-0.017897593,-0.04846516,-0.06115485,-0.049777385,0.028500626,0.06386763,0.024839018,-0.013470348,0.06836403,0.01300423,-0.027930709,0.036006123,0.005431289,-0.02124741,-0.050081816,0.035957485,-0.017790906,-0.00085283024,-0.055004336,-0.05855477,-0.033890348,-0.02748164,0.04646016,0.006986905,-0.05043948,0.0017461865,0.0602591,0.005947029,-0.020041246,0.035277903,-0.03551361,0.0352669,-0.031131491,0.015891442,0.009240553,0.04320769,-0.023746641,-0.038037494,-0.052052706,0.048012182,0.041384056,-0.01637955,0.016534157,-0.017203405,0.013035415,0.049766205,0.056157272,-0.00764159,-0.02079553,0.044555783,-0.05265314,0.0038787876,-0.03779173,-0.030653799,-0.05075013,-0.057063244,0.0061413487,-0.0026806581,-0.058222305,-0.047398247,-0.044142596,0.051122196,0.028469365,-0.053500682,0.0437619,0.036644302,-0.04158801,-0.010303934,-0.034989834,-0.03351074,0.0559463,-0.01634502,-0.0009496643,0.022940155,0.01716222,-0.031672224,-0.04296048,0.036630906,-0.017888566,0.042983457,0.04969179,-0.013486353,-0.021935076,0.018920636,0.05986935,-0.049398597,-0.017918598,0.0070728213,0.0038575584,-0.005055289,-0.0018755746,-0.0003294408,-0.041189227,-0.043017916,-0.0047455654,0.018033113,-0.022291608,-0.038275912,-0.033290707,0.055623733,-0.014831697,0.04953204,0.023498423,-0.009438081,0.07854639,-0.027883705,-0.028907161,-0.04346912,0.048631355,-0.020294638,0.053602166,0.021029543,-0.011616482,0.017411992,0.008952072,-0.023865834,0.06655552,0.033752363,-0.057618737,0.018918993,-0.061964612,0.0022865613,0.01354702,0.05418816,0.038439862,0.0017086708,-0.04230811,-0.018688831,0.025027722,-0.0066302465,0.027930476,-0.03140799,0.046036024,0.015074918,-0.01149057,0.041200772,-0.03590049,-0.0336807,0.0043044756,-0.031803586,-0.009803617,0.02823205,0.023277469,0.039491203,0.034521565,0.01318671,-0.041310653,0.03891217,-0.043063305,-0.025310196,0.027603673,-0.021319415,-0.015378136,-0.024124218,-0.031213403,-0.014807847,-0.0006829157,0.022287257,-0.029510904,0.020764317,0.032848135,-0.005523001,-0.0007504892,-0.052505247,-0.023679573,0.024347436,0.039424025,0.051833183,-0.03416218,-0.009547058,-0.03597175,-0.052174658,-0.006257737,0.003202511,-0.037943915,0.027293386,-0.054453067,-0.035100512,0.06500612,0.0043947785,0.0051734867,0.021967562,-0.016774252,-0.015247783,-0.044655442,-0.058766797,-0.046376966,-0.055648476,-0.015909672,-0.025763866,0.04304602,0.034100264,0.0033784101,0.0007277658,0.048934847,-0.03038062,-0.060865737,-0.059122223,-0.02753453,0.027298875,-0.00055032293,-0.0048122965,-0.027025353,0.05503203,-0.012595177,0.050692476,0.045326397,-0.010030599,-0.029351883,0.03214124,0.03518085,-0.023251817,0.03385309,-0.010778477,0.0027926574,-0.011173356,-0.027150175,-0.0053146277,0.025101906,-0.03674779,0.056383066,0.069534644,-0.04322899,0.010747068,0.04915397,0.05025737,-0.03549893,-0.04284984,-0.029985027,-0.051007733,0.018767634,-0.013300529,0.03184367,0.0344062,-0.05009912,0.059791476,-0.00088610663,-0.004376781,-0.034432787,-0.008680411,0.028140526,-0.061781242,0.04592469,-0.0031804894,0.02967401,-0.05227394,0.06378703,-0.0222078,-0.030158106,0.0038157534,-0.015713364,-0.048796937,0.023568768,0.0674937,-0.02212719,-0.006420591,-0.008816676,0.050521202,0.0010771945,0.0108068995,-0.01298547,-0.021560673,-0.0109099075,0.067608796,0.018858848,0.0061524156,0.0034049419,-0.053185895,0.04416755,-0.060633257,0.004293906,-0.05640088,0.053279947,-0.06015607,0.022466358,-0.008752419,1.2327155e-05,0.021758348,0.033776633,0.0024587675,-0.063420385,-0.04492647,0.04432562,0.045411114,-0.04952552,-0.055149015,0.03872833,0.008396391,-0.06613465,-0.03293559,-0.011222774,0.016197715,0.056609154,-0.03597404,-0.039649248,0.03794251,-0.01180956,0.074208245,-0.027372185,-0.04540377,0.06195887,-0.021229144,0.010719087,0.048201874,0.015217682,0.04036038,-0.050376713,0.03916151,-0.055998385,0.03387857,-0.05425041,0.06929995,0.050515406,-0.03604774,-0.025291683,-0.038499616,0.014358999,0.018309275,0.03549198,-0.049936045,-0.020976063,-0.01884183,-0.04254396,0.0049501425,0.042590436,0.04594702,0.045471735,-0.053946286,-0.019080423,-0.05769511,0.06762816,0.05253245,0.056768257,0.03994126,0.027059725,0.016109994,0.06237437,-0.008135118,-0.06099441,0.053855576,-0.009287705,0.009159857,0.04060775,-0.044746995,-0.02976076,0.052540667,0.056406867,0.041543186,0.012520811,-0.02691904,-0.066306695,-0.03021957,0.010475078,0.014708422,-0.024420211,-0.018915989,0.032283664,0.046239197,0.060049683,-0.019476261,0.045609206,0.007914828,0.028989851,0.004510304,0.043568216,0.038562395,0.057212062,-0.01463899,-0.007791863,-0.025853345,0.016374456,0.012456905,0.032313794,-0.059303403,0.004932546,0.02822898,0.015795115,-0.048585195,-0.06977216,0.026693413,0.02440436,0.058778904,-0.039276093,0.040254805,0.0092787715,0.042747486,0.04708051,0.009835293,-0.016822472,-0.04177817,-0.053052858,0.035126448,0.03397329,0.027073197,0.045751177,-0.0068078553,0.02969496,-0.0024297019,-0.001762358,-0.026093135,-0.0169936,0.017274272,-0.022181436,0.0019162293,-0.050701886,-0.026406297,-0.03915134,0.07063341,-0.022913538,-0.030460173,0.005235511,-0.037818387,0.012303455,-0.013367719,0.05937689,-0.014351268,0.045110457,-0.0003414998,-0.0004967789,0.040802673,-0.05530887,-0.012824143,-0.056971647,0.009349324,0.041757032,0.070925206,-0.02247589,0.021548841,-0.03855541,0.0015686741,-0.0193392,0.010291563,-0.006810828,-0.03174873,-0.040040422,-0.038797192,0.022299116,0.016102964,-0.0074894372,0.052458003,0.049448207,-0.056114107,0.042651437,-0.043558046,0.025663527,-0.006236996,-0.03783553,0.0031511546,-0.029901098,-0.04966733,0.02459677,0.028952057,0.056800857,-0.005669722,0.05926642,-0.010159388,0.026616458,0.013963865,-0.006638434,0.046526607,-9.966782e-05,-0.04384754,-0.00024053463,-0.013850059,0.0007273746,0.053727984,-0.05306527,-0.051440127,0.025766885,0.00071887264,-0.039923184,0.044908024,0.035723418,-0.028621966,-0.029003114,-0.035363454,0.0268482,0.0007964206,0.046353955,0.04737036,0.01598822,0.016843833,-0.02038902,-0.02946993,-0.02066548,0.007553296,0.042189814,-0.052376546,-0.02677996,-0.012130056,-0.015805196,0.055582806,-0.041573793,-0.013838058,-0.021739371,-0.009521886,0.04899523,-0.054500423,0.037902668,-0.030634802,0.03317449,-0.010768339,-0.036447242,-0.05085075,-0.0065500657,0.031423137,0.023939004,0.013253007,-0.008671214,-0.0024583947,0.024439448,0.026281456,-0.02694618,0.02033294,-0.025099378,-0.036092453,0.028878221,0.047876287,0.026617676,0.023801297,-0.04829593,-0.002352606,0.042411424,0.03061745,0.017784167,0.047553457,0.009479488,0.014323271,-0.028904282,0.040617533,0.048387833,0.02773786,0.021927264,-0.026917275,0.054220807,0.051766783,-0.050576985,0.014394559,-0.026361944,-0.04810846,-0.04401952,0.042082235,0.045806274,0.04619233,-0.021303821,0.020532291,0.04301077,-0.023787834,-0.0060705226,0.03421638,-0.03414531,-0.036214165,0.042483553,-0.02894311,0.04822278,-0.014554387,-0.020288557,-0.05445253,0.007554327,-0.048353255,-0.01869442,-0.034489304,0.051682048,0.024846587,-0.024045905,0.049385205,-0.03304527,0.03554964,0.005956821,-0.056932047,-0.020075828,-0.060927466,-0.04982331,-0.008526882,-0.018412128,-0.042487096,0.02734549,-0.026573393,-0.008588061,0.01974404,-0.03218975,-0.056641705,0.055139218,-0.04925111,0.02087238,0.058955163,-0.032233514,0.024761446,-0.007071608,0.025967538,0.013876122,0.053729903,0.024815824,-0.0432023,0.0074447584,-0.038511034,0.00658452,0.04172378,0.019482788,0.03832891,0.06175163,0.0065630577,0.02611997,0.03334284,0.044470247,-0.05193447,-0.057132527,0.025795672,0.03521306,-0.00780617,0.039263487,0.04066386,-0.030029599,-0.03247349,-0.04364773,-0.020901535,-0.007228786,-0.05475258,0.0019098143,-0.017589297,-0.0013252863,0.06563178,-0.035078853,0.051977493,-0.038490318,0.01395664,-0.016402239,0.054201398,-0.015584391,-0.05164807,-0.013462604,-0.008544814,0.022561437,0.010458575,-0.057864904,-0.026817229,0.020043291,0.03565414,0.020464588,0.01798564,0.055173576,0.05904131,0.0009087698,-0.025211396,0.015857846,-0.03822533,-0.029431492,-0.030833887,-0.042782947,-0.010229968,0.010867609,0.03073319,-0.04985687,0.036721826,0.023063043,-0.04754699,-0.004932716,0.055827774,-0.011415595,0.062334545,0.07016659,0.051902607,0.04919883,-0.0034594685,0.013141448,0.054940876,0.05464472,0.025406323,0.037597727,-0.05451458,0.00010341505,-0.04354856,0.011401843,-0.040578324,-0.023137983,0.0075557847,0.0112062525,0.05796343,-0.023431916,0.018754832,-0.04924375,-0.02506956,-0.026579978,-0.035879,-0.0007940443,-0.059492107,0.0025347825,-0.049964488,-0.016325612,0.05623246,-0.0039092773,0.034195222,-0.0100968005,0.021260161,-0.025392968,-0.033466533,0.040436234,-0.02736143,0.017204076,-0.04519947,-0.027094975,0.027511466,-0.019197268,-0.024062037,-0.02534278,0.059102625,-0.036348633,0.052953273,-0.0027157278,-0.001554691,0.035087764,0.0044085747,-0.0021237705,-0.032456383,-0.056120075,-0.022410719,0.041830897,0.011947308,-0.014661171,0.008934048,0.043963753,-0.057308048,-0.02712594,-0.037183348,0.04724066,0.04940658,0.021667663,-0.0567808,0.016512375,0.048285473,0.033529643,-0.026298972,-0.046025738,0.01094388,-0.025933102,0.04201728,-0.016575657,0.023239927,-0.0198479,0.019599155,0.007032943,-0.050837398,-0.017027617,0.018111384,-0.031114073,-0.016830975,-0.049972333,-0.03148655,-0.005820622,-0.031544395,-0.061142392,0.016119316,0.022349747,-0.048580512,0.0049671484,0.051883608,0.050172932,-0.044042073,-0.014643806,-0.054881867,0.006816188,-0.049006097,-0.04492417,-0.057274155,0.015554272,-0.025597954,0.0065253214,-0.049995974,-0.049872532,0.028882379,-0.0242737,0.026028179,-0.026362725,0.048746638,0.019538019,0.014540365,-0.05761355,-0.032630265,0.041215297,-0.014127633,0.020074446,-0.0409763,0.055816714,0.023262184,-0.03876637,-0.01772384,-0.0020113634,0.011274771,0.042337492,0.04664912,0.005091725,-0.06482581,0.037998877,0.033472836,0.0430001,0.0132797565,-0.017061576,-0.06680935,-0.025128283,0.041296832,-0.034057498,0.051699676,-0.006046517,-0.04720939,0.048917435,0.003203989,-0.013894477,-0.019270362,0.048058532,-0.0467175,0.04756113,-0.058930404,-0.0031698288,0.009441755,-0.00750322,0.03914195,-0.045474343,0.02844477,-0.049717676,0.04672702,-0.035216663,0.049744844,-0.034050036,-0.0039571007,-0.059878495,0.031034317,-0.011968175,-0.052042462,-0.0064569693,0.056946598,-0.037923563,-0.057100464,0.029399052,0.011057984,-0.021611098,-0.020607954,0.043545045,0.04287677,0.040477768,0.008103632,0.01108264,-0.04620527,-0.015378808,-0.008977674,0.03916496,-0.05621455,0.021975588,-0.004902538,-0.055025093,-0.05896249,-0.016777437,-0.05079654,0.027668769,0.05319022,-0.029996775,0.060144827,0.0058434345,-0.06596258,0.013429832,-0.04584481,0.06377429,0.009692417,0.0011398249,-0.034104332,-0.04769125,0.05865146,-0.031203602,0.040747307,-0.019553877,0.060823616,0.029970985,0.020120366,-0.061948724,0.056421984,-0.008214885,-0.018194161,-0.012406597,0.026590444,0.0154350195,-0.060649052,-0.04975214,-0.033595867,-0.035098493,0.01764474,0.046939667,-0.026410073,0.040428273,0.030039959,-0.04445243,-0.040885054,-0.015974853,0.04072343,0.048410248,0.010222919,-0.012899944,0.0056471527,0.03903635,-0.051358346,-0.059195574,0.01987575,-0.043179713,0.016942777,-0.023096412,-0.044881124,0.019959431,-0.061183758,-0.06029393,-0.00033904205,-0.017829701,0.046029165,-0.009623619,-0.031021016,-0.0064988607,-0.059112117,0.010727562,-0.01817439,-0.056616988,0.044659756,-0.05269072,-0.046367824,-0.023829123,-0.04625208,0.014785507,0.0023740162,-0.04266511,-0.026754532,-0.021411594,-0.045219257,0.017208371,-0.027696274,-0.062424142,0.03507187,-0.027924325,-0.029421898,-0.0076899715,0.057342637,0.04421469,-0.065287635,-0.04391417,-0.03548801,-0.03364998,0.027385145,-0.049063098,0.00183753,-0.024965107,0.028341029,0.04589054,0.032631576,0.05100116,0.06408557,-0.011389349,-0.012371514,-0.033871807,-0.035617918,-0.03369476,0.021124084,0.026209736,-0.028814338,0.001339693,-0.031694055,0.027546808,0.031361505,-0.041822873,0.017452858,0.011649808,0.03409729,-0.038694523,0.028189477,0.041402005,0.028684339,0.028237764,0.051622756,-0.017346276,-0.017405441,-0.015623381,0.025512777,0.015998458,-0.027120534,0.017184302,0.047062606,0.014351357,0.023722626,0.009089142,-0.026155652,-0.03188397,-0.0170452,0.039162345,0.0042192475,-0.030445747,0.03918381,0.009848392,-0.033723306,-0.00094240345,0.0173297,0.035538837,-0.020454612,-0.051194735,0.0154328775,0.059449047,0.04527697,0.020735484,-0.0170774,0.038509823,0.04590911,0.005245102,0.03773263,0.026054509,0.057993643,-0.036353733,0.009411776,-0.01657088,-0.05181822,0.039552584,0.05891061,-0.01710488,0.03204947,0.0019380078,0.047148503,0.02344504,0.018050399,-0.013869254,-0.00094100775,-0.04524394,-0.036293827,0.058750063,-0.026669104,0.020343762,0.043065965,0.049073093,0.016441297,0.018086642,-0.023909893,0.059822887,0.0028999269,0.028413933,0.027521934,0.062885694,-0.0050610015,-0.042255156,0.007629187,0.0115813995,-0.051073566,0.058174845,0.008569267,0.017955158,-0.0035395045,0.052759692,0.019406807,0.014241366,-0.046770208,0.012057072,-0.014981413,-0.00018370789,-0.031519108,0.060702097,-0.038922098,-0.036028706,0.044893786,0.007348217,0.025251502,0.025870875,-0.012679173,-0.021560958,-0.047058042,0.05946427,-0.0249109,-0.031938978,-0.024120465,-0.017440597,-0.0069723586,0.010546265,-0.02518233,-0.054178312,0.009845115,0.032099433,0.056197032,-0.041191734,-0.026149878,0.045279358,0.05709953,0.011691758,-0.03354713,-0.0036658146,0.008519426,0.04561123,0.036183767,0.007101301,-0.01010292,-0.061458927,0.028054422,0.057551265,-0.045057163,-0.01334756,-0.052973695,0.04000435,0.028164102,-0.03982455,-0.037549734,-0.0029798592,0.023142917,0.007514024,0.027153537,-0.042474084,0.014702743,-0.026336357,-0.0160052,0.022096206,0.025151677,-0.044201702,0.013433261,-0.0362124,0.044809807,-0.04670787,0.019979123,0.02300591,0.010016203,0.046364937,0.0617403,-0.056354374,-0.033340696,-0.027534481,-0.05714775,0.028697815,0.03040259,0.003081265,-0.02986282,0.023834765,-0.03079962,-0.008316219,0.024120037,-0.00068808824,0.044802815,0.011902431,0.033732384,0.031985853,0.037633657,0.0011959742,-0.0048223576,-0.045601048,-0.058016717,0.05766973,0.028242622,-0.016673174,-0.058552735,0.057315692,0.047318533,-0.056950282,-0.046226513,0.051696364,-0.005557498,-0.032013204,0.043121137,0.0027894264,-0.030253384,0.04357873,0.054082092,0.018850205,-0.036014445,-0.049110226,0.02422878,-0.015234371,0.0055280775,0.0027807385,-0.017657988,-0.019698447,-0.03363578,-0.046478264,0.03315767,-0.0481254,-0.0315255,-0.049065553,-0.036614016,0.010816479,-0.037400845,0.058994863,0.052621678,0.00012778309,0.04609083,-0.03748112,-0.024000209,-0.022877501,0.0424593,0.026376978,0.020834826,0.06039366,-0.027405716,-0.050987974,-0.010166311,-0.017037656,-0.034137435,0.04220199,-0.020909566,-0.023313649,0.008188517,-0.02094109,0.043526057,0.008963453,0.0188228,0.03707712,0.06859206,0.049425818,0.008758752,0.009879947,-0.047257923,-0.0210101,-0.034797013,-0.038146198,-0.03278307,-0.000499955,0.041139908,-0.035970256,-0.015666656,-0.041440606,-0.025902595,0.05033007,-0.054765686,0.049108177,-0.026865931,-0.020032927,-0.049374536,-0.017267892,0.035169058,0.01645216,-0.06000922,0.0075979773,-0.026393957,0.062441677,0.013139774,0.013106556,0.037545662,0.02341108,-0.040443957,-0.04503332,-0.03793996,0.034843814,-0.00068049924,-0.06652789,0.023741104,0.019792307,-0.005105027,0.044826977,0.04306093,-0.053140424,0.034815118,-0.052478503,0.059277043,0.049818695,-0.011735692,0.027320717,-0.042916752,0.056383733,-0.030664697,0.021954639,0.045437526,0.06472681,-0.03975735,0.058158427,0.0008582654,-0.019095754,-0.014141792,-0.018434323,0.04202649,-0.037980005,-0.023864288,0.055853628,-0.03309782,0.0674716,0.028038345,0.02955822,0.0060754833,-0.029787974,0.037854977,0.051461466,0.010275797,0.030346127,0.029035356,0.023168877,-0.0074685575,-0.01057442,-0.05926898,0.0138575025,-0.029356807,0.007470724,0.011898173,-0.030803159,-0.020408683,-0.023278125,-0.03345818,0.017790329,0.05306711,-0.0017951407,0.05447039,-0.06196814,0.009164097,0.017903628,-0.04556807,-0.010481375,0.017486755,-0.04759845,-0.054621883,0.005800549,0.05747454,-0.009774893,-0.061914593,-0.010969744,-0.043032814,0.04601617,0.03715563,0.04200361,-0.0135400295,-0.05324669,0.027218994,-0.02459022,-0.05949731,0.053980604,0.058654204,0.013002787,0.05584364,0.0052494397,0.06318082,-0.019062908,0.044458494,-0.04404661,-0.048804,-0.04092476,0.021063332,0.05046798,-0.04120717,0.059016623,-0.042727143,-0.032194126,-0.043721046,-0.059601467,-0.04700485,-0.036487482,0.038671758,-0.0016516426,-0.059617803,-0.014878973,-0.033580124,-0.058350727,0.05257658,0.049613267,0.00073946,-0.057976674,0.031237088,-0.056889243,0.058527075,-0.052031294,-0.059010047,-0.023170382,0.045456327,0.05690307,-0.043098986,-0.009913174,0.013193369,-0.058303434,-0.043585673,-0.04082361,-0.015638478,-0.058888294,-0.017825011,0.015766378,-0.016755002,0.04349824,-0.0033493678,-0.018092006,-0.026842229,0.031248987,-0.009279868,-0.05984317,0.030367956,0.01823325,-0.00620055,0.03819242,-0.014736775,0.036193185,-0.017468687,0.04860992,-0.020441297,-0.0574414,-0.041706752,-0.026383566,0.0069806604,-0.059977025,-0.026187666,0.043051235,0.041036025,0.009509172,-0.05833683,0.03818077,-0.057473786,0.027593577,-0.030970672,-0.043112658,0.02362094,-0.011240734,-0.05332817,-0.02390984,-0.040353283,-0.016860563,-0.0577376,0.031159936,0.018052392,-0.006374708,-0.0060359547,0.0058938316,0.05482368,-0.002015138,-0.051414393,0.03476972,0.043777507,-0.033567764,-0.052217595,-0.038662903,0.046562314,-0.03839168,-0.040763453,-0.002366494,-0.020621642,0.058305103,-0.054331064,-0.057186197,-0.052832857,0.05984004,-0.04711324,-0.0036766,-0.048210334,-0.008303774,-0.01812271,0.041645966,0.0061341217,-0.039528176,-0.057374775,-0.021048788,0.027208272,0.0033309595,-0.03298034,-0.03853482,-0.017385416,0.024915177,0.04167478,0.05552326,0.03193755,-0.029678185,0.025145983,0.0022025807,0.045469407,-0.023328455,-0.061912384,-0.0538472,0.011623776,0.046859577,0.03827394,-0.037104562,-0.059584603,0.043011416,-0.020496821,0.038462095,0.057911992,0.0063013984,-0.024094433,-0.017628899,0.010235913,0.010021617,0.03424255,0.053632237,0.048164338,-0.05193358,-0.025455445,-0.019884534,0.042659037,-0.0055046724,-0.0011235594,-0.009898724,0.030706706,0.025886416,-0.02864734,0.005881333,0.048063952,-0.045279764,-0.04035589,0.045299098,-0.03776791,0.025778493,-0.014054801,-0.06259742,-0.019084334,0.018023562,-0.015811604,-0.023399858,0.033920676,0.018420324,0.053137437,0.0048648305,-0.011144139,0.007888007,0.030473972,0.041053817,0.051580586,-0.023631416,0.0023990283,-0.03473656,0.037662454,0.00062204816,0.031998217,-0.014425332,0.040450256,0.023937404,0.04715097,0.031426936,0.015226947,-0.022590533,0.043122493,0.025922853,0.029497713,0.05953213,0.0063573997,0.06058152,-0.02136983,0.04313875,-0.0023124104,0.04801626,0.00067068497,0.048285082,0.0066173864,0.049070776,-0.027464163,0.053440936,0.044574626,0.009609792,0.026071692,-0.018405158,-0.048450734,-0.050870925,-0.04739206,-0.0035729809,0.035009153,-0.04332436,0.020902652,0.06143212,-0.052429415,-0.06081997,0.032505985,0.034117527,-0.039608445,0.01237262,0.027816754,0.0080058705,-0.014069261,-0.010728746,0.055231802,-0.01784965,0.027535118,0.0459137,0.012114238,-0.04193346,0.040370457,-0.04438959,-0.05630541,-0.043787442,-0.011573642,0.0386258,-0.058968738,-0.01752171,-0.009244241,-0.058602598,0.01151121,-0.0406858,0.024851587,0.04938844,0.010090809,-0.0034383147,0.04228255,0.0002630934,-0.007857196,-0.05377295,0.03548207,-0.0038432854,0.008300977,-0.04169423,0.06530206,0.03813655,-0.032466788,-0.0011611518,0.047107175,0.043044157,0.015466457,0.013065845,0.051362738,-0.017909441,-0.046272468,0.052663043,-0.03745196,0.019023081,0.061807442,-0.01795209,0.0048641954,0.018749168,0.057521544,0.016849907,0.012254042,-0.019124031,0.036274128,-0.05968238,0.032718558,-0.021432275,0.04552284,0.042153317,0.009343177,-0.013488812,0.024630174,-0.058655895,0.04467904,-0.030987777,0.058815517,0.027185466,-0.023993168,-0.045264885,-0.027172733,-0.054486036,-0.023699887,0.05275628,-0.017006347,-0.012439076,-0.034558497,0.052715093,0.015583213,-0.046302184,-0.0028084598,0.03359189,-0.043155655,0.026499812,0.04022333,0.04053115,-0.0356426,0.03180321,-0.0118421,0.022406286,0.056002364,-0.040471382,0.023486957,-0.021604273,0.007590639,-0.056370452,0.005499983,-0.048657864,0.02385607,0.04679104,-0.039928272,0.021633986,0.06493326,0.054968975,0.05710762,0.050281174,0.058035225,0.02173546,-0.029397815,0.008183129,-0.052766323,0.018577231,0.01611561,-0.008055687,-0.021054355,-0.037697934,-0.028767344,-0.05293517,-0.057174385,0.04982155,0.01493474,0.051845007,-0.060971804,-0.05537209,-0.021112189,0.060817666,-0.027566109,0.033087634,0.039974447,-0.039351426,0.03726518,-0.02470123,0.044474166,-0.021623744,0.012408769,0.04555481,0.0059710667,0.0549595,-0.02223941,0.023423072,-0.023916276,-0.03243426,-0.013398707,0.052243486,-0.053673256,-0.025119593,-0.009033358,-0.039087527,0.057316594,-0.04416839,0.06065412,0.0013242726,-0.04848516,-0.060414776,0.019861672,-0.008197753,0.039032575,-0.014371226,-0.0062173875,0.050270766,-0.0155928815,-0.05029431,-0.0048257085,-0.03342449,0.020152548,0.04754094,-0.01551819,-0.0014448196,0.0087024355,-0.053962745,-0.057446912,0.0022245827,0.01569192,-0.04699246,0.018096624,-0.0057416214,-0.050073218,-0.05618419,-0.0011368513,-0.05927881,0.059467565,0.015505742,0.054698847,0.027552946,0.06572603,0.037997134,-0.053089775,-0.05633349,0.0100884205,-0.010645911,-0.015395344,-0.040784575,0.056189418,-0.0062078456,0.0076868646,0.005743688,0.019498117,0.058435082,0.01521788,-0.02310134,0.015191978,-0.034244023,0.007790436,-0.053721715,0.061856285,0.04721204,0.04038967,0.044235945,0.015990295,0.06097733,0.010053897,-0.0105569335,-0.043042466,-0.023969132,-0.05075062,0.033341236,-0.042804062,-0.036361374,0.03849919,-0.020701762,0.055902496,0.04507093,0.0101937745,-0.013708616,0.0039491206,-0.040030234,-0.047162447,0.014371177,-0.054888222,0.047390543,0.041171223,0.05682572,-0.021053862,0.043430816,0.01944355,0.036102995,0.05001545,0.04696747,-0.0005521794,-0.028778272,0.036139667,0.042071924,0.051772386,-0.027378485,-0.04419548,-0.051358633,-0.027928948,0.030563876,0.034559168,-0.019612823,-0.018343896,-0.04531934,0.05306858,0.02124884,0.032511264,-0.029779753,-0.03944233,-0.03183087,-0.011207631,0.047739908,0.05991095,0.033793025,0.0504632,0.053179465,-0.016287249,0.05571572,-0.0003353313,0.023481816,0.023222405,-0.0056364904,-0.011143723,0.049487107,0.019429732,-0.043688327,0.053805146,-0.01096838,-0.03405372,-0.02069947,0.03113517,0.0072963517,-0.029444203,-0.035991866,0.017301792,-0.022026274,-0.0149973575,0.023963392,0.06789834,0.010440676,0.009850675,0.022683728,-0.040355165,0.025801495,0.037655383,0.035148326,-0.009877358,0.03843956,-0.05094563,0.05257931,-0.008728523,0.03610453,-0.031346165,-0.040807918,0.02319671,-0.041664436,0.044707935,-0.030832686,-0.04309973,-0.061308,-0.039298113,0.0032318127,-0.0072482657,-0.026634695,-0.04843416,0.004044664,-0.06097051,0.025909787,-0.04194986,-0.042953424,0.03742698,-0.036911536,-0.0339949,0.028977282,0.050012242,0.0146168135,0.05423666,0.03378257,-0.013333321,0.039935134,0.0132412985,-0.0112885805,-0.031629723,-0.054982997,0.059072446,0.041175306,0.022236384,0.04942696,-0.0075164977,0.05402141,0.06588519,-0.0282401,0.05398657,-0.0336065,-0.04439929,-0.01589939,-0.004503525,0.0557812,0.017399188,0.031433877,-0.062183037,0.038175307,0.033560194,0.0006462616,-0.05148218,-0.008874888,0.02760731,-0.0026146139,0.015577334,0.03691592,0.012625528,0.012595982,0.07229153,-0.049074307,-0.027788624,0.029606778,0.037732173,-0.022507085,-0.03994312,0.022159494,0.016992971,-0.019004121,0.03772639,-0.046687722,0.059485473,-0.041036114,-0.031119775,-0.0014438191,-0.047767162,0.032838672,0.009578198,-0.051407516,0.0547724,-0.054578014,-0.014502434,-0.0021983106,0.0012092857,0.0026275422,-0.026600879,0.012943238,0.04577355,-0.053682707,0.04377789,-0.012222277,-0.00032641963,0.025760978,0.031968076,0.035487987,-0.0072275354,0.039231792,0.010580192,-0.032263212,0.011377694,0.049232505,0.027233101,-0.027095519,-0.02042916,-0.0035188003,0.007969401,0.00919906,0.05921042,0.03912723,0.04242676,0.049582735,-0.01041132,0.05703534,-0.0059282384,-0.05409894,0.03157879,0.025166098,0.020644557,-0.0073909555,-0.05791924,-0.060616747,0.053765666,-0.028807793,0.049016416,-0.009725111,-0.055568483,0.017659483,-0.043257926,0.019159762,-0.0584887,-0.062495418,-0.0027283404,0.03206063,-0.018525172,-0.0018861194,-0.025795773,0.049938705,0.044391032,-0.041916914,-0.01993525,-0.037283927,-0.00050418533,-0.046359524,-0.0073719323,0.054793637,-0.015923604,0.03411258,0.0350099,0.012107951,-0.06553257,-0.037861783,0.028900675,-0.018982537,-0.050272852,0.03091549,0.024114382,0.04347515,0.026156127,-0.008459409,-0.012445835,0.057429858,0.004044502,-0.04051709,-0.010407813,0.02718744,-0.034869794,0.033082366,-0.017390989,-0.052053712,-0.025220225,0.05284471,-0.021397043,-0.050985083,0.03619855,-0.0048583727,-0.05411961,-0.052454494,-0.058004998,0.017852742,0.03281454,0.01374913,-0.009007215,-0.0029508658,-0.024785038,0.034404352,-0.017014889,0.045150496,0.057751387,0.0074318843,-0.025713246,0.039722383,0.0064269267,-0.003167483,-0.049738295,-0.024288084,0.016077269,0.021387883,0.053646646,0.030771412,0.02800588,-0.023695368,0.037860982,-0.03735348,-0.03209959,-0.034175143,-0.035469294,0.045552056,0.002247464,-0.052488163,-0.0059921453,0.020632345,0.016927222,0.0057069426,-0.03488361,-0.042581044,-0.027485859,0.0048098518,0.048941985,0.05758343,-0.03652318,-0.009180412,0.0325651,0.05661264,-0.044202972,-0.028149888,-0.033047058,0.012363242,-0.012230351,0.014654782,0.030281017,-0.028067987,0.051461905,0.04642395,0.06295246,0.05670566,0.0029225629,-0.005311016,0.05966547,-0.015136102,0.053367384,0.008814206,0.033962954,0.022629302,0.007331364,0.016259994,0.026889127,-0.035412773,0.007304798,-0.043892037,-0.06270908,-0.011233004,0.05068995,0.04448789,-0.020098405,-0.0047431486,-0.0023134728,-0.0054257,0.053788714,-0.04075194,-0.013867857,0.014001178,-0.036193054,0.0026216751,-0.009798892,0.0473174,-0.052822903,-0.040887333,0.049295582,-0.028705942,0.030430924,-0.03830841,-0.01760834,-0.02184511,-0.06250746,0.024239425,0.044866964,0.017883567,-0.04607371,0.033987775,0.058414698,-0.05093359,0.007485222,0.017893534,-0.052971687,-0.03596159,0.05041366,-0.009564412,-0.053698294,0.007943859,-0.0025009392,-0.06101171,0.010213455,0.011571871,-0.047596946,0.005897185,-0.03804082,-0.03332627,-0.025299052,0.018200133,-0.053473257,0.041416302,-0.024143573,-0.029591624,-0.0021106608,0.04807165,-0.04290444,0.023222461,0.021217301,0.042227887,-0.0025419868,0.032405235,0.026860451,-0.038396128,-0.006836911,-0.03378759,0.0030348226,-0.00029032782,0.03277781,0.019289045,-0.03440116,-0.043951243,-0.0027865898,0.046605803,-0.050979584,-0.0021356223,-0.056946874,0.051904272,0.026434137,-0.0062320214,-0.018039208,-0.0009800356,0.012435719,0.0633025,0.02816196,0.038185425,0.030160964,0.06139037,0.0583791,-0.03385544,-0.025080368,-0.041083027,-0.044575274,-0.063216716,0.013895864,0.010883752,0.005317714,0.016796589,0.04201737,-0.036240254,-0.04061126,-0.03477313,0.015748732,0.014073184,0.05980969,0.008337985,-0.03461388,0.006709611,-0.052228987,0.021667287,-0.035605483,0.019311773,-0.0031143548,0.020798642,0.034984753,0.011518733,0.033912133,-0.02560642,-0.04961481,0.024709884,-0.004465596,0.027117632,0.059832282,0.024574019,0.039697193,0.035457183,0.049644865,0.045574524,0.02133106,-0.036976747,-0.063848056,-0.06444236,0.01706149,0.018102087,0.04222584,-0.048669618,-0.054502454,0.06505352,-0.009897826,-0.047200747,-0.029834636,-0.0492327,0.020395724,0.01819412,-0.0092836,-0.0023786628,-0.022039976,0.027331974,0.027159516,-0.048027083,0.019689824,-0.020805314,0.055664256,-0.039835505,-0.0334476,-0.016398462,0.007982744,0.054041047,-0.05685499,0.0026165673,-0.028556038,0.05581078,0.043022007,-0.03334734,-0.030782795,-0.015392722,-0.024884522,0.06264436,-0.05377301,-0.021371875,0.022733832,0.01781206,0.0051075993,0.0165761,0.044250425,0.012732191,-0.019932915,-0.053178594,0.025705978,-0.012413112,-0.051497266,0.056293525,0.01004813,-0.060364082,-0.043196123,-0.011218766,-0.050326698,-0.029431311,0.026320174,0.04825139,0.036067843,-0.006286182,-0.021045836,0.02514067,0.029462546,0.04973436,-0.0044501172,0.01452027,0.029849749,0.03234022,-0.014005916,0.030661348,0.029464558,0.019372713,-0.05506108,0.023438888,-0.018489612,0.056085207,-0.036334023,-0.047644153,0.046871617,-0.00095599104,-0.0037973793,-0.04704999,-0.046327658,-0.060341693,0.048464358,0.04020784,-0.03780919,-0.016967181,-0.05578252,-0.05501736,-0.0057548527,0.014596466,-0.013471806,0.043958202,-0.032889083,-0.006122468,0.026782587,-0.042041995,0.013700828,-0.05454629,0.05295112,-0.026536364,-0.0646569,-0.0053716097,-0.01651907,-0.029854715,0.043267354,-0.012855215,0.038077325,0.028648652,0.053303104,-0.041581355,-0.053376794,0.0035457918,0.036477953,0.027619015,-0.049140498,-0.03713999,-0.03494927,0.04659421,-0.0119674895,0.033927202,-0.025864203,0.056669217,-0.017828146,0.01938519,-0.013905572,-0.03439523,-0.025687687,0.060346134,-0.035869803,0.0560202,0.02672383,-0.062551744,0.049680382,-0.02733178,-0.026798502,-0.013789801,0.03412376,-0.046004236,-0.0046757413,0.053460225,0.018775336,-0.054952182,0.03458997,0.0094589405,-0.03967085,-0.04258053,0.04096151,-0.065467834,-0.046787113,-0.041275978,0.0009755335,-0.013180284,0.06500165,0.057029694,-0.027993985,-0.01218771,-0.05773324,0.057242814,0.010419402,0.041176792,-0.008383201,-0.058695786,0.024755202,-0.05909241,-0.05356008,-0.042895503,0.0017296048,0.03606166,-0.056431435,-0.0032756766,0.027682666,0.06062852,0.04279696,-0.051990807,0.045381337,-0.0067851846,-0.039843176,-0.018887369,0.061079606,-0.024319747,-0.041240413,-0.0017003851,0.026573349,0.012493172,0.02624956,0.05178658,0.011630809,-0.06705584,-0.050293922,-0.04176016,0.0013924208,-0.013225082,0.032809015,0.028501578,0.050105635,-0.022065306,0.042827122,-0.042146914,-0.00705682,-0.03946816,0.057539985,-0.0007332407,0.05034778,-0.047667824,-0.05769494,-0.057785816,-0.039175414,0.009574406,-0.028347217,-0.008768165,-0.046356644,-0.03320943,0.020276746,0.0043669045,-0.049977254,0.012279164,0.05877631,-0.05336553,-0.0053967796,-0.011295984,-0.04003358,0.015376603,-0.071971536,0.047264144,0.04692565,0.015221134,0.0054970672,0.047093064,0.013058867,-0.041994497,-0.030218396,-0.0072499528,0.0069557168,0.019804094,-0.046914402,-0.030688915,0.031265564,0.008045118,0.03041369,-0.032091595,0.03664495,-0.010240621,-0.0092853885,-0.012819745,0.051376972,0.048657805,0.013273862,0.05269689,-0.049106255,-0.011014465,0.03326243,-0.0018347105,0.03309955,-0.020224262,-0.031565595,-0.020236447,-0.0034848973,-0.058555707,0.036995936,0.010124609,0.021521159,-0.066831455,-0.025898578,-0.004154288,0.01725313,0.038949084,0.040193394,0.0019376399,-0.055707276,0.0273511,0.025674444,0.04070329,0.042609297,-0.03985908,0.052260347,-0.010006794,-0.009389743,-0.025205724,-0.0079991985,0.050029792,-0.04000561,-0.051724765,-0.057859898,0.04640481,0.026169688,-0.025800996,0.054075096,0.042978514,0.014208641,0.04910057,-0.009047816,0.029151462,-0.0372255,0.048296887,0.05150085,0.048455227,0.004731889,-0.028171208,0.011202574,-0.02869357,0.01294318,-0.060793843,0.011661774,-0.016908374,-0.056762524,-0.043570727,0.044928707,-0.017795613,-0.04137455,0.027807495,0.00046521815,-0.038538266,0.0072008744,0.015314202,0.05153088,-0.048373565,0.048867434,0.0015459108,-0.03441771,-0.023222866,0.05140201,0.057939418,-0.057966754,-0.029476348,0.012733974,-0.06239166,-0.03494589,-0.014286127,0.012713322,-0.025650248,0.04385688,0.03734547,0.009783583,-0.062769726,-0.052541748,0.0027152058,0.006249262,0.011593648,0.020599727,-0.030447736,0.009802891,-0.03333852,0.003922483,0.04369407,0.031265594,-0.038901553,-0.003797092,-0.043771803,0.041660964,0.024071928,0.046897113,0.059494823,-0.03938412,-0.04622107,-0.052041523,0.027024195,0.012526445,0.06793518,-0.027453313,-0.035762638,-0.015922027,-0.026286755,0.02060715,0.008592395,0.023288567,-0.013158287,0.024767775,-0.04729967,-0.025837816,-0.008470739,-0.056330007,0.004678914,-0.0047640507,0.04969782,0.04962926,0.029741649,-0.054010328,0.05576773,0.036842354,0.04456468,0.068304405,-0.0071496307,-0.042581733,-0.03590528,-0.046438538,0.026926998,0.039324522,0.049672127,-0.014232408,0.04836788,-0.0059606647,-0.00057123415,-0.03631599,-0.027305666,0.017446598,0.002868742,-0.031998925,0.030592069,0.03182025,-0.029502865,-0.059411496,0.0028055147,0.03688737,-0.041937456,-0.053743012,0.00417192,-0.057738468,0.016738858,0.04736135,-0.05049061,-0.017563418,0.037128195,-0.029478852,0.030516118,-0.019053921,0.022633899,-0.0025711101,-0.0016282945,0.030665573,0.018326983,0.013476973,0.022806749,-0.024971299,0.010350255,0.02819087,0.045516677,-0.008828282,-0.020698488,-0.05043438,-0.06170032,-0.032445,0.033915672,0.03199612,-0.0024887295,0.046769235,0.034100145,0.06037359,0.03873704,-0.05156774,0.0150507605,-0.027916383,-0.001749212,-0.043927804,0.0128641715,0.0049218293,0.018213578,0.0056372676,-0.010611472,0.05403982,0.061665244,-0.05082395,0.014171287,-0.029588109,0.051610425,-0.04502669,-0.025072336,0.03443212,0.032727063,-0.031712923,-0.025512516,-0.06200014,0.019011758,-0.036152955,0.02474593,0.057850767,-0.030761361,-0.006906732,0.020158097,0.04983619,-0.02413491,0.054553293,0.03573343,-0.019236386,-0.060109492,0.03561436,-0.034569465,0.043836214,0.025787659,-0.057689756,0.022881929,-0.023718983,-0.03911729,-0.030822232,0.048165835,0.043778695,-0.023941569,0.06248339,-0.047843076,0.016531616,0.018127697,0.00684008,0.053163894,0.027679376,-0.0031570767,-0.029178407,-0.042035736,-0.008589949,5.61117e-05,0.06610056,-0.020503502,0.038107283,0.028215352,-0.030613057,-0.020868368,-0.028573222,0.037333764,0.054201566,0.06491085,-0.02319657,0.04187292,0.009341028,-0.012154407,-0.03868977,0.014957646,-0.060350522,-0.020651933,0.041760422,0.015742911,-0.052704286,0.018888667,-0.019453032,0.03518376,-0.010137251,-0.055488877,0.023896914,-0.003868082,-0.050990317,0.035620864,0.028335445,0.022725463,-0.059005927,-0.02595068,-0.054602094,-0.0402376,0.05616424,0.035357848,0.029907819,0.003677955,0.035698287,0.02965245,-0.02704544,-0.04970333,-0.008941634,-0.006135962,-0.0079872245,0.036479793,-0.008166896,-0.00847524,-0.05439326,0.028095601,0.034556553,0.026115268,0.06464459,0.016701318,0.053476654,0.026384484,-0.021993425,0.021738183,-0.04564497,0.064749114,0.053140692,0.022734545,-0.041466497,0.010729653,-0.050168257,0.040792163,-0.0037949735,0.022031374,-0.04536341,0.055808976,-0.023189604,0.035071153,0.023831088,0.0013582697,-0.066600814,-0.021121196,0.025284156,0.0695366,0.054103673,0.034356795,0.034992225,-0.03192793,0.041838102,-0.022715166,0.0504345,-0.031931855,0.024058364,0.04639484,-0.017352693,0.03142477,-0.012393007,0.06562195,-0.007186135,-0.042469036,-0.027612176,0.0392242,-0.015256363,-0.009153825,-0.047638025,0.044302948,0.023624435,-0.058529675,-0.03821212,-0.023795001,-0.013132131,-0.0127851665,-0.01436846,0.013004858,0.037411235,0.0020019724,0.05548922,0.010103846,-0.023526978,-0.021428548,0.023309156,0.044324387,-0.03659905,0.014794139,0.018193517,-0.058324654,-0.042962447,-0.016623568,-0.03510041,0.018570455,0.019688664,0.022445891,-0.0057226503,0.052313782,0.03451238,-0.0116789155,-0.009152632,0.0157203,-0.05641804,-0.0647178,0.041581664,0.061281905,0.05785031,-0.031276688,0.03381794,0.006823031,0.016557924,0.02622705,-0.018790506,0.025512904,-0.025808644,-0.03127166,-0.027163908,0.042101618,-0.030379381,-0.0068581263,-0.02729574,-0.0051804483,0.011558241,0.028195497,0.058051497,0.003440869,-0.06479581,-0.02294561,0.032483168,0.042315997,0.013899505,-0.051035643,-0.00011902783,0.014208254,-0.009563045,-0.03205572,0.035606552,-0.004828071,0.055311054,0.05806309,-0.04043292,0.048850007,0.008470962,0.025568888,0.05919534,0.010963812,0.049204443,-0.04556226,0.0077172173,0.03800443,0.028224122,0.046901155,-0.032506183,-0.04919452,-0.001547002,0.07242814,-0.014260454,-0.02784169,-0.057832945,0.045581333,-0.010444821,0.030835956,0.040903844,0.0008726724,0.06283447,0.02056066,-0.012749525,0.0129763745,-0.0077005387,0.06310601,0.04339194,0.03608205,-0.012421401,0.027197536,-0.011509705,-0.033663843,0.029296927,-0.024117962,0.034673724,-0.04958687,-0.0416556,-0.057089716,-0.010213571,-0.0073055625,-0.04642933,-0.04881583,0.030012995,-0.02309367,-0.016409319,-0.004253225,0.040883854,0.006903994,-0.008099064,-0.01655002,0.013447077,0.018348757,-0.027023712,-0.010376299,0.005281687,0.042549454,0.0076240255,0.0146072265,-0.047305048,-0.019936629,0.045727722,-0.047202073,-0.037395433,0.041062314,-0.053821944,-0.0065353955,0.0120741045,-0.0022339476,0.05486445,-0.042786494,-0.037477925,-0.0014152876,0.04864857,0.021834144,-0.04148566,-0.03636654,-0.050377544,0.014213862,0.029446345,0.043062635,-0.01138286,0.0031918334,-0.0004980863,-0.030673224,-0.013588415,-0.040351674,0.044127956,0.00033706683,-0.028580304,-0.033486865,-0.022348993,0.016016982,-0.044254683,0.005914243,-0.061480097,0.045143344,0.0389255,-0.029784031,0.010904418,-0.027523603,0.02876003,0.0307576,0.05036807,0.048155002,0.0077718254,-0.062779896,0.014524185,-0.0057108477,0.053206038,0.035763424,0.022119282,0.037350938,0.054333806,0.043259863,0.01718537,-0.02808598,-0.0175537,0.041356064,-0.043280393,-0.05292888,0.029055022,-0.0069587044,-0.04197736,0.020915736,0.0057153343,-0.03546231,0.0034980131,0.027734827,0.016800445,0.01527603,0.028921792,-0.0125128385,-0.023485135,0.019188143,0.03220766,-0.013269257,-0.0077471146,-0.02358197,0.004106218,-0.011309678,0.029800653,0.0315772,0.016622493,-0.0005707777,0.03553613,0.03219246,-0.0054255463,0.0009020057,-0.00088766776,0.0034358052,-0.01840388,0.044044647,-0.0441394,0.0051168194,0.017151844,0.03537427,0.008522769,0.007714683,0.0112784,0.0075044353,0.025774855,-0.036202826,0.04791516,-0.05114357,0.047992483,-0.03545454,-0.039197415,-0.048719138,0.01827677,0.027096258,0.056408785,0.008389507,0.07070121,-0.048183523,-0.042231333,-0.011433112,-0.033496995,-0.059339236,-0.055428434,0.012077633,-0.018615635,0.030155547,-0.0062579205,-0.03434764,0.054807957,-0.0065673687,0.05826841,0.02420593,0.049191847,0.0024695229,0.057136416,0.015359396,-0.029310074,0.0504942,0.014919534,0.06521109,-0.059523463,0.024545867,-0.054089062,0.05237261,0.03733249,0.044359498,-0.013944204,-0.008756723,-0.031760007,-0.042168662,0.010881351,-0.033109732,-0.034900896,0.012583447,0.04254709,-0.015300758,-0.02452237,-0.019402467,0.060829394,0.048653007,0.040295586,0.04465639,0.026708774,-0.044089936,0.06085176,-0.018396534,-0.05011666,-0.03764408,0.037942357,-0.023360915,-0.0007905086,0.04679234,-0.04605136,-0.06257719,0.03589759,-0.016500909,0.022809053,-0.04623189,0.02554568,0.06357883,-0.009185499,0.022714596,0.014916733,0.005964982,-0.0067721643,-0.0022389158,0.0002284279,-0.051511727,0.009353596,0.05576065,-0.054513164,0.04380396,0.01865587,-0.040319603,-0.059721917,-0.016085783,-0.06433311,-0.01773188,0.056512743,-0.041312836,0.03350931,-0.012395397,-0.026225215,0.014625865,-0.027649272,0.04535623,0.0051713227,-0.010924872,0.020266995,-0.055730328,-0.020797022,-0.030480506,0.01327558,0.026643246,-0.040734246,0.012621723,-0.036821693,0.017791834,0.04541501,-0.05750514,0.029976033,0.030955847,0.0070830686,0.035282046,0.05992434,-0.045876667,-0.043170463,0.05372998,0.021049293,-0.02805245,0.010743629,-0.06100145,0.046583794,-0.049596786,0.051909186,-0.019861013,-0.033616707,-0.029832471,-0.040747173,0.02087492,0.06211905,-0.017143758,-0.04387629,0.0521674,-0.0040696673,-0.041648634,-0.0042140516,-0.034380004,0.046180952,-0.030594964,-0.009831263,-0.05265602,-0.030877244,-0.0058372286,-0.060638554,0.03733441,0.06708735,0.06311637,-0.052328907,0.06889769,0.031011047,0.010250416,0.048517864,-0.005531329,-0.046266947,-0.027015928,-0.05501734,-0.017806225,-0.05595784,0.05570362,0.055938393,0.029919568,-0.03163565,-0.029558219,-0.013568973,0.062351245,0.05847729,0.048382413,0.044524327,-0.04494866,0.047687124,-0.044705644,-0.026895951,0.06505275,0.040076815,-0.024403049,0.059729286,-0.038191184,0.030386057,0.025471628,0.031996798,-0.04542802,-0.013729457,0.024299378,-0.054584756,-0.003495568,0.05210673,-0.04219182,-0.037735317,-0.04225886,-0.029845715,0.024569537,0.062285595,0.03728916,-0.027913086,0.025502503,-0.019657439,-0.037392408,0.046334017,0.04730222,0.046496797,-0.004552913,-0.020744009,0.01628556,0.0053916266,-0.023942363,0.024482382,-0.032073185,0.02364825,0.0043627312,-0.058971606,0.033559997,0.048394106,-0.054095283,0.06623098,0.049364224,0.04278831,0.06293377,-0.006060064,0.03185948,0.026191361,-0.01195484,-0.0262205,-0.002457968,0.06534119,-0.03616846,0.015627451,0.04478604,-0.047684133,0.05640341,-0.026063731,0.004764078,-0.047801867,-0.026788998,0.026237976,0.038992085,0.006590541,0.001864976,0.023204193,-0.005611687,0.049883857,-0.008001644,0.046162143,-0.045327872,-0.05401261,0.06639005,0.0040069874,-0.012758248,-0.035998702,-0.060671136,0.023051843,0.053718343,-0.049182676,-0.040579714,0.057711065,-0.033821523,-0.0346264,-0.04331503,0.008214628,0.023206254,-0.040137492,0.0687124,-0.03492508,-0.043565996,0.021987746,-0.003984516,0.03264054,-0.013317995,-0.040698513,0.018931698,0.032418616,0.035695,0.004637456,-0.0056652674,-0.0034411708,0.048125252,-0.0012218249,0.028418796,0.06041088,0.035448067,-0.04401149,-0.010658989,-0.017528336,-0.034016687,0.02097705,0.032344937,-0.051077157,0.015516151,-0.031179264,-0.017295167,-0.022044767,-0.02803281,-0.060658157,0.02561848,-0.040041033,0.00195818,0.043204136,-0.02234247,-0.007139598,0.0001494752,-0.047098674,0.030834828,0.043041628,-0.05761092,0.03226002,0.00037174416,-0.049716048,-0.057282604,0.043633882,0.033578195,0.013941531,0.013013924,-0.055815935,0.03270578,-0.0135575775,-0.010272552,0.004881615,0.014632499,0.02948974,0.014093813,0.05445565,-0.028100178,0.05207824,-0.019381175,-0.012464288,-0.02444661,-0.012576615,0.057823382,-0.016055556,0.0066824015,0.061282784,0.06952008,0.0071234857,0.0056177154,0.048502754,0.028419582,0.014963319,0.053308915,0.028500143,-0.058893524,0.029830674,0.0078351665,-0.01978731,0.063100114,-0.015165296,0.07263374,0.053059492,-0.045798637,0.056794923,0.030112606,0.03504425,0.00013152036,-0.03242728,-0.055321485,-0.040607914,0.04334542,0.021149557,0.030683067,-0.003468513,0.05458634,-0.021241851,-0.037573274,-0.058122315,-0.048780583,0.038349614,0.049748503,0.05914056,-0.029403726,-0.023613859,-0.023949593,-0.0337106,-0.008065396,0.05860017,-0.020727774,0.046405073,-0.049821608,-0.044923425,-0.019927092,-0.021136513,-0.0047095977,0.023513505,-0.04277113,-0.0021684128,-0.027070938,-0.040443514,-0.031648077,0.014865136,-0.014505629,-0.0047727814,-0.0275519,0.023581032,-0.005539284,-0.036658216,0.018638473,-0.043109536,-0.030604431,0.03514504,0.04980737,0.022607956,-0.026249971,-5.580046e-05,0.008062529,0.029024579,0.041932285,0.05462932,0.021889802,-0.016860362,-0.048303574,0.058739014,0.024860583,0.051614862,0.03672727,0.049183056,0.010388143,-0.040621985,0.006737059,-0.023720194,0.009711657,0.055264376,0.04813023,-0.01910369,-0.01940433,0.025200214,-0.05479234,0.013398567,-0.014543207,0.012098916,-0.027238656,0.053487264,0.035205975,0.005831506,0.03063244,0.05190756,-0.047832225,-0.010308642,0.009183171,-0.04888318,0.037256308,-0.0029905527,-0.030954812,-0.03571055,-0.0070795882,0.055854104,-0.057282303,0.03174773,0.051113382,-0.045691963,0.024598954,-0.0027858554,-0.05533101,-0.05344919,0.0076603163,0.032110427,-0.028788432,-0.03695651,0.045084782,0.05472531,-0.031603582,0.033482533,0.05917345,-0.023239382,0.023840318,0.030304812,-0.022879194,0.03167204,0.012493305,0.024412315,-0.03328425,-0.05629592,-0.022946905,0.031311553,-0.01170232,0.0050498117,0.039497398,0.05332249,0.009825559,-0.019254478,0.026425458,0.041511815,-0.051941156,-0.013569728,0.0252795,-0.03269948,-0.032636706,-0.056643836,0.031402633,0.036627673,-0.024359401,0.03505788,-0.054324865,0.049360067,0.03596849,0.04721663,-0.021616511,0.05067271,0.060621,0.028122813,-0.043770373,-0.03835316,0.038133472,-0.002219223,0.012143822,-0.04812908,0.043946426,-0.0508144,-0.05070108,0.008860171,-0.0073798634,-0.03025778,0.031293552,-0.058481142,0.0041415086,-0.03731011,0.021111123,-0.0456597,0.047085535,-0.045812126,-0.065348834,-0.025149189,0.046130616,-0.00047061488,0.01324066,0.05067607,0.054169115,0.043898568,-0.04243155,0.036081478,-0.02360896,-0.006181515,0.058833603,-0.0028549093,-0.0073338794,0.0469011,0.032566488,0.009168191,-0.022643456,-0.05801893,0.04845903,0.036342897,-0.026755758,0.019435886,0.044202417,-0.024900155,0.061034523,-0.040432476,0.060863234,-0.011047368,-0.031629473,0.04128281,0.051021524,0.012142976,0.021703321,-0.06519802,-0.00047430943,0.030697178,-0.03546737,0.06345786,0.032123633,0.056739256,0.0329353,0.05333814,0.061485603,-0.02811528,0.044030473,0.03701201,-0.05020926,-0.022077454,0.0334491,-0.056315694,0.0055742417,0.0057131397,0.042106695,0.051736116,-0.030914186,0.053776987,-0.046405032,-0.013258774,0.04961738,0.020888729,-0.03866071,-0.052728184,0.004653706,-0.025267571,-0.005731521,-0.010180904,0.020191433,0.006539616,0.02184679,0.022912448,-0.060302556,-0.027126627,-0.03549803,0.021247301,-0.048871577,-0.017510148,0.036857236,0.054269552,-0.02822176,-0.029444197,-0.0032054193,0.047927335,0.01867788,-0.024325287,0.061432563,0.012388769,-0.0009081394,-0.04908642,-0.015076304,0.04631138,-0.01167939,0.006131644,0.049216818,0.034284204,-0.012886027,0.022748217,-0.034782298,0.03712336,0.032992736,-0.010050053,-0.028847521,0.034172796,0.04592013,0.055832215,-0.05201655,0.052221365,0.007834163,0.03309208,-0.054810204,-0.014330188,-0.01689995,0.025969476,-0.0055372827,0.041337088,-0.024859976,-0.047479063,0.05045861,0.010201919,0.031325273,0.005582788,-0.023745267,-0.026495054,0.02838435,0.023910187,0.055047058,-0.0419799,-0.04844813,0.034437977,0.0022486597,0.040394086,-0.057039626,0.008511532,-0.0005991553,0.011764359,0.02427977,0.0460096,-0.058795877,-0.059542567,-0.0003118702,0.026208736,-0.03409978,-0.016418189,-0.02712083,-0.031270005,0.04226435,0.020716667,0.039168097,-0.052195154,0.010680443,-0.0406992,0.015142633,0.03880461,-0.04539673,0.0124702845,-0.049824677,-0.032189734,0.03171585,-0.0021766447,-0.009682015,-0.042550854,-0.035758905,-0.024131032,-0.039541543,0.05451061,0.035637587,-0.0028374917,-0.006876376,-0.025699705,0.026004562,0.027586438,-0.035207473,-0.031610534,-0.060679466,-0.029275976,-0.04999183,-0.04801745,0.036272667,0.05156535,0.043341234,-0.05309455,0.0009381017,0.03608077,-0.028345842,-0.007404973,-0.005873206,0.05677868,0.030409813,-0.019791758,0.037562627,0.03786045,-0.041902564,-0.04530342,-0.05906515,0.0408004,0.053972483,-0.01179603,0.04437729,0.033923592,0.057324495,0.04486425,0.04855115,0.0106724445,0.012827534,-0.051337674,0.03927453,-0.010024253,-0.059364855,0.0075337533,0.030806247,0.0023421964,-0.025102656,-0.056274142,0.05841022,-0.044255897,0.044688407,-0.045843802,0.030788526,-0.045484245,0.0019098471,0.03731918,0.039348252,0.042594295,-0.009175941,-0.0070886123,-0.040338017,0.034746878,-0.035722844,-0.055355288,0.041460395,-0.0063535734,0.029040406,0.051591955,0.059541736,-0.03076711,0.03772422,0.056785382,0.03550068,0.020750027,0.050350748,-0.053694166,0.0070709414,-0.036991093,0.019380037,0.015481163,0.006096647,0.047777407,-0.059522294,0.029892677,-0.02584203,-0.03913129,-0.041887447,-0.054283477,-0.032380138,-0.05836361,-0.013370097,-0.05327167,0.046757076,-0.051811233,0.020304853,0.014297355,0.0003600719,0.005181362,-0.0034094406,0.005827858,0.0337087,-0.04903093,0.03576889,0.03891459,0.016509213,-0.054495983,0.0074874843,-0.052973937,-0.03334478,0.016989594,-0.02657562,0.029381808,0.018038053,-0.028727144,0.033739988,0.05598773,0.039883405,-0.019521121,-0.046573877,-0.033790246,0.0055783363,0.002982493,-0.019363455,0.007755609,0.0020180268,-0.02717153,-0.02973789,0.05652138,-0.03370317,0.031942207,0.037185688,-0.013892423,-0.0017092454,-0.0014596449,-0.0222416,-0.0373246,-0.057303146,0.060477525,0.050012678,0.00085954263,0.0011844067,-0.0383353,0.036587406,0.06769814,0.007271208,0.050004065,-0.017693639,-0.045171253,-0.02344377,-0.037780903,-0.0066692624,0.051505845,0.04267197,0.06860717,0.028485246,0.040770344,-0.024409212,0.034367703,-0.045703694,-0.015587661,0.016969558,-0.02170166,-0.017770099,-0.023540962,-0.0015928324,-0.018899571,-0.056200683,-0.012663431,0.0471417,0.015870307,0.037009872,0.055757925,-0.026289549,-0.046425402,0.047215343,-0.024872784,0.03859208,0.02720612,0.025355209,-0.040703777,-0.008723807,0.054177847,-0.057618447,0.054308504,-0.02488519,0.0517176,0.024877287,0.050499074,0.04517783,0.052174095,0.008340263,0.03503931,-0.01805515,0.014651081,0.039712213,0.05848182,0.006417188,-0.04347344,-0.030788926,-0.05152843,0.0045337267,0.03521014,0.0009062028,-0.052205604,-0.057883322,-0.021494154,-0.01627082,0.037125207,0.033148877,-0.039802346,-0.04716079,-0.005170458,-0.053197704,0.0015037691,0.056672595,-0.047215994,-0.05752701,0.033151135,-0.044244885,0.027740074,-0.038491674,-0.055291988,0.022703275,0.04669235,0.06088231,-0.055040866,0.051145334,0.036835738,-0.05039045,-0.016119752,0.015280053,0.041402332,0.04401581,0.0047374354,-0.02217148,-0.05843029,0.005435942,0.0056891064,-0.018474791,0.023324598,5.5280198e-05,0.009463997,0.041074295,-0.008259473,0.03240732,0.063380435,0.055739027,0.035881337,0.010312578,0.015249008,-0.059814084,-0.025886808,-0.027578369,-0.008849403,-0.020820852,0.025604106,0.037038945,0.056185342,-0.0066553997,0.03057694,-0.029498601,0.007249107,0.030614156,-0.016694922,0.061714895,-0.021720806,0.04986541,0.045338597,-0.019540457,0.024117995,0.025764242,-0.022318438,0.013013078,-0.036872163,0.059913836,0.030873327,0.030326419,-0.046725933,0.060392417,0.020067986,0.0076241014,0.04423251,0.04413486,0.021841092,-0.031059075,0.049899705,-0.020963006,-0.022081949,-0.015107058,-0.0138362255,0.050919212,0.06931761,0.047335453,0.0024760456,-0.017573867,0.034007102,-0.001972655,0.0037627309,0.052101918,0.053739976,0.051176794,-0.03443947,0.0037401363,0.042170234,0.03545428,0.05448417,0.034526803,0.039283182,-0.0301693,-0.023721654,0.045142807,-0.010946697,-0.014158809,0.049958356,0.034333766,0.041089594,0.025752258,-0.04743988,0.024190944,0.006338292,0.0044179107,0.034051225,0.055086873,-0.057327114,-0.05428635,0.025412295,-0.027877277,0.039340235,-0.06574625,0.056262083,-0.05225911,-0.034527056,-0.021889586,0.03249846,0.05094268,0.020179633,-0.045815997,-0.04389196,-0.028007533,0.02433673,-0.043524936,-0.014617269,0.009181558,-0.009350052,0.017366268,0.024949182,-0.033888318,0.009852001,0.054297343,-0.057610232,0.020989759,-0.037781507,0.054344065,-0.046243984,-0.053577706,0.04340191,0.0427472,0.02487965,-0.033909597,-0.0014882268,-0.042760465,0.033405967,-0.046769265,-0.05886999,0.057267614,-0.014163278,-0.06813869,0.023594987,-0.022510646,-0.043547176,-0.04943441,-0.030437918,0.022682147,0.019924052,0.009796711,0.003256699,-0.01809086,0.024347428,0.028193034,0.010237401,0.043118883,-0.041129988,-0.00066825474,-0.011996962,0.017139725,-0.013961086,-0.036655493,-0.0558334,-0.031832594,0.012650773,-0.04586308,0.0075467825,0.025571892,0.038847685,0.053620525,0.009616209,0.034035653,0.053697042,0.041634217,-0.010192763,0.0201439,-0.05180312,0.03700114,-0.016176647,-0.005737748,0.053526476,0.05122202,0.016830795,-0.036572907,0.06699665,-0.034515396,0.029612582,0.007915273,-0.016981991,-0.026009474,0.017140958,-0.060572363,0.05263301,0.022604067,0.022719074,0.031550184,-0.04971666,-0.015515756,-0.012481639,0.032844614,-0.037899006,-0.023327975,-0.041010454,0.022881575,-0.040767115,-0.039239474,-0.05574504,-0.008772977,0.062411547,-0.055279393,-0.03316898,-0.05683101,-0.04234798,0.046187885,-0.011369356,-0.04043612,0.025323927,0.0074987486,0.0056512486,0.037367485,-0.04620849,0.030996747,-0.007820277,-0.048997678,0.03180668,-0.022193927,-0.0400597,0.059904654,0.043923367,-0.023942117,0.00977033,-0.014695846,0.037059683,0.013358219,-0.021010246,0.036239117,-0.03256068,0.03274744,-0.035939515,0.04516069,-0.0020869547,-0.034386016,-0.0572085,-0.025089841,0.04396078,-0.050696712,-0.050762877,0.017573478,-0.0050442843,-0.023654431,0.03597489,-0.023801133,0.037334852,0.022797674,-0.028348368,-0.058625415,0.04737454,0.06307779,-0.003854333,-0.011059539,-0.058761194,0.005014597,-0.03980779,0.039910156,-0.0057089077,0.009683748,0.038352616,0.031815648,0.015402311,-0.05234185,0.06430431,0.050976783,-0.02743103,0.05210788,-0.05260402,0.05168063,-0.011728373,0.033967186,0.006190744,0.039899763,-0.01903224,0.037566938,-0.05315899,0.022832584,-0.025894798,-0.05231112,-0.028012672,-0.046855725,0.038600113,-0.00798825,0.04325577,0.0039750617,0.04730036,-0.041865624,0.014264274,-0.03921976,0.016646165,0.019839913,0.035807744,-0.0031275572,0.018359441,-0.064049646,0.020161822,0.014422773,0.052817695,0.037639853,-0.05596201,0.007311305,0.030432908,-0.04796925,0.04597323,0.0525932,0.052013136,-0.04088624,-0.05041387,0.013154235,0.06339832,-0.053364236,-0.0034289674,0.035935096,-0.005027682,0.019202955,0.03428684,-0.004745841,-0.019955581,-0.040536154,0.0027310252,-0.039543726,0.018871017,0.048327763,0.04339698,-0.022392733,-0.011903323,-0.053328544,-0.013852697,0.017365746,0.0091829,-0.0024003172,-0.031866618,-0.023705838,-0.054332383,0.034515455,0.047785394,-0.038043857,0.057308294,-0.058287658,0.042373016,-0.038949665,0.0064402986,-0.035876565,0.0019427448,0.037764795,-0.04544732,-0.00698506,-0.026045095,0.055952344,0.013859695,-0.029126016,-0.022060353,-0.032381997,0.014859201,0.039929144,-0.024323467,0.052860335,0.024816645,-0.051760923,0.010871461,-0.052341737,-0.016786609,-0.053319667,0.012559496,-0.04866308,-0.049236014,0.030614574,-0.019215439,0.056349076,-0.01069675,0.0047443304,-0.06077806,0.03261541,0.03448333,-0.0042953175,-0.026477976,0.04217337,0.04831235,-0.057668302,0.0567799,-0.014315862,-0.047830313,0.020996064,-0.029499209,0.054098617,-0.026198426,0.046269342,-0.022443587,0.014972964,-0.019197252,0.0072230566,-0.014367143,0.059767134,0.010521496,-0.008376645,-0.05066795,0.04217267,0.052715093,-0.012283077,-0.047332026,-0.008390525,0.05382164,0.044237223,-0.018929135,-0.0019774558,0.049984574,-0.009057289,-0.04889489,0.051451202,-0.008334811,0.031507816,0.014838718,-0.0087007005,-0.048113424,0.032182027,-0.021935087,-0.044909894,0.047791623,-0.060425095,-0.045510367,-0.040797733,-0.008961953,0.03608127,-0.025020052,0.031471804,-0.009807663,-0.025830172,0.016053487,-0.05003213,0.051041543,0.05118686,-0.0647317,-0.04989633,0.007171762,0.04441206,-0.051641967,0.032165043,-0.014973456,0.005183018,0.026740924,0.01889405,0.05091642,-0.038336746,-0.0432825,-0.029783286,-0.014353894,0.010247968,0.05899742,0.02792862,0.0561305,-0.022634804,0.04036045,0.0132585745,0.010941392,0.04040512,-0.035735127,0.018908735,0.018071715,-0.03588569,0.02378213,0.022080954,-0.052798923,-0.012759502,-0.014160122,0.0699642,-0.012904767,-0.051463146,-0.04704249,-0.0467021,0.062412187,0.052961417,0.054547157,-0.0528428,-0.029348541,0.0071630897,0.017287634,0.0052379603,-0.016193047,-0.010996088,0.016365938,0.037035946,0.054893196,-0.03867416,0.062091798,0.062407322,0.05947046,0.00721593,0.0031281402,0.0013540845,-0.037460785,0.062398147,-0.0044900132,-0.013887698,0.037303563,0.06204406,-0.015814427,0.050280157,-0.0032306463,-0.049170002,0.015296602,-0.005811028,-0.03384266,-0.018374898,0.015743688,0.015982464,0.046804503,0.040968135,-0.023052147,0.02912431,-0.016820388,-0.05895093,-0.063758016,-0.062439732,0.04136245,-0.014419004,-0.049856838,0.023845103,-0.021184064,0.017758165,0.001338148,-0.023466833,0.02657487,0.03260176,-0.003922318,-0.011142771,-0.003173286,-0.017760245,-0.023227125,0.032469593,-0.004813278,-0.03258788,0.021141239,0.0010797417,-0.06254323,0.039633796,0.005099563,0.008578079,0.05729086,0.028788602,0.00782595,-0.0025259987,0.025494957,0.005993912,-0.015366085,-0.040212356,-0.0065274024,-0.03535817,-0.021226302,-0.007525711,-0.041601617,-0.0048635276,-0.052862555,0.0064359377,0.052950088,0.05336098,-0.03811074,0.030880831,-0.05662186,0.03272362,-0.037623033,0.048920423,0.061484583,0.004402814,0.0462312,-0.058082335,-0.011291394,0.031178653,0.02691568,0.034377404,-0.042219266,0.014352634,-0.020214614,0.0452771,-0.028744027,-0.05444681,-0.043516744,0.06620801,-0.006554909,-0.044486627,-0.034487683,-0.039094985,-0.015550702,0.04734013,-0.053097107,0.021084372,0.023759397,-0.016192729,0.022312677,-0.030236796,0.063832976,0.0026804046,0.03764742,-0.046898697,-0.044908926,-0.034543917,-0.045540452,0.051401317,0.061483502,0.024528366,0.009276675,-0.018197581,-0.018266201,-0.019089209,-0.013251955,0.057346188,0.043170422,0.0060935644,-0.0060086623,0.019050082,-0.039025556,-0.032756455,-0.0154933045,-0.026819393,0.01808348,-0.005726004,0.021797584,0.033430852,0.048853546,-0.028750487,-0.005346818,0.056525048,-0.032418516,-0.0618019,-0.029893462,0.04903041,-0.001333692,0.020674586,0.01919739,-0.017896434,0.062420845,-0.021973804,0.043794654,0.0017432705,0.053735044,-0.014214079,-0.05528585,0.015192013,-0.04160814,-0.044402022,0.047568545,-0.023741107,0.023395317,0.00030175032,-0.047497906,-0.019811481,-0.04977805,0.037903935,-0.004176767,-0.03693699,-0.04488594,-0.03311301,0.013345836,-0.06307515,0.060671702,-0.00051094993,0.024050932,0.050430804,-0.033928424,-0.0075054932,0.0057939426,0.04686023,0.07921448,-0.05339282,0.00034852035,0.0020270543,-0.057181507,-0.02043705,-0.03188342,-0.027891817,-0.03775479,-0.025165815,-0.03132406,0.0011173065,0.0002706939,-0.03075367,0.04905138,-0.030559361,0.04661569,-0.024214095,0.053889368,0.015310126,-0.05485647,-0.013674702,0.05543981,0.027097173,-0.047221355,-0.01892922,-0.0108765885,-0.045743644,0.048826225,0.002424033,0.0007770171,-0.044064444,0.044840045,0.021827487,0.029011969,-0.014584925,-0.022194255,-0.048098627,-0.009674963,-0.011956264,-0.015247878,0.015843943,0.011838744,-0.057454087,-0.04273404,-0.043148633,-0.040302694,-0.056204315,-0.05665828,0.021094322,0.03928522,0.014469555,0.03603995,-0.036306627,0.052807022,-0.0035396987,-0.05358638,0.030469704,-0.006423136,-0.030972905,-0.038398564,-0.0029780846,0.045922175,0.07321121,0.03478211,-0.042250626,-0.048254527,-0.0017202038,0.0070910584,-0.05325441,0.011344193,0.048898086,-0.01815893,-0.03776552,0.0023496705,0.037917852,-0.021902155,0.039750144,-0.024959944,0.00047437003,0.01954468,-0.032295145,0.025305003,0.002822564,0.043580983,0.04271664,0.006284909,0.044123117,-0.031751834,0.053344868,0.04822164,0.03354849,-0.016162436,-0.018990189,-0.011255171,-0.0027613696,0.014364748,0.04697203,-0.051382955,0.028903127,-0.023673765,0.039909095,0.05888843,-0.03856517,-0.022428878,0.01590047,-0.04235685,-0.026766548,0.049332306,0.037331052,0.014586561,0.035361163,0.034587547,-0.059224278,0.032782204,0.028504629,-0.017780434,0.047688074,-0.04891894,0.00010598697,-0.05415384,0.011806464,-0.030306954,0.00092916115,0.018494217,0.0072056847,-0.039872266,0.013298885,0.046910085,-0.04600562,0.022506714,-0.034436762,-0.04993701,0.056703348,0.0287379,0.049136557,0.025005573,-0.030153789,-0.054601986,0.033411212,-0.0011570172,0.046767425,0.025067411,0.026109587,-0.033631057,0.026210964,0.028318154,0.053957067,0.054844905,0.0017048679,-0.022444554,0.04702699,-0.017763715,-0.03220991,0.044004794,0.024038348,-0.048710007,0.026057538,-0.006300687,0.043947168,0.048699938,-0.027473971,-0.043518387,0.043379225,-0.043762833,-0.015333306,-0.023973372,-0.031490766,-0.008914873,0.05911442,-0.0009891773,0.022648714,-0.029981392,0.057877656,-0.06051281,0.022861192,-0.03338605,0.04634221,0.016060382,0.028419016,-0.00061733596,-0.00097453187,0.0080789905,-0.030618861,0.02796226,0.012215601,-0.032221027,0.06534433,0.017320365,-0.029464515,0.009105889,0.013974831,0.00026624175,-0.03758733,-0.010075166,-0.003405815,-0.042496018,-0.0006213794,0.012896777,-0.03761442,0.02024002,-0.012598979,0.050996833,-0.016891487,-0.013092231,-0.04527533,-0.0116131455,0.053371854,0.025376804,-0.05610729,-0.008874675,-0.019154964,-0.016338384,-0.028016657,0.019270655,0.048188947,-0.057495676,0.052372955,-0.042644866,-0.043510742,-0.030034803,-0.05319691,0.031921163,-0.05008205,0.01048006,0.061770737,-0.037406188,-0.04409425,0.024399508,0.025739465,0.043860093,-0.037622716,0.0431204,-0.042236812,-0.0538371,0.051588833,0.000475485,-0.0028526206,0.04102591,0.00245515,0.02952415,0.056611083,0.00454749,-0.04662995,-0.04432358,-0.027830228,0.05459718,-0.02702438,0.026419893,-0.047262296,0.041393008,-0.0072458545,-0.0034069237,0.031495206,0.004062929,-0.044122666,0.046054892,-0.057418935,-0.05286654,-0.05137486,0.017960243,-0.04708361,0.0414448,-0.027729942,0.024728961,0.05284445,-0.006151813,-0.03523247,0.0060273106,0.017913636,0.04797018,0.010873013,-0.0032488222,-0.035204932,-0.06128198,0.035019644,0.06119218,-0.052699998,-0.024315147,0.05840014,-0.0025896495,-0.0141372625,-0.02474137,0.047081947,-0.032812014,0.009842923,0.006734785,-0.025411893,0.004197962,0.017550323,-0.042422593,0.017901476,-0.018219084,-0.037899386,-0.0016706287,-0.013433704,-0.015524929,-0.04050974,0.058321178,0.058251984,0.019581601,-0.013992194,-0.060087293,0.002060969,-0.048169173,-0.038286045,0.04442421,-0.058563717,0.043631617,0.052806903,0.013352069,-0.0484664,-0.034955345,-0.017804932,0.0020582513,-0.021894725,-0.039534986,0.02539355,0.0062416913,0.0145008,-0.021816317,0.05220925,0.056660138,-0.04444822,0.031536605,-0.0071835294,0.057663657,-0.05670923,-0.058393072,0.02293237,-0.048236758,0.052470427,0.040654488,0.0350177,0.039969563,-0.0051902765,-0.04085449,-0.055174842,-0.023846837,-0.05263074,0.016044801,-0.03667919,0.015969543,-0.05916895,-0.057474244,0.0044386005,0.014031965,-0.00474446,0.054637842,-0.0626896,-0.043026965,0.060042657,0.04110572,0.042825177,-0.039210565,-0.01355814,-0.005756245,-0.03066893,-0.029801987,0.012564821,0.0030864528,-0.0076365443,0.016012374,-0.020268345,0.052168727,-0.03749057,-0.027690973,-0.058949213,0.04341636,0.007082476,-0.030818457,0.01057989,-0.025069572,-0.0132438615,-0.06249351,-0.031090021,-0.030636922,-0.061240215,0.014044461,0.009056399,0.016315095,-0.038459085,-0.04656917,-0.058244683,-0.031351775,0.05035287,-0.015734453,0.005319966,-0.007982599,0.020633023,-0.03162204,-0.02467797,-0.022015113,-0.024957608,0.05324407,-0.040659275,-0.03105072,0.036333777,0.041232914,0.009646336,0.027133392,0.039458394,-0.032934852,0.010003513,0.023512725,-0.017608237,0.051424563,0.028852493,0.04629554,0.019335218,0.019041475,-0.056827113,0.011241505,-0.062137872,0.06128484,-0.03756573,-0.058244962,0.0046429783,0.035636526,-0.024897285,-0.041571733,-0.054306902,-0.049311705,-0.043963544,0.06567718,0.040179096,-0.042244766,-0.02335877,-0.04317399,-0.0141229415,-0.020127606,0.0556579,0.051694572,0.05979895,-0.012066586,-0.036160916,-0.03959541,-0.062438816,0.011808357,0.05266749,-0.02488811,0.00036671688,0.056821227,0.039276555,-0.02307458,-0.028103763,-0.041536845,0.03259971,0.02715867,-0.047014777,0.03433562,0.030722242,0.018059291,0.027374398,-0.045470007,-0.030177442,0.0117863715,0.039900295,-0.011974631,-0.051048163,-0.060817137,-0.0173995,0.059362166,-0.04898855,0.038803473,0.05519008,0.006378508,-0.025686191,-0.026928943,0.0069757234,0.057946302,-0.049555242,0.050186094,-0.014048096,0.038213618,-0.063978985,-0.042587575,0.040858194,0.051604804,0.0026504137,-0.033546306,0.004281097,0.041628238,-0.023944627,0.034955613,-0.016823739,0.02630496,-0.019929437,0.032046475,-0.02848522,-0.01527849,0.0048508076,0.0497675,0.025827717,-0.04882675,-0.056385484,0.016909404,0.05592027,0.018311096,-0.032331336,0.016947972,-0.04391814,-0.025300302,-0.026809923,0.0009789217,0.054698914,-0.003542338,0.04641696,0.02659064,-0.07659228,-0.039380565,0.050687544,0.0061283116,0.008536812,0.008867076,-0.032232653,-0.026480645,0.025684161,-0.0014627529,-0.019931022,0.032415964,0.043607883,0.057811797,-0.0025345865,-0.042074315,-0.03669546,0.04764676,0.028902935,0.010769411,-0.050174713,0.030923057,-0.01983617,-0.0013418451,-0.022000745,-0.06319361,-0.061616186,0.040793188,-0.017071959,-0.009399258,0.040404763,0.009865808,-0.030435845,0.012917088,-0.023117188,-0.06447928,0.014213892,0.06591922,0.025007704,0.041472085,0.06047333,-0.015647497,0.042003307,-0.018535554,-0.04689018,-0.034131177,0.046766475,-0.027253162,0.042274185,0.023962684,-0.042560637,0.014688939,0.041002654,0.024420653,-0.06234175,0.03824812,0.029379137,0.048494317,-0.030552246,0.031352717,-0.023918202,-0.023678465,-0.0052102935,-0.019572109,0.04882773,-0.0133213345,0.00834535,0.025627391,-0.005249413,0.021856021,-0.026263338,-0.025043074,-0.032409325,0.05145161,-0.040851444,0.02256314,-0.0015289072,-0.03206197,0.023739472,0.0326058,-0.045024693,-0.0034128684,0.0333437,0.009925652,0.03338468,-0.00038530596,0.022469584,0.018972918,-0.061707485,0.036133796,0.053612083,0.0059160744,-0.013961693,-0.035556167,-0.042110216,-0.027206812,-0.049263902,-0.0012495052,0.01817597,0.04600592,-0.027877174,-0.023108467,-0.007010225,-0.057114072,-0.008827394,0.03035536,-0.04987626,-0.05194375,0.06225242,0.015293628,-0.04066822,-0.03425217,0.02853358,0.038922146,-0.003829313,-0.010107592,0.053086683,-0.048950568,0.061294544,-0.062297218,-0.014633758,-0.017647456,0.018447448,0.02446387,-0.028218295,0.026720695,-0.051763486,-0.026112227,-0.014411489,-0.048615612,0.015309255,0.024136115,-0.03921586,0.034837395,-0.057916738,0.0058911275,-0.004620147,0.023500029,0.022848982,0.03419242,0.011696108,-0.01271677,0.054840527,0.004197602,