-0.1379969,-0.03470409,-0.06729255,-0.081619315,0.014200015,-0.028606163,-0.07269941,-0.069670275,0.56895995,-0.120233305,-0.057408687,-0.0832901,0.5468293,-0.14478353,-0.06544563,0.08796182,-0.048643507,-0.09571171,0.296292,-0.008473661,-0.07652898,-0.09797895,-0.12578353,-0.0063785804,-0.017279193,-0.06300901,0.064916566,0.648181,0.3067178,-0.13853493,-0.030785773,-0.013240529,-0.088838086,0.14072996,-0.18649805,-0.011388335,0.02583582,-0.05474552,0.4326383,-0.13116527,0.14890027,-0.022336107,0.2859451,-0.002902445,-0.084039725,-0.07509232,0.38264984,-0.09289573,-0.044238195,0.33749515,-0.004277372,-0.003203734,-0.036356725,-0.062309064,-0.05782573,0.4101863,-0.13048133,-0.09985937,-0.1052441,-0.09566139,-0.14732544,-0.09454058,0.4569288,-0.089272305,0.112982094,-0.02190767,-0.005113138,-0.07121555,0.13817975,-0.049866468,-0.16483992,-0.017668076,0.018449873,-0.11147717,0.009551035,-0.038340718,0.79279935,-0.009039899,-0.10958027,-0.32614666,-0.09548498,-0.06483362,-0.09282691,-0.10077046,-0.032858305,-0.118544966,-0.0704584,0.18170905,-0.039604977,-0.100490734,-0.001167754,-0.13211104,0.7270155,-0.07101284,-0.11907384,-0.08709194,0.3305175,-0.08003902,-0.09232339,-0.033012692,-0.102726184,0.7459461,-0.09300606,0.484072,-0.058408387,-0.031581044,-0.09833707,-0.06951237,-0.058850702,-0.049055286,-0.067332156,-0.040824436,-0.085645616,-0.023264218,-0.070971906,0.16250788,0.5036205,-0.068755075,0.21016145,0.5673182,-0.09418228,0.00888102,-0.09703852,-0.06426711,-0.03693307,-0.08262261,0.42472988,-0.09421818,0.009198587,0.6137257,-0.008740598,-0.07858826,-0.16432984,0.006274795,-0.0349658,-0.10038799,0.290427,0.44709995,0.18934979,0.49241322,0.023851024,-0.018569572,-0.11237976,-0.0814472,-0.109147504,-0.08388734,-0.07490119,-0.008252725,0.30487454,0.5722895,0.08542657,-0.04560864,-0.038914748,-0.017064538,-0.15177879,-0.009800283,-0.07613039,-0.010473983,-0.07699791,0.0065249368,-0.06331374,-0.012284353,-0.03623306,-0.033735722,-0.11789425,0.47193772,-0.060924403,-0.003970436,-0.10100517,-0.0050594974,-0.075118214,-0.042514533,-0.037297636,0.5001161,-0.064557254,0.51553917,-0.09016906,0.337834,-0.04303531,-0.0076843025,-0.078785434,-0.055880558,-0.018560417,-0.0213097,0.041709736,-0.0778552,0.6601229,-0.11478825,-0.043202262,-0.089914694,-0.0762755,-0.03352885,-0.07652326,-0.19368267,-0.059174232,0.105245024,0.06358425,-0.06663914,-0.015965175,-0.04504624,0.3589807,-0.10473405,-0.26769316,-0.09892225,-0.12311919,0.009909953,-0.0729758,-0.023528177,0.51030207,0.2747491,-0.08977623,-0.056730863,-0.05224526,-0.10305821,-0.028943777,-0.085120276,-0.035550207,-0.0053355834,0.2816093,0.27608162,-0.038764946,-0.051917396,0.31314597,-0.060713463,-0.08524825,0.21183097,-0.0647538,-0.07743649,0.22868088,0.76487875,-0.09345277,0.42277032,-0.027025402,-0.03811675,-0.090462446,-0.096502826,0.24693799,-0.05382676,-0.037376575,-0.11484744,-0.047859497,-0.11025439,0.5685339,-0.06277946,-0.04965952,0.5088433,-0.060299963,-0.016760798,-0.062509626,-0.11853391,-0.023968808,-0.013830669,-0.32549694,-0.06473096,-0.051759467,0.7794668
