-0.14649385,0.3913594,2.3902316,-0.46232826,-0.2851262,0.41935325,2.273398,0.31852055,-0.096344754,-0.61261094,0.8543671,0.045548476,0.3426214,1.2204905,0.90013725,0.5339813,-0.5522071,0.84229267,-0.056838024,-0.065770835,-0.3048473,0.6816942,-0.022684552,0.8993951,1.8784826,-1.113802,-0.87797403,0.7144635,-0.060313128,-1.1386659,0.72608376,-0.021145476,-0.72413564,0.42492828,1.7780194,-0.26066542,0.34002274,1.2256811,-0.6892867,-1.8722827,-0.08902127,-0.16907182,0.48712993,1.037806,0.6567857,-0.034330796,-0.8461224,-0.5787401,-1.157176,-1.0720072,0.35255772,0.72836566,1.8344316,1.5998828,-0.3577944,0.54312253,-1.002159,0.8455405,1.1198887,0.15828955,-0.6199816,-0.18669543,-0.28168935,-0.45201772,-0.18544807,0.045030072,-0.052188106,0.20139359,0.091732696,-0.5466567,5.620138,0.8910718,-0.04140591,0.023419086,6.617159,0.027567502,0.12234408,0.33182114,-0.47117633,0.20418416,0.29522407,-0.19441748,0.15360194,-0.0846596,-1.2539123,-1.4169421,-0.3860873,1.1006969,-0.9633291,-0.5712417,0.3404553,0.75855935,0.3201135,0.5464245,-0.3748646,0.03393108,0.064908974,0.34738523,-0.96270734,1.2662092,0.86197543,-0.2118313,0.1670993,0.51797575,0.589288,-0.39753652,0.47374827,0.6054393,0.20855832,0.1884868,-0.32826078,-0.24230176,-0.010545216,-0.21300587,0.120645545,-1.0376804,-0.16683301,-1.6026946,-0.29420888,0.017437428,0.10966861,0.16722816,1.6608275,0.6179166,0.18673314,0.5764482,-1.2059443,0.46076047,1.1338017,0.15112266,-1.0393915,-0.2584499,0.8949958,0.57519585,-0.34694624,0.2906034,-0.047015496,-0.9211306,-0.80922633,-1.1322516,-1.365145,-0.4494751,-0.33708978,-0.54361665,-1.1476393,-2.065464,0.3353098,-1.5456328,-0.40517616,-0.3140217,0.011611261,-0.7591229,0.684697,-0.27982265,0.6162475,0.52020514,1.2900361,2.0512974,0.058678873,-0.13280421,0.19658715,0.3738598,-0.07487093,-0.7105677,-0.2491925,-1.4600652,0.7924585,-2.046783,-0.037381295,0.55009353,-0.7628759,-2.0686111,-0.9435058,1.3934221,-1.4945481,-2.0898318,-0.5665551,0.24307516,-0.2587903,-0.557655,0.7267314,-1.5385809,-0.56787074,-0.63287234,-1.3763016,-0.31326893,-0.69005,0.56807846,0.69069993,-1.3452622,-0.13271779,-1.5646107,-1.2743552,0.033897705,0.8470751,-1.5544314,-0.32061353,-0.3161713,-1.1514674,-0.90854084,-0.029704161,-0.22044295,-2.8387585,-0.3101475,0.7186848,0.0681095,1.884871,-0.57982445,-0.9037905,-0.80261767,-0.42101628,0.97333205,-0.33651483,0.378506,-0.17218244,0.9566929,0.0151163265,0.28438652,0.9567721,1.7351077,-0.23868608,0.15924425,-0.4769017,0.5316706,0.682287,-0.5686341,1.5273943,-3.6593227,1.7499406,-1.4741734,0.39570597,-1.1044425,1.3573756,-0.86271936,0.48591843,-1.0160569,-1.2751873,-0.8934672,-0.6345357,-1.4232152,-1.8460159,1.9528458,-1.5698696,0.21588644,0.33755565,-0.19790146,-0.39434016,-1.4297814,-1.214081,0.4099695,0.07709052,0.3595022,0.011433294,0.5710094,0.12725732,-0.53125834,-0.882834,-0.028338552,-1.2504107,-0.15714055,1.952512,-1.2431409,-0.1914312,0.37022144,0.15559481,-0.7812931,0.13425101,-2.48253,-1.1482689,1.1296815,-2.2564874,-0.55585814,0.9688487,0.33231705,-0.5379616,-0.63578016,0.8864792,-0.4648803,0.15277624,-0.46055728,-0.26578206,1.6872491,-0.032914817,-0.9105153,-1.7971102,1.4317281,0.15764207,1.8092492,1.4521979,0.3691482,-1.0854387,0.32689786,-0.13039345,0.08376181,0.68999064,-1.4579215,-0.60492605,0.39729828,-1.517255,-0.8453994,0.41618732,0.31808722,1.390511,0.19291219,-0.49423063,-0.8835929,-1.7142278,0.27447158,1.9004364,1.073297,-0.80265236,-0.3287745,-0.21771634,-1.588589,-0.39733028,0.053946037,0.3748353,0.2274293,0.032705013,1.0329411,0.6442087,0.73189497,-0.23426376,-0.6571945,0.32355982,1.1399026,-1.0225511,-1.9203949,-0.0067978925,1.3018512,-0.50736773,-0.1453455,0.22803861,0.8977442,-0.18666017,2.9752648,0.09691857,0.9748654,1.2389243,0.78511864,0.05393486,1.4753768,0.037986822,0.05652111,-1.2296901,1.3584952,-0.11690381,-0.2773127,1.787606,0.8964663,-0.11878346,-0.2078056,-0.6181003,-1.9837892,-0.31760657,-0.55686754,-0.4504763,-0.39980465,-0.12536573,-0.77647424,-0.6326866,-0.5123341,-1.3788741,1.4988651,0.6588162,-0.4639417,-0.6312419,-1.6885386,-0.30684647,-0.12296991,-0.3434965,-1.9169897,1.3368211,-0.9252349,-0.030573092,-0.14468816,-0.3572893,-0.20555586,0.6545875,-1.2467172,-0.5564249,0.41834772,-1.724235,-0.34010214,-0.07994136,-0.22653507,0.0056317355,-0.07955255,0.06152212,-0.07505612,0.13933872,0.047872845,0.08352265,-0.0022609248,0.33717713,-0.11615759,-0.12678051,-0.03664273,0.10792724,0.0013105267,0.06208139,-0.11216759,0.074829385,-0.026239645,-0.16357304,0.0022518826,0.082651116,0.02251212,0.21182793,0.032502282,-0.2586689,-0.11305187,-0.030574974,-0.03178115,-0.20092407,0.075423986,-0.034986038,0.23558137,0.04122985,0.10876125,-0.01675347,0.1218742,-0.24386033,-0.20584938,-0.017989244,-0.0097974,-0.059741274,-0.10513748,-0.109350294,0.025271768,0.122215435,0.036373056,0.020449832,0.024505416,0.035780273,0.09506682,0.266333,0.018875267,-0.12414698,0.22404408,-0.036904473,-0.15717538,-0.06421718,-0.12414817,0.10995117,0.0035445346,-0.011210948,-0.13268028,-0.057951227,-1.84103,-0.3724165,0.7403907,0.9251337,-1.2861652,1.045391,-1.9226775,-0.020777449,0.18073988,1.8600925,-0.18674025,-0.049471483,-0.29616588,-1.7576119,0.83184993,-0.39989427,0.2272731,-0.3675813,-0.4560688,1.0702555,-0.99579895,0.21753612,0.22489461,-0.5156152,2.4494987,1.2149582,0.0638695,-1.6161463,-1.6479862,-0.6395482,0.50313455,0.29485244,-2.1533337,-2.235723,0.22322595,-0.093691416,0.8365785,0.051962487,0.16386206,-0.34183913,0.61168826,0.6437725,0.3309663,0.949592,0.22392374,1.9412391,0.49038124,-0.64535785,-0.8380134,-0.050625395,0.51963985,0.038940407,0.87277126,0.3029455,-1.1578522,1.724633,-0.9890688,-0.06678731,-0.8190353,-0.19703832,0.2877806,1.4719266,1.5249835,-0.11730681,-0.11764309,0.08962152,-0.092657685,-0.018582981,-0.07613292,0.15286505,-0.11280896,0.11685097,0.10953264,0.11032264,-0.03639733,-0.175616,-0.09016513,0.05101537,0.14353296,0.0708019,-0.12857395,0.012410658,0.096251324,-0.20837733,-0.16622719,0.18991278,0.13975903,0.04474272,-0.22595036,-0.1686245,-0.33109623,-0.18447387,-0.019463234,-0.16742943,-0.010653963,0.08915446,0.10035048,-0.060268044,0.14721316,-0.027390353,0.21034996,0.0028487132,-0.21343672,-0.13034442,0.05286386,0.003838664,0.027518265,-0.060394194,0.20023611,0.03324229,-0.0058947355,-0.034385376,-0.043442354,-0.25172037,0.24009523,0.18391018,-0.0030524798,0.023789179,0.098828465,0.12037688,0.070698604,-0.19541825,-0.20615727,0.052841395,0.096310586,-0.1309558,0.08416928,-0.6533315,-0.2881457,-1.1009505,-2.29734,0.54537463,0.46857563,-0.23706985,-0.45442128,-0.07102533,0.8311136,-0.8699935,-0.34418166,-1.0208058,1.35533,0.93848217,0.665413,-0.6663451,0.7255255,0.76192784,2.5814295,1.0187285,1.055985,-0.1320549,-0.26240918,-1.3775364,1.1119668,-0.36670715,-0.6482594,-0.067484155,-0.10499361,0.25815204,-0.31183705,-0.04678435,-0.0785193,0.5824064,1.1872063,-0.5489323,-0.6330792,2.1279516,-1.1431837,0.78637373,-1.6437309,-0.78289235,0.36329895,-0.11353771,-0.74665606,0.5225595,-2.0489292,-0.6084058,1.6171964,0.8683449,0.089601725,0.9506888,-1.1902246,0.35676438,-1.0816549,-0.2364204,-1.9042221,1.7226176,-1.8635874,0.7042779,0.5105796,0.38172078,-0.2638547,-0.7689401,-0.14831972,0.22728044,-1.025972,0.93693346,-1.0738504,-0.43684417,0.5601773,0.41942725,-0.32410717,-0.33680558,-0.6428443,-0.029402994,-0.47486052,-0.025893085,0.23849186,-0.071731165,-0.8531092,0.11558315,-0.7124877,-1.0548179,-0.26615274,-0.010250153,-0.52530295,-0.54703516,-0.44042993,-1.8025169,-0.6259552,-0.6186385,0.44860703,-0.98101664,-0.37058568,-1.1588826,1.9781489,1.0784105,-0.23885283,0.086040646,0.43412864,-1.0781167,-1.3393456,-1.0421133,-0.95153546,-0.096747026,-0.13957167,-0.21313182,-0.8532703,-0.6689396,-0.73062146,-0.21441542,-0.42949724,-1.0949636,0.8648821,0.79067934,0.008506091,-0.59876895,1.0140438,-0.8035493,-0.096495464,-0.23524174,0.6476904,-0.5268084,-0.18094459,-0.5538145,0.111040846,-0.5918312,2.5196295,1.0161309,0.12088734,0.95457816,0.68200153,-1.5080671,-1.7882613,0.20840238,0.9066138,-0.5479598,-0.35157198,0.3765071,-0.28562474,-0.42554775,0.785558,0.47024804,0.66142523,1.239676,0.6861857,0.5419961,-1.0240295,0.0878568,-0.55806327,-0.587052,-0.18700606,1.545078,-0.29745942,1.2046466,1.1703885,1.3264759,-0.030869918,-1.0680838,-0.48515436,0.2707213,-1.2951388,-1.1685426,-1.4192517,-0.6779282,-0.61305034,0.075215735,-0.5274018,0.5131982,1.4507442,0.45270926,-1.8729057,0.2955861,0.15439537,-1.3650872,0.3442588,-0.04961744,1.8034582,0.30402094,-0.89209926,1.0613759,0.3422136,-0.4910102,0.9023917,0.3960773,1.661607,1.1892836,0.11304815,-2.4865532,0.9890412,-0.6662258,1.29703,0.5546946,-0.6152557,0.7417995,-0.65652645,-0.8038387,0.14354904,-0.16040392,-0.2929591,-0.52058244,-2.0083108,-0.7078141,0.3258574,-0.88120526,-2.2716074,0.073882096,1.5832189,0.6005409,-0.10466471,-0.36238766,-1.6530576,0.323907,-0.29350588,-1.3515604,-1.0281093,0.27338877,0.330913,0.65602756,-0.54343003,1.0254889,-0.7910998,-1.0490175,-0.059033602,0.055775672,-0.5621401,-1.118695,-0.047177948,-1.941855,0.08227759,0.15636644,0.7069272,-1.2470074,0.47164512,-0.7884799,-0.14987938,-1.5530012,-1.442265,0.1819124,-0.33749267,-1.2260721,0.5736157,0.1985444,0.12024668,0.7351128,-1.4373225,-1.01888,1.3850863,-0.41598544,1.0688655,0.33009356,-0.15967397,-0.9312081,-0.5819484,-1.255553,0.33875307,-0.74966407,-2.3369813,1.0755742,0.47530437,-0.5167186,-0.22739923,-0.07448444,0.16195717,-1.5487728,-0.6295463,-0.05412255,1.4222143,0.3981818,0.026295777,-0.2779282,-0.93903375,0.8140098,1.4882467,0.38039935,-0.9018759,-0.16992973,-0.101343356,-0.27917185,0.037720203,0.5983649,0.61566293,0.47400552,1.504027,-0.071210995,0.6373608,1.6367656,-0.44948965,2.2372274,-0.80259717,0.88468826,-0.11047868,1.7498264,0.96454847,2.0067525,0.5876644,-0.47770792,-0.007922086,-0.7196192,0.06042499,0.9304291,-3.536106,-1.6018552,1.3774388,-2.669849,-1.3150626,1.1773252,-0.19776627,-0.2841652,0.13608627,0.13743025,0.08790402,-0.7105,-0.8082119,-0.09950627,-0.21720044,-1.0084548,0.59099543,-0.097874984,-0.080539316,0.19727832,-0.20491587,0.092019394,-0.30302113,0.1427863,0.03612215,-0.04491465,0.047070794,0.12786296,0.0361856,-0.18968248,0.06795566,0.119718015,0.13217956,0.14800549,-0.22627655,0.039415568,-0.17245826,-0.26600832,0.03410749,0.043361064,0.12664936,0.12892067,-0.18169163,-0.33613616,-0.059939235,-0.10673672,-0.02453668,-0.13031617,0.015983548,0.015598955,0.16540009,0.068526536,0.022106841,0.06101358,0.16519034,-0.26611274,-0.16968921,-0.1384461,0.04597795,-0.092321426,-0.108340204,-0.07144622,0.047116615,0.0679632,-0.081804544,0.009418238,-0.032490246,-0.03240051,0.07132505,0.15512542,0.033305474,0.0007524663,0.08483927,-0.034974888,-0.09590205,0.082351945,0.11070137,0.089709505,-0.12717733,0.0884089,0.02278553,-1.5252497,-0.24050614,0.055205442,-0.40246612,0.13689736,1.9171357,1.356967,-0.5206419,-0.017616402,0.5266057,0.8909581,-0.36021554,1.0153627,1.0431638,-0.0869607,1.0321829,0.7453414,-0.6830089,0.44906166,0.1586541,0.6344975,-1.1464491,-0.20431808,0.7441729,0.0003199078,1.0731436,-0.9047009,0.95259666,1.2766773,1.6349303,1.4118977,0.24412882,0.23619598,0.34923586,-0.43305296,-0.6933838,-0.67856264,-0.5469415,0.24356428,-0.8311106,0.14537646,-0.14586687,-0.28183734,2.6373901,2.4216843,0.09360367,-0.8873087,0.24097165,-1.4638739,-0.0018165939,-0.8092429,-0.59164095,-0.19764225,-0.018080529,0.071565896,-0.43618873,-0.09397943,0.5217236,1.2491231,1.6236762,-0.51360893,0.40974534,-0.9606862,0.0699449,-0.032472186,-0.13119869,-0.79626584,-2.217627,-1.5472803,-0.12619476,-1.7657535,0.7254715,-0.22620255,-1.1400999,-2.5677137,-1.448101,-1.540065,0.12215315,-0.22353142,0.04176666,-1.5873808,-1.3141253,-0.27248654,-1.6956491,-0.911275,1.2266154,-0.07378346,-0.7218288,-0.3141716,-3.0145311,0.62617517,-1.4804182,-0.05513398,-0.7957678,0.88881034,-0.866524,0.5857171,-0.764901,0.2125856,-0.34943455,0.90690684,0.5988523,0.089754626,-0.8619108,-0.85374606,0.88175964,-0.5381555,-0.20876554,0.2010943,0.42782897,-1.101227,-0.92035735,-0.9871482,-0.30122197,0.09205313,-0.7670343,0.6421714,-0.7905847,-0.18680866,0.42558455,-0.24184105,-1.3842003,0.5212165,-1.8157475,-0.10911742,0.38272554,1.2356536,-1.9418406,-0.25139236,-0.7776951,0.31403416,0.14548814,0.20976964,-1.0742671,0.7582208,1.0184416,0.04426497,0.5088041,1.8577139,-0.2226907,0.23799607,-0.4370069,0.5191511,0.66321915,0.76481557,-1.0457711,0.23402819,-0.16041142,-1.0211358,-1.1950871,0.20578168,0.23648977,-0.05232921,-1.5824381,-0.67783964,-0.18325734,-0.3445922,0.87479055,-0.98393005,0.43882868,-0.3088549,1.7696018,0.21673495,-0.37786257,-0.0040196986,0.9514798,-0.64116055,-0.038246736,0.09250912,-0.5310203,0.6496056,-1.0129602,-0.33704954,1.7643567,-0.18760541,0.06906954,-0.5222728,-0.68132806,0.092130795,-0.104587466,-0.15947416,0.5516838,-0.59098536,-0.43823168,0.5476986,0.57464415,-0.005372167,0.0030287881,0.07753793,-0.8002205,-0.593139,0.5938115,-0.47527546,-2.2407203,-0.18160427,1.0875838,0.97009695,-0.86891913,1.1166406,-0.0643405,0.38744202,0.39428133,1.7106249,-0.5817281,-0.2930025,-1.4739196,-2.5620043,-0.7960277,1.7157145,0.9912051,-0.7654434,-2.172367,1.3883626,0.23003379,0.48301417,-0.7105355,-0.25911188,-1.322614,-1.0161834,0.035834305,-1.6166756,1.11021,-0.20280102,-0.24987717,0.28950542,-0.49148393,-1.6421788,-0.23449713,-0.47148496,-0.3903975,0.34676534,-1.1172638,-2.0994163,1.276689,-4.3104515,-0.6295777,0.139106,0.19319779,0.9633248,0.59958255,0.568493,-0.70182765,0.6320875,-0.46409422,0.68962526,0.4648267,-0.30132508,0.31027398,-1.6242532,-0.91677713,-0.4221288,-0.96031564,-1.2433574,-1.0173981,0.828035,-0.120942615,-0.7950974,-2.0896873,-0.11259414,-0.062276307,0.1774593,1.8978243,0.71705335,0.3446728,-0.036473393,0.16479826,0.5105622,-0.5200119,-0.2633875,-0.4332436,-0.21485516,0.61422837,-0.40971172,-0.5229143,-0.7657174,0.39882016,2.3448455,-1.5644858,0.16838992,1.2105733,0.75867695,0.16940379,0.6096077,-0.3172353,1.0286665,0.97724247,-1.6634221,-0.9567469,-0.851367,-0.7838223,-0.645041,-0.67862666,0.12988229,0.08660137,3.5754657,-0.11531904,0.30021587,-0.30603075,-0.6408322,0.713415,-0.5630437,0.25476274,0.17899878,-0.70774233,-1.4120818,1.0053582,0.037826013,-0.32899156,0.43427607,0.49996108,2.3617682,-0.2504024,0.37867802,-1.1895537,-0.037654787,0.85654294,-1.2243993,0.13497576,-1.1372514,0.5100622,0.08180393,0.11277954,-0.62445706,-0.9925616,0.46568465,0.10105704,0.28680408,-0.06459213,0.044211894,-0.26599786,0.46901536,0.8646556,-0.3490433,-0.69860464,-2.3686857,0.8292582,-0.13502419,-1.4538186,0.5085721,-0.5819341,-0.5305969,1.1524633,0.0998472,0.3177718,-1.5735147,1.0428388,1.9096574,0.019112501,0.31723332,0.24774528,-0.6021518,-0.170751,-0.9307555,0.32654753,-1.3273617,1.0963459,-0.74489105,1.2449093,1.0739579,0.04519061,-0.12004669,-1.965766,-1.1364605,0.71517414,-1.7477381,-0.26361775,0.6776148,-0.19495451,-0.09112421,0.58170205,-1.4352202,0.20230001,-0.9147294,-0.928668,0.4497267,0.14355305,1.4387202,-0.47017086,-0.06861737,0.3972754,-0.2713868,1.3030972,-0.049488574,0.2758217,0.035803456,0.37786573,-0.7272646,0.35769817,-1.2325704,0.09761238,-0.5324288,-1.724921,0.111306,-0.430374,-0.3271296,0.5656916,0.47434485,-1.1325576,-0.23827004,-0.23150787,-0.7624122,-0.5348937,0.38223338,-0.4644317,0.43326885,-0.42371702,-0.08739874,-0.6112487,0.5026933,0.04033442,0.05739505,1.0447061,-0.106586486,-7.554023e-05,0.43480176,-0.25611365,-1.2993944,-0.8699481,-2.4579818,1.2865655,-1.4402535,-0.1614955,0.4209645,0.90705204,-0.72329855,-1.4954377,-0.068674505,1.0206273,-0.04578959,0.43377948,-0.71471316,-0.23220125,0.3037213,-0.30069262,0.03536773,-0.42915332,-3.3327258,0.219759,0.37555522,-0.0699977,-0.5118301,-1.070667,-0.12846512,-0.5962404,-0.24507189,-0.2852384,-1.1094146,-0.74678904,-1.3985894,-0.701735,0.96120536,-0.19607848,0.049016077,-0.26032767,2.3551755,1.5773613,-0.109252505,1.0635899,0.7477759,0.17268474,1.0345106,1.3931024,1.5088614,-0.052979738,-0.28529632,0.94890153,0.0021245126,1.5554495,0.26406446,0.5430498,-0.066070326,2.1017833,0.7420905,0.6450881,0.058555815,1.0089846,0.117362276,-0.4508431,0.18593732,1.0774057,-0.35369676,-0.20537564,1.0850368,-1.650738,0.6670166,-0.96740323,0.61668336,0.27537793,0.74795747,-1.3600667,0.45290378,1.8729334,1.5919383,-0.4321076,-0.4706154,-2.653499,-2.0455437,1.828177,-1.4347298,-0.40776354,0.4811778,-0.2906667,0.5336666,1.003638,-2.376398,-0.88015103,1.8869687,-0.5169988,0.48483866,0.4469073,0.14529058,-0.37526023,0.8857929,-0.67744404,0.08031925,0.05720672,0.7793722,0.3746049,0.40956825,-0.433874,-0.21212864,0.44703227,0.36325902,-0.32135224,0.21971977,0.49042836,-0.00092536723,-1.4232523,-0.08787544,-0.7974967,0.68924546,0.40178686,-1.3266265,-0.2324769,0.19146046,0.34756172,-1.5683925,-0.5746907,0.71022916,2.0477338,0.45961165,1.7385678,-1.3648052,0.1338768,0.122192375,0.20316719,-0.40558064,-0.76162434,0.15455139,1.2540946,-0.6984253,0.6961884,0.5824629,-0.60163164,-0.39284652,0.36576414,-0.37325883,2.400591,-0.37300694,1.4771767,0.008206848,0.30935967,-0.07858036,0.26377645,0.23451057,0.24564013,-0.0037013022,-0.36532837,-0.6246623,-0.7828653,-0.17413962,-0.5088745,0.18263805,1.9872234,1.5381658,-0.6718446,-0.17688599,1.561646,-1.5191667,-0.96430826,1.167455,2.1612616,-0.008306238,0.34109092,-0.020139001,0.4934527,-0.9330549,-0.7998307,-0.57200485,0.6317316,-1.3307414,1.7101834,-0.38052624,-0.31128246,2.011983,-0.13791981,0.3106703,-1.2625072,0.14057875,-0.79766166,-0.5610609,1.4111582,-1.3660283,0.53390443,1.7625754,1.384609,1.9392502,0.19351715,1.2291441,1.0341289,0.3930964,1.0258133,-1.2776634,-0.28436184,-0.6790371,-1.3286775,-0.15964781,0.5326963,-0.92135334,0.7838888,0.26048726,0.2907832,-0.7484783,-1.2220994,-2.0826333,-0.73053145,-0.80684555,-0.71569216,1.027889,0.1279737,0.04135101,-0.35241807,-0.4000398,0.49204782,1.1487472,1.3796053,0.77538943,-0.7779769,0.2989412,0.11486968,-1.1068211,0.65735066,-0.95905095,0.3231262,-0.3091625,-1.5955333,-0.55514956,-1.1997013,0.074972555,-0.636782,-0.5502703,0.6951866,0.053496934,-1.0665209,-0.89620316,-0.5701966,0.0137515515,-0.20079374,0.7651819,-0.98374057,-0.28175446,-1.0856897,-0.15025295,-0.6256486,0.030866649,1.5745065,0.2893502,0.41646042,-0.8263558,0.8100736,-1.0729226,-0.40188584,-1.4589715,0.12986211,-2.0801048,0.9489392,-1.8181598,-0.68547904,0.204995,1.0310154,-0.73187506,-1.7923465,-0.6092192,-0.9952411,-1.2472892,-2.0388951,-0.28216445,0.44205168,-0.057848148,-0.32824272,-0.07591088,-0.045905806,-2.401263,-0.24581511,-0.14405021,-0.540304,0.21460515,-0.29462838,-0.43405944,1.1242033,-0.5138221,-0.95074034,-0.77498215,-0.14330044,-0.34848258,0.8825556,-0.9604778,-0.7775156,2.894126,-0.045924675,-1.0174701,-0.97729,0.24761347,-1.0555899,-0.5891701,-0.7812532,-0.5831282,-0.3846497,0.3046403,-1.1870443,-0.5787624,-0.52661574,0.672661,-1.486744,-0.465766,-0.5515086,0.036715426,-0.13916975,-0.37119457,1.4938643,0.23583373,-0.7487871,-0.6014838,0.68409574,-0.6886369,-0.6713377,-0.87304735,-0.42683023,-0.22834402,1.6384864,-0.4362197,-1.9787097,0.79087603,-1.3931267,-0.6036818,-0.6657618,-0.96210897,-0.62594116,0.05317863,-0.17776811,0.4940725,-1.0320759,-0.58181214,-0.9193744,-1.2729,1.7644887,1.3892261,-0.28310382,0.42401803,-1.1154393,-0.63635206,-2.0064502,-0.74349004,-0.73389626,-0.06918109,-0.45720378,-3.2534566,1.6065124,0.24885714,-1.2190895,-0.5773014,-0.29783058,-1.5390184,0.5102438,-1.9157484,0.44203192,-0.23353246,-1.1619804,-1.4945496,-0.39669675,-0.5230939,-0.62394464,-0.750852,-4.3430357,-0.07137413,0.66933703,-0.23528434,0.3121395,1.5693027,-0.7062162,-0.8381902,-0.68260646,1.6857564,-0.05444552,-0.5371829,-1.6165917,-0.2773222,-1.269836,-1.816586,-2.6666007,-0.26431283,0.77579564,0.23672095,0.187177,0.09697603,-0.12229806,0.038043562,0.110786386,-0.24311411,0.6269429,0.10621479,0.7827723,0.9268,-2.3949435,-0.15153362,-0.5371113,-1.3634998,0.011573669,-0.72880924,-1.1632028,0.36399037,1.6720276,1.5628946,0.02581189,-0.4246517,-0.9089974,0.34197366,0.31947178,-1.9143481,-0.6302452,-0.066494435,-1.4195204,0.08686784,-0.43030453,-1.2863219,-0.3757514,1.1735682,-1.1268284,-0.08384676,-0.83400154,-0.0821154,0.3229581,-0.39860806,0.33760905,-0.3979167,-1.5091342,-0.23796305,-1.3302579,0.37455437,0.6331583,0.97233677,-0.46989566,-0.073654264,-1.6527462,-0.14990693,-0.5270673,1.6478478,1.1699604,-0.9756906,-1.3561018,0.051204275,0.89384735,-0.7955222,-0.9597587,-1.7530913,1.6064912,-1.2547293,0.7032389,-1.7695463,-1.298782,0.018995337,0.44848675,-0.3171528,-0.8901061,0.25049692,-0.03730978,-0.35500956,-1.1419165,-0.21369754,-1.0141699,0.21219793,-0.72914743,0.49528342,0.6689489,-1.2231199,0.44654134,-0.02337168,-0.43382293,0.02379676,-1.3124951,-0.97145534,0.6504302,-0.33027717,0.11949127,-2.8913789,0.5680367,-0.33921075,-1.0417298,-1.2119472,-0.55482113,-0.25131044,-2.1761336,0.25652912,0.59916866,0.28022176,0.8794888,0.6286665,1.2457144,-0.21686444,-2.7174804,-2.660243,-0.8802755,0.3031287,-0.09641749,-0.6217487,-1.1635132,-0.6413791,1.1844028,-0.03641609,-0.8690389,-0.2703684,0.378162,1.0209296,-0.47751093,-2.0594063,0.44410533,-0.23701105,0.8936967,1.027307,0.043618657,-0.8008944,-0.90832,0.5888542,1.3334403,0.9170422,1.086149,-1.8159037,1.1540506,-2.5829487,-1.0737338,-0.9843543,0.012231397,1.0410779,-0.8061063,-0.16917041,0.8254553,-0.56696475,-0.31212604,-0.7219298,-2.3097029,-0.06102416,0.75948,-0.71576476,-0.9904119,-0.9964746,-0.4864034,-0.05686304,0.52430636,1.0084984,-0.06068947,0.18592614,0.14035845,0.6672411,0.46059084,-0.13257675,-0.2845681,0.14807945,0.113364704,0.0011568207,-0.32105908,1.1542667,0.20004371,0.1056516,-0.4925642,-0.19656911,0.47787756,1.0609524,-0.50395215,-0.2808267,-0.74725187,-0.2988705,0.30763334,0.25116432,0.20043096,0.0307477,1.4074838,-1.0359732,0.16253552,-0.6630494,-0.36620194,-0.060713783,-0.17499977,-0.2618317,-0.19258723,-0.22365755,0.13763368,0.0033355465,0.43779227,-0.6522672,0.05164399,-0.14203206,0.050688967,1.8619722,-0.13557327,-0.20160297,-0.49741644,-0.07943311,-0.19768846,0.17126724,-0.15702385,-0.06129463,0.14546189,-0.35149056,1.0427194,0.040718183,0.29869533,0.7156702,0.5192226,0.13812499,0.9620178,0.17511122,0.13146548,0.3851234,-0.3223753,-0.45320338,0.09442343,-2.8083377,-0.1481936,0.6513725,-0.5831776,-0.96716243,-1.1641324,0.0102031175,-0.06520532,-0.54574466,0.591768,0.037058443,1.0331616,-3.1831899,-1.3298707,-0.9009191,0.17711166,-0.16926265,-0.6343815,-0.5331726,-1.654563,-0.438722,-1.0979019,-0.98708713,0.63809526,-0.049222,-0.69665194,-0.44308692,-0.35878104,0.27875698,1.4742967,-0.29276562,-0.5605004,-2.0871332,-0.33263212,-2.258624,-0.8749571,0.09929788,0.5397874,-0.33649552,-0.9029961,-0.37467083,0.15013401,0.2707779,-1.4243698,-0.415906,-0.80923676,-0.46398208,-0.31588066,-0.061865203,-0.17834142,-1.1078671,-0.576705,-0.06023377,-1.5808643,0.24635175,-2.4183097,0.05740229,0.5479803,0.6856034,0.21636829,-1.1161108,1.2985852,-0.7482519,0.9934939,0.094221786,0.40719798,1.1703559,0.59379727,0.36567256,2.2742066,0.120156586,-0.39551973,1.0847431,-1.4411561,-0.9141588,-0.9313251,0.03898602,-1.3548841,0.49369204,-1.5113288,1.2443714,-1.4237626,-0.8722896,0.3677871,0.1353876,0.3262434,-1.0779794,-0.2140097,-1.7360454,-0.6476133,-0.60066646,-0.18442695,0.39751163,0.107158996,-0.71774447,0.43403196,0.24383387,0.8813672,0.45886177,-0.90387976,-0.16296226,-0.9599496,-0.11706465,0.20476246,-0.8283477,-0.31082004,0.21260488,0.2881033,0.82581246,-0.5769506,-0.11574751,-0.3305056,0.45013356,0.4489093,1.4725982,-0.22022921,-0.092997134,1.6844037,-0.2601434,-0.7581413,0.62523603,-1.0549338,0.37955737,-0.08990251,0.6060116,1.2777874,-2.4251049,-0.33046705,0.5403954,-2.1570837,0.55426353,0.40038526,-2.2044363,1.6136124,-0.24805072,-0.4263266,-4.521534,-0.22963089,-0.170544,-0.30485195,0.33539757,-0.82445204,-3.001958,-0.09960529,0.25137144,-0.3501976,-0.34526154,0.47663733,-0.073205665,-0.05358079,0.178017,0.60789704,0.010206172,1.1855965,-0.101700306,0.6198532,-0.04390356,0.15055159,0.1823838,0.9085535,1.567489,0.16052559,1.2137289,-0.09750195,0.18059279,-0.18449727,0.6616912,0.20632291,0.19111183,-0.6869825,-1.5550976,-0.3261999,-0.12170166,-1.1436594,-1.7553983,0.22607642,-0.63749963,-0.023481954,1.2566391,-2.007231,-0.26381126,0.18198296,-0.3387452,0.54551035,-0.5205153,-1.4604871,-0.28491277,0.9240484,0.23032871,-0.1767587,-0.21398051,-0.9243753,-0.5537697,-1.6117831,0.90363276,0.23842198,-3.7112415,0.6604191,-0.025170457,0.41222626,-2.8476117,-0.27484125,0.9466802,-0.6648197,0.6225788,-0.022743046,-0.6710206,0.29361498,-0.6357151,0.6166308,1.436989,-0.62208414,0.06943095,-0.5165024,7.262477e-05,-0.5816486,0.005398974,0.14815462,0.47671485,1.6994414,-1.1223321,-0.3692307,-0.7771636,1.4450977,0.8559103,-0.58221966,0.64500815,0.29781252,2.2388682,0.22325003,0.38493407,-1.6996138,-0.17329979,-1.3358378,0.41381153,0.5358748,0.5855767,-1.6566131,-1.4327207,1.3782506,-0.0873205,0.68539846,0.451164,-0.8575064,0.69945157,0.3061186,-1.2655327,-1.3698586,-1.2248416,1.1937001,-0.5294406,-0.4662339,-1.0218917,0.24810952,-0.55845034,0.4113953,-0.5457334,-1.0947337,0.12081404,-0.97140765,-2.532867,-0.7274101,0.3608392,0.43916324,-3.634184,-0.5621921,-2.2572916,-1.7985625,-0.878947,-0.5930904,-1.0364565,0.049757604,0.07341218,-0.26473844,1.0301056,1.3315585,-0.30142683,-1.1811311,0.6858051,-2.3270938,1.302574,-3.2657516,-0.010128583,-0.106009915,0.06266038,0.49254674,-0.8076609,-0.53671753,-0.3655663,-0.4030072,-1.4551098,-1.5158253,1.3719633,-1.3835528,-0.9377593,-0.17445485,-0.37657896,0.9269215,-0.11966653,-1.5568762,1.1704378,-0.40097013,0.57255757,-0.43091077,0.17987342,1.0693195,0.7079408,-0.59314144,0.12173146,1.2930698,-0.65756965,0.23688257,0.2915213,1.1642035,0.84774584,0.12563905,-0.42681473,-0.26546535,-0.75738955,-0.96786,-1.5001452,-0.7895464,0.6771711,0.7645365,-0.8625257,1.5261278,-0.27126503,3.929863,-1.5157568,-0.2656573,-1.3015039,0.6085143,-0.32325608,1.0265472,0.8031038,1.1015406,-0.005158027,2.3754232,0.66431123,-1.4307159,0.1687271,-0.65391517,0.08005649,0.7233537,-0.7377933,-0.4969139,0.96544373,1.3695726,-0.23952833,0.19624081,0.42332327,1.0613396,1.2996466,-0.9026891,-1.4806523,0.44272378,0.90443623,-0.22518224,0.69353545,-0.867324,-0.34156632,1.009784,-0.19541101,0.86519957,-0.09071839,-1.0740952,-1.3976115,0.80626166,-0.24167064,-0.067379415,0.43366912,0.30206174,1.4942496,-0.5238149,-0.6498056,0.008832737,1.3953643,0.19355744,0.44882733,0.36319554,-0.4761625,0.06138566,0.6946477,-1.0371697,0.16765592,-0.0889699,0.6674272,-1.7582426,-0.27484593,1.6212348,0.009760158,0.24750757,-1.0729206,-0.7525917,-0.80411047,-0.49435264,-0.6093838,1.4648091,-1.3281875,1.0038031,-1.9747385,-0.7127694,1.0934434,-0.63265705,0.073970914,-0.21074963,2.1802945,0.09446837,-0.6177505,-0.8672503,-0.82217705,-0.5852709,-0.8417942,-0.6929686,-0.30940035,-0.3034823,-1.7766005,0.772069,-2.5197752,0.71028274,0.7424173,-0.12714474,-1.3667773,0.05053118,-0.2800132,-0.985142,-1.2967257,-3.9877157,1.481211,0.82184374,-0.37626737,-1.0743363,-0.039937086,1.3629613,-0.86180955,0.46924007,0.48764592,1.1553621,-0.33225217,-0.6556201,-0.0076126987,-0.2824893,-0.9281855,-1.1264255,-1.6411405,-0.4561569,-0.50196284,-0.5952487,-0.90815026,-1.4524933,0.12474517,0.34828603,1.282929,0.9059223,-0.20574008,-0.9962254,0.4262075,0.0020784826,0.22593294,0.70060325,0.23673674,1.1530735,-2.071577,1.5845504,-0.64966214,-1.4902909,0.5709579,0.14905564,0.1474407,0.35238236,0.07496202,-0.79383194,3.4241385,-0.37751204,-0.26132044,0.15988356,-0.7177398,0.32780534,-0.37955102,1.3291175,-0.39766878,0.21986248,0.49374777,-0.6267617,0.12837389,0.026562538,0.16166817,-0.3404832,-0.28918868,1.8567125,-0.12604707,1.5941136,-0.5499823,-0.11339153,-1.0943234,-0.14371175,-0.2535479,0.5201644,-0.8049809,-1.2442331,-1.6264764,-0.07453203,-0.87639034,-1.0204046,0.475204,-0.44908065,0.26702031,1.5812778,0.12410093,-0.61042106,-0.032803003,-0.54595786,0.5269315,-0.48284525,-0.08027636,-0.2500431,-0.24760893,-0.10519478,0.4499673,0.08163497,-0.5516383,-0.20485559,0.13551319,-0.18903655,0.12727067,0.765227,-0.55131423,-0.29499686,-0.045507126,-0.962165,-0.32258606,-0.0963102,0.0889744,0.29884678,0.5740119,-0.22069414,-0.88889575,0.4600032,-0.60988617,-0.19952644,-0.33609843,0.63354886,-0.27250433,0.46422568,0.61209595,-0.9586849,2.119146,0.73486,-2.0437622,-0.51173234,-0.18093398,0.82232845,-0.123900846,-0.07892055,-0.04127037,0.059880067,0.32220566,-0.07762739,-0.89135444,1.0944943,-0.90119904,1.3285334,1.2228161,-0.3703404,-0.44226184,0.76363564,-0.2825989,-0.47079045,-0.18466386,1.3790581,-0.22157939,-0.11510828,0.6444788,-0.2742384,-1.6939185,-1.9335587,-1.0401924,0.003364266,0.55670744,-0.5878107,0.058933772,0.055464014,0.119039506,-0.49786705,0.56234807,-0.29839903,-0.25435507,-1.261534,-0.9122088,-0.49767596,0.8815545,1.1532108,-0.15703544,0.2524529,3.7044382,0.33100265,0.13933107,-0.4601859,-1.0951108,0.9658184,0.8386967,-1.3089836,-0.510522,0.6023505,-0.6145011,-0.89049745,-1.6734389,-0.6635666,-0.2952829,-3.2885146,0.31435984,-1.3972404,1.8870184,-1.1063285,-0.99536306,-2.0812078,-0.65567017,0.6204034,0.42767912,-1.0042338,1.7764933,0.30457312,-1.499692,0.9086414,-0.061157197,-0.16988498,0.48195595,-0.86186266,-0.32340437,-1.0515108,-0.5483535,-0.71134293,-0.028571162,-0.057533883,-1.2207408,0.16120918,0.3262533,0.97489035,-0.39929223,-0.39181924,-1.7212558,-0.5121206,0.8839354,0.4896829,-1.3301351,-0.5026481,0.04058688,1.4068584,-0.23245786,-0.5714618,0.19920021,1.1638765,-0.52485895,1.6942697,1.472214,1.5825571,-0.2641233,0.24678475,1.0114563,-0.5643002,0.46613133,-1.6374702,-0.51072454,0.9409646,-0.70273334,1.0851358,-0.47681516,0.2992317,2.265582,1.3853595,0.64262176,1.4760587,0.9822552,-2.1320128,0.32930216,0.99542093,-0.6504966,-0.58771735,-0.56237876,0.49750394,-0.9764091,1.9574108,0.65610373,0.3991264,0.31075126,-2.5156212,-1.748591,-0.45080227,0.6476555,0.024885982,0.9169793,0.3749995,-0.15979272,0.69775283,0.25035137,-2.6522017,3.0883532,-0.6321102,0.40606534,0.5020126,0.30698887,0.43361902,-1.0387499,-0.72249234,-0.91506076,0.030895866,-1.221834,-0.16943684,-1.207443,0.19976789,-0.1594509,-0.3194053,0.13965018,-1.9587097,-0.5073108,0.34453195,0.98154473,0.11892411,0.7047281,0.78753376,-0.8237242,0.3476035,0.34602714,2.7402678,0.027878826,-1.2033923,-1.5051215,-1.5443546,2.105507,1.0139334,-0.095799714,-0.70372254,1.5095506,-0.24550942,-1.564878,0.57406425,0.21509214,-2.1558058,-0.22967419,0.26744223,0.3676912,-1.4358206,-0.66410553,-1.7346439,0.7417096,-1.1419897,0.09742014,0.16462898,-0.50303817,-0.47185072,0.0050842846,0.5018335,-1.0378604,-0.68913686,-1.1659667,0.5783488,0.106767744,0.6482509,1.4292842,-1.5303652,0.41442955,0.37248182,0.6730485,-0.14187804,1.7630365,-1.4361459,-1.8375916,-1.2901397,-0.08323159,-0.7660583,-0.94470763,0.2610751,0.25239205,0.30518824,-0.16911359,-0.6302719,0.51006114,-0.21046048,-0.79790294,-0.16809002,0.70040923,-0.8592458,0.3317197,-0.3331736,-0.4264437,-0.013201369,-0.06352587,1.1379356,-0.03824655,-0.15492836,0.7168818,0.8522817,-0.041885924,-2.373787,-0.34147263,-1.9994657,-0.13937713,-0.7616809,-0.60881144,0.37554032,-0.5380879,0.28541806,-0.18177533,-0.6911218,0.8861232,-0.17491084,-0.5090133,-0.27957672,1.1671603,-0.8119685,-0.18116862,0.37851566,-0.90325594,-0.07177915,1.511305,-0.6177987,1.4612399,0.9205899,-1.5617106,0.6421216,-0.24664217,-0.12756306,1.1783535,-0.4616542,0.03590969,-1.0188752,-0.004574036,0.55164886,-3.0075326,-0.827222,-2.6982894,0.06757575,-2.0753682,-0.43869382,1.1414747,-0.3461628,0.28419065,0.5271939,0.12238901,0.3299497,0.5425967,-1.8531189,-0.63600993,1.4217076,-0.71533763,0.363921,0.72623265,-0.06768304,0.18397024,3.012499,1.3779457,-0.24673751,0.12909117,0.05944246,-0.62191457,1.7757115,0.14517939,-0.22299978,-0.31065938,0.80455375,0.3740553,-0.33918592,0.21124248,-0.96341455,1.7682071,0.14288405,-0.71404934,0.47827765,1.133567,0.863441,1.5869728,-0.5909704,-1.7717412,-0.06199747,0.04974638,-0.0439115,0.748706,-1.6716998,-0.18321031,1.8390577,-0.61067045,-1.2486651,0.25301063,0.7307037,0.50752574,-0.060562544,-0.007937831,-1.4320579,0.3932888,-0.31894723,0.3122635,-0.20568001,-0.6095412,1.105607,-0.7200896,0.3921068,-2.0805273,-0.8448769,-0.052976746,-0.8372978,-1.530663,-0.13326673,0.03262247,-1.18191,-0.9863707,-1.3105328,-0.30757594,0.9831021,-0.25342482,-0.39534047,-0.5910089,-1.3486936,-0.07222982,-0.1437425,0.15870126,-0.09179704,-0.2814383,-0.86778235,-1.3133171,1.0955293,-0.5540706,0.67478967,-0.61056983,-0.6288488,0.05207293,-0.8895234,1.8053993,-0.01991765,1.7845569,1.2439957,3.149858,-0.18271658,0.19277635,0.56681335,0.5410856,-0.055438973,-0.87745,-0.031472668,0.138111,-0.7366164,1.7944446,-1.214757,0.03303898,0.48457408,0.29930818,-0.25162834,1.0410768,-0.327327,-0.7546808,-0.26366538,0.5373914,-1.0038493,1.7271649,-1.4379582,-0.99940467,0.3286889,0.5653068,0.058016386,-0.4808748,-0.022540951,-1.114793,-1.5278978,1.0798765,-0.3568701,-0.844903,0.61232233,0.044139944,-0.29315937,-0.70023,-1.8083714,-1.0017083,0.44159234,-0.8086494,-0.7102381,0.3692998,0.21258874,-0.07261041,-0.34254122,-1.5454892,1.6861477,-0.33845246,0.14615628,-1.0208359,1.8401549,-0.5662726,-0.795901,-0.23786584,0.6512693,-2.005247,-0.24801981,-0.6990529,0.13579518,-0.91832083,0.211914,-0.89320266,-0.5230217,0.9224207,-0.94392323,0.602628,-1.059072,-0.7664114,-0.3749198,-0.13158795,-1.3814135,-0.36709875,-0.3376547,0.33185732,0.07199845,-2.5271878,0.11120957,0.5113369,-0.5042958,-0.012946909,0.60979533,0.08145043,-1.7425461,0.20708251,-1.9657123,-0.4111611,-0.080188334,-2.425825,0.0391663,0.66089135,0.047632024,-1.4322343,0.59526455,0.235486,-2.121334,-0.6880413,0.9535063,0.2174526,-0.1394797,-0.34225187,1.3314497,0.6922729,2.065972,-1.3389233,-0.35796767,-0.40944368,-0.26768458,-0.6245372,0.10731124,0.85850954,0.22235708,0.20422572,-1.0595049,-0.84043664,0.35816842,-0.13959634,-0.15739602,-1.2553042,-1.8404458,-0.47055665,1.5095311,1.7271173,1.4376249,0.5750688,0.22925322,0.22067031,1.0194857,1.9329561,1.510589,-0.21342841,-0.12013357,-1.933692,0.4434883,-0.36956537,-1.8979566,2.4159112,0.072314024,1.1578636,-1.2363336,0.8233994,-0.13341731,0.74510896,-1.0020156,-0.53386414,0.30698198,0.74918497,-0.8613639,1.8164854,-1.2259539,0.85582817,0.7164518,-0.2594828,0.6522695,-0.018608512,-2.145012,-0.63315666,-0.7057852,-0.54279906,0.1864517,0.32554615,-1.1191032,0.1483419,1.1280766,0.4151951,-0.026881486,-1.3942708,0.51713413,-1.4644318,-0.66685504,0.717792,-0.22558895,-1.5477598,-0.28664267,-0.50114286,-1.7102463,-0.09937742,0.2592321,1.669585,0.25170034,-1.8012204,-2.2199936,-1.5178511,-0.30464983,-1.0624268,-0.42014492,0.38892323,-2.0909967,-1.6868486,0.6838641,0.35057783,1.3559932,0.2454133,1.1704605,-0.51924694,1.7085761,0.2013339,-1.3140547,-0.9854317,-0.6472587,1.06409,-0.8696461,0.16332112,-0.3833356,-0.2254234,-1.438844,-0.30769852,0.23560199,0.79280996,-1.663821,0.42068505,-0.70942473,0.76729035,-2.0618305,-0.7240163,0.8486743,-0.50199807,-1.0875497,-1.1658713,0.98841095,-0.35133946,-0.6797031,0.30268922,-0.13365097,2.7250762,-0.9386251,0.29705453,1.620702,0.660235,-0.2672178,0.03150729,0.94658065,-0.37670505,0.19497049,-0.44506383,-1.269064,0.6764345,2.232001,-0.011524769,-0.71672744,-0.012344754,1.3226876,-0.8195827,0.5462155,0.97781813,-0.038166806,0.34243006,0.5196701,0.61769176,2.326612,1.5780816,-0.59035003,0.97395885,-0.250554,0.06682022,0.2714764,0.62375486,1.0433893,3.592146,-0.8898075,-0.49157143,-0.51510787,0.70859945,-0.52193534,1.1891823,-1.704119,-1.7314575,2.2070184,-1.656285,-1.5500333,0.030136868,-1.022526,-0.74814147,-1.2201314,1.2717438,-0.12814604,-0.12615591,-0.41809362,1.9160118,-0.12993927,-1.4773898,0.72467554,-0.18377954,-2.440062,0.18377227,-0.019062743,0.15147436,-0.25009462,0.20415711,0.3593746,0.08506189,-0.21638,-1.9064727,-1.4235272,-0.18890971,-0.12546615,-0.10106352,0.08952098,-0.83188725,1.6302018,-1.3274311,0.50606406,2.2392569,0.8366427,-0.105531394,0.9089807,-1.3579457,0.74465525,-1.529913,-0.23689152,-1.1194444,-1.6385998,1.0969943,-1.8541343,-1.4283893,-0.51482415,-0.075928725,1.420984,-0.23479623,-0.88052595,1.6740634,-0.81022215,0.2946773,-1.7657816,-0.31361485,0.81453997,0.4910096,-1.1432738,3.1128614,-0.77725214,0.98402816,0.2353344,0.90744734,-0.8290522,1.0203542,0.5313438,0.24887279,0.9140319,0.32981604,-0.5785637,1.7729504,-0.44726664,-0.6371635,0.20644926,0.6458615,0.24525723,-0.8868426,0.49216613,-1.6198328,-0.4444458,0.26229513,0.70459306,-1.3369327,2.04366,0.14684717,1.0327189,-0.068288095,-2.5019279,-0.05218675,0.38624367,0.27386764,-2.6715503,-0.10297483,0.87476426,0.7366215,-0.11057152,-0.03742934,0.50266385,0.15180764,-1.0092876,-0.46672368,1.3541093,0.29347867,-0.99350584,-0.25769043,-0.3239848,0.36404002,1.2236556,-0.4178644,0.5038953,0.4004718,-2.1478074,-0.081793584,-1.7206962,-0.23568758,-1.2024386,-0.7535831,-0.4062209,-0.943236,1.1301073,1.3619987,0.31161684,-0.89664173,-1.4548773,-1.1096082,0.42004722,-0.89445037,0.7864178,0.4024697,-0.8776274,0.64355993,0.40394127,-0.5387744,-0.7436155,0.022576293,-3.6201327,1.4536223,0.103569195,0.64066476,0.527308,-0.62811285,0.79205257,0.30002093,-1.0055382,-0.73420835,0.32890737,-2.184538,-2.4754078,-0.0980639,-0.20256631,-2.3144722,-1.1369598,-0.59086794,1.6258805,-0.2883398,0.7902301,-1.5291985,-0.91744876,0.011776695,-0.8188267,-1.4742181,-0.29203403,-0.29784295,-0.4216376,1.1485001,0.10767501,-0.22959904,0.24842149,0.23219284,-0.86508,-0.2234213,-0.88700736,1.5634032,-1.2968273,0.31396097,-1.0339115,0.9924649,0.20797876,-1.0258121,-0.19918853,-0.50381374,1.8163276,-0.5149687,1.7592783,0.6314353,0.5549066,-0.8811037,-0.9594603,-0.66561407,-0.6784818,-0.9114828,0.64904064,1.3050666,-1.4243665,-0.2370854,-0.99540764,-2.9711058,-0.056615833,-0.579267,-1.7112423,-0.73187053,0.18626936,0.68462336,-2.140717,-0.15673946,0.8355174,1.2038319,-0.02308115,0.65801334,2.5938148,-0.21074705,0.17898574,-0.0024779122,-0.065032244,-0.26123214,-0.5375919,0.8683953,1.344825,-0.64016104,0.016419327,-0.54933584,-1.8999896,2.3736427,0.22207901,-1.361208,-0.30477056,0.23919867,0.48467952,-0.2609141,0.21977285,-0.9876288,-0.517053,2.113574,-0.9459688,0.6271119,-0.74197423,-0.66527545,-0.5790353,0.10491551,-0.037610948,-0.08613852,-0.86426353,0.3300526,-0.34675258,-0.2446334,1.2491441,-0.63194025,-0.7895371,0.18009263,1.8052576,-1.8289759,-0.13209158,-0.037209958,-0.38358337,-0.22326243,-0.91671956,0.49936762,-0.11084972,0.38996732,-0.23915288,-0.30099112,0.19124547,1.2714872,-2.1897502,-0.5096032,0.15412602,-1.5429795,-0.36411685,-0.049200818,-0.25423288,0.12311163,-0.30446225,0.07204532,-0.07989294,0.16019052,-0.35555845,0.2779997,-0.25489128,0.14215487,-0.47831255,-0.55285686,-0.42188513,0.0309497,0.17295519,0.1600807,-0.29246035,0.1919216,-0.2887232,-0.7792436,0.26899227,0.42144924,0.05759498,-0.024236958,-0.47079062,-0.06438251,-0.3211716,-0.18770978,0.051209804,-0.57791007,0.20060666,-0.12454496,0.0020461674,-0.052740216,0.6803249,0.20242058,0.07531504,-0.4384101,-0.68593043,-0.30462393,-0.01849344,0.062289957,-0.18922466,-0.18729392,0.5837047,-0.37065962,0.17591693,0.28299874,-0.29952252,-0.3636012,0.40150663,0.24198082,0.31092688,-0.2955708,0.13668159,-0.08721173,-0.0788016,-0.34934032,-0.28352073,0.04102202,-0.018427894,-0.10255072,0.2790163,0.10160582,-0.72761476,-1.0375379,-0.23093571,0.20126525,1.4561882,-0.131865,0.4782736,-0.036299273,-1.9634211,-0.6116313,0.61575437,0.35063136,0.23386303,-0.044977322,-0.5430338,-0.60537016,-0.5897925,-0.0016952003,-1.6304526,-0.6804406,-0.98722225,-0.15073982,-0.14841817,0.5056771,-0.28508174,-1.1797491,0.93358773,-0.39588144,-0.17508529,-1.3017776,-1.1188184,0.07141417,0.0067469673,-1.5623829,-0.54061055,-0.029024905,0.7534126,-0.12982348,0.7884903,-0.1740528,0.081615426,-1.4322472,-0.07650386,-1.1426845,-1.2161679,-1.3015239,0.4755803,1.1215034,-1.0450768,-0.661785,-1.4574356,1.0545866,0.74316305,0.31795388,-0.82472885,0.25989714,-1.5786667,-0.10600954,-1.3310938,-1.1084064,2.5849218,-0.44345474,-1.2692132,-1.6735067,-0.35036352,-0.47394365,0.75391424,0.61839676,-0.30467603,-0.117156066,-0.7938563,-0.43788016,-1.0167384,-0.07694262,0.39749765,1.1351616,-0.55810535,-0.38620305,-0.3008963,-0.5176045,0.50992155,0.46249714,-0.9371594,1.5904582,-1.7425376,-0.23461458,0.25167513,-0.81563216,1.495338,-0.85619825,0.15012525,-0.18746175,-1.5514946,-0.30923855,0.09559424,-0.6604787,-1.3159235,0.7043878,-0.53128004,-0.13664657,-0.47601116,-0.62113214,0.71521384,-0.035469428,-0.8125231,-1.1068101,-1.8498306,0.91767323,-0.50154066,-1.0300503,0.6706065,-1.6332436,0.53833044,0.5707386,0.09164755,-0.60324967,-0.392232,0.26274526,0.49329418,-1.1796801,-0.048886567,-0.40696424,0.07282055,0.34929666,-0.66766787,-0.7192176,1.3408571,-0.050969273,-0.16879122,0.11209968,-0.563431,0.38007903,-0.42534322,0.1743729,0.07001718,0.1659216,0.11216064,0.11663778,-0.700742,-0.48202574,-0.43211806,-0.0021581769,0.3065763,0.22557595,-0.15998009,0.1589984,-0.36662412,-0.38178092,-0.2744507,0.40919662,-0.08078642,0.23397437,-0.3776999,-0.7478938,-0.10177613,-0.28095502,0.74996537,-0.32995436,0.179114,-0.40995142,0.76928264,0.08339739,-0.21157166,0.2721383,0.41399825,-0.018488627,-1.1027646,-0.24778229,-0.07186829,-0.116612926,-0.1221464,-0.18631557,0.113027394,0.24279961,-0.42951596,-0.25542963,-0.3043242,-0.6946323,0.75313365,0.5904288,0.21796611,0.02676624,0.14021224,0.2680524,-0.55029356,-0.30139935,0.6828674,0.44138467,-0.0890466,0.6374402,-0.019011352,1.005691,0.77850735,-1.5545232,0.3444463,0.34797648,-0.47513378,-1.1235831,-0.45694023,0.087878466,0.50372297,0.36756295,-1.4852035,-1.446482,1.6335618,-0.77544266,-0.18559587,0.42104965,1.190634,0.3183462,0.7516401,0.31991303,-0.7028604,0.24009545,-0.9730286,-0.3267972,0.9838209,0.022857636,0.3439628,0.21772063,-0.063157484,2.7234652,2.09582,1.1730914,0.7201846,0.5918118,-1.7794507,-0.5897667,1.7054511,-0.8616186,0.24647328,0.05978471,1.677099,-0.7661444,0.80682665,-0.72017604,0.28980756,0.5350804,-0.33137995,-1.3110752,0.3899195,0.76030207,1.5803872,1.0358171,0.468274,-0.2840643,0.6171624,0.48645258,0.49067444,2.7391596,0.43859297,1.1021999,0.09806199,0.20267376,-0.1717501,-0.41008776,1.5049736,-1.0235877,-0.37353048,2.0868492,-0.14790344,-1.5340782,-0.7816738,0.40932116,0.52976894,-1.4868982,-2.5783012,-0.5259086,-0.058138397,-1.820337,0.5007994,0.21785605,-0.5333323,1.3268373,0.2082774,0.348192,-0.7572663,0.31632292,-1.1088603,-1.6910031,1.301537,-0.75110996,-0.49852282,0.7816795,1.0170517,0.6844085,0.8801036,1.0503545,-1.579229,0.2719555,-0.5269877,-1.5305914,-0.30517623,0.6629957,-1.6684233,0.15879376,0.24764408,-1.9387177,-0.19027875,-0.709513,0.7294171,0.9641402,0.116236374,-0.7215378,-0.5853,-0.8717158,0.585984,1.8671455,0.39836025,0.2526093,-0.24331672,0.45399153,-0.22942504,0.7492251,-1.7838342,0.9733485,-0.07726386,-1.7518442,1.0850065,-1.0060031,0.16677839,-1.9434772,0.013211902,-0.5322151,-0.81972384,-1.0771425,-0.27188194,-0.13873237,1.1814477,1.745487,-1.4717455,-1.0602233,2.852539,-1.012373,1.3216476,1.281481,1.2725259,-0.49593833,1.7077867,0.38548076,-0.22210139,0.6285401,-1.1251848,1.0159856,1.4257673,-1.0908383,-0.21612869,-0.49113923,-1.1743641,0.20250112,0.149204,0.7205401,1.9428604,1.1479504,0.15372676,-0.28599674,1.1093637,-0.12993202,0.9048311,1.0443584,-0.760761,-1.0270164,0.982406,0.2532233,0.9220333,0.26345086,-0.29310286,-0.74420047,0.75703156,0.6058936,0.5831679,0.4612148,0.47886997,0.74915767,0.17418252,-0.077162996,-0.9184222,4.3418064,0.339679,-0.5396901,0.11294492,-0.23216355,-0.6471572,-0.19999233,2.0985785,-0.50274205,0.24747309,1.3170712,0.09275913,-1.129877,-0.98712444,0.0075320285,2.5836048,-1.2363455,0.0021828124,-0.073868856,-0.07880215,0.31966114,0.6579375,-0.06471162,1.3073494,0.82699823,1.0625935,1.1108973,-0.38287377,0.22726375,-0.36071414,0.26222527,0.6039116,-0.67306864,-0.43092826,0.69105107,1.1957586,1.8029034,1.8351858,-1.3053073,1.0282823,1.6752563,-1.3266814,-0.70034134,0.59451306,0.2727241,0.33547458,-0.077026784,-1.456318,0.6117513,-0.29205656,0.3252697,0.38632506,-0.0572999,-0.9110826,-2.0829601,-0.7378618,1.121902,0.27407908,0.39283594,-0.4151613,0.39838645,0.2661829,-0.27962816,0.028212372,2.1978817,0.17141363,0.8183062,0.29168504,-1.2300031,1.6255858,-0.04216861,0.79742646,0.9917911,-0.7441794,-0.3509661,0.3390228,0.5397836,0.85019505,0.13107431,-0.4079983,-0.96137875,0.18901195,0.13769946,1.0822601,-0.6304605,1.1777866,-0.7072927,-1.0297494,0.33332133,0.52751684,-0.063747615,-0.80792046,0.124171644,1.2995863,-0.86749697,-0.20605591,-1.0912383,1.1078999,0.21069708,0.6835076,-0.5892897,1.1321394,1.5915012,0.39122337,1.1203419,0.4343844,0.79818124,-0.16420004,-0.44280934,-0.044869177,0.8845841,0.6066035,-0.612414,-0.520653,-0.34376708,0.22381212,0.5984608,-1.5134633,-0.99592644,0.13159563,-0.85806334,-0.2264392,0.79583573,-1.0340781,-0.6229208,0.5907858,0.040470544,2.367103,-0.88748825,2.1505718,-0.1080738,-0.004136729,-0.3042674,-0.45277715,-0.08159362,-0.38295555,-3.816557,-1.0657797,-0.17369065,-0.1943707,-3.2350078,-0.92684555,0.31441236,-0.14294058,-0.67217207,-1.1864549,-0.933621,1.1047641,-0.3891453,0.17943566,0.1561825,-0.39735717,-0.2631158,0.26165715,-0.6181334,0.9892421,-0.044280704,-2.8391602,0.2858444,0.41608292,0.16585511,0.6313031,0.17433356,0.36756718,-0.6425117,-0.30136538,0.46192846,0.7858238,1.2669404,-0.15966083,1.5801449,0.39122036,0.50558937,-0.26721466,-1.2776155,0.76334584,-1.3725234,-0.44845584,-0.17413753,-1.152486,0.29322678,-2.5487366,-0.031669848,0.5111836,-2.0504673,-0.2301566,1.4214177,-0.6391641,1.0508265,-1.2257493,-0.7487191,-2.281697,0.8318515,0.75245816,-1.0563352,-0.16337964,0.46616903,0.17955735
