0.2975796,0.26980257,0.6351832,-0.4407279,0.680783,0.1628041,-0.3504169,1.4969292,0.36948967,-0.23121564,0.32453883,-0.29826874,0.19670549,0.018081449,0.63452506,0.005079949,0.3503099,0.92099184,0.075868875,-0.16527943,-0.04654611,-0.17947921,-0.059476726,-0.50480324,-0.19057399,-0.23613897,0.15051937,0.67990035,-0.08706961,-0.019852009,0.06258236,-0.7689063,0.0008037301,0.3222183,-0.48088777,0.19885758,0.120481804,0.1720756,0.2099061,0.32494712,0.85327065,-0.0055794716,-0.055919383,-0.12268351,0.94566166,-0.12550525,0.390108,-0.44454795,0.1508682,-0.08246665,-0.41110232,0.27035886,0.056798577,0.80712354,-0.18774387,0.076559074,-0.9210904,0.51231015,0.48532993,0.31478238,0.7408289,-0.15160185,0.3206823,0.32560924,0.18856585,0.15511826,0.04386753,-0.29800797,-0.29334915,0.020759646,-0.03893663,-0.56762165,0.398144,0.05291422,-0.97630703,0.42755902,0.36430526,1.0773537,-0.33699447,0.32525176,0.36324292,0.107064165,0.40132487,-0.05367007,-0.055742905,-0.12598969,0.2489337,-0.078387134,0.33400267,-0.22767933,0.013018612,-1.6918014,-0.011530146,-0.35809243,0.12642667,0.20498405,-0.36561906,0.20773087,-0.1516017,-0.15209112,-0.09933402,0.26497516,0.32863206,-0.41729307,-0.83268714,0.17431682,0.24052685,0.3482755,0.12164627,0.4037425,0.8528733,-0.23114221,0.15435944,0.8885188,-0.1662852,-0.3473561,0.48202813,0.06289664,-0.019029215,0.5003251,-0.6776645,-0.23184216,-0.8735807,0.28890947,-0.14991054,0.2779852,-0.0954404,0.2611975,0.27814218,0.4085024,-0.14145115,0.45366722,0.07248586,-0.30434585,0.06501403,-0.13017845,0.2262536,0.09136303,-1.18979,-0.14418533,0.23800662,0.13532944,-0.36772045,0.09999888,0.08130883,0.15041769,0.60926044,0.21783683,-0.16011912,0.5170233,-0.5272813,0.49982148,0.34222436,-0.09262038,0.4329266,0.429517,0.13956566,0.024513874,0.103824496,-0.15404466,-0.028594807,0.33467376,0.0007132344,0.24642631,-0.27444494,-0.2883892,-0.17083666,0.60246086,0.050605483,0.2702729,0.40582672,0.0984415,0.48225263,-0.010234177,0.13033256,0.3100171,0.7489401,0.21513958,-0.11824899,-0.2742718,0.14508492,-0.35884607,0.42340234,-0.31190097,-0.12447424,-0.24833952,0.34827825,0.11498633,0.18255362,-0.05200073,-0.20728403,0.5031778,0.3330594,-0.42410058,-0.729261,-0.15498635,0.4366737,-0.06599257,0.30633387,0.015396037,-0.169955,-0.13881947,0.004386219,0.35227686,0.41953698,0.8807739,0.25613898,0.30431467,0.45803934,0.5001854,0.7636651,0.3938461,0.7534542,0.22317433,0.31452268,0.55824035,0.5232903,0.4597999,0.020602101,0.6147058,-0.14186479,-0.4549933,-0.22376013,-0.010564541,0.30613,-0.21516967,-0.3204401,1.0096902,-0.78749585,-0.59657764,-0.7782215,-0.023709398,-0.031450108,-0.07669912,0.4933951,0.29392862,0.05737672,-0.33610415,-0.2780653,-0.09749226,0.3226246,0.27855945,0.57090497,0.14406596,0.45772952,0.89047325,-0.054512687,0.26211601,-0.43502206,0.24465871,0.46343756,0.061919857,-0.44546306,-0.04850059,0.5578172,-0.2620026,-0.36106455,-0.36219016,0.6701837,0.1855601,0.12548769,-0.073309064,0.20783626,0.52106,-0.60631835,0.24097395,0.24685031,0.12639402,-0.08255276,0.30421817,-0.47150484,-0.21821909,-0.1517661,0.077859774,-1.143475,-0.19970185,-0.07776223,-0.16926637,-0.28600866,-0.08675192,0.10031505,-0.4142054,-0.55140364,1.2066988,0.21533155,-0.01436041,-0.23123291,-0.3145349,0.08271773,0.2780494,-0.44016886,0.22041753,0.2513628,-0.22240382,-0.7142472,-0.15473762,-0.1592806,-0.54765046,-0.036575694,0.060505547,0.83257115,-0.20078868,-0.07916874,-0.40109235,0.18507087,-0.19535354,-0.42410094,-0.23907378,0.11658968,-0.24278788,-0.83156884,-0.30451888,-0.652568,-0.5618001,0.34809175,-0.20106676,0.12116794,0.04851882,0.09701914,-0.27455264,0.2063107,-0.31271923,0.10798712,-0.085547574,-0.5134286,-0.021246877,-0.24838307,-0.29332373,-0.50355995,-0.11445155,-0.58309424,-0.23921332,-0.6477247,0.22867703,-0.272067,-0.2005234,-0.27983713,-0.32091105,-0.051229194,-0.11421219,0.1098443,0.30065054,0.47855392,-0.25913638,0.32164127,-0.26217264,0.14687566,0.4594593,0.009376451,-0.39134535,0.8123385,0.082135424,0.10442625,0.029700361,0.2754646,-0.17808722,-0.4718086,0.4067929,-0.7093508,-0.08900846,-0.33893883,0.3189032,0.0009780502,0.06480619,-0.31772256,-0.22238739,0.27169204,0.2508623,-0.5798762,0.35350084,-0.40421146,-0.16415767,-0.77517223,-0.4985518,-0.19904432,0.5059279,0.18050727,0.16259795,-0.4818594,-0.023784481,0.099422954,0.5300341,-0.0249373,-0.08207112,0.18791977,0.34127986,-0.027389,-0.20550436,-0.42368996,-0.14063013,-0.49809235,-0.12069507,0.06937741,-0.24843934,0.03381136,-0.10727923,-0.42864674,0.32009202,-0.27589256,-0.17015114,-0.0080246525,0.5496273,-0.25965816,-0.54153657,-0.3487084,-0.11935322,-0.70988977,0.076966286,0.4148234,-0.43899563,-0.45638484,-0.23269375,-0.07235062,-0.039422765,-0.48457313,-0.19506429,-0.2271055,-0.14906171,0.041946888,-0.047119394,0.25618613,0.008610447,0.419186,-0.2990055,0.36998597,0.5757619,-0.25809243,0.45038015,-0.04631643,-0.46811438,-0.2883044,-0.09646892,-0.13479999,0.22562945,-0.0006821762,0.1093255,0.0117951315,-0.71454275,0.18681623,-0.5123844,0.17746907,-0.26486564,-0.08672542,0.2953398,0.08323893,-0.25576097,0.7656001,0.7150476,0.03523325,0.31878716,-0.29667246,-0.48511142,0.21436724,-0.4871426,0.080620795,0.33709943,0.33527115,-0.62478125,-0.19414666,-0.77407837,0.21054778,-0.11995599,0.087182075,-0.46949893,-0.5250875,0.20622791,-0.22969952,0.069018796,-0.8561326,-0.2223299,-0.5286465,-0.5541835,-0.07329223,-0.49361596,0.16692504,0.26897407,-0.04213278,-0.1056925,-0.10644242,-0.077170596,-0.5539366,-0.044939466,-0.33619532,-0.45206338,-0.36806685,-0.5905521,0.20306453,-0.053320274,-0.26734382,-0.13757902,0.04525426,0.12057064,-0.005200973,-0.18442988,-0.0021603147,-0.25606567,-0.24241275,-0.033646755,-0.22006297,-0.74496496,-0.4728726,-0.73432136,-0.13022444,-0.539835,-0.13350041,-0.11178858,-0.5835323,0.16504642,0.3796199,-0.7456888,0.1885642,0.16010205,0.055698283,-0.25569636,-0.30119753,-0.18404362,0.09413766,0.055896506,0.48911473,0.48821712,-0.33532202,-0.059228897,-0.17751902,0.42398608,0.10372484,-0.52463734,-0.027646031,0.23961407,0.4351992,0.14773671,-1.0387046,0.68879247,0.24605033,0.58082277,0.018752921,0.060437508,0.02552618,0.2952416,-0.31299078,-1.1634359,-0.11518191,0.09125456,0.28805292,0.12512533,0.31743413,-0.16109915,0.26193944,-0.050441977,0.11123861,-0.25031924,-0.22198994,-0.3576714,0.22957037,-0.29153055,-0.78733385,0.06782395,-0.2872579,-0.44348204,0.4406326,0.67125934,-0.047511093,0.11716022,-0.07019308,0.37777078,0.46629763,0.46036062,0.019467203,-0.08663132,0.5949584,-0.40099788,-0.19124809,-0.049036153,0.010722946,0.147627,0.13631254,0.2573975,-0.04943401,0.4976516,0.33004087,0.14069399,0.62383354,0.5157503,-0.028652199,0.27146524,-0.54844457,-0.3291539,-0.16196512,0.1252725,-0.18137243,-0.06607059,0.08396427,0.26187834,-0.22398633,0.17446463,-0.026954383,0.2409941,0.34065017,-0.6450443,-0.07053959,0.033783138,1.4444609,0.15459257,0.3267342,0.1496928,0.41574526,0.019971129,-0.4516643,-0.06373492,0.35476738,0.33397225,0.046130255,0.35731715,-0.28512016,0.6618081,0.19011824,-0.17982474,-0.2723321,-0.18736081,0.34300148,-0.11641836,-0.14183366,0.04258409,0.09042233,-0.23160696,-0.31956732,0.20110187,-0.09469381,0.23226276,0.3869311,0.38102666,0.2120667,0.16733348,-0.010057604,0.30891,0.43859214,0.30567187,0.29394746,0.016648445,-0.108351804,0.11035895,0.5093306,-0.14824435,0.22225007,0.19270302,-0.3152911,0.26996115,0.28765386,0.6634594,0.03324108,0.46921003,-0.6373304,0.17952257,-0.060899295,-0.046878733,-0.69584185,-0.27844447,0.02486613,-0.12907454,0.16773266,-0.31864205,0.8322518,-0.23323745,-0.12549487,0.43463916,-0.10293362,0.51538384,-0.07413004,0.055270866,0.11833449,0.15919283,0.88646865,0.33891994,0.08915573,-0.017043084,0.143712,-0.124029085,0.20810656,-0.39258182,0.056557506,-0.14867055,-0.37726867,-0.23553506,-0.07624586,0.19537207,-0.27482522,0.5024016,0.6425357,-0.2545844,-0.2527281,0.0025858367,0.18737039,0.29204655,0.44465584,0.08648647,0.06492564,0.39576337,0.2763272,0.53618777,0.15925089,0.12998599,0.16483957,-0.39542362,-0.3727796,-0.21480605,0.028303767,0.717298,0.59096086,0.68378973,0.07257868,0.5135931,0.10860245,0.13149625,-0.2854091,0.06985535,0.011290723,0.10216139,-0.1624777,-0.568804,1.0024449,0.039137356,-0.20254919,-0.11722864,0.27241957,0.2179495,-0.4108194,-0.13542302,0.7518292,0.23062208,-0.01422531,0.10992581,0.25297573,0.37295085,0.9005271,0.022164341,0.14938125,0.2542988,-0.21325547,-0.34014386,-0.22101235,0.11417338,0.10851546,0.284993,0.37692863,0.070400186,-0.08889234,0.29478252,0.028649649,0.20279454,0.05607862,-0.034991868,0.40301257,0.5051901,-0.29567444,0.080419056,-0.055984564,0.2979148,0.32626426,-0.054735888,0.36838037,-0.6762166,-0.52141786,0.051795945,0.6247257,0.06583302,-0.26181597,-0.70184964,0.051248778,0.04235381,-0.0033074613,-0.076821245,0.035943262,0.08429116,0.27722794,0.1464767,0.08924672,0.7670622,0.24701881,-0.37541425,-0.31933507,0.012052592,0.40730166,-0.035783827,0.5472397,-0.029299948,0.16155249,0.5612496,-0.3793987,0.11222489,-0.11463573,-0.5082929,-0.072624266,-0.2154788,-0.49860984,-0.27643764,-0.103878945,-0.13478471,-0.21212405,0.35515973,0.09971678,0.027296422,-0.20779146,0.35194293,-0.25724906,0.19941467,0.4338839,-0.14466797,0.10896679,0.069983944,0.22780338,-0.18385544,-0.08517592,0.13732627,0.8951235,-0.043901335,0.038245853,-0.17329626,-0.45389527,0.17286584,-0.2793733,-0.04242775,0.42334443,0.047616534,-0.18536094,-0.06137246,-0.11971128,0.07261038,0.58145833,0.07378766,0.5334494,0.07723488,0.16318357,0.087870434,0.24675462,-0.0074423794,0.39631924,0.018688254,-0.21700461,-0.054590184,0.043095842,0.08150924,0.09633091,-0.07307181,-0.4875485,0.12861338,0.15137872,0.72127545,0.19395962,0.056923695,0.20855534,0.013097761,0.0915629,0.017399149,-0.5041901,0.11406846,0.20720586,-0.11742744,-0.27617127,0.025785804,0.31201723,-0.52853286,-0.32991266,0.029689552,-0.30801952,-0.24034235,-0.28300187,-0.045152165,-0.25897098,-0.20188127,-0.08291523,0.07751644,0.032491084,-0.2636649,-0.7489824,0.39515907,0.15111141,0.3354458,-0.50156677,-0.09666977,-0.18711644,0.03327559,-0.4215513,0.26116204,-0.20646676,-0.14057222,-0.0979743,0.23607707,-0.045277268,-0.25408897,0.04282083,0.1576863,-0.4672997,-0.21021582,-0.2886821,0.33730602,-0.16322622,0.31698298,0.21598163,-0.17974827,-0.28581595,0.048273522,-0.39055407,-0.06429064,0.12393232,-0.021759849,0.38904196,0.20137723,-0.11664446,0.018572018,0.20587222,-0.14758396,-0.24487907,-0.20994532,-0.25481385,0.06659911,0.23549719,-0.051998936,-0.2946242,0.28307238,0.06504703,0.3358671,0.41932762,0.120834015,0.09163576,0.36781937,-0.039813817,-0.03858476,-0.40059572,-0.029523749,-0.5261686,-0.19081283,-0.10324425,0.17641369,-0.09770668,0.37161666,-0.010523935,0.13802288,0.13692349,-0.1680286,0.43472004,0.28387624,0.3742957,-0.5271939,0.05867874,0.1211139,0.115848005,-0.25313848,-0.008019386,-0.3765762,-0.2257449,-0.47440654,-0.14491549,-0.152417,0.017408166,-0.16788924,0.014787954,-0.045612402,0.24797441,-0.11521252,-0.0108243795,0.2086434,0.048538025,-0.3257475,-0.419428,0.14726757,0.056751467,-0.24187598,0.44471145,0.05345045,-0.04073423,0.14082149,-0.04905407,0.15131773,-0.18642797,0.8149971,0.0038685221,-0.13208914,-0.036911286,0.31396437,0.10523142,0.55159664,0.7607117,0.08704376,-0.15191919,0.5001076,0.32080072,0.0540253,0.035729233,-0.009023866,0.04408218,-0.56278086,-0.20054102,0.13586327,-0.10571982,-0.24478409,-0.49668854,0.59153605,-0.41514254,-0.070793994,0.1724028,0.0196505,0.12859344,-0.05745902,0.009693282,-0.11160612,0.2237006,-0.12162307,0.19610545,-0.19100791,0.14451563,-0.023923656,-0.029885732,0.15143067,0.20989037,0.24859187,-0.63379884,0.3485246,-0.11183442,-0.031977713,0.03856947,-0.03643181,-0.44085893,-0.5647012,-0.23248748,0.2063298,-0.062603585,-0.097458676,0.31746575,-1.0855377,-0.42824504,-0.1922798,-0.4575876,-0.81561947,-0.09356861,0.22072619,0.017636174,-0.026730442,0.19926228,-0.034505513,0.34180242,-0.34524614,-0.79446805,-0.6353394,0.14539714,-0.76767516,-0.47102317,-1.4922613,-0.112769864,-0.27300388,0.021357369,-0.10960995,-0.67360055,-0.7246052,1.3230636,-0.2581672,-0.30239218,-0.04107007,0.15151983,0.15327585,-1.0833559,0.4396332,-0.62854636,0.079662725,-0.008876099,-0.2554059,0.31107375,-0.03244648,1.0772732,-0.15882337,0.011995366,-0.7542281,-0.5638839,-0.7182235,-0.006105046,-0.13970014,-0.44438654,-0.594333,-0.67376554,-0.10050598,-0.48018223,0.21298714,-0.1681081,-0.3724733,-0.86559474,-0.14382079,-0.10836515,-0.4138586,-0.545367,0.61545515,-0.011935059,0.1837667,-0.9740223,0.16480736,0.35539696,-0.36004454,-0.9661568,-0.11051963,-0.020282332,-0.39934552,-1.50315,-0.14342976,-0.42643416,-0.6091932,-0.21615477,-0.51022875,-0.2279381,0.4558248,-0.42250454,-0.44250926,-1.0731568,0.08022806,-0.4258656,-0.51400685,-0.30372262,-0.008044186,-0.4894737,-0.41041648,0.2623859,-0.49426156,-0.38939276,0.29721725,-0.65251184,-0.7590425,0.474429,0.21887928,0.025226016,-0.76037884,0.22777732,-0.30743068,-0.63104033,0.6933081,-0.09941449,-0.1270487,-0.9557357,-0.253954,0.24120818,0.0347256,0.30149361,0.71907616,-0.122748494,-0.35827786,-0.35826978,-0.5855447,-0.9066268,0.12048702,-0.8823681,-0.7841233,-0.76895493,-0.30516,-0.38279504,-0.99526626,-0.03628687,-0.55186486,-0.13797182,-0.02608663,-0.55900526,-0.029029984,-1.5218687,0.3568151,0.02671856,-0.5238999,-0.48575348,-0.08531952,-0.17369242,-0.47200778,-0.1972082,0.08555563,-0.04086455,0.18501845,-0.12869027,-0.9387754,-0.04316421,0.07022934,0.03415872,-0.2742951,-0.26773006,-0.2562688,-1.0343221,0.4367349,-0.08377963,-0.24098751,-0.6362556,-0.15921962,0.4529274,-0.31922773,-0.30475512,-0.54700875,-0.20682451,0.117336795,-0.539941,-0.53889406,-0.1592817,0.21626878,0.5238185,0.03558509,0.07730608,-0.614149,-0.14184472,0.108871914,0.072331004,-0.18444797,0.18423751,0.12924162,-0.2577232,-0.22247803,-0.11260581,-1.3821611,0.64964056,0.03559445,-0.37383628,-0.20840958,-0.6729883,-1.0094206,-0.8670914,0.57695186,-0.23975231,-0.42776358,0.3073405,-0.98112595,-0.96307373,-0.023497917,0.70343256,0.49212784,-0.50346464,-0.48542655,-0.026269577,-0.22293651,0.3473686,-0.18414995,0.6233642,0.5154177,-0.24171852,-0.24119706,-0.105409525,-0.014695045,-0.17099239,-0.35256785,-0.060504258,-0.3046887,0.17273855,-0.3651123,-0.29272515,-0.48425102,-0.20726234,-0.6875816,0.44977728,0.36966354,-0.3897767,-0.44218308,0.081651434,-0.32164997,-0.51144314,0.21938193,-1.0309279,-1.013428,-0.13392031,-0.09043915,-0.3595736,0.3049809,0.8716176,-0.7604327,0.07944697,-0.24271101,-0.8726797,-0.011784456,-0.070166014,-0.2466597,-0.52513635,-0.2936869,0.031136684,-0.6740809,-0.4292277,-0.1594485,-0.11099285,-0.33287197,0.17742556,-0.32681042,0.7895793,-0.0025706438,0.12742358,-0.6446352,-0.24640805,0.22314367,1.3633324,1.0518872,0.5031026,0.14197072,-1.3371372,-0.13472697,0.5218642,-1.1139227,0.8757452,-0.69741845,-0.90134764,-0.13951957,-0.18779674,-0.1891956,-0.34747308,-0.48751286,0.44398668,-0.23014313,-0.13842052,-0.9266964,0.8267373,0.25739372,1.0916058,0.9303603,0.28930864,-1.0395242,0.77773154,-0.29472333,-0.77692235,-0.93561614,-0.1746644,0.4657518,-0.065833926,-0.015388496,0.5704991,-0.6657905,0.31724393,-0.3216599,1.8565626,-0.38005793,0.95264035,-0.2042085,0.54378784,-0.23858622,-0.6874752,-0.6987299,1.9285276,0.213796,-0.078412876,-0.5088037,-0.7603285,1.0045925,0.325989,-0.36895168,-0.24592209,1.3872015,0.40771848,-0.010485362,0.103071116,-0.8658321,-0.020863276,0.29836237,-0.18882915,0.072538316,-0.11813603,-0.03224582,0.37258,-0.8648946,-0.5254127,-0.7861411,-0.21931013,-0.53979886,-0.5511682,-0.30868226,0.051107746,0.21231608,-1.0018326,-0.29440716,-0.15591332,-0.66073656,0.31785905,0.25119352,0.9745747,0.81396425,0.2058523,-0.5378094,-0.11922693,-0.044164274,-0.33618033,-1.1484768,-0.60127413,-0.28606582,-0.47630247,0.39155114,0.30055797,0.1288917,0.79950684,-0.47474748,0.3822065,0.2076477,0.32100323,0.028028779,-0.17788357,0.66969645,0.0005935951,-0.53278196,-0.18352385,1.3005853,1.4786241,-0.16091123,0.019981876,0.2788224,0.05470453,-0.018124338,-0.018532392,0.80207884,0.5547096,0.014411111,0.101362854,-0.47523922,-0.03883712,1.0570405,-0.8149711,-0.25975168,-1.0259397,-0.4843068,0.2482015,1.5236526,0.06362822,0.43576849,0.35567218,-1.136867,-0.4159448,0.41555822,-0.095449746,-0.07737057,-1.3126609,-0.100929946,0.38513005,-0.17687704,-0.5022231,0.42606106,0.16276099,0.13778847,0.36140066,0.04859341,-0.040699214,-0.18975322,-0.2052421,-0.23102963,-0.5966661,0.19756249,0.3497753,-0.13145934,-0.636958,0.18535733,-0.9251734,-0.3185014,-0.9977211,0.40630433,-0.0016960057,0.39366496,-0.62734246,-0.49496168,0.03235246,-0.70027566,0.619244,0.50980425,0.026340418,-0.03264278,-0.014398252,0.14106739,-0.5591661,-0.6115813,0.81016016,-0.046922166,-0.5053212,-0.065065935,-0.11851804,-0.25808373,1.7227248,-1.227762,-1.0611266,-1.026841,-0.7754208,-0.8242373,0.44723207,1.044946,-0.44023868,0.28005236,0.14963254,0.08272426,-0.11955577,0.20654228,0.65601027,0.50547934,-0.06809972,0.67587566,-0.39274788,-0.08268076,0.23201852,-0.28516135,1.0176699,0.68849635,0.16905418,0.9860204,-0.24872148,-0.24949345,0.35208553,-0.23690215,0.39623576,0.25597537,-0.5342597,0.33484867,0.0061685196,-0.19898778,-0.26891378,0.26069665,-0.47562855,1.0576239,0.11688089,-0.09039177,0.62432075,-0.39208704,-0.17680945,-0.051494595,0.21708117,-0.08315173,-0.8314681,-0.38774598,0.3598709,0.70277476,0.9466942,0.5007976,-0.55819106,-0.30063397,-0.03558065,-0.33572412,-0.101532236,0.20521857,0.23748195,0.09216693,0.44935375,-0.16932198,0.008827355,0.09107578,-0.18727195,-0.68934405,0.5859419,-0.21905842,1.1320271,0.38619116,0.16358982,-0.6472961,0.7576551,1.1978089,0.9012692,0.09848285,-0.030464917,-0.07370752,-1.2314368,-0.7315979,0.26221323,-0.7161717,0.105594724,-0.079737015,-0.26873755,-0.14580414,-1.0145814,-0.012814209,-0.122305036,-0.12131017,-0.48782462,-0.07725187,0.14870818,-0.97711414,0.35676086,-0.09944387,0.35921746,0.16657309,0.027125016,-0.9074508,1.5052236,-0.48251927,0.3134023,-1.1004575,-0.16705424,2.1726186,-0.068459034,0.6288482,0.14741638,-0.53512347,0.6375375,-0.3205127,0.64016557,-1.022756,2.4906335,-0.053660363,0.51443624,0.042051606,-0.48247394,-0.1251537,0.31968558,-0.48244405,-0.13218932,-0.6674397,-0.39575785,-0.32193685,-0.16257858,-0.28600734,0.0044474485,-1.0707893,0.29690745,-0.6956001,0.5596384,-0.2528813,-0.13138334,0.7184032,-0.15947244,-0.67847145,-0.5203562,-0.0228187,0.5303732,0.64900964,-0.94323254,-0.07380786,0.3973418,-0.13794813,-0.83623195,0.27086118,-0.094444096,0.60687155,-0.85695875,0.7730885,-0.8404026,-0.17222917,-0.8691839,0.061076786,-0.09145473,1.9141173,0.043430425,0.14632598,1.0596175,-0.33337972,0.0449133,-0.6954184,-0.25430292,-0.08583617,-0.23733594,-0.14367731,-0.015201412,0.36880723,0.6897794,-0.11424704,0.5685934,-0.37408713,0.52994394,-0.39438012,0.6434455,2.7732353,0.26984072,-0.5735223,0.78387517,0.20403488,-0.12620246,-0.54300874,0.41140163,1.1617506,-0.06916485,-0.5920453,-0.25973678,0.14341812,0.0031624634,0.88632786,0.1298205,-0.3899175,-0.4648655,-0.40066084,-1.4857501,-0.29291195,-0.18389142,0.3117451,-0.39650998,-0.17742093,-0.33785945,0.0029303818,-1.4083762,0.8090881,0.18097098,0.10213497,-0.26286516,0.31697887,-1.164603,-0.23966311,-0.10472557,-0.030852815,0.045669608,0.985566,-0.35797548,-0.9499936,-0.093483,-0.27485275,-0.62861395,1.2072828,1.4522737,-0.51445293,-0.33593464,0.437224,-0.32552063,0.0266383,-0.7273083,-0.3579917,-1.2062197,-0.45560038,-0.44455487,0.118128836,-0.015339701,0.66305983,-0.4231344,-0.38545138,0.029521018,-1.3201702,2.586083,-0.5890807,-0.23870072,-0.677951,-0.27862102,-0.053072646,0.20963326,-0.7804733,0.6870043,-0.24587381,-0.6193446,-0.41143435,-0.13217434,-1.10132,0.5272908,-0.9949136,-0.103441,-1.033119,-0.026881961,-1.1550606,0.30681157,0.4187954,-0.086089805,-0.5406151,0.85929674,-0.5082115,0.48268336,0.52738833,1.1758468,0.34203365,-0.23339841,0.19526425,-0.51548874,0.06314151,0.5025303,-0.03157334,0.23720044,0.43750185,-0.1125828,-0.01805168,-0.08849556,-0.6575898,-0.5250076,0.76857954,1.0200822,-0.014860388,-0.6862489,0.42046106,-0.20856385,0.82852024,-0.9832736,0.085257396,0.3119418,0.9269943,-0.30729318,0.43420547,-0.4239897,-0.7331908,0.4139107,-0.1629222,0.2562302,0.4589188,0.17518151,-0.3885245,-0.16659832,-0.3250342,1.4612803,-1.3453714,-0.74205166,-0.4373802,-0.39400655,0.6032257,-0.51775813,0.33427256,-1.2749696,-0.36360437,-0.022726476,-0.14046389,-0.98146117,0.03958846,0.33725792,-0.024633251,0.114148244,-0.4010914,1.3082658,0.762609,-0.28111872,-0.31877416,0.6166647,-0.48055816,-1.0425009,-0.9081046,0.3037534,-0.06457908,-0.5104932,0.120741755,-0.29631382,0.24049228,0.12373163,-0.37248445,-0.034722418,0.10680054,-0.254807,0.8434678,-0.62697995,0.97499007,-0.09433001,-0.60224795,-0.5087515,0.5686834,0.35138357,-0.031487055,-0.2235314,0.2778563,-0.6257529,0.06400769,-0.407265,0.22823857,-0.34299952,0.58753616,-0.7217991,-0.16315407,-0.34798682,-0.3378219,-0.16185135,0.1723613,-0.19058087,0.15425408,-0.2657084,0.37620133,-0.887545,0.74643564,-1.5408566,-0.39553148,-0.2801202,0.20316297,-0.35060757,0.19730484,-0.07013212,-0.15718633,-0.37690383,-0.16234514,0.5770664,-0.5604688,-0.33053374,-0.41231483,-0.063346446,-0.47585118,-0.06213966,0.039018735,0.22650237,-0.086928815,0.8038579,-0.48054942,-0.11760782,0.41209507,-0.20794621,0.055723526,-0.12031688,0.0008980685,-0.28403997,-0.7954312,0.18877687,-0.12323205,-0.16492511,-0.772763,0.0458186,-0.30669427,-0.09409444,0.37301302,-0.07841599,0.3264026,-0.20539105,-1.3366125,0.08314776,0.06150219,0.084202096,0.6330973,0.17028236,-0.25020573,-0.590706,0.05886001,-0.27699512,0.15474597,0.7732835,1.2710202,-0.5391904,0.004183159,-0.309634,0.26364937,0.43245476,0.13393259,0.4259196,-1.0269033,-0.18828881,0.6412585,-0.18122528,-0.027324624,-0.36848783,0.29056424,-0.83664453,0.07242935,0.06204247,-0.9883553,0.55725724,-0.1945781,-0.025343163,-0.3873092,0.26621443,0.3953177,-0.51234066,-0.3206091,-0.013016807,-0.079880245,0.08454382,-0.51558924,0.5354891,-0.30728275,-0.35814312,0.6279372,0.20555189,0.28435284,-0.24809103,0.25343144,-0.22508445,-0.057365514,-0.35557637,1.0222642,-0.29410887,0.68081826,0.21297911,-0.3804106,0.2188321,-0.15101063,0.44191164,-0.30261886,-0.18299514,-0.3836949,-0.45719206,0.5205641,0.12125735,-0.17965493,-0.056432582,-0.18586649,-0.20650284,-0.56060815,-0.227426,0.0054933755,0.7930925,0.1681884,0.015809903,0.26408288,0.05017549,0.82390296,0.03752499,-0.42713344,-0.62345886,-0.97245324,-0.071067415,0.06785954,0.100035146,0.27851796,-0.06258317,0.057774715,-0.36333546,1.0594115,-0.27491885,0.20909947,-0.55909574,-0.06199801,-0.36976737,0.056487355,-0.30127257,-0.18059134,-0.36350703,-0.017613305,0.77003676,-0.46286917,0.612048,-0.7027298,0.1252167,0.2124177,0.3413183,-0.6901171,-0.113426246,0.118328035,0.03173619,-0.026368525,0.8201465,-0.26557922,-0.08401882,0.3840372,-0.5047971,-0.26745093,0.31758195,-0.36118895,-0.28843218,-0.46569347,-0.10673334,-0.33400443,-0.678291,-0.07203379,-0.19416514,0.047476128,-0.020804696,-0.61976004,0.054457143,0.056594517,-0.41853926,-0.10239042,-0.13271543,-0.4115089,-0.18413112,-0.5903918,0.4203701,-0.32497272,0.3447018,-0.50428355,-0.75176454,0.51417285,0.9441551,-1.2366519,-0.4057978,-0.04921698,-0.12095179,-0.21404356,-0.10921544,0.12302884,-0.16694322,-0.16135632,0.23285116,-0.145098,-0.0871915,0.081709236,0.008690004,-0.46161386,-0.014266081,-0.7692863,1.6552141,0.24775085,-0.39167926,-0.7955063,-0.5016643,-0.3032055,-0.04066092,-0.13285363,-0.16459456,0.4935227,-0.15882105,-0.10906245,-0.15545446,0.059655346,0.3590064,-0.33313233,-0.031177137,0.19214717,-0.00019711256,-0.08663362,-0.23197088,-0.12580079,0.0011156083,-0.20243023,-0.13996187,-0.34578466,0.19705403,0.2094415,-0.055823058,0.21078345,-0.49500996,0.37677914,-0.27970445,-0.76536167,-0.4277875,-0.5424473,-0.022352193,-0.4367525,0.14784291,-0.14396349,0.01028213,-0.067858,-0.32987082,-0.014084388,-0.6060842,-0.37254035,-0.32241878,-0.48414814,-0.4778118,-0.24449,-0.6521195,-0.020696098,-0.46534342,-0.35177433,-0.15392213,-0.21838972,0.2583995,-0.051331043,0.29381758,0.04045649,0.59461486,-0.34606028,0.06975333,0.31304115,-0.3121205,-0.16806516,-0.2681203,-0.33034295,0.090219654,-0.012362132,-0.3760246,-0.169065,-0.24569987,-0.09337181,0.17855117,-0.13942635,-0.14512393,-0.632754,-0.015147573,-0.29547226,-0.25158828,-0.33747905,0.04744119,-0.33708897,-0.37770212,-0.060586125,-0.39521217,0.5195507,0.07886656,-0.18857637,0.21404545,-0.26207632,-0.32339573,-0.114916846,0.52106845,-0.043365493,-0.109500065,-0.5815326,-0.2965417,-0.2752884,-0.14876156,-0.08741349,-0.050065923,0.00051656144,0.07727353,-0.0061613414,-0.09640657,0.462098,-0.19112179,0.22469245,0.34991115,-0.20905681,-0.02288884,-0.32646573,-0.37294418,-0.12759781,0.48975104,-0.25052634,-0.19599232,0.63907063,-0.27201885,-0.2532675,-0.17584977,-0.3466798,-0.22641242,0.18521333,-0.038974088,-0.14993101,-0.039688624,0.082484454,-0.27241272,0.006670287,-0.43020555,-0.052062653,-0.07796198,0.26450026,-0.45337504,-0.03627877,-0.13965565,-0.04061117,-0.52935255,-0.41076747,-0.18965909,-0.28296107,-0.3688209,-0.0851702,-0.19980195,0.4246862,-0.3175391,-0.042124264,-0.16157438,0.48093438,-0.37412825,-0.34674957,0.17398725,-0.08910446,-0.48918098,-0.55800045,-0.054093733,-0.43708426,0.3092611,-0.39622095,0.05612838,-0.0016002934,-0.033791877,-0.113796845,0.036928885,0.09337548,0.24902475,-0.36958832,1.0091789,-0.19081384,0.041210447,-0.48850754,-0.43173862,-0.4656769,0.0757672,-0.4487972,-0.106268644,-0.44126526,-0.0874848,-0.23328215,0.00666572,0.17890911,0.3346482,0.19368216,-0.16077915,0.34401542,0.14086108,-0.20004404,0.31274223,-0.09393071,-0.33142155,0.52346396,0.3485646,-0.24498963,-0.77946043,-0.16365233,-0.25104067,0.16189143,-0.33601856,-0.5374024,-0.13201314,0.21794532,-0.2402135,0.121587135,0.00218812,-0.24576075,-0.27999675,-0.24149898,-0.021011349,-0.47556472,-0.14084506,0.32552198,-0.15983218,-0.21965213,0.002745609,-0.16027415,-0.13958353,-0.12195128,0.22341478,-0.08397879,-0.036894318,-0.03144873,0.24948138,0.27665514,-0.124861784,-0.33118218,0.14599745,-0.00071794,-0.3562836,0.0024724083,-0.067471385,-0.12455301,-0.06089049,-0.42078483,-0.5419059,-0.3366745,0.15056384,-0.026866242,-0.1292772,0.6389735,-0.36599645,0.040838197,-0.21447648,-0.08205141,-0.3101309,-0.09184322,0.29713935,0.082904324,0.099414736,0.19829774,0.19972947,-0.060403965,0.2313869,0.11948257,-0.5267961,-0.059850488,-0.47717065,-0.21314356,-0.0025562022,0.16367155,-0.66381115,-0.26740843,0.36337477,-0.2562067,0.16986236,0.57111955,-0.92888576,-1.2887108,-0.76341915,1.2252626,0.30222583,-0.4081719,0.22535844,0.33620888,-0.1212244,-0.1085757,-0.15492335,-0.6877839,0.41970432,0.04110574,0.08000271,-0.17783879,0.22838622,-0.30676162,0.8974484,0.0635462,-0.59088403,-0.25185388,0.4980671,-0.49477315,0.23556152,-0.41563702,0.5490426,0.14993134,-0.35664076,-0.18061334,0.4208299,-0.5391835,-0.044335213,-0.25274158,1.0702889,-0.447036,0.07294224,-0.4821329,0.19675133,0.42220268,-0.021250747,0.3962767,0.8418529,-0.11356875,-0.8034379,-0.22539225,0.2837457,0.4507532,0.13021307,0.03879571,-0.7445378,1.3117886,0.22108832,0.09280399,0.10290168,-0.3127396,0.7252822,-0.19902727,-0.70250213,0.3634479,0.30370983,0.12848586,-0.30747366,-0.25407892,-0.8279631,0.21710312,0.50037265,0.59500074,-1.2995313,-0.083754376,0.122203425,-0.4093033,0.12767366,-0.036029294,-0.16762176,-0.13514015,-0.45087403,0.41179723,1.1722994,-0.016802922,0.83322835,-0.33206856,-0.04492541,0.14137736,-0.324803,-0.90867126,-0.44583863,-0.04700605,-0.31359273,-0.3747378,-0.032273255,-0.5099105,-0.20991638,-0.20945205,0.8519824,-0.236151,-0.29392958,-0.35913557,0.3284758,-0.18483832,0.4288106,0.0077797566,-0.72823066,0.5939021,0.6534479,0.2719869,-0.34418654,-0.50485873,-0.14470679,-0.16213807,-0.30876014,-0.630786,0.54523396,-0.31291485,-0.02898941,-0.72001696,-1.3689423,0.16122535,0.52236056,-0.5149859,-0.10719636,-0.15261844,0.97045064,0.5387638,1.3867052,0.1286743,-0.66725063,0.12500802,-0.4196039,0.20529106,-0.027507598,0.57300127,-0.6772529,-0.58618665,0.68266284,-0.097396664,0.6799189,0.39827845,1.4032481,0.18022084,-0.1527811,0.07220523,-0.46238667,0.9397347,-0.2658018,-0.14574501,-0.58722115,-0.40128088,0.66007066,0.18804765,-0.08618307,0.2923403,-0.9458096,-0.60772085,0.34507322,0.36848122,-0.0763139,0.26972094,0.075864494,-0.22940445,-0.030082602,-0.14943248,-0.11462289,-0.6809788,0.4304996,-0.013134675,-0.0131318085,0.28515017,0.55648077,-0.054256104,0.58156425,0.08030911,-0.46754563,-0.7082124,1.0155925,-0.8837657,0.6691324,-0.2710133,-0.1926223,-0.4422727,0.0075275293,0.0782046,-0.22352955,1.8313609,-0.7370917,0.30008823,-0.082940005,-0.16983709,-0.90613157,0.75077975,-0.10170287,0.14595163,0.2571859,1.1296229,0.014239483,-0.17473534,0.06731305,0.07733154,0.5177445,0.50808835,0.4134856,0.711779,0.05470962,0.043819062,-0.455069,0.6412976,0.62756014,0.96884966,-0.1953446,-0.81375396,-0.008230908,0.5735395,-0.050691307,-0.14155063,-0.8112067,1.6641074,-0.4141649,0.18407026,-0.47606772,-0.5348854,0.5060868,-0.25675547,-0.100108065,-0.6688369,-0.09913399,-0.47517818,-0.055114474,0.8844782,0.16510902,-0.22641481,0.14008029,0.036298033,0.22817168,0.14095363,-0.25775796,-0.010153761,0.071343906,0.083959475,0.2870251,-0.6906187,1.4765031,0.8314388,0.30177647,-0.43864614,0.11566301,0.24661587,1.279805,-0.114696205,0.08962712,0.3699072,0.30214733,-0.19900633,0.04828953,0.86664915,-0.99991924,0.011979515,-0.2147926,-0.13672112,0.31201386,-0.648857,0.4791931,-0.5347381,-0.9285252,0.44301304,-0.15813804,0.5072647,-0.6339497,0.26222074,-0.25343984,-0.46175998,0.43867415,0.13829297,0.39256704,0.8395933,0.8354512,0.02567235,0.2639969,0.8715129,0.3401019,-0.09768603,-0.70288813,-0.07489908,-1.0122211,-0.0019271745,0.2336194,-0.054398872,-0.34702748,0.075646475,0.24021703,0.20456734,0.2261235,0.45827153,0.39063972,0.21256398,-1.0899436,0.0040508797,-0.66807425,-0.37979913,0.7308154,0.374807,0.17526333,-0.47542948,-0.6914531,0.1589129,0.15280604,-0.5130662,0.28823012,0.5115903,-0.45244136,-0.37468684,-0.15765494,-0.9411638,-0.03371139,-0.104277246,-0.14799376,-0.35607147,-0.44277382,-0.2457318,0.32171825,-0.5571453,0.035392605,-0.25894952,-0.42982095,-0.76763904,-0.07772743,-0.40048456,0.039043568,-0.89256275,0.012253891,-0.15659419,-0.121344626,-0.15774226,0.08992432,0.12982008,0.98733044,0.32239816,0.21227503,0.07542178,0.1482976,0.22661167,-0.22211742,-1.2591326,-1.2959801,0.32763687,0.7038997,-0.47474244,0.30138335,0.04341845,0.17602244,-0.5985557,0.3145759,-0.17327231,0.18844126,0.74504006,0.2844766,0.25060576,0.3505308,-0.27119493,0.29471028,0.52318287,0.19845888,0.27505535,-0.98242956,-0.30408603,-0.062367078,0.16928425,0.177322,0.67492986,-0.10877724,-0.033136856,0.089785606,0.69449186,0.5425572,0.6413348,-0.6343806,0.07940924,0.008469058,-0.37260422,1.2254307,0.27356172,-0.6556665,0.13993251,-0.127889,-0.54927045,-0.43435344,-0.014073473,0.09392044,0.1025,-0.57693136,0.5792974,0.13568646,0.29689622,-0.12950623,0.33129942,0.30756417,0.69050354,0.28648728,-0.15428065,0.03699245,-0.90401006,0.07683201,-0.5841738,-0.0019527839,-0.41697198,0.07481612,-0.15642092,-0.51309,0.17059554,-0.2894337,0.6245477,0.01989234,-0.07315074,0.579034,0.0501813,-0.58497465,0.058892127,0.49653322,0.0621425,0.27207333,-1.4389641,-0.08646844,-0.05327206,-0.13136649,-0.2673714,-0.76290333,0.05852892,0.009118792,0.09532553,0.29590207,0.4984332,-0.69113475,0.23310024,0.83989763,-0.32804072,-0.66868186,-0.3903987,-0.41328973,-0.7036448,0.2191394,0.46352157,0.96513975,0.37520114,-0.12512118,1.0697896,0.3278507,0.35868478,-0.181167,-0.09548478,-0.3518117,-0.13666263,0.027367093,-0.012610491,-0.12902772,-0.13613981,0.5597105,-0.26328433,0.7596239,0.3468696,0.33951074,0.06797527,0.10260175,-0.85972404,-0.22724545,-0.031089412,-0.1204862,0.43806183,-0.05826439,-0.92669857,-0.6923108,-0.3359217,-0.47628778,0.562998,0.48691353,-0.062676914,1.0212855,0.2884366,-0.0064926855,-0.4438988,0.37633955,0.4463061,-1.0262207,0.2866191,0.18533643,-0.68572176,-0.21389776,-0.28164214,0.00044962703,-0.18752587,0.67204857,-0.4057554,-0.15593812,-0.10082811,-0.18363285,0.4257384,0.0752553,0.010995392,-0.8180233,0.08473021,-0.54410326,-0.2892944,0.6244416,0.103866465,0.6192312,0.14542043,0.8353597,-0.7285925,-0.36979848,-0.7141905,-0.1429214,0.14514464,-0.5529429,-0.35958606,-0.48728138,-0.87248206,0.5271126,-1.0835948,0.3242032,-0.6770353,-1.3578532,0.53806555,-0.38025773,0.09502564,-0.6769917,-0.32793796,-0.39161795,-0.14501843,0.14823052,-0.2735417,0.10001737,0.39984798,-0.1014601,-0.20766106,0.71614313,0.52849424,0.996161,0.10790945,-0.9925448,-0.71120906,-0.92303014,-0.5091269,0.91739154,0.00577164,-0.5833838,0.15405399,0.56611466,0.392177,-0.25430852,0.30632582,-0.7676052,0.025496092,-0.5710163,0.019353546,-0.9829362,-0.6394454,0.10936393,0.23530237,0.27280325,-0.15415904,-0.6602287,-0.50621897,0.16696918,-0.25698814,-0.13748926,-0.2718838,-1.0258563,-0.38740534,0.33195734,-1.1783452,0.38033766,0.20547736,0.120234884,-0.51808286,-0.3103332,-0.045575492,0.042408124,-0.8066757,0.65741575,0.17754413,-0.18671677,-0.88328767,-0.20992321,-0.73568416,-0.06980097,-0.99020153,-0.1325801,-0.07605933,-0.7399505,-0.85170937,-0.13540874,0.07774757,0.38672936,-0.3797999,0.44975257,-0.11761907,0.48427242,0.3771833,-0.0892103,-0.5687423,-0.6941674,-0.16397,0.7894559,-0.9493301,-0.26746774,0.0651866,0.4635561,-1.3506212,0.040066566,-0.03289529,0.44745094,0.18173999,0.1432392,-0.33135933,0.10859707,-0.01261235,0.5312364,-0.13804632,-0.10863914,0.46699736,-0.6295936,0.3569258,-0.32796043,-0.50995,0.06791681,0.12933972,-0.48268968,0.30512726,-0.06717946,0.48821294,-0.16777399,0.21753126,-1.1681762,-0.3140682,-0.24335806,-0.27436715,0.2606141,0.0974786,-1.1903083,-0.13165721,-0.97513235,0.12165257,-0.06447446,-0.38525605,-0.17565234,-0.18093833,0.12523624,0.00264577,-0.533175,0.34136197,-0.8783982,-0.38675326,0.14529082,0.6660003,0.51033914,-0.12709054,0.14268133,-0.4198562,-0.0748056,-0.48862165,-0.37684914,-0.4252566,-0.9170358,-0.12900153,-0.008569886,-0.41382825,0.35786533,0.24367705,-0.7712543,-0.28099093,0.42962974,-0.5521287,0.14122999,-0.041199375,0.560655,0.030051852,-0.21972579,-1.6519375,0.06961995,-0.17127591,-0.22277918,-0.6449984,-0.6420158,0.45748824,-0.62186515,-0.7563571,0.6610541,-0.11044067,-0.71332467,0.7257662,0.43840662,-0.6951291,-0.49155137,-0.5304999,-0.88400733,0.22003555,-0.11358485,0.051372476,0.45291698,0.14908412,-0.1619218,0.72018325,-0.6029261,-0.19824047,0.33373275,-0.3620044,-0.53187585,0.01628567,0.3832408,0.6737622,0.2530911,-0.13883969,0.35134858,-0.57815754,0.08359748,0.3079083,0.8135287,0.16394396,-0.24642015,-0.6706934,-0.26801074,-0.4426982,0.10966687,-0.13105798,-0.009634359,-0.496872,-0.019775065,-0.2749733,0.057616495,0.17425597,0.43409234,-0.198185,0.3300129,0.93931234,-0.14087337,-0.23299998,0.25303042,0.0464847,0.11997238,0.73499286,-0.050318353,0.3211751,0.4161199,-0.637979,0.36247182,0.50683993,0.44539535,-0.6603768,-0.5497843,-0.087641686,-0.43797016,-0.048753157,-0.36068827,-0.19838104,-0.9471779,-0.19600385,-0.16662082,-0.7277263,0.47403824,0.06798709,0.15617537,-0.29300985,0.12954518,-0.38720798,-0.07777184,0.26673296,0.060475413,-0.4293257,0.005713099,0.18372509,-1.235668,-1.1384544,-0.027829167,0.5541911,0.027962122,-0.25832856,-0.56718814,0.25755852,-0.6299325,-0.028031554,0.065505594,-0.72099644,0.31591493,0.046698786,0.31139877,-0.2569653,0.347735,0.16467446,0.21889997,0.38023913,-0.476292,-0.0289722,0.7713162,-0.29014376,0.2042574,-0.8696935,0.4272762,0.42779782,-0.5538921,-0.23102757,-0.09600429,-0.42598364,-0.045551598,-0.114243776,0.6260575,-0.2371327,0.67515564,0.052434795,-0.11886857,0.5355506,0.26079184,-0.15545213,0.3585543,0.04433777,-0.23500192,-0.13384262,0.016597789,0.14803535,-0.29802454,-0.13644442,-0.7639156,0.7345827,0.08362278,-0.26871955,0.022688799,-0.7634771,0.6133784,0.12345344,-0.11335398,0.19927727,0.023272235,0.089654505,0.00020229083,0.44696414,-0.75335324,0.3662878,0.9101022,1.0373299,-0.56628263,-0.04879139,-0.091980025,-0.06913011,0.020548983,-0.049564846,-0.93484926,0.048874184,-0.37196243,-0.1239548,0.27778,-0.08955172,0.51758945,-0.29889885,0.4710192,-0.09693578,-0.35985535,-1.3227491,-0.47980756,-0.19497676,-0.18114439,-0.3121395,0.186317,-0.64095056,-0.15611035,0.16874847,0.7262659,-0.24338794,-0.059466936,-0.08968693,0.89192635,0.2191655,0.11661531,0.15807486,-0.19009002,0.41171372,0.027729888,0.34348828,0.2870354,-0.83075094,0.019829672,-0.668674,-0.6286511,-0.26456496,0.1621727,-0.50183797,-0.07269704,0.043489687,-1.0176189,0.16579583,-0.26730642,-0.8965414,0.1910401,0.13576542,0.4751525,0.124490395,0.5630284,0.07532285,-0.5881114,0.7375678,0.04707171,0.06324026,-0.25790015,-0.086018175,-1.0926692,-0.22124207,0.55020535,-0.29018885,0.47955045,0.39914745,0.7387943,-0.005618396,-0.330679,-0.15043044,-0.266801,1.6743699,0.744948,-0.17817804,-0.7487718,-0.027974017,-0.23874798,-0.38567698,0.0020454808,-0.09806314,-0.9073076,-0.2529915,-0.015139969,-0.09225876,-0.051464424,0.11730915,-0.32529813,-0.1633173,0.31902456,-0.65289915,0.18145098,-0.72659826,0.38288146,-0.25931245,-0.13994026,0.2564901,0.6281507,-0.16316906,0.5087537,0.12216845,-0.30111015,-0.4657468,0.5755967,-1.171806,0.43498096,-0.610814,-0.13280502,-0.54709697,0.42684013,-0.15231037,0.16623703,0.9053052,-0.25719762,0.02040978,-0.009030697,-0.4070087,-0.69716686,0.13939825,-0.27515823,0.36353654,0.08900291,0.6745343,0.017664827,-0.12487715,0.032491952,-0.4959967,0.45078355,-0.18884936,0.18254313,0.15746844,0.16511104,-0.22267692,-0.9331945,1.1801791,1.0436175,0.42828792,-0.43957886,-0.23935409,-0.13333818,1.4154034,-0.062914684,-0.27987874,-0.15212765,1.1594822,-0.2995586,0.39143738,-0.21501118,-0.51142776,0.53753686,-0.8138304,-0.16760477,-0.28636602,-0.085177585,-0.1823958,0.3810754,0.6493162,0.3344822,-0.47016063,-0.19727209,0.17929763,0.28061652,0.61208564,-0.52401304,0.047086414,-0.63180673,-0.4748189,0.09983149,-0.8591908,0.44199276,1.0711702,0.41260377,-0.40525126,-0.32858145,0.24513412,1.1352161,0.6116117,-0.066298164,0.04694319,-0.11706493,-0.120284796,0.374386,0.0007876805,-0.32689586,0.1400393,0.03245223,0.5888312,0.5906118,-0.22524492,0.6083193,-0.56002307,0.30804235,0.8356011,0.50896674,0.56233394,-0.10708435,0.3245639,0.4076329,-0.20216766,0.21411315,-0.0325735,-0.103868976,0.06297871,0.033501845,-0.37113595,1.0744209,0.5071337,0.5509268,0.07785615,0.073935546,-0.4239365,-0.15119728,0.35861507,0.12097865,0.498958,-0.0041489843,0.3093363,1.1330446,1.1230626,0.5369734,0.60781467,0.11142322,-0.35543138,0.13547006,-0.21197759,-0.35426167,-0.20173126,0.16636309,0.3669623,-0.13380148,-0.2895444,-0.5703957,0.8543433,-0.5318181,0.33604845,-0.63976467,0.6340716,-0.87810665,0.04724019,0.70009136,0.22452311,0.48529744,0.21721691,0.079936825,0.88114476,-0.21475874,0.2641996,0.28685626,-0.024215061,0.76905036,0.27506825,0.26536503,-0.49726665,-0.59376997,-0.1882701,0.60587347,0.1266371,0.76961035,0.13726448,0.17258203,-0.048394125,0.20741455,-0.5626663,-0.3345471,0.17099445,0.606478,-0.2513788,0.89791584,0.55781054,0.27116686,-0.37615258,0.2536808,-0.40210027,0.45587334,-0.27058136,-0.08651441,-0.21997038,0.38487667,0.58858114,-0.18083793,0.49050146,0.46734935,0.07586761,-0.44381762,0.41109025,0.49289894,0.3854403,0.68990207,0.3932554,0.78193283,0.3764059,-0.58289945,1.4938965,0.15153754,-0.28221697,0.28400907,0.9627249,0.4285576,0.64301574,0.2585435,0.46555775,-0.6362142,0.36868644,-0.082801774,0.73699987,-0.08735275,0.123645425,0.711076,0.3427885,-0.2162635,-0.015929172,0.30155045,0.3668318,0.7639199,1.1501426,0.46690503,0.4143234,-0.55323493,0.050002806,-0.02977269,0.218775,-0.8504697,-0.14656034,0.111181885,0.24192517,1.6547813,0.35912108,-0.16047564,-0.06037929,-0.49138546,0.22960413,0.531415,-0.6200168,0.15620269,0.6842317,-0.08395925,-0.2132872,0.32840702,0.22625577,0.17085834,0.4094141,0.027638823,-0.11639668,0.26075763,0.11618836,0.6811984,0.39326704,0.2045024,-0.62660676,0.31899697,0.09581588,-0.1395486,0.6527376,-0.19828105,1.1033471,-0.22722979,-0.057995893,-0.32408154,-0.2126799,0.14060315,-0.36729962,0.50568366,0.17230068,-0.25510836,0.2625901,-0.4642504,0.06403348,-0.04843262,-0.14552641,0.7019278,0.46506223,0.22388797,-0.72126544,-0.45627546,0.1550029,1.0263903,-0.13850012,-0.37203938,0.3372478,0.3995402,0.99564123,0.65653276,0.5918488,0.48342735,0.35488886,0.38853747,0.20609245,1.0754888,0.36115223,0.28340623,0.015563183,0.02895125,0.09534946,1.1054218,0.951133,0.04062005,-0.14118242,-0.040253527,0.5359721,-0.22032633,-0.19642872,-0.4229991,0.034133945,1.2370541,0.103375666,-0.37549895,0.5545333,-0.090127096,-0.3535385,-0.43908688,-0.2435168,0.1466035,0.741238,0.68387955,-1.1818492,0.05892168,-0.08905851,1.3814422,0.44699496,0.4894781,0.30783877,0.04028637,-0.22992036,0.032828435,1.2758602,-0.25322992,0.026353937,-0.19377603,0.5617307,-0.6202477,0.20300952,-0.46193486,0.092060134,0.1361655,-0.6579083,0.5891852,0.35444802,-0.37877452,0.6387259,-0.5297658,-0.2476838,-0.57447195,-0.100608364,0.34940314,-0.49707866,0.043592464,-0.12161322,-0.30421248,0.1558908,0.17483509,0.5207291,-0.63098603,0.0428774,-0.0004190748,-0.20811978,0.09715663,-0.3506739,0.014869488,0.67266333,0.042703457,-0.6181716,0.47397432,-0.11422474,0.536016,0.066214,-0.060203522,-0.10279943,-0.34463108,0.338035,0.32893923,0.49216306,0.094594985,0.08273393,0.36787122,0.4982484,0.060860954,0.11357552,0.51904804,-0.05197419,0.016055433,-0.2923264,-1.2056465,0.07013723,-0.10652408,0.9982757,0.1157746,-0.019653745,-0.50936896,0.4941604,-0.52066654,0.2690277,0.43235844,0.4487807,-1.1819644,-0.52456295,0.28285527,-0.23305035,0.03473527,0.4178174,-0.0021987264,-0.40939757,-0.10216245,0.12517358,0.13280132,-0.21799679,0.45090324,0.5905615,-0.19800377,-1.0720218,-0.7768199,-0.37196708,0.5174479,0.41441625,1.3661295,-0.065631256,-0.3858521,-0.036626637,0.38943973,0.43976253,0.10765141,0.6578016,0.13713078,-0.100973375,1.126651,0.30546796,-0.11199818,-1.159645,-0.41559267,0.46098292,0.10755323,-0.65083563,-0.5254874,0.13513876,0.6648024,-0.5598334,0.19553214,-0.12917632,0.5320263,-0.23294601,0.34411573,0.67421734,-0.06538402,0.150716,0.6221317,0.079846114,0.16069987,0.22786912,-0.20292595,0.10578665,0.5359051,-0.01616893,0.31900465,1.1412545,0.25976363,0.51795673,0.056610685,0.90659094,0.024530489,0.602395,-0.7772845,0.39020327,0.01603474,-0.24716249,-0.10621194,-0.21252301,-0.45245227,-0.03864308,-0.7777264,0.24769258,0.49260283,0.090335414,-0.036144376,0.48588622,-2.2533774,0.78356516,-0.1023207,0.053113844,-0.015251414,0.35988152,-0.0438912,0.4719307,0.76790595,0.1978047,-0.5596004,-0.25737086,0.61557806,0.10799443,0.22495976,-0.4016953,-0.082655646,0.5885186,0.123542465,0.15082015,0.21592692,1.1275923,-0.12521476,0.17431863,0.19914708,-0.08141963,-0.28944117,0.07370132,0.29798222,0.1056301,0.69862056,-1.5054512,-0.19054002,0.22988191,-0.24389708,0.9433155,-0.34320182,0.6738486,0.1404238,-0.013658981,0.000380782,-0.13185579,-0.4169397,0.013094243,-0.081294745,-0.3716293,-0.09186256,-0.46095744,-1.180907,-0.18892092,0.3232411,-0.036950067,0.08391177,0.13790436,0.16927503,0.56102747,-0.38315278,0.53641397,0.30687612,-0.9569653,-0.42937726,0.48537993,0.14144781,0.8798932,0.5159815,0.9064441,0.041001838,0.449409,-0.032282576,0.32733232,0.26761764,0.22402018,0.58353907,-0.60607487,-0.17017967,-0.21747264,0.097797975,0.04766415,-0.098588526,-0.47601438,-0.16339266,0.22053504,0.32662195,0.012738321,-0.38314986,-0.16665888,1.3026268,0.13418692,0.19144568,-0.008225199,0.5150229,0.07642649,-0.6074593,0.086304575,0.57651913,-0.12545419,0.23430175,-0.96535414,0.2598151,-0.093485355,0.90624905,0.9526202,0.2588961,-0.02715635,0.27062416,0.15743792,0.21722661,1.0128714,-0.4188053,0.21699618,-0.10737195,0.5299263,0.48457217,0.009781167,0.102277994,0.04196681,0.36296177,-0.7331931,0.0989206,0.21158612,-0.9453269,0.08037618,-0.291328,-0.10044116,0.66147137,-0.32564393,0.31681675,0.7570261,-0.34009123,0.744983,-0.6014912,-0.5232235,-0.59625626,0.6745113,0.7027124,0.19204244,0.4120763,0.42469537,0.6285238,-0.05442198,0.48460227,0.864324,0.18738705,0.5019292,-0.7394012,-1.4565842,-0.46634483,0.10463288,-0.3651088,-0.37300196,0.3389791,-0.5126453,-0.2351059,0.087668106,-0.046115093,-0.21799067,-0.8496771,-0.2613681,-0.20096847,-0.41984212,-0.9321384,-0.19514053,-0.46685505,-0.5202661,-0.44712177,-0.027845943,-0.1011034,0.97612035,0.62488663,0.8908266,0.19121784,0.12256207,0.2780171,-0.2732292,0.0033856104,0.4362307,-0.19725433,-0.49453068,0.24011292,0.21968874,0.03486156,0.23774436,0.17466742,0.23033439,0.4450911,0.1709604,0.81716263,-0.0035365634,-0.21610251,1.06652,-0.42681456,-0.27595097,0.15446359,0.1166308,0.018936787,-0.33438694,0.36521265,-0.052643254,0.025848825,0.7659807,0.85783637,0.45624638,-0.25461644,-0.7122437,-0.17795643,0.009668641,1.0023826,0.17946649,0.18498167,-0.13344344,0.1362091,-0.15554687,-0.6084994,-0.25268984,0.31342113,0.45459938,-0.18088007,0.38058573,0.28171593,-0.0027639614,0.398843,0.43740126,0.4465745,-0.6107992,-0.35098118,0.018859666,-0.17195879,-0.120229736,-0.50630015,-0.35558277,-0.20700625,0.44221008,0.28446466,0.12123242,0.9660101,1.0621114,0.047562085,0.33426362,0.30574825,0.81908315,-0.13073528,0.3251794,0.6725489,0.1351592,-0.44906697,-0.18674873,-0.14335464,-1.080586,0.005413837,0.26200485,0.09801443,-0.06968291,0.48224872,0.3736352,-0.29907203,0.6856323,-0.90338755,0.6300826,0.36316085,0.018094208,-0.36847293,-0.060153186,0.0639105,0.05855744,0.003066253,-0.3108771,-0.011227595,-0.15731527,-0.020370841,-0.12464746,0.16223907,0.35375285,0.7015047,0.53688395,0.7481127,0.21414635,0.0018591245,0.91920155,-0.13662547,0.3775803,0.13610283,-0.32557362,0.18697837,0.5947051,0.63685125,-0.34778765,-0.124558344,-0.83010983,0.016785808,-0.10734661,-0.076532796,-0.17084958,0.37849313,-0.40079272,-0.4038256,0.08911876,-0.13915405,-0.12534714,0.16644987,-0.16092369,-0.1939241,0.3082473,0.53951514,0.22595477,-0.12576398,-0.028339382,0.100293614,0.25614974,-0.12571184,-0.8136469,0.11216383,0.029461134,0.22239928,0.7989629,0.18692917,0.65633297,0.52159005,0.39855307,-0.1570887,0.12602863,-0.22005603,0.13951911,-0.37080267,-0.08054968,0.13983402,0.030154876,-0.15792856,0.023801975,0.88405657,0.25164342,-0.1300422,-0.26850525,-0.039968282,0.79485345,-0.07042959,-0.2848731,0.077903435,0.17566709,1.0475031,0.25000784,-0.110708006,-0.3457855,-0.06774116,-0.3659332,-0.090714514,-0.24857365,0.3760557,-0.37112772,-0.4780562,0.30938333,0.45849523,0.6748445,0.16570246,0.29266936,0.08928348,0.25725797,1.391455,0.7787211,0.11606418,0.4959889,0.34766352,0.20941666,0.47924852,0.21901143,0.2282679,-0.10462576,-0.45254195,-0.07095471,0.80978215,-0.17209086,0.07491691,0.0106674265,-0.6186551,-0.33444244,-0.16318703,0.3104784,0.45556957,0.0036593336,-1.0859416,-0.1465554,-1.10466,0.13681783,0.29626533,-0.19665939,0.18138573,0.3025455,0.620175,-0.1524691,0.76866853,-0.19285867,0.64675415,-0.65190613,0.08051793,0.08457023,-0.0417242,0.026260147,0.31138858,-0.14043093,-0.0017061972,0.21167658,-0.23709065,-0.44426042,0.27928716,0.009841949,0.28565896,0.8676796,-1.1154425,0.08115646,-0.6279893,-0.15461515,-0.5261275,-0.5415933,-0.3074686,0.40465033,0.23192173,-0.16043639,-0.4323138,-0.27293494,-0.43996817,-0.66065776,-0.44402528,-0.1387586,0.011875426,0.13664855,-0.10563213,0.4960928,-0.15647864,0.3096215,0.3751583,-0.21834984,1.1266489,-0.22850862,-0.2888065,0.25346136,-0.083486035,0.35483754,-0.6218835,0.08804143,-0.1970086,-0.30257022,-0.08625895,-0.14606312,-0.27053922,0.0027250622,-0.21686938,0.18839882,-0.07083531,-0.72244143,-0.1675098,-0.22258927,0.33898357,-0.45135638,0.42427114,-0.35663426,0.5174067,1.094428,0.07679568,-0.15946525,0.23320621,0.26267105,-0.23525146,-0.47491363,-1.1505293,-0.044503108,-0.15298942,-0.5119978,-0.53461236,-0.46445477,-0.07742888,0.22147942,-0.3035987,-0.65699494,-0.050350107,-0.5435873,-0.25249225,-0.28692183,0.33098567,-0.0011478625,-0.43703038,0.30402428,-0.17336562,0.09923425,-0.6274589,0.22275715,1.2277815,-0.06956672,-0.6952503,0.5151589,0.01796458,-0.6707766,-0.4047438,-0.41327357,0.27848822,0.20801961,-0.5133892,-0.23279291,0.50408286,0.09459683,-0.23430958,-0.54423153,-0.66013587,-0.34542397,-0.7102487,0.3867482,0.47958654,0.13692555,-0.11406122,0.5047371,-0.70348406,-0.26642674,-0.13449723,-0.48616448,-0.9639673,-0.34353882,0.020326825,0.22828802,-0.13881779,-0.2979228,-0.26096824,-0.14299771,0.54780066,0.013090248,-0.019073922,0.114704885,-0.3429325,-0.06606723,-0.30027288,0.17159715,0.7462814,-0.2771774,0.21388146,-0.5719857,0.73752,-0.06640347,0.13403632,0.11181357,0.06090474,-0.20961645,-0.97312057,-0.014950739,-0.20722048,-0.13038835,0.14565715,0.12270275,0.16171229,-0.46940398,-0.19245458,-1.1670492,0.30656224,0.37535214,0.4058867,0.34644753,-0.15395063,-0.087092355,0.21993914,0.026259579,0.18969494,0.5383227,0.39438236,-0.034345817,-0.23302865,-0.05049304,-0.46710598,-0.123905994,-0.38936716,-0.16525193,0.44885653,0.15646896,0.2053538,-0.7511355,0.1743001,-0.032761082,-0.12781373,0.14235327,-0.08449577,0.18056692,-0.3085261,-0.6156949,-0.06576426,-0.08040075,-0.5659144,-0.06179973,0.68136644,-0.37366363,-0.1965959,-0.19366163,-0.23286392,-0.36611646,0.2702961,0.04491134,-0.13503176,0.013319004,-0.54576886,-0.20887426,0.3762029,-0.80041707,0.01759884,-0.068411216,0.301488,-0.044888034,-0.25791636,0.44888145,-0.14550328,0.42992935,-0.62288195,0.16868943,-0.04679458,-0.3591189,0.3325365,0.37020916,-0.19543466,0.252638,-0.18727243,-1.4143419,-0.11621124,0.19272903,-0.25149226,-0.67050683,0.24728319,0.111263916,0.09438654,0.023430107,-0.12344733,-0.29572374,-0.9024972,-0.11903602,-1.2443165,0.037920766,-0.39630648,-0.30658922,0.5018153,-0.7324592,-0.9632679,0.2544207,-0.02640957,-0.11045,0.105321825,0.9107967,0.6418584,-0.055128306,0.43480283,-0.08846754,-0.33879572,0.43992752,0.03877721,0.6525471,-0.62669814,1.0970992,-0.6125664,-0.36690244,0.19473533,0.056633797,0.7197183,0.29365426,0.5240526,-0.272033,0.506963,1.7831028,-0.51300555,0.5087923,-0.27047378,0.25097448,-0.9507953,-0.596928,-0.067309394,0.13099766,-0.8257101,0.46477073,0.23035654,0.25599146,-0.4237407,0.62991047,-0.24127436,1.2036803,-0.78552914,-0.1512167,-0.2367301,-0.011207374,0.15083843,-0.07893051,0.33316445,-0.17740262,-0.22525096,-0.03516004,0.78915036,-0.13109331,0.06940849,-0.5293335,-0.031716593,-0.20226976,0.6076437,0.08289601,-0.2432901,0.91242474,0.5257411,-0.8172154,-0.41584072,0.24894428,-0.33500215,-0.1859025,0.48937163,0.8231036,-0.4416225,-0.42107484,-0.11801769,0.027013488,-0.75855505,-0.82158357,0.25824663,-0.038256176,-0.42426628,0.6309377,-0.3857404,0.16608931,0.18981493,-1.5818356,-2.1905173e-05,0.15946159,0.6734029,0.58969045,0.49551827,0.09087974,-0.82953787,0.56433785,0.8555994,-0.5671842,0.5015869,0.8255113,-0.7491894,-0.6030241,-0.5966484,0.37001866,0.8966178,0.417469,0.0513312,-0.91610825,-0.25456887,0.5528387,0.09533407,-0.22384101,-0.17118847,0.3993559,-1.4637847,-0.4873892,-0.7368007,-0.08870295,0.025120273,0.025089987,-0.34564707,-0.13112539,0.37170774,0.5935302,-0.06693211,-0.33894452,-0.09530978,-0.22563899,0.4164019,-0.12925296,0.50047755,0.24095783,-0.81287277,0.42851412,0.45669514,0.27662912,-0.005399036,-0.3326952,-0.20101073,0.13707834,1.1100496,0.440731,0.43090385,0.056155257,0.19834945,-0.31996587,0.21786249,0.45723563,0.529839,0.1322457,-0.43071777,-0.62125385,-0.33330137,0.61040926,0.20746481,-0.19626778,-0.4096203,-0.2535936,-0.14144859,0.027619302,-0.3217215,0.3169745,-0.61065483,-0.2803226,0.5665533,-0.15846038,0.04175599,0.19738555,0.14997888,0.27573532,-0.46982735,-1.4771354,-0.039028555,0.31136894,0.1501175,-0.48213637,0.7094924,0.4677946,0.0029981039,0.798458,0.29876256,0.5130495,-1.0053108,0.16789775,0.53183234,-0.3089025,-0.28428328,-0.45198804,-0.6721468,0.2585652,-0.0008104506,0.034941435,0.93230736,-0.1600888,-0.2514298,0.35243234,-0.2320478,-0.026945654,-0.24234237,-0.11342699,0.10007131,-0.37528014,1.0116961,0.26587012,0.17780729,0.10128455,-0.36707687,-0.11766789,-0.04465158,-0.6535564,0.06620358,-0.10270737,-0.5566267,-0.61537844,-0.7388668,-0.062397428,-0.43901646,0.8266271,0.08598475,-0.50956047,0.100930214,0.26111352,-0.5896175,0.15159895,0.15333658,-0.27230155,0.1722419,0.3462277,-0.036616623,0.15988804,0.40071172,-0.09880011,-0.17869452,1.5533118,0.25091165,-1.2936606,-0.030745175,-0.48869804,0.47143888,0.7810749,-0.1168984,0.29565483,0.038665257,-0.399535,-0.19328493,0.56508994,-0.04386431,-0.47882128,-1.2428261,0.13051689,0.48812193,0.03718068,1.111083,0.17066813,0.312527,-1.1607049,0.1711464,0.007487939,0.06563866,-0.08785012,-0.2538212,-0.47534257,0.5649868,0.11181495,-0.17873162,0.26687205,-0.23666468,0.079367995,-0.20621195,0.16651031,0.06694459,0.023883004,0.054018915,-0.08892326,-0.044519853,0.37626112,-0.6052814,-0.01114081,-0.10677044,-0.047195077,-0.09597099,-0.29796037,-0.20193838,-0.22016668,0.32983267,0.048898198,-0.04948222,0.18067975,0.023020614,0.02089937,-0.022110607,-0.07784191,-0.22250655,0.09075079,0.12891906,-0.051758323,0.0833085,0.31971216,-0.085817106,0.11877595,-0.066979654,-0.090643935,0.3890193,0.068428084,-0.205239,0.18554518,-0.36465645,0.108120814,-0.28950548,0.12805669,0.06654547,-0.3450737,-0.011466826,-0.040649172,-0.43761665,0.12988204,0.66875565,-0.07476714,0.1495816,0.15107228,-0.023678016,-0.031014793,0.08298256,-0.03310494,0.62286794,0.1562925,-0.10364737,0.03329156,0.3983655,0.13612725,0.15366182,-0.17197502,-0.46116418,-0.002187541,-0.09420492,0.44550544,0.11694531,0.2108584,0.18178004,-0.13477477,-0.009743115,0.037873894,-0.22840078,-0.2611034,0.25376093,-0.04760888,-0.18597704,0.38949698,0.31600314,-0.2840814,-0.16767347,0.016700095,0.022806551,-0.005282835,-0.3850737,0.43728167,-0.044335358,-0.0042492975,-0.12188892,-0.10798867,0.08928009,-0.38000768,-0.20732883,-0.054192647,0.07429347,0.084639095,-0.10918624,-0.039871767,-0.27899432,0.29989237,-0.5140877,0.09661438,-0.35927522,0.024807047,0.10240337,0.25516364,-0.10473089,-0.2506622,0.31004244,0.010584962,-0.10915621,-0.099891566,0.34757045,-0.22817573,0.011167052,0.10183148,0.15095,-0.28508615,-0.18202703,0.19021402,-0.28984505,-0.27384755,-0.15251213,0.0015280934,0.35982752,0.43645424,0.14236042,-0.10801007,0.1268881,0.014906332,0.01944564,-0.19277,-0.21241441,-0.021336716,0.38765818,-0.19930178,-0.029831361,0.24190956,-0.16994652,0.17847154,-0.3584726,-0.0802158,0.16813552,0.48157194,0.15493363,0.31235683,-0.3834615,-0.12099053,0.18183187,-0.1641276,-0.14735717,0.17111677,-0.08522797,0.6173823,-0.023645256,-0.18660587,-0.17056459,-0.5899443,0.31420743,0.28564823,0.33449996,-0.38975444,-0.39915413,0.23000772,-0.110868156,0.13905457,-0.07817372,-0.41284376,-0.25115275,-0.18153173,-0.30774814,-0.04795406,0.13024949,-0.068351,-0.18035689,0.005104596,-0.2728932,0.045727957,-0.14923334,0.0199772,-0.03488446,-0.30692077,-0.17265314,0.2986946,-0.020776425,-0.38381487,0.2748658,-0.030211456,0.09258318,0.388158,0.06823863,0.60154045,-0.38522527,0.5485641,-0.040574342,-0.078368664,0.00938434,0.39635175,-0.086445585,0.33612722,0.7389851,0.15396157,-0.17996126,-0.20622367,0.43932903,-0.08470495,0.41866708,-0.16128074,-0.17334834,-0.23666157,-0.012547035,0.08100329,0.22430934,0.22403888,-0.13990857,0.175932,0.03792671,0.04249619,0.42800915,0.21210572,0.095966026,-0.23538698,-0.16048601,0.061923146,0.51013225,0.047293406,0.41810793,-0.44151643,-0.00384602,-0.04829356,-0.19758159,0.41156852,0.18218914,0.08028725,-0.29932767,0.3104636,-0.28833807,-0.12360431,0.5208404,-0.07517751,-0.19962825,-0.50656176,-0.38708,-0.0029569918,0.17778808,0.1274252,-0.30389908,-0.18552318,-0.39346457,0.11000657,0.22735888,0.20919636,-0.11976515,-0.49259025,-0.12258276,0.2668295,-0.27873498,-0.36875835,0.005457323,0.1937888,0.35108402,0.2346453,-0.47600457,0.6363591,0.29929388,0.027307846,-0.03523375,0.12091308,-0.088704854,-0.044306368,-0.00038559712,-0.62118757,-0.15351328,0.27111873,-0.013581118,-0.31843105,-0.06440607,0.4353915,0.14704159,0.17407563,0.45884973,0.21392572,-0.011950558,-0.13426876,0.22482082,-0.045325786,0.059893046,-0.18246016,0.028142652,-0.07322702,0.19173539,0.07976888,-0.05945097,0.40799206,-0.070888,0.37322593,0.2656995,0.40190607,-0.20390037,-0.14896409,-0.1579303,0.1456135,-0.5379612,-0.13355517,0.2613333,-0.2149357,-0.15015984,0.17153461,0.11778629,0.26082128,0.2073432,-0.11402116,0.29893488,0.08093491,0.2476567,0.029565183,-0.1516721,-0.2675094,-0.36556935,0.12575595,0.16520411,0.37831315,0.3819679,0.19449177,-0.09328334,0.0036228204,0.013459405,0.15540719,-0.1728583,0.21970686,0.2980702,0.27993625,1.2711107,0.09538893,0.23829933,-0.65062356,0.33168966,-0.02646941,-0.4212954,-0.4504859,-0.11102088,-0.1698232,0.41105312,0.049475417,0.1892964,0.13621363,0.15633267,-0.10731919,-0.062425904,0.5178189,0.12589547,0.21956426,0.49726915,0.13069902,0.16603447,0.18128926,-0.0061541703,0.25627422,-0.17009313,-0.05022479,-0.21276,0.48921084,0.06549314,0.30141014,-0.038354874,0.21537378,-0.02256009,0.24766904,-0.15138307,0.3063905,-0.3607235,-0.01629693,0.019620683,-0.20048954,0.06266827,-0.05185072,-0.6517825,0.020040577,0.39375234,0.13762164,0.11275241,0.13651705,-1.3462667,0.029949922,0.31291866,-0.06261213,-0.19728833,0.19549516,-0.12797627,-0.09377357,0.044300243,-0.20606816,0.06738743,0.21326217,0.44148743,0.2996056,0.3946901,0.27632254,-0.12709934,0.26176462,0.40293682,0.058712978,0.3861706,0.3317762,0.22578469,0.15497288,0.05736004,-0.2783077,-0.066199526,0.006075766,0.10442139,0.2284871,0.39559168,-1.2217032,0.33591262,0.14376077,-0.034152865,0.07910487,0.12509249,-0.03680656,-0.2225752,0.23539287,-0.09877156,-0.07215078,0.24832739,0.0037142036,-0.07280062,-0.096200414,0.23130056,-0.020366091,-0.12804073,0.17556003,-0.23573434,-0.056924008,-0.36246407,0.25128913,-0.025125863,-0.13407412,-0.039408952,0.03548538,0.0066100196,-0.013502236,0.092104435,0.5257511,0.06536138,-0.13573816,-0.08622257,0.4265868,-0.2006002,0.11832917,0.33103305,-0.027682403,0.23561902,0.20064321,0.101407856,0.25607127,0.059540287,-0.042148642,0.2608909,0.5031865,0.08994189,0.24450387,-0.09178221,0.05749928,0.5893632,0.07855423,-0.21008126,0.15239057,0.3518564,-0.1406937,0.0071684993,0.15003005,0.20908847,0.31102395,-0.5305569,0.16762905,0.10830009,0.3781212,-0.025153603,0.23955894,0.12572545,0.12967406,0.41486132,0.6056931,-0.10287212,0.13072222,-0.16861612,0.20688607,0.20759356,0.3304729,0.021960255,0.19872141,-0.1947687,0.18665728,0.18485016,-0.06787573,-0.27220547,0.075441346,-0.13853651,-0.012184639,0.0399603,-0.35931265,-0.7507386,-0.3661582,0.24441697,-0.10756067,0.37570465,0.26892602,-0.048570573,-0.059763767,-0.19357033,0.13295701,0.46677458,-0.14591259,0.2328164,-0.11173192,-0.15517128,0.28373015,-0.4735415,-0.120816424,-0.01768887,0.17109913,0.3280822,0.12612444,-0.21968159,0.05981444,-0.66398275,0.6770288,-0.5645921,0.013019264,-0.053219736,0.6036906,-0.23201925,-0.34089482,-0.3323674,-0.32905984,-0.23113811,-0.31741208,-0.70379776,-0.1429596,-0.34596926,0.050532028,-0.8314018,0.3613438,-0.5104246,-0.24036637,-0.2903296,0.48159727,-0.37299147,0.08767017,0.07658889,-0.00869072,0.1636023,-0.07617314,0.33873767,0.09977579,0.54944146,0.04820898,-0.04411774,-0.013731195,0.034210287,-0.10647833,-0.2558241,0.0031877388,0.20993856,-0.10590881,-0.15945627,0.06899934,0.03264565,-0.28869277,-0.024710834,0.06810751,0.010140012,-0.31296417,0.18141195,-0.071682684,-0.045165,-0.5252971,-0.3155826,-0.20200059,-0.040459976,-0.34523898,0.25190225,0.03165321,-0.21511334,-1.0290817,-0.048349075,-0.24284238,-0.03207892,0.22118285,-0.012486445,0.10497475,-0.0012750765,-0.14725883,0.026860269,-0.2684663,0.14783344,0.4627425,-0.35185337,-0.19114633,-0.28329968,0.28783324,0.064699784,0.14213616,-0.016747238,-0.78721523,-0.12111661,0.30660832,-0.16570893,-0.10127272,-0.4775633,0.13990584,-0.5087354,-0.071791604,-0.28176332,-0.6092917,-0.0098592285,-0.070660025,-0.10804063,-0.612737,0.027932107,-0.10940738,0.605785,-0.12593655,-0.06717338,-0.21699895,0.016501786,-0.0054404037,-0.2488386,-0.37091497,-0.020148711,0.27424437,-0.23129293,0.13427275,-0.14362061,-0.4768636,-0.12016758,-0.0658016,0.18932375,0.037100106,0.20271647,0.31115267,0.35234237,-0.19569477,-0.22480842,0.17097205,0.04717561,-0.0003341284,-0.0001631385,-0.266335,-0.29961097,0.60330415,0.076259196,-0.3014397,-0.25942323,0.13674861,0.014580202,-0.2795236,-0.13376166,-0.3014806,-0.0766308,-0.027533557,-0.14239056,-0.20287463,-0.10350625,0.5534664,-0.16463278,-0.07962434,-0.50107664,-0.5941906,0.08922793,0.19002192,-0.07436599,-0.045781635,-0.077990875,0.19122514,-0.19115025,0.72488004,0.0628641,0.27028197,-0.10696406,0.0087088365,-0.39172304,0.0481536,0.35562098,-0.0362323,-0.46554598,0.32703862,0.3178354,-0.16161525,-0.06397182,-0.09938272,-0.04411209,0.22959033,0.021600494,-0.47434503,-0.28632504,-0.3361348,-0.20721366,0.029367892,0.48603323,0.1744489,-0.14207742,0.44737315,-0.07736127,-0.024776142,-0.2611034,-0.40290448,0.26384348,-0.14122143,0.22711168,-0.11373946,-0.22969586,-0.13103878,-0.19742623,0.3384953,-0.06388163,-0.3044158,0.2476891,0.06420775,-0.36590967,-0.13672063,-0.002196659,-0.09044464,-0.107133634,-0.22143294,0.03796519,0.10251478,0.42473692,0.037918083,0.08886847,0.28173265,0.28934807,-0.7711103,-0.3745818,0.2676865,-0.0008483096,0.34610242,0.1667991,0.27522826,-0.19459139,-0.17693305,0.441584,0.0038413857,-0.13135688,0.05524523,-0.007559265,0.12944406,0.5848308,-0.008395952,0.64100444,-0.13391858,-0.28573954,-0.71931064,-0.30117187,0.414412,0.103624225,0.118100464,0.92735785,0.7809943,-0.105828464,-0.23639491,-0.59756637,0.4550208,0.4486915,-0.99884975,0.7775012,-0.862337,-0.942529,0.10446812,-0.016407294,0.041283973,-0.66747725,0.26361835,0.1888239,-0.33595625,0.09361842,-0.56876814,0.34374636,0.5671595,0.56528884,0.21793044,0.49337888,0.1249633,0.34146827,-0.07917585,-0.768592,-0.5516012,-0.5195582,0.2614684,0.4322089,0.06353181,0.3308058,-0.16299346,0.4464804,0.12543751,0.7420839,0.13364787,0.6434226,0.16031326,-0.15298834,-0.3386981,-0.6320733,-0.69317496,0.913379,0.26614547,0.42451343,-0.48824883,-0.7794925,0.5705633,0.36399576,-0.19062997,-0.29536355,0.7039867,-0.08870089,-0.21691805,0.09049535,-0.80839,-0.30180484,-0.048057027,0.048780307,-0.36116427,-0.48173898,-0.24619691,0.5724423,-0.4360931,0.12819742,-0.72549415,-0.3203094,-0.9268615,-0.3086881,-0.28925532,0.2309596,0.10846242,-0.3683431,-0.22513539,-0.18032041,-0.12168765,0.43699157,0.18548772,0.5839871,0.52531695,0.21027759,-0.124863856,0.7234268,0.07225007,-0.06633015,-1.141138,-0.53729296,-0.31266588,0.05106354,-0.34613025,0.23661894,0.020537648,0.6267768,-0.44113332,0.29856557,0.24718902,-0.09275916,0.57503676,-0.080549836,0.44347766,0.046479993,-0.033526715,0.3006475,0.7616259,0.88646436,0.18111695,-0.41209096,0.4117938,0.25348347,0.17504695,-0.05426018,0.68095744,0.2693087,0.02125023,0.1751299,0.23053905,0.20141426,0.625972,-0.576337,0.41022828,-0.2908702,-0.5172119,0.28350806,0.71243155,-0.73866904,0.08530922,0.32206887,-0.69500923,-0.044954974,0.21772909,-0.024273757,-0.074681625,-1.2750013,0.35909006,0.2954418,-0.023412094,-0.8043422,0.45730978,-0.094991624,0.33677688,0.297634,0.09693621,0.07972954,-0.46461797,-0.25107262,-0.15450072,0.12097506,-0.57486904,0.0011711532,0.048539694,-0.5404421,0.06983526,-0.76110375,0.17672282,0.07094135,0.106876254,0.2540515,0.06771611,-0.24385595,0.040883392,0.37283716,0.043343328,0.30962735,-0.38993344,0.19496213,0.02401721,-0.13391581,0.20754296,-1.4489923,0.0018522012,0.20147131,0.24861674,0.03612392,0.16953911,-0.64861554,0.3799109,0.981285,-0.94791925,-0.6991885,-0.6340451,-0.8496022,-0.30096254,0.63826597,0.42360434,0.38964194,0.48160335,-0.07653506,0.43243337,-0.08550842,0.1149098,0.24098814,0.29090938,-0.34942022,0.13520193,-0.014528859,0.10960898,-0.0554811,0.3281392,0.58666825,0.3160845,0.19845316,0.72371554,0.14532565,-0.093478255,0.22621983,-0.6565378,0.2483832,-0.20406951,-0.5195236,0.951505,-0.23346397,-0.58886635,-0.26995802,0.27308533,-0.27690634,0.30749515,0.506971,-0.08815432,0.6965368,0.1962461,-0.1677314,-0.110794194,0.020526629,0.14341322,-0.87002826,0.031301707,0.3590508,-0.09773649,0.093085214,0.016782556,-0.2596221,-0.33618397,0.5179558,-0.5208666,0.048060976,-0.00038848777,0.021280983,0.14011121,0.15915707,0.2835115,-0.6401808,0.21286772,-0.39342034,-0.18729603,0.29287636,-0.0016033605,0.23016416,0.29244024,0.18032989,-0.7743263,0.9034829,-0.3085493,0.50389135,-0.5122294,-0.6161873,-0.19142833,-0.19315726,-0.13536945,-1.2471266,-0.013835775,-0.020396717,-0.053385723,0.079857245,0.060227633,-0.37220693,-0.28288475,-0.40436268,-0.18660212,-1.6729956,-0.13321495,-0.06349569,1.1096699,-0.6064153,-0.2125843,-0.001588342,-0.45554483,-0.7183833,0.97590184,-0.44588575,-0.17163554,0.908921,0.52359265,-0.4213304,-0.016179327,-0.4311033,0.45403117,0.08852641,0.37244093,-1.263578,-0.19319907,0.09788369,-0.60168815,0.287619,-0.7318374,-1.056698,-0.60693336,0.40718263,-0.11415709,-0.16935664,0.19548377,-0.13649556,-0.88379323,-0.44741032,0.6504383,-0.6320141,0.09103562,0.19880006,-0.35376644,-0.8747873,-0.32015443,0.28141987,0.6645669,-0.0753589,-0.47357035,-0.3818852,-0.3707468,-0.34862196,-0.09222566,-0.0898875,0.33354938,-0.12857713,-0.1833579,-0.65043396,0.24103087,-0.12100349,0.3631562,-0.70043886,-0.3358934,0.10086487,-0.052042045,-0.526394,-0.40853602,0.12619689,-0.8020389,-0.0550404,-0.14622562,0.7991241,0.17516172,0.41170916,0.088182814,0.12497163,-1.2569472,1.114541,-0.0843169,0.13235027,-0.37987977,-0.37312508,-0.5294496,1.3412251,-0.2146768,-1.0314806,-0.41477045,-0.67495644,-0.031678975,-0.38786018,0.48389065,0.005006087,0.006144339,-0.019628167,-0.008962551,1.113907,0.7238468,0.09988131,1.1719177,-0.9866277,-1.0817444,-0.4608963,0.18582404,-0.18323511,1.2983937,0.31242096,0.2768516,0.47728586,0.68480027,-0.43824774,0.036489107,-0.56722546,0.16519752,-0.31511253,0.32794982,0.1340468,-0.6167021,-1.5235393,0.054256327,-0.62363577,-0.2433748,-0.5497368,-0.20622812,-0.44454938,0.66734374,0.34172583,0.04684524,0.4987682,-0.17988524,-0.10324977,-0.038121145,-0.27194726,0.043824933,-0.05036331,0.21931748,-1.1491923,0.31660074,0.2608498,-0.0783731,0.42671025,-0.06003491,-0.6896783,-0.37742606,-0.27124792,0.19477572,-0.34163845,-0.047661997,0.12970419,0.5058689,0.544921,0.7290024,-0.25991026,-0.20654646,0.050125662,-0.91873205,0.20639423,-0.5032731,-0.19771583,-0.6259982,-0.2252807,-0.20626476,-0.5364339,0.8131547,0.00088355993,0.1631107,-0.13656746,-0.4612537,-0.070383936,-0.09608418,-0.045197684,-0.26901644,0.0614747,-0.47330764,-0.79147565,-0.62492895,0.35979545,0.66736186,0.08394587,0.1870828,0.33353162,-0.85769284,0.36271816,-0.37995622,-0.187961,0.010791105,0.56273776,0.31885815,-0.4043803,0.9039498,-0.13123718,0.03501849,-0.082596526,-0.45769656,-0.3406146,-0.13753858,0.036390096,0.6296494,-0.2366417,-0.110909596,-0.2900437,0.30644834,-0.5202702,0.10217035,0.3422136,-0.35748684,-0.04540557,-0.4004231,-0.12193419,-0.04018468,0.097145475,-0.19299991,-0.42799214,-0.8725543,-0.46563897,-0.260961,-0.221335,0.4411289,-0.26752353,-1.207638,-0.01457035,0.091482215,0.10596667,-0.021275992,0.7420904,-1.185921,-0.36926866,0.5883883,-0.32894373,-1.0159159,-0.7763351,-0.7014935,-0.1794798,-0.21058416,0.62247646,0.92526877,-1.727135,-0.040061694,-0.45931885,-1.1247095,0.003789316,-0.2386955,0.8124814,-0.27869564,-0.16280657,0.3516737,-0.42974496,0.07230285,-0.6283759,0.54141057,-0.48166835,-0.55206156,0.013371749,0.28026658,-0.7085899,-0.19041698,-0.099542215,0.30928224,-0.050277755,0.7377814,-0.43339276,-0.21515143,-0.1350359,0.5281652,0.4700414,0.23118746,0.4465602,0.75929207,-1.1098676,0.0715671,-0.7423607,-0.048624516,-0.50835425,0.020793682,-0.615074,0.40281802,-0.29061902,0.17905813,0.4076053,0.065747395,-0.9647261,0.16015375,0.2955668,-0.45237908,0.27775827,-0.042307425,-0.73115975,0.12757006,-0.0006634704,0.063326195,0.1766176,0.47685993,0.14165641,-0.2175991,-0.1874314,0.624923,0.16570666,-0.6049864,0.25117642,0.711529,-0.016979586,-0.24059424,0.250602,-0.60819423,-0.33871895,-0.20061445,0.12633413,-0.30191606,0.22040507,-0.28806174,-0.077808514,-0.10518725,-0.689335,-0.23572841,-0.26617575,-0.48603913,0.3974372,0.22602072,0.008853609,-0.22343859,0.34435248,0.11572079,-0.23445296,-0.1022249,0.039720926,0.34230903,0.50912565,0.104446724,0.22149944,0.36967528,0.6298115,-0.06378662,-0.11534076,-1.364928,-0.61410415,0.34069234,-0.5402796,-0.053956494,-0.11774756,-0.065518185,0.31867665,-0.55009747,0.4509189,-0.015468031,0.24411756,0.0658572,0.29174212,0.23122472,-0.19355074,-0.09803243,-0.11953057,0.51176965,0.2832922,-0.01361075,-0.13696045,0.32178393,0.19854252,-0.105342776,-0.11570175,0.6558882,-0.0023267926,0.22970998,-0.3094047,0.5552016,0.37620783,0.6613209,-0.4526202,0.14055079,-0.49567443,-0.27133757,-0.12090654,-0.30038422,0.0824514,0.11288378,0.05059315,-0.1932423,-0.20575571,0.1637044,0.20658678,0.054625906,-2.3929563,0.5255686,0.5119301,0.29137272,0.00068102696,0.19208384,-0.0835437,0.3850605,0.030104272,-0.21494387,-0.58476985,0.02226,0.46425983,0.18774068,0.16149646,-0.014158004,0.39310622,0.5386027,-0.08817336,-0.008009551,-0.2770663,0.71102,0.020717207,0.12321441,-0.0036504066,-0.22764263,-0.2839305,-0.07885836,-0.05577895,0.13503456,0.33114493,-1.339139,0.18968034,-0.48803976,0.046739414,-0.29308626,-0.32804105,-0.09783773,0.18569005,0.46038663,-0.36875814,-0.0072240513,-0.13258314,-0.33504856,0.2198418,-0.1900672,0.21755956,-0.13412994,0.21797353,-0.30756205,0.25848114,0.16713423,-0.21791482,0.5465374,0.2533732,0.5356704,0.6842115,0.19343433,0.066790655,0.38038778,0.17754541,-0.12689868,-0.17535713,-0.57427514,-0.1576909,0.44715792,-0.29437745,-0.3005957,0.039256077,0.0162372,-0.57297677,0.0048874132,-0.3808435,-0.028968655,0.095377535,0.14576581,-0.21040313,0.42234904,0.07175756,-0.029264107,-0.08209434,0.10051338,-0.13245681,0.036494516,-0.16475481,-0.0772427,0.85393286,-0.5108923,0.29485947,-0.30027986,0.40481603,0.06608534,-0.6085315,0.10467264,0.42110193,-0.5838643,-0.013744295,0.046914607,-0.06816287,-0.13404769,0.38789937,0.04270526,-0.43348455,0.23663187,-0.25906077,0.10770465,0.8698266,0.19621062,-0.29714322,0.32340652,-0.5901371,0.22317424,0.79026127,0.018577944,0.041711513,-0.34040308,0.17308415,-0.36356294,0.3254429,-0.50900275,0.6193406,1.1273766,-0.0054341154,-0.35148335,-0.108218096,0.6009752,-1.8710525,0.18328778,0.35083348,0.24050212,-0.065946884,0.14773533,-0.3209039,-0.26856646,-0.34435242,-0.2575456,-2.2466464,0.0025471472,-0.34417325,0.34944606,-0.31739902,-0.4753208,0.22567636,-0.53464556,-0.032179452,0.82893324,-0.7992486,-0.071055904,0.8329134,-0.26516926,-0.5127498,0.09128643,-0.16107063,-0.15750329,0.11656419,0.06340282,-0.7042233,-0.09170092,0.26096404,-0.3143837,0.07833942,-0.68156374,-0.054759838,-0.54777986,0.20519115,-0.45859462,0.37946886,-0.11123587,-0.29182264,-0.06698586,0.09242491,0.26704603,-0.91934246,-1.0804894,-0.46718383,-0.047686946,0.59836197,-0.24466348,-0.2865762,-0.37382683,-0.4899388,-0.70000696,0.010819117,-0.6480747,0.15837649,-0.33458215,-0.42430365,-0.09287903,0.36510462,-0.5074575,-0.50676095,-0.015574859,-0.37398022,-0.018939402,-0.75467086,-0.033145875,-0.48145,-0.22032425,-0.46279174,-0.58248174,-0.43553415,-0.8441975,0.3007468,0.09958773,0.55038714,-0.046016093,0.31498507,-0.3039462,0.07980041,0.00079019024,-0.26140058,-1.0624723,0.82239807,0.3164934,-0.35795057,-0.46681547,0.36843172,-0.5845568,-0.6305504,0.07504973,-1.081629,-0.40095875,-0.65660465,-0.15940808,-0.048518695,-0.06871975,0.16072428,0.116728336,1.0255466,0.5441264,-0.6375927,0.34234858,-0.81704175,-0.75551677,-1.2351168,-0.72237664,-0.6099398,0.4576137,0.30396706,0.25247645,0.23221904,0.70970404,0.23185113,0.3387134,-0.9486896,-0.0376281,0.11465824,0.62147015,-0.011463115,-0.3474256,-1.1869721,0.022911504,-1.2050707,-0.6309197,-0.022868771,-0.18910414,0.54354894,-0.16909891,-0.061458465,0.10665351,-0.14883897,-0.4604649,-0.0394442,0.3043231,-0.63478464,-0.740976,-0.5598619,0.007246056,-1.7631989,0.30922303,-0.28426754,-0.22435878,-0.15452391,0.23577818,-0.008161418,-0.37510273,-1.367557,-0.2477432,-0.07961804,-0.42980486,0.28089347,-0.4297387,0.50859666,-0.053582907,-0.20848134,-0.16051134,-0.33092725,0.47000736,0.00147437,0.1100405,0.2906457,-0.76030266,-0.53801763,-0.009506062,0.3010936,0.1916627,-0.28317744,0.09302181,-0.23620534,-0.034403488,0.23023084,-0.7152864,0.18929908,-0.3799839,-0.30348635,0.7979305,-0.49912286,-0.28434178,0.47814405,0.23978513,-0.18654457,0.7246903,-0.49778682,-0.9609313,-0.13950568,-1.4213954,0.430974,-0.067415565,0.53960454,-1.1159455,-0.65149367,-0.48500967,-0.16705832,-0.35591078,-0.11091256,-0.82033414,0.76456165,-0.028445654,-0.45682424,0.2463674,-0.7044846,-0.2926433,-0.835227,-0.43497223,-0.048671294,-0.29752892,0.20725548,-0.28518543,-0.022821259,-0.18802652,-0.22835298,-0.17265937,-0.47831804,0.46112162,-0.77827007,-0.5844215,-1.0450914,-0.26797968,0.17878214,0.07080093,-0.74771595,-1.2034187,-0.27606785,0.36287782,0.31359005,-0.3581238,-0.104349494,-1.5363543,-1.14851,0.01384839,-0.7038252,-0.8086083,-0.24072176,-0.7335975,0.11305855,0.049187433,-0.13821754,0.16828713,-2.3095112,0.00844839,-0.048995025,-1.4444387,0.14983745,0.109111786,0.64758825,0.110241316,-0.35773122,0.12107453,-0.5860505,0.1412872,-0.19210142,0.49265635,-0.02152768,-0.59044266,-0.23650953,0.100907736,0.06816934,-0.33709204,0.2639353,0.4372517,0.083407134,0.3584413,-0.3572449,0.14987966,0.43981186,-0.14845479,-0.04914982,0.2704634,0.07525717,0.19570947,0.22461818,-1.1415484,0.1809878,0.03689616,-0.04132075,0.1271863,-0.43809688,0.33350527,0.06366037,0.28615737,0.78050566,0.47373587,0.10038799,0.013522783,0.20763956,-0.27928513,0.05614235,-0.5282209,0.0060442323,0.12689716,-0.029565379,0.36511075,0.047259375,0.6108382,0.16041932,0.5057736,-0.017220853,0.36482716,0.25972372,-0.12875092,0.875058,0.04657512,-0.36484712,0.0029642154,0.16434267,0.10439658,-0.17223176,0.1958278,0.033481963,0.16174975,0.5490092,0.011649793,0.42235956,-0.1689895,0.3112045,0.09727138,-0.19230106,-0.48957366,0.24059257,-0.0032725295,0.3170278,0.06585383,0.97345555,0.55503017,0.14430138,0.5745386,0.18833637,0.23719275,0.04454086,0.31063843,0.058171235,0.66587055,0.5401038,0.07847352,0.050350502,-0.5085492,0.078169495,0.03966922,-0.36712152,-0.46841776,-0.12088845,-0.16467893,0.29862586,-0.38234922,0.39957467,0.237548,0.09000575,-0.017127296,0.08173789,0.42811614,0.48584777,0.030890655,0.66251343,0.18960384,-0.06137965,-0.3210557,-0.3080587,0.280335,-0.011188449,0.022892911,0.4156052,0.7368311,0.024829011,0.15475142,-0.16884635,0.46778518,1.0742532,0.18752761,-0.4979856,0.38486752,-0.5761526,-0.00019544965,0.20238218,-0.46336794,0.20305052,-0.03587881,-0.35996658,0.33119607,0.30326533,0.3086439,0.12250948,0.20181598,-1.7485657,0.43404627,0.6302044,0.03450291,0.07232126,0.16359317,0.25876546,-0.21028067,0.26110667,-0.06831601,0.06310821,0.0409519,0.40464175,0.25020647,0.28374353,0.10818429,0.14443451,0.47886384,0.34722596,0.18949664,0.78628623,0.817682,-0.006952987,0.19256786,0.19775963,-0.32863498,-0.118030354,-0.21044338,-0.0034561523,-0.28421795,0.37394744,-1.1030207,0.37912184,-0.12614034,-0.019089732,-0.17281741,-0.1415197,0.054285564,-0.33304894,0.07495641,0.16894913,0.24050704,0.10836844,0.3433841,-0.08289851,0.27013677,0.19073974,0.21449716,-0.24847883,0.15418547,-0.25665477,0.2845784,-0.22091374,-0.17688462,0.108198166,0.05992927,0.8311552,0.0041185888,0.031538107,0.03453692,0.17166913,-0.0072008185,-0.3113411,0.30040577,-0.10541685,0.34970894,-0.37917125,0.3774079,0.41293922,0.2097481,0.24782404,0.3550079,0.48279375,0.18966237,0.4246102,0.062148213,0.41159293,0.124890104,0.111357,-0.038779385,-0.20001644,0.2105419,0.40868098,0.5354703,-0.15812428,0.30340308,0.50333214,-0.03854246,0.3637976,0.27495798,0.108869456,0.8337542,-0.36496496,-0.18934616,-0.027189218,-0.313047,0.07514005,0.10823576,0.2902565,0.10132846,0.44727618,0.4405339,0.09601286,0.23883441,0.2553714,0.33960253,0.73406345,0.6351099,-0.2804415,0.20858234,-0.19119015,0.32559115,0.66901326,-0.17052883,0.27606246,-0.2114249,-0.15411967,-0.16948962,-0.022046607,-0.208004,0.1337013,0.60182244,0.6431155,-0.035150886,-0.9781791,-0.443994,0.26969922,-0.7334009,-0.3414451,-0.28611553,-0.96492904,-0.2215226,-0.1768758,-0.34917817,-0.12827015,-0.17169535,-0.3115493,-0.36464426,0.3655718,-0.39430034,-0.047814663,0.70789766,-1.1613363,0.23380327,0.7813399,0.9322432,-0.47552198,0.07622923,0.5110935,-0.6360204,-0.5987042,0.0073067974,0.68609154,-0.28069562,0.6532414,-0.3537273,0.4499892,0.093282565,-0.5962653,-0.503237,-0.12886885,-0.2044304,0.07488848,-0.28937733,-0.7150407,0.78647053,-0.74500936,0.1873357,0.33344057,0.2826948,-0.60921204,-0.28421625,-0.5601283,-0.02300857,0.22957942,0.008939995,-0.5749228,-0.13426086,0.1930787,-0.54018235,-0.799798,0.25886586,0.024590425,-0.25560114,0.44381738,0.0047866385,0.08583349,-0.5374829,0.3754517,0.076453224,0.014637503,0.26441503,0.35403866,-0.41040245,-0.19210924,0.25539982,0.17919716,-0.289594,-0.2494502,-1.3518846,-0.5391459,0.14841795,-1.1261289,-0.30330217,0.4668288,-0.18887228,-0.5248025,-0.13898602,-0.13989139,-0.28311515,0.07183041,-0.5634886,-0.4724872,-1.661253,-0.73047215,-0.2318433,0.72679067,-0.7821403,0.22818434,-0.4074729,0.5160303,-0.10099949,-0.4054367,-0.06262929,-0.108406015,0.1072153,-0.116036385,-0.05062861,-0.02402077,0.40051726,-0.2812876,-0.05546752,-0.006986916,-0.06818779,0.15712932,1.045915,-0.41897666,0.44202885,0.21214738,-0.15165621,0.07353631,-0.4096939,-0.8836524,0.43847513,-0.30014682,-0.2459071,-1.3226151,-0.23146635,-0.43983108,0.018658206,0.26088768,0.86269855,0.01491187,-0.24344403,0.16246545,-0.32437277,-1.396345,-0.4162249,-0.014260574,-0.2953927,-0.77689385,-0.045707762,-0.8550433,0.45011756,0.41050178,0.23295745,-0.8944495,-0.13946462,-0.50248766,-0.041422553,0.28453672,-0.27809647,-0.9956701,0.08044353,-0.024496984,-0.25581068,-1.1382765,0.45106122,-0.43368372,-0.08965939,-0.1742391,0.23913473,0.03259131,0.6575149,-0.25946307,-0.4091994,0.04126337,-1.682102,0.44161224,-0.037895277,0.01423404,-0.49054092,-0.36156204,0.42655322,-1.348463,-0.16469814,-0.30740988,-0.1821711,-0.073730364,0.5605705,-0.120616525,-0.011386143,-0.22377853,-0.11319235,-0.87855995,0.71314734,-0.80772007,0.1976147,-0.14762631,0.68518746,-0.084368676,-0.058551274,-1.4921598,-0.69665635,-0.029057648,-0.9248791,0.32233608,0.2841517,-0.037096657,0.4658658,0.14488548,1.0782726,-0.7529782,-0.7772173,-1.0003804,0.22039309,0.32189232,0.10084797,-0.7107016,-0.15263906,0.1270514,0.025264863,-0.6912043,0.70618665,0.11687591,-0.31015685,0.23648518,-0.27080643,0.073280826,-0.721546,0.09280003,0.10215637,0.21412292,0.3504479,-0.23653051,0.44103706,-0.7428178,-0.7858757,1.2751896,-0.68599653,0.0692227,-0.5295417,-0.13838774,-0.30323553,-0.13428393,0.23044366,0.1282414,-0.962138,-0.26063913,0.16124563,-0.26546907,-0.70688426,-0.041312627,-0.39368516,-0.34309685,0.54295176,-0.15578282,-0.32705325,-0.10132893,0.16310737,-0.057047583,-0.4793138,-0.944044,-0.09153049,-0.6924808,-0.2862994,1.2614443,0.052999713,-1.726954,-0.1637412,-0.66074085,0.15731218,-0.19450875,0.97461385,0.9979551,0.09211582,1.3911451,0.4961887,0.40220493,-0.6547332,0.20689747,-0.32565185,0.13894215,-0.42314866,-0.39597797,-1.3636956,-0.54839087,-0.4592216,0.6082374,-0.0110886395,0.41510096,0.89834285,0.18344834,-0.9242668,0.56938684,0.42906535,-0.031017693,-0.192171,-0.39116168,-0.43365413,0.09518746,-0.60544455,0.12589571,1.05722,0.7203717,0.36816397,0.030133698,-0.5640491,0.13710356,-1.0058889,-0.19407062,-0.22105902,0.9398177,-0.3434245,-0.71275866,0.40375292,-0.41069525,0.7890846,-1.15832,-0.007023878,0.75560504,0.116255455,0.005183787,-0.11199573,-0.19866022,0.5481975,-0.13588563,-0.28261408,0.060562026,0.17887546,-0.14412147,-0.7155775,-1.0733252,0.09630096,-0.14415506,0.538794,0.40482062,-0.09573929,-1.0616231,-0.5748218,-0.56290734,-0.4212144,-0.57706475,-0.08412523,-1.0973853,-0.036010586,-0.88388395,-0.80143917,0.26991802,-0.06481211,-0.59661925,-0.3644891,-1.5016758,-0.2840188,-0.68378294,0.2280125,0.044514574,-0.33233172,0.8619222,0.50169945,-0.49638397,-1.0023699,-0.17592706,-0.118815094,-1.0277874,-0.64646995,-0.15105687,-0.25878543,-1.4836125,-0.074068844,-0.017925669,-0.32357293,-0.3218686,-0.14424968,1.6703527,0.19486243,-0.62704957,0.21706451,0.080666564,-0.42270178,-0.6458369,-0.41889784,-0.3570886,0.2746271,-1.2451046,-0.491246,-0.047945596,0.7993183,0.47618303,-0.566622,-0.2758773,-0.47213057,-0.27519226,1.3584814,0.47161812,-0.1521312,-0.69748247,-0.91423696,-0.34219792,-0.44051492,-0.36884993,-0.84609663,0.32508355,-0.77039945,-0.90917164,0.5470308,0.36350948,-0.96017325,-0.5564744,0.036725156,-0.38618886,0.044080548,-0.5185134,0.024717294,-1.456994,0.05064066,-0.38035446,0.2829176,0.3300494,-0.4659046,0.054539084,-0.86320186,0.6554328,-0.5196961,-0.22103778,-0.39530835,0.39330104,0.08883889,-1.5179459,-0.70471823,0.17975545,0.5263231,0.24346684,0.29195797,-0.4628135,-0.694891,-0.19137543,-0.3038126,0.80062556,0.41466114,0.30625898,0.15471491,-0.10581543,-0.24949136,0.32786754,-0.7521414,1.0564132,0.79228556,-0.14629832,0.38829118,-0.7298672,-0.63342136,-0.8217138,-0.28681988,1.7004678,0.22121483,0.29053473,0.108221024,-0.59702295,-0.57140696,0.020955957,-0.67971075,-0.05142162,-0.91808873,0.23551778,-0.22164294,-0.99489987,-1.6527039,0.6943538,0.03481691,-0.3719704,-0.917887,0.9793531,-0.5223205,-0.2983839,-0.33836985,-1.7246826,-0.3926059,-0.071364805,-0.40156484,-0.2314111,-0.45942456,-1.029393,-0.81941056,0.6644029,-0.4469774,-0.37804908,-0.30009845,0.043733858,0.16413769,-1.2383208,0.2656505,-0.93886656,-1.1842618,0.18095994,-0.08464566,-0.82574844,-0.21109325,0.14691213,0.07985699,-0.13448775,0.053762216,-0.36595094,-0.39591724,-0.031773105,-0.19705963,-0.20956323,-0.44200075,-0.59827745,-0.48784965,0.37700158,-0.9584727,-0.12454604,-0.064334065,-0.4608584,-0.22057208,0.23989293,-1.4397231,0.8002831,0.0051602297,0.028317668,0.20902365,-0.4123922,0.8527421,-0.13685189,-0.12248173,0.21771982,0.35611638,0.4172741,-0.5417693,0.12612033,0.109061465,-0.2657172,0.13675529,0.2752253,0.37447697,-0.3303324,0.20470414,-0.085271105,0.11715201,-0.13485247,-0.37622458,0.24731383,0.10747819,0.36193112,0.44954503,0.5110098,0.3212767,0.14142674,0.16438998,0.10149815,-0.28482324,-0.6713008,-0.011600962,-0.18783575,0.47161663,-0.13636157,-0.2738932,0.39535373,0.65950084,0.13160947,0.18822894,0.09607721,0.28057277,-0.30810452,-0.32409105,-0.39884132,-0.09824046,0.13953133,0.673106,-0.055441394,0.03240177,0.015271926,0.64913416,0.23503491,-0.24299514,0.5301205,0.6126212,-0.6461098,-0.29100674,0.20425409,-0.3161977,0.11551139,0.5246429,0.26914176,-0.47508055,-0.21574643,-0.031542845,-0.15771899,0.012529278,0.28628725,0.83715093,-0.12631527,-0.95117843,-0.9278068,-0.13906717,-0.0067223464,-0.314202,1.1838541,-0.04158239,-0.32304162,0.3236813,0.22742957,0.68152016,0.3559052,0.23333558,0.6018386,-0.090490595,1.1799638,0.2223618,-0.113820404,-0.54893446,-0.41438943,0.1841465,-0.2221429,-0.5622177,-0.3675366,0.13212389,0.526093,-0.7091613,0.18901318,-0.09848738,0.92943585,-0.36192602,0.051037855,0.38892895,-0.082520336,0.27203983,1.0616398,0.13528048,0.549504,0.40415215,-0.43030488,0.10774528,0.4607583,-0.047491983,0.038142577,1.0031993,-0.06304571,0.47654405,-0.028520934,0.58385974,0.34866118,0.72805357,-0.5670068,0.2075359,-0.13321245,-0.11423577,-0.3693812,0.0868434,-0.3772586,0.29702896,-0.5738493,0.2782116,-0.031067714,-0.0941219,0.012696448,0.12689264,-1.9191943,0.1734469,0.36496174,0.37188822,-0.21800232,0.28608721,-0.21309438,0.39601296,0.7646657,0.06652572,-0.6691025,-0.2067799,0.43980518,0.37060282,0.4105829,-0.27187327,0.18930614,0.9553827,0.18890938,-0.121710844,0.28660363,0.6696549,0.109551534,0.17976867,0.21023697,-0.13653293,-0.30044323,0.020199668,0.14606625,0.44990766,0.51480174,-1.3604376,0.006753618,-0.17691645,-0.19390619,0.4422869,-0.512192,0.7443894,-0.11070551,0.7613305,-0.27550298,-0.12215288,-0.3341654,-0.3837362,0.24481153,-0.5266298,0.053698067,-0.4545636,-0.7587359,-0.22985028,0.507684,0.04456516,-0.19479191,0.502208,0.256841,0.64756453,-0.4655217,0.00665556,0.36593032,-0.2364386,-0.2222288,0.19102067,0.31613928,0.5929985,0.3930546,0.55929923,-0.18125108,-0.0969941,-0.3021531,0.26793694,0.49961627,0.2540806,0.06802507,-0.31503236,-0.2540964,-0.06336363,0.16331935,0.40123987,-0.04347662,-0.29773808,-0.14519559,0.17889592,0.29911157,-0.2399675,-0.71745884,-0.26732647,1.2600822,-0.15295292,-0.02528483,0.20121981,0.39273116,-0.0056712343,-0.40197897,0.19554599,0.4779318,0.0004200661,0.3868748,-0.9471102,0.09400601,0.09232852,0.3454501,0.5343667,0.03722502,0.1528601,-0.02301697,0.16935113,0.37674844,0.22092265,-0.32756436,0.29681146,-0.016621718,0.48223147,1.292809,0.0068322765,-0.3061097,0.06552106,0.47196537,-0.10094189,0.21582222,0.12372035,0.09622282,-0.88300025,0.070682466,-0.16102287,-0.3591208,0.5048592,-0.60939384,-0.58857656,-0.22934034,-0.15494567,-0.4458752,-0.12143685,0.5123868,-0.09177716,-0.075997055,0.7349819,-0.38106978,0.020956317,0.1678274,0.8747206,0.2205633,0.27256578,-1.1034169,0.15394507,0.25013173,-0.3309164,-0.33815157,0.4523471,0.14521886,-0.20188975,-0.6253626,0.47228518,0.42686903,-0.18889508,0.7718636,-0.2758499,0.35274017,-0.09307027,-0.20970999,-0.09248312,-0.48676437,-0.7323372,0.45029235,0.2372849,0.09571957,0.28055143,-0.5335229,-0.010000877,0.11670682,0.14103152,-0.25318694,-0.53161144,-0.013906889,-0.4698071,-0.3779974,-0.5313714,0.24766219,0.24972942,0.24888119,-0.9084466,-0.28283107,-0.037144404,0.08042087,-0.21172586,0.49758112,-0.3040431,-0.47545567,0.17412575,0.3448004,-0.04769271,0.17733337,0.38674992,0.8130423,0.20129845,-0.031450108,0.8282932,-0.45613414,-0.06504157,0.78306437,-0.9665907,-0.10906977,-0.30910772,-0.99515986,0.24529985,0.39577204,-0.24594334,-1.0097151,-0.5705515,-0.19791296,-0.61583185,-0.57316613,-0.10406134,-0.45588964,-0.24210203,-0.5522167,0.1649245,0.21017075,-0.84665686,-0.11763343,-0.12041019,0.14880583,-0.016149513,-0.085141,0.21106105,0.022190716,0.18760148,0.12956233,-0.22224638,-0.53328174,0.28906918,0.14184943,0.3941331,-0.39508525,-0.11746299,0.6354897,0.20474696,-0.36187786,-0.039140478,0.076767564,0.087034255,0.061240423,-0.34794438,-0.27111292,0.54411346,-0.66374457,0.49860144,-0.71350396,-0.35216996,-0.14987582,0.39316767,-0.34062475,0.52380556,-0.46384406,-0.4143139,0.17657454,-0.116356745,-0.5411243,0.093615115,0.03396664,-0.43760306,-0.2256037,-0.303492,-0.75477797,0.07862522,0.23993395,-0.11389269,-0.85952383,0.47403574,0.23134805,0.26234236,0.52310276,-0.02079133,-0.09523661,0.52542657,-0.10812588,0.30244923,-0.24370077,0.22270869,-0.24015799,0.3553502,-0.27465004,0.35210383,-0.29200202,0.7033551,-0.011287222,0.17673048,-0.095840394,0.53340423,0.26839846,0.15695092,0.13873453,-1.2429132,-1.0292095,0.1926342,-0.009076081,-0.5200885,-0.20506254,-0.5787084,-0.17992853,0.26015872,-0.465798,-0.2515043,-0.048162915,0.10886614,0.6693026,0.51380825,-0.47903043,-0.53090453,-0.2817297,0.25246692,-0.05139421,-0.10983688,-0.44826365,-0.48177987,0.09560657,-0.7878869,0.22829978,-0.13198107,-0.13154101,-1.0374312,-0.1492216,0.33262932,-0.66212213,0.1840362,-0.5297633,-0.2661419,0.26519817,0.01131968,0.024747742,0.19721222,0.3083442,-0.27512157,-0.31400874,0.3501977,0.21194892,0.7789098,-0.2734578,0.060194816,0.037627697,-1.3431005,-0.22179721,0.16163409,-0.9794915,0.12613037,-0.11608621,0.93704695,0.02591927,0.226098,1.0752125,-0.12878011,0.084403485,-0.35561365,0.31519073,-0.2395989,0.0659127,0.009927581,0.11691901,-0.57883286,-0.66325307,0.43043804,-0.17831641,0.1833393,-0.04557785,0.06708099,-0.62796074,0.7449529,-0.1491153,0.19883785,-0.66599745,0.036300123,-0.6322268,-0.2915607,-0.29144868,-0.117034316,0.098205864,0.4636954,-0.35452598,-0.13767138,0.13948381,0.018461533,0.19659041,0.3429836,0.5257481,0.46966878,-0.4396661,0.27596515,-0.18116775,-0.6878296,0.041820817,0.26860586,0.32891303,0.3404926,0.6934377,0.318688,0.25199482,0.098043874,0.088231385,0.37964574,0.1895684,0.23350932,-0.41759247,-1.0496147,0.04601313,0.25452933,-0.17373174,-0.2305191,0.33415607,-0.1777973,0.013930783,0.20842803,0.011034088,-0.052405193,-0.4778617,-0.08216449,0.073044315,-0.20837414,-0.5765735,0.36211857,-0.013016777,-0.3560342,-0.22685328,0.27474767,-0.18442173,0.34059483,0.37043417,0.26003253,0.15445513,0.0609113,0.285124,-0.020029925,0.4719461,-0.039623454,-0.06311058,-0.005268534,0.2738722,0.3341974,-0.07144052,0.18117161,0.13568652,0.35775703,0.17358534,0.05083121,0.49549162,0.0066388827,-0.18033564,0.23961085,-0.26825178,-0.2613786,-0.032818697,0.004480544,0.11594042,-0.113719136,0.37948084,-0.062057097,0.26593697,0.16745818,0.5358671,0.2003683,-0.048101004,0.1887162,-0.05721189,0.09976275,0.6256328,0.25913605,0.26117224,-0.18346924,0.3419072,0.066691294,-0.51501304,-0.103648975,0.24984454,0.42258608,0.14621639,0.3928641,0.23352206,0.33463103,0.27865636,0.27291524,0.26050675,0.20095524,-0.021366203,0.1634518,-0.16422722,-0.069566056,-0.6063131,-0.15614584,-0.25362706,0.3180068,0.31238106,0.5196847,0.9370624,0.6625926,0.3259688,0.317396,0.046721347,0.16241807,-0.042357706,-0.034915417,0.604036,-0.026070688,0.13892433,-0.10265803,-0.035256676,-0.6710696,0.23858555,0.27915508,0.1643183,-0.013800912,0.3328119,0.47412506,-0.17318574,0.5493703,-0.35546944,0.14231275,0.14981043,-0.102476254,-0.1287878,0.046999,0.0785899,-0.10478416,0.4091708,-0.35652107,0.14007637,-0.14606509,0.38031262,0.16426875,-0.12560458,0.3330083,0.22778763,0.29120132,0.04701699,0.3336529,0.40633148,0.36495447,-0.13196206,0.14371113,0.09370723,0.10439761,0.2321977,-0.050694942,0.06850164,-0.17614084,0.33375812,-0.25707173,-0.00939068,0.09829785,-0.10631926,-0.22331995,0.52790403,0.053639,-0.11565606,-0.15138628,0.08523284,0.14861426,0.27694088,-0.05828231,-0.15518972,0.62879205,0.043248653,0.52250844,-0.07161697,-0.09984441,0.24491373,-0.0032452345,-0.4970236,-0.2534721,0.26494133,0.11767942,-0.016934542,0.7900332,0.21620995,0.7293712,0.24691537,0.25013673,-0.20479098,0.09567973,-0.028650299,0.5428461,-0.10815691,-0.041908447,0.42448288,0.013672476,-0.13650668,0.054383725,0.88630295,0.019456562,-0.24202883,-0.18698609,0.21817374,0.4670146,-0.06560786,-0.056110635,0.16462684,0.19282234,0.6131719,0.051876053,0.07512041,-0.02303325,0.4357028,-0.21219653,0.041220978,0.12275285,0.22619826,-0.053553164,-0.123638555,0.2253811,0.40293735,0.43254334,0.18940425,-0.082099214,0.13024466,0.0075947787,0.53708845,0.67833716,-0.07409954,0.1105708,0.5961434,0.48290765,0.37963796,0.31489354,0.16990724,-0.14226721,-0.51003504,0.0354767,0.6607357,0.05543574,-0.12589638,0.17631975,-0.15390101,-0.16734263,-0.16074702,-0.23145908,0.80153584,0.9148855,-0.31428355,-0.16493708,0.14365405,0.23970407,0.040887337,-0.83360434,0.7663225,-0.77153426,-0.8017646,0.32127464,-0.1086078,0.29468215,-0.71299213,0.32488868,-0.10682148,-0.43258137,0.17948574,-0.29836786,0.2650724,0.40764117,0.834262,0.20176,0.54731774,0.8570789,0.10131174,-0.012614825,-0.83236694,-0.152891,-0.97252256,0.023328338,0.27201134,-0.11973997,0.22061792,-0.21468753,0.28418505,-0.019493643,0.5483277,0.28959775,0.32281393,0.3965538,-0.1734969,-0.30506083,-0.5610403,-0.56519544,1.0897098,0.14040454,0.15826276,-0.48658362,-0.74689424,0.30088577,0.20548148,-0.3004561,0.17881985,0.45044982,-0.11765689,-0.18148074,-0.021144383,-0.8874418,0.019491812,-0.08842762,-0.1350534,-0.46231094,-0.49433392,-0.21087596,0.08559952,-0.66213846,0.17485887,-0.5098396,-0.6070503,-0.8506045,-0.2807573,-0.28279716,-0.03153804,-0.2508623,-0.6022253,-0.18450531,-0.10390802,-0.35331717,0.15552247,0.037482806,0.84758115,0.47711873,0.33436686,-0.06308317,0.23308733,0.2038109,-0.27556932,-0.5551851,-0.99077296,-0.05571776,0.57190007,-0.05542943,0.4199476,0.17260706,0.15284005,-0.7711041,-0.0064557195,0.058139026,-0.10650979,0.5521419,-0.14093366,0.21920697,0.16691212,-0.17780754,0.09057629,0.5882809,0.71245515,0.24015208,-1.0841651,0.0067821224,-0.04044225,0.32030112,-0.03362534,0.5958001,-0.05507663,-0.16155298,0.12112127,0.42525297,0.3791844,0.56273776,-0.68228495,0.5044571,-0.10969171,-0.4102295,0.7392564,0.7831207,-0.7146875,0.13386117,0.22166917,-0.8443327,-0.36670166,-0.091760285,-0.21723938,0.14808169,0.0557254,0.40479335,0.0771776,0.028803483,-0.24711977,0.2509526,0.107489236,0.38829172,0.002480162,-0.06787887,0.11180185,-0.8941002,-0.5061881,-0.3014559,0.079034805,-0.30350932,-0.009728701,-0.12172738,-0.53943956,0.18179832,-0.5919287,0.18417719,-0.18045747,0.052205574,0.44249645,-0.021018948,-0.4652152,0.08055329,0.3049634,0.12375414,0.16722564,-0.25499445,-0.052008368,0.05948268,-0.31507576,-0.0628494,-0.9712615,-0.08697404,0.21218361,0.041221462,0.16321461,0.34251422,-0.8155662,0.21005687,1.0560904,-0.6968497,-0.79981744,-0.57004476,-0.6985968,-0.63539374,0.40708023,0.34279424,1.0362248,0.3884766,-0.22815143,0.64862883,0.08949937,0.3247102,0.016314186,0.20583494,-0.4362839,-0.14291006,0.07364992,-0.1844415,-0.27394253,0.020749822,0.57499367,0.257007,0.52855647,0.545774,0.13018884,-0.15092361,0.05145166,-0.8730619,-0.23987713,-0.31874353,-0.5201776,0.4615188,-0.2504002,-0.96698207,-0.47063226,-0.0018570081,-0.4722323,0.31401438,0.5062267,-0.15203793,0.69121295,0.29183105,-0.12307785,-0.25715908,0.11414553,0.09334579,-0.8908509,0.3034491,0.10039958,-0.6280755,-0.06316717,0.10379815,-0.1837017,-0.22316745,0.329704,-0.2775737,-0.047848366,-0.072373174,-0.14662245,0.547992,-0.033620924,-0.012127438,-0.8077917,-0.09082349,-0.50746155,-0.25140062,0.6151235,0.036475703,0.5548847,0.12226239,0.49695098,-0.6505686,0.41046312,-0.6081387,-0.16561514,1.0100166,-0.09115204,-0.0585377,-0.13130133,0.6243796,0.1898278,0.72169733,-0.29376113,-0.43224472,0.6433252,-0.12126659,0.06302324,-0.052861385,-0.4196654,0.08623317,-0.40641582,-0.46403235,-0.29203767,-0.18450148,-0.16463053,-0.07038753,0.55424774,0.07842949,-0.045451693,0.33539796,-1.39972,0.3132377,0.25583485,-0.77702475,-0.25169885,0.21857035,-0.37659636,0.13835931,-0.17146643,0.046948407,-0.07076989,-0.18834752,-0.111678645,-0.32876503,0.5641012,0.4888671,-0.13300046,-0.66791594,0.16613498,-0.2359268,0.17144376,-0.19866101,-0.17423795,-0.38074154,-0.5181501,-0.13753147,0.33651698,-0.22573781,-0.50641215,-0.93263626,-0.1679059,-0.46351537,0.23128,-0.029350318,0.001860498,-0.24993983,0.2072564,-0.0836824,-0.20928994,-0.07347357,-0.31534144,0.10684476,-0.05318743,0.080324516,-0.17034516,-0.4094785,-0.7094228,0.15109107,-0.20947307,-0.21169275,-0.19914085,-0.11108518,-0.70044744,0.86177456,-0.3034009,0.3716366,0.17265445,-0.06280487,-0.0019377875,0.04374603,1.1540587,0.020462008,-0.3803004,-0.6600368,-0.6958233,-0.27578533,-0.1869383,-0.24553801,-0.0433459,0.5008594,0.30615008,0.046041384,-0.6595152,0.84257996,-0.26674455,-0.10921319,-0.53986967,0.06595889,-0.01858832,0.21031526,-0.048187442,-0.40958846,0.16865149,-0.024648955,-0.65740126,-0.3184076,-0.004578094,-0.2743351,-0.21089602,-0.3142913,0.006830764,0.49799833,-0.329752,-0.4348962,-0.29917306,-0.49238092,0.028202165,-0.31342906,0.2565742,-0.3627494,0.09880322,0.3880247,-0.13442838,0.3686703,-0.0070249466,-0.07109842,0.33988565,-0.017898623,-0.17823774,0.0011749916,-0.24695787,0.28701437,0.5211028,-0.059849307,0.04764712,-0.44391292,-0.11758745,-0.091666035,-0.019454177,-0.13797617,-0.3829612,0.20156571,-0.5361546,0.28583348,-0.3150695,-0.8423669,0.39858517,0.2090998,-0.317395,-0.34920168,-0.015717277,0.11385921,-0.36800838,-0.22540104,-0.2329834,-0.29282483,-0.23338437,-0.31200218,-0.18647261,0.08211319,0.18122256,-0.9254749,-0.15496588,0.25835735,-0.023904921,-0.11896761,0.22026572,-0.10184623,0.3343972,0.21504629,-0.07570249,0.213708,-0.36873704,-0.00842298,0.16516018,0.088397466,-0.39721173,-0.007480983,-0.18945442,-0.14749011,-0.19438468,0.015116061,-0.35200787,0.07002108,0.033245333,-0.06649146,-0.38601425,-0.3962499,0.16515148,-0.27383506,-0.15870032,-0.38177693,0.31430683,-0.496607,-0.08369216,0.14619729,-0.2952795,-0.13539308,-0.1376678,0.014468979,0.19446011,-0.09023337,-0.33493727,0.09571896,-0.7319164,-0.192582,0.09750174,-0.111765124,-0.13666396,0.026790902,-0.20324379,0.61787736,-0.47969893,0.10255152,-0.09632173,-0.20348108,-0.37601662,-0.121635646,-0.17675602,0.2385949,-0.661098,-0.8640517,-0.5111785,0.32693207,0.12663706,-0.9106183,0.10064316,-0.48090988,0.056763478,-0.08767216,-0.46266377,0.14334834,-0.59868014,-0.42090842,0.17648964,-0.30155313,0.27337807,0.028644305,-0.4633187,0.6641521,-0.6368655,-0.07282461,0.8858074,0.2461418,0.015228595,-1.1678678,0.15359464,-0.4749521,-0.01961989,0.07139622,1.3156726,0.54522586,0.5157854,-0.081948176,-1.0833731,-0.0116994465,0.18143117,-1.4252334,1.0289447,-0.57890767,-1.0471125,-0.18734854,0.23093688,-0.12290301,0.26436973,-0.14563727,0.48142445,0.20939985,-0.40780312,-0.48377955,0.57306874,0.16067755,0.482395,0.6975009,0.54789984,-1.125251,0.3823887,-0.35642183,-0.87662005,-1.0119481,-0.62845576,0.03788396,0.7612323,0.05847203,0.31433558,-0.1978285,0.45552754,-0.115368396,1.1955899,0.09656437,0.4067489,0.023656823,0.27636537,-0.4112656,-0.36902553,-1.373189,1.3902686,-0.0057040965,0.26054895,-0.123171225,-0.45745307,0.69472253,0.32156968,-0.07924733,-0.5585047,0.56562924,0.018788077,0.45268202,0.23298746,-1.0029302,0.18816906,0.48815382,0.17121911,-0.48822308,-0.7060088,0.13830134,0.54721963,-0.43065536,0.15471523,-0.5820676,-0.3362389,-0.6400142,-0.34067485,-0.26288673,0.40363306,0.28511584,-1.1627681,-0.21288994,0.16882569,-0.30321497,0.38641077,0.3781025,0.8547449,0.43675435,0.04487882,-0.30008405,-0.3564264,0.27587983,-0.13646507,-0.89746624,-0.33780617,-0.52277744,-0.42203218,0.14508855,0.15497923,0.48251343,0.6042516,-1.1381946,0.064157136,0.38003665,0.21590592,0.06277567,-0.22678646,0.10725303,-0.14569768,-0.3138184,0.34985238,0.8975829,1.5752826,-0.20663668,-0.23080118,0.29275393,0.28590786,0.32924715,0.085868925,0.32865924,0.48331225,-0.07066931,0.056532726,0.036782056,-0.18626197,1.2299016,-1.0389192,-0.14433205,-0.68114626,-0.44344395,-0.37836346,1.3552822,-0.41303623,0.32701722,0.36604634,-0.72770107,-0.29944623,-0.06647288,-0.2654854,-0.05087733,-0.70650417,0.13485715,0.03142634,-0.043955814,-1.0930307,0.2235601,-0.17747347,0.0149124805,0.36889112,0.091745876,0.46848857,-0.03065309,-0.3056641,0.12539819,-0.5021849,-0.08319543,0.011187177,0.2251322,-0.56356466,0.10727373,-0.5442919,-0.09474398,-0.24130505,0.59884644,0.27258873,0.38739213,0.17404601,-0.38329875,0.10350846,-0.16613185,-0.19694808,0.34351194,0.10690001,0.31429875,-0.26348692,-0.13167533,-1.0420924,-0.15081596,0.7713982,-0.16942959,-0.21609037,-0.006951912,-0.34572446,0.47991532,1.295464,-1.3588607,-0.77815276,-0.9782808,-0.45122564,-0.54816973,0.7984834,0.48805428,0.025533069,0.269903,0.016274154,0.41242227,-0.12774251,0.2998712,0.42899355,0.049576912,-0.3459954,0.678446,-0.3399283,0.06361998,0.35157982,0.09906986,0.31218868,0.6701113,-0.24746442,1.2495922,0.3917614,-0.35385907,0.41024575,-0.31918484,0.37251186,-0.28520513,-0.24773604,0.071802795,-0.2960466,-0.14784582,-0.065243535,0.50017804,-0.09073959,0.46823576,0.45777237,-0.14887786,0.4809454,0.20879745,-0.15081725,0.35125476,0.19609812,0.088787995,-0.71394455,-0.3045564,0.15687898,0.70748204,0.71729946,0.37789172,-0.58867717,-0.29223454,0.07201886,-0.7435439,0.1193926,0.40183473,0.36374158,0.72928464,-0.104599714,0.20864888,-0.10292886,-0.0087509295,-0.25959086,-0.07650839,0.4443548,-0.3619517,0.21265659,0.39608032,-0.26223278,-0.39361167,0.008413555,-0.20193554,0.3594473,0.4692172,0.5032214,-0.03566308,0.29317462,0.8501702,0.83206356,-0.709355,0.40563953,-0.27653682,-0.36353195,0.4840262,0.20972884,0.049566474,0.1870543,0.31337175,0.9479932,0.051271684,-0.4211987,-0.23841074,-0.022599634,0.21275279,-0.10882558,0.071562655,0.36248532,0.51485264,-0.032246217,0.11388126,-0.14087787,-1.139385,-0.4916854,0.010157373,-0.21257484,0.3802448,-0.09855977,-0.31860733,0.2093128,0.23189065,0.25379103,-0.084967606,-0.06833183,0.72132534,-0.16732684,-0.3613724,0.09311934,-1.0788194,0.35700023,0.40264538,-0.12629986,0.2033296,0.17120329,0.62769127,0.4741332,-0.12904653,-1.2489657,0.6529875,-0.13835001,0.08061097,0.5925406,-0.37261397,0.5689842,0.05559086,0.73553646,-0.046347804,-1.0361966,0.11858809,-0.6736076,0.10607399,0.49741662,-0.3340627,-0.17622468,-0.75236464,-1.475477,0.11482364,0.49912775,-0.35899174,-0.62961966,-0.36865103,-0.062432572,-0.18318987,0.66494596,0.48915333,0.46948594,0.31202942,0.34210002,-0.3566749,0.034257337,0.6575128,-0.42605835,-0.3915009,-0.23960334,-0.6787417,0.3968014,-0.74648786,0.22324225,0.7709584,0.8572129,-0.47425643,-0.32295665,0.93382424,-0.10393913,0.11564565,-1.0002576,0.38531524,0.17197257,0.07217552,-0.42650098,0.190824,0.91085434,0.552174,-0.7722932,0.7424538,0.30627882,