-2.2919114,-0.4045486,-1.0056002,0.26830056,-0.55435693,1.7564104,-0.29120427,0.49049824,-1.0151324,0.9720575,1.2266326,-0.22511624,-1.4389588,0.79468954,0.9777733,0.32018876,-0.92593896,-0.6669817,-1.5620632,-1.5090668,-0.061103374,-0.92600757,0.21606757,-0.38821822,-0.72254175,-0.115522206,0.7911176,-0.20055303,0.13401416,-0.6248247,-0.64141864,0.3386384,-1.1836942,-0.8349354,0.090005994,-2.2462277,-0.12736073,-0.7861084,0.9354793,-0.29109645,-1.3580627,1.040973,-1.078406,-0.6302284,-0.39385802,-1.1267353,-0.10847699,1.4135889,1.4093126,-0.8130704,-1.5851231,0.70209646,-1.3885171,-0.91320276,-0.5623301,-0.228219,1.0208349,0.270456,-1.5673594,-1.295125,-0.007903822,-0.89243174,-1.1906734,-0.4084832,0.32624578,-0.4786662,-0.14354941,1.185457,1.0770779,-0.58518445,0.46642494,-0.7160125,0.084065504,-0.32741982,-1.7985787,0.69738567,-1.3926399,-1.120831,-1.4992955,1.1083171,0.32578707,-0.07182653,0.8640018,-1.2465408,-0.20575222,-1.3471439,-1.2838876,-0.41403392,-0.37441397,-0.47235757,-2.8969865,-0.610193,-0.057969976,-0.17170008,0.36786723,-0.67594165,-0.39809006,0.057126433,0.05450782,-1.5937971,-0.19144279,0.5683342,-1.2596027,0.12638515,-1.721041,1.0137033,0.6616231,-0.058228478,1.2665303,0.9120872,0.34092036,-0.42446026,-1.3409675,0.5620651,0.81854427,-1.0156049,-0.028868591,-1.0397427,-0.5409403,0.97326416,0.31788236,-0.44978362,1.7269058,-0.38136446,-0.5569087,0.4715153,-0.1777612,1.5129375,0.08930163,0.06269871,-0.575364,0.06072925,0.2231765,1.0315185,-0.20602179,0.30333623,-0.768862,0.59195125,-1.8892403,-1.2006865,-2.231338,-4.4716396,-1.2348694,0.5145391,0.65911436,-0.9327477,0.9439291,1.073169,0.16470088,-0.6106119,-2.7788885,0.115494505,0.25560683,-1.1355399,-0.14389679,-2.1182961,-0.2470958,-0.13495111,-0.1708435,0.32741627,-0.9252795,1.3196812,0.08332394,0.21755105,-0.080092594,0.28739354,-2.0563765,0.15122905,-0.08526276,-0.06164147,0.7246527,-1.966883,0.7766938,-0.028467331,0.22488202,-1.4927104,-1.1206234,0.50548613,0.52939117,0.82373905,-0.9523171,-3.167274,-2.1634998,0.22376005,-0.105049044,1.3808227,0.5890104,1.1802394,0.83956826,0.6645427,-0.07295007,0.20090766,-1.0593536,0.3306793,-0.7030662,1.2408441,0.12315961,0.25531524,0.0030836705,-0.56044614,-0.55303264,-0.24453661,1.6792872,0.5892546,0.813174,0.75454617,0.92227995,0.58668643,-0.31177565,-0.13483208,-2.4511027,-0.66614115,0.39996126,-1.8221009,0.3700016,0.20153874,-0.101619504,-0.3869992,0.034979295,1.8457947,-0.81511104,-0.39377165,0.97665346,0.013929119,-0.1727537,0.5287308,0.012412722,0.6566402,-0.06386888,-0.54572916,1.2536952,-0.19180508,0.33802116,0.5846442,-0.006645834,1.0791698,0.6976685,-1.1315114,-0.35454452,0.7348492,1.1962628,-1.8520626,-1.0015697,0.6931468,-0.3638268,1.5136735,-0.3707224,-0.9132928,0.43773937,1.1331577,-0.2307941,-0.49361026,-0.008921103,-2.5483842,0.29500473,-1.7277108,0.42535526,0.025065377,-0.2815665,1.0942168,-1.7869506,0.42371777,-0.24609464,0.08605934,-2.2413802,-0.22076397,0.35467154,-1.898732,-0.17378178,-0.56417143,-0.73817545,0.9521156,-1.3183119,-1.2540932,0.6956923,-1.0618935,-0.96361053,-1.7783117,-0.30765313,-1.9229982,-0.35831258,1.1525658,-0.7198744,-0.66149783,-0.42324948,0.0022837913,-3.0354066,-1.027469,-1.371397,-0.5673592,-0.11514391,-5.814435,-0.7663816,-1.1615269,-0.19248271,-0.15553752,-4.2364273,1.0965972,-1.1643808,0.16084014,0.55156726,-1.4678195,-0.40606773,-0.33438447,0.07842767,-1.160607,-0.39285818,-1.4052141,-0.8979535,-0.37264502,-0.21382457,0.74895453,-0.44992825,-0.52655894,-0.044603247,-1.0043722,0.18284509,-0.48512578,-2.3524122,-0.43394244,-0.64635867,0.62946975,-0.18111943,-0.79292744,0.59138095,-0.5326977,-2.1998558,1.2971857,-1.2267743,0.43031496,-0.76607585,-0.6423286,0.169164,-1.3860334,-0.9359472,1.4670689,0.17817926,-0.20020804,1.6457474,-0.08058344,-0.40153804,-0.3721833,-0.22525868,-0.29108056,0.798985,0.115626186,1.4855299,-0.37003106,0.31091678,-0.3097199,-0.10632126,0.063410774,-0.83746845,0.40135074,-0.07159315,-0.80663514,0.040384524,-1.2116008,-1.0760152,0.13342726,-0.8420547,0.95676583,0.14391993,0.06377412,1.3766556,-1.4339781,1.8418005,0.28632322,0.41683722,0.28150713,-0.74649763,-0.16887686,0.25040573,0.72342134,-0.011651211,-0.33483636,-2.2760925,0.061653122,-0.16358225,0.062499028,1.2584126,2.7062602,-0.08056642,-0.31808192,0.47987628,-0.3131212,-0.0037516598,0.8724179,0.77908206,-0.88588095,0.47816384,-0.29357666,0.35188836,0.38788474,-3.83997,0.300645,-0.76637423,1.5540769,0.34273434,0.2473881,-0.71882963,0.51602155,-0.071964376,3.4910855,0.068478405,-1.1550725,2.1734362,-0.076375395,-0.41165808,0.9849572,-0.40056416,-4.517253,0.53615475,0.08864044,0.784482,-0.21292853,-0.58800757,0.40996668,0.072329015,-0.10257046,-0.14556642,-0.4804348,-4.0961065,0.036318913,-0.12466033,-0.19693086,-0.92721903,-1.1037173,0.24944046,-0.36387318,0.5697391,-0.6058191,-3.0934181,-0.38025576,0.008209737,0.4279933,0.14823672,-2.8454747,1.1913748,0.57144916,-0.031431302,0.24541745,0.5082733,2.4358191,0.2636255,-0.33540452,0.44979137,-0.53800124,-0.38433078,0.084474586,-0.02262581,-0.2595945,-0.5331036,0.9787587,-0.3864988,1.2871597,-1.1650567,-0.19697723,0.047552526,-0.60247815,-1.4623086,0.540169,-2.3679683,-0.27826244,0.6418552,-0.1795128,-0.3357566,0.37622795,0.28437865,-0.55411756,0.14308244,0.3429547,1.3402537,0.911669,1.8854549,-3.601894,-0.37890726,-0.045899257,0.8229375,0.236394,-0.42971092,-1.064821,0.19402765,0.47158813,0.030733025,-1.3585713,-0.19393942,0.13097247,1.2292097,-0.6294463,0.6323197,-0.061658524,-0.091084644,-1.8227322,1.4386814,-2.1416326,0.51017153,0.8588803,0.46639478,0.30040383,-0.4714446,-1.3268167,-1.2763166,0.3500784,0.58732414,0.049420856,-1.0611567,0.34699446,0.8617424,1.7784855,0.630124,-0.76931775,0.054879926,0.046762712,-0.34794194,-0.10304601,-0.37939107,-0.3587419,0.19107655,0.28115088,-0.6199893,-0.06078296,0.124213085,-0.13005608,-0.034348696,-0.23622242,-0.1706232,0.23723528,-0.31951237,-0.46336633,0.06851977,-0.11591784,-0.031731956,-0.5861826,-0.5042603,-0.1528889,0.09732866,0.24127552,-0.11357273,-0.15308067,-0.07899842,-0.3507354,0.1671484,-0.5780374,-0.7219142,-0.19135241,-0.26930147,-0.31046423,0.04931298,0.036765758,-0.1192293,0.12253514,-0.18986252,0.135727,-0.33494836,0.24683818,0.11678842,-0.75714374,-0.22243595,-0.36732236,-0.0897311,-0.1720873,-0.2526998,-0.14769171,0.056408796,-0.06654531,-0.232499,0.08306638,-0.056300752,-0.0445115,0.18261269,-0.22525017,-0.03962557,-0.419573,0.1135187,-0.64649683,-1.8868356,0.11735324,-0.3813531,1.0332994,-0.027729698,-0.3715111,0.48090094,1.7250211,-0.42205873,-0.21705872,-0.60048974,-0.711532,-0.68223035,-0.84701085,-1.6087182,1.0325925,-0.7797213,-0.7743614,0.20143662,-1.6226394,-0.8032346,1.5480245,-0.48517233,-0.41494,2.24945,1.3550904,-0.88593566,-0.6276611,-0.42735347,0.056706056,-3.2564769,-1.7702372,-0.624136,-1.9217627,0.038195536,0.9998245,-0.39841554,-0.7350435,-0.9221413,-0.028834427,-0.8691281,1.1464772,-0.9682177,0.11634992,0.97132194,-0.8400972,-0.19616131,0.5254501,-0.31757057,-0.8178786,-1.9969219,-1.6115677,-0.41414076,-1.7693924,-0.2596265,0.5485972,-0.32276273,-0.742411,0.0135453455,-1.0338594,0.85648715,-0.022367705,-1.7580724,-1.53586,-0.2930912,-0.103841424,0.016277745,0.22211078,1.4385,-0.4907849,0.22064704,-1.0050757,-0.04366006,0.34125084,-3.806405,0.1855829,0.78391385,2.122726,1.7871504,0.062438477,0.03941409,0.07663184,0.5645498,4.700877,-0.22668935,0.0062364694,2.525548,-0.13042393,-0.734184,0.4284047,0.6841693,-4.4775095,0.34956086,0.41427952,0.13039637,0.01837869,-0.97423834,0.14797184,-0.059479658,-0.70562756,-0.1632823,0.49763393,-4.7872686,0.016388554,-0.742468,-0.13383555,-1.6682237,-0.96746874,-0.06310047,0.59684,0.47275954,1.6721814,-5.2094355,0.2124058,0.7117857,0.04011842,1.0920162,-3.3093376,2.4578166,0.21799472,-0.044079877,-0.5744004,-0.45426822,3.2655556,0.27581722,0.18581209,0.008093014,0.523694,-1.5462787,-0.075643495,0.39899972,0.5031663,0.38627157,-1.0068594,0.44446677,0.012184292,0.86805195,0.49486625,1.5176136,0.5456226,1.641233,1.7040116,0.97899795,0.26394784,-1.40522,-0.5456439,-2.391012,-2.09732,-0.048860256,0.504933,0.58235997,0.20129111,-0.08822705,-0.82937336,0.03366503,1.2983828,0.20808455,-0.78013766,0.53352654,0.15987226,1.6518464,-0.7364578,0.017269243,1.260159,0.046207834,0.1533805,1.2961793,-0.472331,0.31514764,0.5977745,-1.2452481,-0.5664408,0.040450566,0.40594006,-1.208054,0.643654,0.9711261,-1.032053,-2.459138,-0.45510656,0.16195446,1.6165873,1.0507784,-0.06718886,0.3276347,-0.8739222,-0.11011894,-1.8381907,-0.59386754,-2.2773411,0.32197756,-0.43437147,0.2575129,-0.05338283,0.0891819,1.1600363,0.9872787,0.07153307,0.86961365,-0.39728856,0.48161966,0.09389678,1.2948861,1.193838,1.9008934,1.3740888,0.9965435,0.17733413,0.8267601,0.42313963,-1.4378738,0.4024996,0.43352643,0.76060003,1.5002337,0.43864405,-0.2500292,0.69036686,-0.1279391,0.7993152,0.28651446,-0.19802925,0.933609,0.27884007,0.9694531,0.88289654,0.14381741,0.71834785,-0.0060036387,0.47264606,1.1625302,0.10705488,0.55919945,0.276698,0.86921036,0.4896793,0.49604887,-0.5165826,0.37316036,0.94006634,1.0313209,0.15276638,0.37643886,0.61225,0.22346754,1.9364274,1.1985707,-0.58339417,1.0242817,1.5235944,0.03596864,0.4022935,-0.6740317,0.103305824,0.3714853,-1.2050898,-1.081596,-0.25496078,-0.23527068,0.03198721,-0.03853025,0.98006743,1.4451835,1.4572656,-0.3961041,1.0329759,-1.2732415,-0.1654047,0.06340705,-1.4387915,-1.247066,0.55743384,0.20351839,-0.13451646,-0.43685228,-0.28522086,0.030814905,0.80588496,-1.6141872,0.07477109,2.2509718,1.5265296,-2.0487938,-1.1511241,-0.1722565,-0.018976852,0.8550428,0.24071361,0.8159636,-0.7778673,-0.076290146,0.88782823,0.049161498,1.0944858,-1.0078807,0.040046275,0.8999831,0.86460733,-0.85804915,-0.0051364847,0.4513543,-0.35933143,-0.013497489,-0.28691822,-1.1963401,0.18128945,0.16328773,0.44006154,-0.15424019,-1.4398992,-1.6422441,1.2409809,1.6935406,1.4986913,-0.3943064,-0.1813105,0.9082197,-0.18119948,0.56414425,-0.86695105,1.1262584,-0.3527506,-1.6090802,0.50735974,-1.2904391,0.34846735,-1.0617415,0.8589617,-0.7619491,0.028899971,-0.86576045,-2.2337112,-1.7447306,-1.9278162,-2.160164,-0.34899414,-1.3869213,-0.437246,0.76024294,0.094399415,0.01669286,0.13902554,-3.5206823,0.010048185,1.087487,-1.5023113,0.23262677,-2.0071716,-1.5195956,-0.429671,-0.20147899,0.4113298,-1.2554948,-1.0665438,-0.033658233,0.2522992,-0.074540004,0.8365222,-0.89426744,0.014710063,0.07498662,-1.0286818,-1.3533149,-0.4476015,-0.15504375,1.013181,-0.2371938,-2.2588148,-0.87784064,-1.0612435,-0.57073796,-0.096882716,0.7124668,-1.2153745,-2.281105,1.5966223,-0.7920355,0.20642158,1.1409831,0.09533788,0.7106488,-0.56819606,0.118797496,1.4783621,-0.28322393,0.38246208,-0.9409249,-1.1013137,0.009361813,-2.0320997,-1.2553678,-1.1913259,-1.4425008,-3.6859283,-2.2628624,-0.28000653,-0.22878537,-0.49285495,-2.213066,0.40045452,1.1800814,-1.6134963,0.54036593,0.06330748,-0.27323914,0.5761956,0.32151538,0.3569777,0.056143843,-0.302809,2.056148,0.4934396,0.043780595,0.20803633,-1.4986116,0.49797282,-1.201158,-0.35231048,-0.061418302,0.22771889,-0.036371253,-2.0739448,-1.9388201,0.09180783,0.27978408,-0.11242688,0.82510316,-3.5356863,0.43803275,0.2529385,0.59035134,-2.153803,-0.7533488,-0.020279344,0.45572424,0.07956177,0.023367083,0.58175766,0.1557943,-1.8350132,-2.0946538,-0.14524052,0.005250411,0.6719545,-0.15638036,1.0283813,0.15490884,-0.030265179,-0.271235,0.107605666,-1.0025685,-0.7487061,0.42055017,-0.0962235,0.17364925,-1.3888302,-0.13086809,0.063362636,-2.1038594,-1.5510952,-0.21236162,-0.031995706,-0.18292752,-0.3707788,0.08877094,-0.16399235,0.8042834,1.2117231,-0.21287599,0.9788933,0.51202655,-0.17928675,-0.20733179,-1.2900004,-0.01654775,-2.3106537,-0.24886075,-0.05370283,-0.6401824,0.5767641,-0.7013843,0.4863807,0.04173094,-0.32890743,-0.11826553,0.610705,-2.8407295,-0.22556764,-0.29339513,0.01080368,-0.58443975,-1.3338671,-0.2839918,1.7019459,0.86342883,-0.44507748,-1.9598956,0.4779703,0.86626244,0.6117705,0.32179108,-2.1363401,0.6156059,0.19290382,-0.0008195264,-0.32712686,0.3011375,1.0519301,-0.23276114,0.7625879,-0.0084257675,1.143255,2.0169187,0.031560592,0.21325684,0.9822257,-0.9269911,1.5617174,1.8056014,1.7390488,0.13408858,1.2882456,0.30554754,-1.0071437,1.1415479,0.19938073,-0.19884484,1.7738158,-0.808669,-0.39760602,0.7119278,-1.0119491,0.18175071,0.34558523,-0.31397444,0.18059206,1.8452098,0.99351835,-1.2356713,0.46115273,-0.6263006,-0.21642175,-0.07227215,0.81158066,0.34194863,-1.1556656,-0.055238016,0.756001,0.06480177,1.3071339,0.5636231,0.067644306,0.96508646,1.4304228,-0.6061786,-1.4050847,1.3007417,0.9479716,0.16157289,0.58924365,-0.3966682,-0.5491205,0.9799392,1.0591683,0.2761311,-0.42890376,-1.1244279,1.0814726,1.8722782,1.8359251,1.1730757,-1.0814713,1.189904,-0.0951146,0.3809145,1.4727951,-1.8465886,0.2135811,-0.31244928,0.30332488,-0.1996712,-1.0350239,-0.21715817,-0.66676617,-0.988976,-0.7271131,-1.6624646,-0.50195014,-0.95425653,-0.45285803,-1.555213,0.68062294,0.20407262,-0.063279405,1.1532168,-1.6232091,-0.39655894,-1.270628,-1.3885189,-0.85129255,-0.6323725,-0.4215936,-1.4326303,-1.2670337,-0.39199662,-0.19256684,-0.52688456,-0.59952664,-0.6965256,-0.23224476,-0.3119384,-2.3426297,-0.62128496,-0.6943989,-0.23114222,0.0070505245,-2.3396611,0.7725319,0.45427096,-0.2615972,0.8065529,-0.8889924,0.743389,-1.1793231,-0.44720656,-0.5311452,0.21195991,-0.8545716,-0.19715524,-0.4373392,-0.27051964,0.7360101,-0.51214206,-0.26618716,-0.36843038,-0.5401477,0.27996585,0.46398246,-0.778493,0.049585313,-0.8366604,0.3024401,-0.73321384,-0.4969201,0.058776625,0.56711805,0.9459263,1.0895147,0.4437087,1.0448551,-1.2623733,0.27685553,-1.5393806,-1.8181498,-1.4286089,1.7126918,-0.7138972,-0.2942353,-0.13936731,-0.35558772,0.05429278,-0.079929724,-1.2591438,0.029741589,1.2986357,0.4561866,0.048418522,-0.27873212,-0.30465907,-0.06846716,-0.057476677,0.36796325,0.9159043,-0.64419776,0.11276281,0.3433692,-0.023285858,-0.13346025,-1.4176233,0.0008641497,0.07502657,1.6717381,-0.78757,-0.92450607,1.5453825,-0.23104934,-0.97671175,-0.6857699,-0.008121395,-0.79091346,-1.0801702,0.4165458,-0.12417294,-1.9078281,-0.9048982,1.1736505,0.49608046,1.2683871,-0.1859321,-0.13071619,2.2057793,-0.28697136,-0.044216108,-0.08250108,1.0160025,0.026427235,0.20792231,0.28705782,-0.82058257,1.2635915,2.093267,1.1381202,-0.9673122,1.355014,0.35602224,-0.6715897,0.2532535,0.07576056,-0.32485485,2.0338266,-0.9321213,-1.3299011,1.0371866,-1.080492,0.076713234,-0.2582618,-0.78883445,-0.09921404,0.75335455,0.8329079,-0.3692209,0.76642907,-0.36317283,0.22030991,-0.2819712,0.6939734,-0.8447165,-1.2457284,0.013945729,-0.39763594,-0.08392576,0.40297914,0.80748206,0.031188726,-0.37408537,1.9586418,-1.671802,-0.44533548,1.7808361,0.30305472,-0.50311005,-0.5577382,-0.055699676,0.16785492,-0.25924736,1.0791309,-0.77979296,1.0563443,-0.33749163,1.9284947,1.7026796,1.471421,0.14788103,-0.99170184,1.9397025,-0.5333314,-0.1564076,0.25324166,0.15138158,0.103418425,-0.9033469,-0.5468813,-0.89969146,-1.3301482,-0.12574592,-0.23568775,-0.96621907,0.1030592,0.82006,0.47653216,-1.1882019,0.74397385,-0.95928174,-1.4719214,-0.8492979,-0.6070713,0.12901624,-0.52246153,-0.13455266,-0.2302083,-1.5079925,-0.07029994,-0.2596064,-0.41483644,1.059902,-1.0744562,-0.20491293,-0.4136096,-0.88874936,0.67365855,-2.1614375,-2.0181975,-0.109838806,-0.2352163,0.09435122,0.14072749,-0.267996,-0.210549,0.15056467,-2.305577,-0.4661899,-0.9049284,-1.7481806,-0.062776625,-1.8650503,-1.7387972,0.8115102,-0.109118834,-0.8938168,-0.39415509,-0.11508645,0.07659535,-1.1462269,1.7274563,0.85714734,-1.4549947,-0.7041683,-0.32129627,2.1428719,-1.3377674,-0.50669533,0.7096126,-0.1680431,0.10476062,-0.044562962,-0.53784025,-0.07675949,-0.02451029,-0.24573612,-0.16071212,-0.20472407,-0.03258115,-0.25100932,-0.106366694,-0.110387236,-0.24442472,0.045466483,-0.6694908,-0.16140816,-0.30175996,-0.07579775,-0.11420475,-0.38752294,0.14308542,-0.018619057,-0.22119564,-0.20765316,-0.3760205,0.028870966,-0.3551513,-0.23316538,-0.14071882,-0.5009326,0.1533475,-0.15394557,-0.31152672,-0.09815277,-0.16759996,-0.0428804,-0.041422587,-0.23069596,-0.12733056,-0.11822179,0.07768637,-0.1610159,-0.5598796,-0.4315409,-0.008506788,-0.29079938,0.06745972,-0.3613379,-0.28188187,0.020292342,-0.084830716,-0.19144255,-0.5167266,-0.13636622,-0.43840134,-0.23628053,-0.060224913,-0.1348078,-0.22593123,-0.37925225,-0.02389222,-0.32419127,-0.05188196,0.7902089,-0.028475676,-0.1294088,0.722012,0.60360277,0.46089384,0.20986879,0.49224442,0.530113,0.20617405,-1.2446517,0.5390842,-2.2272758,-2.7220893,-1.3542211,0.31656495,-0.11388062,1.1524687,0.46501368,0.9695798,0.091986045,-0.98862964,-1.2583027,0.07229165,0.21146673,0.4692669,0.05347821,-2.0319583,0.15769793,0.16607474,0.44028473,-0.7125045,0.58369523,-0.37999767,0.07986842,-0.27578717,0.10749231,-0.13521147,-1.9675174,-0.17366976,-0.0077963555,-0.3000398,-1.1592276,-2.2736344,0.5278272,-0.9502109,-0.24083301,-2.0610788,-0.90243125,-0.29321915,0.27694124,0.10543606,-0.9027424,-2.978262,-0.1754457,0.9196265,-0.04209241,-0.032138757,-0.04112732,0.8307319,0.81966007,0.3149854,0.0549305,-0.13734698,-0.97335696,-0.5967589,-2.3424165,0.7912892,0.54819727,-0.4670115,-3.2138014,-0.58182347,-0.4876374,-0.029613996,-0.2824747,-0.5200261,-1.8068233,-0.6414285,0.17654002,-1.6629709,-0.6034453,-0.42098898,0.16166891,-0.67461157,-0.013283528,-0.5953059,-0.92570484,0.1661414,-0.4400561,-2.4254038,-2.2484214,0.17266886,0.84899324,-0.4363871,1.0331628,-1.3056111,-0.28870955,0.504894,-0.178913,0.7892803,-0.19927415,-0.69525963,-0.47703183,-0.172362,0.19569792,-3.0534987,-1.1799247,1.676465,-2.1150465,0.45907933,0.1866917,-0.94684523,-0.65465343,-0.47800344,-0.7668363,-0.48075938,0.07770667,-0.53602266,-0.99541736,0.72090733,-1.6472477,-0.21652089,-0.055354595,-0.79757464,-2.2320416,0.7442485,0.44726726,0.06264018,0.08749228,0.070698485,0.5538565,0.23349863,1.0665023,-0.12575921,1.4018083,1.4899248,1.5367787,0.59757024,0.051007472,1.4985667,0.19658284,0.20278856,-0.06553967,0.8406275,-0.05280745,0.6536851,-1.2055442,-0.6106416,0.21547772,1.4258682,-0.51074225,0.59303904,2.0004895,1.4718615,0.98219645,-1.138386,1.4727262,0.9065769,-0.37592608,0.9952515,0.6051581,-0.14349625,-0.019756498,1.5342414,0.09155215,1.7848049,-0.92857325,-0.040925615,1.0854056,0.6847322,-0.6425705,-0.026094845,0.895144,1.5604553,0.4305027,0.0017224752,-0.68092847,0.3285041,-0.053718477,-0.109435074,1.2749544,-0.68050516,0.4686913,0.53308296,1.9988308,-0.23395312,1.0222123,-0.35560593,0.4425379,0.750724,0.56016916,1.5236449,1.3743709,0.66809994,0.39204594,-1.5999565,1.0484896,-0.7098337,-1.0479488,1.2516389,-1.0051936,1.1635368,1.3480287,-0.1645741,-0.65769625,-0.54340434,0.53583634,-0.98701423,0.04648829,-0.1767374,1.9742405,-0.2335212,-0.4224273,0.5847626,-0.9754032,-0.20652828,0.08730551,0.46341395,2.1355486,0.86364603,0.1312362,0.03704086,-0.6354158,2.1291418,-1.9544357,-1.2626901,0.005515436,0.04348442,0.23605025,0.3389939,1.0008813,-0.22908562,0.5020222,-1.1934005,-0.13143507,-1.4916275,-1.4785867,0.18209606,-0.11871177,-0.96107984,0.27391058,0.21628459,-0.27520454,-0.33849084,0.13536488,0.31490737,-1.1943035,1.556489,-0.99545014,-0.9025697,-0.44997436,0.14087945,1.8701696,0.48840034,0.031295985,1.6534637,-0.32916993,0.42545122,-1.0754626,1.0214832,0.99801916,-0.31868804,0.6732597,-0.31245828,0.17276414,-0.8507055,-0.087505594,2.0642807,2.2518282,0.6261971,1.9692931,0.47126243,0.6547346,-0.604654,-1.2666345,0.1553239,-0.23374748,1.1142869,1.9331747,-0.3866639,-0.45961267,1.1368926,0.88705945,1.5696318,0.7899767,-0.5450258,0.37550363,-0.18236808,0.34208274,0.7501688,0.20270729,-0.2654346,-0.032685377,0.42209828,1.7118068,-0.020402577,-0.44562885,0.871029,0.87649417,0.41958463,0.24824086,-0.5692936,0.8878773,1.3378706,0.4408595,0.584026,0.56311685,-0.43367618,-0.49768376,0.5695314,1.8674926,-1.9816182,0.5942391,-0.004251333,0.057228446,0.01706952,-0.28647262,0.77228636,-0.64191484,-1.3625879,-2.1856093,0.16010967,-0.11082041,-0.48206598,-0.08645691,-0.35955992,-0.3510908,0.5862216,-0.87898433,0.7304975,-1.8354881,0.024763625,-1.9713342,-1.3974168,0.1676575,1.0274162,-0.14982732,-0.776849,1.860192,-1.4105029,-0.26818734,-0.45411417,-0.53430283,-0.8290086,0.23519383,-0.7021797,0.465041,-0.40523916,0.9616779,-0.19473636,-0.732023,0.11873996,-0.8374601,0.39969248,-0.086501434,-1.8702097,-0.3032326,0.00027867226,-0.89881974,-0.044712022,-1.9961021,1.0302631,-0.23483875,-0.25107145,0.9129889,-1.3694375,0.71465385,0.034784347,0.013737725,0.44302505,0.08924699,-0.6288594,-0.6023326,-0.7676246,-1.6204605,-0.94444716,-0.27715114,-0.43334478,-0.78860843,-0.22750413,0.7874404,1.4011908,-0.9202129,-0.72616905,-1.6625342,0.6471751,-0.4432711,0.3908621,-0.971197,-0.6730623,-0.8500034,0.5014906,-1.0988564,-0.62578356,0.54867554,-0.8431983,0.4277171,-1.6849833,-1.0275195,0.6405617,-0.3643999,-1.1390414,1.1686664,-1.7771516,-0.56038225,-1.3835065,1.3070115,-1.1210189,0.22816361,-0.3969761,-0.72459435,0.39573556,0.5981771,-0.08410681,-1.6477755,-1.5564861,-0.3469771,-1.1108484,-0.1965656,-3.7524533,-0.8154406,-3.0620623,0.42987713,-0.16270646,-3.841988,0.9814271,-1.3901858,0.09630878,0.56277543,-0.7623638,0.052148134,-0.6827518,0.4885174,-0.09494198,-0.54550546,-1.0885513,-0.2570576,-1.3608719,-0.21615419,-0.3089487,-1.0351682,-0.4653687,-1.0835116,-1.0787184,0.18915215,0.6127486,-1.7767603,-0.8699713,-0.33338565,-0.384867,-0.016139066,0.521315,-0.39689434,-0.047725175,1.2519667,0.72208345,0.087366596,-0.06466564,-0.50082153,0.5254842,-0.9749188,-0.8722373,-1.1509073,2.538339,-0.17493367,0.44073495,0.12022066,0.48636457,-0.4061234,0.27825344,-0.3580972,-0.13985328,-0.28765506,1.6825207,-2.7552652,-0.44468135,-0.08312461,-0.16203794,-0.7702055,-0.30505377,0.12233783,0.7736164,-0.13868141,1.0020583,-0.28316116,0.05472303,-0.43529946,0.007057454,0.02076021,2.0524592,1.2086793,0.7986445,2.2634382,-1.0014131,-0.20767024,-0.21666932,-0.33905327,-0.37021452,0.7243648,-0.34228784,-0.9675952,-0.9897455,-0.8491485,0.7171658,0.18152967,-0.12434557,-0.13140129,0.6358414,-0.6822281,-0.14365554,-0.5346054,-1.1236914,-0.16863808,-0.30799454,-0.28117162,1.5146168,0.018068116,-0.91595966,1.1608276,0.08440958,-0.3477053,-0.5590341,-0.24920096,-0.028173355,-0.16950035,-1.6039648,-0.71327496,0.87159765,0.0807069,0.7122441,0.48867702,-0.24761805,-0.564814,1.2369628,-1.2375792,-0.83541405,0.00701007,1.2487245,-1.8414813,-1.0295317,-0.20036024,0.06417762,-3.0324345,-1.7232075,-0.25407314,-1.4538519,-0.005974204,-0.39559305,-0.34484595,0.10064812,-0.65397936,0.07568401,-2.63373,1.326818,-0.72226256,0.7074277,0.9732958,-0.64163226,-1.7837006,0.014791537,-0.8485466,-0.114886835,-0.8544143,-1.4849042,-0.8138534,-1.4419663,-0.4501204,0.52215177,-0.30457148,-0.3095874,0.6065509,-0.5667819,-0.71610844,-0.5934495,-2.8096104,0.098077744,-0.84620166,0.048952356,0.02684404,1.1373512,0.03145185,0.9593625,1.4214935,-0.12181212,-0.0039419187,0.6897845,-1.3013289,0.040802836,-0.85342133,-2.1203394,-1.4033618,0.38732642,0.18278804,-0.28604937,0.4114211,-0.5510591,-0.017487025,-0.09579737,-1.5240462,-0.033874504,-0.61260784,-0.42760798,-2.9533858,0.20112261,0.013437586,-0.32386887,0.8179848,-0.29989272,-0.8468567,-1.0875088,0.0036050396,-0.56846094,-0.025975851,0.3190273,0.31745124,0.03317772,-0.35079384,0.55819726,-1.4992422,0.75277007,0.2006138,0.36503553,-1.4699945,-0.20103723,-0.91494656,-0.14765114,-0.16558939,0.30932856,-0.35730523,-1.9171249,-0.06251199,1.0952299,1.2587574,0.67264736,-0.25941283,-0.10494855,0.55771136,-1.10966,-0.13479865,0.28779906,-1.7920554,0.065975234,-0.666674,-0.036077328,-0.011219967,-0.7251126,-2.0960746,-1.0025531,-1.5063816,-0.99960065,1.3030599,-1.6203454,-1.6187378,0.7975005,-1.5788511,-0.91915846,0.41391885,0.67154956,0.45651186,-0.48943824,-0.17343771,-0.071717784,-0.24222022,-0.6041013,-0.32911104,-0.8516688,1.5561597,-0.28883797,-1.0253148,0.32049477,-0.68336034,0.36098874,-2.070744,-0.5372999,-0.14469323,-1.228231,-0.01667857,-0.8219079,-0.3477847,-0.05532023,-0.06545615,-0.4781598,-0.896847,-2.0647044,-1.0458586,-0.8643214,0.7809154,-0.6269008,-0.97221434,0.25386298,-0.38853443,-0.5306665,-0.21412769,-2.051034,-1.5920749,-0.8644673,0.13091813,-0.01057688,-0.37013584,-0.7281158,-1.1003993,0.39994097,-0.49814308,0.40530732,0.018365707,-0.19905984,-0.14184543,0.56677675,-0.6941996,-1.0303855,0.21472865,1.5622215,-1.9804554,0.7453325,-0.8679917,-0.40045083,-1.990893,-2.592328,-2.0081577,1.2174172,0.22554284,0.13559718,1.1118625,-1.2323241,0.0012430737,-0.9457425,-2.0614207,0.006640297,0.876659,-1.6232753,0.12565467,-1.87519,0.17961901,-0.11387059,1.0589424,0.18076766,-0.818701,-0.6492909,0.03362187,-0.13729405,-0.06769989,0.3116921,-1.3401259,-0.04743839,0.3401783,-0.0139594115,0.2004313,-0.2650392,0.8222714,-0.28052083,1.0676525,-1.3954164,-1.5950456,0.38668382,-0.26547503,-0.14210337,0.64351857,-2.0392606,-1.8185408,1.3570917,0.66839814,0.38575783,-0.30550838,-0.7054713,0.71608573,0.5282718,0.5344604,0.39739496,0.13377064,0.16111706,0.043993622,-0.20147479,-0.3392998,0.7272335,0.15849534,0.11839737,0.42258745,0.39321464,-1.0362291,1.0559397,-0.054908045,1.8299947,1.0764906,-1.2842581,0.2312309,0.079290815,-0.3277323,0.15185452,-0.16195455,-0.18944338,1.7391002,-0.3331632,0.46662623,-0.10030949,1.400055,-1.7855287,-0.0061943186,-0.04802393,-2.2627225,-0.36627573,0.8498043,0.47002316,-0.034701727,-4.004011,-0.069237486,0.24105707,-0.8896885,-0.17209557,-0.2828436,1.466464,1.3599455,-1.743019,-2.909732,0.64319336,-0.3417186,-0.4770519,-1.1942577,-0.21522942,0.08088647,-0.27122295,-0.61159134,0.8154586,0.14836949,0.32207298,0.1894547,-0.60553527,-0.35784712,0.25269097,0.92096037,-0.3640885,-1.0612128,-0.61641777,1.18695,0.25657862,-0.046193156,0.6520156,-0.25182825,0.18616623,1.446478,-0.6521015,-0.06385052,1.4726188,-0.87066495,0.7573167,-1.2205614,-3.7189083,-0.8266045,-0.56464374,-1.794306,-0.0034274873,0.8483006,0.66767645,0.118156925,-1.980552,-3.160216,0.0603645,-0.7376616,-2.109858,-0.6472021,-0.4476391,-0.537344,-0.13618767,1.500548,-0.30207115,-0.9044274,-0.6256247,-0.10141286,-0.79074466,0.053957954,0.18645708,-0.96382785,-0.044543274,-0.038957845,-1.1886238,-1.9118848,0.30558032,-0.66655624,0.07337965,0.16611397,-0.75489306,-0.4048921,-1.3902225,1.1494472,-0.4484881,-0.41006413,-1.7612636,-0.73592514,0.801801,0.47512007,-0.73155236,0.11813043,-0.12027548,0.97771406,0.07417074,0.120229855,-0.05320648,-1.8948631,0.29955536,-1.1064785,-0.9101256,-0.023760611,-1.72902,-1.7935183,-0.86336887,0.07404949,-2.2036333,-0.25869507,0.1985192,1.0935538,-0.4033375,1.3115327,-2.2319908,-1.3147936,-0.3523271,-0.49514323,0.10210766,-0.5094483,0.5191735,1.0679854,-0.13640194,-0.55522656,-1.7146584,0.9723395,0.86441034,-0.4090268,-0.22845942,-0.91601247,0.16626349,0.0758713,0.8647555,-0.2491639,0.12444553,-0.0104092145,-0.43166965,0.6506725,-0.13748187,-0.012096107,-3.313943,-1.13521,-0.24408428,-2.7046824,-0.32027197,-1.7975836,-0.42072016,0.6311269,0.3463047,-0.27241856,-1.0326849,-1.2571366,0.033190206,0.5777854,-3.1920414,-2.9406853,-2.4562738,0.17756285,0.00024285098,-0.5373176,-0.13502946,-0.4332428,-0.6060364,1.2861407,0.22422682,-0.7393602,-0.40612155,-0.47013623,0.14921328,0.86195016,1.7277629,-0.4778338,1.0553312,-0.017894642,-0.82048523,-0.10620006,-0.26022708,-1.1849012,1.1766855,-1.2512035,-0.9237009,0.70405984,-0.6385871,-0.1945982,-0.8458688,-1.8279243,-0.39968014,0.8290353,0.23737738,0.6700587,-1.0764422,-0.0059556384,0.22180848,-0.94222033,-0.08159871,-0.46478724,-3.645208,-0.11651262,-1.6687932,-0.2668587,0.06938146,0.15704301,0.015487299,-0.59261835,0.94820786,-2.884064,-0.67653966,0.38054252,-0.28080183,-0.3927487,-1.0348814,0.6173567,0.58232856,-0.82038176,-0.328088,0.25607833,0.061019424,-0.5752907,1.0171791,1.3327085,-0.95092976,1.0476208,-0.9938733,2.4768696,0.19388713,-0.1967111,0.40676242,-0.87493694,-0.4095303,-0.5257524,-0.40086147,-0.15470317,-0.40337205,-1.6064559,-1.0486367,1.9875097,0.05277331,1.1524005,-0.14139587,0.60677516,0.6778985,1.2641852,-1.2921126,-0.65794384,0.74706304,-0.6983433,-0.75845975,0.18001238,1.4126068,0.26553512,0.11898171,-1.1097257,-2.6127799,-0.49579805,1.2338547,-0.18043748,0.13438031,0.052847233,-0.0721085,1.3368638,0.6607089,0.05415611,1.0982382,-0.0034534931,-0.020756565,0.88193226,-0.008066836,0.08131315,-1.5072303,-0.4862988,0.038663514,-1.3049133,1.3834147,-0.4347034,0.2592339,0.8318725,-0.8430114,0.3111475,-0.656571,-0.9703459,0.9077495,-0.46162826,-3.7722507,-0.9075043,-0.55833966,-0.15056613,-0.7107408,-1.6487722,-0.04145862,-0.0913395,-0.36426973,-0.055476308,0.2836473,0.10632256,0.58510137,0.22510129,0.13840398,1.5527279,0.409868,0.35266635,0.6305906,-0.88499093,-0.05395242,-2.4406505,-2.8694901,-1.3641429,0.8267857,-0.44540274,0.3839006,0.047324754,0.48408765,0.0049833455,-0.8644161,-1.2392743,0.25582212,-0.26576722,-0.044031076,0.75980365,-0.91807663,-0.44155532,-0.15673092,0.22514048,-0.5914054,1.2626582,-0.55092335,-0.08029995,-0.73795336,0.11229974,0.385539,-1.6531792,0.009633096,-0.2649636,1.1162803,-1.3099487,-0.6353231,1.0263295,-1.0612605,-1.1340315,-1.789125,-1.4152303,-0.66141,-0.68545425,-0.29435298,0.30233896,-2.1530964,0.011126205,0.67124885,0.60040843,0.17490894,0.20408988,0.3883809,1.6322317,-0.267012,0.07267682,-0.28941727,0.39311057,-0.7463995,-0.16516112,-0.588755,0.39624465,-0.8741386,0.6239064,0.37265527,-0.30996573,-0.39197624,-1.3822459,-0.116597734,-1.0660961,-2.3996034,-0.24826014,0.09547368,0.8027799,-0.10734511,-0.3903377,0.06596636,0.20206513,-1.4687612,-1.9589765,0.23528463,-0.17961694,-1.21838,-3.2578654,0.36015236,-0.17408597,-0.2079863,1.0813754,-0.6959168,-0.6773355,-0.35219112,-0.19721012,0.78692865,-0.041749112,-0.596208,-0.46696913,0.17773737,0.45784086,-0.5251444,0.44813037,0.037942737,-0.06009818,-1.1335509,0.23621556,0.11241528,0.1399613,-0.1056395,0.49864477,0.7952477,-0.33414137,-2.607882,-1.2947633,0.13988742,0.5174155,1.3272116,-0.72688055,0.08849051,-1.2718167,0.47208002,0.34490016,-1.0813053,0.5292257,0.20678127,-0.565356,0.90743494,-0.4196356,-0.6894518,-0.5597905,0.69000125,0.53409606,-1.0217484,-1.8593884,0.7968205,-0.67332363,-1.2117383,-1.3147757,-0.22523065,-0.4206575,0.34912384,1.0080054,-0.08977565,-0.06731897,1.4724407,-2.0241401,0.20896,0.91354674,-0.68093395,0.15105449,-1.5999489,0.8245529,0.41703546,-0.35003376,0.50245583,0.53297526,-0.9929148,-0.10013667,0.9888495,-0.04399897,1.1214938,-1.9030485,-0.19804914,0.34499264,-1.7471293,-0.86679995,-0.6115041,-0.12305041,1.2068508,0.93011284,-0.0966077,-2.00773,1.2695632,0.25372514,-0.08733244,-0.4972121,-1.636788,-1.3693786,0.3864143,-0.71161413,0.27546528,0.31426284,-0.4874447,-0.16447519,0.62867105,0.057825737,1.4921758,1.434979,0.22512618,0.29489857,-0.98451185,0.7221757,0.17999992,1.2989204,1.498285,-0.7555851,0.36943263,-0.32259542,-0.655566,-0.533095,-1.1334841,0.8112197,1.3932397,0.33758578,-0.63078403,1.6616602,-0.15592414,-0.05501029,1.3474326,-0.26865655,-0.13489836,1.7342031,1.9766195,-0.4434775,0.068085074,-0.15064982,-0.18877572,-2.1086287,0.3889175,-1.7580571,-1.2305266,0.04612118,-0.030080441,0.08367418,1.1239941,0.0029458888,0.0103904065,-0.39654168,0.90603673,-0.69291526,-1.2580303,1.0974293,1.2857026,-0.21344161,1.0946192,1.1214948,1.3557968,0.8567014,-0.41027284,-0.15160504,-0.019539015,-1.3850915,0.9345641,1.3730658,0.41356385,0.35975927,-0.310445,1.1425703,0.33118114,-0.9580512,1.7476605,-0.13546073,0.048059426,-0.055661462,-0.09495039,0.43333152,-0.7423873,1.0962527,0.52611554,-0.72813714,0.13141921,-1.4347848,-0.17960772,0.21534841,-0.9256191,-0.93999505,1.0899439,0.27086708,-0.23222977,0.47385478,0.008862738,-0.085051715,-0.24832082,-1.0213437,-0.3351333,0.822107,1.6414261,-1.6858292,0.052981,-0.07962759,0.05736061,-0.6557837,-0.53398,-0.8290472,-0.18333763,-0.12524953,-1.169439,0.004350748,0.23268622,-0.95052814,0.1192915,-0.9871749,1.0345306,-0.46659344,0.25544524,1.2769535,-0.30834305,-0.22812445,-0.6446039,0.16507365,0.63882816,0.13208315,-0.3765648,-0.3716442,1.2726729,-0.45319742,1.4328289,0.45259264,-0.14947501,-0.018624928,-0.137971,-0.006255635,-0.024084564,-0.7500421,-0.9369384,-0.4679711,0.17267618,1.0908418,-0.25388622,-0.22225225,-0.66420674,-2.075722,-1.7447796,-0.8703128,-2.0499697,-1.7896221,-1.8371707,-1.0374354,-0.57952213,1.0412333,0.6303177,-0.94556034,-1.6610618,0.5460667,-0.6605842,-0.4731343,0.20339033,-0.3612091,-0.30251455,-1.8294413,-0.77763116,2.0581534,-1.6135656,-1.3175964,-0.5957505,-0.6425501,0.36972004,-0.20700336,-1.3680639,0.037349157,0.084912546,-0.07256814,-0.44598985,-0.2114506,-0.05304741,-0.18635774,0.67369246,-1.3684747,0.10674186,0.52002084,-0.09487721,1.1061468,0.91217315,1.432689,-0.5540002,-0.713446,0.09466548,1.0115029,-1.6183422,-1.5160961,-1.8388023,-1.3351388,0.5408993,0.78599143,-1.2263411,-0.8007817,1.3249586,-0.0502332,0.48665696,1.0670829,-0.2655183,-0.18919633,0.1389927,-0.14984909,1.7260362,1.9764645,0.7674023,-1.2457107,1.3545384,-0.10853797,-0.35504895,-0.31321925,-0.37841368,-1.6012807,1.1046457,-1.4526613,-1.4880006,-0.049420036,-0.59913933,-0.014367418,-1.6969733,-0.8553027,-0.26384813,0.41005576,1.6596115,-0.6015488,-0.28791088,-0.75208986,0.10916309,0.84798396,-0.5594518,-1.0463204,-1.6653359,0.07416377,-2.353105,-0.17260583,0.5403327,0.09824929,0.10004975,-0.29203767,0.9972047,-1.7994857,0.780706,-0.06642807,-1.5202284,-1.6017454,-0.5898225,-0.79881334,-0.6344235,-0.58491826,0.1373905,-1.0220164,-0.13335398,-0.72405744,0.892137,2.0014691,-0.28947556,0.0029369781,-1.2294221,1.2912626,-0.99644434,-0.27992707,-0.9255689,-0.25553995,0.1603218,-0.16807705,-0.12671426,-1.1063261,1.2706718,0.14328645,-0.19984189,-1.1098387,0.08184573,0.8661411,-0.37140235,0.5017024,0.6555284,0.7653793,-0.1398688,-1.2558305,-2.5456822,-1.9162965,-1.7341409,-0.06791413,-1.2493525,1.3335805,-0.6716262,0.46549731,0.72670925,0.17378321,1.9055388,-0.6755767,-0.20753461,0.13340059,0.15164495,-0.6307051,-0.1852802,-0.039093636,-1.446959,-0.118267044,0.4930368,1.4831065,-0.07547353,-1.6093276,0.4961506,-1.8670819,0.024786646,0.046945952,-1.993917,-0.6047274,0.4691578,1.0009842,-1.7443836,-1.6617444,0.9928304,-0.4781968,1.6273136,1.306036,0.3756535,0.2335076,0.6065463,-0.3333031,-1.9810045,-0.6731287,-1.5988832,-0.6828928,-0.29889047,-1.8617275,0.31776607,-1.1914344,-1.2814299,-0.9814564,-0.65068203,-0.120704204,1.7583611,-0.9601122,0.4052296,0.9442642,-0.22906718,0.38053817,1.3666145,0.9944524,-1.0200663,-0.7054179,-1.6720083,-1.8302846,-2.1293898,0.064238064,-2.6576564,0.42157686,0.069151446,1.9456878,-0.6763613,0.15112416,1.1348574,-1.0164816,-0.9310484,1.5062075,-1.5766716,-0.67004395,-1.367459,-0.10639839,-0.5837461,-0.20478737,0.105509445,0.8533714,-0.1821748,0.2782911,-0.5095036,-1.0721884,-0.44673514,-1.5511916,-1.4981451,0.23574567,1.0072877,1.3307189,-0.3089758,-2.2901897,-0.38050014,-0.6112733,0.70553803,-0.1288541,-0.060780443,0.012569266,-1.6981308,-1.0795298,-1.6599216,0.14666045,-0.74581295,0.24784863,-1.7459877,-0.5137665,0.04678651,-1.0776606,-0.43167,0.18282099,0.5806371,0.48591402,1.2395105,-0.56034386,1.1481218,-0.22097105,-0.5348383,-2.268477,-2.5473328,-0.61544824,0.8209726,-0.66613287,-1.00386,-0.48185012,0.5384455,0.2296043,-0.4732798,-2.9883523,0.18039858,0.78660476,0.56153476,1.107935,0.058995042,-0.8065114,-0.28090245,0.4391138,0.027947802,-0.19876538,-0.55433655,-0.17209744,0.35484874,0.09589845,-0.5324591,-1.2431526,-0.1287973,0.3677204,0.461077,-1.3956153,-0.36940253,0.77156246,-1.3891724,-1.7243197,-1.2234812,0.30653834,-0.64456195,-1.6517816,0.39559126,-1.0652437,-1.9783959,-1.3725747,1.0445008,0.17670977,1.3629194,-0.48893028,0.24682543,2.0485172,-0.85253394,0.1519942,-0.20832,-2.1621716,0.2122798,-0.06671637,0.43258685,-0.23961097,-0.36350518,1.3714813,0.99395496,-0.31102198,0.86526054,0.57806665,-0.20374703,0.7739942,1.5314811,0.63290143,0.80236477,-0.02672416,0.72842705,-2.7391558,-3.2997732,0.35794777,-1.5824544,0.38098162,0.41387492,1.7265841,-0.9383517,-0.7685678,1.2723246,-0.3229767,-0.2502792,1.2329834,-1.0947505,-0.89578885,-0.73891115,-0.08698131,0.73055875,-0.20638445,0.80491966,0.8798839,-0.18286979,0.59093046,0.41184247,-0.13593899,-0.3175096,0.77505493,-0.67404926,0.7329478,0.57033885,0.8974305,-1.2448153,-1.0411464,-0.4089045,-1.6301378,1.1340864,0.19777209,0.13393416,1.3827257,-0.24427298,-1.7444403,-1.0223668,0.20660973,-1.0935273,0.66141677,-1.8312275,0.7914908,-1.2596588,0.09404725,-1.7376018,-0.32074314,-0.27429354,-2.3807397,-1.0781977,-0.7554349,-0.9387882,-0.06802796,0.00072845456,-0.1681884,0.26120973,-1.3874047,0.15761872,-1.8689752,-1.9015298,0.673744,-0.57453215,-0.11870977,-1.2162715,-1.1772462,-0.32347894,-1.3943803,0.34646022,-1.9432178,-0.3662851,-0.31007516,-0.20980206,-0.007827358,-0.55712676,-0.19631146,-0.080717415,-0.27038753,-0.6848699,-0.049247734,-0.44575244,0.19548127,0.121295705,-0.40763462,-0.52227545,-0.91250026,0.42591488,-0.045205005,-1.0427103,-1.3631873,-1.6726849,-1.4887066,-0.2400564,0.255517,-0.13991436,-0.552815,0.4780457,-0.1634049,0.10871656,-1.4416739,-0.27721947,-0.51688826,-0.8604077,-3.2625093,-1.8593336,-0.4758194,-0.3017224,-1.4788802,0.062209852,-0.7122221,0.20401978,-0.26563394,-0.052877992,0.3726287,0.72547644,-3.0513196,-0.07804504,-0.43554902,-2.011523,-0.7784207,-2.427301,-1.2641027,1.0918362,-0.10042168,-1.2744585,1.5329797,-1.6119385,0.1074274,-1.9796233,-0.3643914,0.1967496,-0.04205293,-0.36232436,-1.7043357,-0.61282575,-0.4564542,-0.60002613,-0.036239002,-0.835703,-1.8640187,-0.8644344,0.07751742,-0.9300066,0.10465195,0.6186029,-1.0299789,0.1010971,-0.28415146,0.105102584,0.15617493,-0.09659025,0.49511424,-1.3862457,0.01281281,-0.12467256,0.15185884,-0.260691,-0.069437936,-0.3136289,-1.3503958,-1.7015648,-1.3139673,0.40502852,1.1373825,-0.42340797,-1.8931857,-0.6038705,0.41671792,-0.022405969,-0.05558137,-0.003533757,-0.12195285,-0.08255495,-1.8221552,-0.635342,-0.31335694,-1.4879184,-1.506216,-0.8577063,-0.94472975,-1.8740048,-1.0195048,-0.13066962,-0.094436154,-1.7854012,-2.0643075,0.06878582,-0.32081842,0.15757167,1.0015149,1.2534469,-0.13822936,1.0129716,0.8113582,0.1159996,0.003106889,-0.40023535,0.6307329,-1.014394,1.3622603,-0.011695584,-1.2528372,0.61140203,-0.12655267,0.163187,0.039367385,0.5493586,-0.014271487,-0.10003008,-0.2631315,-0.24957047,0.5419236,-1.4561739,0.656423,-0.16165772,0.5733737,0.62154114,-0.6643261,-1.318868,-1.3740754,-0.05427338,0.35269922,-0.09112568,-0.17178743,-1.1644021,-0.69195247,0.22883673,-2.9670262,-0.71285677,0.7630272,0.99158204,-0.56345576,-0.41000623,-0.25209427,1.020181,-0.6476649,-0.124562934,-0.040097624,0.0689747,-0.13981664,-0.7797599,-0.054872267,1.3509521,-0.508848,0.1240024,0.8402337,-0.23955536,0.5947903,0.38134667,-1.2846091,0.7418771,-0.71087515,-0.41974682,0.009888538,-0.50195915,-0.24936926,-0.0412476,-1.1799433,-0.46418548,1.648701,0.056380697,0.7762947,-0.9281212,0.081504814,-0.2466314,-1.1541135,-0.3695634,-0.5700878,-1.4784262,-0.0021338374,-0.24223962,-0.24842009,-0.16999862,-1.1537781,0.14990428,-0.5026275,0.5903642,-1.1975198,-0.8570427,0.41077262,-0.33358926,0.06289437,-0.47596183,0.25471392,0.47896177,-1.5353427,-0.37210023,0.07744694,0.8173117,-0.35649255,0.47574154,-0.94504595,-0.27441406,-0.11343961,-0.4207008,1.4989053,-0.12006372,-0.6860386,-0.41427296,0.16964114,-1.186945,-0.35993928,-1.3260692,-0.15878883,1.1408715,-0.6553689,0.042683996,-0.116686136,1.044169,0.52621996,-0.30660063,-0.86268526,0.959325,-1.6877947,-1.9386382,-0.25331336,0.39593768,-2.7526522,0.25447646,0.19482289,-0.050879642,-1.1014556,0.37425372,-0.12810692,0.667686,0.49888206,-2.5168848,-0.6568287,-0.04610449,-0.51941156,0.86225295,-0.6629659,0.22338209,0.27581337,0.5289902,0.19305047,-1.0671343,0.02930299,0.26104516,1.346261,-1.4769104,0.19332069,0.13770533,-1.9794116,-0.48737633,-0.3442779,-0.9051461,-1.003628,-0.30706534,-0.04395666,0.22894168,-0.2088426,-0.8766358,-1.2862647,0.095931634,0.6909466,0.25977334,-0.050311014,-0.1973477,0.18591514,-0.86148953,0.375009,0.112318635,-0.2934234,0.14247061,-0.6828523,-0.23662713,0.38541967,-0.96310264,-1.3536325,-0.5335548,0.6770669,-1.2186878,0.37215608,0.2115259,-0.06745595,-0.3497417,-1.7205756,-0.76960224,-0.30267942,-0.2508557,0.16240053,-0.3339163,-0.14352828,2.1334374,-0.9026566,-0.0006122517,-0.21409348,-0.4317422,1.6095934,-0.8241346,0.94296646,0.111553505,-1.6289883,1.3297364,0.3427306,-0.17201623,0.1915715,0.8047205,-0.09019615,-0.27993175,-1.6168883,-0.3146109,0.54240185,-0.5682911,-0.21877685,-1.2913289,-0.20589907,1.4288571,-0.585601,-0.016433235,0.07965322,0.07574023,0.35505587,-0.23269299,0.76710653,-0.08167569,-0.12968428,-1.9148712,-1.8447295,-0.98240876,0.10219621,0.056806296,-0.41569644,-0.103165776,0.0042197825,1.0362424,-0.090206936,0.37093297,-0.19755614,0.122729525,-1.2008781,0.5974897,0.5184834,0.2715338,-1.306999,0.51372254,-1.7797593,-0.3215278,-1.9828753,-2.4759443,-2.613577,0.18100218,0.5020658,0.3745967,1.4881198,0.94899464,0.2057588,-0.108732805,-1.8642238,-0.15985775,-0.4150896,-1.2960674,0.86635613,-1.6666381,0.033295695,-0.044678777,0.424586,-0.138245,-0.80919725,0.3123684,0.06042523,0.11025809,-0.042691417,0.87539506,-1.3156899,0.16341539,-0.18171215,0.35696846,0.45745203,-0.6059383,0.5494176,-0.42227927,1.1666805,-2.3429084,-1.4591448,1.3693337,1.0209279,0.1735397,-0.5012081,-1.8154967,-1.2431033,-0.13233444,0.79595387,0.9165252,-0.13035965,0.5804235,0.12099779,2.229313,0.18655774,0.0068253465,-1.7806122,-0.20889185,-0.650421,0.22630522,0.2637711,0.059696518,1.2321119,2.9287868,1.2378362,1.1926457,-0.38722077,-0.33675194,0.4307357,-0.48015344,-0.3978026,1.5074217,0.44110626,-0.9524729,-1.0388149,-0.67843854,0.018192409,1.1613668,-0.3079229,0.19028229,3.0649393,2.290658,-0.99674535,-0.13575587,-0.37513047,-0.14773437,-0.3470398,-0.90694785,0.64822674,0.30865252,0.045578428,1.0820644,0.006080513,1.9300054,-0.8532735,-0.12051529,0.46613386,1.0511463,-0.1363427,0.32291532,1.020549,1.2253355,0.26641184,0.11580488,-0.76445013,-0.74939126,0.5480388,-0.36087227,0.32047808,-0.9139779,-1.6453257,0.4984788,1.7760172,-0.28995055,0.28914887,0.0498797,0.7950929,-0.08013947,-0.18222935,-0.90905285,-1.0949373,0.21353844,-0.6013348,0.20455691,0.23593873,0.55908054,-1.0367823,-0.13581686,-1.5146995,0.8035854,0.75989425,-0.37563032,-0.67435825,-0.81344235,-2.4207153,0.0628323,1.6303055,-0.5456128,0.521634,0.09719132,0.10898121,-0.6280602,-0.6631776,0.2503605,0.8039635,-1.0222832,1.022877,0.23080108,0.29275498,-0.54696536,0.7231277,0.6651197,-1.2310083,-0.18620563,0.12815228,0.9682019,0.004778783,0.053166356,-2.7164338,0.05103766,1.296319,-0.58250105,1.242609,-2.2500668,0.465064,-0.076168045,1.6006796,-0.761536,-3.519725,1.0815454,-0.7007054,0.46301168,-0.19965437,-2.8555799,-2.3732214,0.4263994,-0.2630759,0.84687316,-0.52518374,0.91549385,0.39804637,0.5630252,0.8499375,0.9505896,-1.0611444,-0.5850769,-0.060192578,0.7972325,-0.31800395,-0.8066317,0.6723505,0.17741925,-0.19167715,-1.1147009,-1.0072448,-0.24276176,-0.36740696,-0.36473167,-1.5757632,1.1443957,-0.08944617,0.48642504,0.69321644,0.30743498,-0.6245346,-0.097060084,-0.7238188,-0.8273651,-0.28233647,0.14171344,-1.6356378,-0.71561396,-0.16977386,0.46176922,-1.7516615,-0.96131575,-0.47101408,-0.35908085,0.007094302,-0.65394294,-0.50157845,-0.859811,0.4012295,-0.12528285,-2.5968041,1.4568195,0.5546836,0.25395906,1.2984979,-0.85096437,-0.6557119,-1.3149503,-2.1450534,-0.51451576,-0.25880855,-1.1686859,-0.5840518,-0.3351155,0.25967985,0.2144852,-0.63480467,-0.4284855,-0.47243387,0.21345767,0.32868415,-0.6988604,-1.8795698,-1.1466546,-0.11578719,0.06918207,-0.72389233,-0.0098666465,0.6903644,-0.43793425,-0.8878472,-0.030077005,-0.10190723,-0.28826123,-0.38289088,0.4631474,0.25327885,-0.62928236,-0.5866866,-0.6548146,0.11124174,-0.4943174,0.21786186,-1.4224669,-0.1261536,0.9756386,-0.7195565,-0.19925445,-0.16939846,-0.538543,0.21428838,-1.1675658,-0.3426747,-0.19631526,-1.2265599,-0.18668601,-0.23475266,-1.1293534,0.033268757,-0.07572379,0.016699664,-0.12761605,-0.87448144,0.08233535,-0.38835478,-0.35206187,-0.63497037,-1.9077804,-0.61942226,0.30695075,0.25034714,0.25257364,0.89938056,-0.01693557,-0.5755659,-0.080972254,-0.68876916,0.9725569,0.25840414,-0.46855754,-0.45077476,-0.19135857,-0.45084733,-0.94328976,-1.8182609,0.7171744,-0.50456464,-0.28617716,0.111108296,0.04158795,-0.56610364,-0.51210856,0.10076857,-1.7175612,0.6030907,-0.75121975,-0.61989725,0.14341137,-0.6117008,0.5697309,-1.359566,-1.8627839,0.93923986,-2.9585881,-0.13264632,-1.5120215,0.4455177,0.5300895,-0.19781703,-0.5655134,0.31297022,0.17537539,0.5039381,0.33307695,0.825081,1.0653925,0.41450298,0.30914858,0.22073114,0.09692499,-1.7877326,0.15968873,-0.06751888,-0.613773,-0.10540938,0.8321729,0.10463786,-0.28734434,0.17215694,-2.9227357,-0.10935745,-0.16912559,-3.6636333,-0.011649881,-0.7588941,-0.30530417,0.87006503,-1.1049433,0.29600608,-0.9265981,0.3003627,-1.8393962,-0.31133884,1.3430182,0.566205,-2.5812488,-0.31363636,0.35663322,1.4367111,0.095905215,-0.42267695,-0.06632559,1.3974333,0.07241905,-0.0738033,0.693407,-1.119822,-0.1463753,0.19748734,-0.09871076,-1.9039781,-0.9705474,0.5965336,-0.46590307,0.8645075,-0.46990424,-1.1660256,1.1064389,-1.5502572,-1.8147943,0.6668238,0.3297324,-0.48216793,-2.1082387,-0.04633081,-1.2389345,-0.65867084,1.2870255,-0.23532519,-0.9434428,-0.11854823,-0.590642,-2.1225238,-0.45957005,-1.0121146,-1.2585049,-0.1265338,-3.6317925,-0.39412293,-1.6541188,-0.9165593,0.083701506,-2.8100705,1.3883593,-1.227079,0.9052759,0.6255187,-1.0137503,-0.7004818,-0.90723956,0.02524522,-0.6790368,-0.5776678,-0.63239026,-0.1291501,0.3077705,-0.28699675,1.0583432,-0.61537504,-0.45961046,0.5584419,-0.6075972,0.18204549,-0.727435,-1.0098095,-0.18437836
