1.3904815,1.3726487,0.9662854,1.6868161,-0.2965289,0.926576,0.28038025,-0.5333402,-1.59778,-2.289989,-2.133493,-0.7449456,0.15051652,-0.13587606,-4.5375543,-3.3462815,0.06620361,-1.5844085,0.24565881,0.56050026,-0.29047656,3.1191335,2.301947,1.5923989,1.8344669,0.71951044,0.39950648,-0.3193606,-1.4412954,1.376002,-1.2087071,-1.1995716,1.4951321,-0.03692732,0.16108266,-0.13452075,-0.3072605,0.39105597,0.42228377,-1.3319578,-2.3970082,-0.93485683,-1.7276614,-2.2000403,-0.99754393,-0.8190713,1.730197,0.26314074,-0.34185672,-4.1154222,-0.9083909,-1.1667119,-1.9424193,0.23608401,-0.29616725,-0.18039775,-0.6221639,2.1502104,0.82660675,0.6777098,-2.1711392,-0.60020316,0.29642737,1.519468,0.92519975,-1.5490794,-0.29626173,3.1136844,-0.2209383,-0.05932007,-0.31548923,0.9328505,0.5505487,-0.24525985,-1.498615,-0.15085778,-2.2484794,-1.2277783,0.07928723,1.7819557,2.0751133,-0.8511511,-0.056820177,-0.60581625,-0.4582556,0.11761224,1.1717016,1.3028095,-1.2075031,2.0571954,-0.068624124,-0.4634598,-0.553028,-3.1944451,-0.32682794,0.89336956,0.32442826,-0.07546592,-1.2375851,-1.1319675,-0.50687087,0.0477477,2.7002895,0.2915118,-0.06415077,2.1955009,0.20047794,-1.5203481,-2.012599,0.017667627,0.12598658,0.06668952,0.3209827,1.0311558,1.7442122,1.6958953,-0.3748829,-0.2554811,1.3795471,-0.7636864,-0.33593088,-1.0761144,-1.4580525,0.29028702,-1.8965505,0.17881095,2.817408,-2.9162655,4.1753182,-0.2895394,0.09520259,-0.019015182,0.19095565,-1.9674164,-3.2860687,-1.6061044,-1.4642701,0.4314409,0.3854037,0.015621027,0.4043917,-1.317067,2.7777061,1.0581005,-0.64516175,-0.03977722,-0.17158988,2.2002826,-2.2143369,1.6260166,2.2822483,0.024869483,0.81953764,0.3235175,1.6823436,0.3688649,-0.5985582,-0.040130004,2.295608,-0.26653093,-0.12359156,-0.9150893,4.5987077,-0.88436687,-1.1447723,-0.455816,-0.6315981,-0.20109844,2.385284,-0.14338751,-1.7228811,-2.0429835,0.16439638,0.15632223,-0.019918697,1.873519,-0.2889598,1.2525048,1.2401936,0.9765663,0.6866472,-0.65199554,-3.433313,0.50615966,-1.3867295,-4.1433325,0.13445118,0.09008015,0.28131485,-0.16555488,0.8303685,-0.0881201,0.12561202,-1.1693947,2.8310843,0.088474594,3.409896,-1.9814614,2.0245082,0.4109949,0.5109024,0.33167917,-0.5065584,2.6008818,-2.3089318,3.6383963,-0.34057382,-0.25299358,-0.118876785,-0.37375438,-0.7595539,-1.7877517,-0.013320064,-0.96535945,-1.9366155,0.39898404,0.16472423,-7.855155,-0.25599676,2.1617284,0.40018672,0.20705085,0.27102852,-0.027590973,0.21835758,0.08389589,0.08078166,0.54325217,-1.291445,1.6005147,1.7786708,1.0524845,1.5561082,1.8748828,2.2028093,-0.27771825,0.3252656,0.27721435,-1.07634,1.66446,-1.2292218,-0.24706078,-1.4799142,0.7631958,-0.7838731,1.4496262,1.5195131,1.5415623,1.8556068,0.57154536,-0.4372021,0.536562,1.813472,0.5084644,-1.4223754,0.2602981,2.33288,0.20117208,0.11467931,0.033004,-0.7538408,0.7872999,-0.31915823,-1.325612,0.007841219,-2.3731742,-1.8734022,-0.44325754,-1.7139194,-0.9763845,1.4747332,-0.099986315,0.36017445,0.33784008,-1.5661983,1.2753799,0.5367192,-1.1279831,-0.8130482,-1.9526787,0.44219312,-0.6708787,-1.3010418,-0.71981263,2.4814582,0.7732973,-0.32915443,2.236145,0.1807654,1.1678696,1.1102458,0.78872555,-1.0580125,-0.23830391,2.1821551,1.5367042,-1.1408168,2.163611,1.3228836,0.09498778,-0.064427696,1.1097858,-0.4511847,0.3264749,-0.068730146,2.9532404,-0.38985676,-0.18014637,3.111887,-1.227918,1.3320445,3.0946312,0.1316672,-0.7559272,0.22486286,0.48039222,1.066288,0.19039643,3.6469762,0.49747396,0.0830975,-1.191183,-3.1983528,-0.086106606,-1.0049434,-2.4040105,-0.40271065,0.20611343,-0.85803866,-3.032083,2.9167404,-1.6949098,0.86014086,-0.581946,-0.03205535,0.29447138,-1.5400696,-1.0317856,0.273314,-3.2816658,0.70340884,-0.58996785,0.40299684,-0.350936,-4.510637,-1.505815,-1.8928454,-0.9358919,0.12554866,-0.0018146567,-1.724544,0.014680836,-2.2706609,-0.07329331,0.5972257,-1.0499535,0.550239,0.26970905,-0.7124102,0.4014666,0.6598152,-0.7364812,0.3579349,3.7088788,0.88028556,-0.5491374,1.3894112,0.30291414,-1.3646691,-1.6769578,-0.24443346,0.50814795,-1.3114241,0.9125349,-0.3749317,-1.2083477,-0.9321527,2.3462296,-0.0081595965,-0.21878752,1.2207437,0.52595556,-0.98583186,-2.5584564,0.8504068,-0.68301237,-0.98192954,0.7718995,-0.15558697,-2.7053807,0.15487173,1.140368,-0.25305408,-0.52511513,1.0186479,0.52075016,-1.6197588,0.9698906,-1.8579342,-1.5208054,-2.2581782,-0.538126,0.7413862,1.8405795,0.22017886,0.22499654,-0.4015736,0.41918606,0.79467726,0.74064386,-0.93960357,1.7303596,-1.7299936,2.114665,1.8973513,-0.1616419,4.0148096,0.71055233,-0.100759655,0.32149872,1.6427491,-0.24222934,1.5422937,5.330908,-0.051146038,0.5002333,0.5220816,2.6818688,-2.2359772,1.6758,2.046431,0.0989203,-0.7604102,0.30069387,0.23574197,-1.1078243,0.43629187,0.6142394,-0.8974508,-0.014198774,-2.901959,-1.628648,0.3213176,-1.0527797,-0.10761212,1.9542131,0.3486358,-0.12264223
