0.11838625,0.046243127,-0.06444697,-0.04178129,-0.03162171,-0.033788368,0.015087008,-0.024589904,-0.09562902,-0.054261684,0.083436444,-0.035470247,0.18366796,0.09012245,-0.09000814,-0.0724629,0.018714651,0.089121,-0.082127735,-0.03765745,0.07802425,0.028949268,0.13326143,0.013046417,-0.03317365,-0.08179271,0.053201012,-0.120168924,-0.23382363,-0.1780245,0.037413973,0.020482065,0.011498235,-0.086059704,0.07094807,0.01385604,-0.01379744,-0.008244641,-0.0480814,0.018313713,-0.14364317,0.027922764,-0.09980422,0.1013438,-0.039998967,-0.02789332,0.18487546,0.011202628,0.009935562,-0.15631676,-0.036275182,-0.0036300332,-0.008821491,-0.016134642,0.004879334,-0.08558285,0.0600982,-0.005321441,0.092122674,-0.017529845,0.025592826,-0.0012914127,-0.1542971,0.042383827,0.12289679,0.056038342,0.016020989,-0.035158373,0.13164757,-0.059486806,-0.0119201355,-0.042298906,0.04705829,-0.094013944,0.0397261,0.014129469,-0.024708752,0.0133070275,0.14291814,0.1663706,0.14277598,-0.005298166,0.03761563,0.07527861,0.052543327,-0.069307715,0.0052040443,-0.090991005,0.0036843284,0.066749215,0.07982905,-0.009852681,-0.1055464,-0.009651719,0.050143592,0.016712643,0.10913864,-0.014700051,0.0006233699,0.038785048,0.0886719,-0.094813555,-0.002634708,-0.23054332,0.039427735,0.061130486,0.086427,-0.017317919,0.012725854,-0.008551076,0.1616354,0.21314241,0.01607329,-0.022929553,-0.007880637,-0.14235061,-0.11998609,0.026097104,0.14624357,-0.12173321,0.0013942716,-0.03394342,-0.017076865,-0.02796773,0.032673776,0.095375635,0.31007522,-0.043073207,0.0071405442,-0.12520587,0.04920475,0.027535625,0.0890358,-0.034213714,-0.06343932,0.107960984,-0.079019904,-0.05909997,0.30883986,-0.11271873,0.088039964,-0.02045083,-0.095633775,0.057418425,0.006635732,0.18462345,0.0020882578,-0.032532357,-0.119163305,-0.17515746,0.015955362,-0.051062375,-0.029286673,-0.009341575,-0.09151922,0.040013656,-0.12527478,0.028470563,-0.07603914,0.063946836,-0.031266805,-0.0040267487,0.0013975138,0.023932908,0.014289111,-0.17903376,0.040296644,-0.0491379,-0.023991931,0.022599172,-0.0019383666,-0.066026755,0.18829897,-0.08753388,-0.028661706,-0.13059306,-0.01772986,-0.089873284,-0.021868296,0.016715778,0.030525245,-0.023820005,0.04843885,-0.06898151,-0.021602154,-0.048668288,-0.14851686,-0.012012772,0.016616862,0.03474146,-0.02292258,-0.1001589,-0.01652194,0.07048292,-0.006562986,0.09884754,0.081153825,-0.013213171,0.057086084,-0.09486249,-0.21813054,-0.043515094,0.11431129,0.10761425,-0.058760315,0.067935474,-0.042202093,-0.029434139,-0.10891568,-0.09107362,0.031477273,-0.1346924,0.08217716,-0.07225563,0.01586146,0.025999732,-0.017892074,-0.015645027,-0.0907259,-0.16544467,-0.011665231,0.018543534,-0.10834733,-0.004957435,0.015951663,-0.15909734,-0.010817461,0.031198401,0.14238808,-0.20579359,-0.019297596,0.08958884,0.019495755,0.06417379,0.050186165,0.12689382,-0.05146271,0.026174888,0.049368896,0.15548435,-0.020597383,0.0060157217,-0.22603983,-0.07278592,-0.06692543,-0.30532396,-0.06685084,-0.03243845,-0.07906675,0.03409373,0.066213235,-0.04015534,0.12550613,-0.039268307,-0.0037598498,-0.16103259,-0.013079184,0.01594099,0.021604702,0.0030146916,0.037293747,-0.06371868,0.016345453,0.0054025124,0.1185516,-0.059238322,-0.1181965,-0.014326824,-0.14210993,-0.14103827,0.17513251,0.03149358,0.024603967,-0.024782075,0.12139984,0.050705906,-0.05370401,-0.010823052,-0.13092045,0.009424191,-0.027936272,0.03264773,-0.077116035,0.052868478,0.32687357,0.2308358,-0.06525487,-0.01902766,-0.04975737,0.10444288,-0.06783787,-0.038837314,0.07194036,0.075874865,0.09636152,-0.017638206,0.11414275,0.0019684662,0.083358854,-0.09345095,0.010439718,0.0616782,-0.21269818,0.011177285,0.019162616,0.14608076,-0.033355396,-0.012700761,-0.022758644,-0.006905428,0.048842236,0.13952501,-0.084805675,-0.09635086,-0.08419286,-0.0422552,-0.018092848,0.03958857,0.1832667,0.036618277,-0.08536872,0.033936746,0.06090466,0.058247335,-0.0875254,0.16662058,0.027511273,-0.040938824,-0.077149466,0.07769211,0.010810204,-0.030447915,0.12289578,-0.08006328,-0.027576782,-0.1740449,-0.1643859,0.050711907,-0.006473502,0.038328353,-0.05260972,0.050438173,-0.018429473,0.111249,0.016295845,-0.10563038,-0.06561826,0.01157066,0.07713214,0.020888325,-0.06882089,0.041274652,-0.14850493,0.024358902,-0.0038369517,-0.00437261,-0.07820097,0.14525011,0.010177938,0.18440554,0.02087523,-0.09286454,-0.040815566,-0.055308998,-0.032178234,0.026926283,-0.07939783,-0.24914335,-0.01923405,-0.015871678,-0.017001808,0.18061048,0.06742547,0.021132037,-0.1025791,0.16078645,-0.05748328,-0.013755804,0.081234574,0.0003833424,0.0050103944,-0.020556692,-0.29175085,0.030310322,0.06340782,0.08206907,0.018593904,0.024847643,-0.067171596,-0.018527191,-0.032091334,-0.15649533,0.084758475,0.07659496,-0.29623044,0.093602665,-0.055745028,0.037163273,0.1297509,-0.07411617,0.005211317,-0.09640834,0.008593369,-0.07344067,0.0937732,0.24323371,0.035828568,0.0071941214,0.0175595,0.06976181,0.06162948,0.0037248651,0.16951749,-0.0045388294,0.11650617,-0.05682511,0.07842326,0.028159775,-0.07444976,-0.04031989,0.03061577,0.08813457,0.026547931,-0.036444176,0.0066172807,-0.01745908,-0.03723021,-0.012011886,-0.111529574,0.05804751,-0.021291658,0.10949515,0.04030516,0.12372935,-0.059431385,0.022304038,-0.12784855,-0.028130352,-0.010096373,0.050713725,0.07768864,0.061821103,0.10630612,0.03324991,0.062575065,0.038671523,-0.008787464,0.06734078,0.0014637478,-0.1000941,-0.050677955,-0.05677855,-0.087097645,-0.017173283,-0.10646765,0.06430334,0.18145454,0.06406971,-0.15818432,-0.07624389,-0.006746659,-0.12482938,-0.018350147,0.055262,0.18132594,0.108818464,-0.08107181,0.16702315,0.023258232,-0.027148413,0.009402795,0.026688982,-0.011618674,-0.033890907,0.11344585,0.22338396,-0.015953444,-0.008929218,0.12910886,-0.0042346898,0.001227364,0.11300486,0.03750528,-0.010508465,-0.089120775,0.2111704,0.03864505,-0.14837945,0.024349652,-0.009252133,-0.056031168,-0.12459515,0.064847514,0.009278869,0.02311986,-0.1287098,0.026064236,0.08029945,0.18121228,0.12517124,0.029744126,0.25151753,-0.03383674,-0.047960803,0.08806153,0.06702701,0.040062398,-0.037193958,-0.1110366,0.023512779,0.0029120543,0.20229787
