-1.4838283,0.8025281,-1.8749068,-0.508469,-0.5726671,-0.013391439,0.11087447,-1.005181,-0.84777164,-0.36349106,-0.46764088,-0.17125866,-1.1733994,0.07719338,-0.5038685,-0.5678419,-0.8946658,-0.06187204,-0.35240883,-0.57586324,-1.3014474,-2.0044696,-0.3867072,0.13332467,-1.4001126,-0.424379,-0.0024249787,-1.0475994,-0.31960383,0.37821263,-0.00076503796,-0.42412698,-0.04633779,-1.469898,0.746575,-0.105505906,-0.20777784,-0.20703915,-0.4189574,-1.1469651,-0.06699131,0.57611334,0.6479895,-0.54316545,-1.454655,-1.5561452,-0.32738042,0.5054198,-0.7287541,0.05630509,-0.59316695,-1.0279965,-0.8226325,-0.6440262,0.530229,-1.2871649,-0.4209429,-0.21883942,-1.0843868,0.83263,0.40428758,-0.48848617,0.8781427,-1.842496,-1.4606655,-1.4671819,-0.11281699,-0.42703968,0.50466645,-0.4750299,0.6856357,0.36815527,0.0053552533,-0.03574861,-0.8258581,-1.0098403,-0.92980576,-0.12019335,-0.17472209,-0.05796805,-0.77617943,-0.32052192,-1.0034876,0.1845609,0.168649,-1.7585443,-0.06071437,-0.5869063,-0.5073224,-0.81542206,-0.2870344,0.06350662,-0.72765034,1.186796,-0.41894424,-1.3663702,0.41138622,-0.98613644,-0.77684516,-0.33257413,0.4545188,-0.9980164,-0.021583129,-0.605342,-0.36732578,-0.17760038,0.88843465,-1.9989995,-0.59799016,-0.6572709,-0.52173436,-0.37008497,-0.6041728,-1.151392,-0.3080743,0.44363672,-0.49266136,-2.4488442,-0.51777816,-0.46288303,-0.39588955,-1.1304625,-0.023096401,0.013188681,0.57287323,-0.08155592,0.87413955,-0.39266598
