-1.7220666,-0.31879723,-1.0041203,-0.2948063,-0.44586235,-0.6871816,-1.2447271,0.11646517,0.48708394,-1.7800971,-0.28538507,-0.48125494,-1.1504459,-3.14749,-1.2384086,-1.1179883,-0.39672711,-0.16471407,-0.17552853,-0.44070792,0.03544365,-0.7583802,0.34142342,0.19872555,1.1404481,-0.828617,0.10424028,-0.002348167,-1.2591983,0.4591828,-1.0823634,-0.4928527,-0.426643,-0.7052692,-1.4735909,-0.48710787,-1.5253704,-2.241967,-1.2469766,-0.7284025,-1.7679889,-0.3710534,-0.48828208,-0.64774793,-1.188675,0.955572,-0.7785649,-0.7114198,0.1431524,-0.4903436,-0.9070983,-1.1492586,-0.2671556,-1.089171,-1.1329701,-0.8495047,-0.7180507,-0.8556325,0.22383246,-0.4224071,-0.91895294,-0.16763192,0.03025059,-0.6480688,-0.31731683,-1.1024661,-0.60523045,0.61877954,0.02423759,-1.1908269,0.7462003,0.593153,-0.42611924,-1.2259557,-0.5840006,-0.00864304,-1.1435167,-0.2137709,-0.922544,-0.8828433,0.03860704,-0.757951,-0.9251163,0.029440392,-1.6757481,-0.14159372,0.08213975,-1.2394028,-0.348957,-1.0281963,-0.364268,-2.5691605,-0.49239382,-0.9735982,-1.4484627,0.10469247,-0.5732449,-0.6943278,-0.13913465,-0.6656356,-0.8229697,-1.075705,0.44657248,-0.77249306,-0.4729427,-0.9157195,-1.2301276,-0.5003871,-0.39030322,-1.0991371,0.50181097,-1.0054824,0.3915032,-0.4979936,-2.233797,-0.16472384,-0.31204465,-1.0331173,-0.5406902,0.032466866,0.13653004,-1.9062377,0.5977992,-0.6489742,-0.44468856,-1.5646865,-1.0667108,-0.48046136,-1.4897681,-1.6971483,0.59326184,-1.3546789,0.26731902,-0.064390205,-0.20755363,-0.93593407,0.54020035,0.22613692,-1.0763103,-1.0030328,0.7297158,-0.50963974,-0.44254026,-1.1112521,-0.105737425,-0.5538597,0.5827919,-0.9576309,-0.14926736,-0.5979501,-0.5643823,-1.4068305,0.36728823,-0.023955435,0.035302643,0.049660746,-0.013084588,-1.214209,-0.6856027,-0.2446199,-0.52400374,-1.1294384,-0.0077764187,-0.1525842,-1.7024846,-1.1965194,0.5326457,-1.3691896,-1.2463822,-0.83815765,0.918056,-0.38945392,-1.1211511,-0.29660112,-0.6590103,-1.2530534,-1.0202487,0.7561093,-0.040396757,-0.64392424,-0.6027434,-0.52564394,-0.88434535,-1.3416709,-0.074796975,-0.83438855,-0.08941415,-0.36494073,-1.0723615,-0.61583066,-0.53417516,-0.67356,-1.7879875,0.0044115647,-0.6530211,-1.7237403,0.300858,-1.0315143,0.7404717,0.31795114,-0.46553773,-0.40850616,-1.1912347,-1.0524741,-2.3436992,-1.0024464,-0.6361009,0.122592874,-2.2175307,-1.554553,-1.2523899,-1.2736231,-1.4614861,-1.0843513,-0.19306147,-0.62941325,-1.3418944,0.10822001,0.052442014,-0.1557786,0.0922197,-1.1578155,-0.5232192,-0.46833095,-1.0847411,-1.048943,-0.9898051,-0.48328602,-1.8488238,-1.7986162,1.1732767,-0.795822,0.117874235,0.3288275,-1.2121482,0.21905974,0.2102102,-0.7548395,-1.157714,0.36501157,-1.6779997,-1.8919327,0.08400014,-1.1004698,-1.9154578,-2.0005007,-0.9746134,-0.07820595,0.34294075,-0.21523876,-0.4245252,-0.0032386999,-0.1719847,-0.22929926,-2.0677361,-0.019386392
