0.5460708,-0.08510955,0.35210848,0.34378934,-0.003459246,0.121405475,0.06905512,0.32401678,0.20101246,0.5748198,0.12801039,0.011973625,0.31017184,0.9550829,0.089293,0.37585688,0.23077783,-0.029517077,0.34369373,-0.06783445,0.21999414,-0.009614192,0.2287677,-0.23815142,0.30305758,0.047957785,0.10899943,0.27651936,-0.16133055,0.43652788,0.42449525,0.056435656,-0.027034638,-0.20201378,-0.31245404,0.0982551,0.11003848,0.5348889,1.2896726,-0.1397781,0.47298968,0.022187218,0.0301734,0.07963679,0.4328499,0.17747167,0.50679183,0.00181615,0.2992683,0.39634532,-0.3092407,0.55025244,0.34634516,0.38748837,-0.005390263,0.086731374,0.35644537,0.39376885,0.44560993,-0.059989974,1.0467889,-0.11872129,0.079086445,-0.33977604,0.2424645,1.0761734,0.0660999,-0.160813,0.21033369,-0.041988164,0.2306113,0.24850324,0.06697817,0.40203747,0.24305077,0.12068164,0.6588762,0.15140599,0.4741481,-0.040360376,0.2811687,-0.097486585,0.114187315,0.11916058,0.321515,0.08042221,0.15334097,0.9716351,-0.15536377,-0.42496553,-0.093542114,0.76997715,0.19255382,0.6859981,-0.09051748,0.41425526,-0.21794608,0.44145507,0.33718854,-0.029033791,0.2493707,0.44556528,0.19679289,0.53491664,-0.10122989,0.19933775,-0.345222,-0.11605372,-0.032538846,0.11042169,0.3435453,0.38687322,0.2427696,0.2347795,0.028324211,0.323495,-0.09614624,0.035344757,-0.13100603,-0.0615067,0.4220034,0.15894403,0.18559945,0.14102948,-0.082381114,-0.07146396,0.036507025,0.1028406,0.2959326,0.11728048,0.21664259,-0.048465386,0.056959555,0.28528598,0.14993411,-0.09967282,0.011672828,0.31467736,0.13430572,0.3592564,0.47541672,0.29830208,0.18188295,-0.22260594,-0.35839626,-0.12999225,0.36161065,0.60654765,-0.0808298,0.40772378,-0.14395785,0.069791704,0.10972735,0.5094643,0.19256717,0.039201498,0.11077297,-0.10774629,-0.026943587,-0.32293373,-0.1893501,1.1029456,0.22762892,-0.18558648,-0.09816466,0.6824895,0.21614712,-0.113079146,0.4431314,-0.15574493,0.1729779,-0.04069042,1.0446794,0.19738388,-0.5094969,-0.09087323,1.1069324,0.13998911,-0.08751942,0.6544124,-0.03679868,0.19310386,-0.11138671,0.36247396,-0.19549865,-0.40544555,0.1304864,0.18155742,0.8020835,0.07052368,0.48581675,-0.3512122,0.44235432,0.13682568,0.03905395,0.3534876,0.8174052,1.1274593,0.41066664,0.3068388,0.30670074,-0.045089133,0.2854187,0.028499074,-0.04490664,-0.054824963,0.24428903,0.31757697,0.7665383,-0.26664186,-0.21413368,0.4043976,0.037960716,1.0889683,0.10859388,-0.3338192,0.8029402,0.25491259,0.1402252,-0.12965369,0.14071652,0.44540298,0.2045202,0.5343488,0.08709501,0.14331436,0.21491233,0.51741433,0.15073949,0.61779284,0.3392663,0.21559674,0.31288055,0.26692766,0.43989694,0.008117208,-0.0061589545,0.15277569,0.2159642,0.30357653,-0.13959447,0.4587928,0.312086,0.54760134,0.7138486,-0.18150268,1.2256674,0.26912528,0.1609365,-0.031798974,0.5241631,0.039878536,0.026992759,0.16042212,0.57203186,0.036810756,0.13291347,0.20140412,0.07642296,0.033172555,-0.19347686,0.0398366,-0.022642273,0.1325255,0.1102386,-0.20614323,0.0064471196,-0.1911916,-0.11484411,0.1650887,0.12117523,0.20943867,-0.13532534,0.1280208,0.028194912,0.03190157,0.06257819,-0.013753706,0.1279712,0.3469622,0.23245685,0.12512234,0.21458045,-0.19822095,0.2064024,0.20677862,0.09940216,0.032381933,0.24935876,-0.020009745,0.30975193,-0.36264548,0.123602554,0.22085479,-0.04228411,-0.09851903,-0.047241725,0.16904765,-0.1998614,-0.009095471,0.059166096,0.20958766,0.03329404,0.016140902,0.05819895,-0.057221964,0.11546777,0.08832781,0.13863847,-0.0046964595,-0.19928238,0.032132104,-0.070073426,-0.06382857,0.12266722,0.11808652,0.030162238,0.1455788,0.0075205574,0.058247887,-0.22295132,-0.050230943,0.0077834213,0.029936023,-0.18923798,-0.029534368,0.2846529,0.20307803,-0.039185163,-0.022015609,0.10338645,0.29446873,0.041168105,-0.18494505,0.09727438,0.20114945,0.116848364,-0.43851125,0.08433218,0.0012078893,-0.061996743,-0.05705723,0.20949465,-0.0063205026,-0.039330356,0.0033303802,-0.17366874,0.25071412,-0.15509723,0.18285057,0.19054069,0.09147137,-0.06970848,0.030037075,0.081594065,-0.08544135,-0.030173171,-0.26015422,-0.04332822,0.045510866,-0.05959595,0.1944052,0.32028624,-0.096234865,0.13751128,0.07725204,0.22683558,-0.1514518,0.02798562,0.052768365,0.2628973,-0.17957816,-0.2479867,-0.14340782,-0.09253919,-0.18608887,0.17538694,0.10876836,0.028391674,-0.0037733484,-0.035396263,0.22825328,0.214896,-0.21824193,0.17433381,0.14429682,-0.0657333,0.23071784,0.19561456,0.09833953,0.12752578,0.07427302,0.14980161,0.2193102,0.019661386,0.03658723,0.20413162,-0.06527424,-0.04160665,0.26432818,0.27759874,0.33259463,0.14803188,0.01750303,-0.30407482,-0.16720606,-0.07808986,-0.031051774,0.047089025,-0.0995239,0.15287393,-0.16450417,0.023658384,0.063082695,-0.08436109,0.13415353,0.1873407,0.0053284345,0.041891716,0.47217685,0.24741548,0.02202173,0.119674236,0.051449608,-0.035564024,0.14302716,0.20903996,-0.19043222,-0.054078724,-0.038111433,0.074024975,0.22154605,-0.018525068,0.19080314,-0.014655773,-0.07841498,-0.1926128,-0.108812794,0.09751263,0.27296615,0.26512808,0.14030613,0.13361892,0.0858331,0.05152876,0.23836489,-0.04894906,0.065729566,0.02904793,0.02152373,-0.059554167,0.112656094,-0.15592927,-0.014483916,-0.13383777,0.095227346,0.08370435,-0.10706395,0.109397516,0.008127546,0.23363358,0.13124707,0.011067012,0.09249963,0.31700474,0.22267973,0.24472453,0.033818476,0.076540485,-0.040945053,-0.019270878,0.40085083,0.024776503,-0.11258993,-0.03217659,-0.28486598,-0.045106463,-0.08331012,0.08832438,-0.11477871,0.09926077,-0.019331455,0.09089576,0.08076933,0.27177134,-0.17093466,0.21866205,0.059074014,0.1396241,0.10741219,0.034553293,0.21209851,-0.08932172,-0.021390194,-0.019559994,0.08459368,0.18080282,0.2130759,0.14873782,-0.21058741,0.13244185,0.3304109,-0.19806182,-0.080041446,0.18224257,0.20329013,0.06359224,0.10726379,-0.028675564,-0.2722965,0.22455174,0.16417825,0.6566094,-1.1829215,0.07314349,-0.018499061,-0.41350967,0.03700356,0.1102975,1.2843167,-0.6166095,-0.15989386,-0.026136786,-0.45431444,-0.85808074,1.2816086,0.8586369,-0.859521,0.354314,1.1353168,-0.7166599,0.2348485,0.98512346,0.2528748,-1.1441479,0.37915766,-0.8885429,-0.17410928,-0.4666295,0.26964694,0.5469711,-1.2925925,-0.71304977,0.0062179705,1.5698416,-0.15352067,0.29847154,0.19356278,-0.51854086,0.7943684,-0.13395187,-0.6992239,-0.07734823,-0.7384324,-0.18843037,-0.6164852,0.37061456,-0.50724435,-0.16418448,0.20639162,-0.5586635,-0.18436734,0.077642955,-0.48638725,-0.54150605,0.06880162,0.016443256,0.05876323,0.045703933,-0.59613115,-0.3275302,-0.22335772,-0.35038948,1.5051666,0.16452558,-0.7416184,0.08555448,0.13783342,-0.07834591,0.033137262,-0.38883448,0.05668675,-1.2676908,-0.7776715,-0.18451154,0.15042269,0.29841542,1.8404787,-0.077243835,-0.80957615,-0.27883357,0.05246101,0.06578401,-0.80964774,-0.13651782,1.4869802,-0.11193397,-0.04824257,-1.1473053,-0.62150156,-0.27669418,-0.7497165,-0.39865288,0.9829341,-0.36480415,-0.26247767,-0.06261905,0.38614568,-0.25517046,-0.021549763,-0.28570318,-0.31329548,0.25609857,-0.86551005,0.39826813,0.09447209,-0.38452262,-1.3352501,0.20751782,-0.012870982,-0.100943625,0.25171787,-0.25867504,0.0079119075,-0.072675146,-1.1328075,1.6253972,0.59451723,-0.0591873,-0.14238653,-0.09773266,-0.15779766,-0.17516443,-1.4819317,-0.7975519,-0.09994987,0.027656343,0.46381924,2.061852,-0.0007904311,-0.9692193,-1.9652926,-0.33538288,0.1531236,1.4155159,0.4292942,-0.2924384,0.5164275,-0.2560169,0.4129577,0.8822397,0.2159524,-0.45123523,-0.1625999,-0.100103885,0.88190424,0.21260373,0.92552865,-1.460128,0.047825173,-0.961485,0.39051643,-0.1709283,0.9317825,-0.4302287,0.3323745,-0.32455713,0.6538542,-0.6417061,-0.5283376,-0.27791584,-0.18566963,-0.13537297,0.10703334,-0.018903624,0.86449146,1.5695659,0.0035195414,0.65469015,0.056935288,-0.28767896,1.5896426,-0.57176024,-0.12838417,-0.022879466,-0.1992807,-0.053266585,0.45268297,-0.08065502,-0.72384715,-0.40235525,0.4117087,-0.26400626,-0.3494621,-0.38200107,0.65542513,-0.26616174,-0.8627403,1.4265801,-0.16563657,0.037738517,-0.42639792,0.19349822,1.1601362,-0.010545891,0.08128535,-0.21223742,0.15492494,0.28990245,-0.3656275,0.62977636,0.07041347,-0.010103595,-0.14111269,-0.7239604,0.8269883,1.9999393,1.4495207,-0.03988261,0.1752519,0.51549625,0.7529131,-0.068191044,1.2371999,1.4149988,-0.05391018,-0.16170794,0.25432038,-0.09111948,-0.11918055,0.29537266,-1.048322,0.22500885,0.40051085,-0.011357378,0.05002819,0.120254904,0.4469875,0.22144163,0.0016831274,0.24632451,-0.082691625,-1.0685351,-0.09763022,-1.1578472,-0.6566775,0.20956093,1.5775228,0.6545322,0.13480079,0.48778543,0.11982575,-1.2809274,0.14230819,-0.9735892,0.18112347,0.40493727,2.545741,-0.6034205,0.15427667,-0.24913538,-0.6963935,0.00182216,0.37599927,-0.123182744,0.060108818,0.3930488,-0.87943506,0.104762316,0.17002417,-0.11428559,0.0028162422,-0.04330644,0.13659981,-0.29568565,-0.016975341,0.037762187,-0.038717695,0.17589644,0.19423077,-0.06324798,0.132189,-0.06539196,-0.10914674,0.028650217,0.0072255656,-0.036171354,0.01369888,0.050066642,0.1334615,0.06493209,-0.24917316,0.2665878,-0.017134558,-0.100964665,0.040086284,-0.07710354,0.09322527,-0.053254217,0.19279149,-0.15778989,0.0786853,0.27181113,-0.03436268,-0.09892085,0.14733315,-0.042484224,0.009909589,-0.011056071,0.15640995,0.13024208,-0.054855242,0.11026267,0.3417291,-0.12343341,0.11080837,-0.0141902305,0.057423092,-0.1460791,-0.15715095,-0.005072782,0.21967411,0.32461023,0.010966089,0.30595893,0.37832874,0.15858424,0.11254749,-0.09337304,-0.057054773,0.033360742,0.09189817,0.13229114,-0.07450265,0.013904609,0.12420049,0.11625643,-0.085333586,0.23210967,0.19621116,0.09643097,-0.09698229,0.05739433,-0.01295902,-0.024074584,0.06462536,-0.09323714,0.033540614,0.03379129,0.17868516,0.068845175,0.010287084,0.35902867,0.20104676,0.28003168,-0.17214409,0.059292525,-0.1619542,0.060107216,0.14097965,0.15279153,-0.06832166,0.23742875,0.21125135,-0.009412551,-0.06983958,0.15655258,-0.038519107,-0.05253482,-0.18866803,0.09227824,-0.111404054,0.024673443,-0.15869537,-0.005499033,0.11706971,0.13970459,0.017241057,0.131522,-0.092457965,0.14982271,-0.08196828,0.15298535,0.01921101,0.1532462,0.0558301,-0.052496202,0.0927923,0.0902264,-0.09689375,0.06062904,0.1488024,-0.0062722117,0.2330361,0.07135003,0.15611655,-0.16863355,-0.24883094,0.04984597,0.12882367,-0.18546644,0.018704422,-0.029446106,0.08809992,0.16345787,0.044221044,-0.061056495,-0.05365757,0.17604458,0.19781935,0.087015286,-0.0716864,-0.32827708,-0.15150672,0.30016714,-0.12176257,0.07060051,-0.06875529,0.0009088728,0.026927253,0.03625021,0.04857714,0.038533255,0.16254652,0.056638,-0.09518693,0.10021302,0.12582524,0.121097445,-0.013819862,0.066498354,-0.21502316,-0.004331657,-0.04617308,-0.042193115,0.016243104,-0.08174482,-0.057913564,0.25143182,0.20327133,-0.029431138,0.122043386,-0.114030555,-0.1499775,-0.030619819,0.28594506,0.07206482,0.037446167,0.009029364,0.13215914,-0.036894307,0.19697215,-0.22033039,-0.1365633,-0.035667323,0.09991786,-0.034687735,-0.09170283,-0.13156778,-0.14358908,0.068401575,0.044071045,0.1552251,0.16120857,0.13696021,-0.14173965,0.20803717,0.13532141,-0.08960668,0.09352718,-0.05717638,-0.037486266,0.12660965,0.047734782,0.19067161,0.03943912,0.19649124,0.051635683,0.031880468,-0.03091555,0.04712548,-0.12971964,-0.046494246,-0.10118063,0.064213485,0.07075385,0.067979775,0.13345276,0.091399685,-0.0702215,0.19701806,0.070226,0.12083766,-0.12015013,-0.004627956,0.09983167,0.16732585,0.041984856,0.24726251,0.07445015,0.050040513,0.019169133,-0.041029558,-0.09041296,0.018993225,0.03731691,-0.056143634,0.09252936,-0.028965458,0.26246715,0.041930966,-0.044533163,0.09013406,0.053489126,0.05102083,0.030479243,0.17827833,-0.11625278,0.0648889,0.009791454,-0.034568883,0.13708161,0.070614636,0.22667274,-0.16208366,-0.11151253,0.040018227,0.08347081,-0.19855522,-0.3968615,-0.21949047,-0.000965399,-0.04565416,-0.29988915,-0.1388228,-0.19270247,-0.08655452,-0.17908554,0.046321318,0.0124396775,-0.53226113,-0.13856769,0.11709665,-0.10825576,-0.060844142,-0.23078424,-0.07727841,-0.0867378,-0.23528005,0.06180931,-0.22046012,-0.6744683,-0.26234066,-0.060711462,0.04931505,-0.29590043,0.04840135,-0.44830787,-0.61560833,0.01360523,0.2621693,-0.22209844,-0.2244601,0.10916886,-0.2495601,-0.07013768,-0.07899195,-0.2619417,0.095735535,-0.118638426,-0.16884166,-0.18400508,-0.034872852,-0.28713927,-0.3036207,0.13243708,0.26671296,-0.44943392,-0.35910684,-0.23744474,-0.42513472,-0.2602679,0.15463452,-0.31301466,-0.15825978,0.2407209,-0.02052404,-0.03913463,-0.24587494,-0.09417204,-0.066220865,-0.13579404,-0.579332,-0.23952013,-0.1743052,-0.14469191,-0.010208201,-0.1907615,-0.006240257,0.005429424,-0.108155,-0.49797416,0.08452847,-0.17307839,-0.09575685,-0.015991615,-0.18528318,0.10182324,-0.23015663,0.013475266,-0.12099013,-0.20339252,-0.0059125866,0.26150298,-0.0717918,-0.3472589,-0.04684988,0.026285551,-0.59239596,0.09484336,0.06636271,-0.022393748,0.011218664,0.19956803,-0.24158469,-0.03220444,0.045220576,-0.047342945,-0.031466343,0.009485542,-0.5760304,0.013785298,-0.06321806,0.046825558,-0.16818213,-0.31368166,-0.03607082,-0.25842413,-0.3490489,-0.4036742,-0.04325609,-0.2687143,0.17637283,0.06206529,0.044473138,-0.28120488,-0.25905883,-0.24466613,-0.027846597,-0.49086553,-0.2378532,-0.067526996,0.052710716,0.3263223,0.04132659,-0.5262866,0.13321671,0.121607244,-0.26134187,-0.26635188,-0.1927731,-0.0268686,-0.062350478,-0.0703198,-0.1736128,-0.07531041,-0.07819523,-0.5531093,-0.5352373,-0.5040623,-0.1266956,-0.024812177,-0.3133142,-0.17370754,-0.021435954,-0.03247714,0.039288912,-0.16730092,0.05658112,-0.06014646,-0.07316452,-0.26664793,0.101097465,-0.23199144,-0.12213973,-0.13026087,-0.06479029,0.08137178,-0.39202046,-0.06589945,-0.2421899,-0.25464088,-0.5345099,-0.14913735,-0.1468795,-0.046247244,-0.18477982,-0.048570987,-0.67764276,-0.31036055,-0.1691927,-0.19818987,0.14130282,-0.57276917,0.3181362,-0.07045764,-0.3982848,-0.5983696,-0.4713785,-0.2530486,0.0543003,-0.12963751,-0.061341196,0.19711287,-0.17094707,-0.5189976,-0.0018276735,0.06383328,-0.43149686,-0.2242592,-0.066361204,-0.24414213,-0.32839704,0.10710335,-0.31297258,-0.036355227,-0.0018650012,-0.2403677,-0.40876466,0.08550138,-0.13419756,0.019573536,-0.3448214,-0.41147625,-0.3246321,0.055309966,-0.36085656,-0.15734391,0.21108316,-0.38786882,-0.1864906,-0.13388759,-0.08646092,-0.1472829,-0.049357463,-0.067719445,-0.20174596,-0.553048,-0.26405936,-0.06004941,-0.045097463,0.21016946,-0.43692338,-0.26935726,-0.20896359,-0.19136457,0.014374878,0.062727556,-0.14811756,0.22026524,-0.07020803,-0.0637345,-0.01466076,-0.13019104,-0.37290025,-0.4423173,-0.07199852,-0.071024224,-0.33643085,-0.5284516,-0.28047302,-0.067947626,-0.15512529,-0.20619398,0.21545762,-0.22892502,-0.143006,-0.5183325,0.031008936,-0.112277165,0.05241441,-0.013241233,-0.07820724,0.03922508,-0.042186864,-0.053346828,-0.073693395,0.060831636,-0.010427585,-0.0067029875,-0.10380359,-0.11734762,-0.06615445,-0.09698938,-0.119643405,-0.14278194,-0.12128464,0.064725764,-0.0066077607,-0.002812568,0.05139701,-0.10281852,0.07228035,0.108830124,0.06236442,-0.0980753,0.04910913,-0.17573705,-0.101459235,0.050963547,-0.13496085,-0.10063481,0.016290663,-0.12962475,-0.03671123,-0.05409576,-0.042752452,-0.055941306,-0.058367707,-0.20029971,-0.09451989,0.060129028,-0.047499023,-0.085239485,-0.090638265,0.063789785,-0.011964425,-0.1055323,-0.03848197,-0.051204916,-0.107842416,-0.10289134,-0.08123918,-0.14776671,-0.14893234,-0.05009546,-0.084910676,-0.14956288,0.0061023827,-0.021450344,-0.0031804524,-0.075112045,-0.056382254,-0.008766955,-0.027287941,-0.101162836,-0.08769658,-0.05988235,-0.2131934,-0.06336318,0.042398866,-0.033008188,-0.03680682,0.018986657,-0.13038105,-0.0038818165,-0.081496105,-0.13928476,-0.118826956,-0.14110577,0.01973398,-0.08416208,-0.066299036,-0.026013512,-0.068873465,-0.0895955,0.07213743,-0.05552061,-0.08116755,-0.21609896,-0.03129276,-0.02088045,-0.04714562,-0.110616475,-0.049006492,-0.3128326,-0.16161948,-0.09235568,-0.04923013,-0.111149214,0.0006572278,-0.21556097,-0.03457764,-0.014226805,-0.027782733,-0.056002848,0.028592605,-0.021955423,-0.0055572,-0.0958536,0.015020823,-0.08555038,-0.09587033,-0.0047035804,0.0027994881,-0.05792164,-0.056230947,-0.04045765,-0.15755618,0.04959769,-0.010283025,-0.13259695,0.0130246915,-0.15357912,-0.052268215,-0.10598946,0.058821235,-0.077834174,-0.117603675,0.01609516,-0.038482428,-0.020740692,0.012825813,0.04139295,-0.23425378,-0.041700672,-0.024747632,0.06391292,-0.104538284,-0.0973123,0.047810063,-0.15537438,-0.034756817,0.031848803,0.016143445,0.09829391,0.103463404,-0.006737938,-0.041944645,0.017814543,-0.14416707,-0.005120369,0.021857139,-0.0124675855,0.07205818,-0.107752934,-0.057250667,-0.10082138,-0.03501492,-0.06376526,0.053350367,-0.04031992,-0.022861954,0.03287008,0.012366656,-0.08915022,0.11570542,0.025103282,-0.09031512,-0.07133595,0.11135284,-0.065619275,-0.06612635,-0.1249911,-0.018835528,-0.18344551,0.018589947,0.043385923,-0.11470382,-0.06218409,-0.21276075,-0.0791432,-0.098180726,-0.02443074,-0.012183361,-0.17487133,0.105313346,-0.1709283,-0.039460175,-0.17553963,-0.01294841,-0.09146371,-0.040946435,0.03684247,-0.05924713,-0.1194252,-0.100732364,0.0012234908,0.0010819307,0.02920188,-0.21869852,-0.020681396,-0.11623069,-0.13815719,-0.0033720233,-0.024027001,-0.1608352,0.076154865,-0.06059903,-0.018588632,-0.0545367,-0.1443839,0.015360052,-0.022358421,-0.06953018,0.091463216,-0.123969615,-0.061383206,-0.043489307,-0.01960434,-0.028082177,-0.08759093,-0.111753345,-0.09509659,-0.051411346,-0.10361473,-0.044630803,-0.060610346,-0.06540771,-0.038311638,-0.0032800436,-0.007326373,0.054099955,-0.02724854,-0.09562561,-0.034861952,-0.07813056,-0.10558417,-0.029026771,0.0196106,-0.08825998,-0.026284173,-0.019765,-0.06654854,-0.00841929,0.02297306,-0.14069931,0.03127532,0.002851344,-0.20895612,-0.12605402,0.016966239,-0.07280496,-0.086862445,-0.056137197,-0.035194896,0.06695018,-0.097575024,0.030087192,0.052319556,-0.041291006,-0.020657334,-0.31598616,0.24068019,0.017492816,-0.58263147,0.58098096,0.743071,-0.5972506,0.6242975,0.2371816,-0.27206314,0.13341492,0.10000601,0.04376685,0.19351727,0.09837368,0.29808074,0.047300734,-0.5370842,0.03467787,0.060567588,-0.47705263,-0.09450728,0.2670395,-0.14783803,-0.14473249,0.46640265,0.026872601,0.1623463,0.16130954,0.5777817,-0.15912995,0.2571267,-0.27639884,-0.05901705,-0.42594922,0.0032046956,0.11880088,0.025962234,0.6263164,0.12069757,-0.001957551,0.5217124,-0.035299953,0.07622063,0.037766553,-0.09982954,-0.12192018,0.0135728605,0.8810574,0.78375614,0.15902093,0.9006189,0.1745303,0.31971365,-0.15660937,-0.0951878,0.10762729,-0.21473226,0.1922043,-0.17806344,0.2251997,-0.05478596,-0.09480901,-0.027881857,-0.09884012,0.017297685,0.722489,0.3717472,-0.5000862,-0.15807897,-0.0066956324,-0.1164415,0.025584377,-0.2111962,-0.059347875,0.2089071,0.4456813,-0.10037306,0.7675538,0.4590168,-0.0546448,-0.16194859,0.45147878,-0.4016878,0.09027421,0.5051599,0.4920118,-0.06960843,0.39297402,0.3705297,0.21888027,0.10466021,0.3853624,0.022127286,0.17781556,-0.5137745,0.1448004,0.045567833,0.4524125,-0.2082287,0.10310061,0.15635374,0.075197026,0.3772486,-0.12056933,-0.71268344,0.14188422,-0.0010485994,0.13554275,0.2975694,0.19289708,0.48198125,0.32811525,0.16232711,0.019078422,-0.038863372,0.10113457,0.38031375,0.46394768,0.10551676,0.266006,0.21419567,-0.20793697,-0.6974993,0.23191747,-0.15319301,0.09440431,0.11023073,-0.035192147,0.51869655,0.00985234,0.05931398,-0.098801345,0.032664713,0.10201302,0.7481879,0.42761078,0.14470938,-0.28000984,0.09261764,0.037703667,-0.052281395,-0.053945623,0.14954185,0.49318063,0.30327168,0.14738996,0.20912766,-0.018174622,0.17870799,-0.0129499715,0.14127097,0.7095075,0.029986255,-0.006618398,-0.18143761,-0.16001213,-0.2328484,0.27151453,0.048201207,-0.040221825,0.24584642,0.11740036,-0.43997377,0.14994225,0.11819494,-0.28216392,0.6528487,0.35308856,-0.08778493,-0.121746354,0.033690445,0.48839903,0.08007713,0.07393516,0.502941,-0.12732485,0.31824285,-0.123909496,-0.1950845,-0.05646459,0.7432128,-0.16287327,0.0010377029,0.067018785,-0.44969004,0.45646358,0.07750445,0.39203012,-0.22421983,0.26192302,-0.14903012,0.39721954,0.13520813,0.11897161,-0.017496757,-0.2281923,0.0034456332,0.35874593,-0.13576882,0.7714364,0.016945105,0.55959606,0.22061273,-0.052779213,0.34195316,0.7058226,-0.33529478,0.27064323,-0.13456628,0.047089778,0.17129424,0.15085363,-0.070581585,0.13414049,-0.25130817,0.2035753,-0.16233417,0.5853303,-0.008286981,0.04287661,0.15065597,0.15659454,-0.5053183,-0.03041889,-0.037228003,0.14976299,-0.17018417,0.051581442,-0.01540613,0.1383903,-0.02187553,0.0008340394,-0.08240528,-0.073029235,0.24305192,-0.08388583,-0.09588771,0.32805777,0.36452672,-0.17298588,0.04950854,0.1157527,-0.10234499,0.035597153,-0.07391614,0.036108963,0.17035598,0.31514925,-0.021910857,0.22595203,-0.073092535,0.041129533,0.04430615,-0.052716687,0.30204555,0.46169955,-0.03130336,0.036359586,0.25651437,0.12793046,0.17845684,0.23706415,0.09324379,0.051795945,-0.078813,-0.045530416,-0.05976553,-0.08793748,0.12216097,-0.072167516,0.17152046,-0.11405882,-0.0194247,-0.2623334,0.14410064,0.087857574,-0.03022453,-0.004549101,0.050220557,-0.09309216,0.14077574,-0.07249336,0.25133574,0.05644653,0.30376732,0.017640352,0.16247731,0.14217794,-0.038168754,0.12499072,-0.21450937,0.037822433,-0.11452682,0.08845696,-0.09017347,-0.02759402,0.1644229,0.09120384,-0.108650565,-0.117198855,0.02255278,0.05004655,0.08662222,0.11226995,0.09956723,0.22796023,0.09020521,-0.058059372,0.056401797,0.10160522,-0.046060808,0.012876358,-0.05609409,0.004728268,-0.04047522,0.15911731,-0.034966685,-0.13378686,-0.07874562,-0.15133207,-0.19283478,-0.059881255,0.023515493,0.09102629,0.04833944,0.003839687,-0.037874535,0.08616607,0.14984816,0.02796948,0.5356965,0.17381722,0.030095384,0.27694774,0.035017215,-0.20405251,0.023849145,0.16580853,-0.08587006,0.021898977,0.082750574,0.26172376,0.0040955245,-0.061409764,-0.13289648,-0.052531198,-0.0843254,0.068196476,-0.0631362,0.01869307,0.05811838,-0.05938897,0.00393206,0.2690277,-0.028556462,0.14374653,0.053588256,0.034100465,0.16507232,0.056491964,0.32197198,0.06956838,-0.06895046,0.18195784,0.082537234,0.12575012,0.24736676,0.031363606,-0.13264674,0.05229206,-0.12645587,-0.13200983,0.22057295,0.17578065,0.041916586,0.028956674,0.01712218,0.065908656,0.014396742,-0.075807884,0.011731278,-0.15544483,0.037919283,-0.14528327,0.0646621,-0.107936665,-0.01846689,0.30925217,0.03385289,-0.062061787,0.07790689,0.17039755,0.25068152,0.40345407,0.16115448,-0.087014005,-0.0014357064,0.11496864,0.036666643,0.011498312,0.056061365,-0.034614973,-0.00023992005,-0.051429614,0.07362609,0.027365869,0.15437295,-0.06829093,-0.19189042,-0.09128484,0.083372965,-0.017546475,-0.11787459,0.13977855,0.111337155,-0.11343844,0.18840459,-0.1572654,0.09063409,-0.124725804,0.061546125,0.047205135,0.14189598,0.4696648,0.49940944,0.03736917,-0.12792599,0.090028286,-0.071986005,-0.0804272,0.17963287,-0.10321312,0.15502244,0.1994183,0.10797508,-0.036670238,0.08498132,0.022893475,0.0138944965,-0.022860765,-0.07175754,0.12323396,0.028842367,0.37374935,0.076284826,0.026439939,0.14157245,0.16781583,0.061085697,-0.1697915,0.07829167,0.044173606,-0.060665175,0.19208199,0.089910105,0.14913769,-0.015095845,0.16691136,0.09283991,0.10667947,-0.20626262,0.09581913,0.097018674,0.09615764,0.069896534,-0.006399155,0.0139101455,0.08187683,0.056644112,0.023833364,0.26173505,0.2719329,-0.029358521,0.13409416,-0.010492274,-0.02923153,0.030759785,0.09609777,0.14022353,-0.23619562,0.09917387,-0.09510062,0.046563342,-0.054619282,-0.0920385,0.09218539,0.019106518,-0.035825804,-0.057686433,-0.07226321,0.014391542,0.0444472,-0.02817383,0.11256252,0.22677842,-0.041239783,0.031068597,-0.08624893,-0.17525056,-0.048166946,-0.049802467,0.0676616,0.1450322,0.08142412,-0.2114811,0.07235344,0.20769504,-0.13656518,0.20216542,-0.4867471,-0.2561556,-0.670726,-0.040593676,-0.25807852,-0.26528817,-0.44809905,-0.32786632,-0.41022307,-0.054953255,-0.23231743,0.08349675,0.14366926,-0.13394707,0.5821941,-0.10387458,0.36480594,-0.2886594,0.32471794,-0.12562102,0.73365164,-0.100808054,-0.10840568,0.05468461,-0.28757802,-0.31257862,-0.08411577,-0.42168543,0.043620735,-0.24305639,-0.27762753,-0.38509887,-0.19609246,-0.510007,0.14610498,-1.0665965,-0.10896009,0.70677495,-0.11995371,-0.07896264,-0.052076593,0.41835597,-0.1124095,-0.33083507,-0.1126423,0.09548692,0.4440214,-0.11111751,0.5190055,-0.28247774,-0.2956194,-0.2601998,-0.3534041,-0.33437574,0.47644287,-0.16399474,0.011195583,-0.12295746,-0.11719534,0.28352064,-0.23518355,0.10942633,-0.08258425,-0.46566352,-0.6226994,0.059096396,0.18965076,0.50087166,-0.079760596,0.22218698,-0.36760736,0.015186431,0.101507425,-0.8557191,-0.17810956,-0.39767748,0.19781429,-0.33789486,-0.23166353,-0.04864084,-0.14510101,-0.20102508,0.19460323,-0.072505385,-0.15079537,-0.41436738,-0.39356697,-0.29305083,-0.31108594,-0.14663874,-0.37107617,-0.9558008,-0.25347078,-0.023625955,-0.5191519,-0.4596756,0.23788115,0.10776544,-0.11924125,0.063825145,-0.17846242,-0.220664,-0.07976364,-0.17536837,0.20687947,-0.1288259,0.5181798,-0.1251779,0.1799368,0.0123430565,-0.15691598,0.25578755,-0.38735235,-0.2595033,-0.28542316,0.26978695,0.05615152,-0.37293556,0.25616705,-0.34846956,-0.19165993,-0.20149599,-0.1821137,-0.15729766,-0.25555187,-0.4374411,0.3059278,-0.13823695,-0.2827263,0.17205822,-0.4162687,-0.32608616,0.39788285,0.06278932,-0.48093516,-0.020895924,0.43951046,-0.4866535,-0.35480547,-0.050630227,-0.27949142,0.14128807,0.44795746,-0.0046931505,-0.9043863,0.12890673,-0.2818822,-0.23068604,-0.20629975,0.5782379,0.16187528,-0.3786887,0.16388145,-0.34672076,-0.18821055,0.73109,0.19802915,0.016086187,-0.1168887,0.006186624,-0.048417386,0.14119494,0.20161836,-0.3095709,0.03920723,-0.5349312,0.51966584,-0.2770953,0.14571254,-0.2531187,-0.49274457,-0.13909593,0.015155647,0.7652086,-0.19291355,0.5148996,-0.6401627,-0.27885973,-0.15995048,-0.09934376,-0.06996171,-0.3324908,-0.040688716,-0.28145576,0.08075486,-0.07442941,0.075534835,-0.22749087,-0.20211673,-0.2044358,-0.28028598,-0.248619,0.46563876,0.08137536,0.29455054,0.048072785,-0.40474898,-0.15370181,-0.17624633,-0.28401023,-0.1223605,-0.09914847,-0.35601586,-0.06592989,-0.43977875,-0.44229072,-0.23423335,-0.6359341,-0.22677884,0.1334159,0.10460597,-0.09147483,0.6183276,0.1633253,-0.1680645,-0.8880631,-0.20471093,-0.7088245,-0.44711775,0.40237015,-0.27299803,0.1288684,0.51569104,0.94510925,-0.09645856,-0.23374604,0.3462219,-0.28831378,0.4634148,-0.21476829,0.07001024,-0.28522426,-0.54141027,-0.42506462,-0.12943974,-0.034207363,-0.13382348,-0.2837488,-0.084066,-0.36736465,-0.3057868,-0.17313394,0.66808903,0.009370083,0.21635708,-0.41585517,0.78484094,-0.0054872413,-0.014068118,-0.50137585,-0.31400067,1.0610626,-0.31947207,0.39605764,1.1573322,-0.4408915,-0.30492657,-0.242021,-0.2533908,-0.8260088,0.081684865,-0.20059322,-0.07440905,-0.4977607,-0.7072245,0.47114933,0.0016015715,-0.42063248,0.3567766,-0.12850402,-0.13451093,0.030269006,-0.66009736,0.069028735,-0.28367358,-0.11961879,-0.1614376,0.41604874,-0.31170526,0.0002537612,0.029304251,-0.6594205,0.28847343,0.19804943,0.6998558,0.017549913,0.14530829,-0.12485548,0.039683744,0.056362946,0.62688905,-0.589877,0.21160561,0.3583851,-0.35115838,-0.42011142,-0.014678793,-0.38409603,1.0686512,0.10374232,-0.093676046,0.36496437,-0.55327636,0.8923223,-0.4815129,0.26359993,-0.33730248,-0.21803676,0.115899816,-0.046986807,-0.28836268,-0.106755644,0.66654855,0.49642015,-0.16922227,0.48420018,-0.010397399,1.658554,-0.032263875,-0.34008604,0.0017122345,-0.30906236,-0.042135224,0.2086469,-0.33100778,0.445626,0.0102578085,0.20456843,2.1293182,-0.23900409,0.88425314,0.25415316,-0.13654624,0.09065703,-0.10466288,0.5457585,-0.111264214,-0.22626543,0.057861455,1.5723206,-0.4011578,-0.5251907,-0.36793,0.54659605,-0.05278922,1.0688087,0.09958826,0.30669433,-0.07857214,1.4246409,0.00788841,0.28128487,1.1385627,-0.72074807,-0.4549498,0.74411,0.035708927,-0.2786342,-0.48760572,-0.41487658,0.019206483,-0.18327641,-0.23761947,-0.43343237,-0.2833044,-0.0182653,0.3863573,1.1109536,-0.40895805,-0.013996253,0.5297014,0.17858839,-0.2762636,-0.43855947,-0.44643965,-0.051259063,-0.20813853,0.14292091,0.1899535,-0.23692843,0.6247308,-0.6574122,-0.31789172,0.34350833,0.075330496,-0.29877374,0.24405564,-0.21936774,-0.30512643,-0.36092606,-1.1130456,1.5112001,-0.18651952,-0.028159497,-0.07625808,0.052032735,0.011222646,0.27963102,-0.1747405,1.5450865,-0.4719097,1.374742,-0.17690592,-0.3623019,-0.10691315,0.42121488,-0.20576227,-0.45714882,-0.3522278,-0.09081338,0.004403187,-0.12550846,0.043064542,1.7169781,-0.24573952,0.19347033,-0.010404917,-0.18469124,-0.8451235,0.1898934,0.29586428,0.31531066,-0.2476637,-0.60854805,0.75696665,-0.30360484,-0.3462742,-0.36425498,0.52806956,-0.037076548,-0.3089795,0.6101588,0.19118962,-0.3998123,-0.49794155,0.28343844,0.074028045,-0.2398309,0.36306977,-0.29542387,1.5327847,0.44293416,1.1897967,0.62486136,0.12913066,-0.5778061,0.0054070083,0.02825402,0.71899796,1.4935207,0.75758326,-0.1965333,0.35476354,-0.26803273,0.801095,-0.8076558,0.34263813,0.10969055,-0.07399802,-0.22813034,0.1330365,-0.056635037,0.28107107,0.69954896,-0.17991391,1.0066297,-0.24843341,0.1352604,-0.07002154,0.3958012,-0.49124688,-0.46598774,-0.21642211,-0.85894334,0.011966573,-0.31627592,-0.19890437,1.3384702,-0.73824763,-0.69635034,0.06554955,-0.0146922935,-0.23255469,0.103545666,-0.34596902,-0.20780589,2.016437,0.4511186,-0.5168678,0.5439112,1.1577287,-0.033188984,-0.98496294,0.39358115,-0.20001423,0.5707251,-0.17514986,0.31188995,0.8569297,0.29866338,0.118443586,-0.37767217,-0.56605643,-0.34341332,-0.0697148,-0.080806434,0.0488149,0.18346018,-0.038330436,-0.0034421217,-0.054471266,0.044203028,-0.06541381,-0.026834682,-0.094788745,0.0868475,0.04467354,0.03625665,-0.009666269,-0.08049676,-0.017479744,-0.057246372,-0.07014633,0.034407735,0.03239651,0.052154183,0.017252106,-0.057630792,0.038296223,-0.07507862,0.022250058,-0.022761252,-0.028199062,0.00053188985,-0.024705917,-0.021049684,-0.018407395,0.04085736,-0.04961817,-0.026903344,0.014734057,0.033568442,-0.037288524,-0.03356932,0.010689003,0.0009899102,-0.0037118127,-0.05056578,-0.009021902,-0.024213742,-0.000823231,0.018158786,-0.05627986,0.00094214594,-0.06172285,-0.009842027,-0.038001712,-0.006991788,-0.063513406,-0.044728324,0.051047612,0.013330253,-0.05101366,-0.015210233,-0.057463035,-0.07097952,0.07435016,-0.03455679,0.040182874,-0.033879213,-0.04440492,-0.05275516,-0.08888542,-0.07737307,-0.010650594,-0.029012496,-0.041859597,0.028020684,-0.008921903,0.044828545,-0.031341046,-0.091238275,-0.035196163,0.05287529,-0.014766068,-0.04615348,-0.024592042,-0.07234201,0.059353467,-0.010090208,-0.04371103,0.008402966,-0.013637343,-0.069662005,-0.019968867,0.049625695,-0.064004965,-0.044456914,0.040902913,-0.0069280528,0.038334478,-0.0119150495,-0.028591448,-0.04559306,-0.053461596,0.02743638,-0.01232869,-0.0112192035,0.039939605,-0.07810076,-0.029191937,-0.0013527133,0.013717568,-0.069280595,-0.0054158987,-0.045064714,-0.012941144,-0.05162679,0.10204508,-0.08616315,-0.057524733,-0.0058746617,-0.028163657,-0.08777202,0.02182671,0.03044144,-0.07549815,-0.02006147,0.055398896,-0.0494404,-0.022304516,0.02145365,0.02702595,0.013528844,-0.004222165,-0.029198188,-0.02068543,0.06252993,0.028833073,0.037200324,-0.0314558,0.0011986033,-0.049436808,-0.04054518,-0.026492227,0.028500423,-0.04985059,0.03534962,0.06662977,-0.06947937,-0.06830467,-0.006991488,0.08267632,0.072336555,0.06864772,0.03560461,-0.0028322828,-0.0014349809,-0.05057524,-0.0069389967,0.04217904,0.05802857,-0.019916184,0.024448823,-0.006959698,-0.026915658,-0.0029361781,-0.026288416,-0.009188807,-0.0071424246,-0.019941084,0.059118025,-0.029913716,0.05276902,0.054793302,-0.039702006,0.016261747,-0.037154302,0.08031857,-0.034428567,-0.023355693,-0.07020074,0.0014996482,-0.05978442,-0.058506962,0.044473786,-0.043653615,-0.030941462,-0.044870757,0.010925256,0.04151635,0.033900373,0.06552415,-0.015309843,0.06158396,0.023752265,0.03635576,-0.065567434,0.011832487,-0.052386608,-0.043043587,0.0351668,0.013448009,0.020762209,-0.057137582,-0.051155716,-0.0496685,0.07787777,0.019269658,-0.015681446,0.029716473,0.020246778,0.052200824,-0.009805826,-0.052873787,-0.021066073,-0.016364515,-0.050836846,-0.059257586,-0.014958119,-0.061661333,-0.052709192,0.026371054,0.025930729,-0.06677261,0.029495556,-0.014976516,0.01787981,-0.07524426,-0.058258243,-0.05976983,0.03322756,-0.04038034,-0.055958748,-0.019717935,0.03935618,0.021523284,0.013947567,0.056671686,-0.038775332,0.053470343,0.041067503,-0.023235328,-0.034794994,-0.06465514,-0.048349224,-0.06078121,0.028209716,-0.020432997,-0.030485649,-0.008908726,0.026998097,-0.024638223,-0.017591117,-0.056844406,0.037341036,0.0021642786,-0.0045386273,0.044116594,0.04382194,-0.041321017,-0.06240329,0.04429394,0.072643526,0.058182985,-0.21331215,0.063362,0.0017421785,-0.37618122,-0.3724305,-0.015324738,-0.01860376,-0.12380798,-0.4207418,-0.08348304,0.30471236,-0.26397848,0.16240259,0.15850891,0.27432436,-0.1886251,-0.07197055,-0.45730162,-0.089655995,0.07185245,-0.0060738977,0.061240748,-0.1413131,-0.17441787,0.22222543,0.6580438,-0.488679,0.23950517,0.80881417,-0.020713616,-0.068335265,-0.058209248,-0.26746592,-0.35877347,1.0765572,0.13270026,-0.02414899,-0.07650021,-0.31448188,-0.29888198,-0.3255894,-0.028626429,0.09925018,0.29778248,0.106120214,0.082673565,0.0053947694,0.14570919,-0.0869465,-0.08245328,-0.0059178974,-0.10136388,-0.7759484,0.21712038,0.22890279,-0.48702508,0.006938136,-0.0049051875,-0.15173414,-0.14539838,-0.4557371,0.08564449,-0.16448921,0.057014488,-0.034014948,0.06495492,-0.18434846,-0.5478035,-0.03216654,-0.018438146,-0.2995361,0.05411183,0.61477613,-0.075639784,-0.15479182,0.10013678,-0.76450634,-0.033638448,0.0006911018,0.08540709,1.615514,0.15898618,-0.18551867,0.09960084,0.19461653,-0.14994854,-0.06535894,0.1380465,-0.56973636,-0.23187178,0.07708609,0.0153998025,0.0428788,-0.45937702,0.106015444,0.03278011,0.062900804,-0.10881958,0.13205314,0.1175249,-0.16573226,-0.082510516,-0.031864032,0.16656758,0.038517006,-0.15239787,-0.014429429,-0.28573394,0.21721733,-0.17871496,-0.28851146,-0.08595561,0.21873611,-0.007989859,0.09195525,0.009668073,0.101626456,0.43065563,0.14996108,-0.035984445,-0.08169953,-0.025047608,-0.04246612,0.45507804,-0.39149922,-0.022356696,-0.010178857,-0.17128915,0.31412417,-0.08975442,-0.38115144,-0.38166738,-0.096832246,-0.011341201,0.21194084,0.38081098,-0.028671822,0.3453657,0.06495966,0.27782607,0.047607496,-0.060697593,0.09603974,1.2711109,0.08835197,-0.15539724,0.019486317,-0.37345126,0.08469799,0.14976948,0.48169,0.008891368,-0.074977905,0.047107775,-0.08217777,-0.08994672,0.078517176,0.19962063,-0.29472542,-0.22667494,-0.06432673,-0.0628852,-0.2018349,-0.00029657112,-0.036725096,-1.3165352,0.13252729,-0.12240552,0.27876908,-0.03499437,-0.14053088,-0.17957994,0.09151166,1.0812063,0.21926045,-0.042538084,-0.18805616,0.052414045,-0.24940291,0.44137067,0.041003965,0.088903755,-0.22635828,0.39438987,0.10025571,-0.23136503,-0.13744244,-0.007990587,-0.03663471,-0.026472606,-0.020434536,0.3480767,-0.3970129,-0.14274296,-0.13742995,-0.046825103,-0.13935778,0.29869086,-0.0638569,-0.19105688,0.0016512978,-0.050036535,-0.0019233197,-0.0066864816,-0.061576433,0.041714296,-0.12635025,-0.025090082,0.033857096,-0.14274278,0.21603596,0.28801125,-0.14346948,0.084098905,-0.10708095,-0.26253372,-0.022279352,-0.077449575,-0.38192248,-0.044335462,-1.0148027,-0.20600188,-0.3083527,0.11146781,0.037108548,-0.3103894,-0.36773026,-0.08987597,-0.34272277,0.0010310286,0.08842349,-0.08021484,0.47302166,0.06368765,-0.26588374,-0.039496448,-0.009792788,-0.054435235,0.1362831,0.051063575,-0.3747718,0.78967416,-0.015851716,-0.14719771,0.13205475,-0.29018435,0.02848004,0.13137695,0.018638086,-0.27341747,-0.2197459,0.31063098,-0.124362275,0.12045069,-0.45614678,-0.16866577,0.23160535,-0.072575435,0.00017006337,-0.19866468,-0.030835416,-0.00456424,-0.067537,0.15721989,0.04007554,-0.16406253,-0.21286443,0.018804513,-0.06264474,-0.13516703,-0.09204786,-0.1647521,-0.03269571,-0.07329054,0.008551847,-0.011627215,-0.10460868,0.0774622,-0.06640193,0.4580537,-0.120078504,-0.022389643,-0.118972674,-0.10500091,-0.024375714,-0.08784285,-0.13397446,0.015160941,-0.14278445,-0.06279342,-0.18520188,-0.10081725,-0.111914545,-0.03688901,-0.21368873,-0.035738505,0.3290181,-0.005562974,-0.06211211,-0.017875243,0.43904275,-0.04144837,-0.097834274,0.043692686,-0.073246405,-0.08621584,-0.05642171,0.35858822,-0.12387295,-0.18017398,-0.12481178,-0.092687964,-0.10707566,0.26161414,-0.026877005,-0.041085273,-0.0056382893,-0.052361377,0.017719407,-0.13825116,-0.0932233,-0.06666833,0.05005972,-0.083202526,-0.08148533,0.46769452,0.40216553,-0.03188858,-0.18720992,-0.008096763,0.12497689,-0.06792915,-0.10615339,-0.05201041,-0.022384925,0.13791993,-0.08735007,0.0075121066,0.032249548,-0.018126694,-0.09036717,0.24830432,-0.16092463,-0.20007765,-0.19917521,-0.022760607,-0.14776793,-0.2030595,-0.0073085935,-0.10356458,-0.1597569,-0.18845901,-0.0077533764,-0.14121343,-0.23461543,-0.1408175,0.04188347,0.11363572,-0.027336117,-0.1487672,-0.110863745,-0.00813375,0.02058604,0.13545692,-0.11390873,0.29502413,-0.043715727,0.080281556,-0.12757736,-0.10769202,-0.16545974,-0.087813385,-0.060986564,-0.14535448,-0.07877243,0.1080552,-0.20341627,0.019173943,-0.12019303,-0.24953118,-0.115865916,-0.064025536,-0.13739324,-0.10463272,-0.06622614,-0.054575495,-0.05141867,0.07635741,0.11395581,-0.22450039,-0.07027027,0.27832383,0.07019097,-0.016580747,-0.057305537,0.08720714,-0.049924005,-0.10743691,-0.12385337,0.093619436,-0.029978562,0.33008718,-0.05994927,-0.21584702,-0.1250039,-0.21802595,-0.1802522,0.15849808,0.15779571,0.023408294,0.14049381,0.0034123692,-0.12516154,-0.06670286,0.1709288,0.17087385,0.002442699,0.03359732,0.018606829,-0.002095622,-0.051912606,0.17598279,-0.101027615,-0.20745707,-0.16632415,0.5031593,-0.04828117,-0.09631304,-0.15883537,-0.18851808,-0.18609676,-0.080634095,0.35509232,-0.14045185,-0.09232668,-0.3510679,-0.10820344,-0.10992497,0.011597659,0.032808825,-0.16001716,0.20849687,-0.18128511,0.002505809,-0.11889391,-0.056387816,-0.085204914,-0.1034421,-0.016617967,-0.068722114,-0.017077243,0.094633,-0.099864215,-0.18354028,0.15020435,-0.23697543,-0.028105,-0.08278179,-0.27744913,-0.096833736,-0.02001885,-0.08641841,0.1338436,-0.13478853,-0.06649186,-0.09563792,-0.20095372,-0.030061912,-0.045774467,-0.20189396,0.045465905,0.025613373,-0.07563056,0.08967114,-0.142867,0.13800254,0.03588447,-0.0839087,0.080980316,-0.007877384,-0.024175983,-0.03432054,0.3035931,-0.0755115,-0.015336079,0.4420833,-0.05494629,0.11774586,0.19219378,-0.041472204,0.021217419,0.16410932,-0.08581268,-0.032254033,0.27012932,-0.12901816,-0.106846735,0.038504288,-0.18759,-0.13948278,-0.08879624,-0.098004274,0.06662054,0.28699422,-0.24257064,0.29810366,0.03929705,0.17857188,-0.26433855,-0.0072291186,0.25624582,-0.0032839756,-0.2558198,0.7804177,0.039080538,-0.3626017,0.13070819,-0.085348815,0.05177816,-0.063587874,0.038185675,-0.19659235,0.15657462,-0.12197271,-0.0013624264,0.05192668,0.77781534,-0.001366616,-0.2796576,0.10969897,0.27827543,-0.14651826,-0.05882665,-0.3513055,0.30341107,-0.653396,0.35229895,0.26824316,-0.5650115,0.32737345,0.20132673,0.6664847,-0.23430657,0.14152333,0.23794883,-0.12594259,0.08548245,1.2053001,0.29169577,-0.001545401,-0.088167444,-0.004642125,-0.43645024,-0.24549612,0.19930498,0.078954004,-0.5961375,0.12155821,-0.053621873,0.16425958,0.1810739,-0.016477076,0.6325914,0.1258759,-0.17929703,-0.096723795,0.15974802,-0.17436889,-0.48762155,-0.1595864,-0.029997338,-0.06121014,-0.3571025,0.10329668,-0.6272605,-0.16744077,0.06043426,-0.01995295,-0.58521676,-0.6087978,-0.13302849,-0.52613956,-0.37883767,-0.08804181,0.8928391,-0.16782995,0.067402646,0.10769281,-0.5273401,0.38511676,0.180698,-0.06784263,-0.5267048,-0.111098975,-0.34295803,-0.21423379,-0.14351735,-0.47983676,-0.1447998,0.24443457,0.054210663,-0.13352889,0.026724769,-0.003120799,0.40664077,0.04448544,-0.47341838,0.1864433,0.36543286,-0.32103533,0.43499583,0.11812109,0.5304569,-0.09203981,0.44170952,0.21033815,0.38916135,0.35428166,-0.009172652,-0.14968133,0.24474272,-0.22391923,-0.060977302,-0.31424412,0.37668318,-0.19732843,0.117510065,-0.07731371,-0.041678727,0.15374875,-0.55545473,-0.1704483,-0.24143699,-0.16174713,-0.2975735,0.28120753,0.057516742,0.044823676,-0.22139026,0.79447526,0.75553566,-0.09128884,-0.01260467,-0.08639254,0.062214926,0.18145484,-0.09157506,-0.40122724,-0.20906419,0.19125924,0.15165436,-0.2630759,-0.44193962,-0.15857518,0.72892976,0.54113555,0.5996406,-0.5215818,0.1664606,-0.34197414,-0.04085702,0.23596805,0.35701427,-0.09422715,0.088140905,0.06416489,-0.026167864,-0.19670989,0.61723036,-0.3691823,-0.6157949,-0.16045368,0.112661555,-0.23040643,0.33766907,0.18039277,0.32861453,0.100792125,0.20280153,-0.12610413,-0.18641505,-0.4802081,-0.097442105,0.12278189,-0.20179142,0.23697361,0.57710737,0.05402603,-0.5415915,0.22198915,-0.14022543,-0.12726101,-0.0348794,-0.14077246,-0.06782143,0.51278293,0.3996835,-0.09197613,0.006695499,0.17413259,0.7348518,0.14899454,-0.66349745,-0.1889031,-0.35364032,0.119479805,-0.27033585,0.26696986,-0.14505967,-0.3282895,-0.067065224,-0.24914531,-0.1639157,0.71064746,-0.43911776,0.052349105,0.09056582,-0.18505421,-0.045956716,0.30241564,0.13775627,0.22612472,0.09748441,-0.088806555,0.21213408,0.71288586,0.41517317,0.1823417,0.08550839,-0.094885096,-0.33303773,-0.010459581,-0.06984819,-0.13003615,-0.41295773,-0.071760595,0.293904,0.4060828,0.20882487,0.054157466,-0.06856975,-0.7223754,-0.026511287,-0.056876373,-0.0068931635,0.18163207,-0.3443709,0.24531189,-0.26866907,0.76728195,-0.158104,-0.15386155,-0.2471788,0.05791806,-0.86277044,0.19102669,0.28438818,-0.25567967,0.031304583,-0.23972407,0.2414761,0.18931347,-0.0918024,-0.23806515,-0.41927803,0.07647494,-0.6219226,0.09547738,0.035884544,-0.035331767,0.3226558,-0.44008768,0.14457405,0.8296236,0.6909536,0.063341156,0.29338038,-0.3121281,-0.45052525,0.6689986,-0.15309328,-0.25496352,0.15506229,-0.19347289,0.13234599,0.5520772,-0.124253556,0.36036706,-0.34935534,0.05110262,-0.12686947,0.17178151,-0.3030705,0.015338784,-0.7991978,-0.20829955,-0.10085803,-0.08343988,-0.4354732,0.23965105,-0.22182125,-0.6635256,-0.46864623,-0.09090489,-0.3126825,-0.32116294,-0.6762613,-0.3138621,0.0897403,-0.3878467,-0.2670542,-0.13158819,-0.044236235,-0.16764411,-0.28454977,-0.03072929,0.06047409,-0.104021564,-0.091655344,0.46790585,-0.5518204,-0.31981456,-0.19567557,-0.32340276,-0.6094095,0.60694724,-0.16157036,-0.2732333,-0.523028,0.10528958,-0.30111253,-0.3564877,-0.2898848,-0.09100926,-0.09476337,-0.95627415,-0.14925107,-0.015790246,0.16670588,-0.20540899,-0.05901908,-0.2961527,0.01228164,-0.16643646,-0.68659174,-0.1255153,-0.2357873,0.0404083,-0.9376217,-0.2032105,-0.3494615,-0.27425787,-0.2872271,0.11997089,-0.22615415,-0.32382366,-0.87983143,-0.6199373,-0.42519873,-0.4078816,-0.085483275,-0.99190354,-0.6797708,-0.48148644,-0.08531289,-0.44710338,-0.56728077,-0.29859734,0.12536414,0.1983644,-0.3483562,-0.42607445,-0.08666839,-0.60470676,-0.57855415,-0.2642051,-0.30326897,0.34048808,0.7740605,0.0062947916,-0.22801247,-0.059996266,-0.059161752,-0.7827581,-0.30153424,-0.4870521,0.2900313,0.1126419,-0.34839684,0.21234608,-0.33487958,-0.37027845,-0.6716526,0.050403625,-0.51530373,-0.140982,-0.47393525,0.86771226,-0.40394408,0.3071127,0.48986083,-0.016200947,-0.1960192,-0.032694563,0.17856064,0.6710007,-0.0633055,0.3174485,-0.3450967,-0.3374467,-0.055376112,-0.005048272,0.06702909,-0.013541239,-0.122264326,-0.52427626,0.19288012,-0.38720655,-0.2741611,0.08243587,0.8025093,0.090042464,-0.24193397,0.01655403,-0.26685554,-0.45232147,-0.088337496,-0.047714636,-0.36669558,-0.23123407,0.12214163,-0.092124686,-0.053816915,0.5689074,-0.41525656,-0.439627,-0.15942883,0.14601427,-0.576607,-0.27767426,-0.2945091,-0.57613826,0.59005654,-0.23826718,0.14754754,-0.2698866,-0.09146129,-0.54603475,-0.26342854,-0.31230503,-0.32528538,-0.14775383,-0.45695877,-0.020952916,-0.29131418,-0.09730755,-0.32370275,-0.15130349,-0.7177309,-0.14414048,-0.17135358,-0.50103104,-0.38281596,0.9054278,-0.3082898,-0.25804898,0.26682234,0.050116055,-0.36371827,-0.19270787,0.11917032,-0.026371114,-0.1444063,-0.33257866,0.1854975,-0.46058106,-0.16460311,-0.11132762,-0.25321764,-0.09177687,-0.3849306,-0.40634388,-0.22256808,0.06878507,0.49175712,-0.1527232,-0.63993746,-0.021822434,0.06760268,-0.34381983,-0.44001806,-0.115389645,-0.04955534,0.08031373,0.72268265,-0.5882181,0.06530006,-0.03503995,-0.18300048,0.5395684,-0.16634125,-0.03791359,-0.25950676,-0.10843357,-0.18718725,-0.073817044,0.31651276,-0.33865434,-0.8052522,0.022610603,0.21103789,-0.46522844,-0.123328164,0.3700213,0.0048888493,-0.054314516,0.0065217707,0.70741796,0.10041952,-0.16608527,-0.5903543,-0.10511948,0.48943824,0.07358839,-0.1043409,0.5971266,0.06889204,-0.08964622,0.15994835,0.08887212,-0.096639246,0.0126115,-0.18711415,0.26348054,0.19302586,-0.077192314,0.17606983,0.09766433,0.16737257,-0.15146476,-0.23210855,0.01045757,0.400658,-0.0036206162,0.27825427,0.079286166,0.023721978,-0.25462252,0.5136129,-0.5631252,-0.50156343,-0.0022149421,-0.0006175622,0.19599283,0.19686213,0.05104635,0.261387,0.12178221,0.7257116,0.5222534,0.09836355,-0.18274179,0.117206715,-0.2667352,-0.12098874,-0.018957525,-0.1860131,0.54088557,-0.14879568,-0.05071584,0.21150208,0.061695572,-0.0736458,-0.21097884,0.32667583,0.18594503,0.13337299,0.15342519,0.12224284,0.05337651,0.2569396,0.15500589,0.0530444,-0.34221178,0.045681607,0.11306818,-0.2590703,-0.026005127,-0.0547309,0.31093538,-0.26237077,-0.43111435,-0.06898391,-0.122465715,-0.14633113,0.7391515,-0.2655143,0.024468139,0.07583521,-0.03517808,-0.5849619,0.26980722,0.35227847,0.004635931,0.16731249,0.21099025,0.029536474,0.29905343,0.24574852,-0.10757811,-0.2805425,0.61072886,-0.07211936,0.03295897,0.061895203,0.5134294,0.3555971,0.17283973,0.22234093,0.7017946,0.23523408,0.25498065,0.31808186,0.011824386,0.14663707,0.075376555,0.24412212,0.7057715,0.08679323,0.031129133,0.02726477,-0.018445306,0.5843807,0.02879081,-0.10486629,-0.09490922,-0.1769433,-0.08106201,0.06531286,0.029934697,0.19256312,0.5532761,-0.15012266,0.11870627,-0.32014945,-0.013192296,0.20702688,0.49826968,0.14177066,-0.19988218,-0.005948647,0.31557155,0.27734298,0.019307133,0.1977109,-0.34112802,0.18517485,-0.06603137,0.0025565915,-0.11583848,0.08683531,-0.14921503,0.29991335,0.09353785,0.2461352,0.25070077,0.021333272,-0.34155744,-0.102144524,0.026230987,-0.03720327,-0.06951695,0.088251635,0.2716388,0.21899301,-0.0043822033,0.08876853,0.042193398,0.052507393,-0.03849135,0.41885507,0.5093632,-0.18513665,-0.09118854,-0.19917634,0.11380916,-0.07960274,-0.10077092,-0.074098535,-0.4070307,0.19640431,-0.2326668,-0.45432866,-0.13702497,0.022727285,-0.2196212,0.42724547,0.05257877,0.00026668637,-0.25710958,-0.19758815,0.7395634,-0.2269912,0.058761895,0.50685364,-0.19282222,0.036401175,-0.17213067,0.16032416,0.03646481,0.3810681,0.016228069,0.5037975,0.18610083,-0.16703618,0.454633,0.04924956,0.19969755,0.15152189,0.18384841,-0.30408823,-0.04694905,0.17515577,-0.19319144,0.018202724,0.2594182,-0.07917542,0.024033397,0.09670885,0.3095432,0.13310611,0.12504625,0.16766396,0.24115427,0.5131036,-0.018620182,-0.30816793,0.6908473,0.0074236467,-0.17494577,0.19013688,0.046085395,-0.074683584,0.06759574,-0.05783131,0.26019883,-0.3434701,0.17845456,0.35263842,-0.09550622,0.027704723,0.19377907,-0.26535526,-0.21476069,0.20146737,0.12684269,0.28814432,0.14038055,0.0062126964,0.11174719,-0.05392353,0.5817894,0.018596407,-0.19408119,0.13977273,0.09392838,0.018368283,0.019122783,0.043685816,-0.29402035,0.05857957,-0.0800253,-0.1709201,0.15656699,-0.054111853,-0.18203983,-0.11540826,0.31665546,-0.13565925,0.227952,-0.52464557,0.42846966,0.4119172,0.08957863,-0.5221701,0.24460259,-1.2351265,-0.07708606,-1.0608904,-0.088775635,-0.042469576,-0.6321906,-0.15054908,0.28892493,0.27857482,-0.3106209,-1.0558743,0.40784493,0.066500686,-0.66977257,-0.44533858,-0.37092495,-0.30243117,-0.7601706,0.70059943,-0.50218517,-0.72912616,0.280788,0.3179906,0.05827163,-0.543712,-0.39013213,-0.4770885,-0.612158,0.825469,0.56566477,0.12878759,-0.27995533,0.30615693,-0.819321,-0.6522944,-0.17571959,0.13181934,0.06548897,-0.68943673,-0.44606805,-0.45241606,0.08969146,-0.14744455,-0.14859101,0.0753088,0.23941125,-0.69886625,-0.50387156,-0.1308052,-0.93436,-0.42583793,-0.04472086,-0.33123475,-0.41226402,-0.2986064,0.050822273,-0.5316698,-0.15876645,-0.04574879,0.04566146,-0.3793736,-0.5071558,-0.059568852,-0.5824648,-0.7021543,1.0241158,-0.12407275,-1.0737702,-0.4063363,-0.2657693,-0.4986074,0.020202879,0.1395303,-0.19835745,0.30205792,-0.10725209,-0.25414193,-0.36178702,0.097853966,-0.51531386,-0.740391,0.7912171,0.6556207,-0.036134616,-0.12701832,0.58644265,0.10376397,-0.5316843,-0.35145754,1.3639165,0.22005445,0.010335814,0.9786104,-0.48811823,0.6355905,0.05804724,0.16139407,0.7607232,-0.14787713,-0.21958326,0.06671565,-0.6569651,0.6966215,-0.29967612,-0.768741,-0.26806977,0.17302585,-0.38444823,-0.24542114,0.0032586136,0.41206437,0.8442553,-0.2747838,-0.5674956,-1.0323802,-0.20541923,-0.3450786,0.82277274,-0.38820386,-0.50975037,-0.16933271,0.097935565,0.6332293,0.11683334,-0.2677698,-0.8832463,0.2279197,-0.8169736,-0.5383147,-0.65409565,-0.9258994,0.010413591,0.08674145,-0.47244346,-0.39401758,-0.25089824,-0.10284726,-0.014464992,-0.1378218,-0.45077032,0.05319352,-0.10536793,-0.34442365,0.66188276,0.40747285,0.044029344,-0.33006275,-0.3103951,0.061387718,-0.49311525,0.6112819,0.5668014,-0.7830428,-0.4276331,-0.12090823,-0.6277393,0.25053352,-0.079397105,0.12055852,-0.9251566,0.54571503,0.066339135,-0.9604775,-0.7157761,-0.050798576,-0.44699532,0.3208419,-0.46928376,0.066760816,-0.25830907,-0.76758933,0.7700977,-0.37460995,0.41491425,0.5020833,-0.6268611,-0.48759198,0.2525205,0.5841098,-0.19939175,0.16564465,0.028515827,0.5288277,0.12950346,-1.4805696,-0.12435215,-0.121691845,0.14050774,-0.3841805,-0.25445998,-0.5040149,-0.6388997,-0.0007734987,-1.0329413,-0.092532635,-0.014644077,-0.88135004,-0.3039587,-0.033387043,-0.16976994,-0.19502643,-0.18273014,0.13227607,-0.18081239,-0.43373865,-0.71282625,-0.46269917,1.2793229,0.08407667,-0.093935594,-0.025060851,-0.107358634,0.010413696,0.058930773,-0.086565346,-0.24383809,-0.6987642,-0.41010195,0.030045293,0.60434127,0.052482955,-0.08533186,-0.9890021,-0.71439064,0.08984162,-0.13202795,0.40215093,-0.06723936,-0.0447199,0.14391084,-0.071438156,0.40166086,-0.17919838,-1.0440648,-0.42588735,0.21466422,-0.48630515,-0.02494486,-0.1392568,-0.52843475,-0.17326893,-0.6212851,-0.3975569,0.12280748,-0.2736619,-0.57345486,-0.35063148,-0.031680655,-0.84509516,-0.0258599,0.032861,-0.1103989,0.10605143,-0.14225507,-0.26789534,-0.009867409,0.021280214,-0.036823567,-0.19382644,-0.12536752,-0.059670866,-0.13536257,-0.14642477,0.14738369,-0.21682361,-0.37183788,-0.09369592,0.074267805,-0.10940157,0.030870235,-0.14815578,0.021057636,-0.014198147,-0.06551008,-0.12425637,0.033641607,-0.41530818,-0.10727739,0.103716746,0.00033697614,-0.28495562,0.07352348,-0.2525462,-0.19840848,-0.32869005,-0.12386196,-0.08238316,-0.09642148,-0.080786705,-0.24908116,0.095239684,-0.019180857,-0.13271007,-0.070409894,0.0069801006,-0.041186217,-0.13532065,0.090420246,-0.059302554,-0.1749301,-0.13532558,0.33795452,-0.3100934,-0.25587368,-0.112360954,-0.17080066,-0.21980605,0.18873307,-0.038609687,-0.02894932,-0.046434954,-0.03508445,0.0176196,-0.051542737,-0.07323271,-0.13434747,-0.024189197,-0.27450913,-0.060374044,-0.021113914,0.05248311,-0.15800297,-0.0060518887,-0.06592575,0.13790037,-0.0502972,-0.33391243,-0.069156036,-0.10229904,-0.025828052,-0.27855974,-0.17462187,0.12710936,-0.12793674,-0.15928361,-0.008967541,-0.0838323,-0.2980392,-0.062147114,0.08456464,-0.15494406,-0.1889331,-0.056937642,-0.24730489,-0.018416341,-0.24432254,-0.10922384,-0.1775521,-0.1930157,-0.15720381,-0.03980823,0.11861245,-0.025469847,-0.1910865,-0.17406526,-0.034158885,0.03216438,0.015777158,-0.081244886,0.025343908,-0.13039073,-0.0032949806,-0.15128869,-0.15126637,-0.124605194,0.0019725366,-0.1224145,-0.25008884,-0.18108198,0.12032385,-0.24655552,-0.1043468,-0.14484309,-0.20449273,-0.25647175,-0.01735168,0.018444339,-0.15894186,0.22453523,0.026606757,-0.20658761,0.076461576,0.13802448,-0.22927767,-0.15053315,0.017996427,0.09266103,-0.016194433,-0.11544117,0.018919645,-0.22032982,-0.12675387,0.057863347,0.033842858,-0.10906797,-0.055923596,-0.074565336,-0.055662595,-0.07561777,-0.20067582,0.061647102,0.115946814,-0.08275534,0.05847288,0.021137696,0.010570503,-0.17724901,-0.16198677,-0.013059902,0.08569309,-0.08759445,0.17046463,0.14379609,-0.10355647,-0.0063702688,-0.030126086,-0.03204351,-0.42567694,-0.10419087,0.052434765,0.10569669,-0.05865226,-0.23706156,-0.17121832,-0.08231251,-0.14563592,-0.07283746,-0.14257208,-0.34230062,-0.14914879,-0.16185401,-0.14597431,-0.21178469,-0.04084669,-0.1813658,-0.01884415,-0.15475379,-0.084043115,-0.07064902,-0.17539932,-0.085630074,-0.03780953,-0.06776963,-0.26139706,-0.13103877,0.024337314,-0.1286186,-0.18508887,0.15155622,-0.1854509,0.10904072,-0.10255815,-0.05698844,-0.11665808,0.053629998,-0.14073433,0.111283466,-0.15743974,-0.096028626,-0.19816048,-0.0028784305,-0.079115234,-0.06577065,-0.1750232,0.020975167,-0.13672209,-0.07955017,-0.045421965,-0.07063861,-0.038900018,-0.05052828,-0.23913881,-0.2518158,-0.15801272,-0.14761448,-0.028271183,0.15429616,-0.19086677,-0.24763072,-0.11009838,-0.0063628796,0.14320615,0.2589373,-0.12933332,0.1546441,-0.06390668,0.0338443,-0.18336605,-0.03769464,-0.22149444,-0.21543834,-0.020142412,-0.03293906,-0.18885252,-0.15736455,-0.106176764,0.021236554,0.05165445,-0.16960837,0.23136556,0.014579689,-0.012084663,-0.15994331,-0.03207291,0.0785552,0.06050667,-0.08705665,-0.024620848,0.1518524,0.038067766,0.103947654,-0.024305016,-0.042643473,0.07888481,-0.2722873,0.29502362,0.6708033,-0.19143218,0.44549456,0.4298746,-0.094010144,-0.12861946,0.0112301875,0.22751449,0.19406438,0.026600134,0.20719045,0.016445909,-0.29557383,-0.11657536,0.17692858,0.019470489,-0.20736006,0.32146087,-0.05502855,-0.22322501,0.1832588,-0.04794649,0.13224769,0.17391202,0.7138263,-0.26082823,0.24410197,-0.08451821,0.07210194,-0.22622633,-0.10733645,0.029200401,-0.05664935,0.39768994,-0.09315993,-0.06391525,0.29245788,-0.03834825,0.026804121,0.014837254,-0.14675498,-0.05587049,0.08636749,0.57071966,0.35950714,0.0099092,0.2357467,0.19191316,0.18682799,-0.15079603,0.034883454,0.06374921,-0.02659541,0.058407538,-0.13396269,0.16100371,-0.100323886,-0.2960704,0.03176131,-0.07905252,-0.058552817,0.3037335,0.17057455,-0.2808636,-0.0064212605,-0.027858756,-0.23666659,-0.093071185,0.15319133,-0.0094135385,0.18992653,0.27083004,0.061834775,0.42714858,0.22617263,-0.10556181,-0.19888419,0.31503463,-0.19514808,0.09816149,0.38111603,0.6034831,-0.13376284,0.18081623,-0.06866814,0.21608791,-0.050557714,0.13451356,0.25451356,0.071132965,-0.27372396,0.1594837,-0.0815332,0.48031777,-0.16802648,0.12652725,0.098573565,-0.0054084985,0.37924355,-0.037947625,-0.29923138,0.028133515,-0.024032313,0.16691752,0.06436476,0.06207499,0.6436853,0.25010502,0.11757238,0.014773883,-0.17523398,-0.016297216,0.24418512,0.5684056,-0.010782566,0.24705,0.14515878,-0.21567035,-0.4768437,0.07740715,-0.10604119,0.10861032,0.12418573,-0.16515747,0.33119708,-0.061240185,-0.04368879,0.08172488,-0.015372919,0.06885767,0.24654579,0.2728339,0.2661981,-0.043240912,0.15053008,0.012944993,-0.030635338,0.087678716,0.096319795,0.29994398,0.5971619,-0.0045401575,0.13397714,-0.072799996,0.087056264,-0.055631712,0.4485678,0.22486648,-0.06523943,-0.064848796,-0.09477485,-0.14252126,-0.11234537,0.239984,0.14157262,-0.00875623,0.7047994,-0.09705059,-0.00982829,-0.08858012,0.165151,-0.054453973,0.43127316,0.24337065,0.1180017,-0.039525405,-0.053421788,0.29477775,-0.08177334,0.18644105,0.33485138,-0.14342529,0.14356494,0.032836758,0.0002061458,0.055693187,0.34246695,-0.109718636,-0.06950355,-0.01700157,-0.11818221,0.22464949,0.06612739,0.3793646,-0.035508737,0.18520269,-0.13005337,0.02543867,0.06140493,-0.062570274,0.06480632,-0.25983888,-0.017974883,0.34294593,0.05640413,0.29637784,0.028321983,0.40567476,0.22659017,0.07804395,-0.010764681,0.5195831,-0.24405777,0.22149211,-0.022429809,-0.027286284,0.119749635,0.018159598,0.1188971,0.029544542,0.041756824,0.16706976,-0.1935111,0.39015996,-0.060824387,0.1650972,0.09316496,0.036486227,-0.19013646,-0.13790199,0.19446772,0.06990044,-0.08297077,0.038430452,0.029650027,0.0711066,0.044860758,-0.08785562,-0.0118937,-0.209795,0.09720415,0.07954396,0.10862118,0.17776725,0.447822,-0.2199671,0.071160145,-0.07565588,-0.10226302,-0.008947872,-0.054536235,-0.07007839,0.020163272,0.305551,-0.10782552,0.47435045,-0.18135744,-0.20056844,0.20384544,-0.11532393,0.5366513,0.43962324,-0.13342685,0.148781,-0.109756604,0.31228667,0.05073626,-0.12767756,0.5134784,0.5366018,-0.31499577,0.013384384,-0.22444308,0.114697605,0.17876391,-0.034948163,0.59672046,-0.018371336,0.22915718,-0.475102,0.08833669,0.043407716,-0.73039085,0.41011977,-0.17838556,-0.34960198,0.2635976,0.21493685,0.45225555,0.14767887,-0.022238046,-0.50393426,0.32812387,-0.12682804,-0.17329498,-0.039914757,-0.3881598,0.027216287,0.014751166,0.2317405,-0.42409337,-0.05844068,0.5076636,-0.057675973,0.12769723,-0.021249797,-0.25494897,-0.13000467,0.4335153,0.21154547,0.19317701,0.30403066,-0.023599312,0.04975661,0.20546088,-0.10842058,0.19823624,-0.04378237,-0.3662756,0.09339403,-0.12541422,0.17801714,-0.22761717,-0.8998637,-0.11444597,-0.38885838,-0.42701977,-0.12404045,0.22286204,0.03010311,0.22384983,-0.036447838,-0.96700025,-0.14084536,0.7017193,0.10094766,-0.6240959,0.32400608,0.18453577,0.4148379,0.13205376,-0.26778582,-0.29202136,0.10233572,-0.36828762,0.11272989,0.4729215,0.004861975,-0.21959859,0.2965869,-0.11928651,-0.11224528,0.00076044945,0.18230629,-0.13363409,0.20298351,-0.26407284,0.1401089,-0.069321215,0.072515845,-0.29948914,0.279803,0.14452699,-0.19796452,0.43280137,0.21155488,0.056772687,0.06344627,0.048528202,0.5415381,0.22538254,0.04960259,0.24977446,-0.123475835,-0.1699833,-0.12593107,-0.40884882,0.022617567,0.427288,-0.006440587,0.38593304,0.26269823,0.11666916,-0.44309822,-0.41628516,0.104043156,0.3811884,0.34419906,0.22291559,-0.26480573,0.14544828,-0.1774435,-0.07356942,0.2184737,0.08935681,0.15957889,0.12948164,0.27167654,0.25816727,0.023082629,0.274868,-0.22838387,0.05188707,-0.070681915,0.23699223,-0.058313794,0.47058302,0.12843326,0.15669101,0.040666565,0.12574285,0.047609046,0.14321187,-0.19571894,-0.30259675,-0.24225472,-0.14622536,-0.14014652,0.39040753,0.38875297,-0.03148917,-0.115805894,0.3295145,0.024614524,0.1919555,-0.47062743,0.13333167,-0.1214858,0.19450682,-0.24568284,0.58451045,-0.1083457,-0.39471334,0.040674902,0.046972044,-0.095732756,0.17232484,-0.14202671,0.3042577,0.13986653,0.17431867,0.1976793,0.010394771,-0.05489015,-0.06398426,0.17174828,-0.121906444,0.14522365,-0.06538971,0.41844365,0.3907449,0.29858476,-0.060059115,0.16384763,0.11736961,-0.30189097,0.103931606,-0.33092862,-0.15575601,0.6548362,0.17314902,0.36193243,0.052850187,0.51205564,0.54170406,0.6380884,-0.3013005,0.41282836,-0.15061879,0.022378977,0.3144971,-0.12820616,0.17956449,0.18369514,-0.049745984,0.058407903,0.18544213,0.50348324,-0.4757191,0.3592648,0.054678768,0.0710766,-0.022530302,0.43817455,0.07249634,-0.4589277,0.53445894,-0.042251438,-0.27264386,0.11854169,0.34345746,0.17369947,-0.08935201,-0.16208506,0.16793987,-0.28643292,0.31572592,-0.07007845,0.23228991,0.23313764,0.69139147,-0.092657045,0.113481104,-0.21888134,-0.21952972,0.038303517,0.06689987,-0.0070934594,0.101154104,0.1985487,-0.38421178,-0.28337854,-0.51406634,0.2659666,-0.26013207,-0.28864044,-0.33310783,-0.07246332,0.5314839,-0.3904099,-0.5204785,-0.315238,-0.20000003,-0.07009761,-0.35184437,-0.26451695,0.15717542,-0.33734995,-0.96168125,-0.2319879,-0.208377,-0.046463475,-0.59951687,-0.38559783,-0.017027799,-1.1243052,0.2600618,-0.19797534,-0.4714135,-0.18769445,0.83195496,0.014742976,-0.47818333,-0.4068525,-0.32786813,-0.55244434,0.11807734,0.3046537,-0.30426913,-0.34847707,0.13340122,-0.68482405,-0.5003124,-0.1518735,-0.27980798,0.0036965404,-0.7990496,0.03370116,-0.43475533,0.25885946,-0.31648082,-0.30118722,0.21045446,-0.28397226,-0.48643702,-0.7483604,-0.293118,-0.3002817,-0.32537547,-0.19124529,-0.2570658,0.06048638,-0.6808418,0.5971671,-0.37530637,-0.1923608,0.039140128,-0.16980791,-0.7610858,-0.21232256,-0.3624634,-0.72226286,-0.7352394,0.7204237,0.10100434,-0.3269036,-0.54829025,0.13884905,-0.4343066,0.12177503,-0.4477381,-0.3082962,0.7926269,-0.2446215,-0.5262433,-0.49649775,-0.022132747,-0.48014534,0.14830251,0.30547625,0.7033956,-0.26179123,-0.39326045,-0.27627796,0.2579555,-0.5617757,0.21685684,0.71218604,0.32026142,0.06268039,0.6525792,0.29285508,0.038120586,-0.40357053,0.46780273,0.011828989,-0.051234245,-0.30840468,-0.3167351,-0.34072345,-0.26673454,-0.5299847,-0.11639179,-0.5806247,0.23790333,-0.31201923,-0.33262974,-0.40449572,-0.6821661,0.27141747,0.20353454,0.32422596,-0.0010002482,-0.6298162,-0.55226195,-0.077937186,-0.45709947,-0.43049455,-0.25396997,-0.15636575,0.653089,-0.43459243,-0.26605493,-0.7113502,-0.3637663,0.13566372,-0.4062792,-0.5069262,-0.06838845,0.3226514,0.08011013,-0.5018793,-0.4215897,-0.37481266,-0.265054,-0.016200742,-0.33867848,-0.5945529,0.09057088,-0.6744498,0.007300331,0.30179316,-0.67615056,-0.128852,-0.14981839,-0.17956936,-0.45800975,-0.3368649,-0.37657565,0.36590782,-0.70666146,-0.29869238,-0.01887044,0.44915137,-0.22654843,-0.14060539,-0.19645372,-0.61521584,-0.71759236,-0.7902272,-1.0548174,-0.77105665,-0.3995805,-0.24114023,-0.27370185,-0.25326166,0.039732963,-0.22014597,-0.8653879,0.39830863,-0.4810598,0.76126444,-0.30067143,0.0056440434,-0.6765126,-0.03661512,0.1538482,-0.3298299,-0.29982376,0.041095063,0.38375407,0.115438916,-0.059005942,-0.21104708,-0.47193217,-0.5909362,-0.27848727,-0.42373765,0.021862924,-0.66560185,-0.23774227,-0.1458223,-0.0649244,-0.09617637,0.10269256,-0.3627833,-0.23175195,-0.43878913,-0.21338496,-0.5941566,-0.34079075,-0.29485995,-0.31662476,-0.57243216,-0.011739614,0.5708266,-0.15817769,-0.3440439,-0.21710315,-0.4999879,-0.60335016,-0.1508532,-0.13895327,-0.5211098,-0.49743316,-0.36192906,0.22881614,-0.06455578,-0.44588262,-0.32324576,-0.6144565,-1.0722073,-0.28947616,-0.326081,1.0663667,0.1666783,-0.6962443,-0.36328304,-0.39435256,0.20631337,-0.49907526,0.16044125,-0.5366068,0.078207426,-0.4320653,-0.46949992,-0.5061332,0.27978468,-0.16189532,-0.39711004,0.20834753,-0.2876377,-0.288832,-0.26107985,-0.4248845,-0.3483659,-0.7937503,0.10573965,-0.2053724,-0.08151406,0.10883412,-0.073033735,0.031558163,0.114651404,-0.020642739,-0.016545642,-0.31922424,0.14576,0.30830526,-0.27065158,0.34651643,0.45275635,-0.065038905,-0.036971956,0.09026289,0.05898002,0.032412894,-0.055787046,0.24173358,-0.1880787,0.12973356,-0.40779656,0.054451343,0.25686735,-0.40495113,0.44112682,-0.08677375,-0.18419193,0.006711331,0.19208145,0.061254703,0.012460522,0.48575848,-0.0724355,0.28797615,-0.07415837,-0.07331385,-0.19021343,-0.24734215,0.038222298,0.0421025,0.23999028,-0.35677585,-0.12271957,0.15244633,-0.04929126,0.057801,0.10877268,-0.18509354,-0.090953484,0.021357853,0.07009582,0.19033292,-0.08267918,-0.054244332,-0.057653338,0.17022723,-0.10611351,0.32715476,-0.020014193,-0.18084171,-0.032157116,-0.13396138,-0.009950407,-0.122462794,-0.56281066,-0.014909572,-0.40215015,-0.2814375,0.012137257,0.5013286,-0.03506392,0.035743833,-0.12268469,-0.52524424,-0.18555589,0.29888237,0.019793052,0.061598506,0.081453204,0.15421355,0.13245696,0.031951465,-0.2539404,-0.20195484,0.14313748,-0.15093991,-0.014656523,0.34048718,0.18555439,-0.18483034,0.09513087,-0.055426225,0.10387097,-0.12514906,-0.06587386,0.16301388,0.004554251,-0.29307926,0.080077305,-0.1564804,0.19795321,-0.22921968,0.07864218,0.11483003,-0.20784894,0.2156331,-0.029671011,-0.15693225,-0.009780683,0.116623916,0.27551028,0.08982018,0.06654869,0.26026207,0.03323569,0.01799047,-0.090583265,-0.3279376,-0.006555232,0.107551694,0.367141,0.020620048,0.34412238,0.13219187,-0.2785855,-0.18626133,-0.008229989,-0.0071489224,0.39322808,0.13364553,-0.15052345,0.2183103,-0.2132501,-0.045007423,0.24200895,-0.046816923,-0.03856686,0.025203425,0.05335975,0.5405154,0.30155516,0.38582343,-0.21442816,-0.09760426,-0.0044324957,-0.0066826968,0.1817622,0.58208656,0.07169574,0.08188662,-0.0653984,0.0074885264,-0.011470284,0.35988423,0.061264977,-0.37667096,-0.2207433,-0.097104415,-0.13591358,0.2922113,0.341495,0.15731016,0.0070938226,0.5697271,0.0038531036,0.33322388,-0.35499263,0.026608363,-0.0970175,0.11971357,0.32036585,0.2792555,-0.08626217,-0.3563063,0.10895839,-0.019699957,0.051994093,0.037979037,0.005033786,0.13522163,0.15090111,0.16705069,0.102379866,0.04780291,-0.053931832,-0.07701273,-0.0093977265,0.03695465,0.038659588,0.16060326,0.17740911,-0.009567607,0.03589347,-0.11310319,-0.046422623,0.046808414,-0.12344976,0.074319385,-0.22162482,0.028365612,0.5132884,0.057008125,0.21846157,-0.06508184,0.3874085,0.35378993,0.116447955,-0.004891554,0.34958428,-0.17529511,0.106249586,0.06943302,0.06953426,0.058252707,0.09551805,-0.08828099,-0.00091354153,0.06355657,0.091338605,-0.32732493,0.19317406,-0.11103974,0.21589875,-0.0593516,0.1242453,-0.20651817,-0.4405347,0.12305854,-0.009638475,-0.09305361,0.011362404,0.25855035,0.07516348,-0.017211566,-0.02424882,-0.013474207,-0.2541002,-0.030990332,0.008982059,0.14210537,0.14959568,0.6194681,-0.078498356,0.08080897,-0.18134722,-0.030693598,-0.026066951,0.048948325,0.07674539,0.0070250873,0.1571478,-0.31139287,0.05142068,-0.13435814,0.0598965,-0.048100572,-0.020650776,0.21396469,0.31364506,-0.0140868295,-0.0075583206,0.04795058,0.22800782,0.18804163,0.18157347,0.067830704,0.17005806,0.06254356,-0.13027763,-0.15589803,-0.027376477,0.18662933,0.020071167,0.23610374,-0.049246714,-0.006170528,-0.23378919,0.19561285,-0.047077753,-0.22572091,-0.020364325,-0.048577506,-0.05966187,0.19732016,-0.05372309,0.2911898,0.025593806,0.26994383,0.11300321,0.083827265,-0.16401693,-0.00366556,-0.12411256,-0.14111292,0.028605208,0.0012511832,0.14097282,-0.27705723,-0.083733395,0.22314933,-0.040536135,-0.001560182,-0.04867053,-0.076401696,0.1514432,0.13617325,0.142813,0.12070145,0.049220677,-0.044839844,-0.012433261,0.08436761,-0.20574847,-0.0328309,0.048292212,-0.06821439,-0.03348621,-0.20161584,0.17685759,-0.15838796,-0.18216935,-0.0930054,-0.19017655,-0.22139227,0.015408207,-0.09974955,-0.035146557,-0.047796484,-0.1519784,-0.18269849,-0.0687356,0.3990528,0.0128840115,-0.082154386,0.16666362,0.037445385,0.2045897,0.10162181,-0.18981016,-0.20129365,0.3082449,-0.07013084,0.09492397,0.028877854,0.3649308,0.016785108,0.026285022,-0.06806227,0.091357075,-0.012148305,0.07021192,-0.01655192,-0.04746061,0.10185503,0.030989248,-0.07303186,0.40660244,-0.03916186,0.044685535,-0.061300535,-0.07228699,0.2057228,0.0106312875,0.079943255,-0.06342746,0.014010277,0.06614013,0.026539907,-0.007268765,0.29456252,0.0035017347,-0.30511415,-0.012315458,-0.16980167,-0.0824959,0.21233453,0.23540562,0.08905947,0.046074875,0.039189294,-0.024996717,0.14638932,-0.0530247,0.12374116,-0.07866961,0.036864012,-0.053895973,0.11706966,-0.12786907,-0.025311332,0.11719212,-0.08401707,-0.009850601,0.090053536,0.1920541,0.20718361,0.10351206,0.13526648,-0.17907251,-0.06494028,-0.052949786,-0.040393084,-0.04518102,0.24477212,-0.068078324,-0.038124897,-0.049482174,-0.06747687,-0.033528022,0.24448869,-0.15115088,-0.17163342,-0.070479944,-0.11905937,-0.014699725,-0.111425266,0.08771099,-0.061105393,-0.096707776,0.36187226,-0.10647179,-0.09141879,-0.17146352,-0.05931636,-0.13238847,0.26378345,0.24283642,0.25951216,-0.09850587,-0.254539,0.2813829,-0.045652978,-0.12994158,0.3178386,-0.07167703,-0.037445784,0.10523133,0.1279901,0.04088307,0.14213926,-0.06957455,0.08618608,0.0012179575,-0.055086993,0.13741621,0.012884776,0.34289637,0.012519233,0.04839131,-0.1757522,-0.051964,0.04475251,-0.19098976,0.05185111,0.028269319,-0.086769864,0.15635394,-0.030412503,0.27627936,0.0041876193,-0.007048837,0.10919212,0.14883299,-0.062479354,0.13266098,-0.23280352,0.17850067,0.085688576,-0.054736853,-0.012956135,-0.03397052,0.020934992,0.038206175,0.20900203,0.25104082,-0.15819275,0.20400932,-0.0015902389,0.015652921,-0.0027860838,0.08869641,-0.006695708,-0.2771926,0.22504014,-0.039382357,0.027392775,-0.0688138,-0.02573082,-0.029985946,-0.018942155,0.024571413,-0.09492675,-0.13738763,-0.013618078,0.042327754,0.0018504702,-0.01462624,0.05860122,0.012501478,-0.013963001,-0.12679061,-0.0358167,0.08856523,-0.09053333,-0.08374527,0.034310445,0.080210105,-0.16232926,0.060395066,0.018071327,0.5562574,0.060577065,-0.049486905,0.1459395,-0.12082498,0.10628921,-0.0028834478,-0.24769658,0.26407427,0.17890713,-0.08609414,0.36981857,-0.10870814,0.050609164,-0.2944386,0.009134842,-0.0013685395,0.25285286,-0.028150842,0.16440877,0.060231388,0.15210047,-0.083520666,0.31591353,-0.15439872,-0.28794432,-0.12133399,0.047534756,0.18053706,0.22274712,0.13121043,0.043278486,0.06569958,0.5429113,0.48899442,0.075629875,-0.2007043,0.19700174,-0.15674588,0.03704433,-0.0036656638,-0.2790563,0.41722143,0.092292584,-0.034553602,0.12451349,0.0148806935,-0.19983323,-0.25108823,0.28678375,0.15847339,0.15584348,0.12155355,0.016472597,0.04126008,0.2649864,0.012640294,0.027611557,-0.26365927,0.16386788,0.053048067,-0.030640293,0.0042286552,-0.1267144,0.27326804,-0.10160748,-0.2946319,-0.23857915,0.008251388,0.033965144,0.45598608,-0.45338792,0.34915113,0.09132382,0.00076685986,-0.23614249,0.29523534,0.17716852,-0.0047491584,0.74853015,0.122731425,0.16806611,0.0490746,0.2200592,0.08422677,-0.09522059,0.3597201,0.09877139,0.050883554,0.17554143,0.34846312,0.284262,2.9899073e-05,0.47124758,0.57814264,0.18036477,0.35150415,0.4362703,-0.26465353,0.10098996,0.015259427,0.25126046,0.3603031,0.17915076,0.025160214,-0.0075302087,0.0976866,0.3818791,-0.044576116,-0.015342478,-0.054104395,-0.14564955,0.02571136,-0.3895154,0.124457985,0.07666044,0.6128895,0.2917265,-0.00976919,-0.10564576,-0.122264504,0.1518038,0.59191346,-0.010090036,0.022176076,0.05439566,0.42136115,0.2424041,-0.070300795,0.13545457,0.018829275,0.04363149,0.017499141,-0.07935074,0.13730448,0.054909267,-0.16600206,0.27152503,0.011796889,0.25985843,0.2045838,-0.053873457,0.100221895,0.05882103,0.0167597,0.011666088,-0.008771224,-0.1012491,0.56800306,0.2513377,0.013469966,-0.027634498,0.004930168,0.057070486,0.100574985,0.17340772,0.72832644,-0.07566772,0.08571891,-0.16238394,-0.011352478,0.1522876,-0.017810501,-0.063057944,0.0006815172,0.06393999,-0.37982816,-0.030878058,0.04310768,-0.007548634,-0.24275626,0.2716064,0.49577516,-0.07654907,-0.30395335,-0.02915296,0.5428777,-0.3011141,0.30534434,0.3166214,-0.13471311,0.14691618,0.10443239,0.052973688,0.062078513,0.30611044,0.060779832,0.47125936,0.05211667,0.09979476,0.33875865,0.0075488198,0.10156983,0.08221556,0.07536127,-0.22901651,-0.13884288,0.060679115,-0.17474501,0.09380986,0.3422272,-0.107699424,-0.027828403,0.082245775,0.15623176,0.07461095,0.08956912,-0.111232206,0.09521475,0.4213181,-0.00062041695,-0.292027,0.27825016,-0.06640236,-0.37576926,0.012410075,0.067849815,-0.059532996,0.0027623875,-0.15711072,0.18678519,-0.26891643,0.026029576,0.31031275,-0.1356954,0.011401474,0.2165918,-0.14705962,-0.07615739,0.063667566,0.049804002,0.16654049,0.1192704,0.15505321,0.06434202,-0.013504904,0.40679199,0.043127395,-0.158728,0.112210765,0.0028129704,0.026569892,-0.09833676,0.04909698,-0.14478795,-0.06402211,0.09005603,-0.15871218,0.1422285,-0.106290564,0.027148286,-0.17137459,0.34586793,-0.06668444,0.0029380075,0.15741128,-0.017466407,-0.005569192,-0.12585063,-0.08328383,-0.08072454,-0.029176062,0.07726555,-0.07362352,-0.025200434,0.010762036,-0.035871204,-0.031075828,-0.09391302,-0.082746685,-0.061145812,0.12008726,-0.036287617,-0.050448164,-0.051330477,-0.10159077,0.033134695,0.00885042,0.23397717,-0.07934368,0.03470828,-0.19905332,-0.02995051,0.089655936,-0.004824533,-0.031606413,0.08070706,-0.037727047,-0.07858586,-0.030715795,-0.041455604,-0.054198176,-0.060996346,-0.03914161,-0.0607009,0.116608486,-0.09970233,-0.021850117,-0.0023097908,0.13193586,-0.05780884,-0.08486724,0.03075199,0.02940678,-0.11657129,0.022626106,0.13699427,-0.1017236,0.008429563,0.022164013,-0.07106468,-0.008550275,0.05754344,-0.050449785,-0.079119965,0.042663373,0.06073334,0.11532238,-0.10917492,-0.044290826,-0.036147818,0.047779884,-0.11076756,-0.026530083,0.1349765,0.2000802,-0.05646074,-0.01515785,-0.063084275,0.07842951,-0.08265398,-0.08674821,0.0063623544,-0.10288702,0.10854641,0.04092899,-0.043604277,0.03665913,-0.039559186,-0.07909097,0.13444406,-0.049615882,-0.014465664,0.009183446,-0.028992254,-0.027409453,-0.11476056,-0.04697139,-0.047265925,-0.094303966,-0.070573054,0.06981903,-0.1429388,-0.07986587,-0.009049345,-0.13739441,0.07731733,0.015821826,-0.11824615,-0.11593486,-0.13622308,-0.08895093,-0.027250014,0.0077881813,0.1788294,-0.10022576,0.07853236,-0.055712767,-0.08122134,-0.021562558,-0.1274746,0.021878034,0.027404206,0.009551252,0.08270012,-0.114692986,0.124865815,-0.056660123,-0.10411176,-0.13500991,0.003259838,-0.020306703,-0.02624565,0.004862943,0.098874316,-0.011124566,0.04956887,-0.01117407,-0.088342465,-0.00085690763,0.12281041,0.09057355,-0.1458876,-0.010798187,0.15288855,-0.04711648,-0.11472591,-0.03591732,-0.0412525,0.03420376,0.2678591,-0.035510436,-0.17072183,0.024976317,0.03777752,-0.03625361,0.00052179606,0.088423684,-0.005090663,0.03686765,-0.023469498,-0.12679447,0.08921167,0.05456999,0.014179209,-0.028763946,0.06126443,0.013133882,-0.030565567,-0.0393398,0.20110604,-0.073761135,-0.020608447,0.06044586,0.2404478,-0.024193361,-0.022593532,-0.0008915421,-0.12514581,-0.06534897,-0.066191345,0.2291761,-0.094915956,0.004210404,-0.07978383,-0.09982163,-0.028090578,-0.080031306,-0.048630092,-0.09380921,-0.0023496698,0.019817183,-0.031739876,0.05182807,0.054229245,0.031991985,-0.05935938,-0.024456618,-0.022945479,-0.093959436,-0.045764543,-0.0464881,0.048979297,0.06169201,-0.015921824,-0.00017722031,0.019386087,-0.048729964,-0.013446761,0.0057947524,-0.07723935,0.014544403,-0.13711812,-0.09579262,-0.09795348,-0.009974483,0.011336448,0.0035926132,-0.07209699,-0.042558163,-0.010629947,-0.01403559,0.022245798,-0.089528106,-0.03487041,-0.11345659,-0.13620621,-0.033623584,-0.06896258,0.014963724,-0.12534949,0.10655695,-0.072043896,-0.100362964,0.18058988,-0.08966638,0.10258799,0.08143607,-0.0047543216,0.0042369887,-0.025500657,-0.036552176,-0.03758155,0.03591099,-0.096343026,-0.07021587,0.070334375,-0.008118326,-0.1135006,-0.10654724,-0.006727102,0.0604586,0.1509167,-0.09197796,0.092682615,-0.03070616,0.04408929,-0.18646854,0.023119926,0.12371346,-0.014120495,0.05947628,-0.15982555,0.019462325,-0.06718632,-0.029455611,-0.122896835,0.06482525,0.08942354,-0.0044116033,-0.039229997,-0.13634747,-0.14614321,-0.13565463,0.016845671,-0.029690742,-0.09415004,0.08675257,-0.07525258,-0.06279518,-0.09613907,-0.013781756,0.108778834,0.0033677393,0.037726343,-0.11600728,0.074153334,-0.06391883,-0.097997874,-0.0055513736,-0.040866304,-0.06515955,0.19834465,-0.09978354,-0.061626166,-0.06692802,-0.15753853,-0.12930825,-0.040535923,-0.057606988,-0.11004754,0.034622617,-0.08132991,-0.037045226,-0.07773281,0.057433322,-0.10079092,-0.02057366,0.053421356,-0.06368972,-0.07737147,-0.10993284,-0.021011548,-0.1503475,-0.012173984,-0.08940275,-0.10171363,-0.053937335,0.051311504,-0.095688075,-0.10150892,0.05675234,-0.016528714,-0.040633596,-0.05000764,-0.12995782,-0.13461608,-0.047347598,-0.056848723,0.009200884,0.06448281,0.06887895,-0.07131584,-0.018632349,-0.0689924,0.08639558,-0.047126766,-0.03257166,-0.15325302,-0.11903772,0.043010965,-0.07375176,-0.1289267,-0.074202985,-0.10308981,-0.13067946,0.08134223,-0.05219479,-0.12761459,-0.17033538,-0.035207488,-0.10065478,-0.08693302,-0.10641131,-0.07632151,-0.12983772,-0.13327917,-0.071550235,-0.027188431,-0.07899389,-0.042457093,-0.19616774,0.06625414,-0.10865091,-0.07406663,-0.07715979,-0.09891255,-0.061630823,0.0023135622,-0.10500029,-0.018999387,-0.17344731,-0.01382692,-0.06421068,-0.1408923,-0.035364233,-0.12483317,-0.042668425,-0.118945174,-0.009616833,0.00207257,-0.11604001,0.057891376,-0.07183324,-0.12412089,-0.1736652,0.036667373,-0.032045655,-0.087101355,-0.038843684,0.044903666,-0.1281667,-0.0019241044,-0.013433406,-0.029270656,-0.066735804,0.071347676,0.060505338,0.012997804,-0.07040131,0.009448409,-0.14244965,-0.045030158,0.046957627,0.12186314,-0.00044068,0.14769015,-0.027388161,-0.182033,-0.15456855,-0.09696226,-0.03120752,0.008581422,0.027937092,0.08992678,-0.07147829,-0.009274442,-0.064995795,-0.0855118,0.0160966,0.08430508,-0.12607974,-0.08772071,0.044056036,-0.012321612,0.008651396,0.078131974,-0.1570981,0.032526195,0.030014232,0.02690687,-0.07198217,-0.07294293,-0.16182984,-0.08321729,-0.04128959,-0.036165237,0.08505229,-0.16468413,-0.029466942,-0.19161789,-0.10431671,-0.10085652,-0.06571509,-0.010447806,-0.11761411,0.06799296,-0.10541524,-0.14758715,-0.17645344,-0.12660238,0.04135911,-0.09494198,0.061776564,-0.049345635,-0.05269669,-0.06769116,-0.13155279,-0.063641146,-0.03800001,-0.10448976,-0.029380506,-0.12519781,-0.13820979,-0.15046497,0.106343895,-0.038826123,0.0041395808,-0.06932506,-0.102367625,0.0010055159,-0.02626641,-0.05250059,-0.1312129,-0.09928399,-0.013941546,-0.074968465,-0.08377929,-0.04146303,-0.14241618,0.002360392,-0.042533636,-0.11819908,-0.05222444,-0.115249775,-0.10368554,0.019997038,0.058871694,-0.06087166,-0.13018095,0.04128256,-0.041920714,0.077808276,-0.09252598,-0.08339614,0.071111664,-0.09253755,-0.019773617,-0.054885045,-0.0096786795,-0.0795763,-0.073622525,0.06833112,-0.069911405,-0.13627866,-0.04725022,-0.08040036,-0.02235384,0.031391222,-0.058779545,0.026626691,-0.012500454,0.004369937,-0.08750653,-0.13185358,0.0912119,0.19103968,0.05394821,0.36984313,0.17495981,-0.10051425,-0.061221566,-0.043759875,0.07435726,0.08725783,-0.28673667,0.01742356,-0.15464976,-0.17802837,0.33259124,0.017801493,0.09139761,-0.023246754,0.04284577,0.068478286,0.17189476,0.08052698,-0.02010386,0.1589742,0.09286868,0.20529944,0.25436252,0.11978106,-0.15021744,0.049526732,0.07130302,0.13695341,-0.034668684,0.21097216,0.050890535,-0.007970208,-0.26513624,0.16926801,0.18834418,-0.070085704,0.013555897,-0.15203533,0.13075753,0.035143387,-0.058761247,0.11722413,0.1249958,0.14504252,0.053649426,0.068982564,-0.04718061,-0.17848797,0.24722803,0.06915884,-0.020856274,-0.18720272,-0.08192696,-0.18402335,-0.13795184,0.06676322,0.00077117205,0.0403307,0.20709288,-0.0770905,0.023382131,-0.06330322,0.09340492,0.113238186,0.022529215,-0.0053737704,-0.15966481,0.20464933,0.18296167,0.024557356,-0.18845868,0.06344852,0.19975415,0.21053779,-0.06473289,0.31741643,0.07340671,0.06641282,-0.25923628,0.043737046,0.112097666,-0.09552761,-0.110592484,0.14525837,0.19863242,0.08844547,0.057433046,-0.006841399,0.23877108,-0.0031985627,0.3347689,-0.031738468,0.046987563,0.09633379,0.27340657,0.057446197,-0.10466562,0.013247552,-0.13776472,0.068924144,0.2413047,0.047894146,0.29852498,0.009592878,-0.003268528,0.07039587,0.28961396,0.18805408,-0.16243339,0.041711546,0.13229927,0.13079092,-0.16241528,0.03839279,-0.07709001,-0.044102803,-0.15327695,0.052340068,0.17920493,0.03356584,-0.11727969,0.051146436,-0.005061981,0.0042452635,-0.075007945,0.42430416,0.052331388,-0.053038366,0.09465782,0.19197103,0.16785944,0.28424853,0.02766202,0.17806357,0.12123704,-0.09073876,0.22738433,0.186355,-0.086190894,-0.0075678118,0.1293543,0.06344549,0.17238703,0.1306468,0.19688997,-0.057889342,0.066789284,-0.010382766,-0.050526306,-0.00029914148,-0.109403454,0.08517872,-0.02348711,0.06206204,0.0215742,-0.11348271,0.03243015,0.050600205,0.031986546,-0.034583554,0.114985436,0.1350742,-0.048558377,-0.0010724473,0.035002463,-0.045813706,0.03856072,0.20715693,-0.09287928,-0.00047906523,0.053360708,-0.028720584,-0.0592542,-0.040160805,0.20199165,0.15143666,-0.11654878,-0.13486178,-0.0102617,0.07397722,0.13535321,0.047229484,0.18525437,0.08776383,-0.035897575,0.20567851,0.29370815,0.08801708,0.07491788,0.18336259,0.06392072,-0.06442217,-0.11833987,-0.11541743,0.07645791,0.015041951,0.090792716,0.1620161,-0.028637176,0.24160501,0.018392619,0.05744077,0.051733747,0.021106996,0.09915833,0.1375485,0.015357408,0.11438516,-0.025807645,-0.05306434,0.041237295,0.191648,0.12333009,-0.02913012,-0.021342129,0.02039609,-0.06905411,0.075852185,-0.19514781,0.061916184,-0.16507855,0.076061115,0.27163506,-0.11668806,0.030220283,0.07170516,-0.17417628,0.19871798,0.008554982,0.074615866,0.03417167,0.27318025,0.20256895,-0.080124676,0.00886184,0.31231534,0.08676113,0.03612297,-0.023528129,0.061226416,0.06870222,0.13327888,0.051618606,-0.025973681,-0.047709964,0.08710776,0.23790768,0.07867395,0.09438221,-0.0066329334,-0.067312226,0.17479357,0.17674239,0.037228685,-0.054512605,0.010582877,0.055377044,-0.015027317,-0.04465262,-0.007586954,0.010077186,0.07570213,0.018850565,-0.027238265,-0.060734596,0.028856628,-0.001133008,-0.07283837,-0.06235545,-0.018570151,-0.05533071,-0.048012767,-0.046474904,-0.015136771,-0.08429832,-0.039386384,-0.03733328,0.03781624,-0.04386919,0.035506617,-0.03930763,-0.060067475,0.03691127,-0.023678435,-0.07646599,0.059530415,-0.016589316,0.022736738,-0.05776308,-0.018335072,-0.0012739049,0.0110288225,-0.0050680516,-0.09321602,0.07318084,-0.01976975,-0.026613481,-0.009002693,-0.076293714,-0.021871567,-0.036092833,-0.023602162,0.0032528574,0.029022658,0.03185968,0.027346868,-0.029439379,-0.032731473,-0.07399492,0.0066444976,-0.0379694,-0.032353226,-0.035722807,-0.064713955,-0.04068904,-0.058674477,-0.0057482077,-0.04770813,-0.095225595,-0.028308293,0.02093928,-0.05209686,0.007741337,-0.016361829,0.0067714197,-0.028762966,-0.04947421,0.011057377,0.10279533,0.020386264,-0.046793483,-0.085388035,-0.07071719,-0.040926397,-0.0074681058,0.032178417,0.029297419,-0.0033769733,-0.05775642,0.040454526,0.024446888,0.021154169,-0.054550055,0.0005489142,-0.052022852,-0.047008153,-0.07883761,0.04653735,-0.040736023,0.0024119276,0.024181612,-0.04617793,-0.036698908,-0.019463014,-0.048190422,-0.047429577,-0.029412732,-0.113315925,-0.019339267,0.060099337,0.047461007,0.011161057,0.02445297,-0.035129856,-0.09503952,-0.07518439,-0.06271143,-0.024990873,-0.04898741,-0.07068976,-0.059503794,-0.07614404,-0.033353265,0.041516393,0.008091724,0.054098323,-0.047744848,-0.043552466,0.021935923,-0.022348411,-0.035038166,-0.09832136,0.0064381734,-0.020083984,-0.0051718447,0.06278701,-0.026440855,-0.06468108,0.027436458,0.056743957,0.03725906,-0.057242706,0.021472417,0.011489742,-0.099544555,-0.066318154,0.06868614,-0.00030748855,-0.011036141,0.06116651,-0.08134246,-0.014865443,-0.01804838,-0.054238588,-0.078913175,0.06309347,-0.07393114,0.011381062,-0.070392,-0.05948148,0.014878887,-0.012742771,0.029251345,0.025656208,-0.0641553,-0.052277066,0.04876573,0.0077906223,0.029177703,-0.03568168,-0.00058435707,-0.002967191,0.031110149,0.038293704,0.027395245,-0.08682072,-0.053185955,0.043593325,-0.015683703,-0.08070409,-0.018767476,-0.12941831,-0.11235543,-0.0893496,-0.020586327,-0.05637038,-0.011035388,-0.026213009,0.033199407,0.005116674,0.0052131335,-0.087891065,-0.058881447,-0.081397444,-0.030481996,-0.063939534,-0.02517433,-0.06813572,-0.03485833,-0.06512934,-0.006182138,0.010172462,-0.048605338,0.031920124,0.019815262,0.024246205,-0.0075943046,0.067619324,0.079663604,-0.055407166,0.085194744,-0.0360092,-0.0110816825,0.0057171853,-0.044476338,-0.029916424,-0.09171459,-0.11044225,-0.026820336,0.01239316,0.020299062,-0.07900843,-0.061531026,0.05425497,-0.02282021,-0.08309046,-0.097803906,-0.048206687,-0.092840925,0.011738477,0.0043406463,0.04542172,-0.07264592,-0.007284038,0.016312655,-0.00643072,-0.036250792,-0.08189702,0.00011898557,-0.04801082,0.020417903,-0.07690556,-0.0017833748,-0.018404376,-0.049716525,0.048687354,-0.030564506,0.031356074,0.056785826,-0.042918764,-0.06300706,0.016070057,-0.04727477,0.007488321,0.0013549605,0.0064238487,-0.070078686,-0.08969334,0.01508563,0.3864559,-0.11361179,-0.14407021,0.03586527,-0.050628364,0.037355207,0.5713586,-0.1004408,0.04998856,-0.1849657,0.21714455,0.63516974,-0.0013053959,0.12535252,0.5651641,0.11820885,-0.046515264,-0.07740408,-0.10518325,0.21279241,0.07736737,0.31628665,0.070326924,-0.08212586,-0.17833878,0.23240069,-0.045084387,-0.42142653,0.3749108,0.22190374,-0.22156048,0.049348418,-0.022234846,0.2768551,0.14597535,0.87925714,-0.10210461,0.33829015,-0.14660934,-0.042138282,-0.17772725,-0.25044736,0.075491056,0.036695983,0.22728442,-0.0721156,-0.190018,0.2610253,0.048824526,-0.028752392,0.08481355,-0.21953537,0.35213512,-0.1272226,0.5944866,0.4911138,-0.17067993,0.14833619,0.090435274,0.115110084,-0.26418835,-0.13524531,0.08400825,-0.34905958,-0.001170851,-0.15598002,0.11191178,-0.28267837,-0.5190142,-0.08898507,-0.19433758,-0.14295766,0.17345083,0.4456554,-0.16715877,0.11426462,-0.22515705,-0.4502536,-0.09983243,0.089849055,0.08500534,0.3281172,0.28031915,0.072386354,0.4855284,0.24849047,-0.118941516,-0.3829816,0.36236253,-0.15045156,-0.0061354763,0.26244116,0.62928784,-0.08310583,0.22772914,-0.15422301,0.25957364,-0.15359183,-0.082615346,0.17337494,-0.11265579,0.098667994,0.12133935,-0.24389976,0.5321189,-0.16491617,0.15791796,-0.03534362,-0.016502202,0.35573345,0.1250942,0.01687774,-0.028918028,0.051548712,0.29386163,-0.046630196,-0.05781912,0.5816133,0.27179593,-0.24732088,0.18511887,-0.3508948,0.00389361,0.23786916,0.66723573,0.057236113,0.2996387,-0.020889211,-0.29602492,-0.047832653,0.033902552,0.13047665,-0.14149612,0.08749546,-0.10223009,0.37191302,0.05986447,0.07409446,0.34915704,-0.013978982,0.09367696,0.1127178,0.24383353,0.50828505,0.1842845,0.35859227,0.059459604,-0.13436645,0.014888859,-0.26398936,0.23075539,0.56021285,0.05921568,0.05464084,0.15617785,-0.0023752996,-0.05797281,0.5690788,0.19503732,-0.06701921,-0.18944506,-0.17056589,0.15469551,0.016216433,0.30868015,0.20484698,-0.547801,0.46302164,0.07925227,-0.06113954,-0.03190261,0.008234972,-0.18468747,0.43646997,0.5377512,0.67257684,-0.15912598,-0.23311183,0.19471672,-0.17259942,-0.29855943,0.4424923,-0.044236705,0.17533052,0.27842805,0.13557883,0.033487387,0.34210366,-0.186363,-0.10411601,-0.13258335,-0.07224868,0.18795775,0.046775103,0.4679047,-0.039207518,0.031177562,-0.27032578,-0.10220482,0.1400317,-0.25492585,-0.014208163,-0.20599425,-0.1533841,0.4956073,-0.096792474,0.34117183,0.07077944,0.41010275,0.40642783,0.09606357,0.03119428,0.45885175,-0.12634653,0.19566254,0.0019468254,0.026386013,0.11663774,-0.039466493,0.0330057,0.107911274,-0.24357158,0.093106836,-0.25416252,0.18841246,-0.17279752,0.1902216,0.23294938,0.20003995,-0.31968945,-0.19717576,0.14791258,0.0530408,0.29120004,-0.12832578,0.052193195,0.08429276,-0.1092899,-0.07653984,-0.011249833,-0.15264907,0.16732593,0.100554794,-0.16859981,0.2400811,0.61337817,-0.25092655,0.07242906,-0.01999871,-0.2095389,0.30563816,-0.034430914,0.13016695,0.11809456,0.07559354,-0.3030446,-0.007971417,0.0044513093,-0.051565874,-0.03529093,-0.10677209,-0.06438862,-0.10035422,0.09388472,0.06763832,-0.08777788,-0.039012097,-0.14383739,-0.12956521,-0.0360656,-0.10481935,-0.1492784,-0.0444222,0.093613245,0.042985976,-0.030021032,0.023645943,-0.043588206,-0.009064701,0.04396893,0.06461033,-0.06717579,0.08133697,-0.1400074,-0.026623987,0.08037438,-0.09527277,-0.0017989436,0.119210064,-0.12734212,-0.028540988,-0.11183071,-0.13844198,-0.1333728,-0.09262343,-0.095644906,-0.10690917,0.05882542,-0.11841062,-0.18894723,-0.034444414,0.129087,-0.0086173825,-0.065728806,-0.010092374,-0.089001656,-0.12787867,-0.069744766,0.014408567,-0.109547794,-0.029690698,-0.018753346,-0.066601865,-0.08151393,0.097858265,0.031507522,-0.079382226,0.06862115,-0.0033198695,-0.14479217,-0.119049415,-0.11515559,-0.0993049,-0.008782299,-0.22095188,-0.12426921,0.15102658,0.13934228,0.016839162,-0.100579515,-0.020328775,0.1838802,-0.11448837,-0.2426306,-0.002717732,-0.051599197,0.12597108,-0.07497938,0.008232116,0.14678338,-0.0049253097,-0.03920068,0.096784994,-0.104160324,-0.10398642,-0.11684813,-0.10029709,-0.048204497,-0.12445147,-0.09808628,-0.1124994,0.015904114,-0.054292593,-0.09646209,-0.10214117,-0.092463195,-0.08090026,-0.23552,0.002370133,-0.12435135,-0.07701734,-0.0621221,0.020549897,-0.021369446,-0.041635744,-0.06435116,0.08748053,-0.024104182,-0.043110758,-0.054981392,0.048535585,-0.16966343,-0.039647907,-0.023764431,-0.078721814,0.13838565,0.0048680985,-0.09085403,0.02247351,-0.04724753,-0.035684668,-0.07384938,0.09640111,-0.017496571,-0.081846036,0.043783635,0.0011161994,0.013799535,0.120460175,0.05080483,-0.1730876,-0.023650065,0.1598168,0.10246234,-0.097115025,-0.05394932,0.06744635,-0.089147985,-0.0936799,0.068363205,-0.021931939,0.026943062,0.09667893,-0.09933781,-0.18166283,-0.025226435,-0.08495317,-0.0733144,-0.06449357,0.030005924,0.05999336,-0.030306887,0.017889349,-0.082717255,-0.10023992,-0.15301171,0.008721973,-0.10355924,-0.1297204,0.15424332,0.034962457,-0.0019884543,0.16555783,-0.07461221,-0.17402248,0.22512442,0.05968492,-0.05233638,-0.07393087,-0.04400853,-0.11159101,-0.07152031,-0.037109647,0.13465989,-0.027621519,-0.12947199,-0.090964876,-0.05034659,-0.1988371,-0.027200352,0.018513955,-0.08074273,0.12637019,-0.09039177,-0.11220901,-0.052045636,-0.06751894,0.09410791,-0.032195657,0.03205487,-0.11877161,-0.0138644,-0.005537567,-0.12507163,-0.0386981,0.0023197513,-0.14945585,-0.07433303,-0.114506505,-0.14367217,0.025703672,-0.076064944,-0.017184617,0.07577911,-0.13638228,-0.062333733,-0.045690596,0.16036111,0.03026922,-0.12675408,-0.11846763,0.0012100245,-0.07140344,0.0021920023,0.009762766,-0.11148912,-0.049856078,-0.057951227,-0.060834132,-0.08870302,-0.075705916,-0.08349189,-0.06712307,-0.035552666,-0.045540888,-0.07214519,0.08049691,-0.08147061,0.021674007,0.00060688687,-0.073118016,0.13353074,-0.07094915,-0.0130625805,0.013103824,0.03240227,-0.15633667,-0.10952233,0.11923286,-0.090960905,-0.12416905,0.05799202,-0.06568785,0.049491264,0.048168227,-0.11107592,0.031540655,-0.10587576,-0.06669868,-0.14981666,-0.08221452,0.023929905,0.010430722,-0.045479737,-0.11097328,-0.013453585,-0.09626195,-0.046472684,-0.13526885,0.124708116,0.00039915234,-0.07289274,-0.22374001,-0.14342374,-0.122240126,-0.15412182,-0.043793224,-0.18099445,-0.1006013,0.10709675,-0.042028867,-0.0768193,-0.011024598,-0.16819404,-0.011521259,0.08122693,-0.053325646,-0.113596916,0.034060247,-0.16547653,-0.05147311,0.012927249,-0.20688774,-0.11331722,0.07985656,-0.079915866,0.035241455,-0.21508794,-0.13959555,-0.10967949,-0.16852689,-0.10857779,-0.12047812,0.027002677,-0.045324452,-0.080094054,-0.109301865,-0.012765491,-0.18088865,-0.19044432,-0.06490133,-0.10000354,-0.010315194,-0.20011984,-0.033533484,-0.07803911,-0.110846505,-0.069516525,-0.121337,-0.19384763,-0.028546892,0.060202964,-0.0550678,-0.04900504,-0.043400273,0.028132074,-0.08212081,-0.109570086,-0.15059498,-0.025606643,-0.16513413,-0.13676053,0.04788895,-0.023859778,0.011303508,-0.06608996,-0.09534265,0.07203742,-0.09101927,-0.13899863,-0.17654094,-0.16479328,-0.03380591,-0.1043255,-0.13387588,0.0047147563,-0.038963344,-0.21957195,0.07801817,-0.13479331,-0.18543792,-0.22527862,-0.020615842,-0.059723772,-0.11988942,-0.119306564,-0.013100471,-0.23296255,-0.1404212,-0.08310616,-0.16423094,-0.2208766,-0.14759174,-0.19679162,-0.037137635,-0.16105235,-0.25180298,-0.14650676,0.059495013,0.023053028,-0.030825626,-0.058544103,-0.000804306,-0.16579345,-0.10943961,-0.14498785,0.03822925,-0.153382,-0.03331018,-0.09389919,-0.1693218,0.050268725,0.032203194,-0.20720135,0.037982408,-0.16629352,-0.054498393,-0.100976184,0.01131911,-0.010671813,-0.23078662,0.02528616,-0.04591436,-0.02098335,0.026902175,-0.012343222,-0.22420265,-0.10910125,-0.007013299,0.08259034,-0.15201423,-0.11051701,0.040617093,-0.18419787,-0.08633374,0.10520549,0.10637538,0.08852577,-0.012127332,-0.18355171,-0.1003754,-0.19940409,-0.11032121,-0.04670403,-0.015387716,-0.07670326,0.06003803,-0.099743545,-0.042717032,-0.06860982,-0.07833648,-0.019480268,-0.01303082,-0.091413036,-0.0872131,0.050009966,0.02305533,-0.05466097,0.051103227,-0.016915916,-0.15930548,0.0038130623,-0.008880742,0.004087507,-0.1372532,-0.12510538,-0.033096842,-0.14950773,-0.11309645,-0.06457442,-0.14360541,-0.1614765,-0.29511178,-0.1498727,-0.117559314,0.08835693,0.037040673,-0.087767586,-0.0039339485,-0.13692158,-0.16102225,-0.15345383,-0.20099086,-0.07892349,-0.1318546,-0.046472512,-0.06834629,-0.15521649,-0.08377333,-0.10539521,-0.08827232,0.021770855,-0.33585918,0.022096805,-0.14628172,-0.16931897,0.012431036,0.06575621,-0.22471756,-0.024109542,-0.076358005,-0.044357605,-0.02527778,-0.04755676,-0.00031427742,-0.21043065,-0.19270188,0.12745047,-0.054150358,0.0058852397,-0.013970777,0.01631318,-0.04411853,-0.118850075,-0.109661795,-0.1655602,-0.13087049,-0.22989494,-0.13762364,0.030407686,-0.077055976,-0.12502587,0.0002801615,-0.10609406,-0.04183727,-0.013383813,-0.089609675,0.10337114,0.0019632117,-0.12172039,-0.21950845,-0.025640894,-0.06517951,-0.10659444,-0.027844016,-0.28068078,0.011970505,0.0038367468,-0.18603194,-0.025947914,-0.053626716,-0.29988998,-0.1014518,0.082797706,-0.04158274,-0.12905347,-0.07460533,-0.018970588,1.0297506,-0.3712095,-0.31411296,0.04914907,-0.7596559,0.3624251,-0.17442355,-0.29180247,-0.058234934,-0.21589139,-0.50177443,-0.5819633,-0.33375752,0.5589771,-0.14774825,0.121722266,0.15824327,-0.67801726,-0.26779515,-0.3149355,-0.1462554,0.12595645,-0.78114694,0.043748885,-1.0152069,-0.445622,0.057235304,-0.32170457,0.2767007,-0.029704832,-0.12824047,-0.15660484,0.09902978,0.28177756,0.7017767,-0.36412078,-0.039716452,0.5582694,-0.16475402,-0.65006804,-0.05719865,-0.4011813,-0.06799715,0.1894016,-0.07147462,-0.44096258,-0.17470124,-0.32849467,-0.048354506,0.08677343,0.07490366,-0.21476491,-0.36854392,0.2485542,-0.5585674,-0.20343477,0.011738256,-0.7218056,-0.16978863,-0.060969483,-0.274328,-0.17577258,0.0055856686,-0.588823,-0.05294335,-0.20685664,-0.2561798,-0.3769198,-0.5042727,-0.13971598,-0.77466893,-0.45234954,-0.30923104,0.2922042,-0.46315527,0.2154226,-0.0215896,-0.7723427,-0.54836583,0.3312713,0.047712304,-0.34391254,-0.14952677,-0.05566348,-0.1644294,-0.3848015,-0.68241495,-0.5014651,-0.3782416,-1.0332351,0.0117996875,0.47957268,-0.5968852,-0.37698162,0.66826427,-0.46212703,-0.33899873,0.0213398,-0.4861201,-0.24468091,0.11856179,-0.4838936,-0.024107067,-0.040118583,-0.44233412,-0.02601453,0.758132,0.026500896,0.22581506,-0.3809956,0.018423764,-0.40272573,0.07258049,0.5784513,0.53778994,0.022166742,3.594673e-05,-0.47188604,-0.4883427,-0.7928235,-0.45449287,-0.47984862,0.12496982,-0.19192368,-0.5023742,0.85239226,-0.056448065,0.006002501,-0.23120455,0.7141173,-0.030223645,0.9205415,-0.07079291,-0.09629071,-0.0419751,-0.34058446,-0.10998352,-0.4962895,0.45481348,0.08206482,-0.042391866,-0.5585804,-0.26420927,0.44716045,0.49300265,0.6941544,-0.8323334,0.016640417,-0.47986442,0.16590229,-0.428571,0.12441164,0.012815131,-0.021651756,0.15318608,0.08591373,-0.07671335,-0.07572417,-0.6060213,-0.26110542,0.044371538,-0.124859266,-0.7007834,0.8001526,0.5873188,0.28752333,-0.4714648,-0.18664843,0.5375279,-0.0034801853,-0.5549843,-0.031370204,-0.22738896,-0.5487354,-0.055693306,0.40524426,-0.26757622,-0.5551981,-0.47467598,-0.0329904,-0.5702574,-0.47479022,0.16209874,0.6565453,0.58912194,0.052976817,-0.0032190806,-0.471104,-0.04860636,-0.3350786,0.103903994,-0.054947693,-0.16682437,-0.33122724,-0.10121216,0.12168585,-0.102081835,-0.34229547,0.15851712,-0.028398197,-0.5212016,-0.027168961,-0.12865253,-0.44073722,0.5269803,-0.027092077,-0.4301026,-0.12303582,0.5236656,0.5950344,0.46235543,-0.01251971,-0.08068511,-0.48262054,-0.18577144,0.85891175,0.025905618,-0.033553593,0.012150438,-0.3581233,0.0020401212,0.025530342,-0.08949465,-0.1211662,-0.20341451,0.13454458,-0.23641679,0.15599912,1.1497877,-0.05164073,-1.145623,-0.18107155,-0.36632454,-0.7021364,0.13912942,-0.00054760557,0.002759084,-0.11066753,0.12381007,-0.194247,-0.073458716,0.7291106,0.16565213,-0.025791666,0.41167486,0.6929822,-0.1457972,0.03767202,-0.04522728,0.0012337157,-0.08333855,-0.027290586,-0.0031160875,-0.1097535,9.80657e-05,-0.6214299,0.46217984,0.12037897,-0.03663727,0.37789127,-0.19578874,-0.32109153,-0.4254073,0.2360774,0.17503059,-0.032598816,-0.34168863,-0.28166485,-0.21088308,0.16678542,-0.08063169,-0.076299995,0.2266217,0.2006055,0.5665059,-0.24765345,0.11232421,-0.1711609,0.15709777,-0.08161049,0.22560942,-0.21640876,0.13506949,-0.20193344,0.044086426,0.22931361,-0.0831534,-0.30337048,0.13829872,-0.2254478,0.0752391,-0.15603746,-0.636816,0.29687184,0.6090641,-0.28412843,0.103484794,0.22496185,-0.109981164,0.2963838,-0.19371709,0.25803882,0.29710525,-0.16745144,0.07565813,0.45841098,0.11920561,-0.002658832,-0.18487343,-0.2601995,-0.20996974,-0.085308164,-0.21185839,-0.12758651,0.11052978,-0.0489338,0.41161886,0.0075462693,0.12742096,0.009829694,-0.035796,0.610873,-0.23430863,-0.07239561,-0.3049959,0.18438116,0.18609956,0.32692796,-0.2173168,0.24462688,-0.22985584,0.2125718,0.6680247,-0.301046,0.2039724,-0.2550767,0.22048607,0.36307085,-0.1498957,-0.05989233,0.008875102,-0.20329797,0.19865862,0.44621843,-0.49411088,-0.25364286,-0.11693548,0.314694,-0.21613672,0.24645853,0.096625164,-0.5758545,-0.38874534,0.18343094,-0.39359176,-0.23861364,0.17391032,-0.7032758,-0.022267543,-0.0019828766,-0.4773355,-0.1026126,0.037711274,-0.12407184,0.12617879,-0.36384755,0.2234703,-0.08798544,0.13083449,0.18680236,-0.046665363,0.40458566,-0.17382567,-0.2025539,-0.42335206,0.00025681424,0.20018634,0.19068809,0.3506416,-0.2819444,-0.260827,0.019704789,-0.0130664855,-0.004460442,-0.16566801,-0.49820185,-0.0352956,-0.08960548,0.14390022,0.2935179,-0.124310866,-0.13062653,0.1913139,0.14540908,-0.1959816,0.43176025,0.17079279,-0.25330073,-0.33861208,0.07661924,0.21564423,0.2872889,0.15564814,0.5330981,-0.25825268,0.59178674,-0.3518361,-0.12338359,-0.029816415,-0.050868627,0.05940278,-0.06188631,0.10088017,-0.141978,-0.39578062,0.24561353,0.06636377,0.711697,-0.032044582,0.18590885,0.01896903,0.27256137,0.20759058,-0.108600155,0.35309514,-0.026529595,0.25728416,-0.12763652,0.3948769,-0.302616,0.101396844,-0.2803579,0.60837007,0.23848838,-0.518867,0.21735889,-0.28086758,-0.45817918,0.280748,0.19633542,0.22523549,-0.06182161,0.12836316,-0.25663513,0.5629622,-0.21615013,0.5125048,0.34035337,-0.08543791,0.10531062,-0.10518965,-0.025054013,-0.14192736,0.5809855,0.18611915,0.1487065,-0.12867758,-0.001687096,-0.03024282,0.18270114,-0.11288881,0.11135021,-0.28390747,0.06696603,0.27836022,-0.0010993476,-0.07741152,-0.43010515,-0.063317,0.45784158,-0.43366233,0.011912888,0.29558378,0.030436061,0.00017153876,-0.30456734,-0.023542099,-0.39324248,-0.40289664,-0.12758869,-0.15013255,0.12371352,0.07362859,-0.116689205,0.12261257,0.05398892,0.19675243,-0.20291033,0.05193139,0.0076835416,0.58769274,0.07619201,-0.038255088,-0.37716755,-0.10903087,0.15908301,0.13652916,0.10242279,0.13290268,0.28161016,0.40630388,0.082537234,0.07264157,0.043293834,0.23710966,0.041819748,-0.16625142,0.14341387,0.021991681,-0.04804841,0.19600843,0.2497366,-0.0065682507,0.0146686565,-0.054901633,-0.031945214,-0.08424617,-0.028117267,-0.1093814,-0.004944659,0.0556129,0.011989145,0.005712566,-0.07285702,-0.038384825,-0.048916705,-0.039026707,-0.05113703,-0.008148178,0.013245471,0.04092993,-0.046930276,-0.06819917,0.025123093,-0.01546665,0.05217281,-0.027924314,0.0030961875,0.051008407,-0.08681652,-0.015195439,0.037233062,-0.00902363,-0.0037140187,0.04068985,-0.005649291,-0.02075373,-0.07784236,-0.010526353,-0.04407552,-0.07826058,0.04023269,-0.02682985,-0.0042229644,0.03020391,-0.035284914,-0.0535162,0.061509006,-0.010833114,-0.02354864,0.018456101,0.0077868635,-0.07428077,-0.084954664,0.024577662,-0.024917094,-0.065329544,-0.00094423885,-0.04082547,-0.011900204,-0.0789524,-0.014506485,-0.008925846,-0.048370223,-0.059965994,0.036211587,-0.045832478,-0.07127676,-0.027933467,-0.004599147,-0.06229666,-0.07774767,0.05827927,-0.040890828,0.020235825,-0.024235697,-0.008486668,0.10106389,-0.052913614,-0.08274833,-0.113789104,-0.09114792,0.008931806,0.021460868,-0.030870264,0.0074022645,-5.7266505e-05,-0.00035854863,-0.040435076,-0.036750495,-0.02449824,-0.08062194,