-0.7667762,-0.91129524,-0.14212051,-0.3337469,-0.6767432,-0.6756642,0.98684263,0.41323844,-1.5707412,1.7236831,-2.254424,-2.586542,0.33896965,-0.32249594,2.2595155,-1.0612051,-0.50030017,0.701404,-0.8679335,-0.87579215,-0.26684028,-0.27673775,0.8002342,-1.4324592,-0.6062921,0.5462888,-0.12911896,-1.2216206,-0.4869812,-0.10334051,0.48964784,0.623474,-1.4895041,-0.8464252,-0.15754257,-1.0257475,1.0790496,-1.3587279,0.37342167,-1.1105211,0.29323795,-0.75990784,0.002018386,-0.060097158,-1.3413608,-0.28450948,0.50880957,-0.37455934,0.3658267,-1.3607389,-0.5565006,-1.3052522,-0.4581601,-0.71459156,0.16437252,-0.40759867,-0.7506881,1.9825218,-0.6969459,-0.9076184,-0.15010831,-0.4697345,-1.564615,-0.113080025,-0.5127665,0.09343595,-0.04070089,-0.5876763,0.41997474,-0.26862437,-0.29027218,0.113120094,0.12587798,-0.36750895,-0.08020818,0.06449675,-1.5523877,0.45272732,-0.520275,-0.9804195,1.722688,1.0230196,0.69862366,-0.27664208,0.98852587,0.2097928,-0.055806223,-0.4725415,-2.2754211,-0.95575213,-0.35917902,0.32859653,0.0632587,0.9744371,-0.9353833,-0.30818814,-0.43181086,-0.4987989,-0.37512,1.741183,-0.7115532,0.503615,0.1945791,0.7070501,0.40414205,-1.3598022,-0.0703453,-0.005926867,1.9373393,0.46079534,-0.1374729,-1.4409573,0.699581,1.4793495,1.4713778,0.8064614,0.25769472,1.4914598,1.7227678,0.15802397,-0.5547948,-0.29789597,-1.0323504,-0.33392352,1.3582969,0.8936763,0.29381955,-0.91403306,1.0547276,1.0103967,-1.8616394,1.4192271,-0.24977638,-1.1567299,-2.5902982,-0.6368463,-0.42381698,-0.5191833,-0.50973827,-0.06186804,0.24781281,-1.1555994,-2.325321,-0.19361593,-0.07526184,-0.7878783,0.6819574,-1.3015571,-0.94284,0.35780597,0.11581355,0.7644774,0.2432976,-0.47601134,-1.5807178,1.2702053,0.32196707,-0.47169545,-0.9945481,-3.0755842,-0.27400252,-0.9889835,-1.4132156,-0.19701777,-0.7761145,-0.43151075,-0.67465985,-0.54172885,-0.6248766,0.015441143,-0.31209838,0.7562934,-0.6365004,-0.61990666,-1.6511893,-1.5237072,0.3252964,-0.06665838,-0.32248688,-0.703949,0.21461327,-1.009743,-0.41419005,-1.1343858,-0.03884387,-1.9902759,0.65693825,0.02891609,-0.06315993,-0.4620114,-0.44335765,-1.3692979,-0.2991336,1.3263117,0.33301163,-0.050377544,0.0665372,-0.4137631,0.370878,0.36916357,-0.43878105,-0.20353684,-0.78405553,0.67596126,3.2718558,1.4623237,0.5675692,-0.37424284,-0.2644872,-0.6031171,0.05767534,0.16705997,0.8494387,0.7661665,-0.3003829,-3.0113692,-1.0960631,1.1322169,0.3130107,0.5710327,1.045152,1.1495073,0.29784167,0.954497,2.0260198,0.12025032,-0.9250667,-0.14446308,0.17689228,0.44922292,0.1363256,-0.22327846,0.26018152,-0.3220359,-0.16007736,0.1911547,-0.18369016,0.06178032,0.4589034,0.3101696,0.587919,1.7339199,-0.07147814,-0.21661407,0.2676961,-0.8761234,0.44076902,0.5647192,1.1670864,0.851886,0.8701285,0.7269199,-1.2183495,-0.48867723,-0.23826778,-1.1546962,0.7434691,-0.19067442,0.45720527,-0.03923171,1.3856556,-1.8079803,1.0378122,0.8328484,2.934818,-0.76798344,-0.0032682538,1.0735424,0.30243766,-1.2250202,0.79880816,0.120648965,-0.51213294,-0.009746257,0.20571753,0.23994222,0.24591121,0.85669017,-0.7566972,0.5094881,0.34586024,0.16206723,1.2833905,0.41098577,1.2487707,-0.15865159,-0.49712086,1.4105768,0.28262058,-1.8095299,-0.88622785,-0.109546065,-1.225829,0.6850257,0.65223527,-0.7541498,-0.0069761854,-0.72642165,-1.6970854,0.2752979,-0.32278705,0.6124735,1.0138202,-0.6539135,1.3206961,0.4286034,-0.729139,0.61399794,-0.043850474,0.10732214,0.38465112,-0.35748637,-0.5274679,0.73106647,0.08105507,1.237763,-0.76317143,1.1057154,0.022356208,-0.41243714,0.12584192,0.55594826,0.3200183,0.24736893,1.0927695,-1.2829554,0.5113334,-0.06802812,1.3960433,1.0983483,0.14434883,0.12851971,-0.5339292,0.040842906,0.3476896,0.26353437,0.30839354,0.6703116,0.29065645,-0.33021423,0.15050375,-0.41100973,-0.2778312,0.8965174,0.83679545,-0.53768563,4.6489544,-0.62017596,-0.8087021,0.47024715,0.6614954,1.2856815,-0.31974465,0.16638988,-0.39582086,0.35612655,-0.52947617,-0.2139681,-0.15411228,-1.332582,0.09997115,-1.2458768,-2.2139485,0.21838695,-0.6660765,-0.38985556,2.9318824,0.051814213,0.62725914,-0.23054537,-0.5240734,1.0595243,0.092323914,0.42298418,-0.060561404,0.08464564,-0.07056399,0.1942742,-0.84380794,1.6030794,-0.6284194,0.18146908,-0.44980153,-0.50636804,0.9066682,0.5225602,-1.0855006,1.4810274,0.12894431,-1.0203955,-0.6384152,-0.6432618,-1.1799564,-0.19817811,-1.7546988,-0.48321527,-1.0256958,0.36801264,-0.25340337,-0.75320077,-0.18940754,-0.9082728,2.7727575,-0.31432217,0.23968941,1.3232441,0.7073922,-1.0206876,-0.15006977,1.0724125,-0.030581348,-0.15370774,1.3893738,1.8420113,-0.7255071,-0.73765105,0.69921887,-0.054496035,-2.0454693,0.19366771,0.52261305,-0.5904344,-0.9720248,-1.0759962,0.21764496,-1.0040455,-0.9569942,-0.09355503,0.6841053,-0.48684543,-0.20691738,-0.7704289,1.4882199,1.2665789,-0.7943698,1.6054304,0.03181807,0.2950859,0.3493281,0.07660794,-0.30118984,-0.5063474,-0.8339805,0.48075187,-1.7158651,-0.48563883,-1.1902299,-1.7586932,-0.21734063,0.71554786,0.60107684,-0.88416827,-1.8287339,-0.11583409,-0.11236079,0.33379123,-1.3732065,0.2898243,-0.09351473,-0.27474508,-0.56121767,-0.36190987,-0.0651341,-0.41966975,-1.1866746,-0.24519509,-1.6603303,0.15848163,-0.9348879,-0.6194645,0.20254672,0.7450144,-1.3431901,-0.98771477,-0.52798206,-0.54115546,-0.82742065,-1.4887803,0.78442824,0.77403224,-0.12079189,-0.06758496,0.21740857,-1.2502215,0.4130456,-1.0590806,-0.2994883,0.5888605,-0.7286016,1.5400596,-2.0469975,-0.12909421,0.2824375,0.4184172,-0.119260445,0.75056314,-1.3078046,-0.124257445,1.1810143,-0.17291903,0.18958287,-0.3426175,-1.1709832,-0.30704087,-0.5135041,-0.35982865,0.44955927,-1.0014677,1.5810435,0.67062473,0.0048197703,-1.4451143,-1.0696831,1.1243563,0.71019113,-3.308809,0.58783054,-0.31790423,0.27992576,0.5366348,-1.1971397,0.46879712,-0.122396834,-0.98222613,-0.31670615,-2.4045691,-0.17136368,-0.4017847,0.25675696,0.40633124,-0.6505132,-1.035734,0.46808404,-0.3235095,-0.25247082,1.389129,1.103415,0.6501285,0.52029943,0.22012892,0.014536401,0.35540128,0.77914023,0.92246103,-0.2784357,-3.112623,-0.95185447,-0.21848312,-0.42893705,-0.3360774,0.868224,-0.460355,-0.4245534,-0.041480362,-0.9699678,0.7898468,-0.8334894,0.2827381,0.28899547,-1.142247,0.88905764,-1.458565,-1.5166849,-0.7009995,1.1310077,0.24097735,0.3418655,-0.58179367,-0.5700243,0.2913366,0.59486926,-0.035959512,0.4715963,0.25737894,-0.04937185,2.3905602,-0.29528913,0.47718772,0.4659988,-0.24618249,-0.76943624,1.5442386,-0.38592392,-0.26686436,2.6142006,-1.0030911,0.39833638,1.874627,1.3574871,0.42939097,-0.63435954,0.9128575,-0.09123698,-0.12415152,0.42093855,-0.15456116,0.33471072,0.08596025,-0.099098146,0.35466355,-0.4603081,-0.37984657,0.42410505,0.51914805,0.5908738,0.22091146,1.4292629,0.7677283,0.56245744,0.35109663,0.5560655,0.36254987,-1.5091223,0.8456825,-0.24809217,0.8438686,-0.00012978294,0.68445635,-0.7325572,-1.1994224,0.40147424,-0.24927714,0.850754,-0.13760725,-0.44758457,1.3973372,0.23076317,0.44481546,0.71032435,1.0900395,0.9293338,2.9334526,0.7143398,-0.9797162,0.223482,0.069522984,0.8111971,0.7584747,0.58416355,-0.6456237,-0.576527,-0.03560242,0.27899688,-1.4640293,-1.5060956,0.821086,-0.35353792,-0.38733315,0.01570886,-0.47058782,0.4472142,0.78187716,0.5185913,-0.3879537,-0.8398931,0.61251676,-0.9052849,-0.53979266,-0.2327236,1.7579098,0.90683085,-0.110898465,-0.6853945,-0.16346323,0.28501633,-0.9335312,0.6118574,-0.26042944,-0.49025232,-0.052016858,3.5115256,0.89521784,0.5284196,0.3938967,1.761561,-0.11730188,-0.07321775,0.31945074,0.27562588,-1.0814621,0.697585,1.5230348,-1.0712575,-0.38664764,-0.98078,-1.0648568,0.66873825,-0.007985498,-1.046201,-0.47852957,0.4077555,0.51673883,0.3143503,0.2645796,-0.3400337,2.0014286,1.4491847,-1.35254,-0.14099923,0.18019348,0.17721346,0.339151,0.055593863,0.8094914,0.93003404,2.3587594,-1.505657,0.15264492,0.6974468,-0.06492627,-1.5283422,-0.4640985,-0.71949905,-0.4799441,-0.8354964,0.21355107,-0.024993913,-0.1326986,-1.4576848,-0.08818655,0.16584936,-1.524107,1.5568154,0.99814004,1.5591979,2.0947168,0.8462037,-0.58430123,0.085701,1.3844206,-0.7329625,0.49916264,2.4106913,2.5966794,0.36385575,-1.6389935,0.41411033,-2.1792293,-1.114859,-0.040967885,-0.23471823,0.84086466,-0.1941928,0.10895054,1.2529411,0.8534716,0.16360235,0.111115046,1.0862412,-0.49627763,-0.61908376,-2.7634487,0.9764327,1.4539255,-0.47188532,-0.0024440708,0.035732593,-0.18569534,0.23218563,0.45647776,0.030639317,-2.0934858,-0.33118236,-0.0036831982,0.43321055,0.28315473,0.19527137,-0.17778158,-0.15289268,-0.247123,-0.30453143,-0.30579838,-0.652491,0.00012664497,-0.62147045,0.5373112,0.04863265,-1.7943585,-1.1545355,0.2791515,1.7386212,-0.4147591,-0.660166,-1.1183892,-0.3339998,-0.2360022,0.29038095,0.78147924,-0.80918026,0.13433257,-1.9012876,0.12571664,-1.9767792,-1.2302685,0.2378419,1.2034767,0.24430835,-1.8275371,0.8539914,0.4682267,1.4897494,-0.35500282,0.22502695,-0.7393547,-3.4600863,0.6085558,-0.102310404,-0.689091,0.21077232,0.6809435,-2.5080285,-0.73316383,-0.07756202,-0.029384773,0.32508188,-0.75445825,1.0816307,-0.421306,0.16196638,-0.23651475,0.872476,0.05652847,0.10473945,1.1204169,0.10402925,-1.2650425,-0.4082265,-0.6315199,-1.1099815,0.4048276,-1.2064335,0.3868882,0.08413823,0.3784812,-0.03512335,0.122713536,-0.8274956,0.04530772,-0.14881042,-0.52867925,-0.034161646,-0.59986365,-0.0924187,0.15131181,0.60911036,-0.7560148,0.023044812,-0.44229543,0.6069275,0.27344686,-0.8812012,-0.008050021,-0.34411746,-0.13823935,-0.5379399,-0.34778082,-0.8597821,-0.52210665,-0.30222058,0.12303743,-0.37982792,-0.8713496,0.10341534,-0.5529134,0.5373876,-0.14402363,0.034592096,0.24945296,-0.5579196,-0.3725056,0.42329144,0.03730028,-0.17625207,-0.1589843,0.65441775,-0.106776506,-0.7945976,-0.48507237,-0.3327558,-0.14541978,-1.4674221,-0.5137226,-0.6478984,-0.23843303,0.07204953,-0.2688294,0.31398505,-0.0226551,0.051857814,-0.23670906,0.057089835,-0.4782387,0.006479624,0.077177584,-0.2703855,0.49551237,2.025629,0.2502232,0.3406797,0.85332936,-0.84714645,-0.53828824,1.3568348,-0.81980395,-0.4552633,-1.0674212,1.4781849,0.61462563,-0.6854761,0.16467321,1.0449733,0.5342431,-1.0011938,0.46019775,-1.988447,0.07133283,-0.96527565,-0.4556082,0.06610476,-1.1260936,1.0182683,-0.8983711,-0.70068616,-0.5590475,0.10771217,-2.434445,-0.49144238,-0.4295162,0.18719795,0.8478743,-0.91870177,-2.0256057,-0.9068182,0.3752607,-0.5235605,0.8649976,-0.9541755,-0.5477201,-0.2757459,-0.45141697,-0.7408439,0.67468786,-0.85630524,-0.9464098,-1.6884389,-0.3792138,-0.19822505,-0.8541907,-0.17062095,0.07868579,-0.85696816,-1.9312105,1.1670284,0.18769756,-1.004243,-0.69895244,-0.051535398,0.11509757,1.4150715,-3.058065,-0.5965713,0.16834068,0.6556542,-1.0701072,-1.4908003,0.4592957,0.06491868,-0.9023733,0.3283906,0.13689047,0.6850917,0.9723269,-0.043086827,0.16533497,-0.09860991,1.2778926,-0.6029091,0.40865898,-2.6122966,0.81383175,-0.45060903,-0.6693952,-1.1164949,-0.12085588,1.4013349,-1.1505631,0.3840935,-1.6552056,-0.9876343,-1.2791266,1.2511362,-0.15256906,0.27234638,0.1894775,0.7972243,-0.3982313,-0.47393113,-0.21286818,0.06496768,-0.04108756,0.24606955,0.6252924,-2.0983486,-0.7682135,-0.61009383,-1.3984245,0.20214877,-0.9721844,-0.7663413,-0.16346231,-0.51249266,0.53924763,0.59338546,0.2952767,-0.21739388,0.2151661,0.6241677,0.07014543,0.30447066,0.03472062,1.207937,0.4544441,0.70532036,-1.9462577,-0.10592751,2.2274742,0.2900801,-0.9904414,-0.93573886,0.81582165,-1.2902853,-1.0585778,-0.65910256,-1.0452564,-0.42377084,2.3175604,0.99221337,0.37669855,-1.7903776,-0.6635592,-0.26144183,0.46469566,0.5084078,-0.07270736,1.1060556,1.1350381,-0.39548588,-0.7464939,-3.212347,1.1644373,0.20067677,-0.7314662,1.0038326,1.6028035,-0.37718168,0.26603895,0.16893625,-0.18525559,0.57445467,0.03952498,-0.4478976,0.1536809,-1.3051763,0.14141619,-0.6940943,0.84958935,0.17762771,-0.5776254,0.8768972,-0.18943813,0.41838765,0.4673034,0.07603188,0.6300965,0.02795254,0.46443945,-0.01473543,1.4112177,0.8852278,0.41953737,-0.35752648,-1.5749373,-0.03568641,0.60151297,0.4471029,0.9902864,0.7883532,0.14232987,-0.94805825,-0.95609283,0.28340948,-0.0073648198,0.07911759,1.049772,-0.179668,0.48002708,4.8790874,-2.307641,0.7622605,2.2010908,1.0435715,0.44388956,-0.53613615,0.4405452,-0.051117096,-1.7234455,0.1005149,-1.8390243,0.6181733,0.19307321,-1.2095973,0.63554376,-0.6146375,0.17060746,0.17588297,0.64478564,0.7931502,0.0015770651,0.48262602,1.1306183,0.5350332,-0.018445633,0.39006487,0.10017033,-2.721213,0.6235838,-0.09968895,1.0562115,-1.6862953,0.58293676,-0.94121695,-1.3458393,0.28644565,0.18718883,0.2425923,-0.12026963,-0.04659323,0.9032558,-0.4955335,0.09899025,0.49611938,0.4546522,1.2921304,2.4135718,1.1535974,0.02326078,1.0215089,0.6925404,0.30382547,0.6027731,0.3617422,0.26961595,-0.08845571,0.76374483,-1.267709,0.37031674,-0.520715,-0.46216357,-0.60134375,-0.08240497,2.7837844,-1.2186418,1.3699594,3.5854707,2.2243178,-0.05447375,-0.83686763,-1.2068036,0.42070705,-1.724648,0.8901838,-1.6256518,0.71297073,1.4397193,-0.0076609226,-0.22427306,-2.4894476,0.68700755,-0.95237386,0.9605631,1.0399127,0.34622842,-1.0039654,-0.19229336,0.7215469,-0.4427199,0.8432498,0.23101181,-0.95621306,1.4915557,-0.36429727,1.205324,-0.51809764,-0.16605332,0.43243152,-0.08766314,0.9579598,-0.025540013,-0.31960434,-0.121535584,0.09442821,0.35469365,0.12988195,0.25448674,-0.53113794,0.31707507,0.2529319,0.26707685,2.2371743,-0.3692912,0.71568847,0.47239196,1.0978342,2.127359,0.5695011,-0.21242169,0.31555873,0.76308095,-0.4858936,-0.20067886,-0.32852727,0.50223845,-0.8514744,-0.5597087,0.42232412,-1.0190387,0.12364493,0.8307197,-0.60192204,-0.5488963,-0.9486207,-0.74721986,0.42172244,-0.67866874,0.07354124,-0.20845556,0.5962186,0.21740532,-0.2547794,0.011135955,-1.8680378,0.09175371,-0.7367897,0.1226419,0.11386842,0.29750878,-0.37992132,-1.1259284,-0.68880427,-0.21933538,0.1855523,0.09777069,-1.0455086,0.2892211,-0.34894937,0.5106751,-0.48497224,-0.32861647,0.30714002,-0.23752323,0.5306554,0.26479155,-0.54664576,-0.3561858,-0.47151405,-0.66529316,0.20171052,0.22212249,0.062620945,0.5103474,0.23957375,0.04846091,-0.636007,-1.5392656,-0.7655127,-0.07536751,0.44859904,0.5205376,0.2856871,0.20412712,-0.36331564,0.96186244,-1.1403205,-0.5658363,-1.0790248,0.39042586,-1.4758065,-1.4043698,-0.054340072,-0.61758584,-0.40333408,-0.46302146,-0.8677973,-0.1565465,-1.3498969,0.1701524,0.58474123,-0.13855407,-1.0280358,-0.87011874,0.14341956,0.4513395,0.021325415,0.24499142,-0.27143848,0.024777621,0.2498698,-0.5793596,0.08187593,0.9658232,-0.47268832,-1.5336924,-0.27946153,0.5749823,-0.62502664,-0.33139473,-0.43702242,-0.7146385,-1.1500723,-0.5251049,-2.4129288,-0.36531803,-0.90822124,0.0072337566,0.07472104,-0.30777743,-0.1393501,-0.6070144,1.010488,-0.52180374,-0.86406314,0.6936269,1.0351527,0.28493285,0.28044105,0.5182278,-1.1695063,-1.9323535,-0.6039357,-0.5198066,0.31642073,-0.93129575,-0.4771468,0.4238881,-0.30144984,-0.053513873,2.474419,-0.18797252,1.4464979,0.74157953,1.393775,1.0263212,0.13449836,0.05510565,0.6009884,0.8466354,-0.09979199,-0.15287195,0.5818273,0.4756793,0.4138027,0.79959625,0.40983215,0.4257139,0.53097725,-0.16684482,-0.04710749,0.48766857,-0.051345106,-0.15319403,0.95565903,-0.17371371,-0.004402121,-0.33060592,1.0796309,3.0873208,-0.1164854,-0.411235,0.29445475,1.1392183,-0.16517152,0.8538286,1.2198921,-0.017656922,0.8410495,0.7044815,0.3688842,0.5728452,0.020114318,-0.30562657,0.6211258,-0.1595993,0.29965296,0.6828282,0.434112,0.21946627,-0.32947016,0.5506387,0.3887596,0.24808708,0.5558994,0.78683877,0.020657513,0.96763796,-0.54794145,0.63876283,0.8699899,-0.22601551,0.16790494,0.99276084,1.1323965,-1.1812732,1.155225,-0.04820419,-0.02560769,0.4291648,-0.66785204,-0.3994326,-0.42667413,-1.0968752,-0.9582963,-2.1905255,0.19706994,1.1044405,-0.69688034,0.03473957,0.19531626,0.07826011,-0.6596152,-0.80753064,-0.52033126,0.9203591,1.3947511,-0.603874,0.9515132,-0.037916027,-2.4655623,-0.8892939,0.25233608,0.8098861,0.34469503,-1.5042735,0.11494301,-0.46803594,-1.0466025,-0.7754217,0.7508265,-0.67870617,1.1256559,-0.7465422,-1.5510237,-0.14906698,-1.6687692,-0.27181074,0.24209398,-0.29757312,-0.9552234,-1.0520663,-0.31137818,0.55448395,-0.27283978,-0.4000594,-1.6374227,0.0013478689,-0.7993434,-0.14617348,-0.05624944,0.29715604,-0.28935063,-0.41724873,-0.65433156,-0.8384448,-2.0654035,0.7529769,-1.5816494,-2.8120804,-0.2906857,-0.50917023,-0.8518697,0.60253257,0.55223703,-0.48335373,-0.09294188,-0.49037772,0.7312627,-3.555242,0.25249967,-0.36016622,0.43199712,-0.99498576,-0.50176364,-0.25456834,0.37403575,-0.7573328,-1.2033377,1.0361133,-0.5755818,0.21614587,-0.25080538,0.48938626,0.06936263,0.15247422,-0.48646718,0.19676146,0.023508115,-0.9743202,-0.78352183,0.229143,-1.3171082,0.51942754,0.4659334,-0.47176397,0.14204952,-0.94707173,-0.2724067,0.037503578,-3.5118065,-2.145193,0.5284731,0.07202714,1.007554,-2.727777,-1.6685466,0.0076267705,0.071395904,-0.6295718,-0.53512585,0.5943215,0.21919167,0.11942785,0.18491638,-1.1530023,-2.1201239,-2.9150271,-0.3061065,0.91038394,1.1314011,1.2631702,-0.026165612,0.30264652,1.7464881,0.083754584,-1.0818081,-1.6233337,-0.5860297,-0.28995192,0.16493377,-0.50375944,-0.47145784,0.08936235,-2.0546613,1.5631279,-0.3021093,-0.5913662,0.8847916,1.0788212,-0.49645117,0.3056845,0.95632166,-0.14654793,3.3459735,0.12028417,0.93096507,1.0646546,1.9154785,-1.9628205e-05,-0.17788348,-2.1965623,-0.68101096,-0.13543856,0.35861322,0.96976054,0.37881875,1.0716988,-1.4538281,-0.18161792,0.5418695,0.2003246,-0.28947487,-0.0014514317,-0.03964182,-0.523444,0.68949807,-2.6827183,0.9741373,0.47886068,-0.82699484,-0.29205257,0.46121654,-0.16323882,0.49293467,-0.5923116,-0.050030015,-2.0102313,-0.5678749,0.85365486,0.7332295,0.42702407,1.2500798,0.3144287,-0.12436749,-0.15239882,-0.90947944,-0.3426028,0.35226816,-1.4400014,0.279819,-1.0883696,-0.09992294,0.9069984,0.25212264,-0.6792946,-0.857851,-0.39411333,0.57529736,-1.0745335,-0.8196254,0.5568791,-0.5960705,-0.76882255,-1.3923912,0.5685726,0.57822037,-0.41821924,-0.16948952,0.040315017,-0.28528726,-1.7087691,0.66883886,-0.8111527,-0.19033432,-1.2263243,-1.4854481,0.41151583,-1.0767409,-1.7996658,0.765452,-0.5772265,-1.1056278,0.5938034,-1.2310028,0.08007084,0.025228899,0.53857076,-0.20243219,0.71149325,-0.28538764,-0.61496884,-0.008564543,-1.1693296,-1.9657267,0.04573523,0.093116716,0.055363193,-0.6555036,-1.8694391,-0.06535742,0.41381842,-0.29738367,0.9829875,0.14254132,0.33755183,0.6264764,0.27814335,-1.4044722,-2.202006,-1.3203311,-1.3287768,-1.0523818,-0.2251952,-1.3226638,-0.7419263,-0.0835661,0.10153106,-0.5639075,-0.5366969,-1.0632395,0.009449674,-1.8201272,-0.72069174,-0.40020937,-0.27981755,-2.1658852,0.48195702,0.9910965,-0.5015396,-0.2684995,-0.15670629,-0.9213498,-0.3000518,-1.18711,-1.6574259,-0.0005948286,0.23773634,-0.936134,-1.1077178,-0.7359044,-0.45563078,0.8074975,-0.43135545,0.2895894,-0.28425175,-0.15937328,-0.27012306,-0.5985782,1.0736742,0.67091995,-0.015470635,1.101116,0.8393651,-0.63090956,0.5603799,-1.1946356,-0.24695158,0.97837174,-0.4319208,-1.3077257,0.060636193,0.66276854,-0.5054338,-1.3338242,-1.0347635,0.10652217,-0.3783211,0.66626656,0.14248803,-1.1123629,0.6404339,-1.2501552,-0.75324625,-0.98639774,-0.47054467,0.51276684,-0.7125977,0.7289422,0.90007484,1.1776693,1.9520161,0.62853396,0.18882062,0.929439,-0.061224725,2.7874846,-0.9886937,-1.7133356,-0.038523328,-0.28611708,-0.87101567,0.2695279,0.9276318,0.7321153,-0.47440025,-0.9088008,2.011239,0.7029742,-0.6394948,0.82146776,0.46065623,0.27598292,1.1561663,-0.13334659,-0.24175602,0.7222501,0.09228905,1.3472762,0.6254773,-0.75431937,1.2208309,1.0201393,-0.85474455,0.20829453,0.8467658,0.13595901,1.2085433,1.02265,0.36766094,-0.45973206,-2.1498475,-1.2205253,-0.7422969,-0.8304206,-0.54079705,0.12052857,-0.50035787,-0.30860832,3.4579306,0.4303377,0.15008739,0.5819665,1.0318577,0.18181121,0.29954273,-0.6594742,-0.7100358,0.42438048,-0.21254912,0.8278555,-0.75563765,0.16031478,-0.665457,-1.1548553,2.397384,0.19213715,-0.42991462,0.49296206,0.7420584,0.21130605,1.0413953,-0.7592759,0.47511464,-0.54656744,1.2120667,-0.33557248,-0.0736514,0.565192,-0.2774132,1.0650697,0.2620299,0.9541203,-0.18554792,0.6005706,-0.83199084,-0.58023787,-0.69006324,-0.9179691,1.185617,1.8352954,0.3583267,2.801791,0.19413008,-0.051898435,0.35283798,-0.4079111,0.46242258,1.2223029,0.6524806,-1.1463677,1.6807321,0.31240213,0.2498565,-0.9499162,-0.8679786,-0.40401787,-0.12472731,0.0750044,-0.55055875,-0.37315887,-2.0800762,0.3487522,0.37166804,0.78904873,-0.27339518,-0.07717055,-0.30726388,0.7212033,2.7086205,-0.43582797,-0.52648616,-0.6357001,-0.38010404,0.40474787,1.2427713,0.2674275,0.65789783,3.5190349,0.710752,0.7809501,0.8809161,-0.5839944,-1.1790498,0.18417358,0.16332678,-0.031533584,0.73520887,0.8451451,-0.5498481,0.7002427,-0.18149371,0.2024394,2.0310838,-0.7029817,0.69340587,-0.6575721,-0.27222705,0.47849488,0.74783343,-0.5651251,-0.0031584527,-0.63919914,-0.3855012,-0.116589576,0.12384665,-0.3689972,-0.46811098,1.2852427,0.24453723,-0.47728413,-1.2819065,-1.0155034,0.16055539,0.22916591,1.6533806,-0.18801054,0.2804727,1.1105962,-1.7174083,1.1231682,0.027252935,0.47832525,-0.13073227,2.2335877,-0.31874502,-0.8661585,0.6222755,-0.7244442,0.081627,0.25501263,-0.9406042,-0.13010976,0.68170094,0.7289535,1.2344135,-1.23704,-0.27184692,-0.07836831,-1.9008157,-0.9532188,-0.5758606,-0.25594056,-1.5448438,0.0704467,-0.20478654,-0.71653634,0.15957978,-1.193919,-0.34694856,-0.9905684,-0.07849392,-1.6983433,-1.3141408,0.41185385,-0.70165956,-0.6884304,-0.8508872,-0.15845516,-0.87706554,0.81137764,-0.5508665,-1.7230954,0.9693223,-0.16900164,-0.85253036,0.051963825,-0.93557304,0.3943715,-0.7315271,-1.4326248,-1.0126567,-1.4214523,-1.1521955,-0.862814,-2.0613494,-1.0063269,-0.7401067,-0.5120978,-1.6010938,-0.012688329,-0.3944245,-0.08969876,-0.29325992,-1.1251876,0.07688001,-1.3435708,-0.003402161,-0.9252138,0.0471157,0.088744506,-1.1786926,0.6323403,-0.70016074,-0.7435378,-3.9950113,-0.55070007,0.62320745,-0.5660164,-1.3001528,0.36715993,0.25804293,-0.059278317,-0.72685164,0.65279675,0.75198996,0.025241323,1.2743019,0.16302246,-1.260877,-0.4162303,1.4117992,1.4642615,-0.1460299,0.22025105,0.11891575,-2.9639528,1.3356597,-1.1775752,-0.8017427,0.6069102,-0.52274543,-0.11385851,-0.8963075,0.2218839,1.2430604,-1.4344587,-2.5837994,-0.032662652,0.58609384,-0.007717396,0.4151706,2.0567875,0.17727402,1.8802449,0.48527884,0.48856503,-0.55787385,0.55810463,0.06378995,-0.18581527,0.2955991,-0.48759943,-0.170519,1.2370877,0.8461249,0.53728485,1.4629886,0.8834935,0.8266182,-0.94517815,-0.3108897,-0.5902103,-0.46250147,0.25635457,1.1400183,0.76957583,-1.3261778,2.2309098,-0.42551044,0.05368519,-0.46223587,1.2224038,-0.72226185,0.042958125,1.1180133,1.0828755,0.15601581,-0.18487722,0.48492032,0.24852483,-1.1690564,-0.87778616,0.51415503,0.2876914,-0.56286734,-0.7430212,0.16168737,-2.0509853,-0.6088364,2.3457363,-0.8864937,1.407596,0.82471406,0.2452452,-0.1732464,0.70107555,1.1669043,0.8231238,0.4456501,1.262413,0.71442986,0.6957097,0.26802307,0.5460828,-1.5044897,-0.49519545,0.27369428,-0.4197967,1.160956,-0.6351998,0.43089023,1.024523,-0.7921529,0.14450446,0.24288815,-0.5491935,-2.0053334,-0.42798677,-1.6141396,0.62720466,0.91032827,-1.0112481,-1.0212187,-0.6120223,-0.083995014,0.1466044,-0.1655398,0.3272711,-0.78421545,-0.677623,1.5175617,-1.5888746,-0.23032378,-0.28444362,-3.9756577,0.16360092,1.3484995,1.0797824,0.15539074,-0.33770183,0.660126,0.2628521,0.16304341,0.8550736,-0.4653388,0.046745375,0.70458513,0.6978332,-0.2151623,0.18144825,0.25884715,0.6785953,0.6451372,-0.0738928,0.8731853,0.16912362,-0.40420848,-0.32570976,0.40859902,-0.30399254,-0.80192065,0.7413999,0.41064602,-0.19418001,0.06316505,0.92012906,1.4284792,0.22097513,0.43132097,0.43996564,-0.17915957,-1.2296151,0.29652643,0.55048627,0.032277636,0.49697876,0.85160494,-0.8056512,-0.55565524,-0.12553102,0.0070182336,1.2850296,0.11200173,0.16283764,-0.20851803,0.6525761,0.22770658,0.8367048,0.49648038,0.30339688,1.9006909,0.35278982,-0.15007284,-0.17740405,0.23420164,-0.01365133,-0.3722355,0.054081075,0.4037438,0.002365693,0.9746393,-0.050292403,0.25792453,-0.44445217,-0.7005589,0.92111194,0.5457201,0.8947139,1.462492,0.6462123,-0.8706941,0.39385855,-0.43454126,1.1323469,0.7740464,1.55719,0.92085314,-1.6861854,0.6075522,0.084026724,-0.68200076,0.35587853,0.38630724,-0.26591438,0.20315889,0.18633616,0.7704367,-0.52883655,-0.7312722,-0.24401172,-0.08719084,-0.83576894,0.44117692,0.2680481,0.51814973,0.5832032,0.18702722,0.45785278,1.413806,-0.12936932,-0.09092781,0.94829524,0.7080576,-1.3513473,1.0927079,0.42530406,-1.2174728,0.41595548,-1.7525162,-0.0034198698,-0.5999899,1.3098822,-0.45541272,1.0010165,-0.36908543,0.00624749,1.3383564,-0.15436502,-0.9044699,-0.18750294,-0.5254818,0.5275212,1.9515473,-0.4526341,-1.3364491,0.08692421,0.35709244,-1.2838838,-0.12504832,-0.51864654,-0.7414155,0.47597086,-1.2376621,0.004509026,-0.06228211,0.09506495,-0.39247108,-0.9029383,1.1881123,-0.9329959,0.3468868,2.018762,-0.3932364,-0.7198932,1.1137958,-0.6835035,-0.3320351,1.0842056,0.81127304,0.66858196,0.62753683,1.6575722,0.7725303,0.5418376,-0.12615053,-0.25952426,-0.55806947,-0.07948519,-1.3375375,-1.4624295,1.1940856,-0.6611513,-0.052766696,-2.541181,-0.649433,-1.722261,-0.5061257,-1.1999928,-1.6117829,0.19746874,-0.24338453,0.9927683,0.057617035,-2.6467495,-0.7121621,0.73924184,-0.30265787,0.32019275,1.0290412,0.57075703,-0.9003789,-0.21126664,-1.4817936,-0.5205858,-0.27424675,0.1637637,-0.65546465,-0.5933391,-6.8674326,-0.16212437,-0.27978954,0.668043,0.12177455,-1.2812557,-0.8586731,-1.5282072,-0.33637378,-1.2508459,0.016339654,-0.935683,-1.5846968,-1.6595513,0.18570212,-0.12944207,-0.98328424,0.22223696,0.03693092,0.3309623,0.6567024,-0.2658681,-0.17029604,0.60174334,-0.020692673,-1.6795989,0.3350906,0.95492935,0.5553588,0.8586537,-2.0007267,-0.53214294,-0.123560995,-1.9083661,1.0258678,0.5319015,-0.5428465,0.9982601,-0.19935033,0.42249662,1.327132,0.72220826,0.16154344,0.23516522,0.5883454,-0.6584283,-0.66836685,-0.9996525,-0.31190133,-0.5410094,0.45891124,-0.17937407,0.15956715,-0.28540945,-0.41535708,-0.4032303,-1.5157969,-0.5783959,0.59460044,0.41383654,0.8955209,-0.67551816,0.309428,0.04663091,0.14871022,0.3552022,0.361595,-0.13448967,-0.85259926,0.11622206,-0.20833084,-0.15976101,-0.556051,-0.17700124,-0.08909492,0.9656557,-0.012481354,0.15318939,-1.0024157,-0.03895192,-1.1214628,0.10247548,-0.12608184,-0.9669689,-1.0854671,-0.84876907,-0.71717817,-3.5191872,-0.6300498,0.20461187,0.59268546,-1.3377229,-1.0646734,-0.0752864,0.5558689,-0.55464816,0.54218304,0.3067759,-0.433288,-0.027506515,-0.15216975,-0.044075906,-0.99874526,-0.6175666,-0.5316413,0.669,-0.73516583,-0.29351768,0.13713658,-0.2887618,0.84680355,-1.1293132,-1.1570325,0.106725246,-1.0470417,0.7267548,-1.2879832,-0.8912449,-0.2635275,1.14731,0.25427967,0.70564854,-0.31732863,-0.22077693,0.20165002,-0.50317955,-0.84837466,0.5109303,0.5561749,-0.81749046,0.8972511,0.1287165,0.20663792,0.40840968,-0.4552099,4.9103603,-0.30862746,1.8923709,1.7528901,1.327996,-1.1311531,1.0191926,-0.013875375,-0.11424088,0.37427622,0.45450836,-1.4054983,-0.1562997,0.8632344,0.06685464,-0.074186906,-1.3698508,0.23556828,-1.0533168,0.39152837,0.9409533,-0.31964433,-0.9930432,-0.016622119,1.0265162,-0.12236194,-0.39839172,0.26155144,-1.1735876,0.618636,0.18353137,2.2262096,-0.25272626,-0.70363665,0.695749,-0.45146,0.086265504,0.7647952,-0.036602758,-0.8605541,-0.28041428,-1.3961027,0.5668552,0.18968752,-0.21812087,0.7975166,0.46483535,0.95206916,1.115319,1.2764261,-0.8686849,-0.21044978,0.33660465,1.0777383,1.2552571,-0.64570606,-0.06426482,0.040951326,-1.3322897,-0.2386826,-0.82133937,-0.28889155,-0.96012855,-1.2129886,-0.4165003,-0.112266615,-0.10167779,-0.36065352,-0.62198603,0.08611648,-0.7646468,0.059677966,-0.24401203,-0.52672446,-1.1858876,-0.4368509,0.0023124618,-0.15038715,0.3440116,-0.51897526,0.19522253,0.038695615,-0.84209967,-0.5772872,-0.16287342,0.37269098,-0.9845079,-2.010067,-0.3197591,0.3058226,0.042445034,-0.2532255,0.46427363,-0.34092474,-0.75305516,-0.039069157,-0.8792911,-0.13702914,-0.37792814,0.18398419,-0.31406307,-0.16030106,-0.8134567,-0.98289764,-0.049078975,-0.46150312,-0.8217815,-0.06629631,-0.14529659,-0.6009057,0.1041123,-0.51435345,-0.2760306,-0.69880384,0.027132709,-0.41200775,0.28466237,-0.55107725,-0.09266214,0.73397714,0.24939504,-0.357728,-1.8451135,0.3384946,0.09277181,-0.55749416,-1.8396982,-1.0294487,-2.1643505,0.14526725,-1.0268594,-0.71570784,-1.9462013,-0.34070837,-1.7547948,-0.069863215,-0.27499652,-1.4597979,0.83071804,0.7474339,-0.06072218,0.5492759,0.8437736,-1.0426087,0.47777373,0.4228167,-2.0096178,-0.3797953,0.9197862,0.6424385,-0.69801533,-2.5916123,-1.1108238,-0.34033155,-1.7216382,-0.4739046,0.8398024,-0.24239987,-0.41217405,-0.54881847,-0.22369733,1.2269368,0.5075339,0.06524493,0.4518364,-0.0139686195,-1.7691233,-1.8245668,0.099474266,0.18600282,-0.9220611,0.5413242,0.008245244,-0.00021845012,-0.42955363,-0.76848024,-0.92600924,-1.7885624,-0.64088786,0.1969695,-0.05254317,0.2314448,-0.24262297,-0.38174963,-0.527123,-1.3123603,0.3592466,-0.30819362,-1.4862165,0.037611675,-0.19439235,-0.9886945,-0.33012757,-0.20633456,-0.78651285,0.25410235,0.43112847,-0.6378819,-0.51980716,-0.55935335,-1.4546797,0.12744349,-2.4966774,0.11266579,0.029367682,1.0891773,0.5103339,-1.059905,-0.45623088,0.46612698,0.21193771,-0.10738854,1.6696726,-0.5832114,-0.062870726,-0.6363771,0.3583017,-0.89527464,-0.091293424,-2.0076504,0.19562778,-0.07685575,-0.46434933,-0.56425774,-0.25714815,0.61284435,0.46460736,0.978307,0.7095718,-0.97470176,0.23344222,-2.6687078,0.78423053,0.7788297,-2.1139867,-0.005415082,-1.9169991,-0.6617801,-0.54828703,-0.5808505,-0.33874336,-1.0664089,-0.4777997,0.6073787,0.7741973,0.77168906,-0.7532006,-3.1751618,-1.994601,-1.3310599,-0.1601102,-1.2381564,-0.9647578,-0.24203384,0.16204152,-0.02500327,-1.9162183,0.5986246,-0.9287276,0.26864755,0.20591463,0.08591006,0.44210994,-0.026088398,-1.1128194,0.41981053,-1.4730389,-0.40502542,-0.00025884435,-0.23204824,-0.1612733,0.4903321,-0.1469625,-0.042071752,0.60014576,-1.6609527,-0.8488591,0.45888442,-0.91392434,0.14646055,-0.07181412,0.48336682,-0.5933957,-0.04406043,-0.027756445,-0.12872863,-0.83662486,0.23784727,-1.1913564,-0.1967521,-4.323189,0.31533277,-1.2538135,-0.7984432,0.1006561,0.8755745,0.6725066,-0.9340215,-1.4861962,-0.605804,0.59830403,-0.19412257,-0.03288761,-1.2928085,0.10796503,0.30961388,-0.84912735,0.34424424,-0.3441466,-0.596843,-1.2907326,-0.14438176,-1.5141482,-0.8366411,-0.08883759,-2.272237,-0.52496785,0.111105606,0.56157094,-0.176007,1.6970911,-0.409846,0.6026305,0.90399003,-1.0912901,-1.3514261,0.9205275,-0.8663192,0.18338016,-0.25831395,-0.30169192,0.3948946,0.21056396,-0.9480258,-1.1365972,-0.3529792,-2.0919952,-1.032853,0.08393289,0.30183125,-0.19732901,0.17296538,0.90254056,0.6011925,-0.28088474,-1.5404968,1.5512016,-0.2877073,-1.3979654,0.33724642,-0.46091154,0.0282928,-0.13951449,0.34083515,-1.6900132,-1.4439906,-0.0552506,0.040859047,1.3766859,-0.4609663,0.6421704,-0.637433,0.41352856,1.0869191,-0.5800748,-0.2517765,-1.0117292,1.833648,0.30822456,-0.21834818,0.45999745,-0.81429815,0.17459624,0.16241118,-0.76770663,1.2188509,-0.62799346,-0.07592419,-2.1746686,-0.2916332,-2.2307677,0.35633513,-0.9612193,-0.6705069,0.5320589,-0.5451949,-0.18867525,-0.05545742,-0.18801825,-0.84639716,-0.5699601,-0.8243915,0.4495791,-0.87665987,0.13594677,-1.6849749,0.7482126,1.1661417,0.080576465,0.17688622,-0.46581823,1.0203888,-3.2557564,-0.22009015,0.9687474,1.019587,0.047683913,-3.416394,-0.018066062,-0.8492863,-3.1354094,-1.3702741,0.12935057,0.18600139,0.13939494,0.49804583,-1.9335003,0.00027511257,0.2055151,0.40918165,-0.25297648,-0.5297135,-1.5731075,-0.41931334,0.2750957,0.32819945,-2.0607486,0.16947258,0.89927334,0.19082475,0.23130572,0.61257404,-0.10517357,-1.1212391,-0.42073512,-1.3345208,-0.2449112,-0.10405961,-0.49031377,-0.5451763,-0.7951293,-0.80163825,-0.065741755,-2.207586,0.5707656,-0.2351832,-0.24293137,-0.37804604,1.7024771,-0.27174073,0.13101375,0.7030933,-0.75321436,-1.505768,-0.23536259,-0.48665193,-0.9104531,0.2938059,1.1820207,-1.7339764,0.7549909,0.25978488,0.37664607,-0.48405927,-0.45147854,0.83356553,0.59130883,-0.8798119,0.49707097,1.4429724,0.79767954,0.5993006,-0.7063923,-2.8058963,0.034168586,0.6319519,-0.75178003,0.5091105,-0.2779162,-0.7753459,-0.58018637,0.22884756,-0.90144813,0.18081239,0.6291388,0.492939,0.9986059,1.698835,0.6320224,-0.3561146,0.2935332,0.0030928857,-0.4779666,-0.4233889,0.76141554,0.77699566,0.20097873,0.02907509,1.3686764,0.15089203,1.797792,0.21783757,-0.47446644,0.619308,0.2831301,3.5450559,0.7733128,-1.0923715,-0.9974265,-1.0474653,0.032362998,-0.26594418,0.7770703,-0.10638389,1.0901895,0.055784382,0.6934143,-0.49257442,-0.077734925,0.4177961,-0.46901333,-0.24393636,-1.352057,1.8024943,-0.37035415,0.16302639,-0.12346351,-0.20927912,0.9321992,-0.528198,0.253744,0.65406454,-0.68014264,-1.1819727,1.0497609,0.04806037,1.0511273,-0.047781058,1.3130672,-0.24718401,0.97769845,-0.24300286,-0.39474273,-0.12311246,0.9855101,0.19369254,0.48299783,0.35669053,-0.57029176,-0.36932823,0.14850062,-0.6363068,-0.05465607,-1.4604318,-0.41375348,0.1842196,0.9416928,0.3586768,-0.6552435,0.31311586,1.6009252,-0.5333141,0.22470486,0.77899146,-0.29808322,0.4597482,-0.46875656,0.6976104,-0.44036663,0.049046233,0.59395635,-0.57562244,-1.119725,-0.06861012,-0.4898553,0.13164064,0.573362,-1.8170891,-0.33252838,-1.5321753,-1.040161,-1.5590692,-1.0674465,0.078490645,0.30987173,-0.1752832,-1.2662289,-1.6980112,-0.20082104,0.1744995,-0.7698891,2.420362,0.5962697,-0.02615492,-0.083039545,-0.32002634,-0.37287495,0.08447677,0.46159622,0.21589994,-0.25786752,-0.3223799,-0.82359445,-2.5332406,-1.5595626,-0.41804364,-0.5992367,-0.9417442,-2.294466,0.30718726,-0.077195205,-0.62266445,-0.75808436,0.46728465,0.1295015,-0.2880976,0.33553004,-0.8586121,-1.0239954,0.068691194,-0.34823757,0.47899187,-1.4154754,0.38214433,-0.12618089,-1.118156,-0.6439676,-1.1808727,-0.5030465,0.33475155,0.32177746,-1.3965471,-0.6023144,-1.2636068,-0.22667691,-0.1270409,1.0523808,0.7223798,-0.6450896,-0.0505045,1.8411293,-1.9497564,0.23782092,1.1044893,1.203182,0.62616396,-0.59125096,-0.8537925,-0.44276375,-0.20234427,-0.31238273,-1.5904372,-0.36596566,-0.5424677,-2.8345838,0.58729464,-2.6504178,-1.2648401,0.0964351,0.021568352,-0.66754323,-0.37494972,-0.96398765,0.90740365,0.60197926,0.25155944,0.34946817,0.5768901,-3.2751942,-0.91517246,0.09500505,0.36412466,-0.1705749,0.46310484,-1.9964006,-1.5002795,0.02850303,0.77441555,-0.51333827,-0.4850967,-0.4373977,0.45811275,0.5918088,0.5956339,-0.39965045,0.022237264,1.214498,0.8699837,0.16438168,0.092770875,0.5001171,0.1348631,-0.3077346,-0.078128904,0.20124137,0.52224714,0.15882613,-0.047880955,-0.7568096,-8.031856,0.45196044,0.109714836,-0.07022354,0.007186757,-0.08759002,0.033031613,-0.15825593,0.052988976,-0.08279401,-3.183762,-0.40831715,-0.30093825,-0.28945255,-0.599839,0.5066061,0.5393316,0.66606325,-0.25062335,-0.47401232,-0.08746831,0.1456652,0.13040553,0.05155278,0.0029520984,0.14741601,0.49517024,0.5126333,-0.043349445,-0.47186452,-5.608222,0.14910257,0.17812443,-0.27274632,-0.006238282,-0.4024124,0.6689733,1.1234362,0.0410327,-0.5870526,-0.60745573,-0.23099807,-0.03244513,0.6227884,0.2487183,-0.06492378,-0.5108588,0.65944904,0.28020138,-0.43714058,-0.46954462,-0.9085256,0.6486776,-0.2765506,-0.61614263,0.32425672,0.17061321,-0.0586852,0.45415407,-0.13625666,0.587239,0.3182298,1.8097979,-0.99111277,-0.42893988,-2.251153,0.51829076,-0.6239097,-0.07860957,1.5942166,-2.0565987,0.11621185,0.17352271,0.5763932,-0.11793256,-0.59094226,-0.2308971,1.3569298,-1.0267494,-2.119002,-0.3718465,1.0709441,-0.24658276,-0.27202994,-0.3351522,-1.1618347,-0.28060675,-0.99736834,0.15341607,-0.5543005,-0.068236746,-0.7478322,-1.2542442,-0.97686803,-0.16232875,-0.0010859155,-1.1100901,-1.3666816,-0.4560429,0.74999523,0.14109,-2.0523362,-1.3393381,0.1533423,-0.4261474,-0.0987449,-0.57812893,-0.4599327,-1.2325567,-0.7931297,-0.20646964,-0.8795513,-0.56568456,-0.07270528,0.008237578,0.844887,0.2931353,0.5786241,-0.41447914,-0.05221614,-1.7386944,0.23266053,-0.11141679,0.30178082,0.016323518,-1.1003404,0.66952276,1.396709,-0.21914352,0.5582115,-0.7376857,0.4975207,0.3296085,-0.25962034,0.051498182,-0.18600424,-0.6836223,-0.38081372,-2.7385998,-0.011541546,-0.41828614,-0.13752529,1.3371849,0.023133218,-0.09048493,0.25936544,-0.87662446,-0.34543738,1.1261284,-0.3164353,-0.14456318,1.4131191,-1.0904405,-0.7644708,-0.13632706,0.7429799,1.1679146,-0.40274465,-1.8883531,-0.20951328,-0.762318,-0.67567587,-0.5773398,0.7527391,-1.0303485,-1.0162299,-1.5822369,0.33049303,0.7946669,-4.1269064,-2.7888517,0.95700884,-1.3843027,0.31158686,-2.634862,-2.0001562,-0.93903434,-0.7625841,-0.7626697,0.049075313,-0.541082,0.053862214,0.7673844,-0.4092296,-0.92515635,-0.7047843,-0.9740933,-0.2526539,0.72398174,0.07766932,0.6205233,0.8677516,-0.8666996,0.53694594,0.4930681,-0.74659175,-1.0367055,-0.056081973,-1.1169939,-0.36955428,-1.2941134,-1.0199515,-1.8970419,-0.50275344,-0.24906299,0.6767129,0.13790594,-0.8266232,0.19374867,-1.1615044,-0.43665943,-1.7791076,1.5965736,0.68257105,-0.9704156,1.3225491,0.6579739,-0.8824207,-0.96427715,-0.2529835,0.6126574,-1.7495544,-0.5980326,0.6982465,0.005175437,-1.8506231,0.48003197,-1.353048,-0.25962925,0.18569145,0.80120224,-0.36898,-0.43912342,-0.7484817,-0.9891968,0.8979714,-1.563349,0.30760145,-1.9590654,-0.8713058,-0.42609745,0.6793387,-0.07385196,-0.080851875,-0.1800803,-0.1774216,-0.86126935,-0.123749584,-0.31592774,1.21369,1.129051,-0.27704334,-0.028451908,-1.1323713,-1.4024713,0.670261,-0.1835649,0.45462647,-0.079523355,-0.1750209,0.35278982,-1.7858105,0.33150363,-1.6433845,-1.238565,-1.3444436,-0.0640068,-0.3755257,0.7685002,0.05238702,0.35008174,0.5282562,-0.40756795,-0.10112023,-0.17799574,0.72664654,1.4545305,1.6371928,0.35944808,1.4428835,-1.3076812,0.47982478,0.35297447,0.2679259,0.5416242,-1.2238629,0.1323331,-0.8474773,0.48707205,0.8899519,-0.35751885,-0.42707485,-0.75499415,-0.36525768,-0.2329807,-0.61365545,0.6105967,-0.3375499,-1.6574605,1.8035905,-0.41449717,1.0885475,0.68456364,-1.7951074,0.3553769,-0.08743922,0.507715,-0.44182307,-0.48802906,-1.8052328,-0.14065051,-2.1911104,0.56398547,-0.76648355,0.09900024,-1.3965478,-1.5118284,0.11656977,2.7472684,-1.1825659,-7.3697224,-0.37055802,0.42234188,0.1443851,-0.65201867,-0.061629936,-0.10909088,0.29289472,-0.34368104,-0.007432894,-2.2418056,0.87023234,0.515057,0.38764852,-1.0193542,0.20793691,0.3227988,-0.19206496,-0.5226253,-0.32408112,-0.6987536,0.73753023,-0.13439938,0.19061053,-0.34673917,-0.004842513,0.7215378,0.12491709,0.040939555,0.41089737,-2.5064678,0.7136861,-0.61077106,-0.5698406,0.255504,-0.30128545,0.97526664,-0.078195564,0.97129774,-0.77734673,0.06734531,-0.7681737,-0.6065059,0.6829915,-0.46472543,0.39013088,-1.4406301,-0.60297143,0.747125,0.38295284,-0.25792426,0.031818144,0.9772693,-0.10384317,0.0824803,0.3691039,-0.57078516,1.1774018,0.2195468,-0.555005,0.97221243,0.62127215,1.7753141,-0.9420897,0.033620194,0.7921866,0.7615826,-1.4157479,-0.7875079,-0.8427654,-0.29913205,-0.6627033,-0.09962687,-0.5163629,-0.09590773,-1.5218133,0.40630803,-0.3298062,-0.9853165,1.1679454,0.23032472,1.1242142,1.9126046,1.0821868,-0.021698626,1.0563182,1.1216413,-0.45161074,0.33752102,2.9777575,1.5836806,0.8382074,-1.8887017,-0.08074668,-1.911454,-1.1354083,-0.10702176,0.3638109,0.94589955,0.25234717,0.07808621,0.8769766,1.5963498,0.55656487,0.337142,1.2842294,-0.6028336,-0.33212954,-2.2406352,0.6609335,1.497961,-0.8897748,0.124369524,0.302709,0.15035486,0.33822727,0.29684848,0.19612423,-2.026927,-0.6741885,0.7135721,0.37324822,1.2543985,-0.29605627,0.18152733,-0.20931804,-1.1293895,-0.0436669,-1.0826066,-0.13735086,-0.74183524,-0.50466263,-3.1962414,-0.6291205,-0.26016414,0.08417502,0.6449495,-0.6872375,1.1177497,-2.0913393,0.886226,0.08180305,0.7798195,-3.7346692,1.1802828,-1.0239414,0.99615663,0.16852039,-1.1016713,0.10552899,-0.7191781,1.0207684,-1.1443353,1.1932917,-1.3467028,0.8686436,-0.9511052,0.06377435,0.5740626,0.8534828,0.50674725,0.33189476,-0.43326056,-0.9772278,-0.71045023,-0.7311517,-0.5241022,-0.1883037,0.53062797,1.4204304,0.27064154,0.6421574,-1.7163761,-0.089964956,0.8942348,-0.055399425,0.7599798,0.46102646,0.9410795,-1.4529763,0.17873809,-1.7525876,-1.3936148,-1.3976785,0.94970405,-0.16433309,-0.24195053,0.16557366,-0.14536533,0.18635942,-0.21484604,0.4433853,0.58076084,0.99713576,-0.7232528,0.064979784,-1.6789236,0.5683685,-0.14254268,-0.054396413,0.40985128,-0.29224086,-0.023285812,0.4237782,0.1425776,0.5703119,0.37032887,-5.636928,-0.1840798,-2.9091356,-0.23716506,-0.55802804,0.37683317,0.40520218,-1.0721691,0.8409735,0.12843163,-0.19565007,-5.869028,0.250781,-0.52631456,0.19695681,0.5831173,-0.63600147,-0.31374824,-0.75320244,-0.44074214,-0.29893237,-0.10768084,-0.7427138,-0.5200674,1.0423522,0.22482002,-0.8853351,1.2564939,0.20416746,-0.6285153,-1.888421,-1.3100765,-0.51590735,0.14346483,0.4903946,0.8173845,0.427138,-0.37563372,0.06952387,0.6508298,-0.09199117,-0.7833109,-0.2477023,-0.58206046,0.12222947,0.0169805,-0.08366004,0.31683782,0.9574928,-0.67813027,0.8485123,0.21000057,0.69043875,0.5642003,1.6749454,-1.4922509,0.30277598,1.2588024,1.6405121,-0.58034104,0.7862619,-0.9788753,-0.20542835,0.0529875,-0.733286,-1.0094154,-0.71827304,0.5151348,-1.5046995,-1.5902283,-0.84092104,0.0463095,1.5084194,-0.40718043,0.51950383,-0.8345226,0.24250236,1.284672,0.07911373,-0.764236,-1.0990205,-0.7373582,-0.28081685,-1.3945513,-0.67041826,0.61537063,-0.7002211,0.75212705,0.30238536,-0.2683336,-0.85886335,-1.0119948,1.342249,-0.7078644,0.07647611,0.04514341,-2.8397267,0.31771266,0.7823356,0.03853404,0.6803125,-0.7410987,-0.38859445,1.4732015,0.15806729,1.4352837,0.63399625,0.79287726,-0.4712872,-0.85512316,-0.60870814,-0.4680943,-0.3401894,-1.0737312,0.15269974,-2.7716303,0.2574337,0.5026036,-0.3843612,-0.3367045,-0.06518135,-0.14584309,2.71284,-0.069840446,1.0846872,-1.0873415,-0.24515438,-1.8557255,-0.4728579,0.120701455,0.93686885,0.2744841,-0.9865377,-1.9276416,-0.9763545,1.4824911,-0.5299574,2.1676636,0.20176956,0.13499972,-0.1275026,0.13953903,2.5236368,-0.8727699,0.6393358,0.6496014,0.59273267,-0.012839407,-0.024772055,-0.42829943,0.16565044,-0.41409904,0.47432584,0.5190079,-0.8999351,0.18008891,0.23205365,-0.36386475,0.45846355,-0.4032529,-0.17158204,-0.33396906,-0.76137376,-1.3692079,-0.793725,0.5024762,0.9901118,1.1671233,2.000285,-0.28076744,0.7991899,-2.510116,0.14840844,1.1642114,0.13188677,0.6239145,-1.4809923,0.37318426,-2.0870872,-0.93263626,-0.7703415,-0.6254738,-2.5603695,0.16815737,-0.68065923,-1.0813524,-1.8204691,0.2832747,-0.7541881,0.085447155,-0.62068737,-0.24992794,0.11334877,-0.043407224,-0.2516945,0.14103477,1.1059687,-1.2540419,0.33692792,0.3660878,-1.26679,-1.0108762,0.40673244,0.86234516,-1.3494074,-1.7426962,-1.419423,-0.6235448,-0.9836724,-1.2902033,0.814329,-0.0069557466,-1.0130885,-0.3801024,-0.5011414,-0.35055417,-0.0128630465,0.042054363,0.2254419,-0.5998378,-0.79366636,-1.3852835,0.6048589,0.44202936,-0.9307273,-0.3808631,-0.49610168,-0.97715914,-0.23996472,-2.0339055,-0.1785385,-0.7843164,-0.17654446,-1.3403769,-0.12603715,-0.37262654,0.10120304,-0.19081065,0.5847203,1.5857306,0.82645476,-0.49063566,-0.5899255,-0.055398975,2.4872148,0.1591069,0.83261,0.8526237,-0.59771705,0.21877858,0.41355217,-0.6204704,3.404329,-0.64340454,-1.0771055,0.7608115,0.87956583,-1.1290538,0.2883509,1.0581443,1.0978364,-0.22104657,-0.60475266,0.9398266,0.33200872,-0.555228,0.48927897,0.62421435,-0.47194248,1.854196,0.15932682,-0.48288155,-2.6326432,-0.82407755,-0.15082508,-0.4699555,1.0012699,0.21974403,0.16101241,-1.406261,0.5850097,-0.085341096,0.21204092,1.9727323,0.034961745,-0.29207546,-1.4154409,-1.5426228,-0.08146513,-0.35427946,-0.03125819,-0.027456122,0.74992156,-0.5987678,-0.19788131,2.520668,-0.8916177,0.49990767,0.108154,2.2714362,-0.4903924,-0.66209483,-0.03208992,-0.60459375,-1.2437239,0.9798751,-0.25177842,-1.1052506,-0.5950583,-0.26800025,-2.8105886,0.7405895,-1.106129,-1.2872972,-1.5095389,0.06165327,-0.5347027,-0.70030457,-0.72620505,-0.44864494,0.102362126,0.23787618,-0.4466427,0.4112383,1.2254081,-1.0225351,0.25094774,0.8622643,-0.73117834,-0.5092648,0.7349516,0.07845801,-0.80796415,-1.2024385,-1.1115232,-0.566913,-1.3751101,-0.4329612,1.9112761,-0.05421987,-0.48914936,-0.41116387,-0.06835052,-0.016995026,0.5811013,0.72908485,-0.10484159,-0.7099905,-0.085341185,-0.86680406,0.53234506,0.5222851,-1.1792421,0.043292858,-0.61836106,-0.89171374,-0.26457185,-2.2804499,-0.7417668,-0.5687636,-0.9506189,-0.294631,-0.46290392,-0.12569712,-0.3304466,-0.88607246,-0.68876934,-1.9447396,-3.107172,-0.092120826,-0.8598811,0.16683668,-2.1041179,-0.9108149,-1.0871027,-0.03879915,-0.23564634,-0.38304853,-0.25971293,-0.6805991,-1.2469242,-0.44291323,-0.31206465,-0.894403,0.9807822,-1.1201923,0.3696035,0.75367206,0.3349191,-0.87029207,0.12127351,0.8242583,-2.8670895,-0.45279515,0.9097367,0.8775132,-0.86004174,-3.9498892,-0.5149188,-0.52736354,-2.5739884,-0.5826487,0.5966333,0.17087981,-0.99716276,0.25985402,-0.17698729,0.35714012,0.11725077,0.85738397,-0.3515001,-0.20460695,-2.2311912,-0.6073533,0.087883286,-0.19713627,-1.0551878,0.2317736,0.328252,-0.69386387,-0.20490408,-0.42502907,0.27103418,-1.2350725,0.03717298,-0.7957122,-0.48558867,-0.5146153,-0.5181409,0.18616521,-0.32265183,-1.4710019,-0.4532575,-0.21334025,0.07095581,-0.7960744,0.84196675,-0.9223341,-0.6940892,1.4229895,-0.06323915,-1.2737031,-1.2469316,-1.8714249,1.9520227,-0.2968316,-1.2124351,-0.30150762,0.08110568,-0.29477587,-1.214519,0.9691609,0.9752395,-1.0453223,0.18824399,0.54337525,0.0899646,-1.1696293,1.1125782,-0.5655578,0.16107056,0.29334253,-0.7675253,-0.24143204,0.24694714,-0.22695681,1.2761309,-0.24411835,-1.0010433,-0.29102308,0.65963364,-0.34619772,1.1471956,0.5740869,0.02335935,-0.5538349,1.2261183,-0.29336947,-0.08184378,-2.069781,-1.521687,0.2772741,-0.34469217,-0.5791657,-1.7944622,-1.9005861,-0.9116664,1.0977178,-0.85992646,1.6450136,-0.36633292,1.6943915,-0.41477698,-0.27496338,-0.55078316,0.7249129,-0.9797914,-0.6767909,-2.812159,0.45386234,-1.6407022,-0.8378341,0.85747385,-0.79085016,-0.19857916,0.29070258,1.1607776,0.31911927,-1.0843582,0.40057188,-0.12648562,-1.3786862,-1.6654371,-0.49765486,0.17529239,0.91055465,-0.108037986,-0.005338003,0.5502882,0.74586236,-1.0562344,0.1144401,0.80882716,0.3051139,0.10366643,-1.6744223,0.36976424,0.3031952,-0.279665,-1.6504784,-0.033402346,-0.047386535,-0.58719313,-0.43817252,-2.173499,-0.13001284,-0.86035836,0.08394764,-0.39409697,-0.6843058,-0.57263035,-0.5325463,0.6685118,0.26441863,-2.3508215,0.47491792,0.5093943,0.14343345,-0.22527522,0.34938648,-0.3568788,-1.0569158,0.13341047,-0.65750587,0.4074879,-0.43355545,-0.7023548,0.18963443,0.032496028,-0.05652623,-0.12400845,-0.18649325,-0.025521616,-0.045760464,-0.03104617,-0.17758296,-0.09197405,-0.061739042,0.04196591,-0.092186615,-0.05330328,-0.024613999,0.05057791,-0.033820994,-0.19044687,-0.16736227,0.08021387,-0.0795532,0.056793187,0.023477431,-0.18668064,-0.1472595,-0.03264939,-0.0023561395,-0.15780842,-0.05578799,-0.041329246,0.003887566,-0.081824824,-0.1915789,0.09293613,-0.09896609,-0.05171775,-0.01745959,0.04417919,0.016980683,-0.22863966,-0.058515288,0.09122342,-0.08981042,-0.10072345,0.0055834646,-0.089662306,-0.041315533,0.016104627,-0.0658474,-0.16386175,-0.14147003,-0.022334032,-0.058433753,-0.14595133,-0.19408804,0.031783078,-0.045396563,-0.07610357,-0.039034635,-0.032281242,-0.10237524,0.034711894,0.011467737,0.1362293,0.012547966,0.061577417,-1.0840559,-0.9776013,0.6844112,-0.5598179,-0.06678861,0.088201895,-2.0991235,-0.3225865,-0.1989393,0.20284784,-0.0052188756,0.0887296,0.7935517,-0.10269672,-0.36364442,0.5488339,-0.4458604,-3.2643547,-1.1617572,-3.0074139,-1.9213935,-0.17391375,-2.4168453,0.30836976,-2.7233157,-0.452716,-0.28840822,-0.6916504,-5.158019,0.3389074,-0.9014547,0.37950248,0.66517216,-0.0940104,0.26053232,-0.43691492,0.9663434,-1.2700486,0.46160606,-1.209975,0.40773252,-0.6865853,-0.2087018,0.21223463,-0.58298385,-0.28166544,-0.84524244,-0.8884985,0.94124264,-0.105947465,0.070207596,0.30354655,0.078991234,0.775244,0.65632737,0.49575746,-0.6237752,-0.7675228,-0.2664786,0.018057395,0.22141674,0.43298012,-1.710233,-0.15635516,-1.6393309,-0.18222624,0.09901056,-1.5596384,-1.1439664,-0.14699155,-0.21601827,-0.31343055,-0.8821157,-1.7929634,-0.9908823,-1.0384613,0.3813689,-0.68915844,-0.104375675,-0.25252205,0.007916845,0.06515747,1.2362442,-1.4684227,1.0147805,-0.330674,-0.163403,-0.6145357,-0.09689376,-0.5355594,0.9764353,1.1480427,-0.58924794,-0.6475737,-0.001307337,1.2033803,-0.16769785,-0.78658104,-0.64963025,0.4891635,-1.4582269,-0.8831453,-1.513691,-0.9049206,-1.0245582,-1.3061916,0.29609513,0.37869096,-0.0037011416,0.003053213,-0.86667806,2.5115323,-0.266154,-0.66687906,0.76372546,0.51567435,-0.18320176,-0.29531333,-0.59827614,-0.6398715,-0.37005943,-0.85529613,-0.3469119,-1.1326075,-0.7780374,-1.413339,-2.4958386,0.19756725,0.5165743,0.49730206,-0.34238666,0.44283885,0.66905296,-0.46685606,-0.80964535,-2.947184,1.1202021,-1.4788716,-1.7967631,-1.2742785,0.018247081,-0.6406811,1.0947875,-0.5078118,0.040650748,-1.2968013,0.6820651,-1.2916789,-1.240906,0.029222444,2.443008,0.59037125,-0.93692505,0.7366905,-0.3247558,-0.87031496,-1.2293012,1.2200453,0.42882466,-1.8311162,-0.8547356,0.90772355,-0.39224344,0.8631846,-1.8279024,-0.4692341,-2.4115043,0.58002156,1.0397714,-0.7708417,-0.34732494,0.28200537,-0.3355031,0.8143684,0.45562378,-0.70975363,0.42017877,0.0115541015,-1.5782884,-0.76618946,-1.5438892,-0.9173119,-0.34727842,-0.9792897,-0.9122075,0.83606744,0.4103471,1.3234262,0.33440074,-0.6159691,-0.3866117,-0.7177225,-0.29089755,-0.121084735,-1.5727355,0.05313189,-0.11116901,-0.11067252,-1.061585,1.375197,-1.4676683,0.58621335,0.52994895,-1.0073361,-0.72609496,-0.24887496,-0.3932975,-0.28648388,-0.59491855,-1.6048076,0.14742832,0.79751474,-0.86895466,-2.984372,0.21177918,-0.6946355,-1.0629314,0.88088185,-0.2973916,-0.8289969,0.71298003,-0.33067188,-0.2839532,-0.35719228,-0.056487326,0.67361796,0.2898413,-2.6371562,-0.33185706,-0.11374137,-0.31796563,-0.023774017,-0.3142736,-0.53759694,-1.4699548,-0.39145836,-0.7852344,1.0023279,0.31701696,-0.8851601,-0.95013106,-1.5929818,0.8241888,-0.46092647,0.26166803,0.14238065,0.8062294,-0.39110553,-0.9209713,-0.74530494,0.6050967,-1.2017689,-0.25495714,-0.33944094,0.52456117,0.29346567,-0.5185951,-0.2245549,-0.025927596,1.6125149,-0.4459507,0.72897613,0.6265055,0.4972278,0.189524,0.6345607,0.0082931705,-1.0997796,-2.9312758,1.1379355,-0.8162322,0.3072262,-0.11633821,0.64992034,0.22740859,-0.50068533,-1.2160995,-0.8522798,-1.0763322,-1.5359412,-1.2080058,-0.07059059,0.29447863,-1.0517973,-0.7429285,-0.121704906,1.4953182,0.19774674,-2.148129,0.32415533,1.8707651,-1.0412264,0.47443363,1.5248435,0.42449445,1.6705194,-0.57878864,-0.22614904,-0.25486034,-1.3765552,-1.7224777,-0.0994427,-0.4635887,0.2839892,-2.1157541,1.7471836,0.6804115,-0.79915035,-0.00461368,-0.12809524,0.030176375,-0.8189105,1.3828921,-0.8933927,-0.41707313,-1.5544672,-0.7504279,-0.27028018,-0.90958357,-0.2204457,-0.70603323,0.48312455,0.03706711,-0.962108,0.7463087,-0.993535,-0.44936377,0.44816148,-2.81422,0.47904336,1.2247123,0.34913105,0.09327822,-0.6780927,-0.99802756,-0.63062274,-0.06037332,-2.2075248,-0.056366198,-0.06465246,0.02329945,-1.6630249,-0.26759148,-2.3403802,-1.7458769,-1.0029354,-0.4015424,-1.8011575,-1.0121047,0.43616292,0.8342322,-0.28466067,0.7263833,-0.46649402,-0.84578484,-1.3408577,-1.2102699,0.12748563,0.95074904,-1.1274695,1.5963068,-1.11104,-0.9002392,0.7991133,0.19807443,-0.7737315,0.5994333,-1.3335906,-0.17522362,0.7793765,0.7075132,0.14430968,0.7654357,0.14695072,0.7750456,0.8573888,-0.34477466,0.18000905,-0.70472836,1.7229102,0.85783917,0.10504785,-1.7632797,-0.36933523,-0.032059707,-1.0859499,-0.5883837,-3.7328696,0.24968967,-1.1164353,0.5884125,-0.31447506,-0.8151515,-1.0841801,0.34347367,0.10092795,0.7221091,-0.75999784,0.2249682,-0.84865713,-1.0127854,0.29479405,0.60787547,1.8921268,1.0391476,0.012307869,0.124387026,-0.2801398,1.2870243,-2.263348,-0.7874783,-0.11335479,1.1684697,-0.15534891,-1.1490126,-0.05965492,-0.54551315,0.3295806,-1.6645429,-0.103801854,-0.17229643,0.046457835,-0.98608005,0.58362514,-1.3734665,1.0448807,-0.10506356,0.9569144,-1.1422715,-1.3414657,-0.37907225,-1.0141764,0.835287,0.028218739,-0.005533312,-2.0595055,0.37672538,-0.2425556,1.0869666,0.03765246,-1.4873917,0.5598377,-1.6122434,-0.43991685,-0.82421386,-0.9146714,-3.7614787,0.04876355,0.0053929836,0.1855385,-1.1638901,-0.10711853,-0.7488992,-0.20683928,-0.28097457,-0.14045824,-0.785174,-1.109223,0.021036528,0.46610224,-0.9105027,-0.026475118,-0.59261405,-1.3066843,-0.23606296,0.39030161,-1.1934679,-0.4402476,-0.13045302,-0.5256804,-0.067750596,-0.78510094,0.14281648,0.40349466,0.34965855,0.22330885,0.07415928,0.0068301316,0.47230217,-0.37597847,-1.3974898,-0.0757584,-0.23244493,-0.51417065,-0.024525223,-0.98094827,-1.442527,0.19886488,-0.11638896,-0.9727957,-0.13081631,-0.6210747,-0.5178256,-0.07309823,-0.11289323,0.10327943,-0.3782534,0.19447768,-0.44091448,-0.41691393,-0.15625054,0.2976985,-0.19079572,-0.07835916,-0.21608612,0.5486969,0.4389711,0.40583402,0.0634804,-0.528392,-1.0155985,-0.774879,-0.9525944,0.50570035,-0.7720667,0.79367775,-0.3419958,0.3188091,0.03762089,-1.3591257,0.47349504,0.55404866,-0.76480067,-2.5966432,0.28838277,0.38484508,-0.79779446,0.010599412,-0.8310264,-0.77543783,0.23107156,-1.2797511,-1.3672059,0.23960793,-1.7951415,-0.26964325,-0.8318093,0.6271248,-1.651278,-1.6447583,-2.366259,0.29088593,0.501878,-1.7324529,-0.74265975,-0.037678063,0.99063057,0.5500985,0.76880074,-0.8531634,0.11741409,0.668332,0.12981705,-0.084085755,-0.30708298,-0.12404252,-1.3407974,0.2610187,-0.58445597,-1.1631882,1.0384496,0.15210536,-0.1720874,-1.247601,-1.2462568,-1.5693756,-0.55742145,0.1421935,0.23574091,0.4042675,0.74264854,0.4877228,-0.22925238,0.5039329,0.177336,-0.45051187,-0.23950146,0.5337936,-0.7969378,-0.4616005,0.73580575,0.112767756,0.06456511,2.4882057,-0.89478743,0.01443352,2.5323763,1.6473877,-0.0068341736,-0.19253522,0.31735405,-0.16027668,0.4287398,-0.0512584,0.22831598,0.20300806,-0.039989196,-0.405951,1.0106757,-0.99191797,-0.27629948,0.23476398,0.39296037,0.28448156,0.103067055,1.6821198,1.3712225,1.2344773,-0.024138551,0.9400533,0.359324,-1.8423743,0.49023765,0.0283102,0.14425814,0.25342226,0.69391465,-1.1953399,-1.2693542,0.72026885,0.33140382,1.0935655,-0.16034018,-0.0756864,1.0303867,0.7776584,0.31484345,-0.030252255,0.8905827,0.54766864,2.852817,0.6255911,-1.1067557,0.67982274,0.6949079,1.0839733,1.432255,0.23275793,-0.21638654,-0.07807067,-1.01916,-0.0061361985,-2.9408631,0.37679052,-0.08847091,0.25075406,0.09979758,0.41314012,-0.8931945,-0.023856074,-0.1252115,-0.6097077,-4.8806443,0.14480376,0.01029633,-0.2546719,-0.3630529,0.8798578,-0.956989,-0.24604978,-0.8341199,-0.5946915,0.112474285,0.05671608,-0.048261244,-0.6476809,0.6716838,0.09630574,0.24493426,0.44313735,0.9022338,-0.19273886,-1.4877439,-1.0282505,-0.3283812,-1.1621704,0.4079502,0.08349426,-0.4388435,1.0461645,0.5863139,-1.8735709,-0.45474914,-1.9894516,-1.6097163,-0.1149292,-0.4303735,0.65393305,-1.2659632,0.7217585,0.05942008,0.30362558,-1.4642341,-1.3592556,0.59388614,0.010426605,0.17520891,0.8458103,-0.4184522,0.6514144,-1.1553514,0.14764863,-1.4318545,-1.0752323,-3.1776462,-0.7527249,-1.0600686,-0.13145009,1.5013812,-0.07346726,0.46828705,0.8448225,-0.9274507,-0.77487296,0.8835114,-0.5869786,-0.17157361,0.11502226,-1.6507769,0.17453544,-0.052794285,-0.4290576,-0.23646256,0.42166898,-1.3538265,-1.9963148,0.08567053,-3.140943,-0.7180411,0.02489429,-0.11258294,-0.39966127,-0.057673283,-0.1647146,0.9245509,-0.786479,0.22740886,0.1291517,0.43526518,-1.7517526,-0.44320115,0.8122936,-0.49150944,-0.9295355,0.9317024,-2.5364323,0.07023986,-0.37256306,-0.03154376,0.6171696,0.12905025,0.67282486,0.123617455,-1.4032674,0.13261202,0.1089737,-0.04536667,1.7519312,0.99491215,-1.1294549,0.20518818,0.5706628,-0.64263946,0.98255384,0.46915174,-0.63174736,0.36004978,-0.19749624,-2.0546646,-1.1334656,0.8714715,0.92687863,1.2392666,-0.6819834,0.5122202,-0.07027232,0.7292714,0.8397167,0.9462304,0.04016958,0.3078221,-0.4231519,-1.1482033,-0.8800901,0.79383904,1.40717,0.57938695,-0.15827645,-0.88933825,0.88352287,2.037136,-2.6291137,0.106791854,0.2805028,-0.65441346,0.119313546,0.16492924,0.30651215,0.21950802,-0.6798597,0.81482214,1.0669069,0.51501954,-0.04621551,1.2035661,-0.044434004,1.166519,1.1429302,0.5377008,0.42816424,0.5113169,0.14964557,0.6779125,0.54117405,0.7826445,-0.07575978,-0.06257708,1.3116145,-1.8347552,-1.0556479,-2.6777377,-0.19003686,-0.803782,0.6378046,-0.5717716,0.7850513,0.5748466,-1.3898277,0.34004104,0.62716985,0.02712635,0.21724585,-0.720857,-2.0629623,0.8610436,-0.92016995,0.043299753,0.14639634,-0.48990667,0.9436165,0.5676775,0.3151425,-0.30687574,-1.513811,-0.2799769,0.7072222,-0.22912142,1.2532917,0.1654127,-0.5932373,1.3630724,0.2509539,-0.23950334,0.7683561,-0.29684988,-0.8354981,-0.6892944,-2.527917,-0.8708006,-0.94357944,0.5202873,-1.19707,-1.5451095,-0.55159104,0.36851937,-1.1282315,-0.31814268,0.16234317,-0.29541767,1.1439188,1.4861318,1.0459974,0.43901676,1.4927865,0.03992362,0.41236818,0.8923161,-1.9723213,-0.7409073,-1.2742511,-0.5460577,0.942647,-0.2645321,0.69327915,0.022182077,0.08557232,0.07588045,-0.8468817,0.250283,-1.4984038,-0.65362424,-0.09698067,0.031249892,-0.09267427,-0.7779156,0.015381153,-1.6940949,-0.047508102,1.0718901,-0.24427804,-0.3979994,-0.5341654,-0.4389939,0.3718174,-0.42029434,1.282157,1.6846755,1.3018221,1.0619248,-0.89600015,-0.1741276,0.6798527,0.052097984,-1.3412416,-0.48466974,-1.5803947,-0.49407232,0.23465925,-0.424639,0.1157307,-1.3365166,0.20652077,0.023370918,-0.327342,-2.9281929,1.3201386,0.10175029,0.19888976,1.0570552,-0.8094263,-0.25580013,-0.28905252,0.08293387,-0.83024526,0.6896906,-1.041534,0.2098178,-0.15527259,-0.58675057,0.8557658,-0.016302474,0.23142385,0.90303457,-1.6304456,1.4688206,0.09936315,-0.455725,0.42925778,0.3379228,-0.7428924,0.28890455,0.76831007,-0.69268376,0.06329596,1.1474864,0.10982431,2.0454903,1.142744,-2.5166821,-0.9333198,-0.5329614,0.46779698,-2.066415,0.69538146,0.8356039,0.41020375,-0.5223992,-0.5784912,0.5442331,-0.9044526,0.2610644,-0.4701218,-0.6928071,0.6558398,-0.50144184,0.7544426,-0.029119086,-0.5904243,0.9294865,-0.35256115,-0.83560455,-0.69977695,0.16706562,-1.9365641,-2.009149,-0.42277852,-0.98223937,-1.7363162,-0.78076625,1.1056592,0.9629219,0.004472875,-1.6122999,-0.19867828,0.6071518,0.06389939,-1.2264066,1.8870631,-0.907642,-0.20085679,1.4600232,-1.1255879,-0.93171567,0.6766573,1.2174408,-0.81681424,-1.1164856,-2.521501,0.18292083,0.88320893,-0.117962874,0.31489927,0.6441928,-0.338049,0.2662946,-0.3532046,-0.0340373,0.7425393,0.71100557,1.2160528,1.9357448,-0.10595065,0.8389535,0.24180238,-1.082583,-0.13880491,-0.8938674,0.71052724,-0.34161463,-0.7442153,-2.542897,0.55235827,-1.1960081,0.40601495,1.274534,0.016181149,-0.013261395,-1.7863827,0.5883229,-0.9225238,0.44175723,-0.5962697,0.3992663,-1.129567,-0.5037999,-0.8216994,-1.0443351,-0.11515062,-2.3147554,0.18708888,-0.50627935,0.2854802,-1.3773407,0.267389,-0.68919814,-0.18058312,-0.38502944,0.22132257,-0.12062175,-0.39044678,-0.21939957,-2.2343833,-0.55480295,0.40430126,1.907384,-0.79097664,-0.7113636,1.1556093,-0.048080012,-0.028012984,-1.5881557,-0.35552183,1.1704631,0.62348163,0.647331,-0.73320687,0.50612855,-1.5625618,0.7270205,0.18513648,-1.9715793,0.5465069,1.5484769,1.3487624,1.5106483,0.5767524,-0.59907186,0.7030038,1.427685,-1.2341385,0.6793743,0.0827025,-0.22415625,-0.84501266,-0.47292817,-1.8497391,3.3387504,-0.3776456,-1.4733925,-0.3967654,0.08715572,0.2795478,0.56550026,-2.0758457,0.55888903,0.5418683,-0.18926942,-0.14954972,0.37153715,2.4480658,0.455479,1.6215444,1.3401163,0.81316996,-0.5813863,1.576647,0.5654244,0.22973584,-0.5315256,-0.92363757,-0.28418535,-1.3564625,-0.3037951,3.1497228,0.09912199,-1.6162138,-0.3461678,-0.25883403,0.12519258,0.17459615,1.8861884,-0.33417842,-0.38913873,2.6049109,0.32547736,1.776186,0.27657196,-0.5122063,-0.53155375,-0.9450486,-0.84969753,0.003697659,0.054763943,0.07928725,0.106365845,-0.2735653,0.39405495,-0.786166,-0.06839216,0.25142688,-1.2149582,0.043536544,0.77388954,-1.0871083,0.10107993,-0.40986943,-0.38072088,-0.5602348,-0.88033855,1.0080222,-0.785457,-0.08372401,1.279442,0.27061892,-1.01344,-0.6094599,-0.93871105,1.2483306,-1.0539448,0.5951278,-0.27150553,0.49656415,0.3135823,0.2024374,0.55399835,-2.4922366,-0.17622289,-0.077659324,0.67952335,0.86378,1.3797688,-0.5698025,0.64912647,-0.29360908,0.81419945,0.008276816,0.79747224,-1.0168344,0.9024534,-0.06464999,0.5169685,-1.1924384,-0.029223818,0.6874459,-0.37064293,0.5812778,1.3581703,0.37066913,1.1138649,0.72016513,-1.6552837,0.9820924,0.72958255,0.42492133,0.4822122,-0.15896654,0.8435768,-0.72103673,-2.0871131,-0.1737997,0.6758359,1.2695663,1.6330059,-0.2632181,0.22323012,-0.98719,2.0702345,0.6961881,-1.4516804,-0.13567168,-0.25048432,-0.3943609,0.10242063,1.028363,-1.1764903,-0.8125038,-0.6105741,-0.19678266,-1.536721,-0.3955571,-0.41993022,0.8321405,-0.7401733,-2.6285362,1.5539548,0.3617936,-0.12014976,-1.2613041,1.3927499,0.22243452,-0.7882346,-0.19046527,0.41244322,-0.85151935,-1.7674283,0.6373869,-0.100209765,0.8366575,-1.1825219,1.6230026,-0.3391365,0.46115646,-0.15964365,1.0723352,-1.25475,0.99368143,-0.252555,1.0390973,0.07507778,-0.7546792,-0.39139813,-0.49589235,-1.4248897,-0.44451988,-1.5870771,-0.3244245,0.07594308,0.3038777,-0.47080353,-1.6722736,0.20196106,-0.24702397,-0.4725489,-1.2095125,-0.71008503,0.42581517,0.06845329,-0.45869732,0.8934334,-0.99720216,-1.0648906,-0.088618666,-0.010919388,-0.765604,-0.89216,0.92741036,0.6269139,-1.7815629,0.08252889,-0.45661184,-2.6189299,-0.5444195,-0.6582022,0.43552017,0.54996765,1.0878717,-0.053293295,-2.0081093,-0.23601098,0.034769155,-1.3361757,0.14489076,1.0472882,1.2117791,-0.63452816,-0.6146426,-0.09116967,-1.0287541,-0.63500714,-0.88256896,-0.39641523,-0.9689766,-0.26170638,-0.24535942,-0.6736951,0.22565009,-0.71623635,-0.21142423,0.49411863,-0.3199857,0.9968016,0.8610424,0.21908334,-2.003585,-1.1424778,0.018102035,-0.72305906,-0.25569037,0.07795412,-1.1899362,-1.2075245,-0.27425283,-1.0950289,0.30664858,-2.0732565,-2.2882652,-0.018093217,-0.95299006,-2.4486203,-0.9304538,-1.5824939,-0.5987556,1.1287473,0.17327946,-0.19330795,-1.8995328,0.22977597,-0.87806743,-0.663725,-1.4328403,-0.8397324,-1.2245611,-0.45449442,-0.24061404,-0.4568957,-0.9918469,-0.39657766,-0.986398,-0.33370918,0.27700466,-1.1603296,-0.2895394,-0.6039762,0.12710509,0.3215334,0.3139398,-0.6716371,-0.16325307,0.3277448,-1.1967335,-0.39825755,0.33415878,0.5096888,-1.3706429,-2.361164,-0.51471686,-0.17212032,-0.6249154,-0.23159367,0.10584828,0.11325987,-0.974385,-0.37438178,-0.9189596,-0.25212407,-0.09302728,0.4164913,-0.47347152,-0.48791713,-0.7242158,-0.8393214,0.21327046,-0.4301963,-0.75788623,-0.32225174,0.124111585,-0.69555855,0.06539941,-0.35820812,0.056786306,-1.2681608,-0.017476585,-0.63295686,-0.058153253,-0.78112745,-0.032923415,0.41729122,-1.1878412,-2.7640648,-2.3823447,-0.16070619,-1.3164568,-0.103808746,-2.4609284,-1.0372956,-1.614058,0.15182309,-0.70526886,-0.54937375,-0.6562182,-0.014896719,-1.5819552,-0.19516282,-0.3056181,-0.46419746,0.9393269,-0.040128894,0.11223455,0.7208544,0.013293238,-0.80422956,0.35934526,0.74031794,-2.7156882,-0.87383693,0.80268097,0.98727727,-0.7939258,-2.7992618,-0.090168074,0.24240991,-1.7668122,-0.3570788,0.6823783,0.16509399,-0.64807403,-0.42312154,0.27606064,0.3237476,-0.09870872,0.4633753,0.022459473,0.2109749,-2.111315,-0.9213443,0.34560582,-0.09731925,-0.65503156,0.65625304,0.5805752,-0.70525026,-0.59617364,-0.34352386,-0.0046978155,-1.2901548,-0.0606411,-0.9787152,-0.09534408,-0.25864005,-0.90706575,0.86208236,0.74682397,1.5239964,-0.2564626,-0.6505142,1.3890872,0.4761493,-0.7230338,-0.4290328,-0.82647306,-2.1318898,-0.4711076,0.98473656,0.7653407,-0.3345679,-1.0286524,-0.645752,0.49612308,0.52291787,1.3533564,-0.042996243,0.48034576,-0.10557514,-0.33093375,-0.48791057,-1.5468917,-0.112684764,0.145365,-0.2549333,0.23669097,0.4679017,0.02120531,-0.2921006,-0.44961935,-0.96671295,-0.8823682,1.1821656,-0.88306475,0.26771694,-0.8124304,-0.08580602,0.06375878,0.9953027,0.11172032,-0.6939979,0.6374972,-0.616148,-0.26781386,-1.3679137,0.303414,0.67628896,-0.054937836,0.49933958,0.33296764,1.2695327,-0.25696948,0.29339594,-0.1934296,-1.9122562,-0.27670962,1.9422638,1.1856492,0.5383113,-0.1036736,0.2812684,-0.13627625,-0.06604394,0.13299647,-0.34297413,-0.00035629328,0.29538715,-0.0011075877,-0.15020089,-0.21479174,-0.28676075,-0.4876182,-0.10754581,-0.123698905,-0.31493744,-0.09662261,-0.0848102,0.020552307,0.1070416,0.23270446,-0.13136484,-0.40161192,-0.053772863,-0.1117974,-0.48275948,0.056641914,-0.17218058,-0.09233834,-0.3319457,-0.065662086,-0.32744846,-0.026046459,-0.19102913,-0.021623466,-0.3338362,-0.09730683,-0.24578092,-0.32996386,-0.24871552,-0.24222648,-0.17247003,0.20821154,0.0690272,0.050588306,-0.09698185,-0.28796,-0.21708727,-0.14437467,-0.10547653,-0.165891,-0.14525738,-0.16148314,-0.57807887,0.083888695,0.007952739,0.5790187,-0.1108855,-0.18262169,-0.15702762,0.101370275,-0.12448528,0.091957346,-0.24176392,-0.33969116,-0.6427462,-0.96183884,-2.2551126,0.08112539,0.13501653,0.060789425,0.050946616,0.13075006,-0.87733907,1.4203513,-0.6541356,-0.1405895,0.27484196,0.92308336,-0.14085028,-0.7233374,-0.05445414,0.1889718,-2.1987615,0.29701874,-0.96680975,-0.60442233,-1.5272298,-1.181989,0.3092829,0.20183173,-2.2142692,0.33246404,0.15355313,-0.31521076,-0.995903,0.6973076,-0.00018424192,0.95718104,0.105016366,-0.24094668,0.3104323,-5.175644,0.08329269,-0.8023816,-0.73811746,-0.8799292,-0.30018997,-1.8265281,-1.6002517,-0.48690635,0.16818532,0.18298747,-1.161778,-1.1189364,0.18116751,-0.58316195,-0.35509384,0.8999533,0.4800334,-0.49354637,1.8908808,0.48431143,-1.2566556,-0.23960271,0.32289094,-1.1674991,-1.0005267,-0.45539927,0.55461603,-0.30481485,-0.7538433,-1.2866921,-0.26248503,-2.229433,-0.7915315,-0.6572006,0.890867,-2.5746038,-0.29115188,0.34922194,-1.330499,-1.5472767,-0.11640169,0.3310238,0.19322702,-0.6966742,0.7412261,-0.9025599,1.7483442,0.24288046,-0.21161622,-0.635427,-0.4131171,-0.50931776,0.15280285,-1.5887998,-0.36599803,-0.7293937,0.0637857,-0.5629102,0.1480824,-1.9392529,0.09483443,-0.6324289,-0.5612446,0.23432449,-0.14534889,0.47208682,0.064554945,-0.029751183,-1.6063716,-0.5180682,-0.043297995,-1.5694141,-2.3789954,-1.0491582,0.42097473,0.890555,-1.2454406,-0.22560948,0.24471274,-0.421139,1.0334203,0.38413814,-0.21390978,0.77683586,1.0285754,-0.001102413,-4.840667,-3.7194672,-2.9033027,0.09802911,-0.9595454,-0.8295931,0.46891427,1.4542524,-2.3279223,-0.62851244,0.59097266,0.9678544,0.15748572,0.25766015,-0.11351851,0.39140773,0.14688295,-0.893154,-1.5606074,0.45294067,0.8169749,-0.4180921,0.076905265,1.624202,0.94636595,-0.0389175,0.33723918,0.05203844,0.949982,0.7529947,0.39631513,0.27427775,-1.8645957,-0.36503863,0.21857052,0.23628882,0.6914207,-0.9319202,-1.1173472,-0.122894585,-1.2947688,0.070847616,-0.20135076,1.518187,-0.3419444,0.31967938,-0.41804123,-1.8439585,-0.3865946,-1.3669306,-1.6776879,0.07998143,0.23544985,0.051241975,-0.8969229,-0.96420085,0.72268176,0.5418762,-0.6034027,-0.56922984,-0.33225662,-1.0302695,0.24485369,-1.7818956,-1.2818882,-0.41610432,-0.28473514,0.21558915,-1.1871818,0.2729127,1.2123127,0.54428977,-0.83309734,-0.0543269,0.2915611,0.099077955,0.29707515,-0.91147804,-0.031317342,-0.83937395,-1.8426709,-0.257307,-0.96890634,-0.7604712,1.2894623,0.865347,-0.30031687,-1.9297915,1.6982328,0.2206827,-1.5964787,-0.4903869,1.7305424,1.1244962,-1.4045615,-0.19734251,0.5370201,-1.9272876,-0.73054737,1.1030564,0.41603893,-1.1877809,-1.1325308,0.8976319,0.14712012,-0.27848148,-0.57334495,1.0595739,-1.2560089,0.95692784,1.424742,-0.79011875,-1.6323292,8.484762e-05,-0.6397512,0.052098177,1.0735629,-2.2427285,0.41477582,0.4032343,-0.9537233,-0.86002237,0.1617788,-0.24213773,0.1285056,-0.61001337,-2.0476494,-0.45246947,-0.67590433,1.8938508,0.27879122,-0.96419823,0.62858474,-1.6561005,-2.0294204,-0.3426878,-0.12557314,1.0029415,0.51368916,0.31258905,-0.8083713,0.46123233,0.08118899,-0.0016659457,0.09475285,-0.6237984,-0.86119664,0.33654878,-0.48161048,1.3739005,0.18214442,-3.4591706,0.3784636,-1.3904488,-1.2828345,-1.2645917,0.47249848,-0.8926852,-2.346509,0.56547916,0.5024592,-0.36408034,-3.0447025,-0.22672787,-0.14726645,0.16115505,-0.0020733676,0.5032014,1.662293,-1.0817394,-0.07405151,0.07595528,-0.57236457,0.4318629,-0.53022933,0.4290092,0.29860514,0.56091976,0.816898,1.491045,-0.81494725,0.18781304,-1.5411825,-0.087005466,-0.4859755,0.51892936,-0.6874953,0.8573922,-0.14502698,-0.5346037,-0.37832332,-0.55845094,0.39177847,-2.1733313,-1.907064,-1.906323,1.871448,0.1637013,1.1178184,0.9111623,-0.42579198,-0.1666396,-0.8692725,-0.100615874,0.06106928,-0.37882507,-0.34106463,-1.1232762,0.004985281,0.868366,-0.021661248,-0.025939628,-0.14764415,-0.50350904,0.37928915,-0.9719323,0.14310874,-1.5767382,-0.11920324,-0.041275553,-0.8349631,-0.57424843,-1.1128016,0.9461578,-0.8110658,-0.59850335,-2.4570198,0.9867965,0.9529023,-0.76693726,-0.2679425,-0.19080332,-0.23337391,-0.2489135,-1.8316624,-1.3528004,-2.1047735,-0.29220295,0.5275015,-0.8990277,-0.84799606,0.16005018,-0.3513258,0.9559599,0.09250058,-1.7648948,0.50221217,-0.12528545,-0.4466731,0.064899206,0.40260792,1.2907813,-0.4521121,0.4855134,-0.14042415,0.18471602,1.1576173,0.6126135,1.2464118,-1.0798887,-2.0187368,0.1700305,-0.30627406,-2.9155095,-0.12968141,-0.16246074,0.4246754,-2.5202737,-1.2688651,-1.1309443,-0.5563388,0.027718129,-0.42121497,-0.92624485,-0.65575576,-2.091837,-0.34546077,0.009527827,-1.352737,0.23690653,-0.4842158,0.58039856,0.30169111,0.061113987,-0.37854666,0.24072821,0.43898684,-1.1991429,-0.4041875,0.5595576,1.1034482,-1.1145562,-3.3281608,-0.90346277,-0.6442224,-0.43821394,-0.37357515,-0.25390694,0.3170757,-0.8321489,0.045165814,-0.6425371,0.38606262,-0.038815882,0.41978288,-0.27809262,-0.5569979,-1.1926095,-0.88700145,-0.16015482,-0.109961644,-0.81864166,-0.4343984,0.252855,-0.4057582,0.078221485,-0.027575636,0.2516881,-2.2633533,-0.050612368,-0.44136184,-0.17850247,-0.7033326,-0.06146685,0.39416492,-0.53569984,0.4277433,-0.56601524,0.23288155,-0.117549494,0.3210101,-0.3372357,-0.3954152,-0.9552883,5.538273,-0.84197164,-2.2665339,-0.94990444,0.37090948,0.54448843,-0.0758861,0.002574097,0.6535803,-0.10129021,1.7836609,-0.012282422,-0.094579086,2.2675843,0.503748,-0.16960402,0.2670804,0.108020864,-0.9075539,0.10727526,-0.34059423,-0.30448043,-0.90744483,-0.591105,-0.1245812,0.94013214,0.7798704,3.3588483,-0.24627727,1.0216935,-0.15511018,1.1667606,-0.093826175,2.0895436,1.9216518,-0.3068396,-0.087113455,1.5739976,0.100427,-0.23237559,0.06087874,-0.20911828,0.35934964,-0.5570849,0.28206116,0.074957505,0.5855832,-1.3883111,0.20823841,-0.7794534,-0.09876673,0.058554992,-0.07197101,-0.15312025,0.018808447,0.19322702,-0.36907715,-1.4570982,0.47705853,-0.74778795,-0.20547622,-0.6674055,0.067494676,-3.437995,0.7235756,-0.35010475,-1.6289284,-0.8321878,0.475657,-0.49888808,0.037730873,-1.6548407,-0.1583696,-0.09665321,0.73521805,-0.28618407,0.14456046,1.2719152,-0.8728522,0.41758442,0.32210386,-2.487634,-0.71480465,0.5195055,-0.17000645,-0.48751077,-1.5817219,-1.112315,-0.5111819,-1.0563824,-1.9359548,1.659836,-0.09180778,-0.30612767,0.35936326,0.6109226,1.8939251,0.50178206,0.7727151,-0.37224823,-0.5792067,-1.8382685,-0.7250259,0.30927467,0.84289443,-0.2613438,-0.26940924,-1.0123649,-0.85871834,-0.6899071,-1.7665648,-0.14281175,-0.67942625,0.8483454,-1.2079772,0.026073039,-0.41676956,0.36709684,-1.1473567,-1.0235617,-1.5280896,0.5995261,-0.46183217,0.87391114,-0.75737536,0.46833324,-0.30880412,0.22267225,0.41704467,-0.6774665,-0.8082926,0.17685339,-2.5454822,0.4937055,0.59794474,-1.4988625,0.6967217,0.48366717,0.43126816,-0.06570473,0.26689363,0.43924326,0.3722339,0.35303319,0.36297244,1.3191555,-1.8646954,0.26160628,-0.1280281,-0.44593552,-0.34965578,-0.39699057,-2.0454297,-0.60751045,-0.40776908,0.8699918,-0.8147708,-0.36999357,-0.4541914,-0.15820938,0.42573565,0.6684929,0.4559592,-1.1508999,-3.3269606,0.87389016,-0.3866871,-0.9031185,-0.72187126,-1.7488413,-0.5948322,-1.988409,-0.5260635,-0.68057793,-2.4233239,-0.18524754,0.24945799,-1.1183293,1.4263842,0.034500204,1.451154,-1.2026746,-1.6606416,0.45835078,-0.13826138,0.541394,-1.2971011,0.54566956,0.22650795,0.4346203,-0.56229615,1.5392308,-1.132358,0.1373311,0.8127477,-0.32376495,-0.85862887,0.21275806,0.22383821,-4.923624,-0.25041443,1.7275286,1.2487643,0.6456338,0.25669056,-0.46271688,-0.6429789,-0.56488955,-0.33912018,-0.36237755,-1.3303213,-0.18799043,0.43613493,0.09969428,0.07557528,-0.52297723,-1.0896641,0.4085831,0.04246037,-0.75161535,0.024153916,1.1306574,-0.13395672,0.3641928,-0.33211994,-0.4709175,-1.0333498,-0.4480428,-1.7390811,-2.195385,-0.16264164,-0.75666356,-0.19129501,-0.26132083,0.3386982,-3.068581,0.27064645,-0.5674852,1.0617467,0.044954024,0.32777515,-0.19297117,0.8058078,0.1720362,0.090470254,0.23180652,-4.212325,0.2156485,1.1466069,-0.43336537,0.4813493,-0.8296631,0.12813179,0.5335015,-0.39131507,1.3000193,-0.5722003,-0.5399834,0.5971124,1.58615,-0.27102786,0.73096967,-0.8258207,0.76940095,-0.3517481,0.46259713,-0.42675504,0.2939905,1.4177697,0.4014621,0.4671405,-0.9629799,0.80587816,-1.3170761,0.96374154,0.74812627,0.7904353,-0.8395431,-0.69308865,1.7709767,-1.0039171,-1.2193592,-1.5612528,-0.24437003,-0.4969532,0.26449203,-0.1623366,-0.45901412,0.51252735,0.10715844,0.048211373,0.6580336,-0.33381897,-2.0344734,-1.065462,0.354169,0.032623652,-0.49677366,0.3459779,1.0855656,-0.83290964,0.7115061,0.29828316,0.35650635,0.17367789,0.0772374,-0.36622486,1.3208699,0.9476427,-1.0212405,0.2214351,-0.6315719,-1.2302926,-0.05024041,-0.08772086,0.1912354,-0.85456026,0.4759596,0.14696372,0.8754291,0.23646347,0.15737075,0.8840864,0.382046,-0.59351,0.5268419,-0.1354813,0.6866618,-0.6395675,-1.32326,-1.9427987,-0.3774627,-0.18096536,-0.09329705,1.5532138,-1.8608785,0.19853905,-1.7988636,1.9888227,0.6762272,-0.40858647,0.03166246,1.0823243,-0.45785356,-0.15544543,0.19617696,0.4181293,0.27699208,-0.5927493,-0.17903408,-0.35212016,-0.6275085,0.9774699,0.81870896,0.6866642,0.86585534,2.8525457,-0.5497663,0.29349554,1.2821636,-2.1853118,0.51898444,-0.96637505,-0.06548208,-0.91063505,-0.68870413,-0.65587974,-0.24404868,0.5417578,1.4316005,0.9492195,1.891855,0.06417161,-0.36808112,1.2301494,-1.5070603,-1.7575725,-0.6617918,-0.4303101,-1.3243923,-0.0011266385,-0.39091203,0.2729444,0.9832853,-1.7063812,-0.03474527,0.2345142,0.25181976,-0.30681992,-0.40830415,0.44984475,0.6321099,-0.5815656,-1.2177414,0.28946662,-0.586788,-0.88651377,-2.2967658,0.14937566,-1.2913859,-0.1235125,-1.5217705,0.41614878,0.9277213,-1.0933588,-0.17361712,0.6511557,-1.2027358,0.5488423,0.6802001,-0.1756368,-1.5053358,1.008182,0.7676173,-0.9737603,-2.1669903,-0.97939014,-0.59192216,0.08243717,-2.5310314,-2.6181846,-0.31737462,0.13473806,1.8727504,-0.6591224,-2.116776,-0.9930893,0.5763019,-0.35535377,-0.23999344,-0.25663805,0.685871,-0.3495382,0.18947369,-1.2101395,-2.3343322,-1.4681529,-0.7804824,-0.16778716,-0.3894862,-4.041168,-1.1044265,0.0077794893,2.576917,0.66746926,-0.6454716,0.4480995,0.34694654,0.37217766,-0.12260237,0.086079165,-0.53521633,-1.0356028,-0.5241755,-0.4897179,0.053573266,0.75807476,1.0117297,-1.264226,1.5031011,-1.040292,0.46455032,0.33965635,-0.40477663,-0.30109596,-0.24120143,0.06594804,-0.2526949,0.6066054,-0.8251072,-0.9961866,-1.0493574,-1.6657887,-0.038431793,2.247479,0.710124,0.62581414,-0.19547147,0.85053337,-0.309704,0.8877523,1.0274148,1.0178914,1.1282272,-1.2152003,-0.9953178,-1.5843841,-0.7205132,0.88099045,-0.080861695,-0.91944057,-1.5704913,0.66899747,0.5083195,-0.2844396,-0.5184388,-0.35491905,-0.30599487,2.3438783,0.6020442,1.1925744,-1.1152313,-0.7356039,0.2215012,-2.418193,-0.5646732,-0.34959814,-0.037279088,-0.083692834,-1.2963223,0.13886803,-1.5733101,0.7774265,-0.08668262,-0.007571424,-0.25971818,1.2810099,-0.8929684,1.2918749,-1.8032806,-0.49805808,-1.9271901,0.47087717,1.984477,-0.7005502,0.30910388,0.25205216,2.081736,0.22453162,-0.5628501,-0.5332203,0.19604215,0.9781629,0.3291924,-0.46594113,-0.8635932,0.88018024,0.8445139,0.056541782,1.1477191,0.17829525,-0.0036668186,-0.25451142,0.018385554,1.673525,-0.120271906,-0.36240196,1.315793,1.9459605,-1.1610593,1.0155232,-0.566749,-0.3272783,0.94728065,-0.95498073,-0.49048096,-1.5069122,0.088191554,-0.5565414,0.94695985,-0.5362177,1.2830081,0.113666415,0.98296386,0.3613358,0.13445744,1.5389476,0.1618816,0.8832452,0.39003253,-0.274756,-1.2615265,0.68463534,0.090071365,0.44854504,-0.96703017,-0.48493952,-0.97754973,-1.1544275,-2.2601628,-1.1675653,-0.27699146,0.9239565,-0.7820866,0.58830965,0.4796718,0.68881536,0.28117502,0.31937402,-0.07684067,1.6066835,0.42432863,0.30540752,-1.1847473,-2.0749614,-0.016376566,-0.10761913,0.70160663,0.13985765,-0.23021993,-0.83950317,-0.9488894,-1.1216199,-0.3702799,-0.88702893,1.2486525,-0.14492545,1.2930653,1.0093637,0.8088521,-0.16252825,-0.19868505,-0.025656244,-0.76944673,1.170758,-2.034645,-0.20423195,0.8104751,0.6217058,-1.6636674,0.81162727,-0.48861605,0.050028887,-1.1672791,-0.4208845,-1.4452312,-1.5165058,-0.9875047,0.644111,-0.0836626,-0.3838347,-0.98420286,0.040983006,0.08298102,-2.4065647,0.8956079,1.2362993,-0.31629193,-0.4590627,-0.8978043,0.26880795,-0.3233048,-2.013331,-0.66418386,-0.67522496,-0.51644516,0.51428694,-0.18676472,1.39846,-0.8280976,0.56375057,0.106120266,-0.34718606,-0.60266936,1.5865884,1.6540148,-0.78070915,0.9830824,0.10379475,-0.32517552,-0.6061096,0.3073983,0.04148732,-0.35959536,-0.48393694,0.949433,0.40916768,0.28711626,-0.3068328,0.54783154,-1.0043182,-0.6446675,0.54490995,-1.9489635,0.01119566,0.8180276,0.43795866,1.255688,-1.2576756,0.16234624,-1.3011422,0.35311294,-0.7952266,0.3110489,-0.8526082,-1.5873888,-0.39927688,-1.2681303,-1.5607206,-0.6923979,0.56056607,1.7633829,0.45709372,-0.6897609,-0.1582993,-0.010631887,1.1851301,-1.5492668,-0.5129332,-0.1258035,0.14847144,-2.0474715,-0.999766,-1.1528692,-1.2047648,-0.34824583,0.026687585,0.009600379,-0.18175995,-2.197825,-0.61093795,0.39978883,-1.379813,0.5018841,-0.2684707,1.4680467,1.1376822,0.022935692,-0.49501616,-0.1782808,1.1355944,0.16049963,0.1351572,1.5055531,2.2322736,-0.79963636,-1.7229619,0.2532694,-0.8173443,-0.44828165,-0.46809834,-0.6223068,0.9532247,-1.0908444,-0.16401906,-1.0340763,-0.6127881,-0.2720036,0.36602527,-0.25326306,-0.46891946,-0.18851823,-1.8091316,1.312649,0.45581895,-1.4424175,-0.009172124,0.4585021,-0.978984,-0.08387138,0.24739453,0.40883312,-2.5406604,0.26023048,-0.66525626,0.56128025,-0.8930007,0.15039954,0.63853663,0.17398988,-0.29514247,-1.4433472,0.26530212,-0.4669105,-1.1950185,-0.74524903,-1.0939522,-1.9277115,-0.4687306,0.1311309,-0.31892782,-2.094467,0.28162336,-0.86797273,0.41089064,-0.0057373224,-0.2960339,-0.68622565,-0.58858526,-0.31667814,-0.01386608,0.2347104,-1.6166313,0.6121974,-0.16589206,-0.83012307,-0.51418364,0.07451165,0.7688402,-1.6292901,-1.7284074,-0.9374541,0.13645671,-0.5414927,-0.41364625,0.16455084,-0.47791344,-1.1007268,-0.3993582,-1.2337571,-0.6302004,-0.7922183,-0.2734694,0.26705217,-0.05447471,-1.0607908,-2.1081288,1.028669,0.12558398,-0.70003545,-0.010685903,0.3589496,-0.7299072,-0.05028703,-1.8514484,0.19182912,-0.83353865,-0.14208218,-0.44344342,-0.36254662,-0.39935637,0.32633966,0.51037395,-0.42428896,-0.8649981,1.2864835,-1.2735612,0.55322385,-0.6004231,1.0160846,0.90911335,0.7631229,-0.4009197,0.05916217,1.2142344,1.6380186,-2.0071883,0.91947454,0.4370073,0.19581923,0.8370986,-0.00025001404,-0.6768841,-0.35435832,0.5208546,-0.8323778,1.4236684,0.114862606,0.031313285,0.35693234,-0.74372005,-0.08430421,-0.5407996,-0.46098,1.422101,-0.5683499,-0.9689038,-0.6651571,-1.4305423,-0.78760064,-1.4722782,1.0960212,0.34488773,0.38968796,1.4482679,-0.26464972,-0.91316736,-0.326377,0.098484084,-0.20875287,-0.50603557,-0.74323976,-0.66917765,0.507313,-1.3455865,0.15015845,-0.29053932,-0.8227766,-1.2845736,0.98328555,0.49924672,0.933513,1.1072075,-0.1329526,1.1073277,-0.41895443,0.3515404,-0.8010696,-1.8305562,-1.8744671,-0.12021005,0.46683145,0.07067017,-0.52067304,-1.0888598,1.7603102,-1.0471377,0.30340576,0.7198994,0.2943066,-0.67210233,-0.39970946,-1.144764,0.07853612,-0.8634346,-0.76590705,-0.29452544,-0.5428152,-0.6034806,-1.8180571,0.4260765,-1.4935015,-0.7244318,-1.3259716,0.38913804,-0.15584677,-0.6937823,-1.1453784,-1.2022398,-0.0065619927,0.39907902,-0.33696777,0.5285005,-1.779403,0.23352271,-0.1414451,0.25426906,1.1228572,0.052294414,-0.2582324,-1.0018992,0.5154043,0.88391066,-1.0015662,-0.27686417,-0.3732555,-1.3841467,1.6564796,-0.45616132,-0.3812662,-0.5271702,-0.41455317,-0.52352524,0.29703367,-0.6490028,0.87033975,0.63586515,0.5995804,-0.06640647,-1.0578754,0.09044519,-0.05715722,-0.94772625,0.53571427,0.16767125,-0.17816387,-1.6776185,0.2823993,-0.55257565,1.2488928,-0.43808416,0.23061353,0.20814365,-0.28435874,-0.2902211,0.36089247,-0.41337508,0.636666,-0.26970744,0.32950658,-0.092531994,-0.17210156,0.3385973,-0.2603327,0.14714453,-2.4312153,-0.5269549,-1.1057274,0.51531005,-0.08407138,0.38216358,-0.2662195,0.28915402,0.08533718,0.6857742,1.1468565,0.36921346,-0.6416807,-0.70383847,-1.5725399,-1.1969476,-0.7669271,0.061346855,0.5115799,-0.14471209,1.9547987,2.699566,-0.44007874,0.110278025,1.1938989,-1.4490138,1.7771739,1.5904515,-0.101877026,1.7215117,-0.088083416,-0.08742835,-0.4839685,-1.0060573,0.0038840063,1.3652098,1.5381563,0.6435325,-0.04159947,0.46973363,0.106966764,1.0843079,0.16423142,-1.4214664,-0.68259525,0.30645564,0.4730609,0.56353843,-0.391507,-0.3169312,0.29421762,1.412303,-0.9789436,-0.69194674,1.2568156,-1.337461,-0.9790925,0.17933676,-1.3165436,0.37726027,0.6696834,-1.0482128,-1.577203,-1.5858586,-3.5191727,-0.86767006,-0.026673967,-0.75349545,-1.7772343,-0.571757,-0.27069086,0.3921814,-0.5765382,-1.4087267,0.7283546,-1.0570582,-0.6548478,-0.27884415,1.3913119,-0.0020107566,-0.44296104,0.5524744,-2.0054576,-0.83269227,0.5868734,0.50540006,-0.72197175,0.36328226,-0.38440382,-1.1157861,0.34109646,0.7141166,0.5695491,-0.4182171,0.6969174,-0.47501838,1.5337962,0.8359794,0.7944756,-0.40326518,-0.038789887,0.46191493,0.38408378,0.10357697,-0.19405323,0.7161757,0.39832366,-1.8905106,-0.75351274,-0.30347443,0.35155833,0.75419444,0.76844615,-1.3388939,0.798075,1.2173018,1.1321585,0.31844497,0.3030859,-0.4847867,-0.31097353,0.18747243,-0.96925026,0.030971015,0.14590108,0.041902937,-1.030957,0.84574777,-1.6699307,-0.37696558,0.19064409,-0.6399961,-0.2958308,-0.19024359,-0.25176954,0.52993596,0.18904585,-0.8369165,0.12982081,-0.84932005,-1.1566627,-0.74204576,-0.08239889,0.08676744,-0.79546833,0.58840954,-1.4591227,-1.6247618,0.20563677,0.056041356,8.650939e-05,-0.5889416,-0.28582373,0.85677326,-0.8770913,-0.8530961,-0.17422253,-1.263289,-0.780933,0.23464131,0.7229641,0.5794643,1.2532125,-0.13219014,1.1720979,0.44765624,0.69853604,-0.6926844,-1.2997754,-1.6823384,0.2742779,-2.473516,0.91978115,-0.4828149,0.8178798,0.35601157,1.4675636,-0.039445147,0.1889123,0.19104718,1.0171115,-2.3252897,0.40893638,0.25384092,0.13901749,0.25639755,0.19720598,-0.3406444,0.13089275,0.2062123,-0.7436416,1.2752826,1.2140967,0.66908085,2.2709749,0.23439361,0.58774686,-0.051354382,1.0206716,0.68971205,0.63332283,-1.7546833,-1.088371,-0.3240276,-0.3758297,-0.052014418,-0.078020304,-0.6081816,0.10720012,-0.46207118,-1.1204022,0.6862329,-2.4404635,-1.7186946,0.9867411,-0.5635423,0.68511295,-1.0972435,-0.8869258,-0.7423801,0.16292648,-0.4608496,-0.4378258,0.30258647,-0.3236016,-0.096727416,-0.16307236,0.6199349,-1.927196,-0.69021267,-0.996254,-0.36199743,-0.42122024,0.6409123,-1.5591955,-1.086138,0.7223064,-0.3523842,-1.4507713,-0.6686361,-1.6350513,1.0389092,-1.9027777,-0.5761758,-0.66720235,0.5077007,-0.16566509,0.38247734,-0.48241276,-0.70327306,0.16603968,-0.68304753,0.43171537,0.5344973,1.0616741,-1.1425132,1.0195072,0.10675448,0.17276105,-0.36294645,-0.4867541,1.0772719,-0.7690279,-0.2878701,1.4580693,0.6373715,-0.49536204,0.7429396,1.8402479,-1.688543,-0.28080136,-1.582375,-0.43727392,-0.11922505,-0.26881042,-0.17942388,2.068339,1.3559346,0.023172267,0.86912894,-0.006176851,0.41240287,1.2314836,2.454599,-0.005014429,0.36938143,-0.6710769,1.0168769,-1.4356554,-0.8646461,-0.30883402,1.5425385,1.1531646,-0.24349873,-1.9206195,-0.22226393,0.9969673,1.0582368,0.020275157,0.37597474,-0.32984078,0.05686742,-0.3931945,-0.23350936,-0.22505765,-1.8735316,0.14904505,0.6149616,-0.54831016,-0.109942675,-0.7860166,-1.935981,0.75457776,-0.25170243,0.18113764,-0.79380774,-0.56501675,-0.6380285,-1.2140074,0.6059673,-3.400654,-0.868679,1.3480887,0.45182166,-1.1767336,0.1907767,0.440728,0.33448532,-2.509231,0.21221513,0.37149328,0.13881299,-3.0420122,0.22540791,-0.53347105,0.5599829,-0.6170794,-0.81062126,-1.1451027,-0.7268953,-0.61354744,-0.44462016,0.1996234,-0.0103680855,-0.45732728,-0.5407889,-0.11055582,-1.0286156,-0.3098368,-1.082557,0.32270598,0.19572344,0.30427897,-0.6196221,-0.11224139,-0.885393,-1.5254159,-1.2249014,0.25217426,-0.26437312,0.8183615,-0.090859495,-1.0828073,-0.18087608,0.10036566,0.24025503,0.9276618,-0.6667277,1.2865988,-1.7277734,0.34293056,-0.16869739,-0.14140774,0.44184923,0.92551786,-0.34031957,-2.7597792,0.6772193,-0.7713429,0.20611206,1.6039,-1.077339,-0.36786395,-1.3060796,-1.5338428,-0.7991572,-0.10082372,-1.3126566,-1.3584881,0.78176475,-1.0083745,-1.25996,-0.023092143,-0.90631104,0.46352315,-3.3433146,-1.3537848,-0.7015747,1.0183961,0.7924756,0.5093403,-1.7146704,-1.4408152,-1.1211395,0.77929544,-0.46588823,-1.091553,-0.9432031,-2.0214248,-0.2072521,0.84481287,0.6308348,-3.6725624,-0.104025915,0.03728161,0.21993001,-0.358136,0.050490495,-0.40248615,-0.17485693,-0.59347,-0.5959568,-0.55409455,-1.8845569,-0.39948803,-1.1442628,-2.3750386,0.37025985,0.30928448,-0.6262805,-1.9137416,-1.4759009,-0.37561107,-0.028451132,-0.13682067,-0.09298465,-0.0850315,-0.6831237,-1.2629713,-0.31898546,-0.0077280127,-1.1047728,0.9475336,-2.4939213,-0.5368799,0.4329841,-0.18841904,-0.9065589,0.5084456,-0.087563984,0.13136333,-0.33291218,0.3952663,0.08402808,-0.92640805,-4.2132516,0.43225107,-0.28882465,-1.6936809,0.44650024,0.28098455,-0.06790681,-2.7485652,-0.13848053,-1.2898359,-0.83388126,-0.24383703,0.86011463,-0.6498901,-0.18412864,-1.0829067,-1.0719286,0.37333965,-0.5869092,-1.0895789,0.8696877,0.54115367,-0.34576988,-0.2348989,-0.875461,-0.08175309,-1.3276765,-0.24097146,0.5420964,-0.99496883,-0.78486454,-0.22770932,0.027451107,-3.1986275,-2.1189327,-0.67505914,-4.3671045,0.3310123,0.96606004,-0.17670828,-0.7084347,1.1299729,0.7681591,0.7948148,0.69610226,0.3459741,0.34533292,0.1017741,-0.33447945,-0.80366063,-0.3815536,-0.25706768,-0.57022786,0.47040612,0.040879298,-0.99549544,-0.9006596,-0.4353022,0.49524963,1.0397043,-0.49477452,0.3496409,0.51663506,0.8793567,0.13091256,0.6998554,-0.63704044,1.0081507,0.107294604,0.02984358,0.3704136,-1.0844984,1.0683475,-0.522521,0.28929085,-1.2111654,0.2763611,0.28668344,-0.28305465,0.7820486,0.2592723,-0.37419006,-1.0625739,-2.092893,0.06870268,0.025593605,-0.5295274,-1.1035047,0.848376,0.3004083,-0.046714,0.14378281,1.0232756,-0.31643516,-0.10543109,-0.7751817,1.2894915,-0.15018246,-1.118391,-0.1445136,0.65994763,-0.03613595,-0.72751284,0.18139389,0.50063014,-1.6728574,0.80406547,-1.6106577,-0.816916,0.05146957,0.1699369,0.46388438,-1.1947453,-0.29051107,-0.002693818,1.9984629,0.45093992,0.54228145,0.997725,0.752149,-0.5220567,-0.51930547,2.3495457,0.5046201,-0.59805477,1.2286861,1.2356627,-0.7452155,0.3523851,0.71347344,-0.2256321,-1.0634527,0.44580173,1.80299,0.4359563,0.07124095,-0.8326318,0.87722015,-0.86001873,-0.0044364384,0.62849,0.039495718,-0.1718811,0.776803,-0.6664145,1.5079434,0.57965994,-0.41546196,0.15577772,-0.68959916,-1.3501556,-0.059936363,-0.91042674,0.21370167,0.38649535,-0.43242443,-0.024800003,-0.9699986,0.026405424,-1.1503435,-0.35909328,0.2416619,-0.08463007,-0.97637427,-0.3477276,-0.64025885,0.5491371,-0.7287227,-0.909437,-0.33144954,-1.3921168,-0.042939287,0.6199657,0.23239058,-0.99381673,-0.40844542,-0.9542904,-0.15417822,-0.38956806,-0.57590216,-0.3751285,0.55831796,0.6692844,-1.0574951,-0.37643978,-0.7124945,0.4666714,-0.37135842,-0.1274533,0.13841128,0.12249215,-0.76250565,-1.6612737,-0.57706296,-0.58695984,0.12842621,0.037885018,-1.0533153,-0.13606898,-0.5848702,0.24689192,-1.3180916,-1.0788187,0.07975456,0.22676179,-0.46074274,-0.7351613,-0.80868185,-0.84952575,-1.070411,-1.353568,-1.0562818,-0.3353082,-0.124953255,-0.2902486,0.45437285,-0.37967414,0.8584837,-1.0455201,0.3713029,-0.54549813,-0.034684703,-0.4364289,0.24885544,-0.04681624,-0.5517857,-0.8306643,0.5797267,-1.754497,0.17920655,-0.127785,0.78520745,0.35037214,1.4154739,0.026266329,-0.16362864,0.856027,-0.4961695,-0.58321345,0.37743473,-0.25579712,-0.56115985,0.7199007,0.38349015,-0.41897765,1.13428,-0.13967383,-0.46939248,-0.7446015,-0.49925685,0.21644664,0.9048476,0.0898269,0.17879051,1.2746117,0.77981603,2.01161,-0.70226896,-0.38973552,0.3681408,0.31253636,-0.90750587,0.709483,0.5549907,-1.0669173,0.1303065,0.2565939,-2.5578983,0.1733152,0.013002789,-0.62466586,1.4997165,1.478778,0.8416373,0.809135,-0.002071379,1.0836442,0.030352771,0.34242642,0.58274066,1.5332716,0.33417767,0.06899595,1.3014104,0.4051817,1.6385252,1.4137065,-0.44403467,-0.22456412,0.20060381,-0.6254003,-1.6247832,0.23364636,-0.99112344,-0.6509981,-1.0896823,-0.24954772,-1.8457077,-0.4006328,0.36293277,0.093963504,-1.8555208,-0.26486665,-1.1870557,-0.02598191,-0.7283224,-0.695354,0.13853687,0.45682123,0.12106541,-0.06104824,0.21152613,-0.97092015,0.41929048,0.27298772,-2.2251232,-0.49971285,0.13241151,0.69818294,-1.4005733,-1.603307,-1.1972326,-0.99315673,-0.2791532,-0.55234015,0.2675388,0.70438945,-0.08454557,0.18175039,0.28925562,0.20789537,-0.09347321,-0.12968896,-0.093062475,-0.6460141,-1.9375947,-1.5340046,0.1252016,0.26772076,-0.31405538,-0.5128924,-0.4802739,-1.520489,-0.4075731,-1.306988,0.8746192,-0.8709751,0.45645043,-0.9640852,-0.7052753,-0.04005474,0.6850569,-0.19739458,1.0927488,-0.89044225,-1.1351706,-3.7263217,1.8766854,-0.7050667,0.15366007,0.22180265,1.0510036,0.69511795,-0.83431315,-0.43861002,-0.6209128,-1.7961109,-0.3031677,-0.13463461,-1.4072876,0.69495547,0.5158694,-2.8597648,0.12798089,-0.9438273,0.9919747,0.5782156,-0.284472,-0.008311607,0.64105666,-1.4936602,-0.1387499,0.39666086,0.01821468,0.24683577,0.056176923,-2.8495793,-1.5999675,0.28582075,-0.018794954,-0.16486242,-0.6150198,-1.6665915,0.1807946,0.798615,-1.4842277,0.8369509,-0.46285337,-0.49039787,0.6360239,0.2268785,0.40573832,0.284592,-0.007931409,-1.4235784,-0.90214753,-2.270265,0.48667973,-1.5756354,-0.31054434,-0.017384006,1.3523283,1.6697407,-0.7976147,-0.3775335,-0.71531975,0.29894838
