-1.8717519,-0.7168081,0.31996554,0.0233745,-0.37152874,-0.33300942,-0.17483963,-1.170984,0.070077464,-0.14862427,-0.86541444,-0.54285586,0.25675404,0.019657604,-0.083728164,-1.1993446,-0.191613,-0.16922654,-0.06396508,-0.002660269,0.17621368,-0.0034404618,-1.1288528,-0.24988148,-0.5090183,-1.1868799,-0.9868792,-1.3649358,-0.8046557,-0.6756612,-0.15816446,-0.60479134,-0.4991649,-0.20038411,-0.7734058,0.17350641,-0.3639165,0.28959328,-1.019575,0.3114496,-0.063174844,-1.0909424,-1.414998,-0.79887414,0.07162358,-0.6123929,-1.0490177,-0.49502867,-0.5802281,-1.1304898,-0.007744655,-0.24815589,0.47903144,-0.119479746,0.06364586,-0.732851,-1.0136393,-0.022687986,-1.7427225,-0.26045126,-0.16394398,-1.5934546,-0.028646441,0.24534887,-1.5666416,-0.15514243,-0.13613859,0.3437959,0.28588027,-1.5393786,-0.6426698,0.034666013,-0.54390836,0.7602818,-1.1204107,-2.0289745,-0.7423638,-0.26976871,0.03549536,-1.1602502,-0.70521927,-0.7973357,-0.9416934,-0.07309598,-1.3109186,-0.4975034,-0.048203498,-0.26030618,0.2500899,0.059979066,-0.31872094,-0.14792474,-0.5081873,0.43932563,-0.75163203,-1.6258548,0.21904346,-1.7241261,0.3528755,-0.63514185,-0.46707934,-0.28028095,-1.0776331,-0.27044922,-1.0232439,-0.4067747,-0.4453317,-1.2555828,-0.08924608,-0.38916716,0.32007194,0.09960786,-1.4703758,-0.73068035,-1.1296744,-0.27032048,-1.094763,-0.23364952,-0.29285446,0.68134177,-0.48885986,0.18632028,-0.66661257,-0.38335344,0.2706973,-0.009059973,-0.20630902,-0.2611303
