-0.99376,0.31316608,-0.6129439,0.37156975,4.8143864,0.5762327,0.35534042,-0.00036583224,0.052788444,0.39555815,-0.15622735,-0.40108395,0.88258135,0.11602726,0.21429898,-0.08450129,-0.19087082,-0.2634213,-0.054995075,0.034960713,-0.07728977,-0.08602224,0.15209329,0.38602602,0.27677065,1.9970176,-0.6820781,-1.0156487,-1.2227721,-1.7246931,-0.041779526,-0.62525415,0.030337034,0.6153715,0.37782902,-1.3823843,-1.4568887,-1.3662534,-1.4159732,0.16919981,0.30669576,1.2862914,-0.7028483,0.27181804,-0.60967505,-0.47769684,-3.3009858,1.0604763,-0.16719082,-0.41045004,-0.7286615,-0.50561297,-0.26018927,-0.23373082,-0.7815326,0.93613124,-1.3822815,0.5726398,-0.9775666,-0.39789414,-0.8064057,-0.08753927,-0.7545511,-0.05877179,-0.7623586,0.11561944,-0.879637,-0.5758191,-3.2520688,0.45850968,1.1460717,2.0182512,0.8658038,1.2691805,0.77430105,0.45308626,-0.29130954,0.31702492,0.41365695,0.26750427,0.18822101,1.9426033,0.92633855,2.122962,1.9029316,-0.0891273,1.8397102,2.5392408,0.7807778,0.008035031,-0.030365806,0.96385247,0.9090297,1.2358847,1.3861473,0.18138324,-1.074172,-0.2712536,1.1717502,0.06748274,-0.15551698,0.22732598,1.058737,0.33555013,0.15936542,1.6359876,1.8885113,1.3933182,2.0749867,2.2188282,0.9027474,1.1933298,-1.7546859,-2.5022473,-0.5607192,-0.9135134,-0.7835978,0.1932442,0.15159546,-0.99160314,-1.4098163,-1.2238555,-1.422558,-1.648803,-0.38821894,-0.11963189,2.0457697,-0.6833435,0.9156891,1.2584801,1.1965657,-0.15551472,0.041940384,0.65549934,0.71507764,0.8142946,0.978994,1.7658694,1.6733294,-0.26906937,0.022807442,-0.26162958,-0.019570682,0.43068218,-0.2405881,-0.04639949,0.086944416,0.07525267,0.22708893,-0.10135414,0.08571164,1.0624292,7.03584,-4.452116,-1.6499193,-1.0014307,-0.51060104,-1.023304,-1.0608462,0.08922242,-0.09852439,-1.0532689,-0.822304,-1.2176633,-1.4204129,0.04197059,-0.67714053,-1.2534685,0.47605264,0.7588134,0.8016107,0.23141566,-0.64972687,0.27023333,-0.3282703,0.3388195,-0.0007131994,0.5264437,0.33239385,1.1030118,-5.593392,-0.8961599,0.058536552,0.4133461,0.046092585,-0.14652067,-1.0344808,-0.2052151,0.08259273,-0.05251038,0.14435464,0.01175989,0.37334126,-0.35796684,8.368682,0.1508795,-0.1915686,0.0726615,-0.45336646,-0.24925126,-1.2302747,-0.33682203,0.29219288,-0.10402605,-0.44359785,-0.18840271,-0.28589904,-0.66309357,-0.06841287,7.549663,1.2289991,-0.19592613,0.038308773,0.5676841,1.2880745,0.018247537,-0.18035778,2.6818118,2.1181893,2.7258554,2.59599,1.193231,0.18645948,0.68620867,-3.5024338,-0.30935335,-1.4155557,-0.71142423,-0.6255011,0.3284167,-0.54836893,0.03305068,-0.18842582,0.08664167,-0.19827665,-0.68067724,-1.8272922,-0.55269116,-1.0478342,-1.0550526,0.16505677,-0.17493622,-1.280379,0.5319764,0.098399475,-0.69483167,-0.15339269,-0.30327982,-0.485532,-0.6242647,3.6664462,-0.5756674,-0.30973947,0.9484517,-2.157149,-1.2408681,2.7786994,0.21934415,0.21417767,0.47890532,0.37622148,0.2987446,0.24955079,1.8420628,-0.7523043,-0.160109,-1.4208539,-0.4368025,0.36044952,0.6997392,0.16576304,-0.042476535,0.64949477,0.0031250245,-0.48110342,0.3756789,-0.36042792,-4.3595495,-0.31110716,0.578236,0.72812754,-0.083023,0.74203503,0.5236913,0.06700839,0.060785707,0.04913047,-0.13672632,-0.10092771,-0.3129258,-0.5665089,0.44691283,0.029139284,0.21805814,-2.1549594,-0.48796615,-0.6223117,-1.1333792,-0.2184664,0.14221391,0.049764518,-1.6775453,-1.4502445,-1.5109463,-1.9155397,0.8339282,0.02997242,0.6098917,-0.069846794,0.97792757,-0.33609515,-0.7410646,-1.3391709,-0.14130276,-0.1951541,-0.036563825,0.079946265,0.28926522,-0.17092215,-0.45397633,0.7111932,-6.822516,0.22557825,-0.3294817,0.26053455,0.12748498,0.22085932,-0.0016737782,0.113426015,-1.677897,-0.9286002,-1.049551,-1.3592728,0.20189434,-0.08532548,0.073090546,1.6488625,0.6298876,0.16999657,0.42901248,0.9019122,0.041908562,0.16892941,1.475168,1.8609806,1.8241277,2.0515964,1.9118648,0.03209578,-0.7886947,1.4414097,1.1467291,0.47231072,1.0744646,1.8397539,-0.009977797,0.2035093,1.5158086,1.0653424,1.3811765,1.3856524,-0.75752795,0.5568024,-0.6469919,-0.02149884,0.4429083,-1.651664,-0.90904206,-0.13597517,0.113858595,0.16556615,-0.52533746,-0.13983099,-0.65165657,-0.34605846,7.557847,0.3199306,-1.5699095,0.090819106,-0.4013078,0.29229575,0.23639324,-0.22202727,-0.13218033,0.092733815,-0.017226122,0.18120535,0.07247322,0.13024296,0.43306398,0.2735604,-13.417028,-0.65910745,-1.1940169,-0.1646033,-0.4507306,-0.9708464,-0.18075266,-0.12181805,-0.56126046,-0.2407592,-0.37236267,-0.6104864,1.9425156,0.10087732,-2.3357875,-0.82912886,-0.09110631,-0.40352762,-0.609884,-0.84194195,-0.19444385,0.21629977,-0.44242144,-0.4073999,-0.5141139,-0.37231213,1.2082617,1.3798949,0.5457549,1.189775,-1.3845067,2.951838,1.6003036,-0.37703437,0.5965711,0.01691317,-0.5437881,-0.32580543,-0.58077604,-0.19678417,-1.8429053,-0.25512597,-1.5062294,-0.26905733,-0.25899833,-1.3924375,0.28470135,1.1445849,0.31795788,0.10738,-1.150383,-0.9037704,-1.0814903,-0.86936367,3.3363838,-0.529228,-0.9608836,-0.9052279,-1.0620465,-0.13867992,-1.4539137,-1.0790175,-0.04139498,0.29116395,-1.6094475,-1.5340755,-1.3889823,-1.4556077,-1.930407,-0.6397276,-0.39765334,-1.5107638,-1.5704378,0.4434936,-1.3210195,-1.0834277,0.34761447,-0.30306393,-0.30000004,0.23466697,0.24516422,0.17035037,-3.717224,-0.6817565,0.062212773,-0.030267213,0.19282672,-0.24789599,-0.17834103,-0.3141632,0.05675394,0.30093175,-0.24652341,-0.28760564,0.004822928,0.021847785,0.53117794,0.24356052,0.07332422,-0.9241882,-1.1009707,-0.023477219,-1.4624696,0.06577461,0.15462658,-0.052213505,-3.277038,-2.3165185,-2.7576003,-3.0251842,-0.99141526,-1.1033273,-0.3140247,-0.47487944,-0.08252388,0.3510886,0.36218017,0.09688912,-0.03843338,0.04410311,-0.55456185,-0.35728115,-0.0066094985,-0.15982328,0.80335087,0.28559595,0.080065176,0.9094512,0.63290226,2.1213336,1.9789653,0.4950087,-0.10806901,-0.31271654,1.0905766,0.956339,1.1358997,1.4979506,0.64288604,0.1662758,-0.9575917,-0.093263336,-0.026765442,0.3585836,0.062565014,-0.21255249,-0.10217536,-0.026400484,-0.04123205,0.27969664,0.0684935,0.03508443,-0.44456732,5.5964513,6.0578947,-0.3280049,-0.2855793,-0.23501648,-0.16992414,0.3422032,0.15923473,0.12602267,0.16982764,0.2595684,0.025518585,0.19580147,0.051044106,-0.0022992366,-0.10618749,-0.12804925,-0.25176853,0.42918313,0.9976692,0.83514315,0.06088441,0.02222241,-3.7464428,-1.6565363,-2.5703726,-2.0484223,1.0728538,0.86767584,-0.18807177,1.1772276,0.3434624,1.3636166,1.313922,0.3960467,0.35137957,-0.026425697,3.3442402,2.0286498,2.648755,2.6132696,0.6446536,0.20360664,0.35705727,-2.108379,-2.0743003,-0.46305528,-1.3349967,-1.3686843,-0.3860505,0.05218219,0.7661195,0.73322594,0.57875896,0.61716646,-1.8154671,1.0959036,-0.4088927,0.3185695,0.43262333,1.0690606,1.1024704,0.24747388,0.012352198,0.010047203,0.27154863,0.53935945,0.65095866,0.4546268,-6.105579,0.1335065,0.8967892,0.6346419,-1.1273713,-0.1279831,0.16255715,0.54118305,0.03195616,-0.13795051,5.362452,2.9701886,4.383477,4.2401676,0.2616467,-1.0962573,-0.7140639,-2.2467246,-1.3782358,-1.1215575,-0.4529767,0.7442315,0.35439393,-0.26495063,-1.606454,-1.2506373,-1.6496165,-1.5651169,-0.5333221,-0.83548373,0.1480946,-1.6317846,-0.4916037,-2.3468528,-2.372147,-1.337839,-0.083949305,0.102279976,-0.19130674,0.14846778,-0.013623588,-0.06881384,1.4872606,0.5023491,0.6982479,-0.5039647,1.1258634,-0.18431589,-0.19413245,-1.2168097,-0.36595762,-0.55274165,0.25461084,-0.17251395,0.02464515,-0.22748485,0.70708907,-2.4272609,5.5304513,0.31643647,-0.43094558,0.035785865,-0.14883043,-0.089629024,0.01636215,0.059454046,0.13968322,-0.11735484,0.1980389,-0.06335309,1.057946,-5.828011,6.4877696,-0.87552655,-1.283125,-1.0065501,-0.95424306,-0.482296,-0.30450785,-0.5710652,-0.3066039,-0.13495094,0.1682046,0.17898218,2.8810809,-1.4386511,-0.025283014,-5.21309,1.073393,-0.24803725,0.21587199,0.3036334,-0.17479555,0.17757757,-0.090661734,-0.31642485,-0.28132218,-0.6731155,-1.1006072,0.25065345,-0.24437287,0.51094353,0.6637668,0.5122777,0.8327825,0.2436041,0.61902666,-1.7896618,-0.2328746,-0.34043813,0.0018909873,0.08156679,1.6785722,0.616192,-0.028391765,0.5523774,0.35529673,0.4805541,0.66605794,1.4392886,0.5042888,-0.27244043,-0.34680417,-0.22974178,-0.08600168,-0.34605008,-2.1446567,-0.7312074,0.66019785,0.028249457,0.58925855,0.3521203,-0.020659726,-0.47165892,0.07820238,-0.03069582,0.06658359,0.045730174,0.48165143,0.0763873,0.08081685,-11.426197,-0.16312918,0.07699089,0.340078,0.118608855,-0.26140133,-0.95721525,-0.27380693,0.6010704,0.045066394,-0.17868489,0.11835007,-0.022289343,-0.9338727,-5.6119633,-2.0372596,2.2296498,0.50302297,0.25229275,1.165483,1.8304946,0.12238472,0.15942465,0.6992612,0.8454269,0.8382471,0.69507676,0.5070594,-0.826522,-0.79916275,1.5150204,1.3792107,1.3176675,2.875224,0.6959361,0.91823334,0.056596458,0.7978098,0.6675778,1.0867989,1.2564996,-0.015408104,0.54272634,0.9487244,0.697646,3.8746622,0.49683166,0.78995824,0.515895,0.23925383,-0.59673655,-0.42867172,-0.39747372,-0.36948985,-0.25014663,1.2441769,0.8009314,0.7473227,-0.33978426,0.18167914,-0.2704146,-0.08817929,1.7340294,-0.94960415,-0.36407155,-0.7151427,-0.5651789,-0.80576134,-0.7321948,-1.6815526,1.2699823,-0.3378392,-1.7168119,-0.90891564,-0.80942285,-0.12667876,-0.11899124,0.00225512,0.36508077,0.09644288,-0.32596797,0.1585578,-0.23311424,-3.0574398,-0.49973768,0.29938316,2.3392162,0.007517686,-0.5603465,1.0864003,1.1918595,-0.15101966,0.0793634,0.9373841,0.73353803,0.46763766,0.7073289,2.8113399,-0.48465782,-0.110784486,-2.4238086,0.2712118,-2.6174006,-2.573956,-0.1734253,-0.13352516,0.3325687,-0.33204508,0.2858547,-0.068498075,-0.078475066,2.6684248,-0.10066214,0.20135438,0.7558156,-0.6089233,1.0908945,0.972479,0.54534745,0.23336963,0.2904334,-1.1876742,-0.73120904,-1.3042872,-1.0092175,-1.1765764,0.260875,-0.28958067,-0.97672427,-0.1041161,-1.0145582,0.17446747,2.5189672,-0.12239683,-0.07003757,-1.0581354,-0.6119431,-0.98933125,-0.9662123,1.6072851,0.6984539,-0.402017
