0.02276742,-0.028021645,-0.27530915,-0.09542418,0.012372757,-0.06833213,-0.007876182,-0.029849973,-0.095250964,-0.101225555,-0.014668488,-0.059650272,-0.038321808,-0.098370805,0.008977767,-0.023027312,-0.016338196,-0.07522846,-0.08790118,-0.07656655,-0.12925863,0.034638725,-0.03671401,-0.009026077,-0.012252504,-0.08212454,-0.07307061,0.06655912,0.008734517,-0.04505225,0.10520806,-0.04173708,-0.1680972,0.024430025,-0.005964062,-0.047858886,-0.041650258,-0.13897118,-0.23882,0.016684096,-0.051388517,0.027917286,-0.124472216,-0.011412384,-0.09643741,-0.026523888,-0.08745642,-0.066678524,-0.06380713,-0.06988251,-0.007671589,0.029682092,-0.1656067,0.0136554185,-0.032764494,-0.16075936,-0.0040178224,-0.01898935,-0.06745252,-0.06591652,0.04470378,-0.073672004,0.08070819,-0.029346973,0.079269856,-0.027553208,-0.13717148,-0.01258211,-0.06425461,0.034415208,-0.023268549,-0.0053559206,-0.24089321,-0.017706398,-0.01897122,-0.06727694,0.0116308965,-0.09143516,-0.033180848,0.067428365,-0.030755593,0.03145479,0.014564553,-0.00091327494,0.011706491,0.004836612,-0.017576901,0.058748424,-0.033237122,0.15777072,0.07977514,-0.12099152,0.04004956,-0.203038,-0.023091901,-0.005939163,0.007084227,-0.01396236,-0.054504625,0.07038771,-0.038757116,-0.06669961,-0.07540926,0.019567005,-0.026372258,0.0012291353,0.04478051,0.06906219,0.01862447,-0.085353,0.008081529,0.03248114,0.04252609,-0.054267656,-0.21919015,0.037028514,-0.01391087,0.053784307,0.012675414,-0.06443718,-0.21718138,-0.0760182,-0.0732472,-0.18581396,-0.17175479,-0.07877693,0.0041084383,-0.08491351,0.0124394465,-0.111628465,-0.15805486,0.08206854,-0.14238535,0.062229052,-0.00053708174,-0.026589919,0.007758037,0.0069240327,-0.053558737,-0.037077315,0.012379678,-0.038403075,0.00032405258,0.08676401,-0.063912466,-0.049230054,0.034839284,0.039280333,0.007115757,-0.11004185,-0.018071987,0.048650607,-0.16492084,-0.023659036,-0.045569792,-0.008125735,0.002992313,0.17695887,0.03667076,-0.123876356,-0.17869133,-0.19562492,-0.04267303,0.0068411203,-0.029987698,-0.03529569,-0.06542708,0.0061373594,-0.10822202,0.10275317,-0.23571368,0.025045782,0.046099655,0.03836231,0.04780227,0.02904811,-0.07812983,-0.010805987,-0.15614553,0.0045089987,-0.14998722,0.0010085935,-0.026089933,0.039316095,0.05244338,-0.094348066,-0.027442116,-0.09328136,0.072083,0.019386474,0.058221724,-0.1647839,-0.18059266,-0.08951464,-0.06601739,-0.10640931,-0.017713042,-0.064351544,0.04085321,-0.05308879,-0.063461676,-0.036462717,-0.08071849,-0.0823853,-0.060020775,0.0090393275,-0.043900356,0.038338512,0.06796539,0.0066060447,-0.11933506,-0.035395212,-0.05695699,-0.07762234,-0.028393766,-0.0068754046,0.015798233,-0.011742238,-0.01718523,0.0091478955,-0.052803297,0.013529796,-0.012424193,0.011457633,-0.12424506,-0.06409542,-0.0794871,-0.18422952,-0.10401369,-0.10328734,-0.019734044,-0.0890037,-0.073797286,-0.05010333,-0.1250236,-0.09625912,-0.05357842,-0.011034472,-0.17799088,-0.06329142,-0.009215351,0.05983226,0.0049139434,0.033020563,-0.0211902,-0.13544077,-0.08356053,-0.010462273,-0.049137354,0.08286545,0.003419879,0.018756296,0.012999119,0.034248702,-0.16073819,-0.16301939,-0.028778959,-0.034246564,-0.041592184,-0.043396562,-0.03053061,0.05276487,-0.057788268,-0.04043701,-0.054873154,0.029356454,0.04053403,-0.020083195,-0.013948698,0.03367763,0.042942457,0.036642544,-0.026007026,-0.009113425,-0.031098746,-0.0107998215,-0.02156935,-0.02705944,0.016304806,-0.055457793,0.046048284,-0.056979105,-0.008113787,0.052616492,0.04572367,0.013575065,-0.028104233,-0.037145372,-0.008411175,-0.021546058,0.028326625,0.0060364055,0.040613905,-0.015956204,-0.06056132,-0.03065347,-0.030259274,-0.0035199276,0.012707856,-0.030346757,0.00014144382,0.05284573,-0.050397985,-0.031078108,-0.026062496,0.004408699,-0.009115631,-0.058511868,-0.029784262,-0.048948944,-0.042048424,-0.045129605,0.030521043,-0.032607578,-0.029165756,-0.02922066,0.051247388,0.052673884,0.009587314,-0.0479092,0.02876303,0.02747192,0.03332238,0.03119953,0.044580873,-0.050243974,-0.003727277,0.04768481,0.04642032,-0.062368374,-0.007028919,-0.010154725,0.038851246,-0.06683117,-0.05904431,-0.038723286,0.018149618,-0.012946572,-0.01867573,-0.017149555,0.015252182,-0.048977785,-0.020079602,-0.049567346,0.033477955,0.00094340695,-0.061204817,0.049777165,0.03786724,-0.042179957,-0.024205785,-0.057313643,0.035102837,-0.040982094,-0.028678833,0.031159349,0.023803957,-0.0023257174,-0.0056543304,0.020101383,0.05655861,0.05191596,-0.03388936,0.050750934,-0.02180756,-0.030846708,0.055715077,0.024830757,0.04649833,-0.0005387664,0.029093571,-0.026328787,0.022826107,0.0148899155,-0.02982781,0.032526873,0.015449774,-0.032681935,-0.009838792,-0.038983263,0.052619867,0.031559326,0.042469665,-0.020786598,0.016582351,0.02977942,-0.03142544,-0.012263041,-0.06371435,0.0041319765,0.036720447,0.023990698,-0.049526528,-0.05672901,-0.05903857,0.033740636,-0.061796874,-0.026347563,0.03126238,-0.05462759,-0.04103449,0.043139428,-0.010476375,0.00015711114,0.042722717,0.007455038,0.038843654,-0.061634928,-0.031194601,0.0086137615,0.047997408,-0.0017386889,0.047848605,0.013884008,-0.04413985,-0.018695295,-0.027791128,-0.033134013,0.0031828133,-0.013105151,-0.05251115,-0.049026985,-0.042310905,0.015339112,0.029958118,-0.0013809826,0.039247274,0.021865644,0.016209342,0.038951296,0.055251688,-0.040583454,-0.04154429,-0.018529775,0.0031809416,-0.060364082,0.03459988,-0.037660316,-0.05450142,-0.02102185,-0.033777904,-0.02237764,-0.013427827,-0.0003043844,0.016463105,0.019534545,-0.014278851,0.00717894,-0.057322055,0.0012932573,-0.0112184845,-0.00939236,0.04238899,0.039011117,-0.041531533,0.04071272,0.033365615,-0.042298254,0.017046299,0.0347874,-0.061448075,0.026271094,0.025982529,0.035167594,-0.04312069,-0.056137748,0.0038189646,-0.033867642,0.061404,-0.024400517,-0.045686968,-0.035265334,-0.023589402,0.04508374,-0.005412125,0.033570133,-0.05955989,0.057385627,-0.009248456,0.010989876,0.0210441,-0.057317056,-0.0032857936,-0.046445467,-0.029924568,0.018961571,0.023645785,-0.050920006,0.04170524,-0.022433054,0.027800616,-0.04162433,-0.030467682,-0.022156652,-0.040304214,-0.049428903,0.056889504,-0.05443082,-0.010081362,-0.05468044,0.008507078,0.011486998,-0.0015262932,0.04416488,0.0421196,-0.020295186,-0.060187854,-0.027862614,0.051159713,0.020759832,-0.012284318,0.03228938,-0.18702236,-0.08236511,0.016516075,-0.034642473,-0.032580227,0.088856,-0.09456761,0.013584627,0.101456314,-0.14952518,0.038624033,0.082071215,0.027099043,0.040711805,0.08688195,0.079178765,0.03931726,-0.007830661,0.04408373,0.04213603,-0.058214128,-0.0038307304,0.09338855,0.048274294,0.014075933,0.077866584,-0.06870025,0.01605589,-0.0024827092,0.005892398,-0.029090213,0.024443604,-0.13615277,0.052042976,0.04918634,-0.12381905,0.07941724,-0.078951515,-0.032723427,0.079831325,0.034214273,-0.13566035,-0.055592135,0.08630654,-0.060678326,-0.032618288,-0.04772939,-0.012554585,-0.063386,-0.015631432,-0.025229681,-0.048786644,-0.1639098,0.016691871,0.006618796,-0.014713394,-0.069989346,-0.036956728,-0.05171709,-0.02529423,-0.0073906546,-0.028739398,-0.13043128,0.049166773,-0.060597718,0.116940215,-0.25470716,-0.019286305,0.104624346,-0.0092361905,0.013087317,0.18008143,0.026744429,-0.097046874,0.03990539,-0.047813877,0.009955814,-0.12794544,-0.01046136,0.0010960368,-0.027722348,0.007415143,0.1862078,0.12637037,-0.059507087,0.027946632,0.048789024,0.045308292,-0.07638183,-0.06480162,-0.088,-0.049634293,-0.025437225,-0.047008514,-0.057110526,-0.042477675,0.024676241,0.016938942,-0.026516322,-0.030652432,0.022917006,0.06799162,-0.17880714,0.056849714,0.09500854,0.025679298,-0.05097647,0.060104057,-0.15424213,-0.047631726,0.073693424,0.01968653,0.023583237,-0.0020462447,-0.0045609726,-0.1476363,-0.025586799,0.046831757,0.032753095,0.2937973,-0.12448552,0.04259854,-0.068219036,0.029356144,0.013551092,-0.08718747,-0.121641204,0.011185501,-0.017240144,0.063633315,-0.10591227,-0.0717759,-0.05652921,0.06725335,-0.0063115116,0.019111145,-0.059742637,-0.05592717,-0.04532265,0.016008835,0.041990682,-0.031551752,-0.014457779,-0.20565301,0.09485933,0.03269681,0.06588337,-0.05684805,0.03167512,0.005432559,0.08004464,-0.0346526,0.052825034,0.043224163,-0.08774716,-0.0070115696,-0.061207727,-0.08811851,0.018993098,-0.029469687,0.047827683,-0.061766155,0.016192669,-0.0020035384,-0.031473875,-0.043990217,0.0017427662,-0.05950255,0.19541632,-0.21815825,-0.04117638,-0.022262722,-0.034551725,0.008502211,0.0913641,0.07095946,0.074794196,-0.046330705,-0.13270986,0.08702859,-0.0065787425,0.042970195,0.09866917,-0.04817852,-0.10157421,0.01373746,-0.003996789,0.05613794,-0.16058221,0.025473457,0.0426082,-0.20952898,0.011068966,-0.01503381,0.007147087,-0.10884066,-0.17761272,-0.066985935,0.23396105,-0.06779151,0.039042875,-0.107372254,0.00080636307,-0.09062361,0.12866417,-0.021122979,-0.06342933,-0.044236474,-0.10007389,-0.039829396,-0.052987203,-0.07175076,0.06357767,-0.034956027,-0.010774292,-0.114299625,-0.11546183,-0.09963148,0.038640387,-0.123347916,0.08276433,-0.048823155,0.022949645,-0.07223624,-0.051731806,-0.051973987,0.059204176,-0.051831804,-0.06831522,-0.03090271,-0.1567379,0.02231371,0.25685197,-0.14627773,-0.19337061,-0.03570663,-0.01608814,0.035207693,0.025834866,-0.041702814,0.004225426,0.044828504,0.038292862,-0.11544219,-0.14100623,0.01615952,-0.030219886,-0.068437256,0.05368224,-0.06615184,-0.024641557,-0.04321135,0.033765294,0.017433606,-0.06647959,-0.15200788,-0.013075609,-0.031502627,0.047684617,-0.01585703,-0.012837127,0.061083995,-0.07456322,-0.053760882,-0.023859065,-0.09686783,-0.027325258,0.052566633,-0.036474157,-0.058770865,0.05242873,0.043061778,-0.06016028,-0.013098908,0.0068568764,-0.04148356,-0.04112752,-0.057352535,0.051452726,0.020162728,0.03227313,-0.047349256,-0.06110162,0.027746886,-0.021850178,0.05092366,0.013633338,0.027167764,-0.09600022,-0.02428117,0.053671528,-0.048600793,-0.04270326,0.021570235,0.0020084754,-0.013459804,-0.0057205013,-0.022256028,-0.018145705,-0.029143253,0.0074776514,-0.060621835,-0.0428638,-0.03728842,0.0050540874,-0.023624893,-0.056348644,0.029705722,-0.02805006,0.052250445,0.037099898,-0.055444986,-0.021977942,0.015357294,-0.0054687457,-0.10376858,0.011497758,0.019912062,-0.042072427,0.010465836,-0.064109996,-0.011087993,-0.036924243,-0.018075865,0.007140628,-0.021927722,0.0085625695,0.042261146,0.040540896,0.032650463,0.019346796,0.05559342,-0.039279535,-0.009424568,-0.061429977,0.015982274,0.07121529,-0.062369876,0.027595397,-0.013679633,0.04977089,-0.03453842,-0.0011532449,-0.017895143,-0.0105228545,-0.07494021,0.031826623,0.0077971965,-0.04846849,-0.037186418,0.023443643,0.033625104,0.02015692,-0.047118083,0.024838895,-0.030092385,0.02374532,-0.024071379,-0.064181015,-0.059879865,-0.045344844,-0.0053193513,-0.03663159,-0.018769965,-0.05677631,0.031156212,0.032615945,0.053231545,-0.04341255,-0.037421815,0.051029876,0.023553863,-0.06084331,0.015390715,-0.024840193,0.06843671,-0.037829727,0.005156574,0.0025765873,0.02958402,0.028171841,0.042585827,-0.06709427,-0.039533257,0.04013803,0.057009805,0.011457012,-0.031602908,0.034510624,-0.0291071,-0.06235891,-0.020802729,-0.031528622,-0.043102343,-0.065080546,0.006759039,0.03616891,0.04862771,-0.027290735,0.018114986,0.050869506,0.031268995,-0.033001103,-0.04710965,-0.049647525,-0.016340286,0.05318378,-0.060873292,0.02676614,0.007730658,0.010811884,-0.069153875,-0.064644784,-0.03466519,0.030201027,-0.018386055,0.04410036,0.035906404,-0.01217021,0.025107201,-0.078960404,-0.048808448,-0.032636933,0.032004893,0.012426605,-0.063031346,-0.040318925,-0.028426953,-0.00347642,-0.0011758643,-0.037730146,-0.042081207,-0.037133113,-0.033646956,-0.01332995,0.010685734,-0.06610754,0.024245996,-0.06646106,-0.0048244502,-0.031972133,0.0047544194,-0.019179389,-0.050909705,-0.06748101,0.049566768,0.042626113,-0.03472264,0.035607897,0.024345411,-0.053600464,-0.018086806,0.004312472,0.049233202,0.04302845,-0.04649356,-0.011556558,-0.06224732,0.025444638,0.006218135,-0.020711344,-0.051269054,-0.020042257,-0.057418197,0.015208954,0.027951809,0.03432781,0.020589676,-0.01145272,-0.067888826,-0.0648931,-0.0019232722,-0.027564365,-0.032225754,0.062222537,-0.023763381,0.0071249483,0.062589526,0.07135624,-0.009752795,-0.030682709,0.005358211,0.050420027,0.03766256,-0.019754084,-0.035106063,-0.037407294,0.0058425004,0.023980513,-0.009567289,-0.06272,-0.047179252,-0.0056475704,-0.002379415,-0.059655935,0.052315906,0.057106894,0.038014993,0.03147269,-0.08125092,0.029099338,0.04423049,-0.06785497,0.0076467143,0.03956432,0.0038373629,-0.005377895,-0.053378668,-0.02646052,-0.012271221,-0.006969197,-0.061433885,-0.017695088,-0.010568447,-0.006779972,-0.13620952,-0.061500482,0.057353534,-0.09409958,-0.07731028,-0.11212194,-0.035265997,-0.04789049,0.046632905,0.022759642,-0.021100301,-0.027234837,-0.03779848,-0.12047012,-0.053929083,-0.12750643,-0.1524086,0.042797565,-0.0481291,-0.012554921,-0.058883704,0.013957757,-0.03265194,-0.051672712,0.0406877,0.0072809234,0.031975146,-0.0025744862,-0.12967548,-0.05724343,-0.043025292,-0.037958257,-0.078405336,-0.03630179,0.0057000327,-0.11181113,-0.0033653812,0.03684184,0.062240105,-0.11471005,0.0018691286,-0.071370825,-0.006668387,0.026447667,-0.1095895,0.06506069,-0.054160707,-0.0332613,-0.06706016,-0.10379106,-0.012565167,-0.0007860735,0.0014002179,-0.024496183,-0.1357091,-0.025291935,-0.026892012,0.030139446,-0.11941794,0.013039531,0.019124355,-0.088900015,-0.13671178,-0.19367386,-0.06813961,-0.019405808,0.05059281,-0.0800942,-0.13374084,-0.19192934,-0.030002695,-0.055498436,-0.048067898,0.022398502,-0.06642868,-0.02250544,-0.06403023,-0.11888367,0.0007014107,0.020054407,0.009016357,-0.16721103,-0.07235605,-0.053630166,-0.016482864,-0.0829134,-0.11302418,-0.0006685422,-0.09046298,0.043716043,-0.11563547,0.023930766,-0.03845363,-0.0038903393,-0.09523487,-0.009638888,-0.037895918,-0.017221812,-0.0028496613,0.034711838,-0.016865015,-0.030112982,-0.018193014,-0.017976802,0.020226017,-0.15815291,-0.15102416,-0.037568472,0.057518907,-0.020432983,-0.07387473,-0.03515888,-0.14371923,-0.06691417,-0.010036286,0.0031559276,-0.101177394,-0.038304947,-0.048944168,-0.025615957,-0.1832119,-0.11634347,-0.028114416,-0.037960082,0.048028983,-0.04000453,-0.07172646,0.015633348,-0.047508046,-0.065476514,-0.014028584,-0.03573881,-0.030823734,-0.0068339314,-0.07432082,-0.03869172,-0.035603046,-0.07877256,-0.027226284,-0.019487657,-0.23626736,-0.16234374,-0.02506848,-0.030609235,-0.029351398,0.07030818,-0.07150388,-0.052606985,0.07273264,-0.13520713,-0.02499967,-0.07212557,0.03552286,0.06587729,-0.11701158,-0.014448183,-0.11063674,0.013489044,-0.12337807,-0.05474253,0.022026867,-0.09140578,-0.027171817,-0.19134527,0.010880562,-0.055661406,-0.0072836876,-0.20107743,-0.07518637,-0.039425828,-0.03000613,0.0318494,0.02092199,-0.09400122,-0.12692738,0.019078866,0.0457654,-0.10492237,-0.08286969,-0.034653433,-0.080773406,-0.02629451,-0.035190724,-0.012527921,-0.028069079,-0.1558842,0.052008867,-0.033393018,-0.0064100428,-0.19739673,-0.06156455,-0.15012419,-0.050287507,-0.033415757,-0.061100625,-0.055539668,-0.13885637,-0.031036116,-0.08635296,-0.008900073,-0.053316794,0.039401308,-0.054761946,-0.057497237,-0.06676708,-0.06255011,0.059450097,-0.14914611,-0.056529485,-0.029998206,-0.013157316,-0.06366694,-0.03166236,0.005907389,-0.10320669,-0.08396822,0.0070561394,0.05617263,-0.010422931,-0.07782757,-0.10576573,-0.06536202,-0.12584874,-0.13061257,-0.11873686,-0.2248483,-0.22445013,-0.071296975,-0.069783166,-0.0030278154,-0.0974403,-0.091442496,-0.1546624,-0.09624432,-0.06577809,-0.17124821,-0.14199379,-0.055723123,0.023209464,0.018787365,-0.102371134,-0.19031557,-0.12970935,-0.09198782,-0.08649878,-0.16619292,-0.16529429,-0.0400718,-0.10427061,-0.0126672,-0.003202234,-0.09555608,-0.16143766,-0.09444224,-0.08806136,-0.04317165,-0.036761634,-0.08029716,-0.019430276,-0.007986734,-0.058111005,-0.063504025,-0.007376025,-0.044412054,0.038708776,-0.040306784,0.018862493,-0.07875839,0.0026185745,-0.029501762,-0.042108342,-0.049931906,-0.02293177,-0.021590117,-0.08090365,0.037972506,0.01956921,0.019785995,-0.022767253,-0.016984023,-0.050129876,-0.069042414,-0.0012423345,-0.042852663,-0.0691791,-0.020058367,0.040604316,-0.0129108075,-0.068446964,-0.04428287,-0.04032801,0.0017941053,-0.060858913,0.010277802,0.0032964647,-0.0076830518,-0.0016863495,0.021415502,-0.07805507,0.05105935,0.0056349505,0.043750465,-0.016247518,-0.05919685,-0.026304998,-0.02983807,-0.029610131,-0.06645095,-0.09998805,0.034530614,-0.064709395,-0.08804119,0.014507489,-0.018916491,-0.079747096,-0.02380805,0.002596319,0.026424192,-0.0158788,-0.14899598,-0.054688588,-0.0045794323,0.029394858,-0.07279249,-0.07908222,-0.11801571,-0.09124125,-0.08441134,0.007111406,-0.026250493,-0.047305457,0.05138487,-0.09409326,-0.092227414,-0.005645218,0.02960917,-0.042361915,-0.08191469,-0.047868706,-0.046559766,-0.04008425,0.034889914,-0.07186863,-0.09450744,-0.06273455,-0.052712843,-0.041876994,-0.008751767,0.013869574,0.046579145,-0.089059606,-0.06700314,-0.006903453,0.017761342,0.018192165,-0.0020930534,-0.041773893,0.03203871,0.005747563,0.0072635226,0.033095703,-0.09893124,-0.059964046,-0.055610396,-0.008618947,-0.03189169,-0.023419935,-0.04567551,-0.11364043,-0.074785635,0.03301522,0.014135458,-0.062368393,-0.039977156,-0.010255478,-0.07130107,-0.1253195,-0.046105955,-0.061487705,-0.03196755,-0.01116856,0.0019221881,-0.057839297,-0.015629338,-0.06911112,-0.026131812,0.021310002,-0.0066674757,0.026851825,-0.03355228,-0.08332887,-0.049609676,0.018823033,-0.08911851,0.00767216,0.012989288,-0.13210589,-0.09324118,-0.077351704,-0.063663855,0.010286618,0.0020227004,0.0019577276,-0.012402652,-0.01939391,0.030836489,-0.035961285,-0.027440246,0.032353204,0.038703807,-0.0020965147,-0.056162976,4.933568e-05,-0.062137328,-0.006676059,0.0033222972,-0.061333753,-0.0850963,0.011620482,-0.08478357,0.045357093,-0.06550664,-0.043592744,-0.10116622,-0.054311197,-0.076711416,-0.03203827,-0.03650383,-0.017591976,-0.021313287,-0.11810419,0.0076718703,-0.016232807,0.0122503955,-0.069239296,0.04019543,-0.06785311,-0.008394811,0.009254698,-0.016664036,0.001761012,-0.07463217,0.057339832,0.043959685,0.014814304,-0.09083676,-0.06673093,-0.0055403356,0.011239436,-0.020627424,-0.019134969,-0.039539482,-0.04976975,-0.04407153,-0.0052616787,-0.01149505,-0.052532107,-0.005044015,-0.022423385,0.008214733,-0.031122684,-0.07441616,0.055124804,-0.12983212,-0.09276827,-0.040038988,-0.028665446,-0.07754156,0.02456192,-0.11002773,-0.06467016,-0.05965624,0.0016499837,0.042376414,0.029469375,-0.027103432,-0.016648468,-0.032169793,-0.049450636,-0.074413925,-0.036514714,-0.100017674,-0.04356513,-0.008371213,-0.05349814,-0.084766775,-0.021674067,-0.023032166,-0.11564423,-0.088590175,0.033411834,0.011424575,-0.0433769,-0.016707916,0.00081257103,0.01044713,0.023237038,-0.07079077,-0.050806798,-0.0026959544,-0.010591108,-0.0720976,-0.017072283,-0.012634743,-0.110973105,0.007522188,-0.042537287,-0.09033485,-0.12999171,-0.053756505,0.063434936,0.003070035,-0.052398667,-0.041932,0.055834472,-0.039497405,-0.040355816,-0.02363896,0.013839204,-0.019089695,-0.016456407,-0.012492398,-0.05367288,0.0051784404,-0.058937438,0.0181904,0.041317113,0.05791296,-0.03965804,0.03238085,-0.046337776,-0.035433695,-0.0061618052,0.030807974,0.037975132,0.019350145,0.009633572,0.008401426,0.041731965,0.009299686,-0.031810522,0.016306262,0.020455614,0.001712081,-0.055644922,-0.021425419,0.017991817,-0.005655516,0.030677605,-0.011991414,-0.06659536,-0.053770848,0.059498683,-0.02143551,-0.003275003,-0.015118676,0.028688021,-0.022050112,0.056799628,0.0028177835,-0.0026214803,0.027587518,0.028421488,-0.030009918,-0.032221794,0.0102008,-0.058387868,-0.03957811,0.034077376,0.035128787,0.06048672,0.04073941,-0.026002612,0.037976198,-0.066993825,-0.05880241,0.008321074,-0.017690348,0.0131187495,-0.0035450903,0.024302028,0.03399711,-0.048728473,0.01861436,0.007552995,-0.051661998,-0.007322203,0.054898515,-0.02845674,0.04499993,0.05652324,0.047662675,-0.050966106,-0.053945147,0.048492424,0.022524446,0.058686055,-0.015002772,0.040434867,-0.033907954,0.011752707,-0.0028246902,-0.05208282,-0.023506608,-0.03005196,0.049548954,-0.04972827,0.05181276,-0.042406417,0.018805087,-0.03723112,-0.016248442,0.040210076,0.04458505,-0.054381672,0.03420897,-0.05247593,-0.08244233,-0.029494673,0.003156033,0.03936756,0.039969157,0.057367194,-0.05772315,0.041452404,-0.057961307,0.032388173,0.0022014468,-0.026003223,0.018963989,-0.04934985,0.00712345,-0.020208709,0.00456809,-0.051746003,0.0022111658,-0.015574262,-0.026821624,0.02999825,0.007575028,-0.028131746,-0.0007713683,0.012768108,-0.026251508,0.03562013,-0.05973009,0.04436418,-0.01664139,-0.011565963,0.022956513,-0.023009928,-0.018303975,-0.038116597,-0.041708924,-0.00051387056,-0.06065989,0.025116265,-0.041121565,0.03740719,-0.011307603,0.05091045,-0.03281603,0.024538482,0.011171197,0.052463226,-0.024979867,-0.04817635,-0.0574191,-0.046059795,0.026854543,-0.0050396286,0.03848978,0.032302834,-0.049911834,0.03272777,-0.032236982,0.0630994,-0.00045855105,-0.04569178,-0.03828829,0.04631468,0.03582787,0.046408713,0.031659056,0.059039265,-0.0025030826,-0.05447968,-0.0027055112,-0.055594698,0.037649423,-0.0040036677,-0.05007732,0.008125765,-0.021190573,0.0031327568,-0.028886776,0.060126446,0.01390291,0.0037588892,-0.0434376,-0.060757384,-0.038326655,0.05112446,-0.009488921,0.052897103,-0.045949295,0.017043699,-0.024242597,0.019587934,-0.03852439,0.056269377,0.010718212,0.0042903693,-0.015824098,-0.02159559,-0.02897641,0.016799886,-0.033023156,-0.0250112,-0.003805356,-0.017077317,-0.02132916,-0.0041920017,-0.021772709,-0.047684472,0.007547088,-0.03781469,0.0011589024,-0.020108135,0.005099015,0.056439444,-0.010328079,0.042415388,9.626587e-05,0.032946445,-0.05526276,-0.052233882,-0.05145069,-0.05829507,-0.0474248,0.053596936,-0.069258496,-0.042571947,-0.044550717,-0.05233766,-0.023530144,0.023470486,-0.040298358,0.016322961,0.011012072,0.046385422,-0.025377259,0.006470225,-0.0804805,0.030843463,-0.013899151,-0.058851145,-0.002906538,0.007207881,0.02641137,-0.026567375,0.045548875,0.022515358,0.01805577,0.015074996,-0.021495234,-0.054782275,-0.035350457,-0.06527131,-0.06473615,-0.04138925,-0.060621798,-0.039888844,-0.019207887,-0.048245467,0.0052734315,0.032617174,0.037551668,0.033549316,0.033914097,0.03416685,-0.076360494,-0.038084537,0.010056859,0.021037593,-0.017529093,-0.05952803,-0.0510418,-0.059317768,0.011508951,-0.022150204,0.046888396,0.026140843,-0.033236235,0.056495722,-0.034963958,0.03971949,-0.07711308,-6.117536e-05,0.04099734,0.05441412,0.021632463,0.016175931,-0.055191457,-0.0093380455,-0.012903348,0.041424662,0.029418327,0.024160763,-0.0105457865,-0.0428458,-0.04369147,0.015778316,-0.008149559,-0.06348114,0.0525092,-0.029363193,-0.024432246,-0.046223268,0.003478068,0.0067778286,-0.011032062,-0.049539283,-0.042921543,-0.05005139,0.033495426,-0.07194344,-0.028330363,-0.0072322777,-0.028729977,0.03767,-0.013609193,0.019369323,0.04670976,0.018427223,0.01109191,-0.066669635,-0.07500291,0.04489183,-0.057939224,-0.011173616,0.022693986,0.036220443,0.038535506,-0.011583942,0.0029908079,0.049702726,-0.030863047,-0.054686695,-0.0014912942,-0.064367875,0.00910791,-0.04636316,0.04546255,0.03538719,-0.062950835,0.0349906,0.031005498,0.00210523,0.023428347,-0.028412256,-0.006127502,-0.044210166,-0.018960278,-0.024801902,0.0072204247,0.009472804,-0.06040684,0.009573976,0.038896747,-0.0410557,0.0014186511,0.04486551,0.037571147,-0.043395817,0.019707005,0.019381225,0.035750054,0.027502764,-0.00016588846,-0.040531784,-0.030151084,0.037426345,-0.036725722,0.0048554465,0.042396612,-0.028112903,-0.050248675,-0.002159148,-0.07372205,0.035344973,-0.070180655,-0.04345209,0.024258178,-0.033528015,-0.042371392,-0.018960662,-0.009150413,0.009225149,0.017104212,0.017322542,-0.0042038197,0.017170355,-0.050648794,0.003122019,0.034291163,0.048423402,-0.039722234,-0.005433115,-0.056869943,-0.053268783,-0.04980026,0.018644247,0.030503195,-0.05006423,0.031156989,0.04689849,0.02233481,0.0030984622,-0.009625252,-0.022216221,-0.04316014,0.0070614377,-0.03330907,-0.018222056,-0.031834923,0.004337007,-0.045296554,0.029387984,-0.046514437,0.03409466,-0.019681493,0.054839846,-0.044924773,-0.019248176,-0.045271695,0.03241791,-0.02120761,0.052355036,-0.012582339,-0.048265405,-0.037949763,-0.06257743,-0.046340156,-0.05247099,-0.041721724,-0.028075084,-0.0047762487,-0.04287079,-0.07139653,-0.014977403,0.020881921,0.014135718,-0.041615136,-0.0040465426,-0.035924844,-0.02640693,-0.01781978,-0.036057115,-0.061479874,0.027815625,-0.0036113476,0.015278218,0.035217643,-0.023119984,-0.041187707,-0.03544974,-0.032212183,0.0422849,0.041781873,0.0459548,0.057747696,0.04703684,-0.02552572,0.04370422,-0.068109594,-0.055477843,-0.050287906,-0.050770354,-0.06519604,-0.050559826,-0.04456503,-0.024165533,0.040133435,-0.02198007,-0.03157159,-0.006726901,-0.035928607,-0.010899911,0.013925947,0.0011648287,-0.056446403,-0.046002835,0.009740253,0.020859044,-0.06351584,0.060162574,-0.012356359,0.028068544,0.014529991,0.024607547,0.018248003,-0.06836192,-0.038231358,-0.035380863,0.056754135,-0.027253848,0.03229882,-0.04129298,0.023030814,0.025577493,-0.017147869,-0.032619677,-0.06831536,0.012985205,0.042243235,-0.013507301,0.005510954,-0.05550062,-0.052059356,0.012061862,-0.15844265,-0.15856865,0.6829412,-0.7117343,-0.7569616,-0.0005026035,-0.47782898,0.14962745,-0.47142583,-0.037418187,-0.030436492,0.4064898,0.54059625,-1.5033826,0.49811178,-0.25877666,0.04276239,-0.41236395,0.10012549,-0.7509337,-0.11997429,0.09437594,0.35868424,-0.34709132,0.012158716,0.032750696,-0.3215596,-0.009136382,0.029489651,0.008200787,0.44925237,0.21216518,0.66944,-0.00053671654,-0.06062901,0.11765125,0.39087054,-0.2670021,-1.4236124,-0.38276142,-0.042130418,-1.0870281,-0.83400154,0.42701888,-0.24473792,-0.16440225,0.7081301,-0.26272073,-0.13073355,-0.075114995,0.7746814,-0.51062673,0.40090162,0.04349928,0.08754958,0.19671567,0.268488,-0.3756764,-0.28993583,-0.2603243,0.043683037,0.71195924,0.1852161,-0.075611144,-1.0240632,-0.35149813,-0.5489756,0.18520415,-0.7202214,-0.07310514,-0.42729744,0.57762754,0.47245735,0.83863425,-0.1426968,0.029307477,-0.219683,0.75504166,0.0071348664,-0.041147225,0.20475301,0.09764263,-0.1846928,1.1850567,-0.10190945,-0.4141748,-0.75491536,0.050222438,1.006939,-0.87423074,-1.0983378,-0.24350823,-0.85830736,-0.76288974,0.41925275,-0.18798943,0.54203534,-1.3822024,-0.17273627,0.11761662,-0.1628172,-0.33018154,0.48822963,-0.26633894,0.14588296,0.19939879,-0.21996829,-0.0021338118,0.20482622,0.019019552,-0.51626456,0.08873117,0.026380137,-0.013088072,-1.1899221,0.415227,0.112361126,0.17243287,0.0088576665,-1.0931747,0.4219342,-0.25197226,-0.16426498,-0.5040338,-0.12075873,0.5017514,0.042196162,-0.43955854,-0.07651624,-0.21853033,0.40448666,-0.54850113,-0.44397563,-0.022796087,0.04658213,-0.07643768,0.21875194,-0.14219597,-0.14188746,-0.5251553,-0.48535883,0.04733421,0.30071008,0.34511673,0.064689115,-0.07956227,-0.5576493,0.32299644,-0.00014194875,-0.8118263,0.0069123004,-0.027156096,0.43319237,0.37159798,1.4839227,-0.36964825,0.39404875,-1.316813,-0.00086019153,0.39928845,0.5307071,0.3472949,-0.116921686,-1.5029864,-0.2491355,0.7271437,-0.48465464,-0.048896108,-0.9153013,-0.4182257,-0.1970129,0.16701281,-0.24771485,-0.036390245,0.5968431,0.17458014,-1.4904926,-0.14866665,0.56101924,-0.5612556,-0.6119512,-0.023969796,-0.5066499,-0.9173993,-0.12643895,-0.71034807,-0.056915864,-0.17256185,0.4124083,-0.0057689575,-0.092531435,0.0040135696,-0.82653296,0.22050537,-1.6031716,0.7324716,-0.99434626,-0.03865134,0.18576033,0.19098097,-0.30343527,-0.53413415,-0.76276946,-0.31983155,-0.681278,-0.26558042,0.03152705,-0.12597468,0.118422404,0.63937366,0.12959626,0.0031251523,-0.027196571,0.111412406,0.16213804,0.11689292,-0.028549336,-0.30542588,-1.2464164,-0.15690345,0.4799704,-0.53440154,-0.42160022,-0.70541674,-0.23316202,-0.54489774,0.20580725,0.57509947,-2.1895604,-2.4241238,-0.5101027,0.2496947,0.12811768,0.14958403,-2.3324513,-0.07331745,0.2610879,0.11380306,-0.44982198,0.12509404,-0.13412526,0.026830008,-0.37399173,-1.0325521,-0.3377263,0.7631491,-0.013507231,1.0155548,-0.13453716,-2.6782026,0.04534982,-0.35376066,-0.32045323,-0.104340516,0.35229206,-0.5475302,-0.05907824,0.019808426,-0.004268756,0.03930828,-0.04180298,0.03841076,-0.054866135,-0.025073022,0.011675693,-0.00032885524,-0.029474601,-0.016462483,0.020028532,-0.0058189407,0.05037753,0.008937154,-0.036087997,-0.053692386,-0.0738235,-0.00043334684,-0.058322914,-0.049269237,0.03603439,-0.012897869,0.02086077,-0.06660265,0.026744734,-0.0218403,-0.02795048,-0.041798413,-0.03760854,-0.06722149,-0.022007668,0.030753035,-0.046462677,-0.049620736,-0.027043995,-0.039603572,-0.01947802,-0.021826677,0.03340684,-0.026447035,-0.019745573,-0.023079382,0.010325542,-0.010875391,-0.031604998,0.014324313,0.02772446,-0.052639797,-0.028359454,-0.04486827,0.0068810126,-0.06246099,-0.008642462,-0.027994867,-0.020361435,-0.023115225,0.014213057,0.0057740817,-0.016993165,0.029338688,-0.02821318,-0.016838688,-0.00019576398,0.03375601,0.029919166,-0.035006203,-0.04787905,-0.029475316,0.025140185,0.03242497,-0.018252635,-0.07238819,-0.068626985,0.04160551,-0.0047836322,-0.09606123,0.023379758,0.0005511598,-0.06376417,0.039590925,-0.022493854,-0.043917496,-0.039297752,0.014368057,-0.07695797,-0.049966753,-0.041454386,-0.014640855,0.041043185,-0.047335006,-0.00071133615,0.010379871,0.0437254,-0.011164606,-0.007760144,-0.008776568,0.040220205,-0.051984593,-0.054153666,-0.046483457,-0.050469935,0.036952395,-0.024813637,-0.071334794,-0.029343445,0.022547375,-0.048042625,-0.000982067,0.04693027,0.0552011,-0.04447717,0.014547842,-0.00623879,-0.07765084,-0.060867973,-0.0020577214,-0.027635718,0.05644898,0.060715884,-0.05508162,-0.031422917,-0.02775034,0.017038144,0.014357417,0.021959681,0.035571788,0.03893175,-0.047556385,-0.05921163,0.022867741,-0.061767764,0.029691271,0.022774968,0.031287014,-0.026029967,0.038894594,0.030094195,-0.05362583,-0.050248995,0.05019106,0.0019807424,0.019630026,0.01903658,0.019624434,-0.037538245,-0.06263855,0.011891649,-0.05982548,0.001937105,0.014962908,-0.08410661,0.034626517,-0.06863639,-0.02612987,-0.01969901,-0.036019076,-0.010078007,-0.021250784,0.010087566,-0.0040493025,0.030014541,-0.023212101,-0.011718269,0.016656883,-0.06057705,-0.05282332,-0.036917925,-0.042401165,-0.04759311,-0.0007336342,0.05123937,-0.018304069,0.02035822,-0.06836675,-0.026239097,-0.053021193,-0.060017064,0.019310638,-0.031556994,0.042326268,-0.021569777,-0.053159926,-0.07508052,-0.0047340086,-0.009589367,0.010588599,-0.014208099,-0.018737325,0.037075996,-0.043409772,-0.06842281,-0.044276584,-0.0053341836,-0.025644656,0.06352335,-0.018670447,0.010452531,0.03427416,0.011210351,-0.03365787,-0.050970733,-0.013536988,0.03256558,-0.009358391,-0.030915225,0.026832543,0.036568575,-0.013616791,-0.076202884,-0.050500385,-0.01986947,0.037459172,0.024690965,0.012434371,-0.04502019,0.017577082,0.020256389,-0.04794398,0.03668081,-0.020134065,-0.06832788,-0.00077444257,-0.031144742,0.04106962,-0.074867904,-0.04182671,0.032262694,-0.024335815,0.01789676,0.0043389825,0.040942714,-0.052935913,0.017736379,-0.0042329,0.007840427,0.03282662,0.0129879955,-0.001395324,0.0826085,0.013111247,0.03463778,-0.0072010765,-0.04262524,0.012875007,0.044735447,0.029746955,0.025973335,0.03841178,0.03345518,0.011258015,-0.064902544,-0.05114292,0.0341275,0.029030442,0.022994876,-0.00015128602,0.04930014,-0.10582915,-0.08794544,-0.042403214,-0.14807203,-0.023981486,0.0010359664,0.012248922,0.035522446,0.010393253,0.03407871,-0.071548656,-0.04523466,-0.059568748,-0.14678004,-0.12822913,-0.10251798,-0.12437478,-0.12315865,-0.09321496,0.09516598,-0.02470607,-0.050267085,0.004874666,-0.07724385,-0.03220716,0.012146044,-0.048911497,0.031202441,-0.09001367,-0.06399238,-0.046529934,0.06191607,-0.15172769,-0.025817,-0.06122241,-0.097776935,0.00011895444,-0.020796841,0.038039736,-0.08649385,-0.011925794,-0.076242775,-0.06060694,-0.02147287,0.052114245,-0.045367457,-0.0055826018,0.113527104,-0.11285716,-0.021353621,-0.061001696,-0.005554679,-0.09798214,-0.01219912,-0.114337474,-0.02446786,0.030757707,-0.022145629,-0.06789301,-0.07430023,0.044742096,-0.15264246,-0.056554567,-0.08997609,-0.034471463,-0.038689245,-0.051527992,0.031813256,-0.07822077,-0.1457144,-0.1315637,-0.13633125,-0.063203916,0.07922524,0.05388824,-0.10254858,0.012846805,0.08925698,-0.020190291,0.014607709,0.0027516466,-0.07585332,0.006236905,-0.08419277,-0.025156442,-0.07186802,0.024803247,0.002295332,-0.060945973,0.01404373,-0.16279057,-0.08436211,-0.050176445,0.018873923,-0.10125806,-0.15845856,-0.012190171,-0.09183489,-0.07456595,-0.030622713,-0.109001786,-0.00911204,0.103969276,0.007934006,-0.04112404,-0.097822756,-0.11859994,-0.05657112,0.030646015,0.040398844,-0.017547164,-0.005083721,-0.102693945,-0.15995017,0.019132357,-0.012767954,-0.037349537,-0.028529707,-0.07213913,-0.06467241,-0.11424529,-0.1797756,0.008659789,-0.07896066,0.068836614,-0.09057593,-0.048152298,0.0033131489,0.006040698,-0.08597239,-0.07521665,0.07571838,-0.015127022,-0.018325746,0.02407556,0.004258087,0.014537068,-0.12587497,0.037192464,-0.0072718924,-0.036016136,-0.09304077,0.07090987,0.034536667,-0.005507699,-0.018355507,0.022607883,0.023902636,-0.007932125,-0.04385356,-0.10122065,0.025670469,0.035339743,0.04076664,-0.008302629,0.02512456,0.077666804,0.081566796,-0.08262679,0.0022656387,-0.108592525,0.051369354,0.01957773,-0.07089543,-0.03705193,-0.110014394,-0.06697426,-0.12070194,0.015644524,-0.06022889,0.02255563,-0.0041624783,-0.073951766,-0.01220537,-0.002081532,-0.010587804,-0.013770407,0.05123931,-0.031455673,0.028965846,-0.019264799,0.06097336,-0.04935167,-0.0022774956,-0.0015790511,-0.106788576,0.022899868,-0.014689906,-0.036313735,-0.04331951,-0.12805147,-0.14335433,-0.07040189,0.012619853,0.0020077187,-0.07452287,0.0024152112,-0.021832742,-0.060912848,-0.11369495,0.011013342,0.009049227,-0.009754793,0.04452576,0.026185278,-0.16548511,0.026792802,-0.14175335,0.06977518,0.04548829,-0.022043817,0.033230424,-0.035934232,0.05166074,-0.22726971,-0.07295853,-0.006258688,-0.043766048,-0.10416381,0.019426713,0.039211467,-0.15867424,-0.13132064,-0.08691491,-0.041289307,-0.19839358,-0.15569335,-0.010775702,0.038237132,-0.085517,-0.03933379,-0.1381068,-0.068955004,-0.0020598066,0.011250839,-0.04759395,-0.15118134,0.014524728,0.03459076,0.04152917,-0.061540917,-0.05272308,-0.07344931,-0.08916323,0.0040949155,-0.16667044,-0.12696734,-0.023350975,-0.08476658,-0.03531447,-0.012926541,0.061720952,-0.121446565,-0.034160227,0.022449967,0.017565582,-0.0012367358,-0.06604736,-0.010528404,-0.067848,-0.010958627,0.051639028,0.003807746,-0.061184175,-0.03322972,0.0112621505,0.030216511,-0.014085605,0.020260382,-0.0034019859,0.030280069,0.05188509,0.028671172,-0.055912007,-0.051679447,-0.047354177,0.026987962,-0.02573232,-0.03270141,-0.025527626,0.023207314,-0.031473026,0.0069292374,-0.06425254,0.01882776,-0.055016607,-0.052651875,0.020714741,-0.062945,0.015277929,0.016338646,0.055040307,0.04697379,0.0034537897,0.045544975,0.012445623,0.04550768,0.050953977,-0.026760243,0.029542698,0.026635814,-0.027020216,0.022727102,-0.053609,0.04256536,-0.07254787,-0.016255029,0.0035850126,0.013624188,-0.064869255,0.024628228,-0.05047566,0.030378073,0.05869016,-0.06248221,-0.015641332,0.050937295,-0.02448351,0.04186569,-0.029219056,-0.030541446,-0.0052324245,-0.019072253,-0.029384175,0.031782806,0.010062568,-0.015571961,0.005632478,-0.002290969,0.017989896,-0.05937049,-0.019813627,-0.0024584504,0.04869292,0.00587981,0.012301043,0.05393301,-0.0046339915,-0.054926686,-0.037547447,0.021618813,-0.028558694,0.014522469,-0.05125589,-0.0287616,0.006834786,0.004174535,-0.0102841575,-0.03911732,0.0210762,0.0041138236,-0.0196861,0.014950819,-0.02526949,0.053565852,-0.049123794,-0.01977228,-0.019204125,-0.011712305,0.040294424,-0.0553357,0.023174338,-0.01649094,-0.049911156,0.014572665,0.014298987,0.051750943,0.045342997,-0.001529099,-0.051854156,-0.05346124,0.05911482,0.046370924,0.02237561,0.04334438,0.00968248,-0.083373606,-0.04258904,0.0489835,-0.0098161455,0.024700541,-0.040007003,0.02326465,0.015501033,0.027110465,0.035856277,-0.05685228,-0.01535698,0.03005607,-0.026470605,0.054647118,0.028913165,0.008198684,-0.008168145,-0.04690072,-0.05238634,-0.050283432,-0.065172255,0.00056592305,-0.057213113,-0.011703143,0.0055959523,-0.018182673,0.0036368263,-0.035317123,-0.037624553,0.045515038,0.02706813,-0.022444848,-0.049350098,-0.052607626,0.059753448,0.028758977,-0.056600817,-0.043597385,-0.044296235,0.045584023,-0.050829377,-0.061153032,-0.027255848,-0.030608848,0.010661703,-0.08699748,-0.007881977,0.0093214195,-0.058524914,-0.027236335,-0.045030527,0.01130729,0.05921188,-0.05507742,-0.030741729,-0.03889361,-0.059421748,0.023116156,0.045800995,0.013681475,-0.042497158,-0.04366483,-0.008483991,0.040010512,-0.013826869,0.0018641725,0.029452275,-0.05006688,-0.025081322,-0.040302005,-0.016202863,0.006749356,-0.054764442,0.022529688,-0.021952461,-0.035618704,-0.059151858,-0.0009966751,0.01894195,0.05694019,-0.017418563,0.022854444,0.008196004,-0.057000592,-0.0072513935,0.046955325,0.00060099724,-0.029839415,-0.058889896,-0.0039241835,-0.006989591,0.022991907,0.05984854,-0.057795726,0.0010644626,-0.015901845,0.01882242,0.03318064,-0.051800687,0.040897965,-0.029692575,0.025542801,0.024047188,0.027539633,-0.03942944,-0.004575666,0.017240368,-0.04289595,-0.02443189,-0.042811,-0.0026822297,-0.020065097,-0.013058405,0.017165154,-0.018366937,0.035063095,0.038371243,-0.02586013,-0.05301764,-0.05289591,-0.05483874,-0.046468675,0.024503363,0.053440563,0.029415984,-0.0013416922,-0.05365513,-0.045148976,0.026670251,0.017575085,-0.048224434,-0.02535249,-0.42723322,-0.32967535,-0.34826005,0.45878354,0.00010278495,-1.4072561,1.0258117,0.52461195,-0.548831,1.1143851,0.031894658,1.249794,-0.14407824,1.1515188,0.4989791,0.45230842,-1.3099561,0.0013041887,0.30235034,-0.13284466,0.23595777,0.05291065,0.36489478,0.5491468,0.04923518,-0.36384615,-0.06257965,0.017038096,1.4721239,-0.23837072,0.50653654,-0.30228028,-0.23405746,-0.09174082,-0.024070244,-0.20546296,-0.0037281374,0.023820814,-0.41185248,-0.6181141,-0.01931408,-0.6157944,-0.8992034,0.22092624,0.49360025,0.08945726,0.20989794,0.33890367,0.18387684,0.37042034,0.8939291,-1.4984124,-1.2545285,-0.0074712955,0.012951104,0.2863735,-0.41416568,-0.042289168,-0.08289806,-0.26593226,0.03463737,-0.80022025,0.411291,0.081156164,-0.15600327,-0.59299004,-0.30973452,0.23823196,-1.5756876,-0.16973002,-1.8883421,-0.8419479,-0.2619871,0.09548119,-0.10892774,0.047894023,0.6223724,0.6146365,-0.09897367,-0.35452998,0.74098575,-0.0016311884,-0.22470605,0.34569383,0.3518215,-0.9236889,-0.36745083,0.10171605,-2.7657633,-1.3130963,-1.3477107,-0.20983356,0.55327666,0.6223613,-0.10890998,0.0407852,0.62490773,1.0663276,-0.9899962,0.013559946,-1.3228865,-1.0257387,0.037932627,0.037142664,1.0467505,0.4961964,-0.03435588,-0.00012909362,0.27344877,0.7289631,-0.07661043,-0.18322226,0.024862206,-0.012403207,-1.2680507,-0.11456476,0.22626658,0.03805743,-0.021045076,-0.08821392,-0.9382962,0.16637734,-0.2571433,0.1678578,0.6746118,1.1400628,-1.4177969,-0.32465822,-0.17198598,0.969012,1.7301561,-0.28580636,0.50216126,0.054560788,-0.20196381,-0.07603934,-0.09739125,-0.41877657,-0.103685535,0.6017549,-0.57941264,-0.062461823,-0.06929329,-0.75704765,0.2910296,-0.039687857,-0.7656841,-0.8633204,-0.02694084,0.7838502,-0.02078443,0.0416267,-2.2192779,-0.2731278,-1.142507,-2.5907166,-0.62654847,-0.63370204,1.3082683,0.7208582,1.2532206,0.38866645,0.14278561,-0.55911016,0.0513736,-0.10170562,-0.060381718,-0.03881362,0.5298083,-1.5703957,0.29414147,0.14745966,0.0079762405,-0.033883855,0.37460464,0.4978463,0.47705367,0.020604093,-0.46065176,0.45983374,0.21846259,0.124833174,-1.4387462,-0.84946525,0.155606,-0.5410332,-0.07605988,-0.16906404,-0.8852869,0.092076294,-0.095285,-1.4113226,1.1284724,0.3896296,0.6929462,0.88388574,0.072958775,0.77693856,-0.59116,0.44957042,-0.047884576,0.13242276,-0.18064284,0.20595266,-2.369885,-0.06587985,0.44641116,-0.17600903,1.1031541,0.7933678,0.37120664,-0.72027856,-0.053186398,0.32231182,-0.12535948,0.07400605,-0.30747718,-0.51284057,-0.7081002,-0.010739254,0.3714338,-0.49551433,-0.62979144,0.5545907,-0.49903283,-0.01413448,0.11650556,0.5126437,0.19880849,0.58044267,-0.11364694,1.025636,-0.4386811,1.0552672,-1.1025357,0.20427006,-0.11287819,0.10777317,1.199008,0.0847522,-1.339942,0.0392669,-0.56417537,0.2301684,-0.68007743,0.6916686,0.074404314,0.2078518,0.014974795,-1.5069282,0.03187398,-0.2692277,-0.08374749,0.016704245,0.81684923,-1.8540442,0.024610318,-0.059173226,-0.045496486,-0.053994514,-0.1468043,0.0348524,-0.018744115,0.013506515,-0.023884429,-0.0983299,-0.038707156,-0.046000555,0.0077712983,-0.025626238,-0.041801244,-0.07579516,-0.17860024,0.012411081,-0.0069123507,-0.00395284,-0.038657036,-0.04691086,0.039572485,-0.022873957,0.029507935,-0.033157542,-0.046501957,-0.062183276,-0.032362297,-0.037663735,-0.03481797,-0.036361605,-0.046465836,0.051625974,0.025236424,0.041194793,0.050635662,-0.06669618,0.01387725,-0.05123029,0.038243942,0.00038515567,-0.079106115,0.008474797,-0.08511174,0.031427056,-0.046989165,0.04884275,0.032915868,-0.0627553,-0.033955663,0.03132669,-0.16244733,-0.0305682,0.019166829,0.12087852,-0.0597087,-0.08005585,0.036318697,-0.063374266,-0.05567827,0.02353175,0.015404988,-0.014168322,0.019341283,-0.09073223,-0.07036809,-0.0578897,-0.026629753,0.034362532,-0.18101126,-0.051099524,-0.114014536,0.03584043,0.044348568,-0.021071024,-0.004362462,-0.09940292,0.020764295,-0.03830892,0.042078823,-0.029422339,-0.057607308,0.030613389,-0.025304846,-0.055570126,-0.0654701,-0.062222533,-0.18782642,-0.015769025,-0.043436803,-0.045109756,0.057890877,-0.11886704,-0.04381168,-0.022077806,-0.06765781,-0.09213849,0.020713001,-0.034369428,-0.025535334,-0.031582814,-0.12485391,-0.038670897,0.02799696,0.0048100664,0.022622567,0.02960667,-0.003011739,0.025110412,-0.066548556,0.011191057,0.041501794,0.03231126,-0.076875515,0.026985578,-0.046891518,0.058821194,-0.024880521,-0.030348934,-0.016499128,0.009658012,0.06695573,-0.03836976,-0.01859224,-0.0024294183,-0.0786777,-0.03488521,0.03822755,0.024190875,0.021692872,-0.06781709,-0.18746573,0.008239595,0.045551576,0.044998825,-0.013710305,-0.0024368162,-0.06255025,0.037251092,0.026235467,-0.048342615,-0.02106895,-0.05551102,-0.06496886,0.002299781,-0.06414424,-0.05596371,-0.052993,-0.028486248,-0.028978046,0.0077030123,-0.12385506,-0.028892882,0.011241717,-0.11340659,-0.0063176593,-0.0041237576,-0.01783317,-0.0039051876,-0.08288048,-0.13583517,-0.05533243,-0.061738152,0.01116631,-0.03784301,-0.014021921,0.038458444,-0.09628476,-0.10127149,-0.10831757,-0.024258278,0.05204235,0.060358718,-0.025348388,-0.027846877,-0.033401363,0.018608091,-0.13338551,-0.04562699,0.014596147,-0.028641772,0.005840212,-0.018725362,-0.06163945,0.015918612,0.050590314,-0.035459407,-0.07227357,-0.0085358005,-0.016612839,-0.13724864,-0.04905802,0.022513386,-0.22064218,0.014411224,-0.1535809,0.054035857,-0.035162106,-0.048489135,-0.02125898,-0.14193787,-0.006883774,-0.14527394,-0.05850079,-0.0045385985,0.056272514,-0.05444813,-0.016924016,-0.07295795,-0.008617314,-0.07065889,-0.038695965,0.006426098,4.3133026e-05,-0.002810375,-0.048607014,-0.037268437,0.022206746,0.0015072143,-0.052246153,0.042797755,0.009251118,-0.049796402,-0.07809453,-0.06318891,0.03446708,0.018330954,-0.14183292,-0.056394536,-0.008836318,-0.049502023,-0.0788003,-0.073592186,-0.0005630894,-0.007760071,-0.0367918,0.01042988,-0.14566275,0.02076061,0.041847892,-0.046340995,0.039183818,0.00931706,-0.019113317,0.02836915,0.049330395,0.030043483,-0.021120483,-0.052422076,-0.034388065,-0.05097826,0.008276768,0.041088704,0.00970179,-0.025410607,-0.06327744,-0.0148401745,-0.037086703,-0.058121674,-0.13530737,0.06701809,-0.016337335,-0.06485431,-0.047561683,-0.034036398,0.016221967,-0.0015090194,0.041388534,-0.020050364,0.0039001582,-0.052775875,-0.10494478,0.026210994,0.041856416,0.0037843164,0.0031137546,0.026851265,0.008619248,0.028562818,-0.061830677,-0.012121228,-0.05816956,-0.0072490526,0.0153114945,-0.059448868,-0.11962087,-0.014192745,-0.18269335,3.6921396e-05,-0.05924964,-0.033201285,-0.12252447,-0.01575078,0.020004284,0.013878503,-0.008352691,-0.08309689,-0.07184185,-5.048841e-05,-0.03457186,0.054160427,-0.00972272,0.0003559835,-0.040804807,0.03435687,-0.04551481,-0.13859531,-0.15048051,0.04889533,0.01809932,-0.08945161,-0.050511856,-0.06508753,0.046051167,-0.13611028,-0.05491446,0.039445356,-0.02506077,-0.056804787,-0.06962289,-0.05595818,0.0012305107,-0.014362705,-0.04380417,0.053108618,-0.13099349,-0.03141307,0.009725523,0.014586551,0.0052432427,0.0110032465,0.07571394,-0.037228443,0.021164898,-0.07252841,-0.024360381,-0.03854149,-0.04484068,-0.010559205,-0.07286385,-0.06475131,0.031131942,0.022392487,-0.0016173613,-0.1626111,-0.03217151,-0.031398006,0.048180245,-0.06558564,-0.028663024,-0.0024673739,-0.040866744,-0.064526826,-0.047204725,0.046946257,-0.03180138,0.001997992,0.008491827,-0.006303254,-0.017262872,0.046359062,-0.04569875,0.057041503,-0.07196212,-0.03314784,0.02333374,0.0026404862,0.038849697,-0.031838767,-0.08837573,-0.0197483,0.045517784,0.012802206,0.0408974,-0.003053388,0.00013073403,-0.09031181,0.05979185,-0.028816089,-0.034019977,-0.03516888,-0.03405416,-0.08304622,0.0155783575,-0.0222865,-0.0049091345,0.02023416,-0.03705863,-0.080993205,0.017770756,-0.032243416,-0.007365891,-0.014212636,-0.055351432,0.0020371077,-0.042142414,-0.046681844,0.030038543,-0.057975747,-0.019163635,0.046408612,0.020743202,-0.11026992,-0.054641508,0.02228975,0.012477098,-0.04167182,-0.018991362,-0.08631927,0.05225998,-0.025900088,-0.061449923,-0.11142787,-0.04052392,-0.036769032,-0.07350558,0.057228744,-0.035748895,0.009059023,0.028220277,-0.056004018,0.03971528,-0.008163402,-0.09572168,-0.10454336,-0.018252049,-0.032751404,0.01773275,0.03109063,-0.043486748,0.036448777,-0.0018976231,-0.017675985,-0.07643214,-0.052536543,0.083488256,0.025451979,0.059388943,-0.06272295,-0.011128934,-0.03310749,0.04563187,-0.007932352,0.0011838754,-0.02351467,-0.029239524,-0.024734914,-0.042240903,-0.0072334097,-0.18630502,-0.079781204,-0.040706497,0.021112565,-0.08122529,-0.020970449,-0.04058936,-0.10790311,-0.041071653,-0.17080276,-0.13883896,0.05033095,-0.0040361364,0.022744931,-0.041245706,-0.092989236,0.025544595,-0.061112896,-0.0038628466,0.047845848,-0.05649233,-0.021750689,0.04575921,-0.00772464,0.0263715,-0.05198749,-0.014236145,0.019046444,0.003231998,0.04656788,-0.05850541,0.02761751,-0.04159718,0.01720487,-0.09149316,-0.14573465,-0.059442237,0.038866058,-0.0681448,-0.06385159,0.012064433,0.03801096,-0.0040257745,-0.024812117,-0.030832449,-0.05912158,-0.056595467,-0.059264783,-0.020773828,-0.008350039,-0.04458525,-0.018294938,-0.03362315,0.033863336,-0.020074312,-0.033126503,-0.006941259,0.04153749,-0.0044959188,-0.024538618,-0.082819596,-0.17021324,-0.11482252,-0.09523684,0.04462366,-0.15118125,-0.15502845,-0.018648218,-0.15300715,-0.015798502,0.044722974,-0.08841589,-0.046324786,-0.015697695,0.091942996,0.022988189,0.085325226,-0.032292217,-0.12837744,-0.0033755293,-0.0062680114,0.06930888,-0.019844979,-0.029581081,0.082741335,-0.008604581,-0.008532793,0.022021854,-0.04249531,0.07904095,0.09199973,0.005014877,-0.073198065,-0.03180585,-0.19936669,-0.02282029,0.015095444,-0.1851258,-0.07480982,-0.21050426,-0.33748925,0.0314565,0.045732707,-0.027588079,-0.1781633,-0.09312345,-0.36322144,-0.031198233,0.09751615,-0.10087496,-0.07595004,0.034229558,0.08710559,-0.14693728,-0.2854643,-0.022324238,0.086556405,-0.18733326,0.048171975,-0.21662289,-0.07582115,-0.116803095,-0.0048916917,-0.06983836,-0.24788827,0.0089862,-0.16169727,0.03892866,-0.28575978,-0.036317654,0.13898763,0.046525672,-0.34607255,0.071030185,-0.01961152,-0.087693095,0.009754868,-0.025311671,0.17567104,-0.10315896,0.005793305,-0.048412494,0.051419314,-0.012915755,0.1833606,0.12521684,-0.070600785,-0.13978644,-0.100107774,0.011234494,-0.18346974,-0.04995004,0.05065986,-0.106400445,0.008188448,-0.088985115,-0.35665166,-0.050881006,0.052306548,-0.014742017,-0.059656136,-0.038811143,0.0037761703,0.0003440386,-0.3914615,-0.023328561,0.084364876,0.085817605,-0.09342075,0.101487115,-0.3221792,-0.09344867,-0.0058846464,0.07504526,0.056280144,-0.022243751,-0.11409115,-0.23561017,-0.21124336,0.023711735,0.004492291,0.2957722,-0.09289345,0.023658603,-0.08869589,-0.10014035,-0.2997346,-0.11040817,-0.08250868,-0.071807474,0.021863712,0.00558604,-0.12386328,-0.00088681956,-0.10952526,-0.05061467,-0.07262104,-0.056467883,-0.045535482,-0.14194825,-0.06497786,-0.09392989,0.064520136,-0.023344833,0.030723382,-0.180785,0.060309082,-0.03012396,0.05339299,-0.12521753,-0.03125511,0.035474557,0.05911392,-0.04182964,-0.26551723,-0.11290702,-0.21564256,-0.25971496,-0.018190391,-0.096643776,-0.0150233805,-0.037490338,-0.09244116,-0.06023632,0.12040739,-0.0261663,0.032243304,-0.20861603,-0.016801082,-0.030858949,0.36095518,-0.13213308,-0.06712459,-0.0030737966,-0.03783059,0.064751,0.09544495,-0.05778285,0.21966651,-0.033163004,-0.34709454,-0.0727188,0.020673428,0.0014385828,-0.061930694,-0.06807186,0.007339838,0.02708137,0.012982639,0.140309,-0.3016559,0.062824026,0.011507759,-0.4088974,0.21391973,-0.112278715,-0.010033817,-0.16994824,-0.26356763,-0.029145155,0.33867496,-0.09479846,-0.00082684733,-0.07274371,-0.006219261,-0.09985885,-0.03516344,-0.03623168,0.033037722,0.028769955,-0.28128588,-0.08986589,-0.11225854,-0.056473643,-0.036832683,-0.027405683,-0.043875042,0.0006343217,-0.13417454,-0.2944942,-0.12913658,-0.06728321,-0.04481538,0.030567564,0.111205034,-0.08262345,-0.19031334,-0.07563661,-0.06995262,-0.09450603,-0.34372026,-0.19249958,-0.06784408,-0.082711786,0.34377742,-0.23419252,-0.26652744,-0.03105929,0.057011962,0.03787064,0.08600213,-0.035944596,0.097453006,0.035760652,0.10187122,-0.0377637,-0.31727207,-0.08564992,0.09050076,-0.004838406,-0.0405863,-0.30536282,-0.02333749,2.8591228e-05,0.067200124,-0.021856321,0.031180996,-0.31975833,-0.028196793,0.000714647,-0.07310966,-0.13120499,-0.06340397,0.0097050425,-0.090969324,-0.028525157,-0.008935085,-0.042055905,-0.02068675,-0.044108383,0.05821583,-0.03635104,0.049988016,-0.079868376,-0.074593216,-0.038677815,-0.048811488,-0.03157305,-0.030733056,-0.02539241,-0.031859215,0.04736702,0.04605239,-0.04258097,-0.028366126,0.0027617197,-0.08194763,-0.024042968,0.0022766893,-0.08295714,-0.0134442095,-0.008716332,-0.014529038,0.02215625,0.04083117,-0.031029237,-0.05590641,-0.02192869,0.062889464,0.0064986655,-0.17255586,-0.07044332,-0.14572847,-0.07600327,0.012450063,-0.13048854,0.03916387,-0.10387813,-0.029448576,-0.06367463,-0.007206678,0.035350315,-0.009904028,-0.023052126,-0.01814639,-0.054679744,-0.029540695,0.013047792,0.013388273,-0.06174551,-0.017854657,0.029344216,-0.0056350236,-0.007861409,-0.07984494,-0.06573321,0.01157832,-0.04379686,-0.08898019,0.10324818,-0.14623997,-0.08462539,-0.058770802,-0.004438686,0.01234401,-0.008847546,0.037951335,-0.046227254,-0.07117143,0.02123556,0.008469105,0.04580865,-0.022041194,-0.0082173925,-0.017816681,-0.04778623,-0.024042785,-0.07433589,-0.0354496,-0.005553836,-0.036968283,-0.055229753,-0.04949701,-0.052011415,0.005445936,-0.08561534,0.036643073,0.01832766,-0.006889063,0.017432624,0.06506483,-0.030970335,0.03152024,-0.032948382,-0.08478655,-0.0036613946,0.0004414468,-0.10852614,0.002722004,0.02730513,0.027315512,0.05006305,-0.07898976,-0.060140297,0.014981426,-0.010099637,0.012331201,0.06281567,0.053714257,-0.02487112,0.032118507,-0.03574617,-0.10938868,-0.07879041,-0.045990974,-0.07839719,0.047974735,-0.0048164967,-0.035150222,-0.073193744,-0.031049605,0.053811006,-0.06051643,-0.049346592,-0.0014850483,0.0034031593,-0.08334009,-0.10172625,-0.08863224,-0.04762554,0.06149739,-0.04957479,-0.12177497,0.004697481,0.0044636405,0.039848763,-0.054836415,0.0034051929,-0.03765989,-0.0059909206,-0.114980265,0.018566016,0.00071979186,-0.04352372,-0.0009634907,0.0103639215,0.017528743,0.018045034,-0.10099292,-0.106561646,0.017062157,-0.03961387,-0.09275493,0.034576423,-0.069881484,0.03767915,0.039573327,-0.045632444,-0.08392954,-0.038831286,-0.052467726,-0.03311409,0.046575163,-0.07804695,0.049271476,-0.029868023,0.030026212,-0.036221392,0.013558608,-0.07768698,-0.023036314,0.0065834774,-0.071462885,0.025031727,-0.056406185,-0.05710412,-0.034865834,0.01532639,0.02102827,-0.054208025,-0.09198673,-0.040508546,-0.06362595,-0.048648924,-0.08568156,-0.03910727,-0.0119863115,0.041631572,-0.013478909,-0.0566277,-0.111927055,-0.041885346,0.028246876,0.0049358094,-0.094800085,-0.07374401,0.012553975,0.00053796277,-0.12162775,-0.01064178,0.021244515,-0.04416876,-0.054079898,-0.009104108,-0.012448155,-0.028191864,-0.02500739,-0.009492358,-0.043225363,-0.059444606,-0.0063832216,-0.047700807,-0.1270154,-0.06467186,-0.07598395,-0.010456407,-0.029276244,-0.12923363,-0.05298653,0.0120112,0.03749354,-0.0017713372,-0.07046451,-0.031049047,-0.07179443,-0.039261315,-0.004896296,-0.11899994,0.052586164,0.02095888,-0.055799417,-0.06251992,-0.055101305,-0.007112655,-0.108438194,-0.036249302,-0.14107972,-0.04238677,-0.003939855,-0.036946155,0.051928867,0.020692749,0.02098567,-0.025493465,0.012419775,-0.02990115,0.017630816,0.012436384,0.026705716,-0.038515795,0.03128082,-0.06294663,0.026333105,0.010667618,-0.051260255,-0.06604852,-0.012037804,0.020743098,0.026128266,0.038808346,0.03473013,0.032254815,-0.060777936,0.029631337,-0.036486097,0.026563331,0.03514052,0.018607028,0.016049378,-0.01261914,-0.028296903,0.027348123,-0.036944278,-0.057459168,-0.04539316,0.03882958,-0.015970977,-0.020296142,-0.02362042,0.038521923,-0.0497823,-0.028106712,-0.028943516,-0.06631157,0.057068795,-0.0014458606,-0.01923976,-0.059811138,0.030782785,-0.010081535,-0.03456239,0.013147695,-0.05149225,-0.03708297,0.045226358,-0.0314321,0.010285206,0.04786388,0.04961577,-0.054963,0.0025122757,-0.0017589915,0.016655825,0.03337147,0.015549257,-0.0060713375,0.0362378,-0.04408993,-0.017217342,-0.04835461,0.02242846,-0.056011416,0.053314343,-0.04016413,0.0062712217,-0.02708064,-0.0022579744,0.031112567,0.041087598,0.009818607,0.00191169,-0.06311323,-0.015992798,0.034056805,-0.050962023,0.04160239,-0.045145907,-0.044625867,0.03544738,-0.012726475,0.011890503,0.046416588,0.01765423,-0.0019695694,-0.003792137,0.04615228,-0.045402117,-0.004018662,-0.013595162,-0.002545199,-0.025283713,-0.06732616,0.03984832,-0.06517264,0.01619903,-0.053700488,-0.046798162,-0.06086106,0.058371507,0.03800692,-0.04674137,0.047455184,-0.083173946,-0.056929715,0.05272734,0.051325172,-0.047986872,-0.044993136,-0.02166894,0.047758143,-0.033784084,0.02946553,0.019227944,0.032762393,0.03387823,-0.05818799,0.031177433,-0.015328921,-0.016583096,-0.035998974,-0.0764883,0.052125636,0.0022936529,0.019974582,-0.044504646,0.029688112,-0.011948158,-0.060442653,0.046670802,0.032554865,-0.04725773,-0.005895827,-0.06666036,-0.0024413993,-0.02760281,-0.036801517,-0.006328286,-0.10602234,-0.053861506,-0.05432971,0.0039347587,-0.03380385,-0.06022971,0.047714636,0.030013151,-0.061628662,-0.036246993,-0.0071117627,-0.030288998,-0.045751184,0.0053883935,-0.045599908,-0.014811218,-0.01353424,0.046097025,0.02725872,-0.037000068,-0.054636512,-0.06514603,-0.005597515,0.026770791,0.009996157,-0.069492966,-0.04983486,-0.027139992,0.059948593,-0.018884882,0.03869941,0.05086913,0.05769559,-0.048239365,0.047690406,-0.028041948,0.06137938,0.05005275,-0.012653928,0.0015886042,-0.016132738,0.026094776,-0.06310162,-0.05110336,-0.05467864,-0.026506744,0.047490805,0.039083794,-0.08039102,-0.031927213,0.02057527,0.07991651,0.032012045,-0.06568594,-0.035417765,-0.06468487,-0.019595593,-0.061717853,-0.07251494,-0.059064336,-0.06360546,-0.010015406,0.016509706,0.025837384,-0.058105826,-0.022089332,0.046072513,-0.009272188,-0.036028318,0.05873287,-0.025711987,-0.009989796,-0.04998485,0.046819206,-0.021129148,-0.00042133592,-0.0014787964,-0.044937026,-0.059021853,0.019608468,-0.04316771,-0.018727811,-0.07244241,0.03642659,-0.06065303,0.012824116,-0.04066235,-0.06382564,-0.06365885,-0.067573294,-0.013853002,-0.041570514,-0.056335382,0.03439997,0.05685375,0.03739199,-0.011328965,0.04986406,0.009818164,0.045690224,-0.037380934,-0.087280765,-0.042594872,-0.061884083,0.006884033,-0.06559573,-0.0662652,0.046219036,-0.028804407,-0.04985948,0.048277054,0.010066582,-0.08146836,0.037661187,-0.08951096,-0.24556494,-1.4600129,-0.07863136,-0.43261683,-1.5720294,0.088245526,-0.03210099,-0.09711386,-0.018343765,-0.16618186,-0.17191508,-0.691769,-0.6052883,-0.38190752,-0.6929741,0.07052055,0.06098472,0.7334689,-0.67090356,0.036693037,0.023111321,0.069978654,0.026414877,0.3958515,-0.16205737,-0.062352613,0.09252982,0.043915275,-0.86383516,-0.46798593,0.3703294,0.008119686,0.08075081,-0.6646577,0.58109355,0.55940926,-1.9679177,0.010414766,0.022462726,-0.8659723,-0.22568506,0.56586653,-0.4299227,0.014486381,-0.5490126,-0.25759757,-1.0292811,0.005373176,-0.093097076,0.48121142,0.50843203,0.037313722,-0.14754868,-1.1050686,-0.27273437,-0.40975243,-0.11547788,0.38074258,-0.01995995,-0.5927868,-0.5984284,-0.024012353,-0.37666166,-0.30847865,-1.4391263,-0.28701943,0.29030734,0.033486027,-0.62080306,0.060089197,0.18284732,-0.15941438,0.06865437,0.004403935,-0.20676453,-0.2322106,0.025615059,-0.65532386,-0.1117945,-0.031001681,0.08330725,0.3608221,-0.56589484,-0.6466864,-0.120900825,0.033601943,0.6523056,0.3155091,-0.21412623,-0.26803863,-0.006933824,-0.34223515,0.27728558,-0.05975323,-0.23819058,-0.5250492,-0.6811607,-0.039460085,-0.16617195,-0.08446695,0.20460778,0.023547675,-0.47609,0.06148691,-0.047769226,0.023575174,-0.4389318,-0.6930915,0.09507748,0.14588317,0.061762057,0.0046373094,-0.25732666,-0.9181836,-0.87005305,-0.078216776,-0.028907515,0.5212443,-0.48837042,0.18031633,0.23355128,-0.7798961,-1.5369098,-0.32181615,1.0763624,0.06326887,0.02531591,0.06671767,0.27068853,-0.09204623,0.3425996,-0.031727225,-0.09408709,0.044054452,-0.06071189,-0.20311111,-0.0032406715,-0.645989,-0.25461096,-0.033962555,-0.10842238,-0.9732727,0.3441105,0.11493201,0.18739352,-0.35287917,0.06085579,-0.06783361,-0.046581015,0.001091724,-0.3631451,0.40616918,-0.27386487,-0.006041567,-0.011003593,-0.6314184,-0.37483972,-0.72151166,0.6698314,0.07794059,0.050886907,0.3065816,-0.05160655,0.66600406,0.01616142,0.058109265,-0.204487,0.041685108,0.44548678,-0.05476582,-0.10641131,0.0065257777,0.037456922,-0.1143176,-0.13321015,-0.043687753,0.57121277,0.08209947,-0.6868442,0.06428945,-0.40091532,-0.5700483,0.03678384,0.10379243,-0.023740213,0.15302774,-1.7351173,-0.022912258,-0.11863448,0.6646385,0.6735122,-0.55698776,0.58102334,-1.1890378,0.14104109,-0.30858156,0.9082842,-0.40767294,-0.01793693,0.23918438,-0.054689802,-0.49409163,0.26585314,-0.0458801,-0.29894057,-0.16476966,-2.2637312,-0.7890717,-0.39547825,-0.3078761,0.007228556,0.022284482,0.022051856,0.26446122,-0.054332517,-1.3667908,-0.76261866,-0.13768005,-0.017691199,-0.12597388,-0.7562195,-0.19844511,-0.27038282,-0.020348232,-0.08770011,-0.07441042,-1.3017155,-0.37005427,0.047652416,-0.4561416,0.20132723,-0.4455186,-0.7760861,-0.011819012,-0.3969807,-0.0925502,0.6373881,-0.26578003,-0.6789483,-0.07371016,-0.05149257,-0.16361552,0.19622087,-1.233589,0.16285464,-0.584468,-0.046082452,-0.055159092,-0.0071412437,-0.041179843,-0.15637055,-0.03283874,-0.61885244,-0.48370498,-0.04016018,-0.08159171,-0.06569934,-0.08201049,-0.117611974,-0.061250333,-0.09626813,-0.07730938,0.02206707,-0.00428789,-0.014124021,-0.024081279,-0.009927966,-0.056508742,0.02506733,-0.10640165,-0.11034183,-0.033620674,-0.081364274,-0.087745145,-0.11601098,-0.10778341,-0.08712113,-0.09553028,0.040594317,-0.042857543,-0.013884649,0.05966688,-0.04979815,0.0047174664,-0.07010843,-0.0018924098,-0.015716959,-0.058713324,-0.012777923,-0.01853989,-0.103989094,-0.045232877,-0.11302507,0.0068360763,0.0031156107,-0.009265123,-0.07453759,-0.10415429,-0.010078656,-0.05154168,-0.022823196,-0.11310425,-0.0052858666,-0.12074198,-0.038135096,-0.09853568,-0.10562682,-0.039471097,0.036839306,-0.04368674,-0.104912594,-0.01925096,-0.014004372,-0.09692012,0.037797704,-0.07587336,-0.024179433,0.027544163,-0.081891105,-0.08096652,-0.045977406,-0.044672593,0.056164615,-0.0051701376,-0.07511163,0.038250707,-0.087228626,-0.049221005,-0.1013186,-0.07944295,0.005670946,-0.10501905,-0.09208064,-0.045079425,-0.07180764,0.046900913,-0.040656976,-0.08617717,-0.048985064,-0.051214002,-0.08832537,-0.0479111,-0.057610333,-0.11144014,-0.08543919,-0.049984567,-0.07699098,-0.09528211,-0.009039923,0.029361024,0.0013492717,-0.11043759,0.0085978955,-0.05430799,-0.016237965,-0.093327016,-0.020874284,-0.033334356,0.01961251,-0.0192485,-0.03790749,0.022946391,-0.09418443,-0.06513609,-0.034147147,-0.001915467,-0.0104929,-0.09335732,-0.07591937,-0.04562279,-0.09256363,-0.07194486,-0.033422217,-0.042547993,-0.03160782,-0.063218206,0.0143827265,0.005000323,-0.10509382,-0.07344329,-0.041215073,-0.018677523,-0.081968084,-0.078290194,-0.1221202,-0.12184425,-0.042893685,0.05832403,-0.036326014,0.06548561,-0.11088596,-0.09934828,-0.09844719,-0.0049624024,-0.05850152,0.0033946857,0.05876083,-0.00019196817,-0.10564573,-0.009783005,0.0044165803,0.0013877733,-0.009039321,-0.068892166,-0.032097206,-0.03427617,-0.10598922,-0.036957353,-0.021815652,-0.0887216,-0.12404436,-0.07195185,-0.08949148,-0.061389282,-0.1108648,-0.044114627,-0.10054757,-0.102060825,-0.12697697,-0.054053217,-0.03878472,-0.032904875,0.019321406,-0.09005013,-0.013579661,-0.10645591,-0.08954945,0.033001773,0.024187941,-0.0035854422,-0.06085904,-0.014962548,-0.116290644,-0.05782731,-0.03470682,-0.026384609,-0.017568775,-0.11461955,-0.05947947,-0.0632603,-0.03286065,0.019018322,-0.02699028,-0.009181343,-0.013025003,-0.03395799,-0.015221197,-0.071859926,-0.08360122,-0.05875215,-0.057971865,0.0074159084,0.004550294,-0.08270691,-0.066942394,-0.006803926,-0.08163722,-0.07953243,-0.117542826,-0.12209779,-0.066321686,-0.07949959,-0.04670746,-0.03820654,-0.035442173,-0.04383312,-0.047057785,0.012305774,-0.028462835,-0.038610533,-0.008431716,-0.08193253,-0.062460117,-0.021677604,-0.03517369,-0.06357694,-0.09668355,-0.05325587,-0.010942087,-0.045049086,-0.06971519,-0.030986343,-0.056530632,-0.043077886,-0.09835519,-0.10120046,0.02318985,-0.0053774277,-0.029585965,-0.10417046,-0.060611434,-0.053774625,-0.09340486,-0.054907404,-0.01623286,0.041504107,0.01765814,-0.105928525,-0.036881678,-0.0105226375,-0.12334831,-0.02175429,-0.06425908,-0.09158684,0.021359716,-0.106475025,0.013053823,0.059034124,-0.063007265,-0.08016037,0.0086522605,0.0012422777,-0.011863992,-0.05189473,-0.055292502,-0.053057276,-0.029119607,-0.044453353,0.025895268,-0.05001369,-0.00577309,-0.043817133,-0.017346151,-0.020014303,-0.0120099215,-0.048827823,-0.006493045,-0.028478336,-0.010403575,0.005331914,0.019002963,-0.033075325,0.039287902,0.019826174,0.0009904727,0.007751086,-0.0640351,-0.057639897,0.04837334,0.03066878,0.02061255,-0.02325647,-0.041230127,-0.020137291,0.05147898,0.013623891,-0.014268128,0.051527135,-0.1121757,-0.044355154,-0.028792232,-0.033970412,-0.028100535,0.045003116,-0.08502361,-0.03961867,-0.026364762,0.015200523,-0.045974184,-0.024795529,0.022469949,-0.04300261,-0.07603108,-0.00058131665,-0.031373892,-0.041067734,-0.029094238,-0.18526988,0.040427506,-0.00034182245,-0.016138919,-0.048310217,-0.07174784,0.0010395898,-0.029054865,-0.087542586,-0.117617354,-0.053067975,0.0014803857,0.0010362839,-0.04128411,0.053569958,0.011214528,0.003954864,-0.014398338,-0.022501394,0.011194879,-0.04074948,0.016585652,0.008971622,0.035837382,0.056137703,0.033835486,0.05899696,-0.026994925,-0.041102022,-0.01405442,-0.049628712,-0.077150166,-0.021304391,-0.009404756,-0.024968572,-0.054484,-0.1775888,-0.04529942,0.0024355426,-0.04097433,0.03170432,0.021266725,-0.029331662,-0.05993868,-0.02949231,-0.0065358495,0.013930226,-0.059918985,0.020264558,-0.03899953,-0.04777783,-0.17684908,-0.053165466,0.055400178,0.023266125,-0.057232186,0.062207296,-0.059115015,-0.038698032,0.0091492925,-0.059952296,-0.012005851,-0.04927413,-0.026623782,0.026232231,0.03454214,-0.21337561,-0.03858893,-0.03149335,-0.061853413,-0.02682978,0.023122545,0.037217163,0.0045636715,0.019866854,0.022279587,-0.010306265,-0.055775844,-0.057767943,0.044350404,-0.0068050167,0.04399703,0.008293942,-0.04652574,-0.00988625,-0.019165473,-0.14139943,0.038356744,0.05605956,-0.04820488,0.051809102,0.023806587,-0.052620962,-0.019832537,0.056045443,-0.03914163,-0.020671481,0.031176109,0.03591259,0.025999205,-0.05970771,-0.02048317,0.054861285,-0.08502721,-0.052984167,-0.0556861,0.050574526,-0.025135329,-0.008998246,-0.062448002,-0.0611858,-0.020081677,-0.008974433,-0.1693106,0.045689233,0.05195975,0.01876858,0.029444465,-0.027579464,0.029188545,0.060668178,-0.14978644,0.031925723,-0.036930904,0.033744656,-0.055871114,0.0061182696,0.031067956,0.050484184,0.018773459,-0.018856332,-0.09547141,-0.057794884,-0.022031121,-0.04772395,-0.049823806,-0.059158295,-0.07590599,-0.08422193,-0.05743979,-0.045030065,-0.027070263,-0.031489793,0.017935246,-0.059600994,-0.035462655,-0.06307792,0.015688784,0.055294625,-0.021177225,0.053651042,-0.07765849,-0.060833834,-0.047157187,-0.044419765,-0.009930327,0.007926658,-0.048694503,-0.03649336,-0.061970517,-0.029988479,0.03694369,-0.008387115,0.024433937,0.031102099,0.036276996,0.0428854,-0.043480262,-0.0103813335,-0.03452789,-0.09772697,-0.024246521,-0.011099746,-0.058209736,-0.0256747,-0.092391714,-0.058507554,-0.024684783,0.01811754,-0.046517506,-0.029722668,-0.054529756,0.0196674,-0.03159395,-0.00092818786,-0.0049690455,0.012163784,-0.06365207,0.018251382,0.024966497,0.05290275,-0.032394238,-0.009383069,0.022573143,0.035750963,-0.0025195964,-0.046690375,-0.0138421105,-0.08828001,-0.186126,0.0142313,0.053259127,0.0039243298,0.08488914,-0.12948653,-0.07013251,-0.06116187,-0.009125497,-0.0829336,-0.05458637,0.020613562,-0.090205655,0.14354974,-0.10461818,-0.009357503,0.060308296,-0.02287012,0.001234279,-0.1140349,0.11225292,-0.0029763766,0.03629678,-0.08574401,-0.025159292,0.03776466,-0.06895895,-0.03925784,0.08111291,0.002535642,-0.13625722,-0.17287731,-0.18078427,0.009899522,-0.013863338,-0.28227335,-0.12160881,-0.020443529,-0.09953745,0.10252568,0.018745903,-0.09751082,0.045554403,-0.039495416,-0.033189297,-0.055245653,0.013099072,0.0020222892,-0.0036007685,-0.023093604,-0.1702407,-0.14328885,-0.011316445,-0.0120524485,-0.08408345,-0.03713019,0.015474899,-0.3427937,-0.00537383,9.634771e-05,0.04826311,0.0011367854,-0.1364291,-0.0126470495,-0.05281541,-0.3134958,-0.23062359,-0.104557246,-0.19691849,0.030920163,-0.036633752,-0.35345572,-0.03283862,-0.18683034,0.0046980865,-0.0683575,0.020500252,-0.13218047,-0.0025447016,-0.11779566,-0.12311378,-0.010629907,-0.14454746,-0.18517144,-0.1718291,-0.08494398,-0.047329724,-0.05762524,-0.009442318,-0.120735265,-0.03715636,-0.029875211,-0.06956923,0.0081326645,0.007190102,-0.10716083,-0.04615657,0.025371823,-0.020325929,-0.020899367,0.014353041,-0.058763646,-0.03189469,-0.056477644,-0.09347364,0.052143395,0.018474402,-0.03803269,-0.33086076,-0.28957015,0.084976,0.04515128,0.059631888,-0.086567104,-0.15623567,-0.23138905,-0.18027645,-0.10729942,-0.068131566,-0.10094054,-0.020419527,0.006152923,-0.034821294,-0.21279648,0.024172654,-0.11027929,-0.078479424,-0.025351185,0.022205204,-0.082853556,-0.009680373,-0.05957659,0.036405794,-0.08014864,-0.08468543,-0.031906195,-0.10868271,-0.036951717,0.016525675,0.035435036,0.062828496,0.0040304027,-0.12344153,-0.18499315,-0.09907014,0.015811905,-0.13861413,-0.1583203,0.0070976904,-0.00013657543,0.029932471,0.0034429287,-0.0038527069,0.03380613,-0.08956878,0.034759633,0.093730286,-0.067647696,0.032577973,-0.11305696,0.040004607,-0.05084136,-0.12725842,0.018715248,-0.0007953048,0.0071277283,-0.073874615,-0.036199592,-0.3793981,0.003854826,-0.07307187,-0.18070412,-0.08534767,0.038576573,-0.0516778,0.018825587,-0.23696756,-0.09538856,-0.022816088,0.001248623,-0.117722996,-0.087083474,-0.030856667,-7.719404e-05,-0.026843153,-0.13888822,-0.028087426,-0.0077553755,-0.23979121,0.045309305,-0.0042263865,-0.031807538,-0.08558169,-0.0690458,0.06160896,-0.097176276,0.011165468,-0.06853251,0.010785333,-0.2220602,0.021357864,0.04567399,-0.025353786,-0.084944345,0.0514509,-0.034131475,-0.0031382688,-0.08677223,-0.25563586,-0.0057279677,-0.107718706,-0.014198096,0.05390413,-0.022841468,0.0032019462,0.035817042,-0.08651212,-0.16858874,-0.22590986,-0.09827611,-0.0036083371,-0.02165867,-0.12736213,-0.11891893,-0.065393716,-0.062535554,0.01601386,-0.13636863,-0.1750848,-0.054196183,-0.09184344,0.038288362,-0.33460432,-0.04652778,-0.11802703,-0.0955451,-0.135749,-0.051533252,0.018248849,-0.115659565,-0.072299644,0.03695307,0.011592094,-0.030274123,-0.14200735,-0.22154716,-0.11072777,-0.0982631,-0.070473194,-0.24416316,-0.0156358,-0.03101071,-0.045593772,-0.061624385,-0.046048403,-0.25087738,-0.015819829,-0.06685519,-0.051063925,-0.08926899,-0.14350212,0.05062762,-0.08677605,0.027048089,-0.033473954,-0.16574264,-0.024228036,-0.007815944,-0.06372247,-0.015783928,-0.012658935,-0.04489294,-0.0865902,-0.046231005,-0.048067853,-0.06453494,-0.00083265314,-0.06072013,-0.0559268,0.03959458,0.05373798,-0.029926937,-0.10360165,-0.039947085,0.038262933,0.034379967,-0.05491977,-0.09614542,-0.15378425,-0.01547391,0.0055312184,-0.07851711,0.0005216254,-0.13154012,-0.069254875,0.03166502,-0.026666323,-0.0040894933,-0.14558223,-0.034495108,-0.0002564895,-0.055129483,-0.00918231,-0.010253485,0.045263216,-0.000708921,-0.059629947,-0.10875114,-0.13064978,-0.026728157,-0.030597875,0.010068107,-0.03920628,-0.09220502,-0.1115214,-0.15251079,-0.0068546524,-0.13566446,-0.083235346,0.044850804,-0.009528836,-0.058655564,-0.058802515,-0.08039593,-0.07361548,-0.05954446,0.010682429,0.02233117,-0.058763757,-0.05919215,-0.050699774,0.040010292,-0.0031558855,-0.008201005,-0.005303096,-0.122804254,-0.022631899,-0.014547995,0.018499658,0.041623227,-0.12231873,-0.11076048,-0.107757375,0.0010611382,-0.087611824,-0.0580765,-0.0320443,0.0022544311,-0.056589894,-0.034227207,-0.005652697,0.009171771,0.023777258,-0.120723575,0.038576417,-0.01277017,-0.011157088,-0.048231743,-0.11306353,-0.032345586,0.0061520175,-0.024469882,-0.13817671,-0.015985362,-0.05900541,-0.045872115,-0.017947547,-0.043717608,-0.0106993355,-0.02575745,-0.05886562,-0.004420262,-0.11265256,-0.038800083,-0.007551224,-0.052046258,-0.008095078,0.012069384,0.041653365,-0.054427937,-0.07975343,-0.023852948,-0.022510042,0.057794683,0.027251765,0.04173705,-0.080500126,-0.13244927,-0.09884381,0.033655576,-0.06885578,0.0458064,-0.030425215,-0.10140945,-0.08183069,0.021410536,-0.115898475,-0.017817283,-0.009932276,0.043874115,-0.04954347,-0.04107178,0.03198675,0.01479019,0.019133803,0.006574489,-0.016791802,0.020974746,0.023485556,0.019872379,-0.030283876,0.027585935,0.041496567,-0.10938439,0.029515266,-0.0072962884,-0.04244379,-0.07051723,-0.089194626,-0.01690599,-0.1499331,-0.1231842,-0.06578934,0.004436027,-0.026963681,-0.1470682,-0.12941861,0.008194462,0.008885551,0.041060105,0.01654901,-0.012888374,-0.019968264,-0.07708211,-0.11365761,0.032594003,-0.026136938,-0.018196218,0.0037158942,-0.047035687,-0.11112857,0.0248891,-0.064934075,0.041587017,-0.035036705,-0.016346745,0.055749312,-0.12217489,-0.1205485,-0.09508921,-0.058801983,-0.033990167,-0.15514305,-0.100927666,0.004569645,-0.068025514,-0.02749046,-0.0891398,-0.10887119,-0.019844592,-0.07390997,-0.053939193,0.00026950525,-0.0020808466,-0.08363442,0.01705707,-0.051762447,-0.14931008,0.047956347,0.04033558,-0.01892348,-0.12304325,-0.10234785,-0.09715316,0.029242028,-0.14704013,-0.045308813,-0.05122985,-0.061615176,-0.07813662,-0.09584689,-0.14196879,-0.08756721,-0.023163378,-0.1003993,-0.07330905,-0.10900098,-0.00803748,-0.066684976,-0.0003653271,-0.12141151,-0.032880798,-0.014182029,0.054298803,-0.1191683,-0.023962513,0.034581244,0.035449315,0.031636324,-0.120841235,0.04751217,-0.002140862,-0.11239142,-0.018978119,-0.15925696,-0.026794124,-0.0336494,-0.047260687,-0.07125886,-0.00026317156,-0.046820305,0.00987884,-0.0010042507,0.0107627325,0.03597402,-0.08225995,-0.024538724,0.078203455,-0.081215516,-0.017401615,0.041530773,-0.056601517,0.0046684965,-0.054093353,0.05253809,-0.06329289,0.032251336,0.03818026,0.0323807,-0.053696133,-0.011119045,-0.0094802845,-0.02939921,-0.009559075,-0.039132614,-0.052715853,0.037969597,0.028977986,0.049093954,0.005253236,0.0421261,-0.022337444,0.027880143,-0.05992572,0.025108859,-0.017188035,-0.0022599772,-0.009749489,-0.0865393,0.040641032,-0.0904638,-0.046839006,-0.03464728,0.030921377,-0.10202873,0.013016913,-0.109068155,-0.005564548,-0.05736375,0.028763887,-0.009384427,0.031967282,-0.07008013,-0.032407127,-0.07812467,-0.032885045,0.072023645,-0.09306957,-0.012756867,-0.042569485,0.035374947,-0.003461954,-0.030032478,-0.061599683,-0.058922246,0.027194072,-0.012362423,-0.051532112,-0.052492596,-0.026391955,0.06976225,0.034563243,-0.007853923,0.07400386,-0.03583997,-0.080896586,-0.03597638,-0.035507225,-0.0004175047,-0.05993018,0.052381158,-0.029931804,0.0007303605,0.059300356,-0.020072047,-0.06055259,-0.05681561,-0.086264744,0.03335482,-0.031550296,-0.07513261,-0.030149143,0.011136107,-0.017130826,0.009672819,-0.091514714,0.016987309,-0.016409822,-0.026402935,0.024197452,0.044630565,-0.01671622,-0.031333074,0.043582954,0.047783908,-0.005135976,-0.04460174,0.028961366,-0.06168794,0.057267018,0.0068682036,0.005066716,0.015589809,0.048489362,0.0073054517,0.03314492,-0.060979307,-0.024463765,-0.01608504,0.0018694035,-0.023840226,0.022403596,0.048330538,-0.022909492,-0.05273739,-0.05194151,-0.08624458,-0.04825271,-0.048003413,0.018673807,0.03287082,-0.010361852,-0.028723557,0.021580607,0.04099564,-0.045856852,-0.039342456,-0.030675333,-0.067940444,0.022201164,0.022919588,-0.077913664,0.010427227,0.01929603,-0.04513093,-0.06270023,-0.023732182,-0.018730901,0.030301169,0.017689755,0.012225034,-0.01750394,-0.047470152,0.0345971,-0.07752755,0.03683649,-0.05486995,-0.017043117,0.036476694,-0.028956749,-0.06192149,-0.07248074,-0.072285175,-0.007011218,-0.06858785,-0.06976177,-0.025878448,0.027437627,-0.049170196,0.04815364,0.015268336,-0.024985887,-0.05020096,0.013749959,0.025125105,-0.048420995,-0.048671067,0.045527034,-0.045968346,-0.05179758,-0.055729896,-0.052904636,-0.020134244,-0.076240435,-0.011318364,-0.038014133,-0.026561104,-0.05764594,0.0042953785,0.042686023,-0.08066109,-0.054158673,0.04210953,0.02691413,-0.06421944,-0.043932304,-0.027940951,0.03404896,-0.024913155,-0.04404541,0.070242114,-0.038195476,-0.083271995,-0.0128472075,-0.037355527,0.05620374,0.032637514,0.011527676,-0.061617605,0.022899736,0.017297003,0.029576533,-0.07726149,0.049941182,-0.028008284,-0.042039093,-0.07522321,0.0004987982,0.029943138,0.014414977,-0.050819024,0.020955421,-0.06351817,0.04599411,-0.06285073,0.00546958,-0.031374536,0.04929532,-0.09492827,0.011153672,0.0017700915,0.011840164,-0.030894522,-0.0042538997,0.045507863,-0.03739397,-0.05967907,-0.07634338,-0.08740233,-0.03071557,-0.028881803,-0.020640383,-0.04221337,0.027678974,-0.012099477,0.05619383,0.026499655,-0.090152085,-0.07216483,0.020530742,0.00014080782,-0.03605724,-0.04811416,-0.06417221,0.04932224,0.06872754,0.032276034,-0.02835209,-0.115172535,-0.08936916,-0.0030956306,-0.08742486,-0.08727528,-0.049863342,-0.021128196,0.049653567,0.0019221804,-0.030032154,0.03593807,-0.10793252,-0.032992125,-0.07410915,-0.07683939,-0.11036582,-0.06035336,-0.077727735,-0.053928003,0.0013278716,-0.10073447,-0.062864006,-0.12157842,-0.05335901,-0.06389266,-0.058608446,-0.09037906,-0.033615362,-0.1266463,0.022799492,0.017096262,0.002285861,-0.06878023,0.0009649487,0.01883889,-0.0066844886,0.045966566,-0.068521194,-0.01236718,-0.020190556,-0.047082283,-0.12274281,-0.052650683,-0.020053659,-0.034130543,-0.042838305,-0.01520556,-0.090465784,0.0028239358,-0.06474072,0.03158491,-0.09366864,-0.097436145,-0.07490024,-0.02335577,-0.073692605,-0.116360605,0.068013445,-0.05050856,-0.048772834,0.011575734,-0.11146906,-0.13988462,-0.049708128,-0.038662344,-0.03006247,-0.069542006,-0.043805614,-0.08566402,-0.039830543,-0.0379686,-0.0043923054,-0.11738019,-0.017857827,-0.058100455,0.056388147,-0.09539764,-0.10510993,-0.013889918,-0.12144409,0.017044153,-0.059942026,-0.05790294,-0.008348389,-0.03327191,-0.028431233,-0.111849695,-0.001737667,-0.0630966,-0.008534716,-0.025447935,-0.03597458,-0.041940734,-0.0063297516,-0.043260686,-0.05495304,0.021353595,-0.14335698,-0.08673012,0.031153083,-0.04344214,-0.030975115,0.0039388575,-0.14026627,-0.057234205,-0.018568957,-0.032069456,0.029756472,0.02043761,-0.0023255376,-0.11754103,-0.00913745,-0.0054135695,-0.081661925,0.06021232,0.016911104,0.07488635,-0.060148455,0.025652483,-0.024005126,0.014256848,-0.08042221,-0.018459078,0.03269255,-0.034671035,0.018138386,-0.11596182,-0.048671708,-0.05043625,0.021010788,-0.04982324,-0.07460047,-0.1383914,-0.005555203,-0.031272992,0.03427034,-0.07994714,-0.0660298,-0.13300519,-0.0075930366,-0.07989253,-0.009014644,-0.013136849,0.01128817,-0.080447406,-0.017308252,-0.07692744,0.07239747,-0.02453417,-0.061836526,0.022068258,-0.03790504,0.0047114603,-0.09434864,-0.1302419,-0.12099901,-0.1286802,-0.06363852,-0.0004437723,0.015663479,-0.11396693,-0.07106523,0.040405974,-0.09817356,-0.13476557,-0.015999358,-0.058521025,-0.0024006362,-0.06009814,-0.13871622,0.016245373,0.046071127,-0.07448657,0.024042103,-0.088909075,-0.109625295,0.0111304205,-0.037503503,-0.044345543,-0.06667236,-0.066101804,-0.014797939,0.0031433743,-0.10694091,-0.1368545,-0.028097402,-0.027737595,0.038317144,-0.05746065,-0.019307751,-0.025840472,-0.023111042,-0.027708326,-0.08818789,-0.10357416,0.06303099,-0.032193407,-0.010057349,-0.04800971,-0.11269429,-0.11169633,-0.08241336,-0.06976299,-0.011423009,-0.079466015,-0.022923302,0.03706449,-0.07111138,-0.013458008,-0.07693325,-0.00285403,-0.06375532,-0.044069067,0.03373179,-0.047376268,-0.013337931,-0.027076565,-0.048228495,0.020806322,-0.12272519,-0.106346995,-0.02525808,-0.033854432,0.08779572,-0.12866604,-0.12134848,-0.022669539,-0.026189774,-0.08460389,-0.11530921,-0.055232804,0.02808347,-0.042639688,-0.07098402,-0.04529821,-0.078361705,0.054376796,0.022857174,-0.04606194,-0.0373384,-0.05906465,0.044018313,-0.11809184,-0.045096338,0.037004776,-0.029878542,0.01623809,0.054370683,-0.03948587,-0.0760926,0.023961121,-0.13453367,0.008711509,-0.00210207,0.06826413,-0.008777678,-0.05199735,0.009019058,-0.0031802845,-0.059753075,-0.019407261,-0.0398413,-0.06990471,-0.00062624743,0.003710555,6.044394e-05,-0.05527901,0.043229584,0.051919036,0.022361107,0.005137176,0.032534193,-0.06771497,0.012937373,0.050706998,-0.06258662,-0.04012756,-0.04100583,0.00895282,0.0056992616,-0.046406373,0.0044917082,-0.03153167,-0.03182758,0.050194744,0.052416153,-0.04306848,-0.051901236,0.034330614,-0.018718768,-0.057121754,0.03353715,0.029614575,-0.064685434,-0.0018583636,0.030434255,-0.061172068,0.036055516,-0.046546213,-0.010387823,-0.07261011,-0.01929615,-0.008366147,0.052937903,0.029972486,0.03861422,0.0059723496,-0.007918444,0.022385437,0.023271699,0.028629767,0.030637566,0.024012102,-0.06092371,0.021467945,-0.08818503,-0.010226658,0.019731235,-0.081939876,0.04835287,0.014321584,0.025517482,-0.04442222,-0.030293722,0.008411543,-0.029816877,0.013232797,0.014418315,0.019899607,0.015622493,0.0482498,0.05695062,-0.003095692,-0.0797667,0.033394963,-0.018647797,0.052252986,-0.0079493895,0.03404006,-0.026128247,-0.025978327,0.012026757,-0.02814136,-0.06204909,0.0414426,-0.010581685,-0.06518386,0.013247864,-0.03055222,-0.047750857,-0.07131192,0.012261163,0.054821305,-0.07708664,0.02262671,0.051566526,0.019897435,0.009022558,-0.035946336,-0.030383337,0.0036220565,0.015016079,-0.0024240585,-0.0066270726,0.0011697107,-0.03048886,0.031588547,-0.023870701,-0.019823361,-0.04761249,-0.012958944,0.0031365296,0.03750877,0.0339586,0.03167648,0.046186652,0.03598471,-0.05712954,-0.05531995,-0.08903015,-0.08319811,0.026501812,0.01924272,0.023816261,0.009400731,0.018974781,-0.06827934,0.008968899,-0.07267707,-0.03865052,0.008286271,-0.0548377,0.032531552,-0.0021119304,-0.012635892,0.041579477,-0.01649655,0.041707426,0.01424939,-0.060385846,0.035540093,-0.055683114,-0.026286002,0.04327109,0.02481636,-0.040715776,0.0031511928,-0.0042399103,-0.017546838,0.053664654,-0.060962267,0.0143521745,0.050207943,-0.029204883,-0.02547396,0.04932145,-0.007924715,-0.0050463015,-0.003396878,-0.020108879,-0.02132808,0.0028061338,0.043073826,-0.030567702,0.032719873,0.001267347,-0.06170316,-0.016826821,0.011590194,0.0376893,-0.0025614086,-0.0071488586,-0.057752676,0.00090057985,-0.048575647,0.030007571,-0.053667363,-0.04518845,-0.011581781,-0.07256283,0.045070767,0.05208411,-0.021302283,0.020572208,-0.072650045,-0.045435704,-0.023428004,0.028195895,-0.07102379,0.0021754075,-0.010218151,-0.07618344,-0.038214445,-0.020898066,0.0060609267,0.013539583,-0.0020970176,-0.04693479,0.04563655,-0.08684855,0.0433798,0.032263637,-0.029009935,0.037485145,-0.023720065,0.042432666,0.02360072,-0.0060820756,-0.02377346,-0.06780931,-0.055186205,-0.061025456,0.029383924,0.009996722,-0.03212128,0.039006934,0.034568004,-0.055531822,-0.026492527,0.053005546,0.0398101,0.012205986,-0.054049477,0.011431912,-0.009208479,-0.022009775,0.030192656,0.045826294,-0.07223649,-0.029620161,-0.04258751,-0.014801055,0.04285326,-0.03354246,0.025346756,0.038928345,-0.010798307,0.03355056,-0.011384852,-0.014135357,-0.011096686,0.046702676,-0.0010329469,0.032027684,0.020616626,-0.020709675,0.028480418,-0.019429065,-0.05334437,0.04829853,0.03043649,-0.03922043,-0.39735082,-0.20080447,0.8941461,-0.100524694,0.1095634,-0.5653622,-0.5257683,0.3673863,0.73945886,-0.2561441,0.057389714,0.13719785,0.52066314,0.1659517,0.56824386,0.3777759,0.19467196,0.1366735,-0.04406204,0.47177747,0.04277517,0.10439277,0.025176572,0.3871046,0.076730885,0.5212505,-0.26871085,0.008778504,0.58376276,-0.14452589,0.30762118,0.38259503,-0.8909017,-0.15970427,0.13088179,0.094929636,-0.16103855,-0.35663372,-0.60131747,0.82609236,-0.060016368,-0.16829038,-0.020816673,0.97988164,0.042958982,-0.012396661,0.6185596,0.20878926,-0.06841372,0.12236528,0.18358433,0.1472604,-0.21270931,0.047169514,0.07154217,-0.5602534,-1.1624436,0.44945717,-0.3489197,-0.4804965,0.057385504,-0.44709125,-0.70903647,-0.019050606,-0.33937293,0.33208382,-0.099314936,0.26684958,0.32574904,-0.15299095,0.31065553,-0.38874963,0.16531292,0.1008617,-0.037018783,0.027284468,0.36542904,-0.7046459,-0.061387934,-0.059307218,0.4763587,-0.05360602,0.19918722,0.41593885,-0.091362745,0.10446143,0.222437,-0.03603465,-0.030515458,-0.21361393,-0.54776204,-0.765501,-0.62518525,0.5875265,-0.14463854,-0.063094094,0.48720348,0.042349435,0.1497013,0.022425622,0.5823672,-0.13729277,-0.20929977,-0.007567677,0.5525803,0.09837011,-0.24630442,0.060110185,-0.4232209,0.60318446,-0.015357838,0.3293165,0.06536008,0.11726154,0.7291372,0.22356758,-0.050311327,0.083899066,-0.00800036,0.51946753,-0.4400549,-0.012102079,-0.81516415,0.65004945,-0.29409242,0.19243999,0.82707703,0.83016825,0.082330674,0.13615376,-0.12521832,-0.15315057,-0.3129856,-0.028227326,-0.060752183,0.23352756,0.015222266,-0.14800465,-0.011191461,0.7072098,-0.056154974,0.006884942,0.010327819,-0.47192103,0.15150478,-0.21069032,0.31712067,-0.81039953,0.06704126,0.3868843,-0.013062011,0.04526955,0.8188436,0.13702863,0.99420786,0.59397936,0.15695632,-0.38164037,0.48581776,-0.108504385,0.45132554,-0.1187394,0.12623183,0.5485499,-0.15781134,0.12175114,0.030439302,0.044076636,0.17712674,-0.4126152,0.18684241,0.13956885,0.011348842,-0.0005337737,0.1023742,-0.12588784,0.14925909,-0.18014461,-0.74485284,0.79735905,0.53409266,0.05352712,-0.77665555,-0.26741347,-0.25979137,-0.23778614,-0.011563021,0.021126352,-0.07075153,-0.0988082,-0.06004013,-0.10493764,0.07804235,-0.0064674383,0.2995734,0.2280285,-0.017041953,0.21730956,0.2751446,-0.22739783,0.12428667,-0.14739099,0.123107545,0.3525781,0.46422386,-0.15561435,0.10520883,0.031604122,-0.4491193,-0.14478812,0.16788656,-0.6998557,0.040906228,0.11717084,0.209452,-0.4428327,-0.013300087,-0.39194843,-0.37414083,-0.2785639,-0.1605258,0.03712838,0.39714217,-0.015785314,-0.1686346,-0.0395345,0.119296744,0.673573,-0.19186187,0.36066216,-0.13332033,0.93203557,0.5547718,-0.42330295,0.36462352,0.06985098,0.268925,-0.0064094216,-0.052471697,0.040681012,-1.1518538,-0.005828618,0.22648337,-0.7815107,-0.3645351,0.0021515938,0.021838233,0.023391299,-0.060808472,0.50425434,-0.030686103,-0.05018491,0.06579661,0.004254169,0.21647762,0.10035494,-0.27588046,-0.042386986,-1.0302851,0.1373385,-0.4661641,-0.931285,-0.23232089,-0.0063993167,0.007742049,0.2014893,-0.0025041527,-0.049091537,0.14242321,-1.0980833,0.47589087,-0.6403675,-0.080859415,-0.39944124,-0.15579364,-0.21027038,-0.6609562,-0.17721662,0.37301278,-0.44515163,0.1105302,-0.51055217,-0.016316116,0.054567285,-0.37867188,-0.035048608,0.11994155,-0.38461822,0.6851772,-0.14105225,-0.0914168,-0.20829013,0.23806147,0.17650284,-0.42126667,0.39654827,-0.09867738,0.5559886,-0.42995292,0.3367731,-0.57882154,-0.053657167,0.5227034,0.55186033,-0.3500923,-0.181348,0.31062528,0.26877275,0.23456135,0.056950863,0.303016,-0.051098924,-0.19950822,-0.2739945,0.16316646,0.41950974,-0.02207496,0.0027667093,1.2327313,0.0159364,-0.5585683,0.050007872,-1.1261369,-0.12098771,-0.27413297,-0.16341533,0.035159744,0.12668863,-0.40983582,0.44747478,-0.18640082,-0.15318081,-0.17798272,0.112067,-0.2595061,0.38167822,-0.11178463,0.10788643,-0.31338644,-0.16683671,-0.33843094,-0.37461513,-0.08228797,0.09548536,0.20011957,0.043122686,-0.20172241,-0.36588007,-0.030670064,-1.0540683,-0.3382281,-0.11751522,0.67472166,0.0070073847,-0.37479413,0.06330502,-0.17568205,-0.46962854,0.2911112,-0.08758971,0.09931701,0.19850683,0.13440104,0.06347448,0.19784634,-0.18627192,-0.31500745,0.0812861,-0.07893859,-0.19485644,-1.1827154,0.22511935,0.36352843,0.06500214,-0.0072015068,0.39419657,0.19387674,-0.26271567,0.027984988,-0.7643472,-0.07550356,-0.11334151,-0.13004628,-0.13179299,-0.020326225,0.21851504,-0.08757656,0.05017528,0.01958439,-0.25846756,0.018459987,0.03537476,0.0073671388,0.053279012,-0.11339842,-0.39940327,-0.07460727,-0.06571995,0.63538706,0.5601946,0.0588002,-0.1800488,-0.38783795,0.06918649,0.06985104,-0.6172216,0.06567305,0.0713857,-0.27498633,-0.06323573,0.47193915,0.15817812,0.13284951,0.5994562,-0.16759464,-0.40621576,0.29599047,0.19434768,-0.3086514,-0.9573647,-0.10580917,0.17185181,-0.250412,0.005901239,-0.90981376,-0.2469404,-0.37335885,0.081020415,-0.07601692,-0.028517202,-0.54969007,0.06757378,-0.61704206,-0.12928522,0.64347255,0.28113413,-0.61432743,-0.011043731,1.1452918,0.5245668,0.037741333,-1.1038971,0.04478512,-0.20182127,0.9495298,0.05162092,-0.020970229,0.4577544,0.46434125,-0.03621465,-1.2357948,-0.029810943,0.2503433,-0.4810295,0.045816783,0.23474833,-0.06968871,0.035591397,-0.73173016,0.41475043,-0.3045789,-0.1963234,-0.0059656557,0.11808203,0.15079014,-0.5724238,-0.15278235,-0.0507721,-0.044662222,0.11196039,0.053954724,0.1503137,0.1412152,-0.22951661,-0.28684348,0.10579206,-0.025683533,-0.16095822,-0.087381944,-0.3467064,0.20500329,0.20243236,-0.11437397,-0.6398811,0.34490937,-1.3980534,-0.13473174,-0.49423593,-0.7800456,0.7881439,-0.57518494,-0.27984443,-0.29501772,-0.036839705,-0.1266248,-0.2150181,-0.7351316,-0.023510959,0.090175584,0.28650063,-0.25476876,0.0160516,-0.15224205,0.82371855,-0.41896474,0.28856725,-0.05468125,-0.04907435,-0.1787619,-0.054940224,0.490086,-1.3120623,0.81381977,-0.14594164,0.38879597,0.7913124,-1.9127803,-0.80697113,-1.0631008,0.04449433,0.56823146,0.19016884,0.0077576265,0.5169085,-0.7961565,0.15061975,-0.83981395,-0.6549898,-1.2631652,-0.3985092,-0.8805324,0.21555999,-1.0060828,-0.23300935,0.08540502,-0.45439813,-0.09517895,-0.5258558,0.01158567,-0.077720895,-0.11524386,0.006056764,-0.46950272,0.1959003,0.5513475,0.072382964,-0.11773764,0.14854679,0.074139446,-3.1727536,0.17391604,-1.2946265,0.016591456,0.3400154,-1.6669412,0.9632905,-1.4613398,0.114107236,-0.47744924,-0.8525975,0.4898085,-0.08084745,0.9120928,0.09238602,-0.48236156,-0.011645962,0.16716823,-0.7850503,-0.66053015,-0.94016343,0.11817658,0.22820798,0.19699776,-0.1869033,-0.19112378,0.1523164,0.46010572,-0.033030625,-0.36996508,0.2695461,-0.7852053,-0.2906453,0.7417499,0.4769475,0.11977636,-0.473956,-0.6360723,0.043251343,-0.33233762,-0.40018636,0.046192054,0.017790038,-0.11257836,0.11482732,-0.036139026,-1.0376768,-0.24463779,0.10668135,0.21252465,0.110569164,-1.7095747,0.86862516,0.76569706,-0.3309641,0.66731936,-0.81384724,-0.0790737,-0.041911528,0.79740524,0.7242423,0.7392832,0.08201524,-0.42046338,-0.54386294,0.3659051,-0.36372104,-0.5294552,-0.01062296,-0.122934334,-0.010262223,-1.7549946,0.29137373,-0.08480039,0.0030222568,-0.018931083,-0.32997373,-0.84682953,1.1919101,-0.24124742,0.011459161,-0.052210398,0.83774006,0.37924355,0.0029705842,-0.04928665,0.080675706,-0.6030756,-1.1607614,-1.2217298,1.1743891,-0.24579963,0.19489679,-1.5122597,-0.023372222,-3.5942025,0.5683738,0.016493253,0.13832772,0.2584818,-0.13186866,-0.36206862,0.05665995,-0.85805917,-0.050935574,-0.16732392,0.58469486,-0.015783269,-0.20446235,-0.041826934,0.08679488,0.03663061,-0.3927462,0.060924605,-0.071224324,-0.50753427,0.46331763,-0.9219847,0.6371796,-0.7128403,0.3938812,-0.34860522,1.2852603,-3.5931096,-1.6257269,0.14503941,-0.611979,-0.12616338,0.59407866,-0.0026575713,-0.044166856,0.51024544,-0.80788696,-0.43596244,-0.009678626,-0.0032178883,0.000996003,-0.35701373,-0.4372995,1.8327113,-0.027333125,-0.0025822627,0.34059775,-0.29101408,-0.023140743,-0.44263917,0.69662833,-0.19590929,-0.07976092,-0.1273415,-0.01168463,0.21639183,-0.0559903,-0.088602036,-0.5736798,0.574667,-0.2666214,-0.6000966,0.57030475,-0.9835264,0.24335328,1.1876465,0.9591836,0.2549832,-3.1536703,0.08449004,0.46974444,-0.91916674,-0.14024878,1.2582371,0.18472195,-2.15942,0.52308667,-0.19468574,0.73586655,0.0366726,0.06364986,0.024576075,-2.6519494,-0.080856726,0.24478269,-1.3596028,-0.20524466,-0.6052204,-0.12327116,0.82971656,-0.2652759,-1.3138456,-0.50476825,-0.3784225,-1.7812433,-0.29640108,1.7823076,0.073606536,-0.019484479,-0.4563991,1.362417,0.34430942,-0.005219697,0.052860443,0.15241086,-1.8940275,-0.120760486,-0.11640754,0.0105457995,-0.2958958,-0.08181606,-0.13659608,-0.82798886,0.13191548,1.2444972,-0.6873887,0.9611179,0.0037240009,0.21621385,0.13925461,0.081007436,1.1568937,0.3486771,0.09603829,-0.0876233,1.039366,0.92976785,-0.48988473,-0.16572195,-0.3541442,0.11261484,1.0637553,-0.98533976,-0.061497033,0.8157666,-0.08076709,-0.14015284,0.56453323,-0.8485981,-1.8803786,-0.103840634,0.25365543,0.090631075,-1.2854538,0.23650387,0.29965335,-0.6638988,0.03190078,-0.57823205,-0.21836491,-0.010680415,0.43489856,-0.1612756,-2.0613868,0.19092256,0.2194561,-0.003600854,-0.16764988,0.53110147,0.33327472,-2.915656,0.77573645,-0.53364855,0.2014072,-0.47697002,-0.9440036,0.8903348,0.5290283,0.04018506,0.22719482,-0.42645234,0.9720086,0.3393954,0.239748,0.2820395,0.03498345,0.050008148,0.17872977,-0.6073779,-0.9418888,0.522694,-0.25642368,0.37216496,0.01497516,0.48294297,-0.77875143,0.10815467,-0.1264677,0.38181448,0.62230146,0.5743407,-0.34213337,-0.36305434,0.25241977,-0.799319,0.32912317,0.25592446,-0.28139627,0.05942683,-0.87279207,-1.0565501,0.05096721,-0.51888967,0.014003839,0.100999214,0.79975784,0.031007554,0.36368853,0.5060431,-0.6481998,-0.03234957,-0.21088718,-0.3019845,-0.75779665,-0.89481425,-0.50893056,0.05766706,-0.6881192,0.062103655,-0.05322297,0.35238713,0.5941558,0.045375064,0.6961802,-0.94559634,-0.1240367,-0.24199903,0.4578212,0.18670481,-0.24021377,0.07111201,-2.3154151,0.7549976,-0.48178783,0.34712002,-0.061754137,-0.41180718,0.4965166,1.0019647,0.36458498,-0.042043142,-0.07124174,1.3853023,0.34980005,-0.06167695,-1.9194832,0.7645087,0.36628228,-0.16534469,-1.3074496,0.770082,-0.641096,0.72920585,-1.4102063,-0.467117,-2.652217,0.5347377,-0.12756012,-0.092275314,0.46732146,-0.39626816,-0.31374907,0.38224208,-0.92028093,-0.06387824,-0.5081806,0.96821094,0.5812396,-0.24462241,0.63469875,-4.295993,0.039142385,-1.0616608,-0.003965311,-0.011207506,-0.3061273,0.29385018,-0.0795381,-0.3153407,-0.9745562,-0.92291856,-0.0224654,0.87902665,0.8063594,0.30526912,0.102901496,-1.8018123,-0.27401316,-0.3824907,0.505437,-0.017412843,0.5903926,-1.6771104,0.39332515,0.25828514,-0.058648385,0.034043066,-0.22912377,-0.29154423,1.1058246,-0.33500254,-0.097565,1.4742596,-0.18967998,0.33765638,-0.18888624,1.1006713,-0.29884058,-0.10343506,-0.16175677,0.4999057,0.19812497,-0.023013443,0.00936329,-1.1747322,0.46311423,0.4848479,-0.8642402,-0.18669668,-0.8131813,0.34126657,0.54308486,-0.19422802,0.33477324,-2.641368,0.30453798,0.16235635,0.27790207,-0.15675882,0.6185635,-0.05325107,0.48439884,-1.3298719,0.4607839,-0.13948593,0.026947353,0.029086571,0.24222004,-2.8748841,-0.08381189,-1.8381181,-0.25512552,-0.36282885,0.19901289,-1.1926882,-0.26306206,0.4468559,0.028101686,-0.37531424,0.15382062,0.7259636,-0.73351324,-0.27327567,-0.072806515,0.011917438,-0.46570492,0.038175095,0.680657,0.54056835,0.25108692,0.08351496,-2.0964308,0.62526965,-1.2456546,0.05861652,-1.337219,0.7898404,-1.0684235,0.7443278,0.40616155,-0.11246246,0.16459003,-0.88140535,-0.03742358,-0.12931794,-0.07969013,0.014056918,0.9828813,0.50776756,0.026027966,-0.013438592,-0.040628713,-0.018837936,-0.027456455,0.051183093,0.0043313988,-0.025539834,0.011914542,-0.049450863,-0.013791774,0.030202191,-0.053350262,-0.06686741,-0.004867145,-0.057431154,0.010576252,-0.10551149,-0.10186127,-0.1131337,0.0183307,-0.1014396,0.03353239,0.016765423,-0.006333322,0.05928661,-0.05397426,-0.039948806,-0.0019873814,-0.03620123,0.010816716,-0.06430735,-0.069960445,-0.055182587,0.030937787,-0.102970615,-0.04425466,-0.071896955,-0.048062883,0.018099762,-0.049826115,-0.10814476,-0.024098646,-0.03004808,0.013608409,-0.052265882,-0.022379376,-0.045036778,-0.03575594,-0.038783886,-0.01174043,-0.018710949,-0.025397899,-0.03561,-0.027940847,0.01217304,-0.02587349,-0.08472744,0.0039804354,-0.018651092,0.025955535,0.0414581,-0.06178062,0.025478814,-0.020390082,0.001359822,-0.01130865,0.039342217,-0.04829454,-0.020050425,0.0563576,-0.00610145,-0.12573184,0.014855212,-0.041366875,0.019144382,-0.02274479,0.0022759973,-0.026942484,-0.024096709,0.032942027,-0.023613704,-0.029892676,-0.010941867,-0.06658814,-0.018471003,-0.059202276,0.025386132,-0.06179673,-0.06368977,-0.054046333,-0.03728933,-0.020337958,-0.09776419,-0.01981943,0.033558734,-0.00803845,-0.027281769,0.005826814,-0.056897193,0.04807874,-0.048208043,-0.10942979,0.028892614,0.06321876,-0.028398978,-0.032041684,0.03399694,-0.05161213,0.023470055,-0.010928238,0.053142842,-0.0684389,-0.065789685,-0.03568887,-0.01878577,-0.08954075,0.032721303,0.059084326,0.055751584,-0.029067293,-0.01052705,-0.029139627,-0.015858077,-0.093267515,0.039061695,-0.043735374,0.0106893685,-0.053490996,-0.009679841,-0.035700053,-0.08215201,-0.021788966,-0.048747227,-0.03260887,0.032650955,0.035842873,-0.08154638,-0.07397632,-0.05369535,-0.037000168,-0.02422727,-0.029006353,0.034880824,-0.024484362,-0.06763481,0.006137985,0.05595321,0.03130314,-0.0745856,0.04763318,-0.031201351,-0.05257871,0.060107492,0.0017364032,-0.07909699,0.039439395,-0.09031662,-0.022144835,-0.0029594,-0.031194244,-0.035948716,-0.037201233,-0.043903627,-0.108906806,-0.09626429,-0.08829281,0.04914333,-0.0008090902,-0.09740326,-0.032936588,-0.044543438,0.049266733,0.028935634,0.032886572,-0.026627867,-0.029105704,-0.06040041,-0.05548048,-0.014239213,0.025066279,0.035654385,0.020336926,-0.03738848,-0.097339824,0.03257397,0.05229687,0.0033319378,-0.006860628,-0.019517452,0.017281126,-0.015658133,-0.09637976,-0.05843106,-0.056779183,-0.05336747,-0.010780763,-0.04102712,0.046815738,-0.019326434,-0.06693819,-0.023147602,-0.05869489,0.016272936,-0.051852554,0.011059685,-0.026330631,-0.09568748,-0.073595725,-0.04968419,-0.04332786,0.0124864,0.044854537,0.015268056,-0.05888462,-0.0049281223,-0.10158735,-0.07337648,-0.0021229612,-0.08171953,-0.05166147,-0.007961179,-0.06075916,-0.012108761,-0.044470057,-0.06321579,0.026172737,0.034974016,-0.06878245,-0.11627566,-0.03928727,-0.036930524,0.041469865,-0.097404346,-0.041332968,-0.0018584655,-0.028933652,0.03925004,-0.069157705,-0.10497073,-0.060328387,0.0010198159,0.013567101,-0.034800436,0.025935005,-0.048698317,0.03816206,-0.032083392,-0.023304932,-0.09990984,0.043959912,-0.08925448,-0.017095605,0.025234424,-0.052070968,-0.0031506713,-0.059601873,0.0014285968,-0.14323437,-0.075797126,-0.10631575,0.011901453,-0.13592902,0.006813422,-0.078869745,-0.06700753,0.055797093,-0.079569384,0.01926712,-0.009841533,-0.03465438,-0.09650041,-0.04490126,-0.046296418,-0.111368135,-0.079368666,-0.048458416,-0.11560878,-0.02828256,-0.0344697,0.023966711,-0.0291603,0.0045687733,-0.012569595,0.014355311,-0.013741268,0.031984925,-0.027912457,-0.031337686,0.057683803,-0.033322923,-0.05581857,-0.029426996,-0.086146206,-0.024823692,-0.035988547,-0.03317897,-0.11597791,-0.12046401,-0.09497762,-0.08779081,-0.07128914,0.023095738,-0.02040779,-0.042123977,-0.090224445,0.008496549,-0.08105834,-0.09162201,-0.0148531515,0.024477595,0.006438802,0.0013759846,-0.06578615,0.027004072,0.04567659,-0.030726401,-0.097242594,-0.036148712,-0.034758557,0.016268123,0.023396537,-0.09702654,-0.07800318,-0.03552959,0.002658593,-0.0069773803,0.14400831,-0.053789705,-0.022000384,-0.090304345,-0.031196494,-0.07935691,0.06565286,0.039561152,-0.054860823,-0.051650845,0.039252374,0.027665582,-0.04048357,-0.034847945,-0.028368993,-0.09121889,0.03476247,0.022304825,-0.00483937,-0.08020556,-0.06006577,-0.003206769,-0.12328918,-0.019040434,0.033632003,-0.034841277,-0.06203369,-0.015233936,0.004739629,-0.013923649,0.02895359,0.063599296,-0.007873248,-0.04580164,-0.034712195,0.02382027,-0.035135422,-0.097393304,-0.06882292,-0.09937872,-0.012914225,-0.011240054,-0.01598489,-0.030811476,-0.098261,-0.05986029,0.025234189,0.0312725,-0.114506036,-0.0046297815,-0.055474892,-0.007036181,-0.11018968,-0.105185986,-0.08802697,-0.01651078,0.005418353,0.002739301,-0.0652621,0.026057351,-0.036064066,-0.032561686,-0.010848956,-0.07612117,-0.0038084611,-0.025356438,-0.098628074,0.041580856,-0.08082466,0.0046747606,0.01703256,0.04939821,-0.052906625,-0.059416175,-0.03134013,0.01730707,0.00840424,-0.059620894,-0.024434835,0.029866055,-0.018342987,-0.040480167,0.029422332,0.021365076,-0.08065081,-0.045478664,-0.013316613,-0.027300678,-0.04936415,-0.10962908,-0.13758987,0.003694035,0.013672641,0.012815645,0.018222839,-0.05186858,0.07344265,0.019626025,-0.018670838,-0.042540774,-0.09401188,0.032588325,0.021070704,-0.052552484,-0.021844339,-0.04332409,-0.04523899,-0.0030998322,-0.0866368,-0.011228189,-0.062417917,0.012022938,0.019611754,0.0035616779,-0.10789055,0.078803495,-0.0027178708,-0.12991479,0.015148191,0.039412163,-0.04192534,-0.13169903,-0.14146778,-0.054784678,-0.032758452,0.014758417,-0.04466082,-0.1447796,-0.07280208,-0.0955023,0.0016881371,-0.027193055,0.040646046,-0.031230293,-0.042953707,-0.06146148,0.004828807,-0.05796406,0.052169807,-0.09814951,-0.07276242,-0.05020827,0.0023293132,-0.09874572,-0.0072199595,-0.02443469,0.016659584,-0.11012456,-0.008067461,-0.084083706,0.004830718,0.020704173,-0.054345842,-0.030323394,-0.06475595,-0.08692925,-0.05074738,-0.073170096,-0.08637208,-0.00126911,-0.040517673,0.00018255388,-0.10451506,-0.1509099,-0.10178815,-0.08285439,-0.026010644,-0.085347414,-0.057046354,-0.051007852,0.030858908,-0.020862397,-0.05770041,-0.103244886,-0.03163729,-0.046172924,0.03510975,-0.09544018,-0.101096675,-0.03841885,-0.09084508,0.060733497,0.027709255,0.01398683,-0.14299935,-0.02665351,-0.035807014,-0.036214516,-0.06766289,0.0106662195,-0.03482836,-0.08877933,0.03468813,-0.00053849374,0.003918873,-0.05726078,0.0014848169,0.03586629,0.008587964,0.051139887,-0.0064378707,-0.04918669,-0.045018625,0.036435336,-0.052474245,0.038361736,0.02018904,-0.03513377,0.040361535,0.034073733,0.043093137,-0.06946655,0.04425639,-0.06697808,0.049173407,-0.009335034,-0.024655327,-0.047105387,-0.065721855,-0.0071432544,-0.0023855292,-0.045507513,-0.046968494,-0.026738912,0.03466568,-0.03812156,-0.026817692,-0.065865874,-0.022907343,0.028733324,-0.053120013,-0.06317149,-0.020557221,0.049708106,-0.031562872,-0.023420416,-0.048764467,0.011449868,-0.016045593,0.02703622,-0.061619863,